-9 26 -11 -5 -2 -12 -19 10 4 17 -5 -12 -15 46 -21 -18 -40 -26 -20 34 10 51 -11 -8 27 0 -59 -12 18 16 28 -35 10 -41 5 -11 12 19 40 -8 2 4 -38 15 -22 11 11 12 -14 17 24 -22 -4 -10 -26 9 -31 -1 28 -32 -2 -10 34 -7
-57 -31 30 -47 26 16 -15 15 -22 -5 28 -30 27 -25 -10 30 46 -6 34 24 34 12 28 -1 -17 11 48 -26 33 -30 4 41 -8 -2 -8 -21 37 4 35 4 46 -54 -30 12 -22 8 31 -27 20 25 11 14 -26 16 -85 0 -3 65 1 13 -2 -15 2 7
69 47 -41 -11 -33 15 29 -89 -11 -12 -43 -29 -36 3 48 -12 1 -12 -14 -10 -14 -3 -67 -14 39 -8 -3 22 -39 -20 9 -61 -36 44 -3 -51 52 -11 61 -57 -25 11 32 23 -18 -9 6 11 -23 -66 -16 16 -3 -22 72 1 50 -35 -14 16 1 -8 -10 -28
-27 36 -1 8 -22 3 13 12 2 2 -27 -19 -54 19 21 -25 2 30 -16 -39 -34 -18 36 1 65 -7 -9 -16 22 36 -1 15 -30 19 28 40 -42 12 13 -18 -5 -3 -14 -36 -7 -4 -20 13 -22 -30 48 17 -11 10 41 -9 31 1 13 -5 15 -42 79 2
41 -3 -44 34 -38 40 -13 -86 -15 -78 -21 26 -30 -2 40 7 52 47 -34 -16 33 -15 1 -49 3 -27 -55 -14 -34 -11 -13 -24 38 22 7 -2 35 -5 22 8 -3 34 58 6 16 -31 3 50 -3 -70 -68 14 36 13 33 -31 7 -83 16 2 25 -37 -13 36
9 15 24 27 -9 20 19 -56 -21 21 -13 4 -34 -61 33 12 23 26 -18 2 46 -10 -44 31 -20 -17 4 32 -23 -19 -23 22 9 4 47 4 14 -27 -15 -19 -11 30 49 -9 29 -68 -39 18 -45 -45 35 -42 25 50 -38 27 35 -38 4 -16 5 4 -30 2
-36 -26 -24 24 63 25 -4 12 14 -3 3 -1 -6 23 -54 33 -49 3 -46 -23 1 15 17 -19 -39 2 80 7 -17 -76 24 58 25 3 -9 -23 -42 1 20 12 -36 -48 -51 -41 42 41 53 -30 -15 44 30 17 -52 28 16 25 -24 42 37 65 -27 47 -5 -7
-53 -14 -18 49 40 -49 28 32 -21 37 22 17 9 3 -5 -14 -37 -18 -19 15 -3 -17 30 23 -7 11 39 39 -10 39 37 -10 -37 -13 -1 -25 17 6 -29 47 -3 10 -18 -39 -29 23 -36 40 17 35 32 -20 36 3 19 4 13 54 9 -25 -24 -20 34 -42
-3 -1 -12 -14 -23 53 21 -3 13 42 -1 -43 -14 44 -14 5 -13 -2 -27 17 -13 -24 -36 -37 15 -40 -15 40 -38 -34 9 64 29 -42 -2 -56 -46 -24 -8 7 -48 19 -22 -30 28 17 3 36 -1 25 -11 -51 -25 -41 52 4 42 60 -21 26 0 23 37 -8
-33 -9 17 -7 47 -8 1 -15 -12 32 -23 28 10 -15 -22 30 -12 5 28 39 16 -26 28 -32 -48 -20 28 -35 -26 -34 39 12 -19 -43 -45 -38 -2 6 12 15 -21 -26 -10 10 -17 -5 -10 -15 6 88 -33 6 -19 43 -19 42 -30 48 40 28 33 33 -39 -20
-66 17 4 12 67 -30 -33 19 14 14 -4 3 -36 -27 -18 -8 -36 22 -31 27 -24 -29 33 -27 9 -3 -15 51 14 -57 2 11 32 -50 14 7 -25 -18 -4 3 -6 0 -53 -25 -22 -12 -21 -9 -9 24 18 -32 -7 4 17 16 -3 19 12 -25 -10 -27 31 15
10 -29 -2 23 -2 -36 -10 38 -42 -29 39 16 81 -50 -38 17 3 -3 61 0 -9 -39 33 -4 -51 5 21 -12 1 26 -15 49 21 -1 -60 -10 -17 2 5 -13 -23 -13 -12 11 -14 -36 -35 -60 -6 75 -58 24 -33 -14 -48 21 -28 54 2 64 -31 41 -29 -14
1 32 -12 45 33 9 28 20 -37 3 -18 -42 -60 -32 43 34 -24 28 -40 -4 -11 -44 -13 -29 -32 -38 34 12 -13 -10 -41 41 36 -12 21 16 -68 -39 -17 39 -36 -8 59 -49 17 8 -40 -20 37 -27 -10 -25 24 16 23 62 26 51 0 10 -5 13 5 -6
39 33 -16 19 -7 -10 -34 23 26 -26 26 17 -6 2 26 -7 0 -12 53 10 1 50 -33 14 30 -15 11 24 22 21 11 -2 -11 3 34 -2 8 -23 0 -11 -30 12 -10 30 -17 2 -13 39 -55 -16 17 6 29 -33 -17 -24 20 -45 -27 20 -52 -50 -15 39
-34 -31 -30 11 9 -4 -64 -9 29 5 30 -18 12 8 -25 19 8 -14 18 -17 -31 5 -14 0 -40 4 1 -19 25 -45 -3 55 -2 -30 46 -35 -12 47 71 -28 -40 -75 -48 -11 -27 2 92 -1 12 18 -29 7 -58 -23 -24 21 -43 -9 -25 5 50 21 -5 -10
-28 -44 6 -7 20 1 -26 41 20 10 36 17 -3 -11 -1 35 -26 41 -12 33 22 -19 5 -37 -31 -18 59 22 -45 -27 41 18 -1 -59 -9 -6 38 23 71 5 -46 -24 -28 6 24 23 83 -48 -18 71 -53 75 -4 6 -22 -16 -19 40 -4 3 33 5 8 -24
-15 -10 2 62 88 -28 17 13 -21 17 29 26 2 19 6 -7 -46 -16 -37 -32 43 26 8 25 -20 -24 -17 -22 -21 18 -14 12 -23 28 -6 -9 2 14 -27 -6 17 -10 -56 29 12 8 -54 -20 30 -2 -19 -29 -26 -17 -41 8 -7 15 19 17 8 12 -43 7
-26 -23 -29 -6 -15 -10 -9 -42 52 45 -61 40 22 25 -48 -41 -39 -33 -42 2 -40 22 -14 21 7 -57 -29 54 15 -2 37 11 -36 47 68 5 -12 71 15 -14 31 -14 -61 -44 -38 -36 34 9 8 12 24 -46 13 -30 23 24 44 26 33 36 -4 24 1 -18
-12 -4 49 4 -34 -14 41 -8 -23 65 22 -4 20 28 -28 34 24 0 63 -10 -9 22 14 30 -16 44 50 16 40 36 21 6 -20 0 -6 8 12 -55 -17 48 64 -30 -42 21 -22 -30 -41 -5 -19 -3 25 53 -16 -47 0 -35 3 3 -56 -21 -9 -40 28 28
4 16 55 -14 -23 -49 -3 -27 -27 54 76 -28 60 41 41 -14 28 28 38 -31 -26 -21 11 39 56 14 -17 13 -4 25 19 -20 -15 12 -24 -13 -23 -1 5 -1 59 -48 -16 7 -37 -16 8 13 -25 -19 -4 -36 -47 -14 68 35 -39 -46 1 9 -32 -13 -9 2
-7 -23 52 -59 -68 21 -20 21 12 -20 69 -22 4 11 -5 -39 -31 24 34 14 -7 3 14 31 42 20 45 20 15 23 26 -31 4 0 66 38 11 -11 21 -42 -9 -17 -40 -35 -35 -46 22 52 18 -22 66 -37 -28 -33 40 -14 12 -31 5 17 -38 -36 -14 -4
-7 17 -3 -74 5 -55 -32 -42 0 15 0 14 -18 33 -65 -5 -13 10 27 -9 -18 2 0 9 -15 43 47 21 62 -6 22 -18 14 33 16 25 -4 -19 -13 4 41 34 3 -3 25 -15 -24 5 63 8 84 35 -48 -2 -38 -29 -10 17 -37 -17 9 -21 11 -17
34 40 -30 -20 14 5 42 56 -17 -5 30 -30 58 5 -24 13 -22 -27 3 -18 -19 17 -18 11 27 -27 25 -10 10 0 -27 -20 -31 -30 -57 15 -12 31 47 59 -28 15 -9 34 22 22 35 -11 22 -2 -5 61 -28 -39 49 -13 -1 29 39 6 -19 20 13 21
-1 -36 -14 7 11 -9 5 3 -4 52 -6 15 -3 -2 11 37 -12 26 7 -6 7 23 -19 -17 1 14 14 5 25 17 -24 23 5 -33 -3 6 26 -52 -39 -30 17 -4 -10 -27 36 10 -19 -29 8 -9 19 -5 -1 -20 -40 -10 -6 33 -32 3 17 4 -5 21
-3 7 50 -22 1 25 33 -37 45 -5 -20 -21 -2 24 5 -14 31 14 -14 1 29 -34 -4 -11 20 20 -2 62 17 -20 28 59 -12 -7 -11 -26 -4 34 -44 -38 -7 -19 44 -2 -35 10 -43 27 -10 -17 -24 -20 -10 -6 -71 -10 2 -12 -19 17 -31 -21 -6 -4
64 32 -7 1 -15 27 -67 24 -9 -18 -22 28 16 -1 -46 -64 -52 6 28 66 44 -3 -5 47 -16 -3 -3 16 50 37 -17 -47 -65 29 34 -15 -18 -1 19 -40 -10 15 -70 -9 -59 -26 54 28 51 -20 21 -7 -65 -6 7 -1 50 -36 -28 -12 24 -5 -26 3
33 36 3 -56 -78 8 -3 -34 -6 -5 -23 -1 -8 5 -11 51 -15 -2 -26 30 28 6 28 54 -2 42 -7 19 52 1 -43 -11 21 31 39 29 -24 7 28 -10 38 62 22 -7 12 -26 48 21 47 -44 32 31 7 -6 -27 -64 17 11 -18 -18 -1 -58 3 30
-1 1 -15 -24 -21 20 -18 -35 20 22 17 -31 -17 30 0 -5 -15 18 12 4 13 -19 -58 19 36 47 30 -4 -23 -19 -20 -1 -15 -9 12 -48 30 1 -21 -20 -2 -33 22 -24 1 34 -9 25 41 11 -17 -4 -4 32 32 -16 58 -1 18 39 -2 8 11 19
49 6 27 -46 -59 -9 -47 8 -53 -21 36 -8 28 -9 1 23 16 33 4 13 19 27 -28 39 -26 32 28 17 2 2 -9 -50 14 25 51 35 -24 13 20 -13 28 31 -12 -43 -48 -69 3 6 44 -35 32 -11 -11 7 32 -63 10 20 -10 -45 23 -6 29 -14
-38 28 31 59 18 -6 55 12 -5 13 21 17 25 15 25 35 20 -23 -39 -45 -24 17 -3 -36 -10 -29 -2 -13 -58 3 -26 -14 25 -25 -70 19 14 10 -51 -6 -9 -43 31 12 8 2 -5 -25 -41 -27 -3 -5 35 -4 -7 27 -50 4 -9 -19 12 -16 7 7
62 39 -28 -17 -11 -18 5 -19 -21 25 -22 -1 21 -4 -23 -5 -26 -17 7 24 -27 -22 -34 22 -21 -9 15 30 28 12 -17 -47 11 -29 36 -7 -16 3 -13 25 -5 37 14 -5 9 -43 21 -33 27 -13 36 20 2 33 2 -37 2 -5 -10 15 36 2 -11 -51
44 -31 -5 -52 -20 21 -39 18 -33 14 16 24 -42 -6 -63 -12 -51 53 12 40 -8 -48 0 40 -15 42 -11 -7 11 -7 -39 -10 0 -14 37 5 -19 49 30 -5 -88 34 35 -1 28 16 74 28 7 -14 -6 -41 -48 29 21 -51 34 2 3 13 43 5 -28 -20
-62 17 -36 31 19 -22 9 14 3 40 -21 -39 -10 22 -3 -3 -14 52 12 -19 50 14 17 1 -31 -10 1 14 34 -14 -14 8 -33 7 5 -30 -50 29 37 19 -7 16 3 -24 24 5 -16 16 55 22 34 -20 -41 -11 -10 -29 12 45 58 8 -4 -27 28 -22
-35 -21 -9 9 -2 -13 -29 20 3 21 -22 -23 26 33 -12 -9 -46 -18 14 16 1 -51 36 6 35 34 17 -13 37 -47 62 37 -6 18 -23 2 2 9 -17 18 -8 -96 -27 -17 -17 4 2 -56 15 62 21 70 -18 -19 -43 25 -38 17 32 13 35 18 -26 -12
-43 -47 25 11 20 -11 -44 108 19 12 57 12 -8 37 -37 -20 -18 12 32 -7 1 1 10 9 -56 -32 -11 -14 13 -18 25 40 2 43 -8 14 -36 34 -1 -25 -16 -4 -79 7 -21 -17 23 14 23 65 36 34 -24 -38 -28 27 18 -12 81 -11 34 -2 -23 9
-28 67 -21 19 -6 29 -14 12 -28 8 -1 -49 -20 78 -15 -21 -30 29 5 15 25 20 48 -44 -1 -54 40 56 -69 25 -18 28 -36 13 -3 41 -66 53 -10 1 -23 1 -38 -44 70 -37 38 -6 22 -19 15 26 0 -28 3 16 -31 6 47 -26 39 16 -16 -13
-3 -1 -10 -17 0 19 4 -57 20 -36 -8 30 -16 0 46 40 43 11 -35 19 -37 -12 -26 -32 10 -7 -54 2 -41 8 -74 -34 79 -27 47 -15 11 -44 -19 0 15 42 40 -7 -5 29 -35 -10 26 -64 -19 -29 71 -31 40 -16 24 -48 -28 6 -10 34 49 19
7 43 38 -76 30 -26 -45 -58 12 -16 -7 2 -18 12 43 -4 20 -15 -2 -31 -17 -26 -24 41 32 -11 -33 -8 -28 -4 -46 -19 24 -42 17 -2 19 2 2 -17 -23 7 38 17 5 12 8 -37 -66 16 -41 -73 57 65 -18 27 13 -32 -11 13 -33 50 14 -13
-44 -1 10 23 45 35 -5 -42 12 -42 -19 10 -41 38 4 13 1 6 -29 -29 23 -10 -18 -30 -21 11 -7 76 -55 -14 -65 -15 -51 25 -3 -17 -23 -7 -1 -18 -6 6 -1 -2 55 -17 23 44 44 -12 13 -35 2 -8 41 -22 1 -28 27 -34 3 22 12 -5
4 -14 42 28 -35 39 19 -70 -4 -8 -28 10 -22 -61 16 18 79 4 -34 43 -66 12 -14 -70 -4 3 -13 51 -5 0 -108 18 53 1 -2 -16 13 -43 -13 -13 25 45 66 10 -7 -69 5 -1 -6 -45 -71 -27 41 -23 37 5 25 -13 -53 22 5 30 11 22
-17 52 -1 -51 -20 -24 18 -36 47 -35 -22 14 7 3 -39 -3 6 3 -28 11 14 7 -26 9 11 -1 33 -34 5 44 22 -44 16 -18 -1 -38 8 33 -3 1 37 50 -3 48 17 -1 -58 46 -30 21 -27 -6 8 4 20 -31 11 -27 4 -9 -50 -2 30 -11
76 49 2 -28 9 9 -4 -109 15 -12 1 24 6 -16 47 23 54 -37 1 1 4 -36 8 34 31 30 -12 32 -6 35 -3 1 50 -52 49 4 49 5 -20 -23 24 42 52 64 9 -22 13 -18 -55 -41 -38 -33 50 -3 32 -50 -27 -19 -79 6 -31 2 25 37
-34 -8 22 -42 -32 -24 12 15 -5 -36 -44 -9 35 19 -25 -17 29 31 43 14 24 33 14 4 -11 45 40 -20 -15 4 -8 38 -68 -17 13 1 -4 12 -23 -21 -25 17 -8 -9 -17 -44 -24 -32 16 13 59 7 -17 23 -32 -51 28 57 -9 4 32 -41 26 -12
20 34 -37 8 19 -6 -6 -44 -41 -9 12 16 -11 -5 10 -9 4 12 -63 -8 -20 8 28 5 -14 27 4 22 -21 50 -71 16 -7 -34 38 6 -53 24 15 -2 5 80 26 30 49 -46 -24 28 5 -23 11 -57 40 26 39 -22 -14 -49 -17 21 26 -11 32 -9
7 10 -16 -7 -45 44 -26 -24 -28 -13 -29 -4 36 -48 37 9 19 -38 -38 -9 29 1 23 -25 -18 38 1 -35 33 -22 1 -2 1 -5 0 -30 14 -33 -2 -24 8 1 78 40 -25 -15 12 -31 -13 -47 -34 -6 -14 17 -25 -19 -25 -18 -23 16 17 -41 -31 19
-16 1 -17 -56 18 23 -25 -60 9 40 26 9 35 17 -34 30 -45 -13 57 -42 14 -41 -7 39 21 -53 16 40 -20 -19 0 -10 5 -13 9 18 87 2 -3 -51 -26 -20 13 -3 18 17 62 7 -85 -14 21 25 24 -7 -11 -45 -31 -2 -54 -9 15 2 -39 -43
3 -26 -10 -56 -19 -6 15 31 52 7 18 -45 6 78 -44 -74 -59 52 10 3 3 -24 4 -4 23 -24 31 -9 9 -18 40 13 -41 -4 -24 22 3 -4 -29 7 -36 -33 -66 -57 20 59 47 5 -25 63 60 32 -9 -41 16 12 17 3 52 -29 -8 30 2 -9
8 36 11 -6 -50 -5 45 -38 43 -2 -5 62 20 -49 -16 12 28 -44 7 54 19 -46 -32 72 25 66 -54 -9 16 -12 -14 -69 -10 21 20 -11 42 11 -9 -9 48 4 2 24 -45 -14 51 8 -54 1 -51 11 -11 28 0 3 21 -61 -56 44 -42 -10 -34 6
4 -16 18 -15 3 -6 14 67 -43 31 37 -62 -1 18 53 28 18 12 -6 -21 6 30 17 2 -9 -8 10 19 7 29 -81 60 0 -25 7 -9 -121 23 -21 36 9 -16 -47 3 1 -35 31 12 -17 46 34 -42 0 -18 -22 8 3 37 12 -6 -49 -31 44 24
-19 -17 16 -55 47 -40 30 -36 -31 39 24 -7 44 12 16 19 -33 -34 -15 3 1 7 20 -4 17 10 -5 -8 34 -5 -30 -50 24 -10 -6 10 -20 -27 -19 32 -7 13 -3 14 45 17 0 -1 -8 12 -14 21 10 -6 16 0 38 -3 -5 -14 -24 -13 -13 -56
37 9 -55 -14 -7 31 -8 -58 50 12 3 30 -18 24 -19 4 -5 -33 -2 36 34 -31 -42 6 -21 38 -6 -18 -77 18 40 -60 -4 -8 -5 11 114 20 2 -13 -1 -22 53 -6 -4 46 -20 7 6 -28 -23 26 7 8 -24 -29 -19 -4 -3 43 44 30 -108 -5
-39 -6 4 35 56 -42 11 38 26 -35 -4 -27 -7 -76 12 15 36 -2 -78 25 56 -52 4 14 -13 -11 -25 -25 40 -16 7 51 37 1 -24 11 -12 4 10 54 -22 11 33 42 17 -33 -27 -8 -18 35 -55 -12 27 35 54 -6 2 5 37 32 -54 30 33 -35
4 -30 3 13 33 -50 2 14 -7 0 13 3 6 5 19 -10 -30 -5 5 -2 26 -41 -48 -24 -4 -31 13 13 8 13 -20 -14 27 -20 -5 12 -38 29 -12 47 -1 -30 23 25 -1 34 9 22 -13 10 3 -33 25 19 23 37 -6 -13 48 -2 -7 -13 33 -19
-24 41 39 -55 -22 -13 -9 41 -56 20 19 -66 22 -5 28 -18 -3 11 25 -9 -42 31 45 -5 2 -33 35 -12 3 20 -21 22 -30 22 34 -25 -59 -2 47 -27 -22 -14 -23 -27 13 -18 21 -3 39 33 -6 35 17 -19 33 21 45 -15 -14 -24 17 3 56 -4
-34 5 6 71 8 -27 43 -56 26 3 -17 2 15 -12 -10 2 23 -24 5 7 -17 31 -59 -21 -10 -23 -46 -11 -41 5 -14 -59 44 34 -50 -18 41 30 -61 21 31 -20 6 34 -16 0 -28 -13 22 0 -15 -42 44 20 -38 8 14 -14 10 5 21 32 -25 7
59 -10 4 -34 -29 -7 -29 -14 3 5 -30 10 41 11 26 -37 -7 -41 -19 -40 27 -1 -6 21 -34 30 -3 20 20 -14 -28 -65 -4 35 30 19 -27 -3 16 -37 7 -50 -38 6 21 41 43 7 14 45 13 13 7 20 38 -24 1 14 -26 -5 30 13 47 -15
-31 -31 -71 34 51 -29 -21 18 -8 23 -24 -17 60 -45 75 -5 -27 -40 -62 -19 11 -21 -19 -5 -38 9 -69 18 57 -31 19 61 58 35 4 8 -23 -8 36 48 -25 -47 -13 35 9 -12 -39 12 50 46 -19 -23 -43 4 -2 28 -31 41 58 37 -39 -31 -26 -23
-9 25 -26 2 -2 17 23 56 -30 -9 -37 -54 11 -3 13 46 10 -1 33 26 -19 8 25 -7 -2 18 10 54 -21 -13 -45 59 8 -31 -22 21 -92 -21 -14 37 13 5 -52 -33 23 -35 20 -19 -17 19 -8 -28 5 32 -2 -1 7 20 16 -1 -48 -45 83 2
33 3 31 9 -20 8 -31 22 18 33 -1 7 11 6 -37 -51 -17 -25 -3 1 29 16 6 29 -26 6 -4 28 -1 -5 26 -3 -3 16 -5 -18 -1 -23 28 -39 -34 -4 -45 28 -7 24 32 24 4 17 -7 -22 12 -12 16 24 -8 -29 -8 -22 -10 -7 16 -5
22 -12 20 -24 -51 48 12 -14 -20 -26 36 37 23 65 -31 1 -28 50 19 -44 -50 9 4 33 30 8 39 -19 10 3 -10 -38 -64 15 13 9 -9 -29 35 -45 7 4 30 -39 19 -1 26 -9 -25 -17 19 35 31 -41 42 -8 -20 -38 -32 -10 -19 14 -5 25
0 -16 -1 5 10 -36 -57 2 28 22 -6 48 -5 -28 -17 -26 -13 -51 -30 -37 34 29 -58 -4 21 17 -34 -18 -18 10 43 -78 -26 -18 -18 -27 66 25 -23 -16 26 -5 -13 15 -26 8 -1 10 -2 12 -22 -8 43 3 5 7 -42 -45 -13 54 59 28 -69 -37
9 36 -46 -5 -2 22 15 49 -46 28 -8 -18 -32 25 11 16 -29 -15 29 -12 -3 11 48 17 -60 -17 38 11 27 20 -2 2 -49 3 57 16 -9 30 34 -7 -35 -5 -56 20 -20 -39 21 -1 -3 -11 2 -6 -17 27 3 12 24 8 -26 7 -6 -1 23 -48
-20 -27 32 -6 46 -70 33 7 -22 14 -15 -14 23 -22 68 21 9 -42 15 -7 -19 -19 -18 -6 27 -23 35 -24 -9 8 11 -47 28 19 -18 9 -40 -11 -29 69 32 2 -17 -16 -12 34 -7 2 -16 64 9 -11 35 -13 -31 46 -35 27 56 -9 24 49 -39 -11
10 -9 19 -6 -6 31 28 -86 73 4 -33 17 28 10 6 37 37 -23 -15 40 15 17 -98 12 62 -4 -21 -54 -63 16 62 -52 26 -58 -40 14 66 12 -14 1 -4 -25 76 -5 -12 38 13 24 -11 -58 -50 31 3 -53 -23 38 -90 -46 -30 43 36 58 -127 -24