-10 -19 -15 36 17 3 25 -12 7 1 -2 46 42 -21 -17 18 -2 -24 -18 -5 -19 18 15 -26 -42 2 -14 30 24 -25 -16 19 -10 -20 37 -30 -17 -27 4 -48 7 4 -8 -13 -20 -25 -16 14 0 -10 15 48 -3 18 38 4 -2 -15 -12 -2 -54 44 14 1
10 -30 -7 -1 13 -30 -3 24 -7 -8 24 -8 -29 5 -8 -14 -16 -3 18 22 35 -35 1 -11 10 -38 -27 27 8 -23 -11 -13 -7 -7 -7 9 -21 3 0 13 20 11 -1 -32 -34 4 21 23 37 21 4 56 -25 4 54 19 35 19 -6 0 37 38 1 -31
4 17 55 7 2 -26 2 -27 3 36 -36 -29 -29 -11 -16 -4 15 -50 -33 -22 -15 -75 29 -14 26 3 3 -2 -17 -5 -14 -8 9 10 1 -1 -24 15 10 13 -25 21 53 35 31 -7 -26 -21 42 -17 -42 -23 28 23 2 -12 12 1 -10 8 10 -10 31 -7
-7 13 9 -27 11 12 -13 -11 29 32 33 -28 32 7 -17 -18 -10 -15 6 -9 -27 -47 -15 -19 24 -9 21 45 -5 -3 -3 -17 20 -38 -14 9 9 6 -30 20 -23 21 -12 5 -20 41 -12 9 -41 8 -6 -24 -13 -6 7 -29 -12 -28 -28 18 10 8 -22 -13
-11 -11 -5 -9 -3 -3 47 -43 10 -6 9 -35 9 -21 -8 27 25 -12 -16 -36 1 9 37 24 -52 -23 -10 -9 40 -14 4 5 -2 24 -61 15 10 5 -28 37 23 31 26 -11 10 -52 -54 25 -2 -16 -20 -5 -5 21 -34 -16 -26 20 42 9 -8 -5 -13 -1
-6 -32 4 43 42 -22 20 3 -6 42 75 47 -10 -76 -30 -25 3 -57 24 8 15 28 1 -17 -63 -4 29 68 45 29 6 48 13 -11 55 -6 -13 10 -26 2 1 20 3 12 13 3 -23 -14 -9 28 60 56 -4 56 -28 -4 15 -12 -7 -11 -40 -36 2 2
1 3 -30 15 -3 9 39 13 50 19 18 32 -5 -7 -7 -3 -24 -11 13 28 -45 -10 -19 -29 32 -20 3 -21 -13 -7 28 -28 -34 -2 4 -25 -6 39 16 10 7 -28 -3 -34 1 -2 11 -15 -27 25 -5 41 -8 -1 36 9 9 21 26 -12 8 32 -13 -8
-8 -16 4 30 48 -27 7 -26 14 -15 19 -4 15 12 7 3 43 1 -46 -17 -4 3 -36 8 -8 -30 39 -12 2 -16 -8 -12 20 15 1 18 -30 -4 -27 35 33 -4 -3 28 28 -9 -34 -11 17 9 -19 -4 3 -9 -10 16 -12 -11 46 -7 -36 19 18 -16
14 -8 26 -6 -24 -17 6 4 -1 11 28 -12 -4 33 -2 -4 -41 16 65 3 0 -10 -24 26 26 32 27 29 9 21 -19 2 -69 -12 67 18 -32 -16 -9 -2 36 16 -43 -19 24 46 3 10 -4 -27 27 1 -1 -20 27 -23 41 25 -33 -9 -36 -26 29 19
36 3 -16 -38 9 22 42 -6 36 24 -4 -32 9 23 -32 5 -2 -4 20 -7 3 -38 13 -4 -9 -1 49 -14 -38 -39 -16 -1 -18 -56 7 -26 -1 34 6 6 -45 24 -9 -36 -17 32 -23 15 -17 -34 -19 21 -25 10 40 5 66 8 15 33 -19 13 21 -14
4 -25 -44 6 4 -5 34 -25 -1 -27 4 -7 14 -16 -10 -28 29 -22 17 -8 53 -4 -19 8 -13 -28 -22 -18 -8 -2 -17 -20 -10 41 -18 57 9 -23 -42 -15 4 8 0 11 -23 22 6 4 31 -26 -17 -29 -5 -28 1 12 -14 1 -31 28 6 18 11 20
30 -10 -3 -35 -12 -25 9 -9 -7 4 11 -19 25 70 -23 -1 -3 47 30 17 -15 -4 4 -46 1 6 58 -1 40 -42 -21 50 7 25 -32 42 -3 -2 -3 -25 23 -27 -8 -18 -23 -11 4 22 -2 -7 -14 18 -24 -31 44 39 3 64 7 -57 -48 -26 34 -10
1 32 24 -5 -23 21 9 48 -14 7 60 -20 -17 15 -19 -5 0 51 35 -57 -28 35 16 -26 18 -12 21 10 -20 -5 -7 -1 -23 -21 42 -34 -21 25 57 6 -10 -6 -33 -9 26 13 3 10 -36 19 8 14 -25 -19 29 6 45 1 -11 4 -7 -3 -2 4
16 11 -33 22 -3 26 -11 5 48 21 4 3 0 18 4 22 -12 6 -31 13 -17 -53 -4 5 -3 31 19 -4 -41 -35 -6 14 -8 -18 20 -36 -27 37 37 0 -19 4 -19 -28 -4 46 -26 -6 15 48 -55 36 -11 -3 31 -2 39 7 6 31 -4 27 17 -11
67 0 -25 -16 -1 35 1 2 39 -9 -5 -5 11 -7 -10 -9 36 40 -12 -60 17 -15 13 -35 -5 -24 -62 61 35 -31 38 60 15 38 36 -13 21 -8 60 -21 -69 -72 7 -10 -10 -24 -34 -11 -7 1 -38 -69 -6 -43 37 2 50 36 31 -49 -86 -26 21 -10
12 -34 -9 -13 -24 -2 5 18 25 -22 17 -3 -3 2 29 7 -13 22 -2 15 27 -49 -6 -23 18 -23 1 30 8 20 -2 -24 32 -35 8 -42 -13 14 -4 -21 -47 16 5 -4 -45 34 31 45 60 -17 -21 37 -28 7 0 -5 8 -16 -12 9 28 1 15 10
-20 -6 52 28 -2 -1 -10 39 -26 9 36 2 20 51 -49 -43 -12 -11 33 -26 17 27 5 8 -17 18 24 -3 34 45 -32 -5 -18 1 37 5 -24 28 -10 18 40 -11 -77 -16 17 25 11 27 -1 6 59 -2 19 -1 -15 -12 -29 -18 -2 -20 4 -2 14 20
-39 -33 63 -18 41 -51 -18 17 -13 -11 -36 21 31 21 28 -42 8 -25 8 23 19 47 -16 51 -19 34 -48 -43 48 29 27 -1 37 44 5 59 -2 -33 -36 15 51 6 -24 31 -41 -30 -34 23 -6 37 40 -24 35 -60 -34 32 -35 50 -18 -24 1 -30 -32 8
39 -1 8 -23 -34 39 -8 11 39 29 9 20 20 4 -25 6 20 4 18 6 -65 16 21 -56 8 3 48 37 17 -9 -10 -19 -15 -19 45 -32 11 -2 -22 -28 38 32 -30 -43 -24 13 -5 30 -28 -3 -31 -1 -7 -41 66 -14 27 -33 -26 -8 -7 22 -7 10
-58 -46 -33 51 4 -15 34 -13 59 -3 -6 -8 34 41 -40 5 -26 -18 36 43 -31 -13 -26 -7 -25 -5 27 -18 -47 -26 -7 -53 -9 -9 -25 13 -28 12 -25 15 37 42 11 8 24 32 63 27 12 9 3 42 21 -19 -7 -4 -48 17 62 45 56 52 -34 -37
6 -9 7 0 -8 -62 5 5 35 23 -26 15 22 27 -1 25 -11 7 37 2 -13 -38 -3 18 -7 -24 39 -49 -12 -13 1 -35 -13 7 -41 -12 -20 -4 -18 13 26 23 24 19 -3 -22 -1 18 59 5 -22 23 26 -60 3 2 7 16 -19 -29 15 -31 12 34
-23 38 -25 -36 15 -23 12 -36 49 8 -68 11 -18 23 -1 -13 10 -14 -48 42 -3 7 13 5 -31 -12 32 -25 23 -10 16 6 -1 7 -40 -6 -8 4 -53 -4 28 19 16 32 7 -33 -21 -7 9 25 13 0 5 -21 -21 5 -12 55 21 -5 -16 -34 -10 42
-29 -23 33 -8 19 -2 30 9 -13 47 13 52 30 3 -10 -4 -22 40 44 3 -37 -21 8 -30 21 7 9 30 0 2 -7 45 -22 -35 31 24 -19 0 -36 29 15 -18 -31 -46 -8 34 5 11 -5 18 4 0 12 21 -20 -17 21 8 -27 8 -30 5 -5 35
5 -18 18 9 23 35 12 -1 21 59 -1 -28 54 1 -9 -26 2 -34 42 -1 7 -2 37 -15 8 14 7 24 8 -23 41 -4 13 -34 11 30 -15 -1 23 15 -25 -14 -6 -8 11 -9 -14 11 -7 36 -16 -38 16 -8 -17 29 -24 -8 -11 28 16 19 -12 -28
4 -10 -34 23 -31 0 25 -10 21 -12 -5 4 0 49 -20 10 -24 4 22 -11 -9 3 16 -27 5 32 44 -1 4 -29 6 10 -20 3 -21 -16 -1 -1 24 -19 37 -2 3 -48 -9 -12 29 11 21 17 -4 20 -10 -23 -4 -9 -9 28 -7 -14 6 -10 3 24
18 -27 9 -1 22 -51 6 16 -23 -14 15 5 -4 3 -3 8 8 22 19 15 13 -13 0 14 20 8 25 16 -15 10 -4 11 1 -1 37 24 -43 7 1 48 -24 -4 -15 -17 17 13 16 -2 -7 -22 6 24 -7 -3 -35 4 -10 -31 -3 14 3 -9 6 24
-10 6 35 -19 5 31 -22 32 -1 19 -20 -26 -4 36 -5 -6 -24 10 40 27 3 -6 -23 42 9 -8 35 74 -14 3 11 10 -10 -9 44 6 -6 -18 -22 -6 4 -15 5 -31 2 7 1 -4 -10 3 -7 -53 -16 -4 5 -11 42 -2 -20 57 -7 -20 -19 40
-18 -18 12 -11 -16 13 12 -5 15 25 16 -56 34 45 -23 -8 22 25 -7 20 -1 -20 -28 -7 37 -48 46 49 -8 -38 -12 19 4 -43 27 15 16 6 -7 13 -46 3 -20 -11 9 28 -31 -25 -8 12 -18 -16 -28 -17 -2 14 27 -7 16 21 1 68 -5 -10
-7 -37 36 -1 28 -22 21 -7 18 71 8 -53 0 9 -16 -37 -16 -30 17 -3 -11 -19 25 0 -17 11 38 28 -13 21 -14 26 0 12 -1 16 -3 1 -47 38 45 -1 5 21 36 48 -50 -22 -5 22 6 -23 28 0 38 7 1 -24 7 19 -21 3 -1 -4
-10 11 -22 -8 -30 -32 48 -17 46 -34 14 37 31 1 -9 28 2 -1 9 25 -23 19 -28 -1 16 -2 15 -40 26 -6 -5 -19 1 7 20 -14 -14 -3 -13 -38 44 35 5 -22 2 -37 46 14 20 -26 0 31 1 -33 25 4 -22 1 -38 -10 30 18 -3 43
43 20 -45 13 6 28 10 24 31 1 -22 13 -33 54 -18 -5 -59 43 -6 -26 7 -31 -17 -20 18 24 17 4 -27 -70 29 21 5 -11 -13 -29 2 4 98 -27 -49 -28 -27 -36 15 20 18 -5 -31 -21 -3 -40 -36 -8 37 -3 -5 27 -3 21 15 25 -3 2
43 -27 25 17 -61 77 -34 13 58 -13 -17 -27 -13 68 -17 -19 -20 34 -33 -35 -13 -10 10 4 22 1 -51 -3 15 -13 40 28 -30 18 23 -23 7 11 61 -44 -27 -34 8 -28 31 19 -13 19 -14 -8 -55 -30 -1 -33 46 13 85 6 -10 -5 5 -3 -26 10
-19 -18 0 18 22 5 11 30 48 15 3 -1 -4 29 -40 11 -21 25 2 28 -54 21 4 7 -20 -8 29 -7 -3 -20 4 2 -13 1 37 18 -2 6 -10 5 2 -3 -15 -10 43 40 28 4 27 14 -9 3 -22 -3 -12 0 -2 47 -4 38 8 -8 -1 24
1 -19 17 36 41 -5 -10 3 -46 27 60 -23 0 -48 -35 -16 -36 -54 -7 20 43 -23 21 0 -40 -34 27 35 -6 15 3 1 10 8 3 28 -12 -9 -34 20 -31 12 11 22 -3 10 20 -20 28 31 52 15 -22 11 -11 8 3 20 29 13 -5 -13 -8 -2
-19 19 18 8 25 31 4 22 11 28 -13 -21 -10 -5 -15 6 14 23 13 38 17 -33 -15 -24 -22 0 39 25 -6 -21 -40 35 -5 -13 28 0 -20 -8 -27 15 -15 -10 1 -8 37 37 -10 -32 13 31 21 -11 -14 -6 -29 2 41 22 20 11 3 4 1 17
-38 -7 -36 -28 51 -1 6 -22 18 -22 35 -7 2 -18 1 -5 15 26 2 -47 18 54 16 22 -37 12 13 18 -1 -30 -13 -36 3 23 7 -72 -21 -8 -6 -39 -11 1 -32 27 -15 -28 -24 32 10 -26 7 2 28 -49 8 -28 30 28 -29 28 -12 42 28 15
-21 -30 0 -14 -16 -17 31 -31 24 -25 -27 -35 19 20 23 -24 30 24 -19 -11 14 24 19 -24 -13 -18 13 3 46 14 -4 10 26 -12 14 -8 -4 11 -13 9 -23 5 3 -8 -22 5 -28 -15 39 4 -14 -16 34 8 19 -7 -10 7 10 -26 -7 -8 11 23
23 39 19 -14 -26 13 -25 18 -12 66 6 -21 -31 -5 19 -34 12 37 37 -49 -14 18 -5 31 33 -10 -2 -22 -22 1 14 -24 -14 -22 18 -26 29 14 -12 24 13 6 4 -10 -10 -14 10 -16 -12 11 24 -9 -13 -24 33 -22 1 -25 -31 18 22 3 15 -20
-8 -24 -4 -4 -37 11 29 -15 -2 -1 19 -19 17 24 15 25 1 14 18 -11 3 29 7 -24 20 -1 5 6 18 33 -36 -8 16 -21 6 6 -9 -37 9 15 26 1 22 -12 -6 -18 22 -21 -15 -26 -7 1 -15 -1 -7 12 7 1 -44 -2 -19 14 16 15
-3 14 -5 -29 -9 2 36 -9 36 -12 8 36 -12 4 22 20 10 32 -18 52 -4 -11 -25 -53 0 30 25 1 -7 8 -17 2 -19 9 -18 24 -44 -53 -5 18 12 16 -12 -32 8 29 -3 15 -7 7 -17 31 20 -8 25 22 7 14 -6 20 -9 -17 20 46
-4 -28 1 15 13 -1 9 -10 -6 -17 39 21 65 2 22 17 11 -10 31 -27 -18 -10 14 -12 -47 15 18 -3 -7 -26 -23 4 -8 -15 48 -31 20 -25 24 -27 -4 -28 -29 20 -18 17 53 29 -11 10 -44 -2 -11 19 29 -3 -8 -25 -58 17 0 11 24 -3
20 -29 46 -33 -21 17 -12 24 -35 -17 24 -27 10 42 -14 -61 20 38 32 4 7 27 -18 26 31 44 12 -10 23 2 -17 -8 -36 4 16 38 -35 4 21 21 26 -19 -42 -29 -27 -17 -7 2 19 17 41 -55 9 -36 -13 -5 39 47 -16 -15 -3 -40 -5 12
21 -24 -7 -13 9 51 15 -5 -36 -15 7 -4 28 -36 -34 -9 1 -40 2 34 51 -28 38 -17 12 21 3 52 -13 -7 -16 1 -15 4 20 32 -19 -15 -19 11 -14 11 -2 15 19 35 -3 14 0 14 -2 42 9 -11 23 -9 10 -17 -29 33 -6 30 -14 -4
3 15 8 18 9 21 -7 31 20 -8 29 -6 1 -11 8 -27 -13 1 14 6 -17 -15 -1 -28 9 -27 2 -12 -11 -20 -17 16 12 -33 22 -34 34 11 -19 10 -13 17 18 -28 -1 54 -3 20 1 33 -29 7 -12 -20 -5 -2 13 -9 -4 8 23 28 10 6
36 40 -1 -22 6 52 -41 -9 37 60 -21 10 15 -7 14 4 -7 11 26 -37 14 -36 3 10 1 26 -2 4 -9 -28 25 0 -20 -42 22 -64 -16 11 33 2 -11 -42 -17 21 -1 -11 15 1 -50 42 -5 -19 -1 -12 22 -2 18 -28 3 14 22 45 -6 -26
-26 -39 17 46 33 -2 24 28 -16 14 13 -25 -15 -29 15 -9 12 17 19 39 -24 7 10 -27 -34 -31 -4 -31 26 30 31 29 23 -39 -20 -26 12 42 16 12 6 -26 5 5 14 -24 -27 -26 1 26 -22 3 11 8 -30 39 -26 -8 15 11 27 16 -24 18
-21 -13 17 7 -8 15 -45 59 -38 4 -19 14 31 40 -17 -22 -52 9 2 -7 15 48 38 25 -21 44 -25 3 28 -32 4 6 -24 -5 35 3 -13 -2 28 -37 0 -20 -66 -31 1 2 9 16 1 -15 37 8 -10 -15 -17 -9 -11 -4 2 -26 -23 -14 26 -6
-11 -14 18 16 -14 44 7 20 -36 1 24 -22 -1 59 8 -8 -18 27 26 3 1 2 15 3 6 -35 54 24 -53 -6 -27 7 -6 -33 -12 -6 6 25 19 13 0 -20 -24 -36 20 -8 10 19 -17 22 4 19 -2 -53 -14 -7 15 3 3 24 37 13 16 1
-4 -46 -7 -22 24 -17 -29 29 -21 -12 6 10 22 6 32 -28 12 1 -26 37 3 32 -3 -27 8 21 -45 -1 21 -11 35 17 -11 40 50 41 1 -25 22 -21 12 9 -27 28 -26 -39 25 8 -1 12 11 -44 20 -49 1 8 -32 26 -3 -29 -21 47 -10 -30
-19 -29 10 42 27 26 0 12 -25 25 -13 7 33 -9 17 -48 11 30 22 23 -16 24 6 -25 20 3 -4 12 31 7 36 1 -3 6 -1 14 11 4 41 22 29 -23 -3 1 -26 12 -7 -2 -1 14 -29 9 23 -7 0 36 -21 -33 1 47 6 28 -49 5
0 10 -32 4 -35 -15 22 -14 54 -38 -19 -16 16 19 27 26 5 8 -63 37 -18 39 4 -21 -31 -6 19 -28 43 -3 3 8 22 31 -73 -29 -1 7 -20 5 -17 -4 23 16 -5 -20 -31 -18 11 44 -33 10 -2 9 11 -20 -15 55 8 -21 -33 -5 -5 29
3 5 6 13 30 22 -12 3 -19 42 -4 -20 -42 28 -4 -36 35 2 -21 -37 -29 -12 -52 10 -2 -18 -25 17 10 -24 25 13 33 -15 47 -24 -24 -16 22 11 13 1 -23 23 4 -2 20 -28 -25 -11 11 -33 35 5 9 -19 0 30 -4 -11 13 28 13 -6
-5 -34 15 13 0 9 -5 6 7 -19 -20 21 -3 13 27 32 -27 12 4 6 -8 -22 13 -15 -25 -5 18 0 15 -8 8 -1 14 1 19 -3 28 -27 31 6 -14 -19 6 -36 -8 34 2 5 -19 28 -30 -8 18 21 7 19 -29 -27 -29 8 29 16 -5 -10
-4 -1 -4 -26 -32 -23 11 -8 32 -16 0 -32 15 30 21 19 1 29 -33 4 -26 -25 26 -42 20 -49 15 -3 -9 -19 -42 17 17 8 -5 4 15 1 -23 8 -3 3 29 -29 -10 4 -8 30 -17 4 -44 46 -4 -10 -3 -22 27 12 7 -20 -31 32 15 12
-6 -27 46 8 -27 8 -2 18 32 39 44 -17 24 -28 -30 -11 -8 -12 -22 -26 -15 29 26 -25 16 -1 0 48 24 -4 17 46 24 -15 32 -14 21 1 18 -29 -5 -10 -13 -14 -11 -8 -11 5 -17 -18 -15 -2 0 -2 -8 30 61 -16 -26 -39 -90 -13 9 -28
21 8 28 -11 -10 18 47 -20 -29 35 -45 -40 12 -10 -8 -10 10 9 -20 -7 -10 -37 3 0 35 -17 -5 38 3 40 -10 -21 18 -13 15 -9 -7 -32 -13 54 8 9 25 5 17 -18 20 -16 11 -35 -8 -18 43 -3 18 13 -3 -15 -20 24 3 11 6 -6
-21 -36 -39 40 -23 -11 6 -16 16 -28 -2 26 -28 -29 42 14 2 -1 -21 38 3 -34 -29 11 0 2 -35 5 -11 -24 -22 21 6 6 6 31 23 -48 45 -10 13 0 3 6 -46 7 64 20 28 13 -1 23 -45 -9 6 10 27 0 -13 0 13 -11 -8 6
-19 -39 15 -1 -9 1 26 -6 13 21 30 20 0 19 -14 -33 16 -17 8 -9 11 51 15 -9 3 1 -20 -31 17 -19 -5 11 15 -19 -23 2 4 -23 34 15 33 -8 -33 -22 6 7 1 -5 -8 21 -2 4 14 4 9 35 -15 -16 -41 -32 4 -23 -29 -39
-55 7 -10 4 -22 -14 31 -12 33 -29 -4 16 27 33 -14 0 -21 9 -32 18 -22 14 -29 -8 -16 14 32 -28 9 -15 -9 -33 -14 -3 -28 9 -36 27 -9 -2 49 -16 -22 -17 -45 25 26 -6 44 37 -8 22 36 -26 2 22 -5 53 7 -8 -27 -13 -15 52
27 -15 -10 10 5 52 -35 4 17 25 0 39 -16 -58 -29 -26 -7 -8 -8 -10 48 -31 13 -3 5 36 -31 52 46 -24 48 53 -28 -12 47 -45 -18 -8 61 -60 -47 -20 -6 24 14 -15 22 -21 46 30 -13 -28 6 -9 49 -29 55 -6 19 38 -20 -15 26 -22
-14 -7 5 -13 19 -14 13 12 61 39 18 47 3 12 -12 0 12 16 16 11 -64 13 14 -29 4 7 15 25 -31 -23 -22 -8 1 -51 55 -40 2 8 -29 -22 -3 24 -30 -45 0 4 11 60 -5 -10 -37 -17 -2 -33 39 16 9 15 -27 16 -30 9 -4 28
-54 -14 -24 41 -10 -10 62 -13 58 -37 -39 12 3 76 -35 56 -64 -13 7 51 -11 -40 5 -22 -44 -3 26 -48 -27 -55 17 -15 -2 -5 -14 -6 -12 3 -19 21 10 25 -45 -17 21 8 47 20 12 21 -46 40 20 -1 16 28 -48 40 49 36 79 67 -9 -4
-30 -36 19 37 -7 -33 15 8 -24 40 15 16 -2 12 11 -35 29 25 -9 25 -13 16 -24 -29 -5 8 -25 -24 9 22 4 -36 -13 17 4 10 -9 -7 18 17 15 -11 -20 1 -32 12 -6 3 5 9 -52 0 24 -19 -2 51 -11 -40 -30 0 -25 16 -31 -12
6 -17 -7 17 -21 14 -6 47 4 -1 22 51 -31 -16 5 -14 -35 3 37 8 8 1 11 10 -15 -22 6 25 -9 31 -4 -11 -4 19 34 2 -49 -22 -1 -17 29 -17 -28 -20 3 -9 27 22 -1 -15 32 19 0 22 -12 -4 28 -18 -6 20 -12 6 16 -12
17 35 -15 -20 -17 -15 -54 -2 17 25 -8 -15 -32 27 -29 -47 -26 27 13 -29 20 72 6 13 -14 19 -2 -8 -2 1 -11 -9 -46 -15 1 -70 -25 42 11 5 13 13 -57 42 3 53 -12 17 22 20 3 -4 -14 -23 28 -23 6 17 6 -39 15 20 -15 -24
16 -48 25 -1 9 -14 25 -18 -9 7 17 -18 -7 8 -35 -30 4 23 13 24 16 -9 -45 10 22 -2 -2 4 32 -12 -8 -9 -27 -6 -1 -40 6 20 -24 40 -1 -17 1 13 -8 -7 1 18 4 16 -29 -19 27 27 -16 -10 -19 -20 -4 20 18 28 -47 2
-23 6 41 -3 0 -1 7 42 -8 22 11 -14 -11 -5 -4 -17 -14 12 -29 9 -6 -38 1 0 16 -42 16 -34 -5 -40 10 27 -15 -20 -8 -20 -4 2 56 25 3 -11 -4 -30 9 19 16 -34 29 37 -34 -5 37 -8 -13 -1 -15 -7 24 5 12 -5 -3 -9
-37 10 -26 10 -14 11 38 17 27 -42 -5 -1 21 12 -4 19 -20 20 -34 -1 -4 -2 8 10 -46 -9 5 -5 5 -15 -13 11 17 4 -37 -32 -8 20 5 24 -9 24 -2 -11 19 7 2 -28 29 26 -37 9 15 22 -18 -8 7 27 69 34 -4 19 3 8
-37 -51 -35 12 -14 37 25 9 39 -38 -7 -9 38 1 2 27 20 -1 -31 -22 -7 2 22 -27 -24 -1 -54 19 -20 -10 12 31 19 18 11 -21 1 -11 56 -33 -42 3 11 -35 -28 9 -3 18 -2 10 -40 11 13 -1 18 35 47 -6 46 21 -11 29 42 -26
12 5 -28 26 20 19 -8 2 -14 11 -43 -26 -5 -10 -38 -9 -34 -22 -6 -1 -3 -5 38 -10 -18 15 1 5 5 -9 36 6 0 22 -56 23 12 23 -3 19 -32 10 21 27 25 -14 11 -11 4 -19 16 -4 9 17 14 -2 -12 9 45 -9 19 9 -15 -27
61 14 21 -56 -39 -23 14 19 15 32 -2 -10 -28 9 -24 -25 10 -1 -18 5 -32 -5 28 -21 24 -3 36 56 13 -38 20 -20 -12 -45 5 -4 8 -10 -58 29 -20 23 -41 -7 19 -1 -17 -2 -50 -15 16 6 15 0 26 -40 27 41 -19 -13 13 27 -12 -10
44 8 -30 16 -6 60 41 20 45 4 28 -23 -16 -10 -41 19 15 24 -14 8 -35 -41 -8 -2 15 -40 55 49 -59 -39 -10 11 -2 -34 7 -53 -12 24 -8 26 -48 5 -3 -61 33 49 -26 -16 -12 8 -19 23 -50 18 37 0 44 -15 38 42 -9 28 -7 -29
-9 -30 -27 26 -25 8 7 -12 36 -45 58 6 38 10 21 2 -9 17 13 -19 15 35 -15 20 17 -21 -23 -30 8 -4 -16 -10 8 35 2 -4 0 -4 28 -36 -30 -25 7 10 4 24 56 6 20 -21 -47 10 4 -19 -16 21 56 -14 -16 -26 -15 -12 13 -15
-33 -34 -28 78 0 15 11 32 61 -22 -27 -12 9 28 -21 8 -29 22 -30 -16 -14 -10 53 -2 -18 -42 -7 -35 8 -29 58 6 13 -11 -8 -22 -6 17 4 7 -6 14 -32 -18 73 11 -24 16 22 17 -26 28 17 -39 -4 34 -58 10 72 16 27 80 1 -1
22 -2 1 -20 -20 -7 -20 11 22 -32 -52 -44 15 127 11 -8 -15 65 1 1 2 -19 8 2 41 -23 -2 -39 29 -48 2 5 -18 23 -38 12 21 24 33 39 -10 -44 3 -23 -16 28 -28 34 19 6 -32 -41 -20 -60 45 16 13 44 7 -13 -19 -14 -22 -11
14 -24 -1 -6 21 -12 -9 34 20 -23 47 -9 27 12 -10 -14 17 19 3 -5 -27 12 10 -13 -36 0 -1 10 21 21 15 -9 -20 -7 -3 -7 -8 1 0 -5 -9 -17 -44 -8 24 38 2 26 21 35 -18 -23 -4 -28 6 -19 -14 35 5 2 -3 -4 -28 -11
-13 -5 14 38 -20 9 21 19 -18 24 34 -23 -20 2 -22 -20 -3 5 35 20 -28 -7 14 -42 0 -40 24 16 -4 13 -36 -9 6 -39 3 31 -39 -24 -14 13 6 9 21 -19 4 17 42 -28 -20 12 -10 25 -5 25 -9 -15 1 -20 -10 -11 -19 -3 10 8
5 -39 0 17 -9 13 27 -16 24 -25 31 22 17 12 23 -27 16 -23 14 31 -6 -16 -5 -2 -11 7 -21 -28 12 -3 -28 -53 -22 31 10 19 -6 13 5 -19 19 -2 -12 22 -18 8 8 15 26 -24 -10 4 3 -34 11 -5 -11 -41 -6 38 35 -15 12 1
-5 2 -22 27 -27 44 -3 4 8 -17 -45 9 -2 -4 -9 17 8 -4 -22 39 5 -55 -19 0 -15 45 -19 44 0 -16 -3 -14 9 26 -9 -11 11 1 8 -16 -43 15 -13 -27 -26 4 -19 -1 37 4 -13 -30 12 -6 -5 43 30 1 18 66 -7 40 10 -15
-15 -16 -20 9 22 3 -4 -2 50 -20 2 -12 -39 26 9 36 21 14 16 -36 0 9 15 -4 -8 14 0 -19 -6 -31 16 -12 9 2 41 -38 -29 20 -19 12 30 -9 9 -32 38 22 16 31 -7 -49 -18 20 32 -38 -6 -17 27 -25 -31 -19 18 11 9 20
12 -5 19 -15 27 -5 -29 29 -61 12 7 29 -31 3 24 33 5 40 85 5 -32 1 27 13 3 -20 -13 -3 1 -11 -3 1 -17 -28 29 4 -45 -29 30 37 -4 -25 -6 -25 -26 -12 31 -18 -17 27 27 -6 -21 -2 -35 -5 20 13 -50 -21 -4 -10 -8 21
-1 -3 4 25 -5 -3 -15 54 -2 -14 32 -35 -10 3 -11 -4 -10 10 -27 -33 -7 43 32 -4 -19 -21 -1 12 40 -2 8 11 -4 39 -19 -49 21 -1 37 -6 3 -34 -36 22 4 13 2 -13 -33 27 1 -1 -16 -11 0 -23 -5 34 26 13 3 -46 6 16
14 -26 -1 21 9 -4 0 -1 -4 -25 19 7 28 -1 1 -24 1 -21 24 -26 47 -37 4 5 10 -14 -24 -44 22 5 -16 -11 0 20 -5 -4 -3 15 7 -4 -6 5 -29 17 20 12 21 4 6 -26 26 -17 -23 -6 38 7 -12 -20 13 28 46 12 6 -16
5 -21 -8 4 30 6 -5 59 10 5 22 -28 -6 16 14 2 8 -20 21 -5 12 0 -8 -29 0 -60 40 -9 -8 -30 9 -3 -11 -34 1 -37 18 -5 9 28 -29 24 -9 -5 -50 33 1 -30 14 16 -5 24 -68 0 -9 -13 18 27 58 22 6 10 -14 -13
-21 30 -26 -16 -3 -17 5 -17 12 -7 -24 6 -47 -6 4 9 -24 -3 -23 0 -14 23 -6 17 3 21 36 5 5 7 25 -14 -43 7 -11 -9 -13 20 -16 24 -20 -7 -10 -8 54 -24 -10 -32 30 40 38 27 15 -22 -13 -11 -5 54 16 -10 21 -36 15 18
-10 -7 -22 13 8 30 2 29 44 -3 19 26 7 -3 4 0 -11 -6 27 13 -38 -22 -19 -19 21 -25 41 39 -23 -15 12 -14 -33 -42 -15 0 26 14 37 -8 -1 -38 4 -76 2 15 10 23 -33 -1 -21 -23 -10 -3 4 11 -11 9 -25 18 7 36 -18 7
22 -8 12 7 -3 -3 -17 -12 11 43 -34 41 -10 -32 -15 -26 2 -32 7 -72 -16 44 -47 13 -19 64 -3 -29 20 -6 34 -21 -16 32 12 36 11 -49 17 -11 49 -19 -10 22 3 -9 16 -34 -35 -10 38 -34 5 18 -2 -5 9 5 -7 3 -44 -37 -7 -16
21 5 -48 -39 13 16 24 14 23 20 1 -13 -36 4 17 1 -13 10 -7 -18 -4 40 -8 -24 -10 26 33 -33 35 14 0 -8 -9 -11 -21 8 -19 27 11 -7 18 10 -31 11 -13 7 16 -3 3 8 6 40 -23 -31 -2 10 6 10 22 19 -22 -20 -9 24
1 -4 -13 -29 20 14 -23 -20 -26 13 -31 -34 23 37 -17 -61 -25 -20 -25 -40 17 15 6 22 36 70 -15 31 38 30 18 -7 -21 34 1 4 20 -8 -7 -25 3 13 -1 26 22 32 26 37 18 8 25 -20 14 -8 18 -6 -22 -8 3 12 0 -3 -1 -30
14 -13 31 2 -9 36 -22 -5 -22 39 45 0 27 -14 -7 -10 -10 7 -14 -31 -12 1 25 -13 9 6 -28 55 10 8 18 21 5 28 15 -11 27 -3 31 -20 16 -3 -18 1 -11 14 -7 -17 -42 7 -27 -44 8 -21 22 -26 63 9 2 -28 -65 -6 3 -13
16 4 -25 19 15 -12 1 6 6 11 3 19 -2 -20 15 -5 -6 -11 -30 -23 14 25 -26 13 -36 44 -22 9 -2 -15 14 9 -6 5 21 -33 -16 -14 28 -51 -8 10 -43 -24 -1 3 24 32 56 0 4 -1 -3 -3 30 3 31 52 -4 -35 12 13 -10 -27
-55 -43 -13 10 53 -61 22 23 24 24 8 48 18 -1 4 14 17 9 15 32 -24 3 -49 3 -19 10 -12 -32 34 -2 48 40 6 -9 22 -4 4 -23 15 34 9 -25 5 -9 6 18 -22 21 12 54 -13 -39 43 -38 -26 13 -10 29 14 6 0 25 -11 -10
18 8 48 -12 -17 28 -9 39 -36 -32 3 -21 -1 68 -20 12 -13 69 50 6 -17 -15 26 10 41 10 4 17 -18 1 1 -15 -41 -11 61 40 -35 37 31 2 -1 -3 -15 -16 -10 10 31 28 -11 -26 20 -28 -24 -36 13 -5 49 27 -25 -4 -22 -50 16 34
25 14 -14 -13 -24 36 -15 0 42 13 22 14 -3 0 14 2 -1 -14 42 -17 33 -7 32 -20 14 -20 25 9 -47 -41 12 -26 -5 -3 -7 -22 17 6 -10 -12 -3 -2 12 3 11 26 -13 -25 -45 -19 -3 28 -23 38 39 -1 50 -47 4 -20 17 36 3 -25
-43 -43 -13 42 53 9 -22 16 -18 18 5 -7 17 -12 -30 -18 3 -26 -15 -6 20 34 -11 -32 -20 12 -10 11 45 -4 2 43 -19 18 13 12 -7 -6 20 -4 -20 -8 -39 27 9 1 -14 4 31 6 -7 5 -18 2 -5 -21 19 13 6 -7 -30 2 28 9
20 -16 -4 75 7 -12 -22 57 19 -8 32 25 -21 -29 -18 16 -8 -35 13 0 11 -7 -4 -4 -37 -35 16 24 -17 1 17 9 5 -23 51 -8 -3 -12 -33 -34 6 8 12 6 -1 12 19 2 -8 -8 15 7 -28 8 14 -43 22 -16 9 50 32 14 10 6
13 16 -14 -26 5 7 13 13 28 12 -1 20 -25 -8 35 -9 -19 12 -7 12 23 25 -33 35 23 44 -9 3 6 -69 8 -39 -28 -12 20 11 -6 -31 37 -31 -1 -16 -30 -24 -31 35 12 2 -51 24 0 -14 -24 36 14 24 -3 29 -3 27 12 19 -23 -24
22 -13 -39 12 6 22 -7 6 9 16 -34 -19 18 2 -38 -7 -40 -29 23 31 37 -46 -14 -6 -6 3 -31 27 27 -19 2 -18 -29 3 -11 -7 -16 -18 -10 -5 3 9 -22 -9 17 24 -2 2 30 10 15 -10 24 -55 32 4 -9 41 21 27 59 25 13 -33
40 28 -21 18 -18 64 -11 16 4 35 -35 -2 -23 14 -32 -13 -16 25 6 -4 -23 -40 6 19 13 -25 19 24 -42 -32 -19 -7 -20 -63 24 -43 -35 52 6 10 -17 4 36 -55 10 25 -20 5 -35 -2 -4 9 -44 17 28 -25 66 -2 -6 37 4 3 20 -4
-11 -8 11 52 30 26 14 26 -1 -17 39 36 -5 -19 -34 7 -32 -1 4 -4 -14 11 21 -12 -13 -8 32 -3 -10 29 -19 -1 -11 -13 36 5 -14 14 57 23 11 12 -39 1 14 -1 17 -10 -20 -18 40 55 2 0 -20 -26 -2 -13 -18 -2 24 1 14 0
9 -2 -7 6 21 -15 38 -24 -19 -13 48 -25 26 -5 10 6 -18 2 19 -3 34 -22 9 3 -28 29 7 6 11 -21 -38 14 23 33 4 14 30 -14 -26 11 10 -5 -7 -3 -20 55 17 5 -2 -33 -46 -9 -30 -15 4 39 3 -13 -11 -2 -31 21 13 -35
8 20 -28 27 -4 3 -22 -19 41 16 -23 34 -31 -44 -32 -9 -5 -3 -1 -7 23 -2 2 23 -35 38 -46 -15 32 -30 32 8 -27 21 38 4 -6 -16 59 -35 15 -14 -4 23 10 -37 24 -15 -29 9 -15 7 -18 31 17 -3 11 -3 34 -5 -16 12 15 -59
-22 -6 -30 25 19 -14 7 -5 -1 -8 27 -19 26 34 -23 8 12 10 43 32 -5 -10 25 -40 31 -31 50 -23 -36 -4 -14 1 6 -5 -28 18 -4 4 -2 -15 24 -15 4 -11 4 -22 19 29 23 -19 27 -2 -41 1 19 -13 -30 24 6 -8 1 -2 16 53
26 -9 20 8 -36 20 6 48 -7 10 13 -21 0 35 11 -15 15 35 40 -10 -8 -3 4 3 30 -16 -19 34 -4 9 -28 -22 -12 -2 58 42 -36 -23 23 -18 10 -8 -12 0 -8 -33 -8 -9 -14 -14 13 -24 -14 14 -17 -38 32 -8 -21 29 -4 -10 0 21
6 3 8 -56 -23 28 -23 20 -12 16 46 -4 6 -19 -8 18 15 9 24 0 -22 -12 1 -4 17 -44 27 -4 -23 -1 17 -11 -5 -18 -3 14 -2 44 9 13 39 -24 -27 -38 7 -30 -4 41 -44 -36 10 12 -27 32 -5 4 5 -24 -41 -40 28 13 -19 -5
29 -8 20 8 -6 35 -12 -13 28 -9 7 -4 -8 -10 18 -2 -14 17 -2 7 -49 -18 -2 -21 14 -43 25 34 -25 -11 34 18 5 -18 3 19 20 1 32 17 -29 -20 26 -17 5 -1 11 -17 -21 -16 -28 19 23 0 9 -6 -11 -39 -9 0 49 -13 -21 11
-12 -18 -24 75 11 -8 4 29 -13 7 69 21 19 -45 -46 -22 14 -71 -15 -14 9 -35 -8 -12 -65 1 33 41 15 15 13 -12 17 12 20 9 -6 7 -51 -3 -31 35 -14 44 -3 -3 1 2 7 3 41 42 -8 17 -30 6 19 -5 19 41 9 -14 5 -11
-48 -12 13 -29 69 -57 -3 14 13 -17 -9 27 57 22 6 -5 5 -1 -3 -21 18 12 16 41 -54 14 -35 -34 61 7 10 11 23 48 0 55 -6 -28 -16 -17 15 10 -27 3 -38 -33 -11 20 27 50 20 -47 15 -19 -46 14 -20 26 -3 -20 -21 -12 11 49
-4 -3 -23 35 1 49 -11 18 38 -20 15 -28 5 1 27 47 23 2 31 -9 -42 -20 15 -35 -10 -53 41 23 -57 -44 6 -9 14 -12 -11 -23 15 38 14 -2 -29 -8 -13 -43 -5 -3 8 21 -19 35 -19 10 -13 13 9 -23 14 17 28 33 19 23 -10 -26
-3 -29 21 -3 -21 -34 55 -29 -7 -8 -4 23 -15 7 -21 1 10 -5 -7 22 -11 3 -11 -2 16 27 30 9 -12 -7 -26 -11 -18 18 27 39 -40 -45 -14 -22 2 32 6 14 1 -7 40 8 10 -22 57 -6 33 7 0 0 24 -10 -14 10 3 -10 17 21
-12 10 21 -16 23 13 33 -7 12 35 -13 -34 -6 20 7 -15 14 10 -8 -1 -29 -6 -33 -18 26 1 36 2 -25 -14 -8 11 -1 -4 24 -7 -3 18 0 50 -33 -10 5 2 -7 8 -20 -74 -32 27 -44 1 3 -1 11 -20 6 -8 34 0 -17 35 30 -15
-8 28 27 -21 -25 13 39 3 7 -14 -7 1 -5 11 3 3 -17 -1 8 45 -10 -8 -5 -31 -15 8 -1 26 -22 -24 -26 12 15 -29 -20 15 -70 -8 -17 30 17 16 -2 -13 12 26 -31 6 16 -4 -6 20 43 -20 -17 4 34 -5 26 18 -22 -16 54 24
45 12 -52 7 3 43 -1 17 3 37 11 -42 -14 3 -41 -7 -2 3 10 -1 -20 -42 18 -4 -16 -47 48 30 -48 -58 -30 14 -1 -43 37 -69 -18 75 23 28 -41 17 16 -33 35 8 -12 -3 -26 8 -25 52 -32 6 43 -36 57 -37 10 25 21 25 13 -45
-22 -41 35 7 9 -1 37 12 32 42 5 13 -17 -25 -9 -17 22 -48 7 20 -23 -19 -7 -32 17 -42 17 -15 -20 -38 -18 29 13 4 -39 -4 -10 7 -15 44 38 -15 13 -14 -15 -1 12 5 15 25 5 3 -9 -2 -28 -2 -24 37 -10 -16 -17 -13 24 36
8 4 25 -14 3 11 36 5 16 -6 15 -24 0 37 -30 20 20 18 -14 37 -46 16 7 -39 6 -23 51 16 21 -21 -12 13 6 -39 -9 -15 -35 -39 -25 -18 31 6 3 -2 1 -5 -15 -29 -20 39 -14 25 18 -1 -12 19 19 42 4 -7 -55 -33 24 37
-4 -32 61 23 -13 -35 17 46 -11 7 53 20 -18 13 29 -13 -1 28 47 -3 -24 22 39 -15 26 11 19 32 22 9 -21 -15 -27 -35 56 25 -33 -19 30 11 21 -5 -43 -23 1 -17 22 -5 -3 -38 35 7 8 4 -47 22 33 -3 -43 -4 -27 -40 -8 12
16 -12 -38 -12 -15 50 -55 0 4 5 -32 12 32 12 -20 -10 -23 -7 24 -3 7 -31 -2 17 -5 6 3 71 -23 -7 7 -14 -50 -12 15 -9 5 2 23 -59 -26 12 -31 34 28 21 13 -10 -14 -23 7 10 7 -20 29 -18 27 2 12 25 27 57 5 -37
43 -4 4 -26 5 8 5 11 0 -36 -32 -25 30 85 0 25 17 38 -11 -11 -7 10 23 -32 33 -5 -18 -22 26 -75 0 24 -30 8 4 -18 16 20 77 -13 -5 -59 -14 -3 -28 -15 -4 22 -6 -15 -31 -9 12 -29 34 17 43 1 -1 -10 26 -19 -17 -11
-21 -6 8 -7 11 -30 45 15 20 1 2 -43 36 29 -10 9 7 3 2 12 -9 -16 2 -29 8 -48 11 -9 5 -7 -15 0 13 11 6 -5 -23 17 -20 43 1 4 28 27 -14 8 -28 -31 -4 -1 -25 26 15 3 -1 -13 -4 5 36 13 -14 21 25 11
-44 -29 -20 -2 0 49 -1 33 47 21 49 36 19 -24 -34 1 -1 13 45 23 -2 -12 28 1 8 -7 6 78 25 -1 12 0 -14 -34 -13 -25 -6 -10 -10 -36 -4 0 -4 -15 4 33 -12 -8 -31 37 0 12 -8 4 31 -35 26 19 -17 20 -6 -6 -1 -15
15 -49 15 8 9 9 11 30 -2 5 51 0 13 3 12 -20 -24 41 -15 21 16 29 -28 -19 -21 5 -4 12 5 -15 12 -1 -15 -17 6 -24 -18 -21 19 -14 16 -23 -3 2 -21 15 40 22 2 25 -1 -20 0 -6 18 -6 -3 9 6 25 25 23 -20 -5
29 -27 43 -23 12 -19 15 11 -30 20 23 -11 -38 8 -15 9 -16 7 66 -25 1 9 -5 -1 3 21 2 35 7 0 -22 -23 -29 -5 25 33 -12 -48 -24 32 3 -3 -21 5 22 8 -13 -15 -36 -8 68 16 4 40 -22 4 38 3 1 6 -45 -20 10 20
-34 -22 -3 10 28 33 -16 10 -23 6 11 -13 29 6 20 -5 -11 9 27 -23 2 34 -14 21 -23 -3 14 -5 7 -18 28 2 -21 37 3 -25 -4 -7 27 5 10 -13 -40 16 -29 8 8 -17 6 51 13 18 11 -12 -8 15 4 24 -10 18 13 17 14 -7
-10 -8 21 -3 3 -11 37 13 11 -12 47 -9 -5 8 21 30 6 2 -42 13 -19 40 -20 -15 -17 -45 9 7 14 0 -25 -3 4 -7 -26 -37 -13 16 -32 20 15 29 24 8 -12 4 -8 -35 -7 31 -6 28 30 2 -8 5 11 32 29 -6 -15 8 0 37
-23 -11 -13 51 -26 11 14 1 14 -10 33 21 -9 0 -31 -15 21 -8 2 -21 -10 -1 27 -30 -15 9 34 -15 -22 14 12 -10 -13 -36 12 -17 -13 9 2 13 37 6 -16 -34 6 -2 33 18 3 0 -25 56 10 -25 12 -6 -3 -21 1 -17 -21 17 34 21
20 0 36 35 32 -32 21 17 -24 4 55 25 -24 -39 -26 -34 -4 -71 -2 -7 18 -41 -12 -1 -56 5 21 6 14 14 28 41 -2 11 20 21 -13 -12 -51 6 -29 33 3 15 38 -20 38 -18 13 17 48 28 -16 11 -42 -42 -12 24 -6 18 -11 -14 3 -18
-11 -7 21 -31 -4 10 -40 32 15 29 19 -6 -4 16 -15 3 -2 31 -9 -11 -20 40 29 4 -1 -27 22 -8 8 -29 12 17 -40 12 21 6 -10 25 30 31 21 -6 -38 -14 1 -10 -3 42 3 -13 2 -21 5 -4 -3 -24 9 -3 -39 -9 -26 0 -2 -6
-20 -19 36 -10 5 -29 -3 52 -2 17 17 34 -8 29 -16 2 -35 63 85 -8 -42 27 -1 12 2 27 5 24 40 22 -18 -11 -42 -13 61 46 -67 -20 27 -7 63 27 -49 -28 9 -1 63 -6 -8 -12 71 -18 23 -13 4 -20 36 23 -64 -38 -26 -44 -12 47