-0.13724114000797272 -0.08233163505792618 -0.04710821434855461 0.1056465208530426 0.1105051264166832 0.10755422711372375 -0.00926882866770029 0.11159516870975494 0.1589251458644867 0.0698821172118187 0.11349214613437653 0.04531629756093025 -0.0160136129707098 -0.028915666043758392 -0.05307190120220184 0.03479050472378731 -0.17852622270584106 -0.15194940567016602 -0.10461559891700745 0.14874225854873657 -0.02475523017346859 0.006609851960092783 0.0001644977310206741 0.019397679716348648 -0.16773809492588043 0.0956437885761261 0.10377718508243561 0.045639585703611374 -0.1270243376493454 -0.030506610870361328 0.21951505541801453 0.050228867679834366 -0.043654926121234894 0.09465359151363373 -0.046210844069719315 0.07261192798614502 0.03869796544313431 -0.03257790580391884 0.04826255887746811 -0.029411839321255684 0.0901215672492981 -0.11578363925218582 -0.2316884994506836 -0.07379279285669327 0.054782189428806305 0.13261057436466217 -0.05523739382624626 -0.09391698986291885 -4.768650615005754e-05 0.19156041741371155 0.0023952361661940813 -0.031076479703187943 -0.03389046713709831 0.0006751542096026242 -0.05998639762401581 0.1088293269276619 -0.04741939157247543 0.10433486104011536 0.169081911444664 0.05150744318962097 0.03583152964711189 0.0364232063293457 0.08319057524204254 -0.019251437857747078