34 22 -17 17 -24 8 -7 -11 2 -19 -22 67 16 35 -11 -62 -20 -12 -45 14 -28 -10 -12 34 14 -7 -51 -14 30 38 19 -8 2 15 -30 40 11 23 -9 5 28 14 -16 -13 -13 15 0 19 -6 -46 10 -24 30 -6 47 23 -17 -53 -16 -31 23 -16 25 27
-22 -14 62 -14 -21 6 30 -12 2 11 3 22 50 0 -15 7 -4 -1 79 -8 10 2 11 -40 -45 -6 4 -5 11 -5 26 -41 -19 -22 35 -22 30 -66 -39 23 -20 -73 -57 41 -33 -3 -35 -41 -3 6 -7 20 -51 29 -33 38 -7 32 -34 -7 -42 54 -59 -7
38 44 -55 -50 -46 -1 -61 -77 -23 -28 -54 -24 -28 -47 -30 24 10 -37 -97 20 22 19 58 38 -20 38 -34 -32 -47 42 36 -18 -11 28 -38 7 47 71 -5 -32 -14 75 68 -2 36 -32 -4 -11 61 -49 21 14 -46 -20 1 -1 -45 -47 46 -18 42 -12 19 -1
5 11 -9 -41 -25 -14 -20 30 -53 -3 14 -20 5 49 18 -39 40 50 -20 5 9 -5 48 34 23 11 1 -1 -11 53 -59 24 -36 44 -16 23 -24 -29 -17 -4 45 5 -41 -30 3 1 10 87 39 -2 30 -20 -80 21 2 -76 25 -5 -29 -34 -14 -56 53 37
43 -3 -70 -18 -26 -22 -18 -19 -22 -8 -62 -34 -57 -16 37 45 21 50 4 9 -2 -54 24 -57 22 -19 -51 3 -3 23 -34 -24 22 -55 -49 -45 49 -5 65 2 -63 76 28 -33 8 -87 -25 8 -34 -48 -38 38 62 8 15 9 -10 -44 7 14 45 54 -4 -30
8 11 -25 -34 -16 3 -6 -40 20 -36 -33 -3 -11 -61 44 36 2 -41 22 38 50 -26 -5 -17 -59 -7 8 17 -31 1 18 34 56 -33 36 0 -48 -20 4 -10 -27 -3 12 40 62 -8 -7 -34 4 -35 -43 -11 28 47 -82 -12 25 -9 7 26 35 13 22 -23
-18 7 -79 36 13 39 -24 4 11 15 -11 0 -7 0 -74 0 -6 -2 -63 -53 -9 51 -13 34 -12 10 59 13 -17 -21 24 67 9 49 29 -15 -68 54 6 -20 -41 -2 -41 -42 29 -29 9 36 15 25 44 22 -56 -6 -4 11 10 25 1 -5 -3 49 -20 -25
3 10 48 42 -7 -19 62 6 28 33 6 5 73 -50 14 -60 -13 -42 9 -16 -7 25 19 -14 -3 6 44 3 -10 11 22 -18 -13 50 29 -29 -59 -69 16 33 -27 6 -12 -7 -3 37 2 -6 -27 54 0 -26 35 -15 -9 -32 37 12 1 -14 -25 19 -28 -24
-7 40 -56 -35 5 43 -71 3 23 22 46 -37 21 62 -16 4 -14 24 -22 4 14 35 -3 1 12 -33 55 50 13 -50 -21 6 4 -14 44 -103 -38 58 47 25 -63 7 29 4 -53 1 5 9 -44 11 2 -43 16 -40 -29 -31 78 11 21 30 -6 -50 49 9
19 -12 -27 1 -11 -6 40 -40 25 50 -18 45 -11 29 -41 72 -31 -32 7 -25 40 -56 -48 -47 1 15 1 -23 19 -36 73 20 -29 -39 15 -13 -22 -22 25 5 -60 -1 -30 12 22 4 -69 -38 6 56 -43 -37 52 -6 25 47 37 9 66 13 26 56 -13 -38
-27 -37 3 -5 36 34 -16 -1 -1 48 44 28 -5 21 21 -39 -11 -15 60 25 -27 -21 16 10 51 21 36 81 3 -19 -37 -9 31 -28 29 -53 -21 -3 35 38 44 -5 -33 14 6 2 -34 5 -5 18 -5 -45 33 44 -9 7 75 1 8 1 -81 12 28 -5
7 -52 -14 -15 48 -32 45 10 48 -20 63 -33 -59 -22 -29 32 42 40 51 -26 -2 36 -10 -78 -39 20 38 15 3 -55 42 60 19 -12 -16 -50 -20 -5 -31 33 -5 -59 -60 -1 23 67 -41 -41 -1 2 -54 21 -33 19 -4 2 22 34 -11 14 12 -12 -40 -8
-27 -1 11 9 30 -15 -17 54 -66 55 26 -54 -61 61 37 58 29 16 51 -44 -15 -33 37 -54 36 2 16 34 -55 -81 -29 47 11 -4 36 -93 -62 -12 0 24 -17 25 38 13 28 12 -18 45 -8 34 14 -56 -12 54 6 3 21 -4 -42 38 -50 -1 10 7
5 24 -16 -30 -11 1 -35 16 27 -1 -31 18 27 -48 5 -39 -49 -6 13 -32 -2 -16 -13 15 -12 11 31 -11 2 62 -49 -10 15 16 -15 57 19 -6 -24 -56 0 -20 -11 10 -42 -27 30 11 8 -28 -10 27 -3 -39 -34 -14 -16 -24 -2 44 25 -39 -19 15
22 -45 -51 71 -45 38 -91 1 -16 -36 51 17 1 63 0 -9 -26 43 -11 -46 -7 49 18 39 4 -56 -58 -18 -4 17 29 15 30 30 21 7 33 68 39 -24 -11 -10 -10 -55 32 -23 31 23 56 27 -12 34 -32 -16 22 8 -44 -16 -42 -4 28 -16 1 -20
31 -17 -56 37 -5 -9 -48 63 32 0 28 28 -17 14 -62 5 -20 -14 -19 -4 -41 -20 58 -42 -6 -9 -11 15 5 -18 63 34 1 15 3 8 17 42 52 -7 -33 -24 -13 -4 20 -2 0 -34 10 33 -22 29 -33 38 41 17 -18 -40 -1 -10 74 94 -16 -33
-12 -20 -20 20 -17 -8 44 -58 39 9 -18 47 95 -47 -43 52 12 -51 -17 -10 29 1 -31 -2 -37 64 -2 -48 -14 30 -18 7 -33 -18 49 28 -13 -47 -30 -51 -24 -43 -26 29 -11 1 0 -11 5 26 -91 11 -13 33 24 21 -59 18 14 12 23 9 32 -19
-24 -57 -22 45 48 -26 1 42 -18 44 -58 -3 -30 -1 21 -24 0 -12 -68 -4 48 26 40 -3 -6 44 8 -31 37 15 50 33 -1 -41 35 -42 35 5 25 49 -29 -71 -27 38 -23 20 -11 -43 6 56 -31 71 45 16 -11 61 9 -6 65 13 -38 18 -27 24
-27 14 -20 81 -43 12 12 -7 32 -61 9 14 43 80 10 54 -34 44 -38 49 -41 -16 30 5 -24 -19 13 10 -21 41 3 20 -34 -32 9 50 -6 -50 -6 -36 -15 41 -43 -27 -9 -26 6 55 70 -29 19 14 -6 20 30 45 -34 23 17 -48 39 -3 33 22
-6 -8 -15 62 -35 -70 -26 17 -28 -27 -55 -17 83 82 -46 -33 -56 23 -34 43 -24 -9 19 -18 20 70 32 6 -38 -2 8 -7 15 57 -50 25 20 -65 -42 -5 -32 -10 21 -19 42 16 -5 5 50 -30 -55 -21 20 -1 -41 20 -33 31 23 -39 -17 -6 32 -30
-32 -42 -25 8 16 -12 -76 38 -19 -18 -2 -62 57 53 -63 -46 -28 20 -24 14 38 -3 -10 3 -20 47 28 11 56 -51 6 16 -19 54 4 -21 -10 5 24 -34 -56 -59 -13 -23 24 4 -23 -37 31 65 -21 -18 10 42 44 12 -39 1 37 20 -19 -17 6 -11
-26 18 -32 70 -70 -2 -71 45 -19 -11 1 33 -23 16 -18 21 -36 39 2 55 -5 19 27 -12 -57 16 -43 -31 -4 11 -9 15 24 -61 74 13 24 31 -7 15 7 40 -28 4 33 -2 18 7 61 -26 44 7 -20 -7 5 0 -4 -27 14 -1 -5 39 -14 0
-14 10 -10 29 3 -50 25 20 12 5 10 3 23 14 35 27 21 -9 87 -14 -46 22 6 10 61 -15 1 -105 -1 -21 -9 -31 -7 19 -32 -47 -35 22 23 -11 -19 22 2 -18 25 8 -23 -24 -32 25 18 15 30 -24 -3 26 25 19 47 49 61 -25 -24 42
-26 2 2 36 -55 14 13 -4 -8 -47 34 -30 19 -27 -8 14 -33 11 -33 9 -12 -28 43 -44 -23 -10 12 32 -46 77 -41 -41 -21 -16 8 35 13 -13 -16 13 -9 0 5 -17 17 -13 50 14 6 -46 -15 15 -41 11 16 12 -18 -45 36 30 10 28 -3 21
-35 -2 23 -34 -51 31 34 37 -9 -5 69 -41 -40 37 -40 0 -8 4 -53 -12 33 26 46 1 13 -2 12 -10 -20 5 3 42 -12 -37 21 58 18 -12 -14 59 16 8 29 30 35 -2 -22 -36 -37 26 -17 16 -37 -9 -85 -16 -32 23 -6 23 7 -19 -25 28
-13 -16 8 -40 1 -9 7 7 38 31 -30 22 12 36 -80 -72 12 16 44 9 1 1 -39 1 -39 24 -7 12 85 -67 29 -15 -43 25 31 -75 -25 -56 20 -22 -32 -23 -81 28 -37 55 16 -33 -9 63 -14 22 53 -14 37 16 45 6 -4 -9 18 -5 -23 -41
0 21 20 11 -32 15 -69 75 -19 17 -46 43 -62 28 26 -22 17 28 74 9 -13 4 45 -1 -25 -64 -32 -8 -8 -18 39 -20 -48 20 29 -44 -33 -8 8 9 -32 66 40 -32 -15 3 -25 25 67 -35 97 -20 30 0 -4 31 85 4 -31 -43 24 32 -44 -25
37 -7 -20 -33 11 -6 -49 -32 1 5 -23 -23 -36 47 -19 -18 -2 8 -40 28 10 13 -12 12 32 16 9 15 -63 -62 0 -11 -29 -54 -17 5 -21 61 18 89 -4 -9 10 43 26 54 37 -35 -60 58 -3 -7 -80 -36 34 -20 -35 19 -22 44 11 20 11 -45
4 -11 -21 7 22 -29 -46 60 -16 22 -39 10 -17 25 7 -42 -33 30 32 0 24 -14 13 -5 16 -4 -16 48 9 -39 33 -17 -1 82 -27 -57 -51 -24 -10 -23 -19 63 -19 -83 28 -36 -72 -34 85 -13 79 32 -39 -25 -17 0 83 -26 -32 7 2 15 11 4
-6 -4 -11 20 -5 -7 23 -41 -19 -57 -62 33 -7 8 52 16 23 -10 -16 -18 -19 -31 -52 -30 6 -19 33 25 -22 41 -22 10 10 -23 -14 22 1 29 -26 -24 27 -6 54 -40 47 8 -23 9 48 -60 -26 -4 -37 -13 16 -33 -22 30 -12 -51 -20 -36 10 52
9 -16 -6 -33 -16 -20 -3 28 32 70 5 34 -38 -11 23 -51 -4 -9 31 35 -6 -5 -18 13 20 -6 -22 17 45 -40 12 -40 -18 -8 2 -30 -40 -1 14 -22 20 -5 -14 -1 3 -28 -52 10 -3 -28 -13 -56 30 -14 17 -19 72 9 -24 -32 -15 -7 -44 -13
56 -9 17 -35 4 -14 -6 36 7 43 47 -17 -5 -16 7 -9 -18 -19 92 -15 9 -56 27 -24 75 12 -43 -18 -32 -68 16 -15 -30 -30 106 -1 -46 55 44 57 20 4 -32 10 18 32 5 -50 -54 7 25 -37 -13 17 38 -6 80 -72 -17 24 -12 17 -46 -71
-16 -3 -7 16 -35 -21 15 -7 2 39 -39 26 -59 36 9 -12 -32 19 54 -23 -2 10 -19 -7 -3 -11 -29 -3 23 -27 -5 28 -32 -2 38 17 -75 -31 9 -29 24 21 44 -8 -7 -20 8 35 -6 -3 48 19 69 35 -43 -19 41 32 -48 -30 -59 -4 -4 13
-5 -40 17 0 -17 0 -45 26 59 -29 -13 41 -14 27 -51 36 -49 22 -17 -8 -33 -34 -8 -16 7 7 12 -22 23 -82 62 20 26 14 10 -27 40 -15 41 -26 -8 -22 -4 -29 18 -1 -48 -23 -22 46 53 5 23 44 54 10 26 10 29 34 -27 44 -53 33
-48 -47 31 3 58 -57 2 48 -8 -17 -13 15 52 18 -8 12 -7 -25 25 -23 -17 20 -46 -1 -9 -52 -29 24 63 52 7 3 -11 -8 25 -22 -21 13 70 -14 -21 -28 7 -8 -33 -12 -6 24 -14 15 19 14 15 -68 28 11 -19 14 44 -23 -43 10 -24 3
-12 -1 34 10 -2 58 -6 3 27 -28 -2 6 16 15 -41 39 -4 51 71 29 -56 -1 63 -17 -31 -104 22 74 35 -14 28 25 -28 -32 57 56 -31 32 -19 -17 53 3 -19 -59 50 -50 96 -9 4 -25 48 -11 -36 26 -28 5 -18 5 -23 -28 -43 8 45 56
-59 30 1 -23 -23 -36 46 -55 -25 -39 -61 27 -26 -38 47 -16 8 -27 -62 33 -19 -19 -1 -27 16 -4 -7 -9 -47 14 -41 16 55 -34 8 18 14 -8 -63 83 39 51 17 27 -40 -8 -59 17 47 2 4 -15 43 5 -32 0 -7 -29 6 -41 -41 -11 53 8
5 40 6 -33 3 21 -69 12 37 -35 41 -33 -4 -65 -28 12 52 8 -11 -3 -2 0 4 53 -53 63 12 38 1 -27 42 10 18 12 32 -33 44 -28 -58 -65 -51 12 2 22 46 29 -82 -23 -23 -26 24 -91 30 52 -24 -51 -13 -11 7 31 1 32 46 -10
-44 -14 4 7 -30 -11 28 1 -9 -36 -23 7 -36 -2 -22 -24 0 61 -39 42 2 -24 -74 -15 -5 -9 -16 30 1 23 -69 -5 2 -10 39 55 -23 52 1 18 -2 -8 34 -22 20 -57 60 10 18 -5 17 29 -23 -44 10 -2 -1 -57 -10 15 -39 -37 32 8
6 45 39 -35 -21 -44 48 -64 -27 -29 -25 -41 -33 -3 25 14 64 1 -13 38 -38 34 13 -53 9 -33 -19 25 -69 57 -36 -31 61 -29 -32 0 -4 8 -55 62 49 32 84 38 -50 -29 -26 1 -5 21 -33 23 -1 -1 6 26 -6 -6 -3 -55 -29 9 26 3
18 29 -34 -27 -15 25 11 20 -34 16 21 -56 3 31 -28 -40 -23 0 -32 -22 19 30 21 -10 26 -4 8 -6 -17 13 0 -6 -16 -49 34 -19 -5 20 -23 64 -7 54 -28 14 11 -10 40 5 57 4 18 6 16 -38 -15 -32 -49 -17 44 -66 63 -9 3 5
65 79 -42 -57 -4 3 -20 -74 13 -42 -44 -38 18 -18 3 -56 14 20 4 3 21 5 10 -3 28 27 -28 7 -15 44 -14 -21 3 -55 -19 -15 56 7 -59 59 10 -5 9 39 -1 -6 12 -12 -27 3 -2 -37 -8 40 24 0 -43 -71 -27 -2 58 -33 27 -9
-30 -5 25 -33 -47 34 -17 -50 18 13 -1 22 12 42 -50 -10 -10 50 87 -1 63 48 -5 18 -33 5 -8 -10 73 -18 -8 -20 -5 -28 27 19 0 -19 -6 -14 41 70 -3 13 29 7 2 3 -29 10 46 19 69 -5 -15 -35 12 30 -35 -54 -3 -67 12 36
21 60 2 14 0 -16 -6 -13 -63 -45 1 43 -46 -22 29 -64 18 67 -53 11 -2 40 47 -22 -10 3 -21 7 -31 -1 -48 -58 -30 -45 -18 50 -49 21 54 41 44 58 -10 -16 -29 7 45 15 6 -16 18 -20 -10 -9 -10 -17 0 -13 7 0 11 -38 66 42
-2 13 14 -91 -13 42 10 39 -19 -29 -5 25 -10 14 -11 11 -12 50 -11 22 34 -9 -32 1 -19 65 43 -28 -27 0 -41 36 10 9 -59 -31 40 22 7 -36 -66 -41 4 15 -18 -25 -49 4 -3 -20 -32 -7 -28 25 25 26 45 5 -25 -3 68 -23 3 -8
6 -13 -66 13 -71 35 -77 1 -3 -23 3 -17 17 6 -1 14 -15 35 2 -29 3 -82 23 59 5 -30 -6 31 6 -8 17 25 -12 22 58 -16 72 27 63 -4 -99 -56 12 2 -29 20 -11 19 -37 -54 29 -3 -26 4 2 -20 0 -52 -44 55 -24 45 -35 -53
26 -46 -18 91 12 -1 -39 40 91 6 -4 12 -7 -34 -76 5 -59 -46 58 -30 43 -33 20 48 12 -62 3 -1 43 -15 74 4 7 29 71 -10 -27 -44 -34 5 19 -20 -17 -18 14 0 -17 -6 36 16 45 -41 -16 -34 11 37 -22 -26 -2 51 -5 66 -8 32
60 -4 -18 3 -36 -30 -52 -11 9 -53 7 15 70 4 13 -61 -6 7 -83 9 48 -26 -24 69 1 42 -26 42 12 32 13 6 -11 18 -46 -27 60 32 25 24 -69 27 -16 62 -26 -14 -17 1 7 -26 -24 38 -38 9 1 -14 32 -14 -15 19 50 8 39 -82
50 46 37 3 -26 20 25 1 -67 31 60 37 -16 77 -28 5 36 15 40 -31 -60 34 37 13 51 -37 20 -24 41 14 -25 28 19 -51 63 -23 -53 26 74 -10 17 4 37 -81 -4 -67 25 29 -2 -25 4 21 -38 -12 31 -39 62 -11 -25 -39 -45 -62 50 37
15 13 30 -8 0 -6 11 13 -9 -52 -2 -33 -21 1 -9 6 42 -3 0 15 -45 17 34 25 51 19 -11 -45 10 0 -14 35 21 -39 77 -60 3 67 -18 -24 -17 35 6 -10 20 2 36 31 9 -61 -57 -19 -38 -52 57 3 24 -10 -37 15 -32 -54 24 34
-35 -1 -22 53 15 8 -24 -25 13 12 -10 10 -16 -76 -11 29 4 -72 -27 58 74 -6 -57 -10 0 22 11 3 -46 47 52 -2 11 8 -26 42 39 -27 -52 9 35 -48 -4 60 -1 31 -67 -70 1 50 -14 -53 56 59 -22 70 -29 8 57 53 52 106 -59 -26
5 -92 -44 12 -3 -17 17 38 63 -17 9 0 54 -47 36 87 15 21 -34 6 -110 34 31 1 -23 6 3 1 76 23 -2 96 -2 27 -11 15 -7 41 9 -26 -41 -22 1 -15 -30 -8 -42 11 9 -49 -50 14 -40 24 -12 2 -26 -15 19 17 -70 21 30 7
35 -9 -53 25 -25 13 4 41 20 -30 33 -14 -29 8 60 10 55 9 34 15 -69 18 -33 -26 -21 -10 26 -63 8 9 -8 3 -17 -63 39 9 -2 33 40 32 -10 30 41 -70 0 -62 -27 37 10 -41 -8 -17 -6 0 17 -3 55 -32 11 -42 -26 -68 54 6
61 18 19 -40 -25 -3 -37 7 -21 4 -7 8 22 27 -5 5 19 44 66 -68 23 33 50 12 7 1 44 -17 4 -18 -14 25 -10 -21 13 -59 -68 10 18 -1 -34 10 35 -39 50 15 80 93 24 -27 -9 33 32 -13 55 -29 60 -64 -3 -51 8 -50 14 5
-10 -11 52 -6 26 -24 35 -73 23 9 29 11 -34 -47 19 29 41 -49 -52 43 37 -31 -65 -10 -24 14 12 8 -14 -3 75 -27 -5 24 -13 35 -5 -28 -60 -9 17 -29 7 63 8 57 -89 -58 -3 53 12 11 67 -27 -3 104 -2 49 -17 -25 -15 8 -16 14
-3 17 -14 -29 -19 14 -18 33 14 -30 14 23 15 29 11 42 -2 4 35 -60 13 4 47 27 62 -17 -17 -36 52 -36 -31 -9 -15 33 20 0 -5 -39 22 -16 -26 -20 9 8 20 -31 25 28 -17 -53 18 2 -51 -32 38 14 -13 -17 -57 -30 -34 -105 53 37
-11 -53 30 6 6 -11 34 63 49 -62 6 25 38 -13 22 46 13 -6 12 5 -57 -8 -30 -9 -41 6 -12 -31 73 -8 15 76 -18 -5 -4 95 -19 -34 24 -4 39 -36 24 -29 36 47 -66 -46 75 9 -14 -24 2 23 12 16 22 50 71 -27 -45 -43 50 54
47 57 18 -49 -18 -8 50 53 -74 -50 57 -8 35 67 6 46 24 32 36 9 -22 53 78 -42 -2 -46 58 27 -2 -15 -77 18 -17 -49 85 -2 -62 50 52 20 -3 24 -19 -60 8 -81 0 70 15 -50 -25 3 -12 23 16 -22 9 -18 10 18 -44 -59 50 43
21 -23 53 25 13 32 -37 27 16 37 -26 22 26 35 -14 -28 20 -23 13 26 61 1 25 61 -35 -30 -30 -13 -15 -5 15 -29 -4 80 -58 -7 10 -52 33 -16 -35 -57 -27 21 -26 -14 7 -39 -54 41 39 -29 -22 4 -4 40 5 3 48 -36 10 13 27 -1
33 61 -14 28 11 -10 31 -28 -45 -12 -59 -48 0 34 -22 -25 -21 -21 5 -28 35 24 -3 36 48 5 36 34 -38 34 0 -69 -42 32 -31 -41 12 30 15 -22 1 8 -14 22 -24 18 18 -16 -47 56 15 -16 15 8 20 -22 1 12 20 33 36 63 -65 -68
-65 -4 7 45 43 27 -7 10 49 26 -63 18 8 -59 30 -53 19 -62 -33 1 48 -62 -61 47 -10 34 4 40 -41 19 54 6 37 47 -30 3 10 -83 -31 -20 24 -56 -24 46 -4 54 -79 -24 17 77 -9 -3 54 -19 -43 66 -25 15 5 -37 19 14 -31 -16
47 32 30 26 -35 -29 -33 39 -43 40 62 58 -18 51 -28 31 -41 29 26 -22 0 37 55 36 11 -41 -7 5 32 46 -24 0 -17 15 30 -8 19 67 4 -1 -25 -4 22 -53 43 -50 61 59 6 -56 2 25 -23 -15 -14 -56 39 1 31 1 -49 -13 20 -33
-39 8 66 -30 12 12 -67 -60 -7 -52 15 4 -44 49 24 20 64 -15 -47 23 -69 9 7 -20 -10 31 -6 -47 17 -41 0 16 49 -54 5 5 -17 -23 -28 36 44 -1 8 -3 24 -32 -52 18 52 -8 -60 -6 59 -59 3 -4 31 28 0 -2 -65 -19 51 29
-41 -6 -4 -7 31 -30 -21 -32 15 17 -35 -29 2 -13 14 17 7 -85 -57 71 23 -69 -54 -31 -33 71 -8 17 -72 -5 36 -50 1 17 -59 40 84 30 -80 -21 36 0 19 33 -59 78 -33 -62 39 82 -24 -32 69 37 11 12 -55 6 16 17 0 87 -44 -39