-8 -10 13 34 23 25 31 -12 -28 30 5 72 1 -52 20 -20 -18 -45 -29 10 51 21 -6 12 -59 -18 37 34 -30 36 -29 -39 11 56 21 45 0 -6 -46 0 -2 9 -23 31 -30 -43 -24 35 -29 25 44 10 13 21 -12 20 3 16 -26 1 18 -9 -1 -7
9 -7 14 -1 43 -8 -17 24 -48 -7 44 31 -75 -6 19 -21 47 -36 -28 36 -8 40 -5 -28 -25 -52 62 52 23 14 -33 -23 1 -34 16 19 -1 -43 -31 -27 -27 -5 -8 49 53 -4 20 40 -50 18 -34 24 32 41 -14 -25 1 -59 -11 -39 26 13 -14 18
-13 22 10 62 28 64 -22 1 20 -46 7 -14 51 11 15 42 1 0 2 -12 9 -30 21 54 7 3 32 -9 -55 -60 13 -7 -20 0 -28 -43 -8 10 34 -41 1 -12 35 38 1 12 -24 31 8 -15 -22 12 -60 16 -41 26 40 -11 42 -18 21 21 -5 10
-26 59 -14 -23 1 6 7 -25 -17 -29 16 -36 4 7 36 46 26 31 5 -28 -34 41 -8 10 24 18 79 -40 -39 -5 -2 22 45 -60 -6 -14 -12 14 6 -32 15 36 11 -43 41 -19 -74 25 -29 19 -36 13 -38 35 -17 -50 20 -1 -31 28 -34 -60 71 4
31 -1 -33 16 -8 -17 23 -14 -37 8 -4 -42 -18 -68 -14 -4 12 -46 -3 -32 49 2 48 -39 -19 -13 15 31 7 23 -35 39 44 -1 -38 -2 15 5 -37 13 -61 -22 -10 10 24 -35 -21 -17 -38 2 24 -4 -67 73 -15 -42 4 -26 29 -9 33 18 15 -25
10 23 -13 19 15 95 3 -5 39 7 22 -34 -45 -50 -28 41 19 11 -5 -35 46 -3 37 49 -22 -13 2 57 -64 -38 -11 34 8 -57 17 9 -3 28 38 -53 -72 16 12 34 76 49 -59 -48 16 -31 -17 -58 -68 10 -8 -23 80 21 31 38 40 -14 -24 -33
-14 -10 30 -18 17 -3 -5 -8 30 11 -3 63 -31 15 5 -15 13 30 9 14 -11 1 15 15 39 0 -17 54 9 10 -5 -35 -14 -7 32 -26 -9 46 46 -49 13 31 -22 -6 -2 -1 71 70 2 -37 -21 59 39 -11 33 29 48 -45 -35 29 41 2 20 -6
0 3 7 18 9 60 -58 21 -15 13 -8 17 1 -44 1 -26 -46 20 39 1 38 -46 -27 86 13 39 -19 62 -32 33 38 -20 -53 10 38 -10 14 37 -12 -53 -29 -6 -16 -25 31 11 -10 -41 55 -21 62 -62 -65 52 -70 -44 36 -7 28 -1 13 -38 22 30
22 40 8 25 -19 15 -10 6 -51 -27 -9 -12 -12 -8 -27 -40 -18 10 7 -16 -12 13 20 15 64 -19 5 57 20 17 5 50 -17 -34 57 -4 2 23 53 -44 18 8 -28 -4 -5 11 -4 31 32 -27 16 -38 -30 26 63 -34 35 -55 -10 -14 -30 -37 22 64
10 -2 -38 21 -6 -14 65 7 12 -17 -17 -27 35 47 22 75 22 -6 -28 4 -28 -35 -23 -33 -60 -13 -18 -25 6 -19 19 33 45 -8 -87 -16 52 3 -26 50 -10 -41 54 3 -12 33 -26 -45 2 33 -22 -4 -32 35 -38 47 -45 18 20 -15 26 8 -51 -18
19 -30 20 -9 32 1 -6 21 14 -20 25 32 -30 -14 -21 -40 -3 30 66 -4 -27 9 -42 -7 70 -35 14 -38 19 17 -30 -60 32 -34 31 -12 1 44 44 -1 51 20 -18 -30 -56 4 64 24 17 34 -29 12 14 0 63 46 -44 8 -24 46 45 11 -22 9
48 36 -10 -31 -29 -24 39 48 10 7 56 -27 -62 35 52 50 24 43 4 8 -13 4 10 -48 5 -71 31 -15 3 15 5 0 48 -11 11 -46 -38 -16 31 46 -62 -42 -2 -12 -7 21 -12 -48 -34 -26 -5 -48 -7 45 19 12 -22 -35 6 -18 32 19 -30 -27
-32 -30 57 -11 50 -83 -5 17 -36 -7 -4 -2 19 -29 62 5 18 -26 -63 15 -1 89 23 -3 -57 12 -38 -6 46 49 16 -4 69 9 -30 58 9 -43 -67 33 -1 17 -19 16 -46 -3 -20 17 -21 5 44 -6 79 22 -59 3 -54 25 -4 -89 -45 -47 16 39
-13 -25 45 -11 -20 -27 25 -40 27 -60 -13 -12 26 16 20 47 21 54 -29 33 -57 11 -23 -31 56 -29 12 -45 -26 -66 -3 -4 19 34 -17 -9 -20 9 46 43 26 -38 -27 -37 -81 18 -11 12 -37 13 -68 54 2 20 74 68 -33 52 -26 -45 -10 1 -1 9
-55 -6 -15 -12 29 0 22 -22 -21 17 -46 43 25 -53 -11 -25 -11 4 20 23 0 46 24 49 -37 44 -45 -13 4 23 15 -41 29 69 -2 40 -15 -29 -69 -40 13 41 -39 -13 -15 8 -41 -72 45 12 74 -47 59 42 10 33 6 59 -10 3 -7 -32 8 39
41 -11 35 -36 22 -87 3 -25 -27 -24 -30 69 31 28 51 -29 38 -1 1 -25 -27 34 8 -69 30 -9 -48 -1 54 -3 -20 -4 41 57 5 35 21 -6 0 20 36 5 -22 37 -29 -21 44 20 -4 42 -63 55 58 -88 40 -10 -80 28 -35 -2 10 -20 7 25
-19 -37 39 -16 21 -15 60 -2 7 -5 62 26 5 40 -46 15 -43 -42 26 25 -20 3 -3 -37 -54 -2 79 -8 -26 -27 23 40 1 -46 -37 -36 -2 17 5 10 -40 18 22 -25 20 53 -42 27 -13 25 23 22 6 43 34 -3 -7 25 40 22 -32 19 0 17
-49 -32 15 87 -41 -38 0 42 -10 11 43 -11 4 -37 -33 -8 30 1 -1 -15 32 2 2 3 -35 8 -59 3 48 40 -20 -21 7 36 -23 -16 1 -9 12 24 -10 12 17 32 25 -17 36 -50 57 -55 -13 -1 20 -27 44 16 -31 -68 -1 -27 46 22 8 24
-15 4 -9 56 -5 0 -2 15 -24 -16 32 -18 -31 -28 -24 -20 14 -26 -53 -1 41 24 47 9 -25 -17 -70 2 29 96 4 27 3 -42 -6 5 -13 5 -35 -15 45 50 -12 43 27 -32 -1 -44 41 -25 33 47 -18 -13 32 -55 -37 -33 -13 -23 20 -34 -9 -18
15 50 15 1 2 4 3 6 20 -1 58 -3 -21 -13 -43 -8 -12 -4 -23 9 29 50 10 4 -48 -2 38 -33 -37 -41 8 33 -15 -7 5 -39 -12 24 23 -47 -31 -52 16 25 39 67 -61 -28 -32 31 -12 48 -29 39 -63 -9 7 33 65 5 -8 -52 -32 -10
31 -27 -16 32 5 -52 -3 19 -9 49 0 29 50 0 -31 0 26 1 25 39 -24 3 -40 8 11 65 16 -33 52 -12 13 21 34 -6 -17 21 -19 -13 10 56 11 7 -11 29 10 -28 -11 -17 -11 33 28 -13 41 -2 19 1 -43 2 -46 -15 -9 12 -7 36
11 18 -21 -19 -25 -29 -26 -10 -22 29 -52 -51 7 12 -19 16 20 21 14 -43 72 -17 -24 56 51 51 -49 -25 22 13 37 -56 -35 45 13 -5 38 41 8 8 11 -16 6 -14 0 -20 22 0 45 14 -21 -33 -44 -16 18 8 -9 -1 -15 46 18 44 -65 -44
7 42 4 6 -16 12 -56 34 -53 -9 15 -103 -30 30 25 -12 -3 33 33 -2 24 -30 12 -6 -23 -11 17 9 -42 43 19 63 5 17 -51 40 -17 38 -10 34 15 -75 30 15 40 12 -15 -29 34 -44 29 -48 -47 -12 -68 -7 -17 -25 74 12 62 6 -29 -5
-48 53 -3 48 43 34 -12 21 -54 21 20 -26 9 -63 -23 -14 -6 -38 -44 -43 64 27 56 35 -15 53 -11 -37 5 49 23 -26 -11 -1 1 -9 -5 -47 -36 36 5 24 4 8 21 -39 -33 -58 -1 22 54 -15 9 55 -50 18 -7 -1 11 -3 35 8 41 18
-5 -35 -17 35 68 -2 15 -3 62 51 15 41 -16 -25 -32 -4 -49 -68 19 46 9 -4 31 -3 -56 -24 51 -19 44 -22 2 31 15 6 -31 -19 18 -26 54 35 5 10 -32 24 17 23 -58 -3 -15 18 -14 -2 28 23 3 -62 16 -7 10 -37 0 -37 31 -17
-5 57 -9 -23 -33 17 -8 -29 -31 -63 -42 -3 -18 47 16 53 49 56 -5 32 -25 19 49 -16 8 15 -33 -9 -28 -18 -9 39 34 -69 -43 29 -24 18 1 36 20 33 35 -57 14 -10 9 25 21 3 16 -6 43 18 5 -24 29 32 -1 3 -9 -42 77 37
-25 21 -14 6 -12 -47 -15 10 -9 6 -30 -1 -31 49 28 -13 -1 9 -19 -12 -10 -1 1 -49 38 -20 -33 -8 3 -31 -40 43 17 -3 3 20 -27 0 31 31 -6 5 21 -41 -29 36 7 31 14 7 -31 -23 17 -60 -5 0 -21 22 27 -25 -7 -21 -2 3
-26 17 -28 21 -3 -13 -16 23 -20 -48 -42 -31 -16 5 -4 23 4 -20 -13 36 12 58 45 12 10 30 13 1 -21 -28 -12 -9 7 17 -46 58 -19 -57 5 -7 28 32 37 -6 18 -21 -42 -27 23 17 -11 4 46 -11 4 54 -19 50 10 -28 -15 -29 56 18
30 -1 -5 24 44 13 16 16 12 50 42 16 -24 -14 -33 -7 12 24 14 6 -27 -42 14 18 -83 16 69 -8 -38 -16 27 6 11 -29 -23 -83 -12 10 66 19 -19 -52 -22 9 40 28 -15 -65 -20 81 -40 54 -14 35 -70 -19 -13 43 64 33 36 -21 -28 -13
16 30 -19 -80 30 -5 -10 -7 -23 43 33 2 1 -19 -16 9 -27 -22 31 -39 4 2 3 -7 -50 -24 60 6 -38 -17 -23 8 21 -40 15 -62 -40 17 25 2 14 -11 2 -22 1 37 -24 9 -40 41 -1 37 21 54 -33 -5 26 5 -17 22 7 26 -8 -24
3 50 -21 20 -39 -5 -20 2 -18 -49 -3 3 55 -3 22 -1 24 -1 -24 -15 -12 -65 62 -44 9 -5 -35 -19 -46 -3 -23 21 18 11 29 15 16 22 -59 -16 -21 19 8 -14 -16 -15 50 68 -28 -41 6 13 -4 10 -23 -16 31 -35 -46 -24 23 14 40 23
-56 37 -46 8 -10 4 -35 14 -32 -20 -78 16 -14 -29 5 -17 -14 -31 26 2 53 -3 -21 37 36 95 -60 0 16 23 38 -6 -8 1 -24 -43 32 20 -15 -17 -6 22 -8 21 14 -27 8 -5 23 39 4 -57 24 25 -23 -4 -4 19 -27 -7 -8 -40 -20 -30
-52 25 -2 -9 -12 11 -5 5 37 -12 13 59 -37 -24 -67 39 -22 -22 -8 -11 -56 -45 -15 -26 -2 -3 -11 -7 -3 -60 -18 32 6 -36 76 -65 6 23 6 -17 -5 -7 22 -53 40 1 -28 23 -29 25 -25 45 39 15 40 -30 2 -36 -5 -19 -10 -2 -16 14
-2 -12 8 -33 -5 15 -3 1 -51 17 -15 -97 -30 21 31 -10 -28 49 12 -31 22 -34 11 49 47 -40 3 12 -16 -20 -44 -7 -36 -12 -23 -11 -26 11 23 37 -59 0 44 -20 -2 4 11 -27 17 -16 -2 -46 -57 25 -33 -10 -8 21 35 29 74 10 2 -42
-16 30 40 11 2 29 -43 34 -41 19 45 -30 -37 -41 35 19 -43 26 34 -28 32 43 27 3 -12 -39 -10 6 8 41 -22 24 28 25 -46 55 2 -15 -36 18 -56 -8 -16 26 -20 35 -71 -25 -12 14 37 -34 -20 14 -29 -24 38 39 7 -31 33 -26 -1 -10
-59 37 11 2 -21 9 -17 9 45 38 36 3 -41 -40 -16 21 6 -34 -12 25 -9 13 -11 31 -57 17 34 -21 -7 -33 24 49 -11 -2 18 -7 -21 0 -11 -3 8 -15 20 -25 -4 6 -37 -50 -18 0 -26 15 7 17 -1 6 19 -20 -15 -15 -72 -5 13 0
-43 -19 6 -17 12 37 38 -47 100 -13 27 58 46 -36 6 33 4 9 26 -2 -78 -26 -21 3 -34 21 42 5 31 -59 -16 8 -27 -21 17 -93 -10 -19 76 -53 13 14 -12 -46 -12 -15 33 1 -40 -1 -73 51 62 66 71 -21 -6 6 -8 49 -27 41 -24 -18
-46 29 -22 17 17 -12 47 -28 88 -11 -34 89 15 -37 -27 -4 -7 -12 -6 17 -107 -40 -24 5 -23 36 -9 -28 40 -43 -1 21 38 15 41 -42 -29 -53 19 -57 -3 -23 -18 -3 -29 15 59 -12 -16 49 -70 38 48 25 36 -13 -10 26 -16 33 -54 26 3 -14
-61 -23 18 41 28 11 -15 -16 45 -16 -19 118 1 -29 14 -25 -17 -32 -15 -24 -53 41 -49 45 3 37 -52 -18 25 42 31 -16 28 72 40 26 -34 -41 -6 7 46 23 -57 16 -42 -54 52 8 42 32 -8 -17 72 -43 11 28 -36 -13 -30 6 27 -24 -21 44
-5 10 -1 -17 5 -25 3 -37 66 -24 -41 102 97 7 37 -3 -8 -57 -31 -35 -5 41 -21 59 -30 60 -39 24 86 16 39 -9 17 41 27 5 8 -40 3 -52 75 10 -33 4 -47 -24 36 31 -13 36 -42 25 43 1 51 32 -22 30 -64 -27 -96 -37 8 -14
-21 46 2 27 12 10 28 -21 -31 -20 14 -60 -23 36 25 7 9 -56 -12 30 27 33 11 -36 -3 -59 40 -46 -94 26 -47 -41 -10 -35 -63 31 21 -2 -64 66 -28 -2 26 9 56 -29 -38 -50 -51 -6 66 43 -45 61 -80 31 -55 -50 47 -54 99 50 -44 13
-14 25 -41 15 34 29 -11 22 -46 8 13 -24 -13 23 13 -33 24 63 0 -34 76 16 -27 43 35 -24 -46 40 -30 42 2 1 -34 -23 -23 16 4 8 -1 20 -10 -13 29 -15 30 -4 21 -43 -14 -43 30 -25 0 28 9 18 -4 -22 15 10 35 10 -38 -1
-18 -8 -7 -29 -65 -17 28 -41 27 -51 -4 127 3 -33 -34 -24 -5 43 17 -33 -54 -23 6 9 -6 119 -61 38 59 24 26 9 -29 1 101 -31 -31 -27 18 -79 38 16 -4 -18 1 -73 34 61 -40 -14 -46 -41 17 -11 81 -15 47 -7 -76 -32 -87 -24 10 5
21 3 58 -41 25 -3 52 29 30 45 54 6 21 -27 30 53 18 -9 7 16 -77 -16 41 24 -57 -37 33 3 55 -17 36 72 40 34 -5 -22 -15 -49 -15 54 -3 1 3 -56 -10 39 -21 -35 -55 44 -11 -15 29 -17 17 20 29 75 4 -27 -104 16 11 27
19 -50 6 12 50 -43 -31 -4 -44 6 5 -84 -25 41 -14 -23 2 -29 48 28 63 -13 36 -33 21 -46 23 -56 14 55 -12 -29 34 -14 -60 -10 14 8 -39 64 -3 -26 11 36 39 16 16 38 17 -11 7 41 13 -28 -22 19 -59 28 -18 15 65 18 -60 -49
-6 32 -2 -8 9 -2 -35 37 -84 15 -27 -71 -60 48 45 -14 -32 50 8 13 24 29 -20 2 61 -46 5 -63 -24 55 -6 -20 -8 43 -79 -12 -12 27 44 35 6 23 24 8 17 46 0 20 37 -55 22 -78 1 -25 -80 -8 -26 -3 13 7 86 8 -37 -27
-5 21 6 49 29 79 -30 0 37 31 -1 39 -56 -36 -46 41 23 -13 -1 37 32 -21 31 -44 9 29 -9 21 -65 7 8 49 7 -45 29 3 -57 45 4 -47 18 17 -24 -33 32 -12 -41 -71 -49 37 -14 41 18 79 19 -44 8 -43 13 2 0 44 24 -4
-13 41 -3 -38 15 -12 52 -4 18 -34 32 -50 -2 1 55 61 19 -5 26 -11 -60 17 5 12 11 -38 27 5 -8 -46 4 50 29 -31 -26 18 -34 -27 30 -1 12 1 -1 -32 16 -1 26 -34 -59 15 -22 18 -1 61 -19 -54 -48 14 -31 15 -10 6 -23 9
-50 21 37 -7 -21 18 18 5 -19 -14 41 -28 9 -9 -38 -28 9 9 30 -23 -11 42 -13 17 39 43 33 13 6 -6 7 5 -16 -49 -11 62 -15 11 -50 67 36 -4 8 -17 41 39 -7 -100 -12 16 10 -24 4 33 -43 29 4 -13 2 -18 1 -11 -6 41
-31 -4 -2 57 42 38 -48 -20 7 42 -53 -19 -22 4 4 13 -69 -51 -22 3 24 -36 13 27 -27 38 -21 23 -47 -10 13 5 -27 -33 3 -25 10 -22 13 16 9 10 -60 -19 -7 -4 -32 -20 10 -11 60 17 50 24 -21 0 17 -20 53 -20 1 24 34 -33
-24 -34 18 18 44 15 62 -25 -17 17 33 17 -27 -20 1 35 35 11 -7 -23 -29 19 13 -23 -27 -42 12 -21 -11 -26 22 -8 -19 -4 -52 5 -15 12 -17 -6 3 20 60 22 -19 36 -36 -12 11 22 30 33 -29 -35 14 -27 -26 32 27 4 -1 -24 -25 -2
12 5 15 39 -5 1 -46 -3 4 7 -23 35 12 4 -17 5 -5 16 7 -39 23 16 11 -3 61 49 -10 -11 -9 -34 -31 -15 -28 -18 -36 7 20 9 1 -34 32 -7 -23 -50 38 13 -41 -12 33 -24 -29 45 -10 15 -29 -4 -16 35 -6 17 7 -11 -1 29
5 -26 -47 5 45 -30 -45 -29 -21 42 -54 20 -15 19 -6 -5 32 31 -38 19 -16 7 -14 9 17 23 -34 18 -5 45 21 -31 -22 -8 7 -7 4 40 7 -57 43 -15 11 26 -20 -6 57 22 59 11 -6 25 -7 -8 34 -26 6 12 8 35 33 30 1 17
36 17 64 -41 21 -10 -46 24 -6 -12 -4 78 25 -81 -7 -36 10 23 -23 -26 12 8 24 17 30 45 -23 53 45 40 -27 47 25 20 39 5 44 -15 25 5 -20 -9 3 -25 21 29 -19 -20 -68 -2 -16 -24 6 7 9 8 25 -19 -3 -49 -16 27 -3 47
28 -35 -27 -9 36 -15 -30 30 4 -32 -47 -36 0 45 25 29 -20 3 1 24 -25 -11 -19 -32 -1 17 17 -44 -3 27 -6 36 -52 -17 13 -27 23 26 58 -28 -14 18 8 27 27 18 -12 30 52 -38 5 50 -21 -21 1 -22 -3 17 1 -9 22 -47 46 -55
-8 28 45 40 11 -3 11 -23 -13 11 27 -30 -2 -4 -31 -47 27 -61 -19 10 14 -6 -4 39 14 -8 -10 -11 -12 -10 -1 -43 -28 18 -17 57 -19 -13 -29 23 19 0 -22 -10 64 -24 -7 -50 -74 22 71 -57 -15 32 10 18 18 -39 30 20 40 14 -2 -14
-3 -31 -7 67 -14 -5 -3 23 -15 9 -18 -23 -11 -10 0 28 -3 -30 40 -6 -16 67 -10 12 23 -25 59 -19 -17 44 -30 -16 2 -30 -3 27 -14 -46 -78 48 40 38 4 35 -4 -32 77 -53 -49 -6 53 46 -38 7 -42 -17 -49 3 -11 -3 15 33 -23 27
2 -44 7 -48 12 -37 16 -46 30 20 -20 61 22 -90 30 13 54 19 -44 -6 -28 -20 38 -31 -7 13 -28 27 25 14 -1 14 39 -9 -50 -3 47 -25 -12 -41 -60 -4 8 4 0 -35 12 3 -54 10 -75 -37 4 -15 -20 34 51 53 -25 18 -40 -10 -6 25
-49 15 -12 44 -2 -1 56 14 -21 -36 -10 43 7 22 -19 -32 9 -48 -29 -14 -25 30 -1 18 -7 33 25 -53 17 -22 -28 21 -27 46 -38 9 9 -25 -13 13 42 22 -34 60 36 -46 -28 -10 13 -26 30 21 32 -33 21 50 3 38 14 40 14 -25 -13 -3
-56 -29 32 53 52 -54 18 10 -15 -12 -28 -18 -11 88 41 3 11 11 19 15 1 24 26 -17 22 -35 3 -86 -6 -2 -16 -6 -3 -26 -28 20 12 -29 9 13 86 38 4 38 -5 22 -20 55 71 3 72 37 -18 -61 -36 37 -63 44 25 -3 38 -16 26 46
17 -24 4 -53 27 -19 27 -21 25 27 27 -4 55 -34 -6 44 30 -39 24 -29 -27 35 -13 43 21 1 -9 40 17 12 -21 -30 10 -17 35 -15 -30 -41 21 17 9 -25 33 -15 -41 -28 46 -53 -60 39 2 -62 -55 43 48 -15 11 -17 -46 21 16 10 -15 -35
-12 3 4 43 -13 -46 24 50 -36 -31 -25 -15 32 4 0 -3 46 -4 37 7 -17 12 11 -2 -22 44 -23 -5 45 25 28 -23 27 16 -4 36 14 14 -26 -16 17 -8 -4 61 -22 -17 1 60 16 -6 10 22 -9 -17 -30 -1 -36 13 1 13 -29 -31 13 38
-6 11 -9 12 39 -3 -11 2 -18 -21 -34 -36 -3 3 -8 -19 -9 38 5 11 37 -15 21 24 21 27 -5 10 -36 47 8 -34 -18 -6 49 -11 6 32 -50 -14 25 38 1 14 52 10 47 4 -12 32 20 32 47 6 16 -15 -39 -23 -5 -10 26 24 0 -28
53 -22 52 -51 -5 -54 -35 -33 -25 -2 -35 12 46 -16 10 -28 48 -17 -26 -23 27 10 22 11 29 20 -75 29 60 26 23 1 3 84 3 26 6 -51 -18 -33 23 13 7 6 -50 -6 61 29 -19 -4 -9 -58 -26 -67 1 -22 24 38 -14 -57 0 -4 -16 -6