-35 26 -38 -13 39 -41 39 38 34 35 -30 -2 -9 -15 6 15 23 6 9 27 -11 -7 -29 -28 -16 -23 76 -31 9 -55 10 39 -15 -10 -59 24 -22 7 29 3 -2 -40 4 -34 -5 8 -17 -56 -10 60 18 36 43 6 -22 -17 -50 48 5 23 -34 -23 -34 -32
-1 -26 -2 -52 -7 -17 -56 -31 35 -41 -65 -7 11 32 -20 -67 -14 46 -49 2 29 35 -16 57 -25 34 -93 -27 43 24 72 11 -67 80 0 29 11 -11 29 -71 -4 7 -58 2 5 52 87 40 28 -4 0 -45 74 -90 28 72 -4 18 14 -26 21 70 7 -43
-14 -8 49 31 -7 -29 46 14 -29 27 -41 6 -24 -33 63 22 34 -26 -14 1 -45 -7 29 -42 7 -45 -7 -39 -7 -27 -36 44 4 16 -25 8 -43 -9 -4 53 0 34 -2 -8 -28 -11 10 -17 -15 64 -8 -71 24 4 -77 26 -10 56 27 35 -8 37 10 54
22 -5 -28 4 44 12 7 60 24 -25 17 -19 1 11 -26 17 -46 6 -36 77 -13 -15 42 -94 30 -38 -24 62 12 -54 34 52 19 -5 0 -34 9 0 10 4 -62 -11 -5 33 -13 7 -50 -20 8 37 -59 7 -24 8 43 -5 41 1 20 -58 -67 0 18 26
-37 -14 26 8 2 -63 -11 3 5 -3 -30 -5 18 7 35 -47 5 -19 -48 -57 9 38 12 40 -46 29 -67 -16 41 18 25 3 -17 29 14 -37 -28 41 -17 -7 50 -14 -31 32 33 2 -12 36 91 -16 30 -28 35 -29 -37 -8 -16 34 -6 -38 55 -15 10 17
11 -8 37 -41 -5 -11 34 3 2 12 -59 60 5 38 21 15 -7 2 28 20 -29 -9 22 18 -1 32 13 5 16 -11 -49 1 9 -19 9 79 -60 -32 0 -21 9 38 -10 -2 -17 -14 -21 12 20 -49 6 -3 -5 52 17 26 -46 -26 -38 -20 10 -54 4 11
11 7 -41 7 43 -7 84 37 4 -34 -25 46 -11 -6 -28 36 9 -16 -48 9 7 12 7 -41 -16 -24 66 -44 7 -42 -40 78 15 6 -23 16 -30 -50 -34 -15 26 17 26 -45 25 -20 11 -9 -1 -41 -17 -2 -13 24 29 -31 4 11 -3 -27 -27 -38 48 53
18 4 -37 -37 -7 7 16 -45 -32 5 37 32 -1 -38 -76 2 -24 30 -1 -11 -4 13 3 -34 -27 20 45 12 25 -15 -24 16 -3 5 -1 7 -3 0 46 -36 8 13 5 -30 17 23 -13 -15 8 -9 -20 15 -25 8 -14 -20 14 0 10 19 10 -4 21 31
4 -17 55 -8 -61 38 -48 46 -17 -31 -23 -3 22 83 -28 -10 -20 86 34 15 -31 -3 32 -7 16 15 5 67 17 2 7 -7 -31 -44 31 -22 -16 -15 62 -17 -6 25 -64 -31 15 14 29 34 -1 -27 42 1 -50 -64 23 6 60 19 -42 -3 30 -28 -4 8
45 -18 -38 9 -10 16 -45 48 -27 -5 41 33 -11 -5 -8 -38 25 38 26 27 -41 2 -62 -24 -30 -32 24 37 -8 -36 12 15 27 -39 21 1 33 21 17 -21 -75 -9 -40 -46 -47 -41 8 14 -41 -36 3 -19 -57 -6 58 49 55 -4 -45 11 46 10 -17 14
13 -37 -32 17 35 -7 2 1 -7 24 -35 30 21 -12 33 -15 -21 -37 4 59 61 -19 -28 11 -17 4 -13 14 11 -14 31 -34 -7 10 39 -39 -33 -30 33 -18 -41 3 -46 -11 22 -37 -5 4 0 19 37 -1 24 -16 -8 8 19 26 11 26 67 25 -3 -32
-32 -16 5 -1 20 -24 -14 18 -18 86 23 5 -26 -56 -12 -56 -43 -53 -13 12 28 39 -32 -36 -32 -3 -10 30 71 29 4 -33 5 5 16 -14 -4 -35 -50 0 17 24 -34 27 23 -4 15 18 16 -24 25 27 47 -33 -2 -39 -23 -6 18 20 5 -5 -3 34
-25 6 -7 8 40 22 -33 23 4 63 -35 15 -25 -24 -44 -38 -22 15 -20 7 21 11 -23 21 -12 -5 43 -28 -29 -25 64 2 -83 55 41 -10 2 -45 -5 8 -7 8 -35 14 18 2 53 -43 1 -25 91 -28 7 -14 37 -7 74 20 26 -37 1 17 -3 -15
-10 -30 -26 -56 -35 46 -29 -26 0 -7 27 71 62 3 12 -13 35 -1 1 11 -33 78 11 1 -60 8 -5 30 21 -12 -6 5 -2 -20 -32 44 34 3 -50 17 13 -46 -1 -31 -12 34 -20 55 4 -29 8 4 -12 -1 -59 -32 -3 3 -11 -26 -16 -32 23 14
51 -10 -46 -12 5 81 -27 45 22 12 4 2 -12 -18 -14 -36 30 40 -13 -23 38 -19 -16 -20 1 -1 -18 56 34 -9 9 62 -7 -4 -18 -31 32 28 99 -30 -110 -81 -19 -26 -33 9 67 -41 -64 5 -64 -56 -1 4 78 -17 105 0 -19 -13 -91 -14 -7 -20
4 -35 14 41 -9 -29 84 13 46 -40 19 -60 16 -40 67 37 13 13 -26 35 -48 3 -13 -27 -20 -43 -1 -5 -21 12 -18 27 23 10 -37 32 -17 26 -16 49 11 -5 27 -22 -47 -24 -58 -21 14 64 -26 -16 -51 7 -55 41 -49 8 27 24 -19 -15 10 21
-59 -4 -23 42 49 10 45 -54 35 34 -44 28 52 -22 -27 34 -27 -4 -16 17 -29 -24 70 -23 -36 30 5 -9 62 -48 20 37 15 20 -72 -3 28 0 11 -15 52 -23 -7 -21 44 45 -54 5 5 88 -10 -32 -5 -11 -23 -8 10 -10 9 5 -15 24 4 66
2 -4 35 -70 19 -11 -29 30 3 28 36 -10 42 -20 11 -30 0 36 9 8 -26 -22 3 37 -27 -7 13 64 29 -24 25 -62 20 -37 -5 -23 4 35 23 -10 -5 0 -14 35 -54 10 -46 39 -20 1 -48 -44 14 3 18 26 -3 20 1 -13 8 -5 -17 -3
27 54 -26 1 -33 16 -111 12 -3 6 -48 -38 -33 -1 -94 -36 -42 73 -10 -32 15 -3 9 38 -33 -26 -9 57 -62 -12 25 15 -93 -2 64 -32 8 21 32 -39 -44 -9 3 2 22 6 62 -9 21 -45 31 1 -35 -29 25 -25 47 -25 -15 9 39 14 0 -13
-29 -10 -59 59 74 12 -26 75 50 -22 -38 5 19 -10 -3 18 2 -56 -90 -22 30 19 58 -27 -72 -21 -92 35 21 -21 44 28 -10 23 61 -40 8 -12 13 -31 -26 -30 -36 -24 31 -40 -5 38 21 12 -48 29 3 8 29 -18 52 19 74 8 -21 91 48 -9
-55 -49 57 19 -43 35 -3 57 -20 -7 27 44 -15 -8 -27 31 -8 27 51 24 -26 23 48 -40 9 -8 26 50 23 -5 5 90 -25 11 31 52 -20 -31 -6 -27 16 -9 -55 -48 -1 21 1 8 18 4 52 -18 -46 10 10 -7 23 42 -71 -35 -34 -74 43 48
-11 17 -9 -22 -10 44 -105 35 -22 45 -18 -56 -31 -22 -21 -53 -11 19 23 -15 42 12 -9 -27 -47 18 12 64 -25 -2 57 -15 -62 19 38 -13 -7 -5 1 -21 2 16 -17 36 24 1 24 16 13 -50 87 0 -22 47 -14 7 62 -3 -11 3 14 0 -7 -27
11 21 -50 -53 -1 -26 -110 -19 -7 20 -74 -7 -26 3 -59 -23 -28 42 -21 8 44 -12 -3 34 -23 -23 -50 64 -34 2 26 -10 -62 -31 64 -28 13 15 41 -59 -22 43 -4 2 40 -7 55 -3 4 -62 75 -36 5 -26 12 -25 82 -15 -27 19 41 14 20 -14
32 44 5 -25 -7 15 12 9 -25 48 -34 19 -56 -14 -8 -20 1 1 -34 -11 30 -9 -19 -24 21 19 14 15 42 11 -44 -10 -14 -8 9 18 -61 -12 0 25 23 50 20 22 -27 -58 11 -15 -9 -10 43 33 16 48 0 -12 1 21 -27 -9 -4 -8 11 43
-19 -19 8 48 61 -35 40 48 6 81 102 -19 -61 -100 -30 -28 4 -74 -60 -10 66 -31 -6 9 -81 38 16 81 23 12 13 17 18 -16 46 13 -36 -15 -32 21 -59 2 -17 19 37 -1 16 -45 52 53 33 81 1 50 -42 -54 -4 13 10 16 -17 -17 -23 -40
50 21 -36 -27 -6 -17 -15 -20 11 -3 -30 29 -40 23 -5 -46 5 5 2 3 31 11 -31 23 15 51 5 -30 25 50 -31 -40 -21 36 9 33 -37 15 69 -11 57 30 -22 -39 -16 -3 30 26 56 -18 22 45 14 -43 45 1 7 4 -12 -32 18 -5 45 54
43 -2 -20 -23 -2 48 -39 4 22 11 -58 -33 0 59 -49 7 -19 58 -30 -40 12 -17 -31 -12 0 -17 -90 25 -5 -46 51 49 -20 50 37 -11 21 31 89 1 -104 -54 2 -26 8 53 -15 37 -10 14 -72 -86 -31 -38 37 13 67 36 14 -10 -11 55 32 -26
6 -6 -22 33 -64 40 -36 -1 8 -47 19 29 7 40 -42 -31 -93 12 8 30 -7 -60 28 -31 24 -28 -12 34 2 -1 -16 11 -36 -67 -8 6 27 41 -3 -18 -6 -1 -2 -9 33 30 40 -45 -48 -11 -9 59 -30 23 -25 -30 41 -17 -8 -8 7 -22 -1 -2
-52 -11 8 6 -45 68 9 31 -23 50 14 52 -11 -4 -52 -3 -32 52 31 34 -19 -55 57 -22 -13 -9 23 59 -25 -23 -10 47 -35 23 12 5 -39 4 12 -17 -15 17 2 -61 51 25 8 2 -22 -9 13 -12 -37 15 3 -24 51 21 -43 45 -42 -57 22 69
0 9 9 58 40 16 29 5 39 41 53 64 -31 -106 -29 3 20 -72 -42 -9 2 2 18 0 -71 40 -43 61 21 -9 23 37 37 -12 85 -27 -33 -17 18 -44 -38 0 -45 1 20 -24 11 -20 37 30 -16 41 17 58 16 -24 2 -5 16 36 -32 18 23 16
-27 -11 12 54 28 -7 -13 -9 24 -24 20 -29 55 53 -44 -22 -31 22 9 59 -19 -13 65 -31 -27 -12 31 48 -21 -80 16 13 -15 23 17 -34 13 -56 -31 3 36 -1 -46 -10 29 53 -17 28 13 11 -2 11 -25 28 -2 -23 20 29 29 -20 10 -27 21 5
4 -10 -62 20 24 7 56 -6 14 -1 -16 -14 -12 23 -27 -9 -9 13 10 -12 -48 -33 -30 -54 -7 24 38 35 -64 -60 38 -3 2 -65 40 -66 8 3 31 8 -58 -6 -5 33 7 58 -53 -26 -77 63 -26 32 -16 24 76 -16 34 51 -3 -9 -13 22 -8 19
40 -2 -14 -1 -62 86 -59 -13 33 23 10 17 -12 5 -46 32 -12 92 30 2 -20 -54 35 7 -52 -63 16 81 -6 -61 0 20 -39 -61 -17 -48 15 43 79 -22 -29 13 22 -57 65 38 11 -25 -17 15 -39 -34 -68 47 24 -9 -2 -13 15 65 -2 35 -15 -1
-23 -39 43 2 -13 -27 59 15 34 -13 11 3 -30 -44 -36 -21 21 -35 -64 48 26 -46 18 3 -42 35 -14 42 68 18 27 0 -10 -18 42 58 5 -55 -24 20 15 36 -30 11 4 -18 25 -15 81 23 44 -9 9 -7 -18 -22 21 15 6 22 -20 -41 -9 -16
-30 -46 -19 -2 82 -37 -28 0 36 1 33 15 -10 -76 -15 -25 25 -61 -64 -1 0 25 -9 14 -10 15 -33 19 77 16 77 74 -28 61 -15 -27 -6 -41 24 -2 21 -15 7 10 36 -26 -35 -58 -29 62 -63 -6 50 14 -57 -53 11 18 51 -36 -79 -31 0 -1
31 -36 48 -2 -49 -4 5 7 -11 1 -29 -54 -21 116 -9 1 -10 30 16 20 -33 16 -10 0 21 17 -10 -46 50 15 42 -25 -9 25 -16 -6 10 -16 2 39 43 -3 22 9 6 26 2 50 -19 -16 13 -65 31 -59 -12 42 -43 -11 7 -15 -5 -15 -32 -8
-1 -20 9 42 -32 -2 15 -12 11 21 17 -24 41 71 -4 -52 -26 4 20 6 3 -3 15 -14 -12 -20 -17 22 -33 -11 27 -35 9 15 -2 -35 -3 3 -30 20 35 37 -31 11 36 22 -32 89 32 -7 6 -16 -37 -74 -67 -3 49 -1 73 8 80 21 -5 13
-4 -40 -41 -3 41 -10 -29 -63 32 28 -79 60 -3 -19 18 -38 18 -1 4 -58 26 24 -37 10 22 -14 -8 -12 -12 -2 92 -29 -22 76 21 12 0 -68 9 -47 31 -11 -24 44 -34 -31 42 0 -18 -3 18 -22 35 -6 25 74 -12 -16 20 -31 7 0 -19 -60
-66 -38 34 11 -11 -4 37 35 -46 3 14 24 -10 62 -30 29 -48 -12 64 58 -51 -14 20 -25 2 27 39 -9 3 -49 -28 23 -45 -17 -4 66 -39 -35 -13 15 52 14 -55 -57 -28 12 15 17 19 7 32 -25 -40 -24 -26 12 29 46 -34 -37 29 -10 41 55
7 -5 -27 57 -50 -4 -39 12 29 -9 -30 25 31 0 -10 1 -6 21 11 -10 -6 -14 70 -50 12 5 -54 -12 -2 3 -28 -32 11 -25 -3 -26 19 -17 26 -32 16 -8 -5 -8 -20 23 61 -18 -7 -30 -10 71 -35 20 8 -37 49 -12 -43 -34 4 -22 9 13
-6 -22 -6 -76 -5 52 -15 -15 12 30 7 -13 -59 24 6 25 30 -5 63 32 19 -6 3 -54 8 -13 78 102 -51 15 28 -38 -25 7 7 42 9 14 -29 -12 48 -15 -36 -40 -44 -44 -42 21 -40 9 24 -10 20 8 -18 -9 -20 -2 35 4 -7 -1 -15 15
13 -38 23 28 8 -63 -3 52 -41 -3 -17 28 16 14 49 -17 23 -15 -7 17 -17 3 -46 23 -34 5 -18 -28 0 42 1 -18 59 53 -7 42 -36 -20 -25 -28 5 24 -6 36 -10 4 33 -13 35 14 37 3 -12 -50 -19 66 -24 4 18 13 35 11 -7 -5
-22 5 -24 9 -1 19 -84 30 -34 11 -78 37 8 -52 -19 -53 -5 -3 -60 1 65 24 13 7 -54 14 -85 42 24 6 80 8 -19 68 37 -8 3 12 2 -71 -36 8 -97 38 11 -23 31 -20 40 20 36 -14 29 -29 5 35 -7 -11 63 -21 6 66 25 -34
25 3 -53 10 -4 0 7 -6 32 1 -12 -35 18 31 -3 -35 -5 15 37 -55 -15 1 1 60 -13 -56 6 -15 -3 -48 59 -23 19 50 -30 -26 36 -14 33 2 -33 -35 28 11 -9 27 -27 30 18 -21 -21 -29 -32 -21 31 -13 10 3 50 15 28 63 -27 -64
37 22 -12 -43 21 20 30 -64 -17 7 10 14 13 17 -13 -59 -31 -36 23 0 28 6 -10 5 5 25 42 6 25 1 -21 -4 5 22 19 11 -19 -36 62 -17 2 13 -35 -11 25 -17 -16 6 1 -4 2 1 2 -18 74 -21 -31 2 6 22 -6 3 44 52
-17 -1 -50 -20 62 23 43 -45 17 37 -8 -11 -9 -6 12 10 -1 21 -38 -5 -42 -45 -23 -49 -80 -30 15 -6 -27 -16 0 32 30 5 -16 -17 -44 30 12 34 0 4 27 -52 13 1 -49 -29 14 64 -21 8 37 23 -49 -13 -20 44 1 1 -41 11 -14 43
2 -21 -39 11 47 -2 -9 -41 9 15 -11 -30 -17 -22 10 -3 26 -17 -30 -25 -28 -25 -29 12 10 10 -11 -41 -43 -33 68 54 5 -3 -27 -22 24 0 37 -16 -4 -59 2 -50 -27 -11 -8 -42 -25 85 -60 -35 78 4 25 46 -26 32 62 52 -14 58 -17 -34
8 19 12 -15 15 -16 -47 8 -57 4 -10 -10 3 32 -64 -18 -28 54 40 -16 52 12 -17 64 -37 -5 44 50 -26 29 -8 -1 -80 -26 45 -27 5 19 13 -34 -23 28 2 -7 40 25 47 1 70 -45 31 -17 -12 -1 22 -36 54 -13 -45 22 12 -47 3 23
-18 15 -49 -70 18 49 -16 -4 73 10 17 -64 12 37 -39 1 -26 60 4 -2 -12 -8 -35 30 -6 56 50 29 -34 -60 32 29 -14 -40 19 -37 22 43 64 -15 -76 -28 -11 10 15 111 6 4 -14 50 -23 -16 -12 -13 30 -19 33 35 -7 28 5 33 -19 -8
-62 -44 -19 -19 33 12 19 0 122 -22 -92 45 -7 -7 -12 1 -22 -42 -74 7 10 47 -6 1 -93 -5 -42 -29 22 -1 67 17 -45 69 17 -10 -7 38 -13 -46 31 16 -77 -2 68 -21 0 11 48 76 28 -19 62 -36 28 58 -55 10 109 45 42 121 -8 -29
8 -31 -68 37 18 -14 -19 31 16 7 1 -2 -28 -10 -1 0 -21 -19 -10 15 -8 -23 -49 -16 -4 29 -3 9 -11 -52 -8 -13 27 -28 6 -73 15 -24 47 9 -109 28 -20 -23 -31 8 -7 -6 -38 -18 7 13 -57 -17 13 -31 27 50 1 14 39 -2 1 -17
-4 25 -18 -20 46 11 -30 12 10 31 -3 3 -4 -1 -20 -38 -81 10 18 -10 29 -47 12 28 -11 21 36 22 -47 -1 14 14 -92 51 30 -5 -5 -25 10 -42 34 0 -5 23 32 21 38 38 28 -56 55 29 -2 -35 7 18 52 8 -37 -22 20 2 -3 1
24 38 -14 -41 16 -6 39 -16 2 21 2 2 -54 -19 -48 -65 -23 -30 24 -9 19 23 -28 46 14 11 36 -19 18 24 -20 5 -27 19 -17 11 -15 -13 11 1 11 10 13 -18 0 -21 -39 -10 32 15 40 -2 23 15 8 -41 -26 34 -16 -6 -17 -4 17 82
19 -14 -13 -4 40 -41 -25 -42 39 -10 -27 -29 -70 4 -16 -21 26 25 23 -37 23 7 -32 -16 23 10 -55 77 -36 -22 24 -11 10 13 96 -43 -30 -6 31 -26 -47 -6 -34 55 1 57 -10 25 36 -17 -44 1 24 -29 13 -24 11 36 -7 -23 28 41 -24 -37
4 -25 13 -38 -21 3 -23 -3 -1 -55 38 -40 -7 69 -7 -9 -42 84 -3 6 12 20 16 30 39 44 23 28 -7 10 -21 23 -46 20 1 -6 -28 10 50 2 5 22 15 -55 41 42 66 -17 46 -33 26 -49 -23 -14 8 11 26 18 -6 -15 25 -29 -29 24
-5 -8 -14 41 56 -27 15 3 25 51 63 56 -28 -95 -7 14 24 -71 -39 19 34 -31 -19 -53 -48 33 6 45 19 30 -1 -6 5 -46 65 -25 -24 4 -29 -3 -28 33 -34 31 8 -19 22 16 15 1 30 67 15 49 -2 -17 -11 14 26 12 30 -26 20 -19
-29 -40 32 0 19 -32 2 26 -23 -9 62 5 1 22 29 -27 6 -37 36 -13 30 26 6 -1 49 5 -24 -5 -14 34 0 -33 -7 28 91 70 0 -60 -16 -55 23 -41 -25 51 4 -25 56 -25 7 17 46 -4 4 -25 30 39 -20 -52 -62 -9 -21 16 -31 6
-17 -34 18 -38 -8 2 8 -29 -24 6 8 -3 28 28 -17 -49 16 -1 25 1 -12 6 -29 5 2 -38 -4 -13 30 20 -26 -22 -21 49 31 38 49 32 -25 -23 13 -3 45 59 0 43 43 13 -10 -39 -18 43 9 -62 24 4 -21 -25 -8 1 -4 8 -57 2
53 40 -41 3 -17 68 -3 15 19 40 2 -12 -43 7 4 42 -35 32 26 34 -45 -80 17 0 -13 -53 56 34 -60 -55 -9 27 -2 -55 -19 -68 8 1 96 21 -67 -5 37 -52 2 50 13 -48 -42 -11 -29 12 -87 21 -8 -13 58 -2 58 49 14 54 7 -40
-31 -15 15 -26 13 -29 -14 -17 24 -3 -63 4 -8 36 -20 -49 14 8 8 -8 21 42 -40 49 -22 22 -31 -53 25 2 49 7 -76 111 21 46 13 -50 19 2 61 -8 -55 1 -17 -10 27 25 20 -29 27 -58 63 -28 -11 108 13 11 -28 -39 11 47 -35 -44
3 -66 41 26 7 -36 -8 20 -15 10 -3 31 7 18 12 2 26 11 28 11 -3 -52 12 -6 -16 15 -13 -10 76 25 23 -18 4 18 -6 -10 21 -34 10 -5 34 40 -16 32 -32 -25 9 -4 27 -20 18 68 49 -32 25 16 -7 8 -59 -23 3 -17 -66 -7
-31 -45 1 1 -21 -27 15 23 0 -34 48 34 27 21 -4 3 -17 24 12 51 31 -38 1 -44 3 -7 11 56 16 33 -30 -9 17 -26 32 11 20 34 5 -32 -11 18 -37 -5 2 -3 42 37 12 -38 22 12 -53 -39 19 44 -15 -13 -15 -23 -1 21 -46 7
-13 4 -17 65 24 33 -45 1 -14 25 -16 -33 63 21 6 -40 -2 -44 -8 -32 -35 8 5 26 4 -6 -71 -52 23 -1 32 -24 -24 24 -33 -36 -2 20 -20 22 -32 -28 -5 39 24 26 13 17 5 -2 8 -29 -68 33 -20 17 19 -21 35 -20 2 23 29 -11
1 11 30 60 -58 -25 -3 27 45 -57 17 18 -4 -21 2 18 -16 -19 -72 40 -3 -17 47 13 -24 60 -50 54 41 -11 -3 44 12 -7 10 22 16 -30 -3 -28 55 -15 -38 -31 -37 4 8 -41 53 19 2 7 -17 2 -10 -31 29 -11 -62 40 6 -19 3 2
-14 -2 -12 32 43 -5 8 33 -9 -20 -17 22 -5 -47 49 5 -19 24 43 41 -10 -26 -7 0 -3 1 -15 2 -44 -15 -39 -7 -13 -41 -16 -21 27 -14 42 -22 0 10 16 -85 -67 -31 7 -16 -11 36 -21 41 -28 17 -57 52 -16 47 -31 8 -4 0 -5 6
50 -68 -35 -15 1 -31 -2 -39 17 23 -33 -5 1 -5 38 -14 1 17 3 -20 48 -11 8 30 -6 21 -30 -34 -19 -30 39 -38 28 1 24 15 21 -24 15 -34 -26 -25 15 -8 -26 -25 -28 31 0 15 -2 -74 -4 -33 38 13 20 25 39 -34 2 7 9 9
-24 14 -22 -25 3 -15 28 -47 10 43 -64 67 -6 -19 -2 -31 -1 19 -31 56 20 -34 5 26 -54 20 -27 -13 -15 -21 -38 -49 17 45 0 11 -26 -13 -60 -22 13 9 40 12 -16 6 -2 22 42 -33 29 -32 -21 -6 -5 48 25 38 -8 -9 4 -22 -6 56
-1 8 -58 -28 54 17 11 26 13 21 -27 7 -78 -25 39 -40 20 9 -63 38 36 46 -14 -66 -49 -18 -22 0 29 30 -23 -2 -2 53 2 9 -46 -18 -25 -22 -27 -14 14 19 -46 31 -2 -10 27 47 -1 9 41 -14 17 23 -43 49 55 -4 32 56 17 20
-1 -22 2 15 42 -5 3 -57 8 42 13 -20 -43 17 -2 7 7 66 30 -86 -27 20 -14 36 8 11 53 -29 -44 -46 -10 12 -36 32 29 -28 -1 -33 29 38 30 -2 18 -9 4 -33 -61 -25 49 -21 -42 -50 31 -14 17 4 14 32 15 13 7 -64 -48 2
29 -5 -46 2 -20 51 -7 -20 33 54 22 -7 -16 -10 1 52 11 -32 31 16 -43 -59 11 -5 -23 -60 10 20 -18 -36 -12 -3 2 -46 -9 -13 -10 18 67 29 -51 41 23 -56 38 39 -7 -17 -43 44 -24 2 -31 15 -8 -5 13 -8 23 52 -47 36 13 -26
-37 27 -45 -5 12 35 6 -27 7 -5 -29 46 -1 28 -2 -16 17 6 -8 32 -4 13 8 -28 6 26 45 -16 -35 -2 32 -22 6 28 -9 15 -25 -24 -3 2 45 1 -20 -67 -19 -64 -4 26 -14 -7 -15 17 14 -51 1 6 30 4 -39 -54 -1 -5 7 26
5 23 -21 -27 -34 84 -100 9 -10 22 -41 1 -1 18 -67 -5 -73 78 6 13 33 -33 22 39 -29 5 -51 16 -19 -64 16 50 -59 -24 -3 -3 3 16 55 -39 -36 8 18 -52 23 19 47 -15 28 -22 11 -60 -14 -16 16 -9 95 16 1 58 3 13 2 -30
-14 -26 -34 6 -15 59 48 -29 28 -2 20 55 8 -2 -21 24 -28 -33 -20 5 -18 -24 -28 -35 -72 20 42 17 7 3 1 -17 -10 -34 -27 -28 -34 51 -4 18 4 34 -11 -21 47 -12 -4 56 12 -24 12 39 -26 25 6 -9 -22 -10 12 33 67 25 21 57
61 -1 -64 4 -1 60 22 -31 34 -4 -51 10 -47 -1 -35 -14 -46 66 -51 -1 13 -14 2 34 -15 68 47 -12 -22 -43 39 106 -69 -3 -40 -78 -3 53 124 -20 -77 -57 15 -84 48 66 38 -13 8 58 -63 -77 9 8 43 16 18 25 64 58 2 10 -11 -21
0 12 -16 44 4 33 -20 -14 34 -23 -15 7 53 10 -69 -15 -72 14 -50 66 -11 -58 34 33 4 18 -27 56 30 38 8 43 -25 1 -24 53 23 -20 -25 -30 -28 21 20 5 53 -4 5 25 39 -38 -17 14 -5 -36 -21 -9 44 -10 3 -1 3 -28 9 15
4 -13 -12 -48 -1 35 -98 22 -1 35 -34 15 -46 -22 -65 -35 18 12 10 -19 60 24 -4 -8 -13 -28 -41 80 23 35 80 23 -43 60 80 -36 2 4 17 -48 -4 -8 -20 -12 -13 -33 64 41 20 -12 61 -21 -2 -61 10 -36 52 19 -25 -37 -13 34 12 -38
27 -46 18 -27 -15 -14 -20 -41 -41 -7 18 0 44 -13 -25 -41 9 7 -13 -6 28 -16 16 16 -5 -41 -67 56 82 69 -8 -16 32 19 7 19 14 19 18 -28 0 20 21 -2 -2 21 24 -13 10 17 -24 -58 43 -43 46 -11 -36 -48 -24 18 -34 27 -38 -7
7 -12 5 57 -13 0 19 5 16 -27 -8 -39 5 47 -29 -17 -34 -41 10 5 -8 -6 -15 43 50 -38 -34 -2 -30 -20 25 -3 -18 28 -48 -4 21 11 14 45 -53 -6 -10 29 -28 28 -26 19 14 -17 -41 -16 -56 -4 1 31 42 5 77 -49 34 2 -14 -12
-7 19 -41 25 -5 -17 -10 34 54 37 -12 -10 36 20 -43 -11 0 9 65 -22 -35 60 39 1 -33 -42 -22 -38 5 6 13 -24 -3 -1 -33 -11 5 -20 1 -26 24 -32 13 -6 31 -22 -38 22 21 -24 19 10 -25 -42 -8 -24 36 -29 63 -71 -22 -12 10 46
22 2 -13 -26 76 -39 -53 14 6 22 10 8 -11 -18 -11 -23 32 -12 -19 -38 32 -4 -18 6 -18 -44 -70 19 77 13 42 94 -4 21 3 11 19 -8 28 -27 -47 -41 18 4 -18 9 -7 -30 -20 56 -55 25 22 -3 -8 -14 7 59 -1 0 -107 -45 -25 7
-4 -1 -37 25 34 7 -49 46 -11 -16 -14 12 -39 -11 -10 -33 -28 1 -15 5 41 26 -42 30 -1 -8 -17 -16 -19 10 72 16 -59 114 4 12 -2 -6 36 -41 -40 -8 -27 7 17 -6 90 -17 12 -8 47 -2 -1 26 1 15 3 14 26 -13 12 48 -2 -17
15 19 1 36 -46 30 7 34 13 18 20 -12 -17 23 -14 -24 -38 86 26 42 -6 -54 -10 -13 3 -15 61 20 -46 -30 26 27 7 -46 -53 10 34 29 17 9 -21 2 -17 -124 -43 11 4 12 28 3 27 10 -16 -28 28 1 25 21 -32 33 28 -18 0 -3
-23 -15 18 49 14 6 36 -2 36 20 13 27 -7 22 12 28 -38 18 0 49 -4 -16 5 -17 -12 20 8 32 13 -4 4 -19 -14 21 19 -29 18 -17 54 -13 -5 -52 -33 3 -35 15 -3 5 34 15 -14 5 4 -18 -9 -6 41 3 -28 -42 15 -6 0 35
-13 18 36 29 1 22 -19 -30 -4 -5 -44 47 59 29 30 27 31 -23 2 -13 25 11 11 73 -18 -13 -40 -11 29 -1 -15 -35 -6 -22 13 44 29 -66 9 -47 20 26 -15 8 -8 -30 1 -8 -69 -40 38 -38 6 2 30 29 0 -46 -6 17 -8 -15 -13 -28
10 -8 -24 0 -12 9 -51 35 4 11 25 17 -2 -26 5 4 30 -20 -4 -22 38 -21 -9 -55 -37 -20 -60 77 96 24 61 42 -13 33 50 -29 -10 -14 3 -53 -18 -43 -50 21 24 -36 36 42 -16 -34 -20 -1 -22 -14 24 -14 31 13 -23 -1 -53 -44 -20 6
14 -20 -23 39 0 -38 1 -52 32 -12 -57 38 34 15 0 14 -25 1 3 -49 -2 -35 0 34 -19 16 -21 -63 -1 -10 72 -3 14 51 -58 13 39 -56 27 20 52 -14 21 32 -41 -4 0 8 11 9 -7 22 15 -54 -16 38 -22 -15 -10 -40 1 3 2 3
3 27 20 -35 -35 45 11 1 -13 22 28 -25 -64 -13 17 -33 26 2 38 13 -2 26 -20 -10 20 -49 25 58 10 -49 40 -66 -49 9 56 45 -21 10 29 -6 41 -21 -33 17 -24 -20 -44 16 -30 -5 43 -58 -36 24 38 5 -45 7 22 -24 -15 45 -36 37
15 27 15 2 -36 -2 39 -25 -10 -9 -12 28 -19 -16 -53 9 -3 -56 19 -8 38 -11 -29 7 13 17 16 -4 8 -10 -43 -10 -20 -15 18 23 -51 -36 32 -15 -10 58 -32 -1 41 -51 24 14 -56 -25 -17 13 30 14 13 4 -5 -27 19 3 8 22 40 12
19 10 -25 -52 27 -53 -22 -6 18 26 -2 -29 0 53 -27 -49 -3 41 -29 13 36 49 -27 1 -2 9 -22 -9 44 41 -4 -15 -42 43 14 -26 -14 16 -13 -34 36 -9 -31 14 -4 19 31 16 34 -11 38 33 46 -65 3 -48 -26 -15 -42 -43 26 18 13 37
-43 -21 37 -27 -3 6 -4 15 -29 -7 94 14 22 25 0 22 27 49 28 18 -7 30 31 13 16 -15 16 19 -4 -22 -2 37 -44 13 -18 30 31 -62 33 -49 2 19 1 -20 14 4 -8 -6 4 -22 0 16 -33 -34 -5 -18 66 26 -5 -8 -22 -35 -13 12
28 -33 15 14 -32 36 -82 4 -8 34 -47 -23 43 41 13 -60 17 34 8 -6 -19 25 3 50 -8 33 -16 -45 -8 -22 1 -17 8 18 -10 24 4 -7 3 -7 -9 -43 -37 -5 -9 0 38 -4 -9 45 27 -71 9 -60 -1 30 -5 30 -24 -12 4 -7 8 29
-3 2 -8 48 34 19 -44 28 -14 -10 -10 30 17 -66 -14 -29 -12 -10 -45 -22 12 18 18 22 -24 3 -78 11 36 -3 41 23 -17 79 33 28 -5 -42 -8 5 8 -39 -24 4 -13 -25 15 -35 80 13 32 7 11 -3 38 16 -2 -5 10 -36 -27 66 14 -17
41 -55 28 -2 -36 3 -6 36 -5 65 -7 -12 -20 18 6 -27 -29 14 31 24 7 -57 -24 -3 -18 54 15 -7 42 -16 10 -13 6 -8 -3 -1 9 -8 -3 -16 24 25 16 -2 -15 4 -17 36 -13 12 46 -75 -29 -14 72 26 -9 -5 -20 48 17 -19 -48 56
29 -18 -8 32 85 22 -38 -5 1 34 -9 -45 -22 -46 12 -57 23 -33 -42 -13 12 14 27 27 5 -3 -49 4 64 20 39 29 -17 35 -58 9 20 -39 8 -10 -33 -39 29 20 -18 -11 -4 -38 26 28 -18 -3 30 -16 -43 -14 24 8 45 -37 -44 -6 -15 -18
-27 -15 19 -5 -9 -7 -21 1 33 -5 -82 -37 -5 76 -73 -39 -45 5 -7 43 -14 28 -64 75 -2 19 -13 -56 -11 33 29 -51 -79 93 10 44 11 0 -22 34 47 30 -96 9 6 41 115 1 36 -5 86 -11 37 -59 -15 67 -73 10 90 -28 51 69 3 -49
-17 -44 -21 2 -12 -9 -7 -5 21 12 -56 5 -15 -3 14 -10 17 15 3 14 39 -8 -20 59 9 19 -67 -31 20 -13 66 -13 10 50 18 26 1 3 -10 -10 26 4 12 -20 -18 -44 41 2 12 9 37 -77 37 5 12 34 -24 -9 6 32 3 21 -42 -18
-20 -2 -5 -5 81 -13 55 10 30 24 23 -7 -13 -12 -20 32 0 33 -19 53 -18 2 -5 -60 2 -25 48 0 -38 -14 20 49 -11 8 3 -23 -11 -35 39 -10 20 25 21 -4 -21 28 -33 -27 -4 23 -30 25 -9 6 -11 28 -6 53 30 -8 -8 17 -11 -13
33 20 -57 -33 11 11 -11 -48 -16 5 -57 40 -37 11 20 -24 -2 -32 -24 12 35 30 -37 -16 -65 -23 26 -8 11 6 5 -6 -29 16 -7 12 -46 -34 53 20 -15 -1 -34 -21 -31 -25 -29 27 8 11 -6 41 60 -12 11 -27 14 -4 20 -7 29 45 38 -7
21 -24 -44 3 -22 21 -30 -21 7 0 -19 49 30 -35 9 -6 -9 -17 -7 9 18 5 -1 6 23 14 -40 -57 10 33 10 -37 14 37 3 -18 39 16 37 -27 -10 -46 -2 53 -46 20 44 30 -14 23 3 -32 18 -7 19 -7 -3 8 -5 -30 -9 37 -4 -51
16 22 -5 9 28 -29 39 -57 48 -10 19 -34 25 -16 10 -9 -3 -8 40 -20 5 -3 -37 -20 21 46 7 -5 5 29 -8 -8 7 -10 -55 -33 7 9 2 33 8 -43 -23 26 -18 18 6 8 18 58 -45 1 -25 30 -8 -16 -51 7 1 -22 -2 13 -51 -8
31 22 21 -44 -17 2 12 58 9 54 9 -5 -40 -5 -3 -9 23 10 5 -22 -26 0 13 -66 22 -5 19 1 39 -50 15 31 -16 3 13 12 -7 -16 32 -17 9 -23 -38 -9 -17 -35 -31 14 -24 -4 -34 -60 36 -21 9 33 -16 33 -28 3 -27 6 29 10
-17 7 18 62 15 -4 20 23 19 -5 0 -1 70 27 -23 -33 -23 -44 -12 94 -22 -37 48 -5 -23 10 8 45 17 1 -14 -35 -1 -32 -47 17 34 -20 1 16 -30 19 21 -10 -14 22 -16 15 -42 -8 -22 36 -62 33 14 27 19 -48 -32 -7 4 -35 -38 -3
32 -4 -17 -2 18 -9 56 16 4 -14 -7 -40 27 -13 -19 -21 -23 14 -11 7 35 -59 -7 -14 7 -8 35 -8 -23 0 -33 48 -35 28 -29 34 -37 12 6 46 -21 -26 14 2 -28 9 -20 -34 49 25 16 5 -26 -24 -39 -24 25 -17 27 32 -16 7 23 -8
-19 10 21 -34 29 -40 48 -43 22 -21 22 -12 36 -18 37 20 3 -22 4 21 -38 16 -16 -8 -43 -17 -11 -14 12 -10 -9 -4 9 12 -40 43 -5 -11 -3 51 26 -10 -3 -33 -7 2 -57 -10 5 77 -35 7 -3 6 38 33 -56 -3 23 -44 -8 5 -29 -4
22 15 -2 42 45 9 68 7 13 -16 18 -88 -28 44 -17 -6 -18 15 24 -3 26 -27 -60 37 -21 -54 56 -15 -77 6 30 26 -13 27 -39 -31 -7 44 3 30 -52 -24 -26 -25 11 55 -10 -42 40 21 27 7 -10 31 -19 -17 -23 -3 92 46 93 70 -38 -7
52 -14 -9 -4 22 -4 -9 -29 -24 -37 -12 -38 -24 -36 -19 -56 -16 28 -19 -38 56 -23 -32 24 -20 7 -41 47 67 62 3 -8 -28 15 9 -27 3 62 -31 2 -15 15 6 7 4 -20 12 -19 71 -70 -20 -4 21 -41 -21 -31 8 -42 -3 6 24 -11 5 33
-9 -16 1 92 -39 -49 -1 -17 70 -36 42 -75 -25 -9 1 -40 -30 -17 21 34 -32 -7 -14 -24 36 8 -22 52 4 20 0 40 6 -13 -3 -23 11 13 -21 44 11 2 -25 -12 -14 45 -4 16 20 -4 -31 -24 -43 -22 -13 5 -10 39 6 39 16 -28 -34 -5
26 17 -44 8 -16 54 -86 4 -7 28 -49 -2 5 -25 -18 -58 -68 27 28 -11 51 -31 17 42 -70 -3 -31 33 -55 23 -4 -21 -30 -26 22 -3 -24 -3 13 -53 -6 12 -22 46 40 -8 24 29 19 -31 76 -51 -32 20 -11 17 11 -18 -6 8 44 26 6 -46
-23 25 28 29 -11 -27 15 -15 23 -28 -17 -47 66 -14 -3 -7 -10 8 -22 -14 32 -10 87 27 -38 45 6 0 -15 8 -34 36 -23 -10 -7 -27 19 -29 -37 -10 33 13 -25 61 -26 24 -22 25 40 -27 -1 -11 -62 52 -31 -29 -27 -41 -15 -9 17 -38 28 -23
31 42 -62 40 31 25 -18 -35 -28 -3 -42 10 41 -14 -17 -30 -13 8 -42 19 2 -15 33 32 -11 12 -58 -1 36 24 20 11 -44 81 -37 -14 9 -53 -9 11 -34 -16 8 4 27 -16 -8 13 6 -14 -39 -25 -2 6 29 34 23 -16 7 -38 12 17 7 -3
-15 47 -38 -41 27 0 -41 -30 -11 82 -50 6 -12 -38 6 -78 22 -11 4 51 23 24 -8 6 -15 -10 -9 -4 -6 -16 -6 -42 -39 13 -33 2 -21 22 28 22 12 10 -7 -43 15 -25 -40 16 -13 17 29 -17 82 3 -12 4 -25 20 -14 3 -15 18 24 58
-5 8 -38 7 -1 70 -82 41 52 -14 -55 -32 10 13 -35 -32 -50 31 -24 -11 14 -6 -11 -3 -30 -20 -47 10 -2 -15 63 6 -81 79 39 -27 -14 30 42 26 -49 6 -78 13 74 21 58 42 56 -13 22 -35 -2 -23 -15 26 27 3 33 69 52 61 -14 -23
9 26 -13 -17 48 -12 -6 -4 -55 -4 8 -5 3 -26 6 -60 43 1 5 -22 32 65 -22 -39 -12 29 64 -5 35 10 -57 3 -28 -20 -7 -4 -22 25 20 7 20 39 16 7 9 -38 -13 11 31 -55 27 43 -4 9 -15 -12 7 17 -39 -17 -12 -47 34 40
-32 -49 -24 -39 -33 38 -1 -5 40 13 17 -23 78 15 16 -7 12 2 -42 26 26 14 91 -66 -34 16 -21 76 26 -15 58 -10 3 -34 32 -36 33 26 19 -70 -44 -31 -66 -40 28 -23 -17 86 31 -3 -4 -2 4 -10 -39 -9 -22 18 -27 16 9 37 3 19
-22 -36 42 -44 -46 25 -30 2 54 22 15 34 18 38 22 26 26 16 43 0 -49 -5 22 -42 -8 18 3 24 -10 -45 17 4 4 -7 39 15 -11 13 -1 -12 53 8 -63 -51 -26 26 21 46 -6 -21 -20 2 19 -31 26 9 -11 -8 -29 1 8 -36 17 38
-28 -20 73 -11 -6 -38 49 15 -37 34 -3 -18 26 6 32 31 2 -2 -3 8 -28 14 7 -6 -35 -39 -45 -11 -31 -38 1 5 29 -40 -16 39 -27 -2 -20 64 5 15 6 -24 17 -22 -53 -25 -27 88 33 -7 19 20 -3 13 -57 20 -9 2 5 52 7 30
6 -21 -39 1 2 -4 -46 24 -1 -20 -44 -43 -40 76 -9 -53 -25 -1 33 36 17 33 -40 7 6 -5 51 -8 -1 -41 41 -6 -31 48 27 -8 -6 -7 -21 -9 2 18 -114 3 -2 15 55 31 35 -7 89 2 -25 -35 -47 24 -15 3 33 -64 48 63 -17 -40
16 -1 9 30 -41 -4 37 -28 81 -2 -18 -11 65 44 -63 -33 5 -49 29 17 -68 -19 -6 -29 -9 -13 -24 13 10 -4 25 -35 41 -1 -13 2 21 1 -34 5 11 37 3 -3 -23 -1 -27 42 19 -44 -20 13 -7 -86 -42 23 75 -34 -26 -13 -7 -35 -14 11
-26 -5 14 56 -11 -23 -27 40 9 -21 -11 -11 -43 67 -2 -8 -75 18 33 21 -1 -22 -6 15 -11 40 0 3 -29 -3 10 19 -44 4 -5 -4 -4 -3 9 5 -1 3 -49 -9 -21 30 65 33 78 13 41 -4 -51 -37 -36 -33 5 10 2 -44 33 14 27 -1
18 -13 -13 31 -84 58 -25 37 9 8 18 25 -26 13 -15 -15 -16 59 -10 20 -12 -35 24 -23 19 8 35 37 -1 -28 -18 52 -12 -45 20 -38 17 6 87 13 -55 5 -9 -76 21 1 66 -40 6 1 -14 22 -68 7 36 -52 22 -27 -36 46 26 -5 20 -41
11 -14 -27 73 -18 68 -15 -8 13 1 22 15 -37 -52 -51 -19 10 -56 -34 20 23 -18 26 -30 -17 19 21 62 -11 -20 8 50 34 -7 15 -1 -7 33 28 19 -28 0 1 -39 -14 11 -6 -39 -6 -7 18 16 -54 22 33 -26 60 -31 -2 65 25 3 32 17
-8 -6 21 0 2 -18 -36 11 51 64 -10 18 -70 0 -35 -58 -16 14 20 -48 -8 3 -78 51 17 39 60 -39 -30 -22 62 0 -53 71 -12 33 -6 -20 53 18 5 -14 -20 -8 14 -16 66 -64 33 3 86 -63 24 32 37 50 29 -5 -12 -2 10 -9 -34 -2
44 29 -23 -29 16 -13 -37 -62 -10 41 -40 -14 -9 -20 37 -37 -3 -30 4 -43 37 35 -13 29 -35 -2 -5 6 49 14 -29 -8 -11 8 -2 -14 -36 14 -56 -12 14 32 -8 -8 33 -49 -2 42 36 -24 7 -29 58 -21 -20 -48 36 7 -8 19 -5 6 18 39
-7 -7 10 1 16 34 0 -57 37 -41 -109 -46 10 127 23 7 -9 17 -25 -16 -20 30 -27 40 -4 30 -69 -60 5 -71 26 9 -16 44 -61 -29 -2 38 13 28 35 16 -43 -20 9 27 -4 34 -1 30 -60 -5 32 -53 77 52 -48 43 58 28 36 64 11 -14
6 1 25 -5 16 20 -21 -7 -11 -24 -38 -41 8 97 -17 -1 10 90 -12 -36 -11 9 -1 -17 12 0 -17 -59 -25 -50 8 -13 -15 8 -76 12 2 17 50 54 -14 -76 1 -1 -3 38 -29 -24 4 14 -8 -27 -7 -36 19 75 0 58 23 -34 -9 14 -29 2
8 7 17 44 46 42 5 33 6 -30 27 11 11 -6 -10 -11 -71 -21 -53 104 3 -11 30 -44 -17 27 2 13 -19 -20 6 4 11 38 -14 28 6 -26 -11 12 -20 -7 26 -15 2 28 19 -13 -35 18 14 12 29 49 43 -7 -2 -15 -45 -54 -14 6 9 13
16 20 -5 3 64 -7 66 9 32 80 -7 16 1 -21 -28 -4 15 1 -23 -14 -45 -44 -27 -1 -34 -18 80 13 -79 -79 -19 -9 -16 -44 -9 -30 11 -35 -3 21 -20 29 20 -62 17 5 -34 -43 -32 34 -21 2 -11 7 48 -19 35 36 38 23 -62 32 -19 -13
-27 -49 15 70 24 -22 55 13 -1 -22 11 -37 32 9 37 24 -19 -29 -33 26 -13 10 16 -24 -18 -15 -4 -53 0 2 -11 18 32 24 -40 39 -14 -3 9 29 49 -11 12 -20 0 -7 -11 -42 37 70 -21 -19 -29 -37 -3 -6 -18 31 37 -26 -38 -6 23 40