-2 -92 21 45 42 -3 -31 -14 -46 6 -15 46 8 25 10 45 -3 8 15 -24 -127 14 22 19 -22 27 -62 33 -74 -45 24 27 -55 13 -61 -36 -4 -66 -97 20 -63 11 -49 -6 52 -42 -5 45 20 -47 27 32 34 -41 -14 -27 -9 40 -13 -54 -42 -12 41 14 33 -8 44 80 -8 -25 -2 10 -31 -12 44 -48 39 20 32 -55 -11 -14 16 52 -81 0 -8 2 29 19 -23 -19 18 -24 -46 6 -20 48 6 1 -9 46 -24 -14 -10 71 -5 23 22 54 48 -18 38 -2 -41 -27 -69 5 -36 -45 -1 0 74 -33 -18 30 -17 -17
-12 -29 -40 -13 -35 -15 -21 -4 -14 1 -15 -18 -29 -21 -15 -3 -4 -30 -7 -5 1 2 12 -15 -2 -30 -23 -3 12 2 -25 -6 -7 -7 -2 -4 -15 9 -16 0 -23 -15 -14 -8 -21 -3 2 -10 -9 -7 -21 -4 -38 -13 -18 3 -8 -7 4 -24 -35 -17 -6 -7 0 -28 -21 -8 -22 8 1 -13 -6 -3 7 -21 -5 -30 -21 -15 -7 -8 2 -11 -6 -14 -8 -26 -33 -2 -2 -25 -16 -9 -19 -3 -12 -6 -1 -7 3 6 -15 14 -16 -17 -22 -10 5 -1 -35 -31 -29 -30 -12 -19 -2 -33 -7 9 15 -21 -15 0 1 -15 -19 -23
68 -56 15 34 -9 31 30 25 -61 -27 -12 -25 -4 0 -21 -9 79 20 12 -63 -5 -4 11 -1 -40 -6 -37 33 7 -61 13 4 34 -58 -40 -18 5 -64 -16 -4 -1 -10 5 -45 14 30 -43 18 20 0 -42 41 38 -12 -3 -73 51 23 1 -64 1 32 -40 -7 -2 -4 13 11 6 15 2 36 5 35 34 -22 25 -17 16 -28 -14 12 2 1 -36 -12 14 -8 -7 10 -12 -21 6 -69 -60 0 20 3 -68 -18 -38 8 29 -4 -61 35 -21 18 9 -25 20 -6 15 11 -17 32 -23 5 -2 3 -34 -38 25 -5 0 16 36 10
-2 37 -51 -59 1 7 -41 -23 39 12 -26 -14 6 -50 14 -14 -78 5 -34 33 -13 -58 -43 6 -14 -30 11 -78 -55 -12 -39 -30 -3 14 26 15 -2 14 13 -38 -89 -43 17 40 28 -16 36 -30 28 71 27 2 34 -29 46 -8 -72 -4 21 28 8 -41 1 -27 26 22 -14 -27 56 7 23 4 -79 41 -54 -42 -27 46 -22 15 -9 27 3 21 -35 31 -54 -15 -6 3 27 10 29 11 17 35 -48 21 0 11 -10 -6 35 -3 5 -60 0 -67 2 -14 23 -5 -41 31 18 -43 -24 -12 11 1 -39 41 29 93 23 -53 24 -40
-3 -13 -20 -29 -14 -4 -18 -21 -21 3 5 1 -10 0 -23 -11 14 -20 12 -2 2 -13 -8 -7 -1 -16 12 -15 -10 0 -23 1 -11 -12 12 3 1 -13 -7 -8 -19 -28 6 -25 -23 -1 -29 -15 -12 2 -24 -15 -10 -5 -6 -3 -19 -16 -22 0 11 -2 -12 -2 5 1 6 1 -23 -30 5 -24 -10 -2 2 1 -7 -11 -11 -13 4 1 -12 -5 4 -24 -6 -8 1 18 -8 -19 11 -21 5 -19 4 -3 -11 -2 0 -19 -4 -4 -20 -7 0 -19 -2 9 -24 0 -7 -5 -25 -10 -6 -8 -1 -16 10 -14 -2 -17 5 -2 -10 -8
26 -67 -50 11 -5 -4 -24 29 -23 17 11 -4 -5 -12 0 -61 -37 -29 26 -17 -24 -13 17 21 -20 -12 -6 5 -4 -7 13 31 34 -21 -48 -42 15 -40 -17 -8 -19 -33 -42 -3 13 -25 -46 15 45 -48 -23 -8 40 32 4 33 18 22 10 -26 0 23 -9 1 15 -2 8 -22 51 17 -10 -17 17 -32 -26 -42 -42 -22 1 -56 -34 38 -6 -14 -46 -15 -1 8 11 18 16 -8 23 -14 -29 -30 5 15 9 46 -2 7 20 -14 15 3 15 2 8 -18 -4 -42 22 -11 -43 -38 13 -7 0 22 16 54 15 -35 28 3 19 -50
-9 -21 -30 -2 -11 -8 -21 -15 8 0 6 -27 -24 -13 7 1 -21 12 -12 -19 -13 -1 -19 -31 -13 5 7 -1 -11 -4 -13 3 -20 -15 -32 -3 7 -14 -5 -28 4 -16 -1 -13 -1 -28 -8 -33 19 0 6 -30 -22 -3 -12 -22 -22 -6 -18 -24 -22 -5 -16 7 -4 -17 -33 9 -14 -2 -29 -37 4 -1 -17 -12 1 14 7 -5 -6 -6 1 -31 6 -6 7 -12 -16 -34 -18 9 -3 10 -3 -14 -17 -21 -9 9 -29 17 -18 14 -11 -15 -9 -10 -7 -22 -27 -20 -30 -11 3 -17 -3 -17 5 -13 -7 -3 1 -4 23 -34 -7 -19
2 0 -57 36 -51 -27 -43 7 -12 -6 8 -27 -23 -28 19 -6 -23 6 -25 87 -18 -42 -6 3 28 -35 23 -14 -60 42 -21 18 -39 3 34 -28 -69 -5 -8 -47 -61 -19 -7 39 5 -10 61 -46 13 57 54 -2 -9 33 -34 27 -43 -16 -4 19 -23 -20 16 -10 -46 29 -78 -11 -92 5 -30 7 14 50 3 -18 9 44 -24 17 21 -32 -30 10 18 -16 -47 28 -30 -30 -39 7 -14 -2 -18 23 -18 -10 27 25 1 25 -9 8 24 3 28 -17 -3 4 1 58 -4 -27 -16 14 -52 10 11 -25 9 14 -44 8 -20 8 -28 -1
-29 -14 4 17 -17 -24 -36 -29 -18 -15 -16 -19 -17 9 -19 -23 -21 -22 -10 0 -2 -36 -41 -25 2 9 -28 -3 -15 -22 -14 -25 -3 1 -12 12 4 -4 34 -8 -13 -10 -12 0 -12 1 -20 -20 -43 -11 -22 -25 -7 -41 14 -26 -32 -10 8 10 -56 -2 -37 -3 -10 18 -12 -37 -11 -16 5 4 -23 -16 3 -53 -15 11 8 8 -29 -14 4 -4 -4 -14 -3 -4 -4 19 -3 -16 -15 -6 20 -18 -7 9 -17 -16 -9 -17 -14 -25 -18 -10 10 -22 -26 -11 -38 -25 -23 0 5 -30 -19 3 16 -8 -21 -15 -22 5 10 -15 2 -19
17 -16 -20 5 -55 -20 -13 -10 -11 -20 -5 -17 -16 -36 -24 1 23 -30 0 7 -12 -5 -15 0 -5 -30 -7 -19 -4 -32 1 -39 -10 -4 -18 -6 -18 -7 4 -25 -30 -1 -5 -5 4 -8 -21 -4 17 2 -13 5 -22 7 -32 -22 18 -12 -29 -13 -22 -28 -19 17 -15 -35 -24 -32 -11 -26 12 -26 -39 22 -13 -22 -25 -31 -38 -36 -18 -37 4 -7 -20 -35 -21 -24 -26 -13 -29 3 7 -8 -27 0 9 -2 -38 -36 -32 1 11 -20 32 -34 14 -13 9 -13 -4 -7 -12 -6 -37 -28 16 3 23 14 13 -10 -19 23 2 28 -2 1
16 -79 -1 -13 -62 -8 -44 -27 -72 55 -34 -61 -32 -11 -5 27 -25 50 -26 -10 -14 26 -11 30 -44 -57 -10 -13 -48 -83 38 -30 -32 -98 29 -29 41 -14 -66 -29 48 -9 -45 20 29 -33 27 7 -12 -57 4 8 34 8 -94 -56 12 11 -36 -53 7 8 9 -28 14 -4 18 22 -39 2 -13 -53 8 -111 18 -11 18 -11 19 46 2 21 -44 16 82 -18 87 34 -54 59 -37 -22 4 23 -19 18 2 -3 8 -12 -22 6 -35 22 38 1 6 -16 -67 -24 47 -22 -5 12 -9 35 -2 23 10 -71 -68 8 -10 -23 -81 -10 4 -10
10 14 -16 18 33 -29 -56 -59 35 -32 -54 -6 2 -58 -11 -3 -74 -35 31 1 -48 35 11 -35 -91 17 54 -24 -25 -53 9 -33 -25 -16 -43 39 2 -9 -6 -35 -32 15 3 8 -41 -7 -23 32 21 -28 0 3 -10 60 61 -82 -8 -13 -11 29 -33 -32 -9 -61 -16 -43 -62 -40 3 -62 -30 26 -27 5 -24 28 -79 39 -30 -40 -8 52 -15 -27 3 -36 9 -81 37 -34 1 -5 -23 -54 69 -25 1 -37 -33 -27 -57 -58 26 0 46 17 -4 16 -10 -37 -63 15 -12 18 -14 11 78 -62 59 -18 -12 19 -51 45 74 -27 -41 35
-28 -14 -43 -17 -5 4 1 31 -13 -81 24 63 -5 -56 -45 -37 -20 9 -29 8 -24 -4 6 9 47 -37 -3 -8 -11 54 -35 -73 38 59 28 9 15 -35 -35 -12 42 7 9 -4 6 23 -15 -28 -36 -7 -25 -33 4 14 -15 69 8 -19 47 -5 -12 14 -11 2 -15 -18 -6 -38 -70 42 28 -9 -24 -34 42 1 16 -5 -4 16 -13 -48 -28 17 10 -24 15 11 -1 10 -33 19 -7 14 23 16 -30 -16 -5 8 -23 7 6 -33 -10 31 8 0 -7 13 -20 -12 13 -2 5 -28 27 -24 15 -18 -4 -32 -38 9 37 -25 11 -44
13 -45 36 35 6 32 32 16 -36 55 53 5 -54 -3 59 -17 -23 -1 -51 48 8 5 -77 50 19 37 24 -16 2 62 -25 19 -46 -8 -32 3 -41 -27 31 25 17 -15 28 -43 10 5 -48 -25 -7 -31 34 -61 24 -24 -11 57 -33 -28 -24 -47 0 4 5 7 35 -35 -8 47 21 4 11 -92 47 -41 -41 40 -28 -15 -34 36 47 -77 -11 -25 90 -63 10 47 -8 -37 -6 39 -17 -21 -69 -26 -19 52 -34 -27 34 22 13 -29 -28 -12 -25 2 18 -35 42 -67 52 -2 3 -1 6 -6 -31 -23 55 -100 28 53 19 37 -26 -14
-14 -5 -45 14 -9 -41 -5 -26 -5 -12 -25 -8 -32 -17 -21 2 -30 -30 -79 19 10 -60 -57 -69 36 15 -61 -24 -43 58 -3 -35 -50 28 34 -7 -7 -45 -58 14 -18 -41 -39 -55 -20 11 13 -36 -37 -41 -4 -45 -30 -5 -17 29 2 -18 -49 -15 -6 -2 0 37 -29 -42 -20 -1 5 -29 -7 -30 44 -12 26 -45 -39 9 3 20 -36 -41 15 -20 17 -12 -4 -17 -29 -38 3 -12 3 3 -8 -47 -26 -12 -20 -10 -19 20 -25 -59 -5 17 17 -60 24 -14 -72 -30 -20 -11 3 -42 0 12 9 16 19 -27 3 -5 15 36 -43 -34
-11 46 -17 -55 81 -92 -70 -32 7 -71 -49 52 -13 22 -91 -5 1 -38 19 -74 -6 33 33 -36 18 -5 10 -10 -1 -13 17 -33 -31 39 31 4 64 31 -9 -10 -24 44 40 -41 -5 -58 -86 -2 -46 6 -76 -6 -48 -2 -49 -34 42 -8 -77 50 8 -4 27 14 -3 -36 -8 -41 -25 -24 -22 47 -38 -49 -22 49 -21 -50 -24 -29 5 -65 -9 25 60 10 -31 14 19 -51 25 27 -52 5 39 29 -50 -34 -5 23 22 -42 -95 10 -91 -11 0 39 32 16 -31 63 -15 -7 9 -41 33 9 3 -35 -69 10 -20 0 30 -59 -92 8
12 -68 35 -18 7 -38 -20 -36 -10 -75 0 31 -52 -23 -69 29 -23 12 -74 0 -52 -36 -98 -5 -18 4 -78 -46 -39 -1 0 -12 -40 -13 26 23 34 13 -67 -17 5 84 -57 -28 39 42 28 -37 -26 21 -6 -23 2 -21 -49 -17 72 50 -94 -23 26 -34 -14 -22 48 24 14 66 -30 -35 7 -50 -71 -42 -24 -62 40 -25 16 0 -9 -40 -4 25 -18 23 24 -28 31 -14 42 24 16 38 -84 40 -22 19 58 27 12 -23 -5 33 15 -6 25 -82 -20 10 31 -57 -20 -5 37 27 -27 26 -19 -56 -10 -17 24 -8 6 26 -21 21
-6 -12 -9 -16 -14 -15 -9 -16 -14 3 9 6 -8 -7 -6 -8 2 -16 -4 13 12 5 -6 -14 -17 -8 1 -9 8 3 2 -8 10 -19 -25 -5 -14 -12 -20 -24 -9 -31 -3 -17 0 -24 -2 2 -5 16 -13 -18 -16 -16 -16 -13 -28 -15 -8 -3 3 -26 -7 -13 -1 -19 -12 0 -9 -18 -8 -23 -10 -13 5 -17 -19 2 -14 -20 -23 -1 -28 -5 2 -12 -18 -7 -17 -8 1 -23 -19 -15 6 7 -9 -16 -7 -26 -21 -11 -7 -10 -2 1 -14 2 -26 -4 -21 -4 -1 -10 -11 -5 -6 -1 -4 -7 -1 0 1 1 2 9 -11 -7
13 -4 15 -1 -34 -33 14 -5 -90 16 -21 -31 3 42 -40 7 26 11 -70 -9 -33 6 -49 2 -28 -3 -57 -26 -36 -8 5 15 21 -64 -53 12 -45 -23 -43 22 16 3 -36 -27 -16 29 0 -38 10 -56 18 -13 26 52 -21 -33 46 44 27 14 36 7 -34 -21 34 -11 -8 29 18 32 -30 -45 3 -22 -26 8 22 -40 -7 -20 -83 -5 -15 34 -7 -27 47 0 10 60 48 -22 -21 2 -57 8 15 37 12 -5 -45 6 2 14 -72 -34 -27 -104 -13 -47 -15 -15 -14 31 -41 -11 -14 25 -4 22 36 3 -55 16 6 29 38 15
-29 -24 3 29 -16 7 -4 -12 6 25 -6 -7 -47 29 65 -24 -14 26 -21 45 11 -31 -20 9 58 -17 7 14 0 58 19 4 12 26 56 -5 -27 4 -3 -27 15 -37 -22 35 7 7 4 -14 34 -21 -2 -37 10 21 -14 32 -43 -1 -19 -42 -34 -32 3 -5 -25 28 -7 -3 -25 -1 7 -25 13 -7 0 -18 28 4 3 56 9 -7 0 -13 8 -33 19 13 -47 0 -22 24 -4 53 -52 23 -22 14 14 -5 34 -9 -46 14 17 -9 -45 -48 -46 47 -8 -18 -9 9 34 -10 -9 -27 -40 4 -8 -6 -6 6 4 26 -3 -29
-111 47 -14 24 12 -13 -21 -46 -40 -6 9 -8 29 8 -10 -60 35 -16 20 11 -12 49 25 -35 -37 24 80 -29 -10 -10 11 6 -9 -9 -1 22 54 23 120 -29 6 6 24 25 -38 -71 -13 17 25 18 1 31 -4 -67 21 -4 -30 6 5 47 -37 -55 15 -65 -97 29 -2 20 77 27 -24 24 33 -45 -62 50 -36 24 40 -45 16 6 -35 9 15 3 15 -59 0 51 -1 -15 -28 1 58 -1 -27 -16 1 -15 35 -60 -24 -43 17 -48 -67 18 -12 -23 8 11 19 47 42 -5 53 10 5 -66 -41 17 -20 56 37 -45 -10 -72
45 -63 -38 24 -9 -38 -17 9 0 23 5 -25 -45 -44 56 -2 47 18 12 28 -23 3 12 -32 -34 32 41 16 41 -20 -31 54 39 -12 19 -62 -64 -15 -3 -51 57 -8 7 20 -53 54 37 14 76 10 16 -19 -45 16 30 -40 -25 -56 31 -34 -14 -33 -47 -19 -35 5 -49 -6 14 25 -78 16 11 100 -27 -20 -50 -17 -102 8 -13 36 -34 -33 -16 -28 29 -59 -29 14 -40 -34 -25 -10 -9 -1 30 -31 -27 -17 3 -25 30 -6 71 -13 -12 2 -36 -32 -47 28 -44 -21 -34 -30 -13 -45 9 49 35 6 -64 7 -13 -15 24 -1
-20 -8 -38 -11 -4 -15 5 1 -4 18 2 -6 2 -3 3 -5 8 -15 2 -5 -8 -12 -19 -7 -2 4 -2 -16 0 12 -2 -1 6 -4 -27 -15 7 6 -18 -28 -8 -12 10 -19 -3 -1 -24 -2 0 2 -15 -8 -13 -2 -19 -13 -24 -28 -19 -5 -16 -8 -23 3 -9 -21 -2 -16 1 2 6 2 -3 -16 -16 14 -25 -7 -15 -7 -17 -11 6 6 -7 -2 -11 -1 6 -22 -22 3 -21 -13 -2 -11 4 6 -21 4 -35 -32 -11 -2 -16 3 -4 0 -2 -23 -10 6 0 0 -26 -13 -18 -27 1 -7 -5 8 -13 13 -7 1 -13 -18
-41 28 7 30 20 -23 27 13 -11 53 9 -23 3 18 14 -23 1 12 1 -7 46 -13 14 -1 -117 -51 -12 9 16 -85 26 17 36 -14 -37 -23 -30 28 22 21 27 -5 23 21 -38 -43 -11 -24 -8 25 42 -27 -8 21 -22 -60 29 21 22 -8 29 11 10 38 -10 21 1 -5 24 26 0 6 -5 -31 21 14 39 19 -18 -33 17 28 31 47 15 11 20 -5 -25 27 34 24 33 -36 -7 38 -11 32 16 -17 39 26 6 -26 -44 -42 23 -37 21 20 42 -10 9 71 20 -29 -40 4 -39 48 11 1 7 -74 -80 11 15 2
34 -79 -17 -12 -18 -81 -8 13 -35 3 -30 42 -47 -25 -75 2 41 -48 -58 -7 8 -44 -33 17 73 -15 -61 -35 -34 30 15 -17 -42 42 22 9 -32 -12 -31 17 5 10 -79 39 34 2 38 -31 -42 -83 -17 -36 18 29 -46 49 17 33 -8 -38 14 -25 49 7 25 15 -24 27 23 -30 -44 -25 -3 -59 10 -56 -4 10 69 26 -59 -11 27 38 -29 73 7 0 9 0 35 14 26 39 -95 15 0 3 34 47 13 48 17 15 13 36 28 -51 22 17 -27 -47 -21 -1 -1 -21 -61 14 -19 -53 12 -45 4 -21 14 10 -14 17
-20 30 0 68 27 -10 10 -4 13 2 -12 39 31 4 -11 32 4 -25 43 -7 16 44 54 -14 -38 -38 48 17 17 -24 48 19 61 8 -28 -20 11 23 0 -24 16 0 18 4 -20 32 -19 39 19 35 -17 40 -10 -14 -1 -11 27 -13 46 53 -5 15 -15 -12 -31 -10 -7 -1 20 39 -3 15 22 -31 26 61 16 -7 4 -19 29 1 -28 5 35 -10 15 8 -12 12 -2 16 -19 -33 29 11 15 -22 -4 -33 3 -1 2 28 -15 30 -22 43 -11 -4 13 -7 1 -7 4 25 -11 -40 -21 7 30 14 20 -19 -7 -4 40 24
21 -19 10 1 -9 -30 -39 1 45 32 -10 -17 -15 11 -17 -14 -26 25 -7 -43 9 -5 -8 -53 11 -5 -43 -1 12 1 -16 -17 1 -40 18 -1 50 -4 12 -7 39 10 -37 47 0 -31 2 -21 -12 -81 4 -19 18 54 -26 -31 1 25 2 -14 10 20 -15 -37 -18 37 -19 -35 15 10 -23 -31 -5 -18 -19 29 67 -8 -43 -18 -16 -1 -11 32 8 0 45 -10 -24 -22 -35 -14 41 13 -45 50 -7 -28 48 22 38 -13 -3 1 3 32 43 -5 13 -19 -8 -79 -47 37 0 -35 -36 -20 4 -10 -38 12 -9 -1 -32 -39 -26 -8
-15 -19 -74 -29 -11 -23 -33 -12 -49 -8 9 6 -4 28 -44 -100 3 -29 -36 10 -18 -35 -55 -3 9 21 44 -1 -44 2 3 -11 -69 -27 -20 0 47 -23 6 25 8 -16 -21 52 15 -28 -25 -35 -7 -35 16 -2 11 -41 -35 0 -13 22 -51 8 14 -4 31 -2 -20 -4 -8 9 5 -17 28 -57 48 -44 -19 -42 -31 59 44 -17 -9 18 24 -27 4 49 29 26 0 22 5 -4 11 -11 39 -23 -32 44 23 41 20 46 -24 -32 35 -6 50 -22 -10 -5 23 3 14 -49 1 -41 7 49 4 -46 -5 -21 7 47 5 -8 -64 -70
17 -47 -7 -48 -18 35 22 0 -32 2 -15 6 8 41 -19 24 -34 53 -49 -41 7 49 -12 -9 6 -2 4 -38 -39 17 5 -17 -64 -9 -52 39 20 22 1 -39 40 22 -53 -3 19 1 -11 -19 -3 -7 -12 10 4 -24 -20 9 -3 15 -95 -15 -6 -9 -52 -47 6 18 31 42 -34 -57 7 -79 5 -65 -18 -9 20 25 17 8 -31 -30 -31 8 -4 -24 53 0 1 -17 -26 -14 28 -40 21 -13 -11 35 -24 -14 2 -9 -11 29 52 -33 -5 -11 -18 0 8 -58 18 -20 7 28 33 42 3 -54 -18 11 -14 26 33 -7 -41 0
-4 6 -4 -13 -11 6 -25 -8 -28 -23 28 25 51 -8 -2 2 -44 10 21 44 16 31 31 18 26 18 26 -24 23 42 28 -70 -64 21 -8 33 19 -2 39 -4 4 50 10 41 2 -53 -4 39 2 -28 -21 37 10 -51 4 16 -9 47 -84 31 39 -7 25 -22 -18 3 30 47 -20 -105 50 -1 -11 -38 4 32 12 43 27 15 11 -20 -46 4 -1 6 -7 6 39 -6 -15 16 -15 5 43 19 -29 17 21 -18 52 4 -40 25 17 27 -6 -11 -37 1 38 8 35 -6 35 5 -5 26 -35 -51 -14 16 31 27 14 6 -45 10
-9 -22 6 2 -17 -27 -4 1 -21 12 -37 -33 0 -11 -16 -8 -20 -16 -1 -1 -27 -1 -35 -22 -3 -25 -2 -19 -3 -5 -30 -3 6 10 -14 -3 1 -10 -24 -2 -14 -43 5 -12 1 -17 -22 -28 -8 16 -14 -13 -20 3 -19 -12 -22 13 -4 1 -13 -1 -22 -17 7 -17 -8 5 -4 -22 -12 -20 -28 -18 -20 -3 -30 -5 -13 -8 -3 -5 0 -7 1 6 5 23 -12 -1 -11 -14 4 3 -13 4 18 10 0 -32 -11 -38 -1 -22 -26 4 -3 -21 -22 0 -2 -9 -26 -16 -34 -30 -16 -17 5 -22 -7 -11 -18 -3 8 0 -14 -11
-20 38 -37 81 24 -2 6 -5 20 -6 -39 -13 26 -9 21 4 29 -16 -10 28 8 -29 15 -54 -27 0 23 6 -7 -34 37 -12 -53 -18 31 -24 29 27 89 -26 1 -3 40 13 -32 -14 -9 -5 23 57 9 11 -12 -21 2 1 -36 -10 -24 57 -22 34 20 -40 2 -5 -35 -21 -41 4 29 0 77 25 -25 20 -20 39 -17 7 18 -20 19 30 -24 10 10 4 18 -39 11 -20 -37 12 66 29 -54 -17 2 21 -9 26 -35 11 42 -37 13 33 -16 17 2 12 -58 -43 24 -46 36 10 81 -37 -1 25 -58 63 18 17 -23 -9
47 -76 49 -5 25 -3 39 8 -60 7 32 -6 -35 27 -10 53 6 -4 -61 22 -4 -67 -47 2 22 2 -18 -60 -38 -3 -13 -32 -31 -35 -71 -2 12 -95 -23 -1 15 16 -70 -20 24 24 2 -30 -36 -50 11 -28 14 -55 0 20 -37 38 4 -52 -41 23 -25 1 44 5 14 45 8 10 31 -70 -4 -32 -15 -76 23 29 29 10 -78 -7 24 -18 0 -33 -16 -11 -7 -7 -22 -68 9 -52 -59 -58 32 36 -3 17 -2 23 21 28 17 -1 32 -59 -13 -20 26 -20 25 6 -15 33 -69 44 33 0 4 -121 25 19 -4 -4 28 42
-35 31 -6 -15 -11 14 9 3 -21 13 34 10 31 1 -13 -30 -45 -5 -17 55 -28 -1 5 -7 -34 5 26 -74 -35 0 -64 -56 -20 -56 24 -6 13 39 32 -62 5 52 52 14 -6 -26 37 -16 -18 68 -6 -6 3 -28 -31 -23 10 16 -41 22 18 -19 0 -74 -8 67 27 19 12 -23 -12 13 27 34 -56 37 24 -30 -20 11 45 -15 -30 33 20 -1 8 10 4 13 34 14 67 -12 50 51 -41 37 11 -51 -17 -45 10 -6 22 -11 -31 -14 -39 7 -4 45 -5 9 -13 36 76 -66 37 -51 -40 53 7 22 -58 -39 -31 -26
-36 -15 -21 0 4 13 -1 -17 -21 -22 -11 -5 -22 17 -29 -9 1 19 -37 -14 30 -12 -29 -1 -14 -11 -26 1 -5 15 -31 -16 6 13 -10 -22 -24 -9 -25 -8 35 3 -9 -22 -28 -2 -40 -24 -40 7 -36 -38 -17 40 6 8 -9 -11 -28 -16 28 -6 -34 1 -67 -1 6 -13 -3 25 -13 -43 14 -17 -43 -4 6 -22 -34 -40 -15 -30 8 -10 -30 -14 -16 -1 -8 8 -41 9 -13 -13 -12 -19 -34 5 -35 -25 -32 7 -38 -4 -12 -3 -9 -18 -10 -22 -46 3 -10 -9 9 -27 1 -19 -26 13 -27 -5 -8 -15 4 -13 -19 -9
-29 31 -50 -16 51 -7 -26 3 26 42 -4 42 22 1 -5 -76 -21 -13 54 -20 -26 50 74 23 -27 51 30 43 4 -26 35 -10 24 0 -73 -5 8 -4 2 19 22 1 11 -4 28 -42 -79 62 -12 -47 12 29 33 -30 30 -10 -32 3 13 12 -10 -15 14 -54 -23 11 15 17 38 -4 8 80 2 8 39 50 13 -16 -5 -67 9 14 5 4 6 -13 2 -6 57 8 10 2 -6 -46 8 2 -26 28 -13 -57 -10 5 -11 -42 -65 33 -87 67 14 9 14 2 24 -21 -8 -59 23 -16 26 15 13 17 13 0 22 -17 -3 -76
3 55 -7 -17 12 -65 -50 -66 -13 -20 4 -24 31 -66 19 15 -32 -17 49 14 3 41 35 -72 28 -56 9 -25 -65 20 8 -11 -57 -1 47 -14 35 53 -11 -23 5 25 81 44 -34 -28 42 -15 -35 -22 25 30 -43 2 -63 19 -8 -10 -5 28 19 6 38 -13 -9 24 -29 -1 8 -47 -12 17 -27 20 -17 24 -10 39 -22 32 65 -18 3 -44 30 40 -2 -94 -16 -31 16 72 24 44 52 10 -10 -37 39 19 -16 3 -2 1 19 -14 23 38 -35 45 -36 44 -70 0 -17 -4 38 -25 55 2 10 62 -34 -37 -34 9 -28 3
-19 -49 -5 64 -17 15 -9 16 15 34 7 10 -11 39 38 -32 33 27 -26 -6 -15 -35 -23 -20 43 -3 30 7 -44 81 49 9 -43 31 59 2 61 -19 -28 42 3 -28 -40 5 -12 10 -21 -39 -13 -66 13 -15 -28 -4 -12 18 -48 18 -11 -58 7 11 -6 59 8 26 40 -10 -28 0 20 -67 19 -50 44 7 18 50 28 72 23 -26 4 -3 27 -23 -31 -7 -40 21 -46 3 -7 31 -4 -19 -17 39 0 -60 -13 24 14 -21 -5 19 1 -24 -10 0 2 -33 -44 -23 20 -4 12 71 -6 16 46 -58 29 -33 -15 29 -33 -36
10 -23 0 -21 -52 9 -30 -33 41 33 -67 -8 -47 -41 -31 26 -72 14 -25 33 -8 -80 -25 -10 -31 -9 -4 15 22 3 -13 -5 13 43 -34 45 15 -13 -53 5 57 30 -14 -6 -4 -2 -9 -50 -45 -8 23 -68 -55 -41 -7 14 3 22 -6 -31 37 41 -25 14 27 -10 27 -14 -32 -19 -11 -8 29 -56 6 -25 3 1 -32 3 -19 30 1 2 10 -43 30 -15 -57 -5 -56 -34 36 -34 -48 22 -22 -1 -6 -11 18 -4 -7 2 1 -26 25 -15 -11 -51 -25 0 -28 37 12 5 13 8 -8 -49 -37 -30 -30 -34 -17 -28 -7 -10
-19 -12 5 5 0 7 -6 -16 -19 5 8 -11 -11 -19 -19 -9 -6 -21 -5 -3 -10 16 -5 3 -1 -25 -9 1 0 -14 -17 2 2 -13 9 -30 -12 -19 -23 -15 -4 -21 -9 -14 7 -21 -29 -19 -24 -6 -17 -20 -13 -15 0 1 -13 -12 -5 2 -14 9 9 -19 -14 1 -3 -19 -11 -3 -25 -16 -27 3 -5 -15 -18 -1 8 -9 3 4 -3 -3 2 -24 3 -22 -21 18 -12 -6 -9 0 -8 1 -18 -22 -4 -9 -5 -21 -8 2 -4 -10 -29 -21 -14 -16 -28 14 -1 -4 -1 -9 16 -43 1 -17 -19 -16 -28 -10 -16 -2 -2 -31
9 -37 -34 5 3 0 -35 10 -30 -23 -41 3 -24 2 -22 -25 -2 -7 -21 -36 -19 -30 -43 -28 17 -3 8 -32 -50 -11 -33 7 -69 -3 16 43 -33 47 -2 1 23 -6 -47 53 -26 -29 20 -35 21 -24 -11 12 -32 -23 11 18 22 23 -12 4 35 -58 49 0 -9 46 -36 -20 42 -37 -17 -9 -31 -29 -24 -57 8 24 14 4 -5 -4 14 30 -83 56 -10 -17 -18 -10 43 20 21 29 10 53 22 2 39 -12 -3 3 21 8 26 -1 -49 -37 -20 27 11 -74 -17 -98 -30 -21 -31 -8 -18 -26 -35 7 5 35 50 2 14 -36
-18 -59 -41 24 10 19 18 25 -27 -7 22 -1 -8 -2 -54 -35 17 -12 -4 -22 -58 -29 20 51 -78 18 27 -27 4 -26 -43 17 -8 -34 4 -46 -2 -16 -53 -13 -33 24 -66 -40 17 -11 8 13 -39 -43 -11 -14 43 -31 5 1 -15 11 7 -38 -5 -34 1 -3 -5 6 39 73 6 11 -5 -13 8 -45 -6 -51 24 1 -6 -16 -4 -36 -14 1 -24 -25 13 20 2 -32 -50 -19 -14 -7 -100 13 -27 44 -2 2 -34 -2 19 -39 -47 10 -54 23 19 -38 47 -23 31 -37 -39 -20 -55 -35 -12 -12 -18 -34 42 -53 -12 -14 -2 -32
19 -12 -6 13 -38 -3 18 15 -41 29 -10 -57 26 -26 60 4 -39 -10 -31 -15 4 31 -7 -6 23 -38 -13 41 1 -25 3 62 29 -15 -36 -67 -47 -1 -47 2 9 -64 -34 17 -27 33 25 0 20 -11 35 7 3 -4 -1 8 -11 -11 76 25 -23 0 10 -20 36 -65 -27 24 -29 43 12 -44 -6 -40 10 -12 -52 -7 -15 -15 15 33 -3 7 -50 -5 20 22 -54 -11 -7 3 -21 12 -30 -15 32 22 -9 -5 11 28 24 -16 38 -10 -35 1 9 3 29 -35 22 -41 -24 -16 -15 -11 -73 40 2 24 -24 -40 -13 6 59 -7
-41 -16 -1 -5 -1 -8 -48 14 22 -13 -13 33 -22 13 -82 -17 10 40 39 -16 -94 11 28 1 -17 8 -49 30 -56 -6 15 -80 31 -17 -62 45 2 -21 -64 31 63 -3 -49 -24 25 -72 -66 28 -28 -40 -66 26 9 -7 11 -4 46 46 5 -6 37 36 -15 -20 8 9 19 5 4 -1 16 -9 -4 -44 -1 13 56 -24 16 -55 -31 14 27 30 -10 -17 24 -48 32 26 27 3 60 -35 6 31 -26 -14 4 -47 7 7 -29 -39 -54 53 10 17 6 -23 12 -74 6 28 35 17 -53 2 -33 17 -24 -8 34 -12 20 -5 -14 -30
-2 -43 -2 -47 8 11 -19 -8 -25 1 -13 -1 -33 7 12 -24 -32 12 41 -54 -25 13 -1 23 9 -21 47 12 16 -15 29 10 13 28 -52 7 37 -32 -13 24 -28 24 -62 -21 7 -39 -20 23 39 -45 -5 16 -16 -49 -20 -13 22 9 43 -9 42 22 -7 39 0 17 9 -13 -28 -15 -34 60 -46 50 27 -52 28 -2 19 -42 7 9 15 -12 -7 -6 -12 -19 -53 -35 14 -10 3 -24 -66 -43 -30 -22 -2 1 -39 15 21 -50 -11 18 6 18 67 -39 -3 -68 -17 -53 -21 14 -67 8 -56 31 15 -36 -43 -12 10 -30 -12 -2
-35 16 -39 49 -8 9 -3 31 13 26 -34 -22 -27 22 55 -68 14 3 4 -11 19 -6 -3 -1 -34 33 -9 13 -14 -21 22 -39 6 -33 14 25 42 -48 18 17 33 9 -15 -33 18 -62 -49 -7 -15 45 -21 -37 -16 -52 28 -41 31 25 -42 21 6 30 -54 32 -42 0 -17 -12 23 5 43 5 15 0 7 13 53 31 19 19 -1 -23 0 13 19 -13 20 3 16 42 9 -19 12 -25 12 19 -4 20 6 -42 31 -7 -53 -21 -4 27 5 -26 -12 6 3 -42 3 9 36 -28 39 26 -24 -5 32 3 18 26 15 -36 -7 -41
-15 -28 -20 49 -69 -24 7 29 -16 -37 31 19 -26 -10 77 -24 -14 2 -31 24 19 42 -8 -1 39 -3 71 4 23 37 -9 -31 -18 15 27 30 42 -24 -43 -14 -38 -27 17 -18 -11 6 -13 -17 -13 3 6 -53 23 -48 -53 52 -32 -71 -6 -46 -17 -4 37 -33 -55 -10 -13 2 -38 -18 -28 14 55 -2 35 29 -24 23 18 46 5 -28 -19 -101 23 -31 -43 2 -17 -11 -6 9 -17 43 -38 10 -18 -15 -47 -6 17 -20 19 -51 5 40 1 18 -7 10 -37 -5 22 9 29 -36 22 -29 10 -29 4 -25 14 -26 -2 -9 -69 -53
30 -28 23 -40 -6 15 29 21 -10 12 14 21 32 -41 -53 -11 -30 -3 -25 26 -44 15 1 47 87 14 -55 6 -3 108 -47 -21 -48 50 2 16 -17 0 -17 17 22 9 37 10 25 24 -28 -11 -20 37 36 15 18 -42 6 91 6 -35 -34 -17 13 -11 -12 16 9 -67 8 15 -5 7 20 5 -7 -45 -32 1 -23 -30 -9 -16 26 -53 9 -35 11 -30 1 21 1 3 -29 50 -17 -8 -53 16 3 15 -29 -6 11 15 32 -16 11 19 13 27 35 -18 35 15 34 -12 -40 5 -37 10 -21 -7 60 6 14 -22 10 46 11 -24
-34 46 -32 68 -49 1 -59 -15 -5 0 56 14 33 -35 27 -57 -24 -4 18 93 38 -9 11 -36 53 -20 80 -15 14 69 -44 -81 -23 13 57 -34 1 11 5 -40 -42 41 33 17 -15 -20 10 -45 10 62 2 -4 -33 -63 14 25 22 28 -53 49 2 -9 24 22 -33 8 -33 13 3 -48 -1 27 -3 56 10 25 18 18 3 44 57 -17 -15 20 47 2 -36 5 -3 35 8 39 11 31 64 9 -49 -7 19 -21 39 -24 -77 -22 21 -38 -58 -18 -27 11 -8 53 -22 -6 42 -29 30 -20 -37 27 32 36 -33 57 6 1 -64 -62
4 23 -33 -11 -5 -37 -20 -21 -22 -22 19 27 -23 -19 4 -43 1 -7 -31 53 -43 -35 -10 -14 55 -7 -13 -23 -28 67 -22 -8 6 4 24 -30 -23 -44 -16 -40 -9 -33 -24 -2 -5 30 51 -12 -8 5 9 -18 19 9 -48 22 32 5 -14 -13 -31 1 -4 21 -15 -25 -77 -38 1 15 -21 0 46 36 7 -6 2 2 -9 4 -4 6 -13 -6 -37 -28 -49 16 25 4 -18 4 3 16 17 -25 2 5 -18 -1 -21 -14 -53 -15 23 -24 6 -25 -23 17 19 -6 -25 12 -43 -19 -1 -30 8 -13 41 6 -15 -18 23 16 13 -53
50 -18 7 45 9 -2 -3 -54 -11 -26 14 -13 -114 -39 -14 27 37 -35 -90 -34 -16 -6 -45 -1 -11 -42 8 4 -32 -6 -9 10 -10 35 74 -9 -27 -21 -12 -27 3 -35 -9 -9 -18 29 37 -55 11 23 -29 -41 -6 27 -32 -1 -28 -58 12 13 -4 -23 -69 -14 -14 -16 -26 -9 -6 19 -61 -62 20 -30 18 7 -16 11 5 40 -45 -4 8 -33 20 38 -74 -24 -19 -18 -9 -2 -26 4 -17 -20 32 26 -45 -26 -12 23 -2 12 7 -24 -6 -26 -7 -19 -5 -13 -36 -5 4 4 -21 20 0 -32 22 -53 9 -15 24 18 -25 29
16 56 12 7 -76 -20 -33 13 -65 -16 -9 22 43 -41 52 13 -22 3 55 45 -11 48 59 -59 63 -67 116 -4 40 68 0 -3 35 15 9 57 -16 25 -27 -41 -67 1 55 27 -31 38 27 37 52 21 16 53 -40 -41 39 23 -31 23 5 15 -11 -42 22 -2 -37 1 -61 14 3 7 -70 57 31 90 27 30 -1 20 -65 41 57 13 -35 -13 1 10 -14 -9 -65 0 27 10 -5 12 41 18 -17 -27 -10 9 3 -41 39 12 67 -5 -22 29 -44 -19 -38 78 -44 -25 -26 6 -11 -38 -10 21 26 55 -23 89 98 -43 -1 31
-3 2 7 13 -49 8 7 -1 -29 -50 -12 26 22 -33 -53 1 -45 -7 -37 41 8 14 11 15 12 -33 -9 -48 -46 11 -25 -73 -78 -13 1 39 11 24 -11 15 -25 18 31 -34 -36 -15 0 2 -79 -8 -17 18 -32 -24 -40 28 13 20 -75 12 45 -12 -23 11 23 -20 -6 35 -73 -75 -7 -38 -18 23 10 31 -25 14 6 56 27 -37 2 -9 36 17 14 -18 1 -33 -9 11 -4 13 4 19 5 -8 11 25 3 -20 -38 18 -40 -24 -5 10 -44 26 -17 -19 -5 17 6 1 -27 29 2 -62 7 -30 -10 50 34 -9 -90 31
-9 -47 -51 -1 26 -14 -41 -1 24 57 -18 46 -32 8 41 8 1 19 66 -77 -13 42 68 -24 -31 14 25 24 -13 -68 34 64 14 -2 -57 -39 -32 -66 -35 12 38 -31 -30 30 4 18 67 42 78 -94 60 26 -7 28 40 -6 8 -8 62 -122 -39 45 -44 -4 25 3 -32 -23 13 21 11 22 -49 8 37 3 -60 -10 6 -6 -59 92 -20 -30 -17 3 9 -16 39 -3 -2 -56 7 -53 -55 -74 2 0 -9 14 -3 -2 12 25 17 18 -9 41 -11 -12 18 -21 22 45 -19 -8 -51 3 -20 32 27 -75 18 -1 49 2 42 -1
-34 -18 17 44 -74 -27 11 -10 -14 -12 7 -53 -9 0 -22 16 28 -31 -9 13 -9 16 19 -13 -18 0 -5 -16 1 -25 -4 -8 -33 -4 -9 -17 -29 -40 -1 -14 -11 -15 17 -1 -20 -6 -6 -26 -39 -51 -4 -11 -25 -20 -47 -32 -2 2 -30 -35 -35 -33 -30 10 -4 37 -10 -6 -20 2 -23 8 -35 9 4 -33 0 -26 -61 -10 19 -4 12 -11 -46 2 -4 -7 -27 -9 -24 -24 -5 -48 -23 15 -2 10 -20 -3 -1 10 -23 -9 -27 -10 9 7 -22 -25 -61 7 -28 19 -22 -4 3 5 8 -46 -2 16 -42 -39 -5 6 -20 4
-27 7 0 6 -13 6 3 -18 -21 3 5 -7 -5 -17 3 -11 -14 -23 12 -21 -22 -3 -8 -22 -12 -9 6 -12 5 -16 -3 -7 -19 -15 1 -17 -15 -2 6 -7 1 -10 -15 -14 -22 6 3 -1 -21 5 -25 -3 1 -10 -7 -36 -22 4 -7 -25 7 -22 -12 -4 -22 -23 -20 -10 -4 -7 -15 -19 -27 0 -7 8 -15 -13 6 -4 -17 -9 -1 7 13 -14 0 -14 -24 -12 -20 -9 -9 3 -23 13 -26 -5 -22 -24 -9 -2 -5 -1 9 -16 -29 -26 -13 -24 5 -7 -24 4 8 -10 1 12 4 -17 -2 -3 -12 -4 -14 -23 -6 -9
-5 5 -2 7 -16 -28 -17 9 -17 -20 -6 1 -7 2 -13 -8 11 -15 -20 -4 -18 -6 4 5 -22 4 15 -15 -26 6 7 -15 -3 -6 -11 4 -1 -16 -8 -7 -4 -9 -14 -7 -9 -2 2 -18 -12 -12 -2 -4 -11 -10 -8 -9 -29 -8 -16 -4 -8 1 -19 -3 -6 -9 4 -21 -3 -14 5 6 7 -5 6 0 -10 -3 -11 -11 -21 -14 7 -3 4 -7 -4 -19 4 -6 -8 -20 -9 -18 -12 11 -19 -7 -35 -28 -18 -23 -20 -10 3 -17 -18 13 -18 -6 6 -8 -10 -16 -2 -7 -9 -10 -13 -17 -7 -2 -16 -7 7 -2 -21 3
20 -55 48 3 -1 19 21 6 -57 42 7 5 -48 -14 -9 21 -17 30 11 -77 -47 12 1 -4 -52 -21 -41 24 -18 -55 -8 23 -2 -47 -38 -55 -48 -63 -49 10 12 10 3 -24 3 34 -24 -35 -52 -17 16 11 2 -10 -22 -26 38 -28 23 -86 -43 11 -26 -42 37 -13 31 39 3 17 -17 -9 -21 -68 17 -32 -19 -28 -25 -48 -19 -13 -22 18 9 -10 19 17 -9 6 8 -26 9 -22 -50 -3 47 23 -12 6 -21 31 6 42 -25 -9 -4 15 35 23 38 -14 17 30 -25 16 -58 -21 -34 14 4 -94 9 -43 -56 54 28 26
-32 41 -11 36 25 -36 14 -53 86 -15 -13 -25 2 -49 4 7 24 -77 12 73 -49 0 18 -25 -36 33 51 -9 2 31 -25 4 12 -15 49 -20 -18 14 -17 -11 -29 22 26 9 -7 18 26 17 22 54 10 -12 -21 47 55 -40 -49 -33 -28 6 -14 -53 -7 -39 -34 -6 -83 -41 -25 -12 2 17 4 24 -19 25 -57 -8 -24 15 16 12 -8 -19 16 11 -21 -45 33 -66 26 15 -46 -23 0 10 -6 -13 14 1 18 -59 -55 26 2 -28 -14 7 -67 -8 -46 37 -12 -1 41 -20 34 -57 5 13 -16 13 -65 40 -10 -11 -28 32
0 -3 -18 0 -9 -6 -4 1 5 -7 -24 -20 4 -44 -10 -3 5 -23 -20 -9 -24 -12 -15 -7 -4 -15 -16 -10 -8 4 -8 2 3 -1 9 -2 -7 -4 2 6 -2 -10 -3 5 11 -18 -7 14 -29 -2 -6 3 -24 -6 -24 9 -13 -12 7 -18 -12 -5 -6 8 -26 -6 0 3 -27 -20 -10 -21 -5 6 -33 -3 11 -2 -6 -5 0 2 -11 -10 -10 -18 3 -11 -8 2 -6 -4 0 0 -8 2 5 -16 -21 -34 6 -38 -5 -7 8 1 -27 -9 -17 -15 -3 -29 -28 -7 -1 -16 -3 -20 -5 -23 0 -7 -13 -5 4 -21 5 -13
-14 -11 -12 20 63 8 -6 25 -7 -40 -32 12 18 2 26 -14 10 -29 24 47 -28 4 19 27 22 2 3 -44 -15 28 -4 -14 -7 22 24 -19 -41 -17 -37 -36 -80 -23 48 1 7 -29 12 24 -33 59 -25 2 35 2 3 12 -37 -45 4 -3 -65 -64 19 -3 -77 -7 16 22 11 -20 13 34 -22 27 -2 7 -11 -9 7 27 2 -41 -34 -10 -27 -18 -42 -8 14 -8 -2 39 -21 13 24 29 -6 9 -23 -35 18 -45 22 -13 1 23 -12 28 -1 41 30 -6 19 40 -28 -16 -8 -48 0 -23 -7 -28 12 -4 -47 -18 -18 -9
-44 -38 -27 -33 5 -27 36 24 6 29 -3 -15 -6 -17 -12 -33 -27 0 -7 31 -25 -6 -26 -13 -22 7 -21 -51 -15 -23 22 -12 -36 -32 -17 -45 -24 0 -32 21 -14 -3 -38 -52 11 -8 1 -19 15 -26 -20 -37 -4 -6 -26 22 -14 -39 -35 -38 -23 -14 -13 -9 -19 19 -2 28 9 -23 24 -34 10 30 2 -39 -38 0 -18 -11 -29 -3 0 -16 -18 -30 -38 3 9 7 -19 15 -9 -13 -57 -26 38 -3 -37 -10 7 -12 -6 -12 -8 -1 22 -4 25 22 -3 -13 0 12 -1 -14 20 -21 8 11 4 -38 -14 -39 5 -15 -20 -2
-28 -8 -47 10 26 -1 18 24 28 -5 -12 4 -32 14 20 -27 40 -38 -20 3 23 -34 -13 1 -9 22 -12 9 26 35 14 -4 4 -40 16 -26 -26 -43 16 -12 -7 -21 -39 -6 13 -11 -50 18 -8 -28 -12 -18 17 -28 35 -22 -42 -34 -5 -23 -66 -10 -20 -6 -38 -20 -8 -22 22 21 19 -11 35 14 8 -43 -9 -65 -17 -16 -22 -4 -1 -25 11 -96 -42 2 6 17 -20 -8 -50 -44 -68 -16 -30 -20 -35 -36 4 -48 -6 -41 -4 7 7 -34 -44 -65 -9 5 19 51 -6 -57 -30 -9 6 14 -14 -6 9 -37 6 -50 -7 -9
15 -62 -27 -18 -31 -42 -21 -45 -17 10 -14 18 -30 19 45 -29 -50 16 -11 -65 -19 -43 -52 -16 54 -14 13 24 -64 32 24 5 -8 -13 -13 -5 34 7 -13 -19 -5 -64 -76 55 -22 44 32 -51 16 -83 -9 -17 -37 3 -37 41 -54 30 5 -19 -19 -5 26 18 -2 -16 6 -12 9 -10 -7 -34 -9 25 -5 -72 7 39 -2 36 4 32 10 -25 -43 16 -53 -22 22 4 -42 -10 5 14 -13 -10 21 -13 21 7 8 15 -45 -8 36 30 12 -15 24 34 -4 -45 15 -98 2 -21 -32 18 3 -21 37 8 -37 3 8 10 -20 -68