-0.014443808235228062 0.06639239937067032 0.06334778666496277 0.011905699968338013 -0.04135369881987572 0.1439376324415207 -0.03888386860489845 0.25311478972435 0.26555314660072327 0.09323261678218842 0.05135386064648628 0.01846817135810852 -0.0678039938211441 0.16643203794956207 -0.22159603238105774 0.026286285370588303 -0.30247601866722107 0.028257403522729874 -0.011315449140965939 0.043303921818733215 -0.05399518832564354 0.043191298842430115 0.112963005900383 -0.03615743666887283 -0.0614507757127285 0.01376867014914751 0.18436112999916077 0.0738285556435585 -0.020077480003237724 -0.2007807046175003 0.08547382801771164 0.12403009086847305 -0.0887846127152443 -0.0602705143392086 -0.023391975089907646 0.045419611036777496 -0.09532488882541656 -0.04493172839283943 -0.016849078238010406 0.05238150805234909 -0.04288863763213158 -0.020906733348965645 -0.14174902439117432 -0.14723457396030426 0.1371772438287735 0.09536914527416229 0.06875951588153839 -0.05112304538488388 -0.020219312980771065 0.09781815111637115 0.1292862594127655 -0.10597929358482361 -0.05394184961915016 0.060367804020643234 0.06094466894865036 0.07485274225473404 0.05707244575023651 0.01880607008934021 0.06135266646742821 0.04984473064541817 0.04421386495232582 0.02326987311244011 0.15940845012664795 0.14678430557250977