-0.26768919825553894 -0.23179061710834503 0.13083027303218842 0.0007191322511062026 0.0690285861492157 0.10408055037260056 -0.014376571401953697 0.29683592915534973 0.03541238233447075 -0.0256849005818367 -0.020663464441895485 0.15972572565078735 0.04123770445585251 0.07788724452257156 -0.10110563039779663 0.10325115919113159 -0.1676131784915924 -0.0239559393376112 -0.006833081599324942 0.029519639909267426 -0.016605157405138016 0.24856926500797272 0.012427324429154396 0.08272495120763779 -0.05034200847148895 0.14615339040756226 0.03380877524614334 -0.008712096139788628 -0.013762170448899269 0.016083858907222748 0.0857737809419632 0.11641450971364975 -0.08710530400276184 0.0967397391796112 0.05691753700375557 0.1329217255115509 -0.15763527154922485 -0.024868080392479897 -0.1348765790462494 -0.08492261916399002 0.11631766706705093 -0.12696395814418793 -0.1770305335521698 -0.00221369625069201 0.12904103100299835 0.1368860900402069 0.03000079095363617 -0.053027745336294174 -0.0344538614153862 0.1558220088481903 0.15467846393585205 0.08442443609237671 0.17238597571849823 -0.11158520728349686 -0.08717460930347443 0.1537826657295227 0.03949584811925888 0.03857886418700218 0.11037950962781906 0.02811793051660061 -0.02035357803106308 0.09781742841005325 0.11791741847991943 0.04800006002187729