13 37 -45 32 -27 43 -55 43 4 32 1 38 -28 -49 -15 44 -39 0 -19 -16 -12 6 28 78 -72 7 11 -26 -48 -13 -25 -30 -39 1 14 7 -5 -2 -20 21 29 17 -2 -27 10 -11 -31 -49 5 37 11 -14 -13 97 -5 -20 36 -11 -35 36 10 -34 35 -20
-38 11 51 -60 41 -58 -71 31 -5 12 -30 -37 -13 12 -4 -17 -34 -60 -42 -12 8 30 70 -19 -14 -5 -58 19 -7 0 53 -31 -16 85 -1 19 -10 -39 -98 46 25 -5 -43 1 34 -19 24 11 32 4 60 20 42 -36 2 20 -96 50 -16 -25 -19 -6 -18 28
5 29 5 -18 -31 16 -53 -34 29 -13 -43 32 -53 30 -17 11 13 40 -9 -8 -3 -28 -21 -1 -3 17 -25 50 -35 10 -7 -59 11 -36 31 18 -16 28 6 -36 -7 6 42 13 -48 -14 -35 -5 36 -2 10 24 10 27 45 -16 23 -36 -22 6 38 0 14 9
-85 26 47 -12 41 -73 -33 28 -2 6 -5 35 17 -3 9 37 10 8 -21 17 -19 76 52 52 -47 23 -15 -12 32 -12 65 63 24 18 -5 24 -6 -88 -71 1 28 41 -36 23 18 -53 47 -10 -4 -15 20 -15 31 22 -16 53 -39 37 8 -61 8 0 13 62
-4 -48 24 34 41 -9 -28 30 -92 3 -50 15 38 -41 -21 -48 -35 -16 -43 -11 52 19 46 58 36 3 -95 19 48 3 -31 -31 -7 46 61 87 6 -14 7 15 38 41 -48 37 57 -45 7 -5 60 -27 33 -5 27 -27 -12 0 -31 -35 -37 -49 -7 -40 9 22
36 0 -47 1 -26 75 14 18 59 14 4 -5 -19 28 -24 37 -32 36 50 -15 13 -26 -42 -31 3 -53 68 39 -44 -49 -34 -27 33 -14 -11 -32 0 11 14 -19 -15 6 32 -37 18 14 -22 -40 -56 -40 -41 -36 -56 109 17 -62 73 -41 9 21 -20 -20 20 6
19 31 -50 0 37 56 37 -34 -1 -2 -46 62 35 -26 -1 9 -39 -10 23 17 15 8 -7 53 -2 43 20 44 -21 -5 3 -18 -50 -15 27 -12 62 62 9 -33 5 -40 33 -53 -37 17 -37 -7 -22 15 32 41 2 42 32 -24 18 -32 4 -4 21 16 -29 18
36 23 -69 15 -74 -10 -21 -42 20 -4 -26 -29 1 7 32 6 31 38 30 31 21 -29 -10 -6 -47 1 14 25 -64 -45 -32 -19 -41 -58 -18 -70 12 25 -37 -19 -43 8 43 1 -41 5 6 35 58 -18 6 30 -41 84 -9 -35 64 -22 46 1 27 32 9 4
9 -7 -35 15 13 52 -38 -7 -42 12 24 -79 -49 40 14 33 -12 -18 32 21 -2 10 -28 -45 -29 -32 27 30 -57 18 -53 -2 21 -20 3 -7 -8 8 20 16 -4 -10 23 40 -2 13 -17 -32 73 9 0 63 -31 1 -12 -14 17 -4 22 38 -8 -12 -34 -20
-14 37 10 -47 -24 -75 8 -5 4 30 -53 -42 -10 2 -15 -10 -9 20 -7 17 38 -13 12 69 -60 52 9 -30 36 -1 -46 10 5 -13 -25 -32 17 7 2 10 13 18 -9 8 -78 -16 -55 29 29 13 13 -2 18 -8 -54 32 20 50 -52 17 -11 -36 48 50
-7 37 50 1 -79 39 -19 -49 45 -19 18 65 18 5 -12 -52 -18 47 19 -40 43 17 -23 95 3 20 -4 -11 48 2 24 -56 -9 12 54 27 11 0 -37 -17 63 35 -6 39 -56 -46 34 22 -20 -95 60 -63 -26 66 -12 -2 41 -35 -87 -25 -16 -30 3 -5
0 36 -7 -7 -11 25 14 18 17 -17 -6 -23 -54 84 -3 -21 5 -2 -5 -28 -14 42 14 -6 21 0 53 -19 13 -66 15 -8 15 -9 -35 -40 8 20 29 -40 14 58 4 -48 -3 -7 -27 -1 72 17 -4 -8 31 39 8 -11 -21 36 36 36 29 5 46 -2
11 6 15 -33 37 -37 -39 -35 7 17 -57 16 0 31 11 -50 14 -40 1 -10 44 51 -21 -28 45 12 -22 -6 47 9 56 3 -34 40 36 39 -15 -16 -65 -5 14 30 -52 46 -43 -36 33 11 -48 16 2 -40 5 -65 -11 -16 -47 40 5 -36 0 30 -29 26
-44 -42 60 -44 -31 -42 22 -6 -13 5 1 27 -30 -32 22 27 52 -15 -6 -37 10 77 -2 14 -44 28 32 -24 103 51 -11 3 33 50 31 59 -37 -29 12 -27 83 29 -65 14 48 -49 -18 4 -29 12 47 50 34 -39 51 0 -55 51 -17 -59 -50 -48 -14 14
-6 8 18 6 -32 27 -61 -1 -55 38 -73 -54 46 63 -4 -82 -8 -23 -31 -21 4 -21 55 16 56 -1 -8 1 -29 13 65 -42 9 66 -14 25 19 47 -19 -5 5 23 -17 26 -1 9 15 15 4 26 22 -57 16 -46 -25 -3 50 -20 10 0 12 -21 -38 -59
55 -30 18 52 68 48 21 29 -30 60 64 38 -14 -19 -4 0 -10 13 8 68 -41 -28 -34 -41 23 -91 0 23 -8 31 -33 -20 44 -42 34 30 -15 -13 54 18 -27 -15 -9 44 9 27 44 15 14 18 -44 36 -42 -20 28 -6 22 -51 29 15 3 32 -28 -65
-50 -36 -11 -15 -6 28 39 -59 17 -26 -12 -31 31 -5 16 -23 32 -65 5 9 -25 15 35 38 -46 35 11 -13 35 -38 -13 40 17 -23 -3 -21 -34 17 -37 -21 12 -58 23 67 25 46 -35 -13 -48 8 12 37 -29 -24 44 -19 -24 18 40 41 -59 7 42 44
2 -30 -25 39 30 -10 -26 -1 9 43 43 -49 -7 34 4 0 28 -30 -4 -35 -42 -57 33 -71 22 5 -9 -33 5 -27 -1 63 23 -11 7 -84 -38 -31 37 44 -25 -7 -21 -54 37 34 34 -17 -8 -20 -16 3 19 16 23 14 30 30 5 10 -4 52 20 38
56 43 -88 -7 -30 -33 -23 -50 4 5 -35 -22 9 -33 -10 18 -4 -50 -14 12 41 -45 -24 59 37 -3 7 39 -39 50 4 -44 1 -17 2 14 36 16 -19 -44 -2 7 -31 -11 -34 -44 102 -10 -33 -40 7 -14 11 44 9 4 24 -29 40 38 40 -30 -25 -51
-41 28 -2 58 -29 3 -32 17 -47 1 -66 -52 -18 -39 4 -4 25 -17 -48 -7 19 -2 17 -20 -17 33 -102 -20 15 23 -1 -5 14 21 -35 5 -20 34 -48 16 7 51 -9 -10 11 -51 3 39 52 -17 -21 3 0 -25 -93 12 -13 -10 -5 65 49 14 -5 -51
-3 -18 4 1 53 -19 21 11 15 6 -18 -35 -65 78 -13 100 0 34 26 26 -44 -12 9 -60 25 -96 14 -5 -43 -38 -12 34 23 -16 75 -46 -91 13 29 16 -40 6 5 14 70 11 23 39 21 -6 -38 -4 -45 -43 -28 0 -9 47 -21 -6 -19 42 11 20
68 6 62 -62 -60 -17 -38 -22 -71 -40 -58 -42 7 27 43 -14 21 30 -8 38 -21 9 -41 -9 13 -34 27 46 52 47 -57 -37 40 -16 22 106 -41 -61 -8 -29 56 14 -49 -4 16 -26 24 9 31 -35 10 30 66 -36 -50 54 -58 38 -88 -65 -78 -38 57 44
-19 25 33 23 7 -36 -62 39 7 -12 5 42 15 36 40 12 -16 49 -35 -15 30 -8 28 -53 -15 35 -25 0 -14 37 41 -4 -14 -41 -18 -50 -10 65 33 -1 7 5 23 -18 -48 10 -27 -15 1 44 -34 88 -19 9 -39 19 -8 -32 -44 -45 31 8 5 -8
2 -23 1 24 -3 -26 33 -12 11 5 29 8 20 16 -18 34 24 -35 8 38 -9 4 -35 -15 -65 56 -28 -15 -27 -33 -36 32 -3 -31 82 25 -42 -18 -2 -41 46 19 15 8 51 -31 5 -68 16 -7 -31 17 -8 26 67 1 71 50 -27 32 -31 35 10 20
24 32 -24 9 -39 55 -60 -2 -6 -5 -3 33 5 -2 -72 -6 -41 22 -46 -9 15 19 34 43 3 18 2 33 46 27 -24 -40 -2 12 26 20 16 -27 30 -64 31 56 15 -28 -3 -57 30 9 3 -27 -10 34 -33 20 45 3 58 -45 -11 37 38 -35 36 -30
4 18 17 25 36 18 -30 -72 -8 2 -73 -39 -37 -42 34 -4 26 -45 -7 -49 -5 42 -4 23 36 -23 12 -14 20 10 19 1 -34 47 41 5 -64 -45 -13 18 -6 -14 45 75 69 -11 -61 -37 46 45 -42 -51 15 -6 11 -19 -2 88 34 10 26 2 31 12
51 -47 26 81 -33 3 -46 42 -38 27 69 -11 -3 -38 -14 -56 -34 -67 27 -9 2 -76 -22 -41 21 -42 7 26 20 32 -34 -48 43 16 0 11 -41 34 -13 -14 20 35 15 3 -42 -11 4 -35 38 22 37 21 -7 -4 11 -11 24 -50 -46 14 -15 43 -3 30
-81 -16 28 -30 -13 -36 42 -20 33 5 81 23 12 -13 14 24 16 -24 -71 46 -33 65 31 9 -63 19 12 50 -14 20 -23 57 -13 -11 7 10 -47 -55 -69 -17 9 -17 32 14 46 -11 -48 -39 -5 65 36 56 1 25 -52 -53 -11 0 1 -12 -8 -38 46 29
95 -12 -62 51 -34 -9 14 -25 -26 20 -62 0 4 0 8 -54 16 -51 22 3 -1 -34 43 45 74 -17 -88 19 0 32 2 -88 -8 -30 30 -21 -4 57 -6 -17 -19 72 -1 -56 -14 -70 12 0 30 -76 13 -7 -17 -21 19 16 -2 -64 -41 -30 40 -28 17 31
-30 58 -21 36 14 -6 -7 -74 34 -52 -2 62 71 -16 15 -56 17 0 -38 -10 -7 27 56 19 -48 71 -41 31 24 -35 19 11 -13 -23 5 -26 -9 26 -20 -45 86 -10 6 -1 -28 13 -14 -2 -44 -6 -3 10 54 22 13 16 -16 -65 -42 39 -32 -80 -2 48
67 -26 -46 38 -12 16 -52 47 29 -5 60 53 -51 -50 9 -2 5 7 16 -22 34 -48 -11 41 -62 -30 -51 69 -12 27 -10 -2 49 -33 49 43 12 39 24 -23 -83 -22 -8 -44 5 4 30 0 33 -57 -1 21 6 43 -14 22 22 -13 -17 0 31 45 -5 -46
30 23 -9 0 -58 5 -28 -35 -58 -53 -56 9 32 10 17 -52 58 -1 8 -40 -5 7 -24 42 50 -28 -57 -41 78 3 4 -66 -6 36 -15 55 40 -20 20 16 1 -4 -27 46 -47 -56 14 -14 -14 -69 31 -18 49 -58 31 40 -52 2 -25 -16 -5 -56 -26 9
-31 57 62 -35 36 -26 26 40 52 37 -77 13 -38 68 5 -23 -7 13 -6 -6 12 11 13 16 -5 -6 68 1 69 -24 11 42 -20 14 -23 25 22 -3 -44 72 -3 -29 -9 -38 -32 33 -22 -15 -53 59 22 23 -12 -33 -24 -11 -51 25 -7 -40 -21 -22 7 60
29 40 15 -13 -38 6 -19 8 -61 2 0 12 18 -36 8 20 8 3 48 -12 60 13 -24 70 3 19 -35 -22 69 -31 34 -16 19 42 14 78 -2 -24 -20 4 23 -2 -22 44 -29 -28 -43 -106 -33 -18 68 -76 6 9 16 -33 -36 5 7 -37 8 -9 15 25
-28 14 -17 31 37 13 21 23 1 -3 54 21 28 -55 2 38 4 17 6 11 26 -58 28 -22 -19 -5 25 61 -66 -21 -43 2 25 -61 3 -28 -18 -24 -2 -38 -77 49 40 7 85 54 17 21 1 -16 7 96 -24 10 -55 10 77 -45 28 39 21 50 19 -21
2 16 -45 24 -51 -10 -43 -40 8 -30 -94 -16 7 1 -14 -37 -38 -8 -95 36 2 -24 38 35 2 42 -21 -48 37 -38 33 -28 -2 -26 -33 52 -15 32 -19 15 -59 2 23 13 20 24 68 44 9 47 18 15 7 -13 19 21 -16 -28 7 4 52 -6 3 3
-46 12 -4 -36 -14 68 -17 52 66 32 47 -34 -10 -41 17 26 -53 3 -17 -20 -33 -23 15 -1 20 48 -32 -25 25 -42 -23 12 -44 -32 -30 -67 16 12 -13 -4 -53 14 43 -56 12 9 7 -30 -69 53 -43 26 25 42 17 -15 72 -11 -4 40 -29 64 -17 -40
25 10 7 -62 -33 -2 66 -30 47 -52 23 -83 0 8 -45 20 16 77 -24 -8 -27 -15 -15 44 58 15 65 -14 22 -36 2 22 -20 16 5 -34 -8 24 41 31 -42 -11 45 -37 -1 40 19 74 4 -57 -33 -51 -57 11 60 -33 53 5 38 10 -7 -17 -7 -27
4 -64 43 -20 33 34 52 0 47 27 118 16 68 -75 15 26 -13 -22 -31 13 -12 -34 16 -15 6 -48 15 41 -33 14 2 17 -21 -22 41 12 -26 56 -23 31 17 28 10 -17 -32 -49 -19 58 -23 -18 33 1 -71 -31 0 -24 11 15 40 -32 18 -1 -21 -22
-39 14 23 48 28 -32 59 34 3 -1 -8 1 -5 32 -8 -20 -3 -41 -29 12 -29 -14 14 -17 22 -84 41 -14 -48 -50 -11 47 -20 10 -88 -66 2 81 -3 66 -22 -30 -28 -1 15 -15 -40 -39 6 77 -7 28 -1 29 -38 4 -29 31 36 46 6 24 3 -12
-13 -14 48 -15 15 -65 -32 -50 31 23 45 -30 50 -9 -15 -48 -17 -49 -42 -40 10 19 0 20 41 37 4 -4 62 -8 12 -35 -20 22 31 48 23 13 -12 6 -33 -12 -16 2 -20 -12 -9 -39 -41 -30 25 -32 17 56 53 9 -28 -52 -35 -3 -24 -16 -15 -38
-12 -7 -23 -101 -53 -55 16 -1 -23 -42 -44 -61 -11 38 -33 30 21 -11 51 13 -2 19 -16 20 23 10 -49 -8 -13 62 17 7 -17 27 6 57 8 -4 57 -13 66 30 -12 22 -4 -25 1 6 35 -73 36 -50 19 -33 67 10 -49 -45 -8 10 -31 -51 16 5
8 -46 -6 -7 51 -71 -63 -22 13 52 -11 28 19 9 10 -77 14 14 -16 -13 33 -13 -42 -30 -23 7 -35 -16 -12 1 32 -36 44 -8 29 4 0 -16 -51 34 -80 32 2 6 -36 49 1 34 75 14 53 -52 9 -37 4 37 -17 -41 8 0 48 64 -18 -23
-1 68 27 -16 3 43 -1 38 42 15 -37 -62 -29 44 -42 91 -38 -5 21 3 -28 -21 66 9 -38 -33 43 -8 -24 -68 16 31 -1 -12 -100 -17 -22 29 20 5 0 3 24 -44 37 72 -41 -91 2 18 -16 15 5 62 -11 -17 20 12 48 41 -40 14 -6 29
-13 14 -15 -23 7 -39 24 11 -34 -25 -49 7 -54 26 -65 6 -23 -49 -67 40 -22 -21 19 -17 -32 -17 -18 24 5 49 -6 -15 6 13 35 8 37 -31 34 4 -28 8 -38 9 35 5 16 31 61 -75 0 26 -45 -26 -15 -27 -26 -15 30 -29 12 -16 -5 56
-25 14 -46 -34 6 24 28 38 27 -51 -27 -15 -46 5 -27 -5 31 -30 0 17 -36 9 23 -14 -22 -13 -21 10 34 -9 24 -12 23 -4 12 -63 9 -14 52 4 -13 -12 14 -13 0 37 31 -9 9 -10 -27 15 25 -34 -16 -7 4 2 -9 -9 -24 25 49 -12
40 19 82 12 90 15 20 -30 -69 28 1 15 24 42 8 -79 -6 -31 46 17 25 15 -26 41 -26 -54 -26 -40 38 -3 3 14 25 22 -11 33 26 -29 26 13 40 -14 -24 -17 -34 40 -64 3 -18 -38 22 -10 43 -18 -28 -3 -22 38 -8 -42 20 -42 -38 42
-57 56 27 53 -5 -9 9 -7 -15 -1 30 1 32 -46 -5 12 -55 -14 -24 -55 -13 17 25 37 52 -10 -57 12 8 16 29 -22 -5 -38 44 70 0 -62 -43 6 36 -2 -33 -62 65 -67 10 28 -19 -6 -7 -10 21 18 23 35 -22 -73 -72 21 -23 26 5 -30
-7 -16 11 13 11 25 -39 -2 -34 34 28 3 1 38 -88 -27 -6 -23 2 7 51 16 15 -27 -41 9 -55 72 -31 -23 39 30 -21 24 23 47 33 52 34 -41 24 -69 -33 -21 53 38 43 28 38 -79 47 -7 -9 -2 -13 -16 43 -44 -7 6 28 8 30 40
33 26 -18 -19 -35 -10 -9 34 17 -49 -115 -24 17 26 67 37 44 52 -1 20 -26 -7 4 1 38 20 -10 -8 88 -26 -50 -29 -27 9 -23 -71 3 -27 106 -37 -58 -7 -26 -30 -69 -50 30 -14 45 72 -4 -105 38 -22 91 2 -14 20 28 10 59 47 -14 -47
-56 -21 -33 -26 -31 15 -4 32 -8 6 -7 6 -2 41 -32 19 17 -30 -77 -3 49 33 8 1 -34 -63 4 43 12 19 34 18 -39 0 -17 -12 21 36 -56 -19 14 -10 1 55 29 -1 -19 4 51 6 -22 1 0 -20 -62 -14 -27 -61 47 -14 19 48 8 14
15 36 0 31 24 -37 27 23 -8 -13 51 -66 7 -47 46 16 15 9 10 5 20 12 14 -38 65 4 -25 11 -12 -3 4 40 48 12 -30 38 -14 -43 -49 40 18 12 3 25 105 12 -24 -22 13 -51 -48 4 -5 30 37 -20 -34 32 42 -5 1 4 2 4
-29 11 -47 6 37 44 -31 16 12 -6 -57 -7 11 -41 -14 -4 -42 76 -65 -8 30 -6 18 24 -21 21 -34 8 -70 51 69 30 -40 55 17 -8 19 41 22 -19 -64 -56 -23 -21 -89 -46 17 -51 22 35 44 -10 -7 47 -35 3 -13 16 24 -92 50 18 6 5
1 17 28 -10 21 -64 38 26 20 -30 16 -77 -25 -10 61 14 20 26 -31 15 23 50 -30 -3 32 -47 19 17 28 30 -13 15 -4 68 32 12 -14 -13 -34 12 -37 29 41 25 65 -27 -57 31 -27 -16 -10 -80 -7 49 -5 -38 37 11 73 -37 3 -31 -9 17
-8 -4 60 51 47 -8 35 36 27 -9 48 9 48 -60 58 9 66 -54 14 43 31 -57 8 -3 -21 -32 -63 42 74 0 -34 63 59 -30 -2 -11 8 4 -30 80 10 20 3 22 63 -42 11 42 -17 -10 -89 0 36 -33 -23 58 -55 19 19 -37 -6 -31 -10 20
12 1 -4 -29 19 23 -72 23 5 -22 -22 24 -11 -60 6 -6 -21 -35 -41 13 -33 -52 18 -1 1 -26 -37 63 21 -12 66 39 68 5 16 -1 -25 9 -34 -61 -64 -64 -23 -18 64 -23 69 28 2 36 14 34 -9 66 14 18 15 -38 -29 26 -14 26 30 -7
-6 -1 6 7 -7 -9 60 -11 53 -20 -16 -26 -12 -6 -2 -6 9 -39 -46 -46 -23 -30 -2 -35 3 19 7 -50 -82 -5 -54 -29 14 -1 -1 3 -29 -61 -31 83 28 0 31 46 115 28 -29 -13 14 2 9 15 4 33 51 -19 -24 -21 39 10 -28 -50 1 -3
-27 -12 12 -36 9 6 -41 -22 -12 -16 46 -29 -54 10 -8 10 17 47 -10 20 -5 -12 -2 23 -20 -57 33 26 4 -25 -18 55 -6 -19 72 53 23 50 13 -66 -62 9 -13 -22 62 28 -11 79 -10 -26 11 -15 -34 -15 30 -20 -9 -39 -43 -38 -31 12 31 22
-2 71 -38 -11 24 72 -20 21 38 18 23 -29 -14 -25 -27 37 -40 19 45 -12 -22 -68 43 -28 -9 -44 66 -52 -43 -41 -12 37 -16 -67 -30 -58 -9 65 -29 -9 -25 1 25 -58 25 52 23 49 -21 2 -18 80 -25 51 -3 28 8 34 -11 61 15 73 -4 -28
37 29 34 -49 -70 31 54 -41 -3 10 -42 12 -20 64 -36 14 -42 84 6 58 -11 -13 -17 -16 38 101 7 -35 -12 -37 -49 6 -81 29 -56 -44 26 -39 -8 16 6 32 -7 -45 1 15 -41 21 -87 -31 -24 -42 -17 5 45 -40 -1 -19 -22 11 57 -31 8 5
8 -1 25 42 40 -55 54 -26 -4 24 -3 38 -20 -26 73 -16 51 -97 -26 36 -35 19 13 -43 34 -78 87 -74 18 7 -8 -1 69 -66 -40 -22 32 34 -32 37 23 -54 10 -11 -102 2 -33 25 -31 20 -8 37 1 -30 -40 12 -40 49 27 5 -79 -2 -47 -11
15 36 -9 8 -5 -5 2 -20 7 -12 43 -90 17 -32 -14 -6 -44 55 49 22 -17 11 -16 29 -41 -2 -24 52 4 31 -16 42 -41 -33 -7 -45 -13 54 11 26 -68 18 -8 -21 51 12 -28 9 -58 -45 -47 1 3 31 -25 -53 27 -22 10 0 5 -1 -13 17
21 38 -23 -3 39 -43 37 26 82 -1 17 -60 -115 49 -14 33 -24 10 -5 16 18 -21 -47 -49 31 -33 22 -42 -56 9 -34 62 -28 -18 25 -34 5 -8 20 17 -81 -47 42 -18 1 14 6 51 -42 11 -48 10 9 62 68 40 -7 7 69 -31 1 17 18 6
34 11 39 34 24 -29 61 13 42 1 -4 26 -11 -14 68 34 26 10 -56 -12 -13 29 -41 -20 22 -51 23 -14 26 -16 37 26 50 19 -117 1 59 37 -8 56 4 -62 9 -43 -66 1 -22 -28 -53 15 -35 -3 -14 45 38 64 -17 45 82 -65 -46 -9 -26 28