33 13 -40 -14 -2 -12 18 15 -20 -1 -9 28 18 -4 -23 -35 -13 30 -38 1 59 19 34 56 21 -14 38 62 -5 9 22 -101 27 -19 23 -1 -37 -43 54 54 -39 -10 -14 -11 -10 15 6 -7 -14 -41 24 -16 12 -46 -14 17 21 12 88 65 -51 19 28 -18
-3 41 32 59 41 -3 -60 -75 52 -13 -52 28 -16 101 -91 94 -20 3 14 -14 -31 -40 15 -24 -25 -39 -6 -12 7 -4 39 -39 -39 14 -11 -68 20 -17 81 3 23 27 -31 -56 -34 3 15 1 13 26 -21 0 -56 24 33 -5 3 27 20 -7 -3 30 -25 -31
2 -15 -58 -14 -85 10 53 22 -37 -29 0 -29 -26 -17 -40 -13 29 -34 22 -20 9 22 -21 -17 -8 -15 -30 26 -39 -29 -8 17 -27 11 35 51 1 -26 8 3 -26 3 54 11 6 30 -19 -28 -26 57 7 -41 6 -26 14 20 -29 25 3 -43 53 -67 18 15
-29 92 -25 49 62 -82 13 -34 -14 -25 52 -33 98 73 38 -92 57 10 -16 7 0 42 -27 -30 -75 -4 21 -13 -24 -15 -53 17 -34 -40 23 38 56 41 5 -66 -24 9 5 -8 7 -13 -36 -8 -24 7 -22 31 -43 44 -30 -10 55 -3 28 10 -13 0 10 -22
-4 20 12 3 -4 22 -21 -9 29 -7 3 22 3 36 -2 -42 -14 -15 -6 27 5 31 -3 13 31 -16 -9 -1 40 74 22 -5 -35 -17 -12 11 -32 8 -4 29 5 -7 -46 -5 -27 29 -14 13 -60 52 -26 1 -25 79 -54 -28 32 33 -16 69 -43 40 24 -63
-34 -1 -66 57 10 -39 -10 -33 -26 -3 -39 -12 26 -3 35 -6 -17 22 20 -29 -21 -79 -10 -11 14 -37 -65 -21 0 -24 29 -33 17 29 -30 -4 -12 -4 10 34 63 18 48 -3 39 -39 -7 39 9 -3 14 13 0 -3 48 7 9 16 -40 -58 51 -3 -18 69
13 -32 -4 -19 -41 -5 -22 4 26 8 23 9 -23 38 -22 5 -6 1 37 -17 16 -51 5 -13 -18 27 -20 -16 -7 -1 5 -28 -7 36 -10 14 -8 -24 -50 3 22 -25 31 17 3 17 33 -13 16 -56 17 -70 9 -32 -28 -11 -51 26 52 8 17 25 -2 -34
-55 -3 -98 32 -47 -62 36 -42 -39 -63 -73 7 24 -9 24 -33 49 14 -27 49 36 39 4 -20 -14 -17 -4 2 0 -38 -51 48 1 39 -34 19 18 56 20 -20 38 12 -35 -7 19 -6 -18 12 -12 -22 -36 14 -4 6 -25 -20 5 23 -2 43 -32 12 -12 -6
-39 21 18 23 -37 12 -14 -4 -16 -3 -27 8 -30 27 -34 19 4 5 28 20 -15 -13 -31 -9 -51 2 -27 18 -40 -6 -31 3 31 32 -47 8 -21 14 -15 -12 6 13 -43 31 41 19 30 26 -1 -11 8 -11 -12 14 1 -7 -11 19 -40 32 0 10 -27 2
-9 -21 -22 -27 -28 10 21 -18 15 -5 -36 28 4 -18 18 8 9 -47 47 55 -47 -50 -8 15 61 26 -36 1 26 3 -34 16 -24 0 9 60 15 66 -28 -35 31 43 -32 -13 -1 -26 -54 60 -32 34 24 -34 15 -87 -44 19 -17 -53 19 -4 22 -66 -20 3
32 -36 26 12 -5 11 5 25 19 32 -8 64 -20 -28 -39 9 24 4 -51 11 -41 24 4 31 -27 -8 69 23 3 -9 14 -30 -28 21 1 -4 -34 -40 -41 21 -13 -12 44 -53 -2 -6 15 -28 -7 57 5 -32 18 -15 -23 -33 -30 -50 -87 14 38 -39 5 50
-47 -1 -8 19 19 -69 -11 -75 -14 -5 -5 5 22 25 61 -18 2 31 34 37 5 -28 -10 43 -21 -55 14 -7 -24 -21 65 -8 -66 -15 17 51 7 12 -20 -31 1 -4 9 -22 1 13 -28 -30 -59 7 -9 29 24 34 16 1 4 -50 39 44 40 -12 83 93
11 54 40 49 51 -13 -6 -9 2 83 60 4 24 20 -10 -49 -28 -13 -40 8 5 55 -5 1 -37 -4 -46 -22 -19 -5 -30 28 40 14 -16 -7 2 -19 -28 24 6 -5 32 59 17 10 -21 0 10 -20 62 47 19 24 36 52 10 51 20 1 -9 26 49 39
-62 5 -28 24 -30 -11 -45 -14 10 2 -45 -14 -5 53 -18 -1 0 28 -20 30 51 17 -11 6 -69 8 -5 17 -41 -22 -10 7 8 -2 2 -8 2 -30 -24 -5 -4 -12 9 -29 -21 24 1 44 -3 31 6 -23 17 -36 -66 8 -38 -49 15 12 -23 -42 -21 3
-22 38 3 -16 37 -4 46 -35 -26 -5 3 -16 35 -42 57 -41 -44 -39 43 -49 -24 56 -10 30 77 26 -29 26 -10 8 -21 -54 -8 -6 43 20 11 47 0 2 -32 14 -54 51 29 -18 -64 24 53 -1 43 -59 88 -53 -51 70 -44 45 87 0 -41 49 9 -32
-27 -14 -11 -25 3 53 11 -13 33 13 -28 23 -25 -35 6 6 -42 11 -9 2 -16 -20 -27 -16 -14 -16 51 -46 11 -14 15 35 -24 -30 -5 23 8 -72 -38 -30 3 -11 74 -34 3 -9 15 30 -1 -6 -4 -47 -46 -4 2 -35 17 -64 -72 -1 21 -56 -64 -6
-5 15 -14 -46 -14 6 66 54 -4 -60 17 -8 45 -55 54 29 -12 -18 -15 -2 33 14 5 -29 -4 -37 -21 52 -6 -15 0 -14 -48 1 20 -13 52 7 22 -2 -18 14 -24 29 34 -4 -50 46 43 -71 68 -25 -15 -30 -15 -1 49 -3 34 -52 -13 -6 5 -30
-3 -24 -6 -101 26 29 21 -14 3 -30 30 -23 -25 -64 8 73 16 -4 15 44 29 23 9 34 29 23 43 44 46 7 66 -19 -72 -3 24 1 -7 27 2 -59 -20 -15 3 -16 -3 -8 -30 38 32 -38 12 -28 47 -27 -8 -8 -13 -10 -3 10 -12 22 -7 35
-19 -13 -43 4 -6 -53 3 -23 -34 24 -27 4 2 41 52 -46 -25 35 30 25 -7 -36 15 22 21 -3 -1 -11 -10 1 18 -26 -56 16 3 17 6 -3 -20 -34 13 12 16 -1 37 7 10 12 29 -27 24 38 -9 12 -31 21 40 3 10 18 -36 11 34 -24
-30 22 -24 10 -18 -7 -64 -4 -8 52 -63 31 3 -7 -53 -25 -2 21 -20 -35 24 -7 -27 -13 5 1 -22 -18 -19 -24 1 23 -16 10 -81 -21 -56 22 -4 3 38 39 12 -42 3 0 33 17 -2 16 -19 11 -22 -18 34 85 -60 13 18 -39 31 0 13 45
6 -54 -16 -45 -14 -3 -20 22 27 -5 11 -21 -42 -11 -6 -22 9 15 29 14 24 -4 16 -43 -9 -55 12 -62 25 -5 65 23 17 3 -23 -17 4 40 -10 -28 18 -6 19 -16 -16 -15 -3 -27 -12 -25 -14 2 24 18 38 -13 49 -4 29 -25 -13 -1 -2 -37
-7 19 14 6 35 -12 12 25 8 18 6 -12 20 -26 36 9 -19 1 -54 -23 30 30 30 0 31 -32 28 -6 -30 10 6 0 -5 2 53 16 -47 -17 -8 -17 19 3 16 7 -9 -12 -20 25 -20 2 12 38 -14 32 21 28 59 26 -21 -20 48 -4 64 40
60 27 19 34 18 38 -64 -6 20 -16 26 0 -68 30 -52 14 17 -73 30 -15 -41 -73 -17 -38 29 -13 -41 27 -41 74 -12 27 23 51 -24 72 11 -34 -14 11 21 -9 60 -10 14 -44 48 50 6 44 52 14 29 15 -37 25 2 44 -4 -1 -35 -41 -4 -33
-33 6 34 -63 7 -6 13 -9 17 -40 -19 -7 -7 -2 6 32 15 13 -13 -12 -8 -11 14 -14 1 44 -12 40 -39 11 -51 -46 -5 -42 -5 -10 27 16 5 16 -4 -14 -20 31 22 3 -16 -6 -17 33 -6 -10 -13 -36 -2 -32 21 -12 5 40 50 -7 -14 55
90 11 -1 43 22 -13 27 -22 -1 98 -17 17 -62 40 -33 -54 2 -33 -6 -31 -64 -18 -46 -18 -34 -16 -9 -13 -28 1 -52 46 -9 0 -4 35 16 -45 -47 -12 0 -30 28 6 -11 -7 18 3 -11 46 33 -13 -41 -15 5 -50 -5 -23 -82 54 -36 -28 -49 -11
20 -22 36 -17 11 32 -1 27 -71 45 54 17 -4 -12 4 -27 10 33 -55 -18 16 -19 -20 21 -23 -8 15 -23 38 9 -50 38 7 12 -27 4 -11 44 -11 6 14 3 -12 6 -28 21 33 14 -17 -41 39 1 58 34 -12 39 -25 -23 18 -39 48 -13 -10 54
20 -39 35 -20 -39 46 -2 19 26 60 21 -1 -38 -2 -38 6 22 23 -33 10 -9 -62 3 22 2 18 -28 -12 -8 34 -17 -27 33 5 -59 28 39 24 20 21 30 23 -1 20 -12 -29 24 30 -12 -58 19 0 24 19 -7 -6 12 27 -2 38 -19 14 15 15
17 -14 20 5 13 33 9 35 12 -12 40 -24 -24 -28 -20 23 -7 5 -11 -59 29 -81 -31 11 -49 -11 22 -9 -76 -25 41 -40 -16 -3 5 62 17 47 22 8 18 2 39 2 52 -6 -20 -9 -7 8 -17 -5 28 32 47 50 -21 6 11 -3 -26 26 -32 -5
-18 -51 6 -15 9 15 24 38 3 -44 -6 -30 7 2 -53 28 -14 -7 12 23 9 15 6 23 -8 -46 19 64 -16 52 -3 -20 -12 -19 41 27 -6 -46 4 3 -30 18 35 10 26 8 9 28 14 55 -33 -17 63 -19 -35 -5 -46 -26 56 52 9 30 54 51
-1 21 31 -32 -3 0 -43 35 48 15 -40 -10 -38 -18 0 11 -3 -16 -18 -4 22 31 -7 1 -11 -49 26 -48 -1 -20 33 10 -20 9 23 -11 19 39 27 8 -10 -27 -14 34 21 -19 -10 -4 -31 -32 42 52 -50 42 70 2 27 -22 -31 -6 3 -23 -32 13
6 -13 15 -6 -1 14 44 11 -63 -38 8 15 45 5 15 -47 7 -26 50 28 30 -9 -4 35 11 46 -24 14 -17 41 24 -59 -16 -46 55 -34 -32 17 45 -5 -47 -12 -21 17 18 8 13 -45 -8 68 -52 -13 -24 40 13 -57 -26 -4 1 47 -45 39 -5 -37
66 -42 18 -24 16 43 20 12 30 -13 8 22 -9 -25 5 -1 6 25 -30 8 83 -1 -16 40 -30 -7 -6 -7 6 -36 -10 -35 3 -9 31 47 -21 -14 34 -16 -15 -9 67 -35 29 -46 26 33 -10 -25 -5 24 -35 -7 -19 -36 51 -1 3 -4 16 -26 -2 -21
-23 15 -32 14 -22 -36 16 3 28 16 -13 -10 -22 -17 -30 -39 16 30 8 -5 18 -5 -16 12 -45 -10 24 -19 26 -50 -25 35 29 15 10 35 -6 9 -7 21 -5 -6 17 -6 -11 18 -26 16 55 -44 38 -46 18 27 -24 22 -26 19 38 -19 -19 4 -18 -33
-5 26 -14 36 -6 6 -38 -14 16 62 -21 29 -32 -9 -14 14 -7 30 56 27 14 -79 -21 -56 -26 -11 43 -68 43 -22 -6 -24 11 20 19 12 56 -13 12 21 34 -32 11 28 -51 -16 -38 52 -36 -6 2 2 -20 26 23 -16 56 -5 80 37 8 12 73 20
0 -21 -27 -7 -17 0 16 0 -41 -24 22 -6 -28 -57 -13 -24 11 24 -16 -4 -75 -34 -36 -24 4 -19 13 -10 15 -30 20 30 18 -22 1 -12 19 44 -2 98 -18 -47 13 99 -35 5 3 -52 32 -6 3 7 -50 9 -28 11 26 24 -20 26 -56 -33 18 -36
40 -27 -34 -50 -31 22 29 7 -4 -23 -31 12 -43 -38 -10 2 -8 24 12 8 -31 -86 76 -27 24 -67 -2 10 59 70 19 -34 -19 -57 42 4 21 1 42 42 -6 -55 -22 15 16 13 -12 27 -42 32 24 -45 -31 -12 18 -9 -48 -11 32 29 62 25 -12 49
38 15 61 -29 -44 76 -14 30 53 22 30 42 -22 -75 40 15 73 55 -92 5 85 67 -71 13 -29 20 18 84 -13 -14 -72 -7 90 40 30 75 56 -11 -75 12 51 -65 42 76 -21 -52 29 10 48 -60 51 24 11 42 -37 -28 48 26 11 38 -31 -1 3 2
24 -14 12 -22 -39 10 37 40 18 -30 10 -25 20 -36 27 -4 17 -61 19 -7 -90 25 15 -33 17 29 -19 30 7 76 -72 53 -8 -10 13 -20 -9 -16 -6 -17 -43 -26 -52 23 -25 11 12 17 23 29 37 -21 46 15 25 16 -6 15 -48 -45 29 7 -38 -9
-2 -6 33 18 44 38 26 19 33 21 22 -30 -24 3 -21 7 -25 19 13 81 62 60 -9 -5 19 28 31 -53 87 -42 37 40 -14 -2 -27 -23 -5 32 23 -58 -24 47 -14 -57 0 3 -29 -45 25 33 20 -20 44 -19 -27 -10 -17 12 43 -8 21 -5 -13 -12
25 11 30 10 -6 13 18 46 24 60 38 22 42 -7 17 -82 -15 -40 57 -13 4 32 3 -9 56 -1 40 -48 80 9 6 32 -8 31 -39 12 -21 35 -18 -37 -13 38 -15 -10 -13 -20 -13 -9 -21 -9 4 29 -58 29 44 -14 -1 36 21 -51 31 -42 -16 7
36 4 20 -20 33 30 34 22 10 -4 70 26 -22 -21 10 14 -28 -7 -6 17 -42 -23 28 -1 5 -32 -41 8 -7 6 -20 -13 13 14 -13 60 39 3 1 4 31 -2 2 8 36 14 -24 21 -22 7 -39 20 -18 32 45 48 57 -11 27 14 -18 -25 38 -5
-40 -9 0 -15 -16 -3 -27 2 16 14 -45 -52 0 1 -32 52 -29 -36 10 22 -24 65 -1 29 -7 -39 76 47 51 -4 -4 23 45 15 -11 -3 -30 -23 28 25 -3 -35 1 -47 -20 -5 35 -34 38 9 12 -10 17 -11 4 -22 -3 11 -28 43 -64 -11 -43 -48
-26 -10 58 -90 31 -8 -8 18 21 -7 32 -37 20 0 -1 36 -15 -9 23 10 7 19 0 25 22 -1 -30 -25 31 43 34 2 -9 26 -20 -11 23 1 -18 25 37 -7 -22 6 -39 4 37 -4 -25 -6 9 72 -61 44 60 -14 50 23 9 1 32 41 -6 -11
30 72 -38 41 28 -54 -25 -61 -20 7 -41 1 17 24 22 -32 25 31 -4 12 26 -23 21 9 9 -37 -37 5 -7 -21 -21 11 -2 -46 8 -12 7 -32 51 44 -26 -35 10 24 -9 24 2 27 -41 -6 -6 -7 18 -11 0 -14 5 11 24 -9 -27 18 -17 -24
5 45 -17 54 -43 -5 -3 -59 -33 12 -24 25 51 47 -39 -4 -29 42 -10 -40 34 -34 20 -27 -29 -24 5 -55 -38 -23 -14 0 38 49 -69 -42 -18 9 52 -38 2 34 -9 -22 -21 -19 47 25 -51 27 -58 -19 -27 9 23 71 -41 -35 8 -53 82 -41 4 76
39 26 32 -27 35 -4 5 36 11 54 -33 30 -27 -32 -13 -20 39 -3 15 32 -53 27 5 34 80 42 43 29 14 54 -7 6 -33 -5 -6 -25 -10 -30 42 27 9 -5 -26 12 3 -49 24 -10 -36 86 5 -17 14 42 48 -55 -21 -25 -63 3 -2 -8 -6 22
-39 -64 -17 -40 -45 7 6 -30 30 -10 -57 -51 -23 13 -32 32 6 -14 -4 -11 -31 50 -33 -12 -7 13 -30 -1 -5 41 -2 35 9 -21 -10 -37 -16 18 6 27 -18 -8 -19 -3 -41 7 43 -29 -58 -21 -3 48 -56 31 36 -50 39 -17 11 -26 80 -36 17 43
22 43 -18 64 -13 -16 -3 -17 -39 16 -4 14 30 54 -1 -58 -1 35 4 -11 18 26 7 36 -33 -8 12 -9 11 10 -42 -4 5 73 -49 -27 -76 -26 -35 17 -31 19 -32 23 -8 11 69 -47 96 -3 58 -52 70 -42 -42 32 -32 -30 -12 -15 -15 -15 -10 16
34 -21 50 -9 13 33 -20 89 -20 70 113 6 -25 -33 30 -102 41 3 10 -30 -29 -40 12 25 10 -16 19 4 4 43 12 -70 -26 37 5 -74 10 43 -7 -14 -28 42 -88 -12 -36 -5 -13 8 -19 80 -12 21 55 30 -57 -10 -24 -8 30 32 -26 40 75 49
32 7 0 -24 8 13 33 26 14 -21 -1 7 15 -28 31 4 -20 -13 24 -29 -26 9 -15 -28 43 17 -3 27 5 -39 14 0 -95 40 46 -70 -18 15 59 -79 -15 27 -42 -39 26 17 -14 -7 -13 -19 17 24 5 9 54 19 -17 -17 49 -43 53 -14 58 80
-1 58 -24 -5 -25 4 40 -23 -14 -38 -34 -8 40 -42 37 -20 7 5 -29 5 19 41 0 16 7 23 6 -33 42 -6 -21 15 -1 -10 16 2 2 31 57 -10 32 10 -16 13 18 -4 5 14 -37 18 -26 -13 -12 8 -12 12 27 4 64 13 37 24 18 14
34 12 3 3 -6 -9 -46 -33 1 -32 1 -15 -17 34 8 67 -59 -54 -7 22 -38 32 7 -36 -22 12 17 -31 32 9 21 64 -11 17 0 -18 -32 -18 9 12 19 -64 62 2 -9 1 17 -11 2 35 -47 -14 -43 23 -41 -43 39 -5 8 61 -41 9 26 -44
-5 -17 32 -9 -57 57 -35 22 63 26 -76 71 -60 -28 -60 20 10 -8 -28 18 0 53 -20 -4 64 36 23 -11 46 -4 -24 6 1 22 20 -16 31 -6 -9 -47 2 -6 -7 -15 28 -46 -8 0 -4 -17 -35 34 -26 -16 27 -8 -9 -2 24 35 35 -1 10 13
-16 -48 -17 -37 14 -16 34 -19 12 -34 18 -23 52 8 50 22 -24 -11 31 -39 -48 27 -9 -69 -23 -65 -15 -60 27 41 45 85 40 -17 -43 15 -42 0 18 28 17 17 48 3 48 23 -10 37 -12 29 -3 31 -22 71 23 -15 19 27 -19 6 -36 30 -11 -28
22 -9 38 8 10 2 -52 45 30 -21 -19 -34 -20 -12 -6 49 -19 -30 3 30 -41 18 28 -68 -50 -9 5 -15 9 20 -28 71 -5 -78 81 -15 45 1 -15 19 -96 -29 -42 59 7 25 -73 17 5 -30 56 -32 60 -70 25 57 -54 -49 -58 -80 31 -43 -62 -12
-4 -19 -11 -10 -11 -1 12 -7 -5 -24 -15 -6 -11 -38 13 -10 24 -16 -7 19 -59 17 2 22 2 -7 20 14 13 18 14 0 9 -6 11 -51 41 57 18 49 -28 28 -20 43 -17 1 9 -54 84 -43 24 -3 -31 -39 -22 29 -29 14 -34 -5 -86 31 -83 -93
-36 43 -16 61 52 -43 -16 2 20 37 -17 13 -17 59 -5 -30 16 -10 -59 18 -23 -4 30 -41 -19 -3 3 57 -58 23 -40 10 6 37 0 41 -24 -44 -37 -13 46 -2 11 -45 -11 -41 55 38 -4 24 -7 27 27 -7 -37 25 11 -9 65 22 -6 26 40 30
2 13 10 20 -42 -24 41 39 -4 -21 23 -31 17 5 29 -44 -42 -51 0 -20 -69 58 -32 -8 15 -20 38 9 52 49 11 65 -17 -8 -34 -12 -11 19 -23 -7 -35 29 -12 13 2 -14 -37 37 27 73 22 -34 36 4 -33 -29 -53 -12 -21 61 -32 -39 5 16
-10 8 16 21 5 8 5 -56 -12 -17 -1 -49 39 46 4 14 -40 -34 9 16 25 -26 38 12 42 54 -53 38 -52 -18 43 -66 23 37 -36 -27 -20 -22 -1 -31 -36 -10 18 -24 -24 -5 7 8 32 -1 1 -42 27 -24 -60 -9 -47 41 -47 6 -52 10 -77 -39
-26 -81 -31 -31 -67 59 57 24 19 -19 -23 -26 -6 -37 -3 -18 18 52 -36 -23 35 39 17 71 4 75 -43 28 -48 -16 -7 -31 5 -21 21 -4 11 6 19 20 -24 -47 -27 3 -35 55 -13 9 -39 -16 -10 -1 40 -67 6 26 -11 -80 13 -17 69 -51 -19 69
12 10 2 -34 -6 -18 78 34 -47 -46 1 -33 -19 -17 29 -24 40 41 -51 -11 29 46 -6 52 -38 26 28 39 -22 11 6 -24 36 27 0 -44 -39 -16 -18 18 -13 29 -39 -23 -16 45 -3 -58 21 -21 -14 -28 5 -26 -42 -6 12 -26 6 24 0 1 -19 33
-53 -29 -55 -22 -38 -57 17 -34 -20 -23 -70 -5 -3 -42 21 7 -35 5 56 -22 -66 -22 33 -35 40 -22 -52 -29 21 27 -5 10 -22 -45 35 -40 -33 4 57 11 -62 -3 -46 -6 -45 35 20 -49 -33 -54 -40 51 -80 46 89 -38 16 -16 -77 -62 38 23 -17 25
52 23 1 62 59 15 -43 -70 -23 62 -5 -13 8 56 -40 15 -44 -5 24 -42 -74 -96 -7 -41 13 -76 -30 -36 20 14 49 3 -50 32 14 18 24 6 9 -35 35 50 2 -35 -4 -8 -31 36 16 -3 -31 23 -28 3 43 34 16 34 15 14 -41 45 -2 -16
28 51 27 46 -13 -21 -28 -1 18 10 54 8 9 46 -1 -20 11 -8 4 -39 -13 -9 -6 -4 -8 -13 11 -28 14 -45 -8 22 -12 -15 16 37 83 56 -3 12 30 -30 31 52 -20 -33 20 21 26 -45 5 -8 2 -4 -8 62 -16 -17 -35 -58 -7 -12 -31 -2