42 0 6 -43 -21 27 -102 -29 -32 30 -11 -10 3 -10 -9 -54 -34 47 29 1 4 -4 2 46 11 -49 -82 65 1 38 4 -32 -58 36 34 -27 41 68 10 -16 -30 -19 -10 4 3 35 11 52 9 -52 66 -24 -3 -20 36 -26 13 -54 18 -22 19 -30 -7 -24
4 -14 43 -5 5 -1 -23 28 -10 -3 40 -39 15 70 0 27 -26 39 18 -27 -5 6 -5 26 12 -70 33 -24 9 -34 -9 -24 -11 61 15 13 -16 -23 10 43 65 -29 4 -41 59 9 23 -41 56 -29 10 29 -4 33 -29 -12 -81 -11 16 -6 3 -33 -5 11
36 26 -58 5 -64 0 -49 6 0 -18 -37 35 13 -28 3 -21 -12 30 -6 30 23 6 42 7 -6 21 -21 53 -21 67 -1 -14 -74 47 -3 49 24 55 35 -61 19 30 -31 -7 11 3 66 62 44 -10 63 -58 2 -38 -16 29 -33 -10 -4 27 3 24 -15 -23
66 -25 -56 62 51 -16 -47 27 -61 26 -52 -45 -31 -22 65 -20 46 46 2 -37 33 -10 3 21 41 -13 -48 50 -32 7 -31 -3 14 -25 -1 19 -20 75 47 37 -86 -14 2 -7 1 -8 69 38 30 -52 3 -14 -19 -52 -19 -27 64 7 55 26 69 51 -38 -37
-21 47 43 -5 -39 -1 15 -4 90 5 -54 68 15 11 -35 22 1 12 21 48 -60 -26 49 -29 30 79 -11 16 3 1 26 8 -5 4 54 6 20 -20 -16 -86 11 41 -18 -2 -3 -14 28 2 -23 29 -17 31 28 -25 31 4 24 -4 -25 -25 -27 -20 -25 29
-35 -12 -4 19 43 -2 16 90 38 42 26 14 -38 2 -10 3 -5 -39 -11 -17 -41 -23 -54 -15 3 22 -20 -1 -26 -44 -4 45 25 -23 43 -19 -2 -49 76 15 10 8 20 -58 -9 19 1 -29 -6 34 18 54 -49 34 5 13 -12 -16 11 6 -35 13 53 -39
8 -54 18 -36 20 55 66 56 55 8 27 -49 3 18 0 -17 50 -23 37 11 -73 25 -3 -20 -12 23 42 -34 35 -73 18 73 -22 20 27 -15 -11 -7 -15 1 -18 -19 -19 -66 -82 0 -29 -1 -40 22 -44 16 -14 -45 -6 32 18 9 1 30 -52 -24 27 18
18 -24 13 -10 2 -44 -21 20 -35 51 -21 -57 -29 30 27 17 48 -25 -18 -2 6 -7 -38 15 5 60 -1 -36 33 -22 -24 -78 -18 37 27 -26 -59 11 47 -31 3 1 43 -2 -50 15 -27 -27 42 6 44 -48 8 -32 7 42 -1 7 -2 28 16 43 -35 -1
39 36 -2 -22 -42 73 -26 1 29 19 49 54 29 -25 60 -10 -7 61 20 3 -45 19 -71 58 -6 -55 32 25 -13 15 47 25 25 -54 16 -18 36 11 91 15 39 -58 3 -14 10 -52 36 16 -19 -38 4 4 -84 -33 -36 -8 26 -4 -8 11 8 -24 -24 -29
-41 -49 -24 40 14 6 24 35 -17 -48 -13 -48 -22 -24 -30 -12 -47 -8 7 -29 29 -3 31 17 20 2 -25 -10 -7 44 24 -26 -22 84 -21 49 -16 8 48 23 -12 -24 -39 27 22 28 19 -6 46 -12 29 -64 -38 -8 9 -5 -32 -32 40 -7 10 -21 4 -21
63 -27 -62 -26 30 16 -12 48 8 34 65 -78 0 28 51 27 -5 18 28 -35 6 33 -46 -5 -32 -74 59 -12 -94 4 -37 -2 -1 -55 0 -73 -7 36 33 -9 -85 -32 -38 10 33 35 20 15 13 33 -35 5 -10 -44 -38 13 46 29 61 -6 26 44 -21 -23
43 -30 -18 43 -27 -62 37 26 11 34 -24 -35 2 -4 -20 -35 21 24 44 50 25 -75 33 9 27 1 11 55 3 -37 7 26 4 -56 16 -20 -40 47 31 2 5 18 -8 -51 -69 8 3 32 22 65 -6 23 -7 -34 -6 13 40 7 38 14 -26 34 10 -25
-14 -4 52 10 -13 -25 -43 36 34 21 -50 0 32 -33 -14 -22 -29 7 5 3 10 36 37 1 39 29 -18 12 8 27 37 -34 -36 79 33 57 50 -3 9 -11 21 0 -51 -22 46 -41 25 8 15 4 76 -17 12 40 -13 1 -2 -15 -21 -102 -6 -15 5 -22
45 37 24 6 -79 49 -23 8 -56 1 -10 59 1 27 15 -15 35 19 111 -14 -10 -16 24 29 32 17 15 -5 2 -34 -50 -14 -19 53 49 61 -26 3 37 -12 -14 27 -11 -57 11 -39 90 23 -34 -1 25 20 -47 31 21 -34 18 -3 -45 -38 -40 -43 45 40
-21 3 57 -41 47 -20 1 26 22 51 29 -17 33 41 -27 -21 -18 -35 25 19 -69 4 74 3 3 0 -3 27 35 -16 18 25 1 38 1 59 -20 -39 -1 -29 40 -27 -33 0 -31 5 -1 -20 -27 35 -21 -27 45 16 -44 -28 9 49 10 4 -82 -54 32 46
28 -54 -14 5 -11 -17 6 84 -8 9 1 3 10 -15 30 3 6 51 15 47 -23 -83 0 0 23 23 1 34 5 29 -32 -9 -9 10 47 14 13 -11 127 8 -19 -20 -9 -52 -22 63 -8 -50 70 43 -31 5 -42 -35 26 -17 -3 -56 2 45 8 65 11 13
-77 34 28 -40 -6 -3 -29 16 -36 67 -52 -21 17 -20 -9 -14 22 18 -34 11 13 -15 32 23 9 23 -21 4 47 -18 21 -49 1 -41 -10 -37 -3 -31 -51 42 -39 45 -38 -55 -51 33 -1 -51 -69 -4 25 16 8 29 -12 1 -19 -6 -49 0 7 25 -7 46
4 19 -11 -24 -19 48 58 -32 37 38 47 -12 53 -24 -42 -58 4 -11 -5 -13 -26 -11 54 -45 -39 -19 58 37 -37 13 16 -31 -25 -7 19 -32 41 50 1 -35 8 40 0 -14 46 -38 46 21 -16 13 -13 -3 37 -26 23 -56 30 -40 86 -6 -22 -10 -8 5
33 -68 25 -17 20 23 -2 -30 -6 84 3 -45 -43 21 -37 -44 2 -6 12 2 -33 32 33 33 -1 -41 16 -19 32 -31 30 -19 -15 -49 -39 -6 -7 3 -13 -89 42 -38 4 16 -58 -9 -13 7 -14 17 3 51 -79 -33 15 20 37 -25 -32 -7 55 -2 -47 59
-6 -5 -39 42 31 -13 -26 -28 46 -16 -14 5 20 -59 50 -22 10 30 -38 3 -9 -39 38 -16 23 37 -38 27 74 35 -17 -30 21 2 45 -30 -61 62 43 -16 -52 19 -65 29 -9 -57 25 31 -25 -19 -4 21 4 56 2 28 -16 -45 -37 22 -7 37 14 -12
0 -60 15 38 -29 2 96 -20 38 -70 48 -55 69 4 15 -20 21 41 15 -51 11 93 21 -41 2 -39 61 -19 5 -49 -3 23 64 19 22 7 23 24 -52 18 13 -32 -18 -42 -33 -22 -34 24 17 -52 -38 7 3 8 44 11 -3 -39 -16 -39 -33 27 -1 10
-7 -31 7 -16 -13 35 -8 15 31 -2 -15 83 -35 -63 40 -5 -22 -34 17 63 19 -45 -9 5 41 13 -44 -31 31 -44 -18 -13 -9 -3 43 -41 -15 3 60 -15 -18 30 -7 15 15 3 -2 -41 -10 53 -9 31 -19 -1 40 -9 -44 -51 -24 -26 -31 -36 -7 19
-19 -26 6 61 14 11 8 -18 71 49 56 79 -10 -99 8 12 25 -75 19 20 1 -43 -58 -23 -35 99 -24 66 2 -14 20 47 4 -33 122 -17 -28 -80 -39 -34 3 35 -40 17 28 -62 -20 -64 -6 -2 12 50 45 37 -6 -31 52 -32 -43 36 6 2 46 14
65 4 -37 43 -17 60 -31 18 50 64 56 8 -21 -47 -29 -15 -27 18 -18 -7 -28 -34 -28 -40 -8 -55 41 55 -54 -15 -45 20 7 -72 29 -68 -29 39 36 36 -74 -10 -29 -25 -5 -7 17 -22 -16 -5 0 71 -75 26 18 -13 39 -63 1 46 34 40 14 -9
8 -49 22 102 18 13 -44 -18 14 -26 21 -15 22 -3 20 5 -46 7 18 -10 13 -31 3 40 60 -11 -13 -13 41 -19 14 53 18 6 -29 -23 23 -32 -11 42 24 -48 -8 -15 31 45 -46 -79 -8 48 -11 -18 47 10 -2 -38 -51 -16 30 11 -29 -18 -37 -60
25 -16 -23 -15 -52 -50 24 -3 27 -73 -58 27 -46 25 44 11 25 38 30 41 -28 4 -44 2 -14 -25 -28 -57 64 -8 -22 19 -10 51 -30 -39 22 -2 48 11 11 9 76 -25 -24 33 -3 -34 78 5 4 -37 -45 -33 -10 22 30 -17 9 17 -53 -2 -50 -13
-44 26 4 -62 -61 9 12 24 -19 -9 21 1 43 -3 -33 -42 -45 52 40 -8 -8 47 21 28 -5 -47 11 91 -27 3 -24 2 12 37 7 -1 -20 -9 27 -60 50 3 -27 5 -13 -5 63 3 -9 8 -9 -13 -16 -1 -41 -14 44 13 22 15 -3 19 -17 55
-72 -7 -3 61 36 -12 -58 64 31 45 39 -2 -19 -7 15 12 -62 1 -16 -4 -12 -57 79 -8 -29 -3 -29 -13 48 6 1 30 15 111 -44 55 -1 -23 18 65 20 -17 11 -75 10 42 9 -16 6 34 -3 -3 53 -30 29 -17 -9 -20 41 -7 -11 28 -20 24
24 -38 13 -22 12 65 1 87 -2 23 109 -59 -53 -38 -67 -34 4 15 21 -26 13 -7 -4 -23 -7 -85 41 21 -55 -30 -28 53 8 -36 1 -47 -8 73 -15 2 -40 -47 0 -37 36 17 19 -52 39 26 30 21 -53 10 -42 -62 20 6 -15 26 46 65 -18 14
53 39 16 -73 15 64 17 72 29 27 -24 11 -15 -52 -8 -40 18 34 -33 -17 -28 -5 -16 8 93 -12 -50 11 12 13 14 40 -7 -13 29 -13 55 22 40 -8 -30 -7 -23 -30 -17 5 -59 -14 68 18 -17 -93 -39 -9 58 28 -4 -31 1 29 -55 29 9 32
26 -51 -57 17 -57 78 -32 22 76 -9 30 6 -35 -30 28 20 3 52 -2 46 10 -70 -32 1 -21 -1 -8 -10 1 -43 -5 35 12 -36 -16 1 5 -35 67 3 -21 -8 -16 -60 -11 -20 40 6 -13 5 -7 -12 -59 -35 36 2 41 -67 -3 48 26 43 -21 -55
3 -24 25 29 -9 -20 27 -45 -9 -9 -58 -3 -2 32 -40 -31 30 -28 -33 4 -20 72 33 -5 -12 31 -41 1 21 20 -11 -4 31 -25 -15 -27 18 14 -90 17 28 8 8 28 -27 -13 -17 64 -35 -20 19 -12 -2 -28 42 -15 15 61 -19 60 25 -2 14 39
-50 -58 20 38 13 1 70 34 4 6 -35 -51 -50 87 -29 -25 -18 -47 36 11 16 11 -12 18 7 -27 63 -53 -102 -36 -15 -65 -29 -14 -15 12 -28 -2 -33 23 17 30 -17 53 64 27 25 -36 60 8 88 85 9 -47 -40 13 -42 9 64 89 124 52 -23 -3
12 -7 18 -47 -13 60 -5 3 39 51 58 -25 -60 -60 -27 -16 -16 -19 36 17 29 14 13 36 10 -28 95 -26 -48 -83 51 28 -55 -59 -2 -17 -22 23 15 23 -75 -66 -54 11 15 26 21 -56 -5 41 0 33 -67 -11 75 -5 47 11 31 -4 46 32 10 -36
31 -6 -22 -28 -19 36 -7 -6 103 -25 71 -22 35 -28 0 70 -51 11 50 -27 27 43 68 1 14 -37 50 -5 -16 -23 49 -10 10 8 -6 -25 50 20 21 3 11 -60 -52 -58 17 -25 -22 5 -10 -14 24 43 -10 7 -50 -13 -1 -62 13 -42 -37 -36 10 -29
-60 -4 -32 4 63 28 -5 -22 27 35 -25 35 20 -9 -37 -12 -7 3 -57 57 31 -57 76 -42 10 61 6 35 51 12 1 -28 -18 -27 -4 18 -22 4 19 47 -66 16 -17 -34 -56 67 -24 14 -50 39 -22 -14 37 -1 0 -14 10 0 20 -1 25 53 29 38
2 -60 -23 -12 2 49 36 5 22 64 18 2 13 -42 3 -10 24 36 -17 30 48 -30 15 -1 26 29 20 11 10 2 -15 44 -45 -3 -35 40 -6 28 47 11 -82 -45 10 -35 -16 13 12 -17 -28 -9 -48 47 -26 16 8 11 -27 -26 31 -28 32 32 -34 -10
-2 3 61 11 -41 6 -9 28 -10 -23 -29 -29 42 2 -21 -51 -14 7 71 -16 -2 1 5 26 -9 -17 5 11 39 11 -44 10 4 48 33 63 -15 -42 1 -14 33 -14 3 -50 24 -37 60 -16 36 -31 13 -14 -50 -8 -20 27 -34 -63 45 2 -20 -36 -28 26
45 -5 12 -15 -39 78 -23 44 30 68 71 20 46 0 -45 -16 -10 -7 37 -1 -35 -24 -16 9 -12 -47 74 33 -22 -24 -29 75 28 7 51 -44 -41 -15 -12 -25 -31 -3 14 -43 26 13 44 -76 -24 33 4 54 -52 52 12 -39 59 -20 -9 32 -13 14 22 23
30 -26 23 20 30 29 -53 20 -1 -44 -58 -43 -24 11 6 -36 24 52 -6 -13 -28 25 -2 2 -35 -1 -28 5 14 -3 -6 23 -4 37 40 -14 -4 8 66 47 -60 -49 -2 -2 -19 -40 16 -16 46 4 -32 -91 -7 -42 -12 36 47 35 -30 34 10 -20 16 42
-12 -13 37 -58 -8 13 -6 14 8 28 -3 83 49 -52 0 -19 -47 -5 28 27 -78 -34 30 1 30 31 -21 -19 30 -44 13 1 -9 -2 22 1 -8 1 34 -66 -28 5 -54 -10 -21 -22 42 8 -78 30 -10 34 -29 5 -29 22 -26 -14 -30 -33 -41 -25 12 23
20 5 26 5 -43 18 -2 35 -32 78 -18 -3 -2 -6 -32 -28 -4 -18 75 58 -30 38 -9 4 32 5 55 50 44 -57 39 3 -75 30 7 -18 16 4 -24 -29 5 27 -36 -7 -19 11 -13 -31 -16 30 46 1 9 41 86 -6 -18 5 -11 -11 -42 -60 -9 26
7 14 43 -18 -31 -43 25 58 41 106 -42 -87 -27 62 -13 21 20 11 30 -13 -43 -59 14 25 59 20 9 -23 6 5 38 -13 17 -11 -56 -24 1 -23 -4 76 -4 10 -18 -38 -21 -14 -10 -57 -44 84 -14 -76 31 -8 -20 -45 -26 55 53 16 16 -29 -23 -21
-44 6 59 -34 -56 16 62 58 29 -8 8 -30 -20 -5 -49 -49 -41 -66 -17 26 -37 15 32 -15 -6 -8 -3 -37 -12 -16 59 18 -22 12 -3 15 -14 30 -3 -11 -8 -6 -43 5 50 30 -78 -15 -40 -37 10 -11 -25 22 -5 29 30 -4 14 -7 11 -34 27 -6
37 15 60 -16 3 -4 8 42 -67 -22 69 -43 13 9 -42 20 -34 -6 -3 -3 -1 -26 35 -27 -6 -44 31 47 1 7 -17 -5 10 17 28 63 -25 -43 -11 29 30 -6 29 27 58 19 -47 -59 -39 1 -3 -49 11 -17 11 -27 18 10 -28 -3 -88 -94 57 45
-45 21 40 -91 -51 55 -2 -21 6 74 18 -49 -2 -12 -81 -5 25 23 71 40 -32 33 46 1 -43 -11 82 34 -17 -28 36 2 -9 -46 34 -16 13 28 35 -15 -3 43 -73 -10 -12 45 20 -4 -64 -24 55 -43 -63 14 25 19 43 17 -43 -39 -15 -8 -12 39
32 -37 -30 -2 33 37 20 8 1 37 38 63 -22 -8 -9 -30 65 1 -15 24 -27 -39 -21 -15 16 17 -62 -12 36 13 -23 46 17 -21 18 -47 21 37 16 -10 -63 -44 0 -9 -42 0 69 1 16 37 -66 1 7 -36 3 -7 -24 -12 -43 27 33 65 -27 -74
6 2 -11 -33 -7 55 -7 6 25 25 22 87 -27 -40 30 15 47 -21 13 1 -25 10 -24 15 38 -38 -48 68 -19 -1 4 -56 20 24 65 -45 -13 -42 19 -40 16 -5 43 15 -63 -66 -11 6 8 -37 -7 -8 25 12 -1 -13 39 0 -68 3 -27 13 29 -19
13 22 -37 -57 14 16 36 10 41 15 15 -23 54 89 -24 14 -47 10 60 45 -41 -12 -52 21 13 8 120 -47 -70 -34 -18 -6 -25 11 -14 12 -18 41 11 20 -29 9 -41 -24 35 53 50 1 24 10 -5 -37 -56 -90 15 35 -6 13 48 26 71 40 -60 -25
-57 58 26 -46 21 -7 -22 -3 21 -21 -73 36 -8 -18 -4 22 0 2 -26 64 -61 24 -32 -23 44 87 -17 35 50 24 -1 4 -16 -6 -37 28 18 -27 15 -59 46 71 42 -30 -22 -24 20 -44 -1 53 0 -16 -4 29 -16 14 -50 15 -5 -51 23 -21 -5 28
-17 -5 30 -66 -36 42 37 59 37 -37 -52 -46 16 70 -61 22 -56 7 -6 -7 20 -56 13 31 -22 -8 18 -28 0 -40 -15 39 20 -3 -22 8 22 1 13 20 -10 32 -66 -10 -14 10 -16 41 -3 -37 -1 -36 -26 40 10 10 -4 -41 5 -3 -52 20 16 42
46 27 -18 12 -16 32 -26 83 -11 -47 -28 -48 16 37 -12 3 -39 49 83 10 -7 -24 7 38 50 -8 41 -34 -18 -49 -26 30 -64 11 20 -3 -42 26 46 26 -53 -14 -27 -121 -2 -11 68 24 -5 -20 -20 -12 -68 -47 16 28 6 -13 16 -3 24 47 -15 -16
9 34 -49 36 -36 49 -1 -14 51 -2 -27 26 -1 2 -21 -40 -29 42 -26 -20 -44 -59 -42 2 -21 -2 -10 29 -37 13 -11 -8 30 -56 -8 -100 -21 28 6 -19 -48 -12 35 -39 21 44 38 62 61 26 -40 -5 -37 -44 -11 1 24 7 37 108 -7 9 -9 -33
20 4 -9 46 -21 -2 15 94 -47 48 22 -13 -32 -2 -19 -8 -2 -15 48 24 -9 -51 23 -4 18 -6 60 30 -55 3 -2 -5 -24 -18 15 -33 -49 24 -2 63 -10 -15 16 -46 25 10 74 -15 10 -27 2 -33 -38 17 10 -38 -35 20 8 -10 47 31 -44 3
20 -20 -58 -14 -6 35 -1 -44 -16 -11 -49 21 12 17 46 -1 59 37 5 4 3 -32 15 1 30 10 -55 -63 -3 -2 19 -47 55 30 23 -35 0 -19 16 11 13 -2 4 4 -61 -54 -4 -51 6 0 -69 -57 13 -6 41 28 -8 -9 0 38 -4 45 -10 -22
-20 2 38 -16 63 -25 -34 48 -6 19 20 0 16 -30 -55 14 5 -33 3 32 -10 0 44 59 -35 32 -40 30 9 27 -8 4 -6 12 4 33 -22 -36 5 -36 27 -21 10 19 -8 1 53 10 19 -19 56 8 21 14 -76 -16 -29 13 26 -43 7 -23 -21 22
-71 -5 49 8 18 -32 -31 16 -20 -28 46 -11 22 53 -24 -67 -4 37 -16 -28 30 -7 10 31 8 7 -50 -14 33 47 7 -17 26 67 8 92 -15 -12 -40 -11 36 74 0 -10 -16 -18 -9 17 8 -19 37 -29 -29 -44 -43 14 1 -33 50 -32 -12 -12 -13 53
-34 30 -8 -30 -45 -8 16 -11 21 -20 -19 67 -14 1 34 -35 -28 13 -14 47 -9 -48 -24 -18 3 -34 -94 31 44 26 28 -31 -11 55 33 2 -25 -47 41 26 41 17 62 1 -15 -39 -32 -34 12 48 9 20 57 -41 40 15 -12 -16 -15 50 -3 27 -24 -20
20 8 -49 33 15 45 9 55 -12 39 70 -12 -79 24 31 5 34 34 20 -5 24 -18 55 -3 -22 -39 40 17 -10 -34 39 19 -35 6 -75 -19 -10 -42 36 50 19 17 1 -34 67 -11 45 -20 -81 107 0 32 -22 -54 -35 10 32 36 -3 83 40 29 -27 -59
21 -31 31 60 -33 -42 30 31 39 5 50 -89 7 14 4 63 -22 18 24 -20 -48 11 -9 3 -5 -32 86 -69 -4 -17 -28 54 -12 11 -8 -35 -38 11 43 33 -2 -96 7 -14 38 93 -1 -20 32 39 -49 22 -8 -30 -10 -17 -3 -42 41 5 -19 -6 -7 -21
-19 -3 72 -2 12 -31 -11 32 -20 -11 -40 -44 4 30 -17 -16 -21 -22 17 15 -29 22 60 52 -28 79 7 8 6 -26 14 -11 28 32 0 62 -10 -83 -12 -76 61 -2 -33 -25 13 18 6 14 5 12 56 -44 25 5 -52 -21 17 60 -2 -53 11 -40 30 25
-17 13 -66 11 -36 14 -39 -3 25 -53 7 40 -7 -45 19 -12 7 24 -31 30 -1 -8 -12 -48 -3 20 -27 -12 -7 -31 4 12 -13 -15 10 -30 2 -55 67 -39 -42 8 17 -69 41 56 5 49 35 -23 -10 18 -64 9 -2 11 -55 -18 -39 30 22 -6 2 -20
-31 37 22 -15 -53 8 24 -23 100 70 -73 34 42 -9 -14 7 -29 -11 -27 -10 -26 14 -1 -23 14 11 -64 17 43 -49 62 1 -2 35 6 -12 25 21 20 -2 -45 21 17 -2 -75 -10 -53 -84 8 70 -43 -13 -4 35 93 30 16 7 22 -24 -33 47 -23 36
-60 -24 19 56 53 -29 -28 33 30 17 19 -41 -47 6 32 -15 -3 -47 -12 -38 -33 -3 7 36 37 99 -14 -62 -1 -5 22 47 7 106 4 72 5 -32 27 27 2 -57 -28 -57 62 71 -84 30 58 12 42 -12 -8 -22 -36 33 -3 -5 38 -58 57 4 -5 -25
-62 -38 20 4 66 9 68 10 19 -14 -11 -24 25 32 -23 -22 20 -7 -14 0 -6 -18 -18 3 -35 38 21 11 -40 7 -20 37 18 -16 14 21 -36 87 12 8 -75 9 44 29 -44 -1 -21 37 31 -44 -31 18 -41 23 57 -4 5 17 45 -24 0 17 61 -7
22 -23 -52 -13 -18 -12 -40 35 -39 -53 0 7 -62 -26 24 -41 -23 6 -34 9 57 -24 12 7 8 -7 -66 63 50 76 -31 -25 28 -6 35 5 -14 37 35 -9 -44 41 55 10 24 2 63 24 53 -71 58 -31 -3 -19 43 2 27 -52 30 2 51 -15 -22 -59
24 8 35 11 -31 46 51 48 -1 14 27 -47 -38 6 -55 31 -12 -10 43 14 -35 4 27 -17 14 -45 54 46 -45 -48 -47 20 1 -1 40 -21 -20 1 -17 22 -29 -1 -5 -73 37 36 -24 -96 -29 44 -5 26 -70 19 39 -43 27 -6 -2 -1 -46 22 9 49
-31 -35 67 35 -17 2 22 -32 -33 -3 40 -65 70 45 -53 17 -34 -35 -47 -9 -42 -2 40 -20 15 -50 -13 -7 9 -28 29 8 -64 0 -24 -44 -16 25 -26 27 51 37 -1 3 39 5 -12 12 2 34 -15 48 50 -53 61 9 -16 -12 10 46 -37 -26 -10 -28
80 9 6 25 -37 57 -19 44 13 22 41 -58 -26 3 -23 16 -10 14 -3 13 6 -20 40 -83 21 -72 28 79 -62 -67 -47 20 13 -31 7 -66 3 77 36 -5 -88 -9 2 -88 10 21 31 -29 -27 29 -28 32 -85 -3 54 6 51 -17 -11 31 40 81 3 -10
-79 -17 9 -10 -29 -8 -3 -14 5 -33 -8 -60 39 10 -17 -48 32 7 -27 -13 69 40 16 37 -27 20 -10 -23 -1 -20 38 -2 -46 83 -30 92 7 30 -16 -33 40 22 -21 -13 -35 4 -30 -3 32 -43 40 -39 49 -5 2 8 -42 7 55 -35 -7 3 38 19
46 5 0 11 -38 64 -37 10 34 12 23 49 22 15 -27 42 20 19 47 9 -63 -64 -3 -36 31 7 55 19 0 -38 2 20 2 -5 70 -18 -23 -28 17 -6 -51 -8 -19 -86 37 -31 68 -53 -51 -24 -55 45 -22 26 44 -5 41 -26 -22 37 -50 -21 43 22
31 -60 -33 25 -38 -26 21 42 4 -7 -34 -42 -74 5 18 -10 -1 -39 22 -21 -32 -65 7 -29 -17 7 3 56 15 26 -4 -6 -32 -67 11 -21 -24 65 27 -64 -22 25 34 -16 -28 14 18 55 7 -11 -19 18 -1 22 58 -26 90 -25 32 63 30 33 42 -48
49 -24 -26 12 -10 -60 -68 -43 -26 -7 6 47 21 -69 -5 -50 -53 -25 17 -48 35 11 82 24 12 25 -60 52 66 36 31 -1 -13 47 59 57 50 19 25 -47 49 0 -56 -6 -29 14 -10 37 10 -37 63 -30 11 -26 6 -49 1 -12 -56 -53 -46 -59 58 4
51 -6 15 18 -9 9 -25 41 56 8 51 21 15 -16 -14 9 -54 -5 -10 -34 -27 -56 56 13 -18 5 17 31 -21 2 -6 36 -49 -31 23 21 -28 -24 81 12 -76 -23 -43 3 23 14 25 -51 -2 -17 60 38 -77 11 53 -2 -23 -48 7 3 -36 5 24 1
34 -10 37 8 42 45 -13 85 9 10 31 -3 -27 18 -5 -54 -46 28 -2 -32 -35 20 40 41 4 3 53 -6 -60 -10 -10 2 -21 2 40 7 -33 30 11 -5 2 -51 -48 -26 49 -20 -44 23 -17 -20 -2 62 -15 -10 9 14 20 -6 2 -15 39 15 -6 -15
5 -40 7 -22 45 -34 11 107 -60 51 -10 -96 -38 5 -31 -31 -39 -14 20 -55 36 -23 -4 51 31 -60 -7 55 -20 0 -11 45 -11 61 -60 17 -34 -4 -52 92 -31 -18 19 53 51 87 -48 -40 38 36 68 -106 -30 0 -33 -9 4 15 12 -21 53 -35 -72 -58
-65 86 -5 -77 -39 25 -7 -2 2 13 -51 -14 41 83 0 55 -4 22 -4 -1 -3 27 4 24 16 -7 27 -26 0 -31 44 -6 -55 74 -41 24 -10 -2 7 -32 49 -19 -22 -30 -8 2 -34 -15 34 5 -20 -51 8 0 4 -23 -10 -9 8 -23 -8 -25 -13 23
-12 56 -45 35 -9 26 17 9 48 9 -7 38 -59 -3 -15 -45 -38 -51 -30 18 -30 -96 45 -34 -5 30 -31 98 -1 9 6 -4 -37 -13 48 12 -13 6 41 -10 -27 52 47 -13 -17 -34 -42 -44 -24 45 24 35 24 -40 4 -38 14 -14 36 6 -37 -32 -6 -53
-38 0 11 -53 1 -30 -18 -17 -18 27 -12 -8 -4 55 -61 -42 6 -19 35 13 -21 6 18 26 -27 20 20 -8 19 17 12 -35 -17 53 -52 69 -36 -53 -14 9 51 42 -2 -3 8 -29 -33 -6 -18 -11 78 17 54 -54 -58 -28 14 13 35 6 -45 -70 -15 53
88 -48 -36 29 -10 35 -23 18 11 11 55 -8 -55 -3 -30 3 -69 -22 48 44 -3 -51 15 -27 13 -51 33 29 -74 -49 62 15 22 -1 -4 -27 -5 33 2 12 -17 -3 -48 9 30 98 7 16 -4 21 -25 11 -13 -53 8 -25 6 7 34 9 -8 65 -36 -17
40 -34 -17 -46 -31 29 -21 35 -6 -35 16 25 39 31 -39 -17 -48 -10 45 44 11 -41 62 2 33 9 16 101 -9 -27 25 10 -10 53 51 3 5 -10 27 -57 -8 25 -26 -5 32 -29 23 38 19 -47 64 4 -36 -68 26 10 27 -40 26 6 6 -47 22 -24
12 -4 -43 39 -53 44 47 43 13 -16 33 0 3 50 -44 7 -26 -17 34 26 -25 -47 5 29 3 21 43 16 -44 -70 27 25 -40 -1 30 -21 -18 47 23 -8 -59 -26 -21 -52 18 47 -2 -32 -36 19 12 57 -63 -12 47 -31 48 -60 -21 -3 -24 -16 38 41
20 46 12 2 -22 30 25 -26 9 10 37 -20 2 -18 -70 -1 -24 12 17 27 -32 -17 27 39 -3 -69 19 -7 32 60 33 12 -30 -26 -24 34 -4 29 -29 -74 58 14 5 -44 61 13 -21 -28 -12 -30 7 -4 -4 -45 -1 -41 41 -6 54 12 0 -37 -25 32
-14 11 44 -87 -22 -30 38 18 25 -48 3 39 9 49 5 40 15 24 55 -13 -39 -47 3 37 36 32 -20 -28 55 -3 9 3 18 24 -6 30 2 -42 26 -47 -6 -8 -26 -65 -16 -8 -44 23 5 -3 -49 -49 22 -11 31 -4 -21 -14 -24 4 -77 -33 8 41
28 -34 -35 -14 -9 33 24 -50 26 38 1 50 52 -23 10 -11 32 -38 -61 11 13 8 -7 -53 -17 18 7 -23 69 10 -18 -10 28 19 11 -75 -18 30 -19 -7 -48 -6 -36 11 -22 -18 -55 48 -31 -36 -13 62 42 -30 65 -46 0 -47 43 30 -49 -35 33 39
-44 2 10 19 -31 -46 47 -34 -1 -66 -40 -42 44 -30 -41 -30 -53 0 -56 -36 16 -21 49 -38 -42 35 0 -38 -23 1 24 38 58 73 21 -36 5 51 -33 27 5 30 -38 -26 -18 54 -73 11 51 37 -12 -31 8 53 93 -20 15 -81 33 -29 -7 -25 3 46
49 23 -74 41 -17 57 -17 21 65 21 9 51 -34 -13 31 -25 -44 -48 -37 34 20 -7 23 28 -25 -29 -25 6 -28 57 -2 -45 -40 41 44 19 19 -37 72 4 -44 -15 -48 -17 12 -44 32 -12 -11 -37 38 -39 -5 35 2 -32 13 -42 -15 31 16 -1 -59 -35
-34 -16 43 -92 -20 31 35 31 -5 34 -5 -5 -37 -18 -11 -57 41 26 58 38 22 32 37 -8 -10 -38 -1 -4 11 -25 -11 -29 -61 6 55 -23 6 14 -24 -90 27 6 -5 -10 54 -39 14 -30 32 -22 47 -27 21 -22 -50 -18 48 4 21 -20 21 15 -16 13
51 -38 -31 -36 22 -4 54 -3 63 47 60 -56 12 13 -31 9 17 25 7 6 -33 -18 -34 9 4 -9 82 27 2 -39 20 71 -27 -49 -14 -63 17 36 45 -13 -89 -9 -14 43 13 40 43 -3 3 45 -70 13 -8 -35 10 4 34 0 60 68 -13 19 -9 13
25 -8 -42 4 -50 14 -81 8 -9 -41 -2 52 -40 -31 30 -1 -27 12 -35 -6 -4 21 8 -3 45 43 -52 15 4 37 19 25 -41 84 83 19 3 -53 76 -9 -43 14 -39 -2 62 -14 54 16 -11 -48 -8 -35 -5 34 23 20 15 -51 4 -9 1 -43 24 -37
7 -1 -6 40 48 -3 55 -9 -30 9 25 0 50 24 -8 -40 -39 -10 -40 -4 -23 -1 -46 -32 -13 -29 -4 6 34 63 -24 0 -31 17 20 -54 -37 3 4 54 19 -22 29 37 -6 28 -15 -43 77 -5 -28 38 39 -65 8 -52 32 -22 50 15 -39 6 -22 -9
6 7 57 5 -9 -24 22 30 16 29 35 -41 -7 42 -30 37 -30 -2 17 -29 0 26 36 -33 49 45 -24 21 6 17 35 71 -23 43 -43 46 4 -1 -32 40 45 -49 61 28 -9 17 -54 -16 -37 48 -30 -48 -16 9 -23 -34 20 47 55 14 -30 -59 24 26
-14 17 43 44 -34 30 3 4 -2 61 9 -33 -5 36 -68 -42 -99 -19 53 3 -83 -46 63 15 10 3 19 34 -4 -7 52 -9 1 -6 18 -26 27 -42 -11 10 10 35 -6 20 -25 26 -53 -24 -20 28 18 1 21 13 63 -45 30 -13 0 -21 -40 -43 23 32
10 20 24 -51 20 42 5 -6 50 69 39 -69 27 21 -17 -31 -1 -66 68 -7 -13 -12 39 1 -32 -53 72 -23 14 -76 76 -24 -69 12 0 26 13 19 -1 -1 -2 -5 -63 -24 38 34 19 -18 -51 9 21 21 20 -18 -24 11 34 3 -4 -39 -25 -52 -28 -1
41 -20 34 46 -44 43 16 38 29 19 22 26 5 -15 -34 -16 -23 44 26 22 -25 -54 27 8 -6 -36 71 41 14 -21 -14 -1 -39 -13 65 -60 -54 -22 48 -3 9 17 15 -46 75 49 9 -39 7 -21 33 26 -55 37 14 -53 41 -78 -11 22 -7 31 -5 36
43 -44 -38 27 20 25 34 39 13 71 33 9 -4 -16 9 -24 -1 10 -8 -49 -41 -33 6 -84 -26 -48 -28 -7 5 27 -20 0 0 19 29 -78 -4 43 0 61 -9 -6 26 -4 -32 93 12 51 22 34 -52 20 26 12 -29 -82 57 2 39 18 3 -7 -22 -4
-12 33 34 7 46 -20 5 92 31 39 -5 32 -61 57 2 -25 3 -53 15 58 -20 -19 -60 13 1 8 -26 -25 -9 -33 35 -15 -42 -14 -2 32 2 1 41 14 -12 -4 4 18 -47 -56 -14 -46 -57 58 19 14 0 5 38 -59 -40 -19 -7 -36 38 -58 13 36
55 -22 9 3 -6 96 -46 121 -28 -3 -3 -71 -24 52 2 5 -5 38 29 -30 45 58 3 22 18 -32 -16 4 -67 9 10 35 -42 26 -11 44 -2 17 22 41 -24 -53 11 -36 -18 -33 -35 14 -2 -37 -7 -54 -53 -15 15 31 9 12 36 12 -2 -34 -38 -12
-59 -45 -28 54 27 2 13 -1 -39 38 -17 4 85 -16 28 18 2 43 57 -24 -12 6 -2 15 -46 7 4 -8 20 -66 -38 8 14 54 35 19 -39 28 33 14 -44 -46 -33 -52 -25 -2 63 -22 -1 2 -35 -22 -6 14 10 45 -16 37 41 28 -19 59 -4 -10
37 -7 -43 51 -25 -21 47 7 21 -51 25 -34 11 -21 -49 -14 -56 -1 2 45 23 -86 31 24 17 0 10 -7 -41 19 7 -15 -19 52 -26 2 -18 24 5 42 -27 33 -61 1 -23 90 -5 17 36 -42 30 -13 -15 0 94 -4 -7 -64 12 -9 57 60 23 -4
74 4 1 -42 -13 -11 39 17 33 -12 -4 45 30 8 -30 -36 32 2 -39 29 -23 4 27 -39 41 64 19 -11 -1 -49 -26 27 -22 18 9 -60 -11 34 31 -47 -3 -66 -55 -19 -39 -10 -30 -23 38 32 6 -23 -26 -30 18 -23 29 -6 4 58 3 2 -38 47
14 -19 -16 -43 -14 45 18 1 7 56 -14 45 28 -38 29 -10 5 -30 -9 39 -26 16 12 -1 52 34 4 -6 -10 -24 13 2 -8 -20 -38 -50 -25 17 -41 20 -58 0 30 -29 -87 -13 3 -40 -68 88 3 37 -31 -19 27 35 8 34 -17 66 -24 16 18 -12
-44 34 2 -34 5 36 47 16 40 -11 -41 -36 -15 20 -37 2 19 28 -9 22 -9 -12 -19 -17 30 22 0 -25 45 -63 -4 -2 -33 9 -56 -43 7 45 14 63 30 20 3 -43 -31 40 -21 -42 -47 69 -20 21 27 -38 13 -7 -27 39 6 -23 44 8 -49 2
-5 27 27 65 32 -10 -3 46 32 28 -18 -16 12 -38 11 -10 29 -11 -17 49 8 -27 1 -25 -3 0 -87 57 28 35 -7 4 14 -11 42 -34 -34 -42 5 -3 1 31 -14 23 -13 -29 20 -21 50 18 53 -7 43 -6 -56 28 -51 -2 11 -31 13 34 39 30
48 -77 -31 -2 -40 46 26 -1 44 -8 16 5 1 -18 50 -4 -1 10 11 17 -2 -36 33 13 26 27 -37 15 -2 22 -11 -27 -21 42 45 13 -11 52 41 27 -3 25 14 -94 5 -48 51 16 -11 37 14 25 9 25 18 1 7 -26 53 47 -16 64 -7 -37
-20 -72 -54 28 -43 70 -5 -11 58 -7 18 -2 -1 0 -27 -26 0 -33 14 48 -35 -32 -29 28 -26 -23 -12 -7 -42 -81 33 8 -3 -6 42 12 -11 18 51 -13 8 55 -61 -39 19 -36 66 -7 -1 -25 -64 29 -33 -24 69 31 33 -63 2 68 15 68 -35 -17
3 34 -7 -72 -23 70 -36 -35 -22 -17 -45 95 -1 -13 -18 8 -10 -7 -8 103 10 -26 17 -2 9 28 1 2 -20 2 27 -28 -66 17 -14 32 8 2 -4 -18 1 26 -1 -42 -45 -5 28 -84 -89 -4 37 23 -3 -13 24 12 -7 20 14 9 -35 -16 -26 33
-24 20 16 -13 -28 33 15 -46 -33 74 21 -47 33 7 -96 -10 13 34 3 -54 -28 55 7 34 -10 -75 39 -6 23 -12 59 14 -46 -15 29 17 -29 27 8 -10 48 47 -81 -24 2 -11 -6 -28 -26 -2 24 1 -29 -34 -25 -45 19 10 5 -49 -26 0 5 -25
-16 -57 -35 19 20 -7 20 -4 52 -3 -3 73 11 53 -19 37 19 -4 39 32 -31 -30 -18 2 -54 88 93 -38 -4 -62 1 -61 9 -43 44 -38 -20 -43 35 6 5 51 -74 -37 -6 1 72 20 19 25 13 76 -18 -8 42 50 -25 -30 -24 65 69 48 -48 8
22 4 13 9 -32 29 -3 71 36 50 9 16 -14 -11 -49 -25 -21 36 43 -9 -49 -28 9 -30 2 -27 28 55 -70 -29 -13 -13 8 -23 45 -4 -25 32 58 -19 -45 5 -34 -42 38 38 27 -9 -30 -33 -27 66 -46 6 4 2 47 -33 -37 50 12 4 6 -13
10 -60 -85 22 -5 48 -23 55 40 -26 96 43 -4 -26 8 18 52 0 -10 -21 20 -15 -19 -32 -6 -44 8 -34 -34 1 -16 41 4 43 27 20 -35 20 18 -34 -42 -37 22 -5 -32 3 -9 13 28 -25 -3 38 -32 -2 -3 1 26 -45 12 -14 68 36 11 -53
15 -18 -32 17 -19 -70 38 -16 1 -52 33 -61 37 31 22 19 -30 23 -25 -49 -23 -1 15 17 -11 2 -20 -50 -24 -2 -7 50 -6 43 89 -26 -5 42 2 14 20 23 11 -3 -57 32 -75 44 9 -11 -20 66 -29 42 -31 -34 34 -65 71 -54 2 -9 16 -10
-31 -33 -9 -44 17 15 -16 18 -28 -26 -68 -20 22 -22 -23 -22 35 15 8 21 6 63 35 -31 3 -22 22 59 -8 45 -7 53 -45 27 36 -16 -41 -5 -33 -18 -31 -2 -18 11 -47 -30 96 26 47 -28 7 -27 -23 -15 -100 21 -11 14 -18 -11 7 -19 -23 -28
43 -20 -27 18 4 52 59 -17 59 5 61 -24 10 -11 28 -13 23 18 -6 14 -12 22 -62 -9 -40 -31 78 -18 -20 -74 -9 91 43 -4 0 -69 -22 33 52 14 -56 -101 -39 1 20 6 13 -5 26 30 -9 6 -62 -61 24 -6 -45 27 77 48 12 23 -48 -43
66 -19 13 41 -10 59 4 61 -34 46 74 21 -1 -13 -52 15 -5 1 48 5 -11 -44 20 -22 42 -21 79 75 -27 3 -30 30 6 24 63 -18 -25 -20 11 22 -36 -23 -15 -40 42 5 -16 -69 -30 2 14 50 -43 53 50 -10 17 -12 -31 48 -36 -7 19 46
-10 10 -6 30 -31 54 -17 16 12 6 13 38 -41 -13 -27 -33 16 -9 43 -26 21 47 -30 -10 29 14 -2 27 -27 9 -39 -14 2 -58 77 2 -18 16 8 -38 -10 11 -32 -10 -14 25 48 -26 -21 -52 -14 46 -6 -31 -5 13 4 21 -58 -26 -15 49 4 32
-25 14 -2 -39 1 26 19 7 46 -1 27 23 -40 -7 34 -33 10 -42 19 28 2 6 13 1 21 63 -28 -15 -20 -48 4 39 -15 15 64 -10 23 23 26 -19 -65 -32 -36 -26 -70 66 11 -8 -19 29 18 -2 -66 36 23 0 -7 -54 -38 -42 18 34 44 -5
-65 33 42 -17 -16 -49 6 15 60 -14 -29 12 56 18 2 -72 -15 30 -14 -9 -41 31 24 -3 41 2 -15 -23 48 12 -3 17 -44 24 -41 84 1 -6 -25 -29 74 -40 -65 11 10 -21 33 -17 9 13 -29 0 5 -66 26 -13 -33 9 24 -22 -33 -26 -4 23
9 -2 -28 -18 -8 3 11 26 38 -42 9 97 31 -19 43 28 6 8 -13 36 -47 -27 40 21 -47 14 -37 47 5 60 -2 -27 -37 90 -14 72 41 -22 22 -67 72 54 -15 15 27 -76 -36 -41 -48 -24 14 33 46 -7 -7 -25 -11 -40 20 -92 -43 -17 17 32
-31 19 43 3 -3 -57 32 -3 10 -38 39 -44 31 70 -8 2 -1 79 -2 -48 -13 7 -5 22 -1 -22 -41 -3 24 -4 -21 -10 15 -1 23 -11 -15 39 -22 -22 27 54 49 -10 -35 6 21 39 7 -44 -58 7 -50 -25 3 7 54 -14 65 3 -29 -19 7 9
57 -3 41 -8 -10 32 -63 97 14 -20 57 -20 33 11 -21 -3 -38 55 39 -2 -9 -17 25 35 7 14 -25 22 17 -9 26 37 -23 27 3 6 -39 1 81 13 -18 -66 -2 -40 8 -6 2 -27 -8 -21 -33 -22 -62 -29 -26 24 26 -6 -27 -16 -78 -12 18 34
52 4 -8 -48 -12 11 -21 -2 -56 66 -40 -5 -3 6 -46 -46 44 26 38 3 -12 18 25 9 7 -21 3 -16 -5 -15 -34 -14 -15 18 49 -64 9 1 24 5 -1 6 -26 38 -43 -32 30 36 -33 -39 -23 -20 -39 -93 42 -36 82 51 -14 35 19 -17 33 -9
-24 16 -50 -18 26 -11 35 -56 -65 -8 21 40 -7 1 30 -8 43 47 -21 7 30 37 28 2 -12 20 11 -31 11 19 -24 -48 -46 30 -18 -68 -36 36 -15 25 -18 -17 -4 70 -30 4 -17 38 8 -21 -77 59 17 -41 49 -28 4 -37 29 34 14 -35 -30 39
52 2 14 -6 -24 40 11 45 -15 9 71 -11 23 41 -2 -39 -11 -7 23 37 -4 -3 -1 -7 14 -12 26 64 -17 -5 -41 -27 -36 -18 4 6 -16 -16 15 -37 -24 2 6 -6 44 -7 11 -49 -16 -16 44 37 -42 1 17 30 28 -5 -31 -8 -15 3 2 56
-18 7 -4 55 -32 18 45 -30 -7 55 32 -45 24 -7 -91 -28 13 37 61 -11 -12 -61 -7 -34 -24 -60 8 52 11 26 -13 -30 -41 -37 41 -27 -4 51 -41 2 12 49 13 -6 14 40 -22 15 49 -16 -33 -61 -28 -18 56 -12 98 18 42 70 -38 -18 13 81
15 -3 7 72 1 10 -11 60 36 19 -3 -51 -51 53 -15 -61 -34 12 -7 -36 19 -19 -32 -53 7 -31 -9 102 -9 4 -20 -8 26 -41 32 -16 -26 53 5 26 -56 14 32 -7 37 49 83 -2 41 21 -48 -23 -54 -47 17 -20 59 62 30 36 24 12 -43 -59
25 13 59 -29 -22 3 15 30 -31 5 48 -26 19 27 5 34 13 32 46 3 -68 -57 2 22 0 -58 51 20 -21 -63 -31 24 54 33 1 34 -38 -38 45 20 8 -18 28 -69 23 43 -15 -2 -73 -25 7 9 -22 -6 -18 22 14 -2 13 5 -24 -52 41 47
-54 -15 8 51 22 -19 52 -33 46 -55 -42 -12 -6 54 -57 -10 -53 -16 0 -36 -52 19 21 -19 30 -15 -20 -57 -36 1 8 -87 -33 37 32 2 -11 -37 -56 17 29 -17 -63 36 -8 16 15 31 34 14 41 48 13 0 62 14 -11 26 -4 26 7 29 0 25