-23 -31 56 13 8 -45 24 0 -15 32 8 38 61 23 -62 -45 26 -24 -4 49 -23 43 -87 -39 5 -5 -36 19 13 -19 15 -8 9 6 -28 -2 30 -37 -17 -19 47 35 60 -3 -61 -18 23 -56 -30 11 -32 -64 36 -67 4 33 4 36 12 23 -29 -49 26 3
-58 -23 58 -27 -15 -8 78 -41 -3 -22 -3 -27 -8 43 -9 37 10 14 -38 -4 -47 29 -48 -76 -16 -34 -2 30 -15 -33 47 70 10 5 -27 7 -61 -50 -24 -28 96 -25 46 -13 -16 -28 -63 -53 -14 9 -78 -15 49 -44 -43 20 57 79 10 -9 -55 -22 27 35
-45 22 9 51 7 -41 -20 56 24 28 28 -12 -16 38 -19 23 0 -19 23 -40 -24 25 -19 -9 -42 -42 -28 -60 -27 -57 29 25 -1 -45 44 -12 22 -23 63 30 -24 22 -28 -33 -6 14 -5 34 -11 14 -45 32 -31 6 20 -3 -39 6 27 -12 -21 12 -13 -23
-32 7 46 -35 18 -33 44 6 -9 27 31 -11 20 0 -27 19 16 -13 -43 54 -33 -9 15 -7 36 17 15 48 -37 7 -15 65 19 -2 7 -15 -26 -60 -75 -54 85 -1 7 40 -69 -38 -56 1 -4 59 -65 -15 102 -73 -33 33 47 105 -10 -17 -37 -37 7 30
-10 3 -18 17 17 15 34 -33 30 -27 0 18 -33 -4 15 -12 -7 -7 -6 12 -24 51 16 -25 -14 -52 -7 51 8 30 -28 35 35 -4 -16 -36 -34 -42 -57 -40 51 38 17 11 17 -37 -49 -5 -2 10 -25 49 51 0 -60 -24 1 69 45 -11 -5 47 0 27
69 -40 -15 19 -18 -6 -63 -35 33 3 27 32 30 -9 -26 49 -46 -25 -27 -11 28 17 91 42 -1 57 1 -12 28 -21 14 16 -32 -43 -15 -24 -22 -3 92 -43 -58 12 -50 -32 83 -2 65 63 56 -53 28 9 1 78 69 28 -55 -31 -10 -11 15 31 -29 -33
-22 15 9 -40 -27 18 34 -14 26 19 -23 -21 38 28 -10 11 43 -24 35 81 43 -16 -24 -39 -8 -25 -23 22 -23 -12 0 56 -24 -8 5 10 -17 -9 -34 19 72 -37 44 41 -43 -14 -33 -41 0 5 -48 -17 91 -37 -13 -18 6 39 20 1 -22 41 19 38
30 60 -44 -35 30 -17 -33 5 35 18 11 -8 -38 -59 34 -42 -33 2 -16 8 3 -35 8 4 -4 7 -2 -25 -15 14 -27 -29 -23 3 -24 -29 66 -11 -29 -12 -79 50 60 16 -20 -26 3 36 11 -25 36 46 -15 57 -1 23 -62 -71 -30 73 42 40 -85 -45
-16 -18 21 -31 43 19 27 -28 19 11 1 39 19 -17 -3 0 14 -7 -61 -41 -4 -24 72 22 -5 -2 -53 -26 -39 -17 3 28 40 6 -3 -9 -23 12 -16 -44 25 11 -65 -53 72 -30 -6 -34 8 13 -25 7 71 -25 -16 14 6 55 -23 -3 -33 52 15 8
6 -18 -39 28 -16 -16 -7 40 -41 22 -36 31 -28 -4 47 8 -11 17 -23 -17 29 -18 10 47 31 47 31 -26 -16 -37 -46 -59 -53 0 11 -32 41 70 48 6 -39 30 -3 12 23 17 22 38 45 -49 61 24 -38 23 58 -10 -50 -107 -14 -4 48 28 -47 -33
47 -14 -33 56 -25 40 -4 39 -31 -29 50 2 11 -28 -35 6 -54 16 -11 -21 -39 3 47 27 -22 -6 0 -19 -1 -64 -9 -19 -51 36 -24 -30 -26 49 61 -40 -30 21 -115 -28 25 14 40 8 69 -43 13 31 -75 38 46 -6 -24 -73 -46 -11 12 35 28 -25
-54 13 72 11 24 5 6 9 25 7 -32 18 -41 -11 -36 12 49 -6 4 51 -26 19 -44 7 21 12 -28 30 -47 -14 -15 20 38 -15 -54 -8 -24 -50 -50 30 19 13 39 10 -24 -24 -69 -41 -27 9 4 -22 47 -44 -42 -14 -6 93 64 50 15 29 -20 21
-51 -4 16 7 -23 -37 79 11 7 -37 11 -40 0 18 -24 -34 47 15 30 4 7 57 -43 -85 -10 -13 -45 22 -9 28 -6 10 24 -12 -28 -22 9 -43 -32 4 54 -32 47 31 -62 -10 -22 -42 -49 61 -44 11 99 -75 -62 32 8 88 53 36 -12 -27 52 37
-5 -37 47 -8 -23 -52 18 -66 52 -1 -30 49 17 14 22 9 52 9 14 7 -43 19 -69 -42 -5 -52 -16 -11 19 18 16 50 26 -35 15 -44 -2 4 -10 13 70 34 58 23 -24 -37 -57 -16 16 17 -27 -56 64 -79 -18 -28 17 63 45 32 0 -42 43 25
40 29 -16 33 -22 66 -83 11 -13 -20 -25 22 -38 -2 -25 -6 -62 12 -1 -52 -12 -57 1 30 -11 42 16 6 1 17 -3 -40 -50 41 -32 -1 17 17 58 -18 -47 21 -39 -40 28 34 54 68 -1 -13 47 57 -41 76 10 -20 -38 -88 10 -16 19 33 -46 -71
22 -19 54 -9 -84 6 35 22 15 -38 21 -41 -25 -20 -11 -6 -29 32 -13 59 -19 -12 -14 -28 59 -13 0 54 -18 32 -31 61 -16 31 4 41 -53 -32 -5 40 -13 -12 -3 -23 14 -49 31 -40 -33 26 -22 -93 -8 -22 -42 -46 32 53 16 -23 -21 3 -3 35
14 -30 -9 8 60 8 6 -28 -9 -47 -42 7 10 14 36 -11 15 47 40 -22 -35 -25 -11 7 -14 -33 -18 -21 -31 -7 11 4 19 25 1 33 -53 -67 32 -40 -26 41 3 -26 -12 -55 -14 -24 64 -68 -36 -1 25 -17 -23 41 -20 3 68 -50 5 0 5 5
-6 16 -23 -39 -44 -23 -5 1 -54 -13 15 14 -77 -8 1 19 38 -8 -6 41 -5 -21 -7 -18 47 8 60 -15 -3 57 -68 -25 -10 -20 37 57 8 -56 -34 24 1 0 87 -34 -2 -12 22 65 -28 -13 -16 11 25 30 17 4 -14 -58 -17 -44 28 47 6 3
6 36 -36 -27 -8 21 -16 -13 84 -18 -20 -19 0 -20 3 -57 42 -54 -2 25 2 0 -58 18 60 66 11 24 -7 -40 -36 -29 -32 -28 10 -25 -2 40 -39 68 -52 -35 6 -4 -1 66 -21 -9 -51 60 2 -19 20 -32 25 -10 -7 -26 18 38 23 -4 -19 26
-51 6 -9 65 1 -5 23 0 -13 -37 1 44 -1 18 -6 -2 -16 -63 1 -25 -48 -13 -15 70 11 4 -41 -17 29 -5 -19 -28 -4 66 30 -2 24 19 47 2 12 18 -37 -34 -43 38 28 24 36 36 -19 23 0 -5 22 19 -43 -14 -3 28 -41 -38 -10 38
15 70 -50 7 -38 5 -7 2 -45 7 31 37 -48 -10 56 -1 18 -35 6 19 -40 -26 33 -31 0 37 18 -7 -9 28 -31 1 -14 -31 -33 -7 17 -23 -38 54 5 -49 75 25 1 -12 -32 19 -43 -56 18 41 -34 -4 -32 -28 -9 -12 -19 16 13 45 26 -3
16 47 13 -12 -34 -10 -50 -3 -37 0 -6 -20 -26 -25 -37 -43 8 14 -21 20 0 -69 -67 -57 30 -34 -50 29 -15 -27 -31 22 30 -45 10 11 -7 23 -11 -8 -23 -12 16 -3 9 -38 23 -11 -37 33 -6 -28 -34 0 35 16 44 28 -3 28 -3 20 -23 -42
33 46 -37 19 -36 10 20 64 -27 -11 1 -18 2 -34 -89 -26 22 5 -5 32 26 16 19 -44 62 9 16 30 26 21 -27 9 -18 -68 65 -53 30 43 -29 38 -45 -7 -31 64 0 31 37 16 -13 12 7 21 -23 -13 -8 -45 -35 -38 -25 31 -7 -30 32 14
-32 -16 48 14 42 -22 -36 25 52 2 -12 29 6 30 4 4 -8 10 -39 34 -10 30 -18 49 -59 -18 -59 -6 38 0 8 -4 25 42 -8 47 -15 34 41 16 -8 16 -68 -6 -16 16 30 -72 33 27 39 3 5 -25 50 57 -50 38 -7 36 -57 37 -31 -10
34 65 -58 -22 4 36 8 28 -3 -29 -30 10 -13 -13 -20 20 57 -11 24 -1 -17 3 -42 -12 5 -52 -2 26 -3 8 38 40 27 -11 -19 -24 -31 -14 -10 -23 6 6 69 -20 -44 -59 22 27 42 -27 -24 5 33 -15 -15 36 6 24 14 -34 25 35 -24 -48
-26 -11 -15 11 24 29 49 -1 -3 14 3 -2 -13 -45 -33 29 37 55 -14 -31 30 -15 7 19 34 0 -4 -21 7 4 -35 24 20 17 3 6 -3 -21 -1 32 -39 -22 -48 40 33 32 -8 45 29 5 -27 60 -88 -22 31 -52 -6 -47 -19 0 -28 -60 24 -8
46 -60 -17 42 -5 -7 -19 17 4 -14 -16 -12 41 38 -66 24 1 -26 13 -3 5 2 -22 34 34 1 -15 -20 24 -14 53 -12 -17 22 -39 25 -33 38 -2 6 21 5 -53 1 -15 -4 22 -37 4 22 9 10 41 -49 12 29 -12 31 57 -14 -17 14 16 20
-23 17 12 42 18 -19 -42 35 -6 -13 11 -36 73 -15 -3 2 16 24 -15 53 -9 -13 10 39 -22 -91 -42 49 -23 -35 34 22 -23 27 -16 67 -6 -43 -18 -48 49 -1 -28 -4 48 -39 42 -67 13 25 -17 6 12 -30 -29 22 41 28 0 -23 13 35 37 26
-35 38 5 70 -9 7 -48 -23 30 -12 27 -11 18 16 66 5 -22 24 20 -15 -4 55 18 -31 -55 -65 -21 -10 32 29 -20 30 39 28 -13 31 9 -42 57 11 22 -22 -2 -22 40 -40 0 -4 -32 -5 6 34 18 44 -32 12 -2 -40 -39 -56 -21 -32 36 -29
51 13 26 20 0 -25 19 10 62 17 -12 11 31 18 26 -15 -45 -32 7 -31 -4 2 -64 35 15 48 -56 -30 25 -61 -3 -71 -37 20 30 -41 56 28 54 -18 -28 20 -7 23 -58 56 -1 -22 16 84 -46 -66 42 -31 81 9 -17 -9 24 7 -32 -17 -22 -16
31 11 56 -11 6 -22 4 -6 -19 35 -26 25 59 66 -46 -6 -55 7 -29 51 7 -30 -52 29 -31 8 -26 29 0 -38 6 19 28 35 -71 75 -21 -33 23 -13 9 31 -67 22 16 -13 44 -58 33 37 13 -51 7 4 -5 21 3 68 23 26 -28 60 -18 -52
-2 16 17 -22 16 24 -29 -37 19 -50 -30 10 26 20 -31 18 -51 23 -19 -7 10 4 19 12 -77 -24 29 46 -37 -9 12 -37 10 24 -19 33 32 -15 -16 -14 48 36 23 14 -29 29 43 -12 52 23 22 -32 40 4 -11 62 -7 22 -30 -33 -40 -3 -15 -2
0 17 -6 -7 0 35 -16 45 38 14 65 -21 30 34 30 -16 5 6 1 -39 -13 -14 -30 46 -20 -21 85 13 10 -48 -24 -9 -7 51 8 57 -29 -12 21 -16 -13 -33 -38 -41 18 -28 31 24 -58 -4 -3 28 34 42 -9 13 24 4 -21 22 -14 18 24 49
-29 20 19 -35 10 46 -7 41 -18 -8 80 -17 -33 40 27 25 -21 10 39 -28 5 22 39 9 9 -34 98 43 -8 -19 -51 -20 40 47 -8 62 -84 -70 -3 -28 23 -40 -22 -58 43 7 41 13 -37 -1 -5 25 42 7 -49 2 55 -25 6 -17 22 -55 -14 54
12 -9 32 2 5 -40 -1 3 -30 13 -51 -51 0 -18 -36 -6 -6 -56 29 -21 4 -37 17 8 34 43 -37 -29 -52 -30 2 14 19 4 14 9 9 27 17 25 28 30 52 52 -4 83 -48 25 27 -10 -23 -20 -58 -10 -2 -42 10 -22 -39 20 10 -24 67 -34
-40 -16 36 15 11 14 -10 -40 34 19 -18 30 22 57 17 -38 21 50 -32 41 -40 -9 -46 -23 -52 -15 0 -65 -3 21 -25 -40 -12 39 22 17 -51 -28 14 -28 42 -5 -34 -47 -12 -34 3 -40 -22 8 3 12 61 6 -63 30 -2 -6 17 60 -14 29 -14 11
12 -26 3 -7 1 53 21 -1 -36 23 100 12 -2 25 29 19 -31 -4 31 -6 -22 7 16 -17 -30 -16 68 53 -19 1 -4 1 2 37 1 63 -75 -73 22 -23 -54 24 40 -47 59 6 12 -40 -10 28 4 -2 21 -2 -53 17 33 12 -9 19 -46 11 -21 10
-32 -14 51 17 -9 42 27 42 9 2 110 -65 49 24 -28 19 -36 -16 -7 -9 -16 14 30 -16 28 3 38 -1 -64 4 18 2 8 29 3 32 -44 -30 18 9 -22 -7 -21 0 22 -22 -9 2 30 -35 68 -39 -23 6 -16 -15 66 -58 -18 -43 13 -48 44 48
20 -35 3 -49 0 -37 0 -60 4 29 -59 58 -16 5 31 -9 -1 -32 -52 43 -18 25 -23 -22 -12 18 -72 21 18 42 45 38 30 -30 -52 14 16 6 19 21 23 41 -19 17 -18 4 23 -16 -27 39 -49 -6 19 28 1 -33 -105 43 -28 24 13 59 -29 5
-13 28 -27 44 25 -65 -41 -49 28 -15 -75 58 18 14 0 4 4 -17 -33 69 -19 6 -25 -52 21 51 -33 -14 70 43 8 -3 -24 3 31 -37 67 25 -18 31 7 -5 -18 24 -27 29 -23 -11 14 52 -6 -22 40 51 12 13 -6 25 -11 75 3 22 -39 -57
-29 -25 -24 -51 -14 -20 -16 -34 -20 -12 -34 41 -6 -9 41 -4 -2 -46 12 9 -17 -29 -67 6 -24 19 -15 55 20 16 56 2 0 -26 -33 32 29 -47 22 17 22 -34 -10 14 1 23 52 8 -75 -18 -33 -3 49 46 -29 31 23 16 40 -2 13 49 -14 30
-17 84 56 -54 33 69 42 0 27 -4 83 8 -58 22 11 -14 16 49 8 8 -44 3 -31 29 47 30 45 48 -31 -45 -15 -5 -38 -33 -21 -1 -11 -26 -11 11 2 -28 47 -75 28 -44 -28 -36 -60 -30 16 -6 -2 34 -34 -24 15 -50 27 35 32 -20 -27 39
-35 15 4 -10 -14 64 42 24 -26 -5 27 -21 -7 32 27 -16 2 20 1 5 -41 -4 -24 -11 -19 -10 99 0 2 -55 -43 -20 -12 8 -40 2 -71 -37 23 -36 -12 -39 45 -62 76 -34 50 -35 -19 -54 4 -22 -12 8 -34 36 69 -43 -39 31 -24 -4 -31 51
43 6 -5 52 5 -87 -7 -32 -5 -36 -41 -30 13 65 -23 16 46 5 8 7 11 -70 -6 13 5 0 -73 -44 0 -32 -13 -14 43 -41 0 -4 -19 -13 -22 63 22 10 -26 37 -18 5 2 13 -7 -24 -9 18 -50 27 10 -8 -1 -15 -13 4 2 10 7 17
1 62 -8 -22 5 23 -12 -3 -41 40 65 9 24 52 20 -19 -33 52 32 4 -23 -27 11 22 39 -22 54 21 -40 -53 -8 -12 17 7 -15 -5 -47 22 35 -35 -41 -48 -16 -29 0 -61 16 -8 10 -13 29 18 -13 -7 -29 29 -10 18 -15 -13 -3 -33 12 62
20 -46 -28 -54 -20 16 9 36 0 27 -14 39 8 54 60 15 -34 -12 -20 -21 -21 17 14 22 -18 50 3 70 -9 -58 36 30 -61 -2 15 -85 -30 -12 48 -46 -14 -12 -29 -40 38 -3 73 -14 -32 3 -20 2 -8 -17 13 23 2 16 9 -41 34 23 4 -44
5 69 11 33 -25 -17 21 -19 -25 37 27 -14 -71 11 -44 15 30 -1 24 -68 14 -4 21 -15 40 -5 -8 -34 24 -3 -22 -3 -32 -31 42 -23 -3 20 22 -22 8 -6 30 16 -51 -43 10 31 25 5 -11 -2 -76 -7 27 -81 63 34 17 43 10 -32 15 25
7 24 54 51 -14 60 -20 -23 35 -7 11 45 52 24 -12 1 -12 67 2 -26 21 13 -27 13 23 -15 73 -8 6 -23 -41 -36 11 22 -4 29 -27 -12 13 -16 -11 -29 -8 -37 20 -69 -15 -43 -27 16 -6 -45 -34 34 -29 7 -26 14 8 6 -27 -17 -50 42
51 -19 -70 -9 -1 -45 -56 -23 -5 40 -24 -2 -27 4 11 -15 43 -10 -23 -10 -21 22 -59 -12 -6 -60 -68 -74 -47 2 55 -39 -35 35 -50 91 49 0 -12 -36 18 -8 19 64 -41 -48 -9 38 -9 3 3 -7 -30 -44 51 72 1 28 48 -11 31 -1 -34 -62
-40 29 24 17 25 -1 32 18 -8 47 -50 9 11 16 -18 4 27 36 -8 30 38 11 10 2 -8 29 24 15 6 -3 -22 19 -28 -13 11 -44 -28 -31 -22 -15 -43 -16 6 -20 13 7 6 -61 -22 29 10 -19 -46 -4 -1 -71 0 -44 -6 -6 32 30 -24 41
41 17 -53 -11 43 8 4 4 20 54 -3 -16 -73 -25 14 43 5 -27 -30 -27 -9 82 -25 38 -27 -6 -61 1 -38 40 27 -38 14 18 12 25 -38 34 17 -41 -16 16 61 52 37 -39 -14 49 2 -58 10 -47 -11 2 -13 -1 -14 46 22 32 0 -14 -6 -7
-32 12 0 -22 3 10 -62 49 13 -1 37 6 31 -19 44 -34 -8 23 25 57 33 -38 -47 35 16 -47 -3 -21 -59 -16 -30 24 -31 -23 -45 46 48 -14 7 18 57 -42 19 48 -64 8 -27 -16 -56 -57 22 9 7 -43 12 86 13 16 55 4 -9 24 9 -79
-22 11 37 22 -6 -56 0 33 -50 10 -7 8 -59 -2 -45 -7 23 -10 -35 -19 61 84 60 26 4 -4 7 -4 -6 39 2 -10 55 16 5 23 -24 54 -59 17 -32 16 7 -9 26 -8 -34 -14 -10 -12 -2 -29 25 36 11 -92 -10 -14 -92 11 58 12 37 -45
-41 -36 -31 15 48 0 -7 15 31 -7 35 10 49 -6 -30 -67 31 -3 -43 74 -42 -11 -36 5 -15 22 -28 6 -20 13 43 -32 -8 -13 -22 -41 -10 -3 -3 -26 55 4 28 17 -23 14 9 -2 -51 -2 -7 -46 -3 -30 14 53 48 -21 56 65 25 -26 -61 -36
-26 6 -8 2 37 -13 -33 -9 35 -49 -8 24 -12 -21 -33 -16 -12 -45 -30 6 21 6 -27 19 -25 -30 8 -48 -10 -37 38 7 -5 -37 -32 21 72 -56 57 23 76 -3 -21 30 -35 36 -12 -13 -57 2 -27 14 27 -18 3 42 62 46 52 70 -18 3 -30 -38
-12 -7 -9 44 -48 30 18 18 -13 -11 40 10 -6 29 48 -7 -18 2 39 -12 35 19 64 -10 40 17 59 34 4 34 -82 -29 12 3 26 -41 -22 16 -39 20 -48 41 7 -25 5 6 9 -12 -8 9 -20 -14 -39 64 6 -66 -31 -45 -101 -28 -35 2 50 53
34 -13 29 14 -62 38 58 2 41 -36 63 35 29 -10 44 -9 -43 17 -12 -28 -8 -42 2 -13 42 -16 53 15 -13 -24 -2 -10 -8 -1 43 -24 37 12 -19 10 -75 36 -24 -25 12 58 25 14 -15 -7 0 97 53 10 20 27 -33 19 -43 -40 -80 13 33 71
-59 46 63 -6 14 49 -15 12 20 -14 5 4 23 -51 -46 34 -26 -3 21 -23 -23 29 41 13 -48 28 -35 -16 31 0 32 37 -5 -33 42 10 -20 -19 20 -48 46 3 -32 -56 66 3 92 3 -8 56 -7 -66 46 -14 -28 14 -9 40 -37 -62 -14 -28 20 12
58 -13 -32 3 -43 24 0 34 38 3 28 6 -39 20 -3 -37 10 -57 -5 -14 6 -7 -25 -23 50 -39 -10 -7 -38 -42 3 -27 -20 16 15 14 37 13 55 -41 26 17 -7 26 -51 3 -16 -23 -45 14 -26 -2 21 -14 -18 62 10 -15 17 -13 18 -28 -3 -21
-49 13 -46 -7 63 -53 -58 37 -17 -1 -39 -61 -7 36 -55 -22 -21 -30 -20 16 21 41 20 -10 -41 -49 -51 -8 -32 29 41 -19 18 49 -25 75 49 -43 11 -33 36 6 32 54 -40 29 24 19 10 26 -12 -63 -28 -10 -5 59 -28 27 27 44 28 28 -27 -102
31 6 0 -9 2 51 50 -11 16 24 9 -37 18 16 -52 -4 20 -17 3 -54 1 22 3 10 30 42 25 -15 38 -18 -2 -17 -19 22 -26 -13 -21 -20 -29 47 -9 -9 -34 -34 21 56 -8 -46 22 0 -7 -4 16 44 39 -11 -3 -46 -15 -24 -40 -2 8 -13
-15 -46 -14 -49 -33 -36 -10 -15 32 10 14 12 -47 -10 25 -42 27 -42 -26 12 -3 15 -8 15 33 -19 -34 -46 -24 7 5 -11 14 9 16 10 64 38 31 -4 19 37 15 11 -13 -34 -18 -25 -9 12 26 19 44 -43 54 52 22 26 79 16 -5 -24 -36 -6
-7 48 33 -13 1 -80 -67 -18 -50 12 -5 -12 8 -15 -49 -41 13 8 -22 6 43 74 62 15 -62 53 -77 -20 36 73 -29 9 5 3 -32 -32 -53 46 -60 3 -31 44 41 37 10 -81 28 -35 57 -22 64 -1 -13 1 -25 -51 -22 30 -32 13 34 0 -4 -11
44 -44 -37 -31 -65 -4 72 -41 -45 16 -10 28 18 39 57 -29 61 59 -8 11 54 5 26 -60 27 48 43 -19 -19 -10 -36 -16 53 -21 37 -5 -25 24 -29 -7 -76 36 21 14 -17 -8 -96 -41 -66 -59 39 95 18 12 57 -45 26 -35 -28 45 22 47 -33 48