14 -32 -25 -87 21 10 -16 -33 -26 9 -58 -27 -12 29 66 -22 33 20 15 -5 -27 43 -28 5 -3 -11 -6 6 -15 -24 35 15 -30 75 -47 7 4 -9 15 33 -45 -3 -13 -11 54 36 -24 10 -6 -17 -26 -70 -34 -42 -14 15 14 51 48 -29 11 21 -42 25
-32 5 37 21 13 -54 39 -16 -1 5 -30 -55 -49 -28 -4 -28 16 -10 -34 -38 13 29 11 -18 -1 -12 4 -67 75 -4 -17 -15 -7 19 8 -1 -26 37 -80 -6 35 -41 -8 49 -36 -17 -43 -12 31 -4 26 -41 28 -1 -29 23 -6 6 36 -9 26 -53 4 -16
29 -31 31 -20 37 -19 3 34 12 -10 -14 -16 33 2 15 11 -7 -20 -19 -35 -4 -9 -27 -13 -15 -22 -15 3 -4 14 6 -3 -42 30 -16 -3 21 11 46 49 17 3 -15 -41 3 6 15 -10 3 -34 28 -10 23 -1 -17 -32 -5 -4 -18 -4 -22 -29 17 14
-26 -2 -7 28 12 -19 -16 48 -43 15 -40 -9 28 -36 0 30 -7 22 -3 -51 -13 36 7 6 46 29 -8 -38 34 -8 -13 21 -20 22 -14 -1 -21 4 11 8 -8 -26 -34 36 41 0 37 -6 14 5 19 10 -14 -11 4 -9 -11 19 22 -20 -23 17 48 -31
26 10 35 -26 22 28 -47 40 -55 34 -23 -6 0 -10 6 30 -10 8 33 35 26 21 -5 -45 33 -26 -6 0 -11 5 18 -38 -48 52 2 25 -10 -4 -20 0 -11 30 -26 -26 -25 0 30 -14 3 -2 59 -8 -23 -8 -16 -15 -41 -16 -24 -49 28 -5 25 41
-12 -60 37 74 -15 -51 0 1 -3 0 7 29 3 0 27 5 30 -18 10 -25 0 -26 -28 -12 -12 -17 -31 -7 50 16 26 -22 34 32 44 -16 15 14 73 14 8 28 -37 -2 -46 7 89 -19 -3 -5 -43 0 6 -24 6 -2 47 31 9 9 48 34 -15 -22
-1 -5 -6 76 23 -26 16 6 49 2 -20 63 -20 -31 -6 -41 16 5 -46 23 -12 5 -23 55 -57 31 7 22 26 50 14 -7 -31 2 39 53 49 -42 15 -30 -1 38 -1 -41 -2 -33 63 7 15 -38 -2 13 3 -9 -58 12 -43 9 44 27 2 -3 -15 -9
11 -42 -22 19 -4 28 34 -41 44 -9 18 -20 -1 -25 42 -34 22 -35 -14 -49 27 -11 -24 31 3 -3 7 -56 -16 -37 -5 -39 36 23 32 -49 16 4 -5 -12 -14 -14 22 13 -8 72 -22 -36 -20 19 -2 3 13 6 5 5 2 56 7 -3 -12 60 7 -9
17 -9 27 35 -18 -5 16 0 37 -9 0 -7 4 37 32 15 12 15 -59 -64 50 41 41 23 10 -28 -36 10 -12 -18 6 -1 -16 72 17 17 -36 46 56 7 -9 -20 -20 11 7 -30 19 -33 -18 -32 -16 -22 66 19 -34 32 -2 -10 12 -36 42 26 -27 -51
-4 36 -18 -50 -20 19 -9 -17 -5 32 1 11 54 3 -9 0 21 15 -15 16 -34 5 34 -44 9 -56 -2 15 -21 -1 54 13 -35 42 3 -2 -13 -3 -36 -28 -1 -23 36 -21 38 15 -47 5 -14 7 10 -6 17 12 -10 24 -19 -18 17 22 -27 34 -11 25
-23 -37 5 19 -19 -39 4 -12 -23 -39 -12 112 -7 -36 41 35 26 -24 -7 -45 -28 2 -3 44 -1 14 -35 28 64 53 13 -27 -24 3 83 -1 15 -45 -44 18 7 40 -7 -21 43 -51 33 22 -17 -19 -15 28 5 -11 -18 -2 23 21 -58 6 17 -11 12 14
-22 -26 -33 17 16 -47 23 90 -29 4 53 36 -10 -20 -69 7 -22 -47 15 34 32 -3 -26 -20 39 7 -4 21 1 33 13 30 -18 58 -28 63 -43 -20 -10 30 -11 53 -24 -13 34 8 24 -69 26 -37 26 26 -6 41 39 -12 -14 -19 -1 -45 57 16 1 26
-8 19 -16 65 24 21 13 33 33 -14 19 115 -40 -3 10 -2 -5 -13 -14 -9 -35 -6 -13 -5 9 15 -2 -22 27 -16 -15 -6 -3 37 34 12 3 -30 -35 -36 3 39 -3 -38 67 -17 -5 -19 32 -34 5 51 -23 -2 -32 -48 -23 -55 -9 -46 10 -23 8 1
29 4 10 6 7 -33 -17 4 -32 28 -32 -81 -14 21 26 43 4 36 -11 3 -22 28 5 -56 46 34 -26 -44 8 -51 -26 -4 16 5 1 20 -27 21 11 46 -42 2 46 29 -36 -4 4 36 27 -30 -62 -16 19 1 -23 44 43 -32 15 -31 -16 -23 0 -14
-35 0 37 -6 31 -51 -26 4 -19 74 -30 -41 -8 -49 -22 -2 6 -65 -49 46 -13 -4 -15 35 -47 -7 5 -32 11 -2 9 45 23 4 -23 -51 -40 0 -59 -17 -22 15 39 26 -7 43 -95 -57 -43 104 -9 -75 71 -24 -5 13 -10 12 10 -3 19 18 18 20
-2 12 7 -7 -30 6 7 11 28 -33 28 -66 -54 26 -69 -12 17 7 26 32 -9 -20 -30 8 -47 10 -2 -23 -74 -34 35 -36 22 -4 37 -15 -26 -5 -12 43 -14 26 2 30 -85 80 -57 14 47 6 14 13 14 38 33 -17 -46 -3 24 16 21 -27 18 -20
-25 -38 -13 60 11 29 31 9 -14 -56 -33 46 75 -33 -14 -24 -33 -38 4 -10 59 16 0 19 -36 13 -24 -10 -37 49 -7 -63 -50 10 -1 -2 -29 -33 0 17 22 51 -46 74 30 -45 52 50 12 -54 6 3 18 -50 -22 -1 -30 -16 -13 52 78 51 -39 -14
41 9 16 -41 -19 25 8 0 3 40 45 -4 -88 20 -17 -34 -27 -6 5 -7 0 2 11 9 32 5 62 -6 -68 -63 7 7 24 -31 -14 13 3 36 16 0 4 0 20 -61 -15 43 -46 6 -49 14 24 2 -40 6 -10 -10 -41 -15 -13 -1 24 -4 24 46
-20 -46 40 19 31 36 19 19 -16 50 5 -38 -3 73 -19 -24 9 10 -21 24 -50 -15 -9 17 -1 12 -2 -40 23 -43 40 -56 -9 34 5 22 -27 -8 -59 -5 51 -31 21 15 -20 49 -9 -41 5 21 6 14 29 -3 -2 -21 -8 6 -17 -13 1 -6 -12 -13
10 4 -23 21 -9 35 -2 -23 19 7 54 -8 -28 -62 17 37 -15 -16 -30 -28 -22 -54 -19 -10 -1 -12 59 71 12 -11 8 79 24 -47 -1 -9 -25 51 -1 10 -21 -21 34 -42 -10 -5 14 9 -8 -23 33 20 32 6 57 -10 48 -47 -66 -7 8 -23 30 -6
24 -16 4 -80 21 -4 -26 -16 -42 35 -11 48 43 35 31 -41 30 21 -32 -67 -11 13 -28 -26 20 20 -52 -9 54 0 -13 -5 4 17 -21 -40 58 -25 16 -15 38 -45 13 31 -14 -45 -8 6 -11 -5 -25 -28 38 -65 4 4 23 0 29 -41 -53 -25 -51 27
19 -10 -37 -12 -13 -2 -30 -23 -9 33 30 -1 18 -7 1 -9 -26 42 -25 -26 11 14 25 -22 -7 20 -3 41 18 16 13 -9 4 -2 12 -52 35 22 -4 24 -47 -66 13 -16 -18 -32 -51 -7 -11 40 1 -64 -8 38 50 -2 70 6 -5 11 -26 9 14 7
-23 6 -25 2 -30 34 4 -6 -25 20 -15 16 -21 15 -15 -21 -48 15 27 24 26 -12 -23 -29 -8 20 36 10 -11 -25 12 -59 -34 11 -9 -22 -6 -15 -46 28 42 22 -46 -26 42 51 47 56 -15 15 63 12 0 26 33 -4 8 1 -23 20 -12 49 -13 2
-17 -47 0 62 -63 45 -48 30 -63 2 -17 29 11 -66 20 -5 -20 22 -47 -13 41 30 6 13 32 11 -71 13 -15 82 -49 -15 17 26 2 32 21 -27 1 -72 -11 -41 -11 68 16 -99 -18 49 -17 -47 -20 -11 2 -48 -6 10 23 38 -24 17 -11 -21 -16 -23
20 -30 19 -8 13 11 -22 29 -21 15 14 -31 -32 17 -11 40 5 9 -39 24 -41 25 26 32 -7 50 35 -39 0 -33 -29 36 12 -39 -31 -41 -31 37 -8 1 -39 -31 33 18 -63 43 -19 -5 24 15 23 -17 -11 42 48 -25 -9 50 7 -30 10 -34 4 16
25 16 -15 7 -5 -44 20 -3 8 31 -26 3 25 18 29 4 -4 -26 33 14 15 -39 12 30 -40 -4 38 -27 -68 -3 6 1 0 -46 -16 -43 -36 44 19 2 -15 2 -4 -53 8 15 61 5 -25 -14 29 51 16 14 -16 25 -65 2 20 56 34 64 -26 -58
-24 -23 21 -12 -12 14 -15 -10 36 14 -14 29 14 16 3 -2 20 -7 43 -21 -40 -37 -19 -23 -12 25 34 -35 -27 -26 -4 -23 12 20 12 -5 -9 21 -33 -16 31 5 -44 38 17 20 -18 -29 -9 40 6 -3 50 -44 -17 22 -11 6 25 -18 7 33 -18 -4
-22 42 -5 50 -46 38 36 22 19 6 -46 -24 -11 55 -42 -8 -17 -25 -5 8 8 60 17 12 -6 -43 9 8 27 -25 -4 -34 -42 23 -36 34 27 1 -5 28 40 35 -28 6 29 28 -21 31 -10 24 7 34 9 -27 -9 22 -17 39 13 -32 23 15 5 -13
-32 -31 42 27 43 -26 19 -57 24 38 7 13 22 -40 51 -38 14 -35 -36 -9 -25 11 30 19 -33 -51 -27 40 72 -19 7 41 42 -11 -2 -21 11 11 23 12 -4 30 -24 35 -57 32 -16 -14 7 16 -58 -24 89 8 -44 29 10 31 -11 -7 -67 16 0 27
-79 26 62 37 6 -43 60 -10 33 6 -33 29 12 -2 -30 14 -21 -45 -22 14 -45 30 -2 52 -16 54 37 -13 -54 -14 -1 -78 -10 37 -34 24 -30 -39 -67 45 89 87 5 38 51 35 22 -19 15 13 90 35 51 -24 -35 0 -87 13 -30 12 61 -9 -56 32
10 31 -12 -31 -34 33 29 10 -9 -30 23 15 -21 68 -5 5 34 32 -5 35 12 -39 11 -21 24 29 23 -25 -30 -63 21 35 17 -34 -36 22 -10 -4 -2 -30 -36 -9 9 -19 20 39 -13 15 14 -2 19 4 -42 37 -42 -34 -2 6 -18 8 16 8 -18 15
0 67 38 -5 -28 -18 33 32 -39 18 12 -69 -2 8 -17 19 -18 34 26 -9 7 -36 30 -18 56 38 57 21 -3 30 -64 28 -6 -13 -48 32 -45 -12 -11 30 -3 14 2 -37 26 -20 -29 26 -10 -40 5 6 -50 53 20 -32 -30 -35 -32 -4 -5 -39 31 -7
-25 33 7 -24 32 -10 23 -35 -31 -14 -2 8 -13 29 49 -29 28 39 1 -10 11 49 -41 1 20 26 28 -18 3 -43 32 41 20 -4 -57 -8 7 45 -37 65 -5 -8 -19 26 -26 9 11 5 -21 0 56 -3 -3 48 -2 27 -13 13 -15 -33 34 -11 -45 -10
-34 -28 34 22 -27 -1 -60 20 -59 -16 -49 -16 20 -78 37 -60 -6 0 38 53 58 34 26 0 -14 49 -22 46 39 78 -14 -31 6 50 42 40 0 -78 -19 10 24 -14 -41 -12 28 27 25 -13 35 8 28 -18 -12 2 -26 0 -24 -39 2 -102 -18 -33 39 -6
9 2 9 0 9 16 -23 -5 -1 44 -14 10 -61 14 -12 -32 13 -6 20 27 -61 -16 -5 -1 52 40 62 9 0 -52 20 -14 35 2 10 -11 23 28 2 -29 -17 13 -32 -60 -20 39 6 34 -22 -2 12 -13 -37 14 7 -16 30 37 16 17 -22 27 -27 50
41 -48 21 25 26 6 2 1 -4 -9 10 46 -21 2 -35 -7 -24 -2 -19 26 -5 -29 11 31 -35 4 56 -29 -75 29 -21 -21 44 -42 19 -40 -15 -21 -2 -11 22 16 21 -23 -1 -1 -5 -51 -17 -23 18 30 -17 0 -19 29 -49 2 -11 40 37 -1 -31 -30
-42 26 -22 28 3 -15 34 -48 -21 -7 -26 26 -50 108 -37 -46 -4 31 3 18 -7 10 -31 38 14 5 2 -19 -51 27 -3 -43 -10 -25 -4 -12 29 19 7 -5 10 84 -57 -23 -12 -31 62 19 15 -53 8 -20 -12 -80 8 26 15 -27 15 2 29 13 -3 9
53 21 -26 4 -45 31 -3 -7 -4 43 28 5 18 15 -38 10 -69 46 37 19 30 -28 6 33 27 2 55 -37 -71 -28 1 -45 -66 1 25 9 -36 -4 25 4 -17 -34 -56 -36 17 7 43 -13 16 -10 51 -16 -68 37 52 -37 34 -71 -3 -38 75 36 -43 -15
27 -24 2 10 8 44 78 -19 26 -13 39 -50 -42 102 -26 36 6 40 -10 17 -55 37 23 -20 5 -38 55 -58 -52 -70 -36 8 2 -45 -43 -36 -13 37 -29 36 -4 3 11 2 19 56 29 34 -33 45 1 9 13 -87 28 25 11 -1 25 51 26 20 -37 -1
26 12 17 -89 9 22 9 8 5 24 -5 -100 4 40 -29 -3 34 11 17 -26 -24 49 27 10 33 -24 -3 -23 -60 -42 22 44 -6 -27 -15 -6 11 34 -28 19 -35 -11 -2 20 10 34 -52 24 -7 -19 -42 -24 -23 -8 22 -33 1 37 25 -35 17 14 24 -1
13 -15 29 -13 14 24 -1 -20 -29 40 17 -79 -28 -23 15 -38 8 -4 -11 -47 -38 51 -38 25 21 21 -16 -28 21 -45 14 22 12 -23 27 -19 -2 42 -54 50 10 -18 29 -16 -40 29 2 11 15 3 -3 -13 43 57 29 -51 11 43 -40 -13 -18 29 -5 22
16 -2 -14 29 -60 38 16 -31 3 31 11 -25 8 -54 2 13 -21 -5 32 -21 -2 -10 -26 -42 -5 -46 -13 -27 -5 -2 29 -27 -11 -20 -16 0 -3 0 -2 -5 3 -40 20 10 9 5 20 -7 29 6 -11 43 17 25 22 10 -38 39 -5 0 -24 -2 1 6
9 12 -8 8 24 -12 36 18 36 24 -14 21 28 37 55 10 -30 1 41 8 -2 1 14 36 18 25 52 5 -18 -82 -29 -60 -37 -25 8 -42 19 51 48 0 -28 21 -49 -30 -15 61 11 18 24 -4 11 52 -40 2 13 -8 -47 -10 -44 6 91 26 11 -44
-22 -12 -7 92 -1 -7 0 19 28 31 -5 79 16 -63 -6 54 -16 -31 14 -13 -17 -49 -48 -7 -11 -34 -12 -18 -25 -40 17 -31 57 -16 16 2 -23 -23 22 -2 -18 38 22 -24 -11 6 -6 -16 -57 19 -70 51 -26 47 7 -35 -19 -45 -14 18 24 -6 8 -8
10 59 -13 -35 -3 12 -36 18 0 13 47 -26 9 77 0 -13 -28 39 16 9 -44 24 2 23 51 30 50 17 -6 -7 27 -16 33 -23 -24 38 -2 38 20 29 20 -13 -5 -70 -36 8 38 -11 25 4 17 -55 -18 12 -37 9 28 -18 -22 17 -27 3 17 -22
-35 -33 31 -25 29 -6 41 -14 -8 30 28 0 -5 -19 -13 7 32 -34 -46 -30 17 -45 7 -5 -12 66 43 37 20 -17 32 35 -5 -33 8 -26 -8 4 5 -14 9 -5 10 -11 17 52 -26 6 -12 -31 -30 59 -36 9 11 -43 -22 0 -19 1 9 34 19 44
10 22 7 -37 -6 12 15 -40 -26 -17 16 -70 52 -4 -18 -24 33 40 21 -16 -7 10 -13 26 -43 -44 6 9 22 1 -7 4 25 19 23 -44 -3 0 -21 -6 35 8 27 31 -13 8 -25 26 1 45 -35 0 22 -38 -7 52 4 38 -28 2 -43 30 -11 -6
34 -16 14 -2 15 28 8 55 28 -24 37 19 3 -13 -13 -24 -13 -13 6 12 33 -53 42 -24 -51 -35 -48 -14 -14 -4 -6 13 34 35 14 19 14 3 22 0 -39 -12 41 2 -9 -57 30 15 39 6 8 -57 -1 16 6 12 19 -38 3 -44 -38 12 19 11
9 36 29 -9 -35 -7 22 2 -31 46 27 -11 30 -4 -47 16 -17 -13 9 40 36 13 -46 19 -13 1 28 41 -46 -7 34 -27 -43 -17 -13 -28 -3 -13 -15 1 2 44 -14 -36 25 -7 30 22 -22 48 15 -52 3 -29 -12 18 27 21 -41 38 0 14 30 -11
-44 5 42 30 -11 -27 23 53 -64 -44 22 -16 -2 14 32 24 9 27 -1 -1 1 22 45 -27 -23 19 -31 -17 17 29 -37 13 43 39 -74 68 -16 -51 16 41 30 12 16 -3 -5 58 19 29 -20 1 -18 -13 -21 38 -18 -18 -38 24 0 -29 -14 -39 53 17
69 -17 34 -19 -18 9 -21 55 -17 -9 4 24 32 12 -6 39 -48 -16 39 20 -23 -20 14 -6 4 62 -9 -27 22 -7 23 -8 -43 50 -40 4 12 -8 4 15 19 -21 -29 -15 -67 -14 -36 -65 -25 38 49 -41 -3 15 8 -11 -23 29 14 -65 -43 -18 -21 2
-19 -7 -14 -14 -14 2 -26 -33 47 -26 22 58 28 29 -46 19 24 26 -3 16 -21 9 -4 43 1 6 20 -6 -8 28 19 -38 6 -2 27 -36 -4 22 -10 -50 41 -29 -29 50 23 -78 -20 -1 -32 -17 -27 -38 66 -39 -9 -37 -11 36 -38 19 -27 -9 7 17
-15 -7 22 -3 -14 0 25 9 11 -23 -60 15 -10 51 33 22 5 7 -7 38 5 -12 -4 -17 59 6 -35 -40 -22 -9 -19 1 4 -2 -54 6 30 -18 -17 -24 2 8 39 7 2 35 -5 14 -33 -8 23 5 -19 -32 19 35 -59 -1 2 -72 2 -13 15 -6
30 16 -31 -3 -48 75 -7 47 -2 60 64 12 -8 -9 -4 -4 -28 38 15 6 -39 -50 9 -42 46 -6 55 -18 -36 -29 34 23 -7 -50 17 -61 -6 34 42 29 -71 -27 -13 -41 10 -38 32 -22 -38 31 9 29 -33 -8 42 -40 34 -26 18 22 -30 -13 -17 -10
-6 -15 5 9 -42 33 3 31 37 -18 23 60 29 8 -30 40 -22 -20 -2 57 -33 -6 -20 26 -24 -21 49 10 19 25 32 -9 7 4 6 13 18 -42 -30 -28 -47 31 22 -38 13 -83 32 -5 -58 20 -1 29 -35 9 29 -45 78 12 -45 2 -18 59 17 -43
-45 -38 24 -6 53 -65 19 -21 -15 9 -31 -42 -51 -30 -5 24 -26 29 4 -22 -1 31 -20 13 21 -18 -17 53 26 12 -20 -22 -24 -1 38 40 -12 -31 9 1 0 -19 -9 43 19 21 -37 -4 -12 23 18 -6 52 -6 22 13 -20 -27 28 -4 31 -32 -17 13
0 -1 2 4 8 34 12 114 -17 6 19 -11 -38 -35 7 4 -49 24 23 39 -35 8 16 -1 -17 -32 28 -1 -23 -22 35 -4 -31 23 -16 58 28 -2 -39 29 -10 -38 15 -41 37 -5 -29 -20 40 -39 67 -8 6 25 -8 -9 -46 33 -20 -60 -31 -21 -30 48
12 -3 -36 22 46 28 29 4 -7 -15 27 -37 -45 -19 -20 -28 -3 -8 -47 -28 -11 -31 -21 -66 -50 -60 -34 23 -63 -21 -21 -14 19 -31 -18 -9 -15 40 30 -6 7 -7 13 -32 3 72 -16 19 -33 -8 -26 28 35 8 30 -8 2 20 35 36 -24 34 -28 11
-18 -59 -38 35 44 -19 22 -33 58 33 13 -11 -18 15 19 30 27 -32 -64 -11 -23 -20 -33 -58 18 38 26 -27 -43 11 -25 -3 27 -9 -29 13 14 38 15 -10 -17 -45 45 -13 -29 105 -57 30 -13 4 -65 39 10 -14 72 10 -29 -47 32 -18 21 49 37 2
45 29 33 40 -61 42 23 26 35 -6 18 0 21 38 11 -39 25 19 41 30 -11 -46 -10 -16 35 34 30 50 -42 -1 6 0 16 -43 53 -5 0 12 74 8 3 1 39 -54 15 45 53 44 -27 -47 -36 43 -28 37 45 40 35 -14 -13 21 31 -1 -23 31
20 -2 -26 1 6 30 17 2 -36 -68 24 -15 -21 -1 -26 17 -4 5 21 17 31 46 -25 -18 -1 3 -55 10 -63 64 1 24 30 -11 25 26 1 21 -10 -58 28 -48 33 57 14 1 14 25 -20 -50 -53 24 5 22 20 37 -37 -30 36 19 -8 -21 19 16
-77 0 26 -18 -8 -22 -36 -34 11 -18 -51 42 14 -37 46 8 44 9 -7 -24 2 59 31 4 -35 41 -59 -35 77 43 -13 -42 -27 56 -23 61 13 26 -37 7 5 17 -34 3 -43 -18 -14 14 -10 23 56 -5 33 -40 -25 -18 -22 -14 -22 -37 13 -34 -4 5
-17 48 -37 -46 -31 13 -12 13 -4 32 -67 -58 9 28 40 -4 -16 37 -4 -44 11 -17 -1 -26 10 1 -33 -6 -3 3 -40 9 2 13 -19 23 -18 -1 32 21 3 6 -24 31 -28 -3 -40 -6 -24 -19 11 -65 38 -2 -9 6 55 25 -38 -19 38 19 -31 -21
-31 18 29 7 -13 23 -33 -7 -35 30 12 -20 -47 40 9 -13 1 37 32 16 35 -20 -18 -32 -33 -22 -30 23 -19 48 23 15 24 -37 10 9 -24 -4 -42 18 -3 36 -30 -18 -9 46 12 38 -6 -35 -6 -55 1 8 -68 -17 35 -13 28 40 3 4 -17 -12