33 3 12 17 -38 -14 51 0 -53 18 27 -1 -14 0 -2 -29 -41 8 -9 -5 49 4 -10 0 -22 -46 -22 -3 31 12 -4 20 34 11 32 -28 11 -38 -17 21 25 -17 10 -1 -29 18 -18 13 9 1 13 10 23 18 5 -7 21 4 24 -18 5 37 -2 9
16 -2 9 -1 -8 25 13 22 15 -17 4 -39 -26 23 -5 5 39 -39 11 -5 -31 1 2 69 -5 0 -17 -10 -40 -4 -14 -30 -33 51 -94 -35 -13 -40 2 22 -27 -20 -65 7 -19 -27 47 13 -43 3 -46 -30 -26 -86 -5 41 23 20 18 -70 26 14 -1 -11
-3 -6 29 17 -45 33 -6 4 -34 2 -20 14 -18 -19 20 -40 48 6 -58 49 -6 44 35 41 -56 33 -27 -8 -13 -83 -6 -52 37 -58 7 11 35 31 10 -2 -10 -19 37 20 35 22 -15 -29 19 -22 7 15 25 22 19 -10 13 54 14 30 -40 -46 17 11
24 -2 -12 13 -56 19 -7 35 -25 12 -69 -7 -15 19 53 26 -74 41 4 44 4 30 -40 -81 46 -7 -19 -33 -10 -26 53 56 19 -21 -4 -16 -13 -37 -16 34 26 4 30 -25 24 -7 27 4 5 53 66 38 41 -30 -8 31 11 -91 -7 -21 -13 52 1 -4
0 28 4 -52 22 -40 -38 -6 -15 49 17 16 3 -37 53 -3 -13 -10 9 -5 10 27 -43 48 -9 -58 -14 16 39 -23 -30 -16 -7 -4 20 -42 33 12 -37 10 26 -12 -33 -46 -4 -14 0 -11 0 -37 45 66 14 20 -20 15 7 -3 -19 -3 0 53 -16 -43
-30 8 -36 -27 -2 13 13 5 32 -8 26 -23 -21 -17 8 7 16 -47 -18 -10 14 -6 13 15 -43 22 8 25 -19 -26 8 10 30 5 -38 -47 -10 -23 -7 -16 6 -21 -13 -32 -3 -21 -25 -5 8 22 8 33 42 -21 -7 -17 -10 -35 11 20 12 -4 17 15
16 -37 -9 -18 -11 44 39 -1 46 -8 30 -26 -33 2 -27 -4 -18 9 -4 38 26 49 -9 11 9 -38 -12 -26 7 -58 0 -15 4 55 7 -2 2 15 -31 -22 18 -24 -6 13 -37 -1 23 -22 43 -73 -15 4 -51 -6 33 -32 -21 38 -25 11 31 -34 16 25
-3 26 8 -6 -36 -45 -21 -22 -14 36 -35 -11 -15 -2 30 -6 5 -18 17 -3 -13 3 -17 18 7 8 5 -15 8 6 -16 2 23 -24 -24 13 9 -53 -5 14 -20 3 -19 -2 -27 -7 33 -35 -8 6 2 47 4 29 20 -29 3 15 35 10 15 4 -25 -9
19 14 1 37 22 39 0 -6 -2 -24 -27 25 -37 33 5 15 -1 17 -4 5 16 -6 -14 -8 10 4 8 11 -31 6 -22 29 -23 74 -6 38 43 35 -23 -17 -15 4 40 -31 10 -45 -29 -5 -49 3 5 -49 -21 18 -23 -23 32 69 82 -4 -28 -5 -39 -20
-68 -4 15 -9 28 25 39 14 60 -47 46 18 26 -20 -29 31 34 15 -61 26 -31 46 -21 44 -13 1 -69 4 -24 -85 26 26 -19 -11 -11 -23 -36 -57 -9 58 17 14 -53 5 -9 2 26 18 40 -5 -12 24 -38 4 4 -3 -11 -47 -34 -14 -58 8 26 10
42 52 25 37 -34 20 33 54 41 -3 12 -55 -8 12 64 35 71 -47 7 -56 -29 0 -6 16 -48 -18 -8 -16 22 68 -64 -56 34 -9 11 12 -10 -31 9 -30 11 36 22 39 -55 -11 -17 -50 -47 6 -12 -38 36 17 -50 -12 -20 7 29 41 -14 29 60 6
6 -30 -7 -33 -17 -12 -10 11 18 -4 -40 -30 4 10 19 38 -24 5 43 -5 -45 -18 13 -45 28 -13 -44 -1 16 27 -25 4 18 -16 26 -22 -1 -53 51 40 24 16 -45 -11 -45 7 33 -28 11 37 -17 -27 6 -16 -19 -6 -9 20 -30 8 7 -29 14 -26
23 19 32 40 24 19 58 -4 20 -19 12 13 -8 -23 -13 2 25 14 22 -29 12 -21 29 -50 7 -15 4 24 -12 48 -10 -20 34 -40 24 34 -7 18 12 38 37 53 -34 6 4 24 -14 -28 -6 11 33 -3 31 -39 -49 12 42 -7 -46 -57 -27 19 29 -22
14 18 18 28 -23 3 -6 37 48 -7 -8 3 -15 5 1 -27 39 -17 -4 0 -27 10 -11 53 -11 -50 -35 -6 -4 -25 -54 1 -16 5 -33 12 -29 1 -37 -18 -32 41 -42 -11 -43 -26 35 -5 32 -27 -16 45 3 -26 -16 13 -61 -34 -43 -3 -18 42 -4 -16
13 -18 -46 -66 -12 -71 -62 3 -45 50 -54 3 -12 5 -35 9 12 -19 6 -43 -5 -39 12 -14 -7 47 26 31 -21 78 14 20 12 50 61 12 54 35 -29 0 -24 -41 -3 -54 69 12 3 -15 -13 1 -21 -21 6 30 10 -47 66 54 38 27 39 -61 -3 20
-11 -42 -1 -26 -3 8 -18 2 -28 15 27 0 40 -31 -43 -10 1 34 4 -15 9 12 47 -20 -31 22 -21 17 -21 -18 61 -39 3 51 -11 -47 -3 3 -26 -8 -18 -33 -31 -59 12 -18 0 11 31 7 -4 9 10 13 11 5 -60 -22 -3 12 12 -18 16 46
-30 0 42 -24 76 -41 -3 -14 -26 23 53 -5 24 16 -64 -18 36 -14 7 -15 11 33 28 22 -3 15 2 40 -1 22 -22 -26 -19 57 -35 -4 0 17 -87 -8 2 -4 -14 3 -13 -2 -6 21 -16 -13 27 22 26 -36 -26 26 -40 -28 2 -19 16 57 13 22
11 0 21 -13 -30 -30 -27 22 28 65 -45 -24 16 -27 21 -5 59 -10 19 -36 -67 -58 14 -15 10 31 -11 25 32 49 -50 -22 -17 3 -24 -1 14 18 -24 -2 1 29 44 -12 10 -12 -1 -38 -2 56 -34 2 18 -50 -26 25 8 52 34 -12 -5 -36 -18 -13
-34 -27 -2 -11 -3 27 17 23 32 16 29 16 12 -37 2 2 35 -40 6 3 6 -6 -11 25 21 -25 -5 -17 62 5 -8 -25 50 -69 20 -26 34 -28 26 29 -2 -10 60 5 -36 22 -13 -31 -14 62 -29 18 69 26 -19 -20 -25 -4 -2 79 16 -14 28 40
54 -12 12 -31 13 -46 -35 -12 23 20 -27 -14 -14 25 -7 -5 46 4 31 -36 23 17 27 -22 -24 5 49 24 5 58 -3 2 4 -19 20 2 43 4 8 -28 8 -13 24 42 -8 12 19 -9 23 -9 -23 -5 -15 32 5 -19 13 51 15 41 38 -54 -19 24
-60 11 -36 -39 16 -26 -36 -29 22 16 14 12 19 41 -5 37 -39 24 61 -20 43 -6 -56 -52 30 -42 19 27 54 34 -3 -2 -54 4 -9 36 -68 -17 -21 -18 -15 13 -34 12 52 15 39 63 -24 -30 2 -14 18 -2 15 -25 -1 16 35 34 2 16 -25 -25
39 7 28 32 35 10 2 4 35 3 36 17 2 -40 -24 -13 50 15 55 -29 -23 11 53 -20 -4 28 -8 13 -33 44 3 -20 -32 8 37 3 -16 28 -7 -1 -17 10 9 48 -16 8 -12 14 16 -19 9 -16 -21 -8 -53 19 10 12 -6 -30 -16 30 6 31
-43 -2 -24 6 -29 45 54 -4 25 -15 54 43 9 -48 -11 -16 -6 -8 5 10 -20 -27 26 3 -15 15 8 -6 -32 -34 -9 -30 13 -49 23 44 36 -15 75 -7 14 10 14 31 2 15 -1 -13 23 -40 -3 14 -27 28 23 -10 0 -23 10 -27 7 -26 -23 -1
4 -23 4 -14 9 15 -38 20 -24 30 -73 10 -17 30 14 35 -15 -16 -27 -12 -9 16 2 21 -24 5 -18 -24 10 -52 -22 -31 17 -10 20 -20 -39 -8 -16 -15 15 28 -14 80 -20 -2 -8 7 -23 16 38 -26 35 -14 -34 -1 -11 40 71 17 -6 -35 34 -5
23 -31 -30 -44 -25 -31 -19 46 -25 4 -7 -4 -32 2 48 -19 -44 34 -17 39 -4 18 -24 -12 34 11 2 5 23 10 19 -22 19 -28 15 -4 42 -9 -14 -18 1 29 26 19 -16 -4 -29 3 15 59 -16 -4 -21 37 28 -29 -22 19 -45 60 -7 -36 -16 26
24 -21 -10 -36 1 -8 23 -24 -34 4 -38 15 -14 -3 45 -13 -26 27 9 34 -37 -70 -32 -58 27 11 8 -14 44 1 9 30 -44 38 6 -19 31 -34 1 27 7 -9 -42 11 18 -12 45 68 29 12 37 21 -24 -28 -21 -11 2 -7 -8 -51 -4 5 -16 -3
19 -22 16 -21 46 25 19 -19 24 -6 13 44 -9 -24 -53 7 41 -64 10 -53 27 29 30 64 -21 -4 -13 37 18 15 -35 -56 44 7 7 -26 -28 2 -80 -11 -33 23 35 24 -35 -41 -47 -27 -4 38 0 -29 -7 19 5 -9 19 -16 -39 24 5 36 31 36
-39 20 -3 25 -36 44 13 19 14 -11 1 4 -16 19 30 -13 -6 -9 -8 -25 -32 -16 -19 -7 17 28 19 -19 13 24 -6 -39 -10 -30 -19 39 61 32 79 -17 -31 -36 50 15 22 -32 -8 -7 25 51 12 -3 -13 -6 -10 27 -27 -25 -26 -1 15 25 22 42
-40 11 38 -22 10 -21 -28 0 -13 4 28 -24 -4 16 4 -45 37 -16 -13 19 12 16 27 39 6 -8 15 11 -12 37 5 11 -6 15 -12 -2 29 56 -3 -7 -6 -23 22 -20 -7 -18 -28 -5 -28 -23 8 -10 -19 51 0 -13 0 15 6 12 -20 -56 2 8
2 -6 38 -34 -33 8 -9 -4 -1 -8 -19 -32 -18 13 -12 28 -20 55 30 -9 -49 -30 -6 -47 14 21 -16 8 -27 6 -6 37 17 23 19 22 -18 -7 56 22 40 -3 -6 -53 -24 -9 24 -6 -24 77 -46 13 17 -24 -30 35 -7 29 22 9 40 -40 25 -3
-32 -6 23 44 11 -24 -25 -27 -28 -53 -30 -7 -24 38 15 -48 -50 25 -19 58 -31 14 8 -14 43 -34 -8 -12 21 -22 -4 45 -54 -3 6 19 5 24 15 -11 -16 -45 0 2 22 14 19 -11 15 -39 19 -18 -12 35 60 29 -41 -1 -26 -19 -8 -3 -5 -25
43 -1 47 14 20 22 -4 8 27 -33 -11 20 -25 -29 2 -10 24 -24 12 -19 -1 14 27 -5 4 -18 36 14 31 27 -46 -46 -42 35 -18 15 40 78 8 17 13 10 23 22 0 21 -3 24 -27 20 -9 37 21 -69 -42 39 -7 30 36 -74 -6 1 -30 -22
-73 48 47 16 33 -32 -68 -30 -16 -41 35 -54 27 38 -5 -51 24 -3 -25 -13 15 15 39 59 3 4 -12 34 -36 37 -31 31 10 23 -40 -20 -24 37 4 -22 -28 -16 32 -19 -1 -24 -41 -16 33 -44 -31 -7 1 -20 -37 13 -4 -12 -25 -12 11 43 29 6
-18 -19 -15 32 -28 6 22 -19 12 -31 -17 -9 -16 6 -67 11 -21 -20 -13 26 -12 -7 -47 -26 5 -16 -5 -52 48 -32 7 21 -10 -39 29 -8 -22 9 32 -21 -6 -20 62 40 22 21 -18 18 -10 -15 -38 -12 29 10 -14 1 -23 19 33 13 30 -4 18 13
3 55 25 6 -11 8 -10 -8 8 -57 -16 -3 14 17 15 29 -31 0 35 2 -18 7 -64 -46 57 20 21 4 65 5 -12 -1 4 -45 8 -3 -37 -26 -21 -38 22 22 0 42 -6 11 13 -3 3 -24 39 20 -18 23 -18 -14 22 17 -13 -21 14 -7 -47 4
-18 11 2 -20 -15 41 15 41 32 -18 7 24 21 -34 67 -13 -8 15 -1 27 21 7 25 -4 7 24 33 17 56 -3 -11 -40 33 -48 8 8 32 -11 61 23 6 7 10 26 12 5 13 3 -6 11 40 17 -5 -8 -4 -6 -4 -23 1 12 -20 7 -14 -6
-56 3 -32 21 -9 -37 -38 -87 -34 -19 -43 25 20 10 12 -1 -11 21 42 -29 -13 -49 15 -37 21 3 -1 11 -12 28 47 51 51 5 -12 1 -25 22 41 -9 39 9 17 5 39 -28 -8 -9 -31 40 -19 -13 52 -49 1 -2 -21 55 55 14 70 19 -12 41
-3 -13 -13 42 -5 1 28 -22 5 4 -19 -17 19 36 7 -40 17 -9 23 -18 -26 -2 -1 37 -7 -19 -19 24 -39 48 -2 23 14 74 -25 30 -5 23 16 1 22 -23 5 -25 -41 -5 4 -5 -34 -6 21 4 -34 -34 7 -15 5 25 -2 -32 -13 -6 -28 12
1 36 15 -27 -16 -33 -20 43 -9 17 28 -87 -26 17 59 -2 41 -26 -3 13 16 -31 -11 23 -20 -14 -18 28 33 40 -43 42 18 2 -7 -3 -1 -50 7 12 51 6 2 13 -10 -3 8 -32 -2 -26 -24 -24 -16 23 8 -33 -26 26 34 39 -18 -12 -19 -21
9 -7 6 0 20 -2 13 10 2 -2 -26 17 -47 0 6 -4 -54 -6 -47 16 -16 8 28 34 16 -41 -36 -33 -42 -88 1 39 7 7 21 -1 38 12 40 28 -18 37 6 -29 -15 -28 42 -9 -7 -40 29 4 17 8 -22 -20 34 -8 38 -7 -2 -7 -39 -19
32 -56 -20 -6 -26 19 14 41 -8 -3 -16 2 -16 6 -3 -16 54 -39 -16 4 -4 21 35 -35 1 36 -12 -13 -45 -31 31 -1 22 -4 -15 -21 -22 34 -29 24 2 19 29 21 -47 31 -37 -3 -8 23 -28 -25 35 -14 7 1 7 14 28 -2 19 -17 -10 0
-6 6 -12 34 -25 4 15 -21 -62 16 12 -13 27 37 1 -40 3 30 32 42 9 -25 28 -11 0 42 6 9 -47 38 17 17 -40 43 -30 21 -68 -5 -39 -66 -23 29 -65 1 32 2 2 25 34 -48 -32 -6 -26 8 -13 -7 -1 20 -29 -7 -4 -2 13 16
30 -20 -7 -11 16 -39 33 28 28 -13 -25 -23 17 -3 -29 46 4 1 -10 -21 3 27 0 -9 22 -7 -32 40 -13 -9 45 61 48 55 -35 -26 -13 -8 -39 13 10 -19 -13 -41 -6 -10 -31 43 -11 38 21 -21 49 1 -34 -17 48 -2 50 42 28 36 16 -2
-26 -55 5 -20 1 3 11 -12 -16 47 33 13 -11 -26 1 -28 -13 12 -3 21 -15 -24 -10 -29 18 -4 21 -16 -17 29 25 5 2 8 10 0 -27 -34 51 23 43 -4 -40 5 40 39 1 -10 39 -1 3 -9 -7 10 24 -13 7 -9 -28 54 11 3 36 32
-24 50 3 8 -17 29 -14 50 23 -24 -14 -6 7 29 -10 54 -3 19 28 -33 43 6 -17 1 48 -27 -8 16 -3 -41 -28 -7 26 -39 30 -30 -16 -49 57 32 14 30 10 -7 14 -29 42 -22 -19 -13 24 -60 6 18 -50 13 -5 39 64 -5 -19 15 26 -27
-10 30 11 -19 19 21 -23 -46 9 -3 19 39 29 8 56 -56 -1 26 -39 64 -1 -6 -13 -14 19 31 -11 -20 2 -34 -2 23 -31 -23 13 14 46 20 14 -5 -50 -10 -3 25 -19 0 -20 40 -5 5 41 18 30 43 -23 -54 1 10 -11 14 18 -22 0 7
-1 8 1 -10 14 -19 -45 -6 13 -15 -13 0 -7 26 -3 -20 10 -13 -40 -9 -10 21 -51 55 16 -28 -17 -27 -7 -30 -6 -2 -6 -14 26 8 6 -8 39 40 -18 13 48 24 -27 -8 17 12 -39 29 12 18 34 -62 -53 14 -1 -29 -25 -5 32 58 17 32
-28 -19 -1 18 29 -20 9 -3 -24 -11 -7 27 34 -6 -42 -29 -51 33 43 0 -14 -18 -33 -32 54 -14 9 -25 45 -7 22 10 -8 8 -29 26 0 41 35 39 47 27 -20 4 34 13 6 2 22 -52 7 -38 -26 29 47 -8 50 -9 2 -39 -52 -27 -51 -31
28 59 0 17 -16 -15 -42 -32 -40 -19 -31 -39 -24 61 6 -26 -42 29 35 77 -15 -9 -29 -48 75 -31 -18 -64 51 0 36 73 -8 -21 17 28 -48 21 77 34 -14 10 -4 41 1 19 1 11 -66 19 17 2 7 6 -22 -23 -22 6 35 -17 22 33 -6 -48
-34 29 2 -40 14 -28 -3 -19 38 -10 16 -5 -29 10 1 28 86 19 -15 5 -95 -27 38 15 28 24 -37 -1 -53 47 7 22 -22 9 -18 29 -22 -26 7 -15 17 -8 -41 -28 0 11 37 19 28 17 19 33 -11 53 49 -25 -1 29 -2 16 -23 -38 15 22
0 -28 9 10 -6 41 19 5 -13 -16 -15 9 32 -5 -6 14 -32 -11 23 45 1 -20 -7 -6 -19 22 13 -17 46 -57 -9 -20 -22 18 -27 9 18 4 -21 -17 -8 0 -37 5 -20 -8 1 31 -1 11 7 -23 -9 31 -5 -35 21 33 34 61 11 -58 -23 27
20 -26 -14 -18 -10 32 -5 10 -17 25 -20 13 30 -24 -37 -12 -7 -2 9 -43 16 20 20 -21 6 4 -25 31 18 21 -6 0 37 -31 10 -12 32 3 44 53 -7 -14 -15 -37 15 -26 -4 -19 2 -17 21 14 -18 14 22 -41 13 15 -41 21 12 -33 7 4
25 13 1 23 -28 -5 26 11 -19 -14 14 13 24 2 0 37 -7 -18 -29 -13 -20 21 28 17 -21 -21 -13 21 -45 5 10 27 -19 -31 8 17 -10 37 1 19 -30 -5 -1 12 19 -3 8 -8 -20 -23 -17 -20 -26 35 -1 -51 21 -1 -10 12 -9 -2 19 17
4 39 1 -19 -1 -1 -8 26 6 -17 -17 -3 1 16 23 8 12 -25 0 -32 67 -8 8 -4 -55 10 42 31 33 4 -7 -35 -1 21 -21 14 69 3 -10 -28 -23 -23 -17 -79 17 -79 26 1 -36 -4 -5 -14 -15 47 -12 57 4 -7 -34 13 22 -4 2 -17
2 10 10 0 -11 15 14 -22 -1 21 -27 -38 16 49 -44 -41 0 41 -11 -8 -17 -24 -24 -42 24 37 9 -26 -13 18 70 33 18 -21 -15 9 -33 -83 13 7 1 -31 -70 -8 27 31 35 0 -27 -45 -10 -13 -15 4 -5 28 -14 -29 -71 -13 7 38 2 38
4 -19 -33 -14 -9 -26 -22 9 32 6 -21 -36 -55 -15 41 19 -31 1 42 -7 65 13 -31 -37 -16 -18 46 -2 3 45 38 -29 3 -32 36 0 1 12 30 19 -14 31 62 21 -2 -16 -15 9 -7 10 -2 13 -26 3 30 11 22 -63 9 -25 -13 -6 -41 -5
35 -63 -4 12 -17 49 72 3 4 -1 21 22 -15 -45 -65 -37 -2 17 7 -39 1 -47 -14 -17 -6 37 55 14 27 64 22 -32 -25 69 -15 -1 -9 -18 -51 -43 -39 23 3 39 -38 18 -41 21 -13 3 34 -19 -34 17 -18 -40 12 -1 -23 -26 -18 11 7 -41
9 -55 15 9 51 -20 -21 -8 9 41 -30 2 -32 -30 -25 13 55 1 -24 27 7 20 12 -8 -58 -3 16 -3 -28 -16 -14 8 -13 -7 -9 35 10 55 6 2 -37 -23 5 -1 17 -10 -24 24 -16 -33 25 64 -23 -45 -28 57 -21 -33 -44 -42 -20 33 24 16
6 -4 14 39 19 9 -9 -43 -23 -54 11 -43 -27 38 -40 -29 26 -22 6 -1 -7 -26 -14 37 -6 -34 -21 -14 18 49 -16 25 -3 32 -16 36 21 -33 9 -28 28 20 -27 0 14 -19 -16 18 4 -65 -11 42 -34 31 -1 17 -37 20 33 -2 -20 7 -21 0
-22 13 23 13 30 2 17 -7 -23 -21 11 43 23 -28 0 1 -9 -28 22 -60 56 -4 -16 24 -21 -41 -4 22 -5 -61 -19 14 10 -34 -10 -18 -49 -48 3 19 3 -9 -40 11 7 6 28 48 -37 -9 38 -13 13 28 20 -9 24 -19 -3 8 4 6 16 9
-14 37 -32 -49 -15 -42 -20 10 -65 0 -48 50 10 27 34 43 -26 -4 -2 15 -18 6 -12 -33 23 -11 -19 16 0 23 8 14 32 26 26 -12 30 -11 10 18 3 16 -13 -32 31 -53 -4 3 -9 -41 15 -18 13 0 3 -42 58 45 51 -24 -13 -26 -24 -17
-18 45 4 -11 8 -40 -46 -22 -39 -28 9 -52 13 49 49 -30 -20 10 22 -4 71 -49 -29 18 39 -50 38 32 -19 54 -19 20 -26 20 -20 41 47 20 10 -36 -26 -10 4 -5 13 4 -18 45 -6 -19 -24 -16 9 -44 -29 10 -18 17 -2 -48 -5 32 4 6
45 -42 0 16 -25 57 43 54 40 -17 -26 23 -44 -18 -8 3 33 -30 -40 -18 43 53 -7 2 -34 -19 14 39 27 8 -22 -91 -40 8 21 18 -42 19 -65 -32 -16 37 -43 7 -7 26 -18 34 38 -23 73 53 -58 3 59 9 56 -10 -64 -22 -32 9 -85 -33
30 -54 4 -8 -9 15 62 43 24 -22 -23 -4 -18 -50 2 22 -13 -6 -37 16 22 12 4 -15 -13 4 -31 -5 -31 -60 -16 -29 32 -7 3 -11 47 20 15 20 3 30 54 -1 -10 -38 -26 -40 39 -16 19 -17 15 28 -19 -3 27 -20 -12 23 -19 -21 -9 34