4 15 22 -5 -23 51 49 -31 -17 31 47 12 -12 -11 -7 16 39 -18 36 -15 9 -7 15 7 34 -18 62 12 -26 -41 -104 1 59 22 17 23 -24 -52 -1 32 -24 33 15 -18 1 5 16 -47 -10 -37 -4 -24 -45 15 40 2 34 -15 -36 -3 -50 -52 -4 -9
0 -23 5 -9 -48 -20 20 -12 1 -69 -3 -2 27 49 3 -6 52 -16 -4 -36 22 36 -8 19 -59 31 39 -68 30 22 -39 37 41 23 38 -14 -78 -56 -8 53 -13 -28 -15 26 42 12 19 24 47 3 0 33 14 -54 4 -7 -10 27 25 -39 37 15 -16 -29
-13 10 33 11 -29 -13 -17 28 -80 -20 20 3 30 -24 27 -30 -11 7 57 -1 -30 -12 3 -17 -11 -24 29 -56 3 -9 -121 31 30 4 -35 -8 -33 9 10 58 11 53 -18 -75 -64 -5 17 -3 -25 24 18 10 18 11 5 45 5 46 -54 -9 -31 -13 63 41
46 10 -14 71 -8 -20 -14 101 -6 -14 21 -17 15 -76 15 30 17 -18 34 24 59 7 28 28 -47 25 35 43 -17 10 -67 21 12 16 -3 8 -30 -48 34 21 -1 13 -46 49 -8 -33 2 -20 41 43 48 -15 34 2 -52 -71 -43 -20 17 14 39 -74 27 39
5 -36 0 -33 15 -31 -8 9 50 -35 16 12 14 25 5 -22 -4 19 -16 8 18 37 -47 -11 -28 15 -39 -24 9 -2 79 -6 5 -27 23 8 30 10 -1 20 -24 -25 43 37 15 56 38 -21 19 31 -33 28 26 -9 -30 -11 -28 45 70 -25 10 22 -54 -8
0 -34 43 -36 -42 -31 -22 19 -12 -38 21 -46 26 28 -5 -3 30 42 29 -15 34 4 -54 -9 32 15 -10 -80 17 -8 -70 16 22 25 12 22 -51 -33 -38 39 2 16 -2 19 -37 -25 4 29 1 -5 38 17 -15 -56 -3 -17 -5 33 6 -13 5 -58 22 -7
-68 51 -33 30 24 9 -18 72 -41 10 -36 -48 0 29 -2 -6 -28 -16 -15 -6 -25 61 13 11 33 -23 51 -4 -1 -11 -16 41 -70 43 -32 -24 -16 7 20 -3 34 8 -59 -65 -51 -12 3 -22 -3 -12 37 17 -14 -56 40 40 50 11 41 -1 31 -12 12 -10
-2 26 35 -17 -41 9 -5 1 -41 0 8 -16 -22 1 33 39 4 20 22 -7 -31 -49 -8 34 20 -2 41 6 -2 16 -34 -1 40 -17 -1 -53 -12 61 11 -15 -41 14 53 -43 -13 5 35 31 26 -23 -22 -22 -6 40 -15 -9 29 32 22 11 1 -34 26 8
-28 20 27 -22 -11 -1 -44 -8 -43 -1 -57 -8 -4 22 -29 11 -22 47 -51 47 22 -18 45 -23 27 -39 37 58 -7 -1 0 8 -21 -67 11 -22 31 71 -13 -26 -2 12 14 -56 22 6 -9 6 -3 -16 -37 -8 -22 -4 -52 -49 8 -19 6 16 15 16 1 31
14 24 11 2 0 -5 49 36 41 -17 -39 -24 65 24 9 -20 18 -38 -10 2 13 25 17 22 54 18 11 -29 28 -6 15 -24 -11 58 -8 14 -26 -73 42 -15 37 -54 15 -35 -35 -40 -13 -25 21 3 -7 5 22 -62 59 30 48 27 30 -2 26 22 -28 -23
-49 3 -12 -18 -30 16 -3 -11 11 -18 -75 6 -5 76 -2 -21 -45 16 36 5 -14 4 -26 13 1 -18 12 -61 -33 0 28 -8 -16 28 25 -14 -10 61 -15 3 14 -22 11 -26 11 47 5 79 -10 -53 21 15 -28 -23 -5 19 -1 -46 57 -23 28 17 7 -32
-7 27 -88 -10 -16 32 1 -68 52 1 10 -19 -28 -17 1 6 -35 -16 -60 28 43 -33 11 11 -9 0 -13 64 -24 1 52 -26 -57 -46 -38 -52 20 37 64 -76 -89 -9 1 30 46 -70 -37 -37 -9 -14 -55 41 -56 49 -17 -6 -15 -87 49 26 39 8 -17 -7
-19 32 -9 24 -14 -25 -10 32 -58 5 -24 24 23 -43 44 -33 13 13 39 -10 -4 -3 -5 6 22 32 12 -37 -25 -23 -87 -15 12 2 17 -12 -11 -31 -7 23 4 46 -26 -16 -36 -11 20 -21 29 -5 0 30 -9 -9 52 -10 41 37 -28 3 22 -73 22 27
48 39 21 -14 6 21 1 3 -29 -5 11 -5 -30 -2 24 15 36 65 11 40 -15 -33 -17 27 21 -47 -4 -7 -8 -30 -73 67 0 -62 -41 -9 52 44 -24 8 -43 6 64 -26 -21 -26 23 19 -33 -6 -32 -57 -73 -9 -26 6 46 43 -70 -10 -15 -63 45 54
54 -2 4 -86 -10 -56 20 -12 31 -89 -94 -10 -4 99 37 10 2 74 -22 -50 -17 58 -51 18 25 12 -39 -85 59 -52 50 34 5 -16 -74 14 23 12 13 -19 -28 -50 44 -22 -36 7 17 16 21 -12 -42 10 -23 -29 31 39 31 29 44 15 -21 30 16 7
-89 10 -11 44 53 18 18 61 -13 70 35 -24 -50 -7 0 -17 -10 -8 -25 0 -12 52 29 2 26 -41 17 54 -26 -9 -24 5 -23 45 63 -33 -6 -15 -29 17 56 11 -66 -63 -9 -42 77 -9 -6 44 46 10 31 -17 0 -37 -1 -29 -21 -22 -21 -55 -6 66
-15 21 35 63 31 -29 4 26 -41 -41 -12 65 43 -30 55 -20 13 -40 -52 45 6 7 30 41 44 38 -34 -43 -35 -19 -1 -15 2 29 9 -11 -53 -40 -77 0 -39 -7 45 49 -70 -45 -23 23 -11 1 -51 -50 -5 68 20 49 -25 51 68 6 -36 6 13 38
36 23 30 16 28 -4 -6 -56 32 -46 54 46 -46 8 45 66 38 -22 26 31 31 -88 -23 3 39 -8 59 -19 -22 -66 -26 23 61 -59 19 39 16 -71 13 -35 -21 37 45 3 36 -25 -50 3 -78 -58 -4 -56 -41 40 -31 22 37 13 -43 21 11 5 -2 -21
48 -66 -55 42 66 -21 -1 71 -5 60 37 21 21 1 -3 -44 26 -30 29 5 -41 -24 -23 -16 42 -43 16 13 64 -18 22 20 -9 24 9 -12 6 -15 84 15 -34 -56 -45 -5 -32 27 28 -17 -14 72 -37 76 43 -48 4 2 -44 -10 4 11 -5 7 -12 48
-2 -26 -14 28 9 -23 30 -64 -22 -18 9 50 127 -7 24 -55 4 -28 37 21 32 -10 -41 64 58 32 46 -20 10 -23 31 -65 -39 61 -35 38 23 -17 -41 -42 15 -9 -8 1 -68 3 -13 -53 18 -11 48 66 -26 18 -12 55 23 6 69 -33 1 -51 -33 14
22 -27 -43 86 26 -9 45 -14 7 -15 15 77 95 -12 34 -75 6 -59 -2 60 39 -20 -33 65 65 14 5 17 -16 -23 45 -50 29 2 -61 20 -1 -59 31 -8 25 -12 -13 80 -58 -69 -20 -5 12 -23 28 60 25 -24 -28 19 78 -38 20 0 -20 -40 -20 3
37 11 -37 -22 9 31 29 10 53 39 32 -26 -60 4 -62 13 -24 -9 -40 20 -11 26 -8 -68 -52 25 36 34 -2 46 22 -11 22 47 -2 -2 36 40 70 -13 38 -19 19 1 45 9 -27 -15 6 47 -53 46 66 -18 -8 -40 -2 -28 -22 -17 -3 -34 31 7
-9 24 13 -26 -31 3 -43 -77 -20 -36 -55 24 -41 -7 -16 36 7 -10 -63 -13 -14 -43 20 30 -37 16 -50 -20 -30 -13 -26 70 41 -71 24 -12 24 27 10 16 -39 11 3 -29 42 -21 -4 23 10 -1 -35 -24 -5 -8 5 11 -26 39 -34 24 54 67 -7 -33
-58 -3 36 8 30 -18 -12 0 -24 -36 -52 -6 33 -48 -3 26 25 4 -97 -20 67 -2 41 85 -41 34 -53 -22 -20 33 27 29 8 11 -17 13 3 -11 -104 -5 -13 6 54 1 28 -16 -33 -30 12 -31 8 -7 -22 57 8 -9 29 13 -3 35 23 2 -18 -21
13 21 10 -52 9 48 -41 19 -25 36 30 10 -111 -16 27 19 29 61 8 -77 -27 -1 -9 -22 1 18 18 -30 -37 -1 -28 -9 8 6 53 -74 31 17 7 46 -80 -1 -31 -18 42 9 -17 38 -18 -34 -12 -1 -45 2 25 2 23 30 -24 -34 9 -17 37 -23
18 -29 10 32 19 25 -22 80 -46 43 12 59 36 28 -2 -49 -6 -1 9 -18 15 23 9 11 -43 -32 27 -1 -6 34 31 18 -50 84 12 26 -28 -25 -9 40 78 -7 -19 10 -52 -26 47 -9 7 80 59 23 -2 -19 50 -21 9 11 -15 -32 4 -30 -19 56
1 16 10 -38 -2 15 -37 -65 17 12 -3 10 42 16 -29 8 49 -42 -49 -10 -13 -55 22 63 17 17 -31 -9 21 -36 30 -4 44 -24 -52 41 24 -40 -12 -71 -59 -19 -10 -27 1 -46 -12 2 -24 -21 -68 -48 32 -30 -24 74 -17 40 39 20 27 40 -19 -25
-80 15 26 27 7 -46 13 15 -71 55 -63 -22 124 12 -22 -17 16 -24 -22 -31 40 54 -22 36 2 44 -43 -51 83 45 -28 -41 -8 50 -94 46 5 67 -49 0 36 -3 15 19 -54 -19 -21 11 28 70 2 -7 57 -54 23 0 -47 13 51 21 31 -29 -43 -1
64 49 -25 12 -1 21 -12 -79 27 -17 43 -54 1 -8 -24 -12 -33 34 -7 46 5 -65 9 -34 -1 4 -21 18 -4 -1 38 -64 -20 2 67 -35 50 -43 7 -38 -71 30 27 -2 37 41 -65 66 -78 -72 -18 29 -51 57 -3 57 63 -50 -39 -3 -44 -35 -4 25
-47 18 21 29 56 -67 -5 79 -24 32 3 29 6 -58 50 38 -5 -52 -38 50 7 45 61 -33 -11 11 -35 10 50 20 5 37 17 19 11 66 -41 -47 -49 -22 45 31 -41 54 -7 -30 -22 -13 17 72 27 -5 30 10 -5 -72 -5 33 59 -7 -14 -10 -1 -2
64 0 -26 -32 -47 40 21 -47 41 4 22 -8 -10 14 5 -7 -52 73 25 -37 -28 -30 -55 11 -26 -26 2 -24 -35 -9 -5 -54 -30 -36 36 -50 18 10 -39 12 -22 36 16 -23 48 82 -2 35 -23 -8 13 27 -31 36 10 55 40 -24 -6 24 54 -55 25 15
67 -36 -23 12 31 -12 -58 50 2 89 9 62 1 -7 -33 -29 14 -26 3 -40 -9 5 -33 26 -20 -51 -12 -6 33 25 17 -18 -48 30 18 -15 -33 35 79 6 -5 -38 -33 -20 -55 21 42 -12 66 35 26 39 64 -44 29 -20 -12 -40 -6 0 -18 20 23 6
5 -1 11 -36 -10 -69 34 2 -1 -38 5 -57 2 7 27 -13 14 72 97 3 -9 15 -29 -13 18 -2 -1 -17 -9 -55 -38 -33 35 -46 3 -37 32 29 24 -7 -18 -12 24 -34 -1 -16 -8 -6 6 -29 -14 -4 -29 24 -4 -16 19 44 -41 42 -18 -34 12 61
-13 -2 -23 29 -15 -4 -20 15 -17 13 -46 9 22 -49 -40 25 28 -36 -28 1 27 -5 51 10 -14 14 13 37 -17 -8 -34 32 -37 24 57 10 -57 -42 21 -40 63 8 -34 -17 37 -49 23 2 10 7 46 41 -26 -10 39 6 -3 -25 31 -72 4 -13 23 -16
-52 -24 44 -6 -5 -35 30 -10 -30 41 26 29 4 -17 41 -6 -17 -39 -25 45 -13 13 -11 -49 -31 -45 13 54 39 -13 37 85 6 -39 -65 10 -6 13 -37 14 24 -30 28 -30 -35 -33 -12 1 -32 12 26 -11 -4 22 -62 26 -8 0 -12 5 -34 -31 2 32
32 -48 -41 -9 4 -19 -4 -60 41 48 -47 39 34 -43 -27 -16 21 -59 11 5 72 -19 -71 20 3 12 -16 -16 -9 5 58 -51 -4 -22 -37 26 109 0 -7 -30 -8 -46 10 43 23 9 -38 -46 10 17 -26 10 75 -7 5 18 -27 -53 75 -6 66 30 -108 -26
62 3 2 -44 8 -22 -25 10 21 -32 29 -46 -26 75 -18 5 -33 86 80 -39 12 -45 1 17 -41 36 -45 -38 -8 -55 -65 -22 22 -42 -11 -26 -18 81 12 7 -78 24 35 -21 -63 72 -5 24 40 22 -1 -50 12 -3 24 -12 17 83 -9 72 4 10 8 -9
-5 -17 54 -68 15 -47 1 15 27 -45 -9 -97 -12 19 31 44 -4 1 20 7 1 18 -27 -19 -43 -30 -9 14 -4 16 29 -3 81 -41 -47 -28 21 42 -15 57 -10 -6 12 24 13 35 -41 -4 -18 -11 -13 -18 12 -3 -48 11 -11 26 -49 29 -20 -18 4 4
70 -1 -49 24 34 80 43 -19 -26 -30 -15 -62 -63 -16 -35 -8 -26 -20 5 -18 -3 -34 -5 -1 -13 -12 92 37 -43 -9 -24 -9 -35 16 28 46 14 -24 69 -66 -4 30 4 12 42 -6 11 20 -57 -26 23 -18 -65 83 32 -27 -7 -48 37 -48 30 28 -8 35
18 44 -80 61 23 46 -10 -8 -10 17 0 54 -16 -52 -48 3 -13 -49 -43 21 30 -33 73 -33 88 -11 47 39 -41 19 20 54 -35 18 23 24 29 -41 18 -39 38 -22 -9 4 97 -46 3 7 -37 1 36 34 -54 1 55 -13 -11 -102 53 -87 5 -32 -47 -40
60 -10 15 20 28 -4 -18 -9 27 40 5 60 13 -38 14 -30 -11 -35 -22 92 9 -12 -5 -30 -20 -24 26 43 14 34 19 31 -48 31 -6 15 -21 33 -12 15 -13 -56 -27 26 -78 -23 14 9 1 50 3 -28 1 -14 -11 7 6 34 23 36 50 -6 -35 -9
7 -1 -54 59 45 28 -29 27 6 67 -4 29 17 -11 -16 -32 -22 -6 -45 13 27 -5 21 -2 27 9 17 45 -44 24 4 18 -70 64 12 18 -30 -45 -2 -51 50 17 -31 -7 66 -51 -24 10 -5 -7 44 28 -38 34 5 -6 36 -54 29 -25 12 20 -16 -1
-68 20 5 48 -10 41 -17 5 26 39 -14 54 13 12 -61 -35 1 -4 -52 48 -10 26 55 -14 -20 -11 14 60 43 34 -3 63 -39 32 42 14 -6 -81 -2 -40 26 -7 -68 -2 -19 -38 2 13 -8 22 25 26 19 0 20 -25 32 -29 -16 -26 15 -4 62 -11
31 33 -31 0 -14 14 -28 -3 9 -22 -46 -14 -30 -10 -20 7 -43 2 8 -14 32 -6 30 53 -4 47 31 41 15 -8 -42 -29 5 43 33 12 -48 -10 -31 1 28 -5 -9 -43 -4 2 61 8 55 21 25 0 -6 14 4 16 31 -29 -46 -18 -15 60 40 7
-37 2 -72 34 6 11 -27 14 -43 8 -69 24 33 -3 12 -21 34 -48 -83 5 14 17 -5 38 49 24 -35 -21 -40 70 46 -14 -19 21 -38 68 40 -41 -2 20 24 -28 3 46 22 -73 -37 -42 2 22 -9 10 67 28 15 -20 -43 -49 3 -86 6 -26 -36 -46
-8 10 8 -23 -34 5 7 -45 -3 9 1 -30 21 2 -34 6 -18 13 20 6 29 -24 48 17 -3 20 -27 44 -7 9 -21 20 -24 13 21 7 -54 -58 -16 -2 7 19 -37 -30 22 22 39 38 31 6 58 -8 16 15 50 10 16 8 8 -34 -27 8 51 12
10 24 33 -11 0 -57 -26 -3 -17 -17 -16 -15 -22 19 7 17 13 -22 -2 8 16 5 5 -34 36 -56 -38 1 30 -16 34 6 -1 -19 -38 -3 69 25 -52 23 1 12 -18 24 -31 28 -14 20 10 26 17 -33 8 -35 -34 -12 -2 -8 5 26 3 -9 -29 -12
-2 3 8 10 -4 -25 -2 33 -34 0 -7 -7 -5 3 32 30 21 44 26 -28 -14 6 17 -9 20 -45 -40 -8 9 -39 -30 16 27 -10 -43 0 18 -7 -3 7 -37 -1 6 -39 -8 -38 -17 26 27 13 4 -38 14 -12 -67 -16 5 19 -31 -10 -53 -45 -7 13
-26 19 56 -16 -42 -13 -77 35 12 49 11 -29 19 50 -3 15 -5 47 -32 31 3 32 24 -19 -62 6 31 19 15 35 -20 61 -37 41 10 -2 -7 -13 -29 39 42 33 -53 34 -6 -33 17 -21 40 -13 21 24 -2 -6 -14 -9 35 18 9 -25 15 -33 42 4
32 -8 23 -75 -56 -39 -6 -38 -92 -57 -24 30 -3 45 5 -18 14 -8 45 26 20 -57 -40 -48 54 12 -46 -44 10 15 9 -68 31 51 12 20 31 -45 34 22 -18 -17 -13 27 -13 29 77 10 6 -8 -33 11 -1 -82 21 8 -2 26 -6 -91 -44 15 -23 7
-9 -15 0 49 81 -18 71 -15 -20 27 38 28 14 -2 40 25 -2 -17 -33 52 -43 2 -19 -55 11 -33 18 -20 -41 1 -10 69 40 -32 -42 3 21 -39 -52 23 17 -39 12 -27 19 36 -44 -44 -51 54 -59 16 39 -16 -73 53 -14 30 48 -30 -24 25 -35 6
-35 -22 -10 -8 73 -3 81 -24 39 5 -10 29 -5 -40 22 0 18 -57 -9 19 -21 23 -12 -46 -13 -39 -2 23 7 27 62 12 36 -47 -15 -54 10 25 -39 -33 18 -5 1 6 18 48 -85 -57 -50 74 -72 -43 35 -6 -42 35 -70 -20 18 -4 -25 0 19 17
27 30 36 -22 -45 8 -16 49 -4 -30 -6 21 -19 20 22 32 14 24 34 24 14 28 17 -27 5 -21 24 -2 32 32 -63 55 32 29 46 36 11 47 9 -16 5 13 -38 3 16 -86 23 48 52 -9 27 6 -46 23 -25 -38 70 0 -29 -14 14 -67 10 -5
-37 -8 80 38 91 -78 64 13 9 26 0 -21 16 20 -9 6 9 -7 -64 44 -34 -23 -23 -1 -9 -30 22 -38 1 -21 -36 71 53 -15 -8 -22 7 -36 1 18 25 15 -9 -15 32 43 -64 -27 24 30 -44 -55 89 -50 -31 36 -32 47 35 -19 -21 -5 9 35
-8 17 2 48 22 6 -42 24 -33 32 15 13 24 -24 16 7 38 17 -7 18 18 14 29 31 28 -27 13 37 35 1 32 -45 -28 15 49 -10 -49 -21 20 -3 9 33 -40 32 -65 -74 78 -37 54 -38 32 -30 24 42 57 -13 13 5 -36 -16 38 2 -17 33
23 -16 -2 -32 -53 36 -69 44 34 11 -20 -84 -19 -39 1 -80 -60 29 34 -15 -20 -36 -9 60 35 -20 -35 46 10 39 16 -77 14 -27 17 -11 20 72 38 14 -13 2 -27 11 -15 5 78 5 24 -20 -20 22 -14 49 43 -10 26 -46 -27 -15 0 16 -41 32
58 8 -12 -48 -55 -29 -4 -12 -33 -21 -17 -73 -1 24 -24 55 -1 71 12 -48 44 -36 -3 47 -30 16 -17 -20 -22 -2 -66 -70 43 -34 -9 -34 5 0 47 11 4 32 46 6 -20 -39 48 41 65 18 -5 20 -28 -9 -9 -40 41 52 -42 17 -3 61 11 -37
53 6 9 -11 -30 9 -49 -31 -33 18 -65 -30 -2 -33 40 15 -25 4 -5 27 19 90 -12 -9 -17 -3 -54 -6 9 -14 47 -14 18 35 9 44 7 49 -19 -4 -33 -13 -10 -6 -23 39 23 -8 -2 7 -75 -5 28 22 13 -5 9 -33 11 9 10 43 19 -31
10 -30 -3 -27 -48 43 -36 24 -17 14 -44 37 20 0 -26 -89 -4 -8 27 -3 21 -38 4 48 46 -15 -39 41 53 -12 3 -117 -41 18 51 -4 -68 35 41 14 -31 51 -66 36 -23 -12 58 31 63 -58 22 6 2 -45 16 9 68 15 -17 -9 48 27 2 -20
2 -14 39 46 -47 10 -23 44 -19 34 27 22 20 14 2 -41 14 5 -46 39 -4 12 -39 44 23 26 4 14 -5 -3 10 45 -6 57 39 -31 -36 -64 16 39 15 35 -76 12 -16 -6 51 -1 73 -1 56 -12 38 -56 36 4 36 26 61 -11 19 -18 30 -40
-26 -10 -34 0 46 -18 86 -14 11 12 23 1 14 -1 -17 42 -14 -66 -8 5 -24 12 -20 -19 -10 2 2 -16 -15 -45 69 30 40 -25 -43 -26 15 -26 -1 13 10 -73 9 -21 13 19 -42 -43 -13 79 -90 24 16 47 -34 -10 -39 -5 66 11 -5 23 -54 17
1 18 -3 -5 -42 -9 -10 19 -8 47 1 -20 4 -28 -9 -67 -8 33 -13 -66 64 59 15 115 -26 15 8 6 30 56 -6 -7 -53 34 62 -4 -21 23 -6 26 80 -6 11 47 -22 27 53 -42 80 -20 55 -10 -25 -9 10 -32 50 15 23 26 41 -12 -37 -22
-9 22 15 -1 56 -41 68 -27 41 -9 8 7 -25 13 10 8 47 22 51 -5 -13 -53 -3 -45 3 -19 -8 -19 -3 23 11 -11 70 -5 -49 -19 40 -3 26 16 -24 -38 54 17 -39 61 -26 -7 -17 10 -82 40 50 51 -14 72 -23 38 12 18 30 48 -38 37
5 -33 43 -21 41 -30 49 -53 -23 36 -34 -42 103 57 -24 -31 28 15 17 1 2 -32 -12 42 7 65 16 -37 -35 -16 -56 -44 -11 14 19 -7 -26 -32 -22 -6 -19 36 36 -37 -31 0 -27 -12 24 7 42 43 48 -27 28 32 39 27 -37 -24 -54 -43 16 -4