5 8 28 -14 2 -49 15 -13 21 40 50 -33 -25 -24 -8 14 11 1 59 -38 -22 4 -33 14 16 -31 43 -6 -17 -6 -21 3 17 -27 30 -13 4 21 -10 19 -5 0 18 -47 -2 4 3 3 -34 -6 -14 5 2 22 4 0 -2 47 -18 13 -2 35 -2 -2
-45 -9 11 -13 -23 -14 -48 49 -9 -8 3 1 2 51 17 23 13 -6 14 5 -20 45 -8 -25 3 -8 35 13 66 18 8 2 -20 13 -25 -21 10 6 14 -8 41 -35 -46 2 -8 -16 -28 50 -52 8 20 21 -22 -34 -11 10 25 -2 1 -17 5 -52 -4 -12
-23 13 1 1 -37 33 -8 -3 -10 -13 21 -2 -13 8 -10 15 -1 -2 35 -4 -8 15 32 17 32 6 13 19 -11 22 -3 -34 -19 2 -12 35 12 -7 -44 -5 24 14 2 -2 31 -6 -12 11 -31 -21 34 -17 -48 3 10 7 27 -21 -18 -30 -19 -14 -7 -14
9 -1 -14 -31 1 -9 -17 4 -5 10 -66 6 -23 37 0 -47 -31 26 -2 32 13 -13 4 21 -5 1 -38 35 8 26 -5 -78 -43 -5 71 -4 -6 31 -38 0 24 35 -42 15 17 11 27 32 71 -7 55 -35 6 -31 -9 -33 -10 -40 -23 -9 13 4 29 27
-38 -30 15 19 -11 -22 -1 14 0 -18 26 -4 -1 9 24 33 19 -26 -1 28 26 11 17 -7 16 -17 0 25 27 32 -1 15 9 3 -34 13 5 -3 -22 -2 3 -5 -30 20 4 -29 -2 7 -8 11 21 -24 -3 -19 -22 18 4 -10 -11 1 43 3 -32 -25
-6 -1 -61 36 43 -8 -36 -3 35 18 -28 64 -19 -7 -53 -30 -11 -47 -3 5 72 -9 -39 28 13 32 51 -39 9 -15 85 19 -31 48 -24 -3 7 -15 34 -61 4 -54 -8 20 -20 5 70 -29 34 -3 17 28 2 -11 9 3 12 -56 38 6 17 15 -13 -49
-19 -8 -22 -4 -20 -14 -19 9 -26 -5 -29 5 25 23 -14 -40 -25 -15 -7 -8 16 55 30 17 -25 28 -3 -39 -23 32 -22 -8 -15 35 2 16 11 37 -67 -7 44 11 19 -35 -16 14 47 -13 78 -11 17 48 -3 -5 -53 -19 -3 30 -20 -37 -6 -34 -2 25
5 6 1 -22 1 2 -22 2 -54 45 -26 -16 3 25 23 -26 13 0 15 0 14 41 10 24 -8 21 -37 -39 -28 -13 0 -8 -5 -3 14 -1 24 16 0 3 -11 6 -2 -3 -37 8 -14 -12 55 1 8 -9 -16 7 -41 0 -14 20 -2 -2 -24 -21 -2 1
-16 -6 53 -1 -75 6 -51 32 39 -16 36 -30 -2 38 -19 1 -31 48 52 16 -18 19 37 65 22 39 22 79 -9 28 -40 60 -47 15 79 9 -14 -8 -38 -47 45 -5 -28 -1 -3 5 34 3 14 -39 39 -7 -36 9 4 20 105 -52 -60 -1 -40 -83 -2 22
23 7 -4 -5 8 22 -72 38 45 18 14 10 -56 -4 -63 11 -5 -20 23 -8 54 -13 -7 7 -29 -2 4 77 -11 26 63 48 -12 -2 10 -17 3 -11 1 -39 -40 -10 -15 43 7 -8 -21 4 -4 -10 24 38 -60 12 -36 -73 58 -26 14 13 -11 2 -17 -68
-8 4 -29 -34 -12 7 18 6 24 14 -43 -44 11 68 -27 6 -27 38 -11 33 18 7 -18 -46 -51 -4 28 3 -35 -21 24 23 -33 4 -44 -40 12 75 2 37 -11 -89 25 -32 -13 94 -16 -15 4 64 -34 22 6 -2 -14 42 5 5 71 42 8 32 0 -6
21 10 17 -39 -19 -8 -25 -6 -47 12 -22 -17 -1 36 9 -69 -17 24 31 -4 31 9 12 21 -12 -5 17 14 40 37 -20 -46 -23 -24 27 -1 26 22 -6 11 -2 9 -7 5 -10 3 14 27 17 -22 53 10 -8 0 -74 -2 -4 16 -10 -29 12 -47 -4 7
23 6 4 -12 12 -14 -77 -11 -29 8 -18 32 -28 -37 -30 -83 -8 25 1 -26 57 18 -37 35 18 15 -8 1 51 18 2 -27 -17 16 78 -1 -1 19 20 -21 -20 -30 -18 7 11 22 49 2 26 -23 20 -60 14 4 38 -14 23 -45 -30 22 19 12 16 -19
-11 -26 15 17 -34 -30 11 -4 12 -38 23 50 80 6 7 19 -5 -9 -32 48 -9 8 11 -47 -18 -10 -6 29 52 -12 26 32 12 47 -11 -1 -1 -42 -48 -11 46 -40 -21 36 -32 -38 13 23 1 -23 -19 10 -4 -56 16 70 25 -3 -6 25 14 -28 -19 14
11 20 2 -22 -53 8 -55 48 -3 -29 -17 -1 2 20 6 -35 -33 27 21 -3 2 -11 45 7 -77 -13 -33 31 -2 40 -11 -18 -21 8 31 4 15 27 -36 -11 -29 9 -48 8 27 -32 41 31 62 7 36 45 -24 -45 -45 -36 34 -12 -36 -32 8 -15 30 3
33 6 -50 60 27 -8 -53 10 42 -15 -13 54 -29 -35 -68 -52 -29 -15 -17 6 72 -21 -28 10 -4 26 2 4 3 4 64 6 -29 33 1 28 19 20 15 -29 -46 -30 -15 3 3 19 61 -20 57 11 25 35 -27 7 -7 -25 24 -52 25 28 30 25 1 -70
-18 6 -38 -2 8 50 59 9 75 11 32 -22 -36 2 -11 45 -25 -13 -6 45 -14 -20 19 -76 -38 -51 58 38 -38 -61 43 -11 0 -5 -21 -6 -3 13 4 25 -20 -32 7 -55 6 23 -16 -40 -17 77 -10 30 -13 24 0 4 -13 16 54 77 -6 70 2 2
16 -8 -53 -12 16 9 -27 38 -3 -56 -21 -35 -23 12 -29 -14 -64 34 -22 6 36 -22 -5 -14 -52 66 8 13 -3 -2 3 8 -41 -23 -23 -50 27 53 -1 9 -12 -57 -3 -12 -4 49 18 -1 70 28 18 63 -49 6 -5 -38 34 -41 10 -7 42 -25 15 15
-49 2 44 25 -37 -8 -16 63 -27 -43 17 14 50 34 -6 0 -44 27 24 16 -57 28 49 -13 12 33 16 10 4 17 -13 53 -38 5 -3 15 9 18 -24 -15 36 -12 -27 -68 -9 -7 57 -1 17 -9 24 46 -30 -10 -21 26 37 0 -44 -23 -51 -83 30 46
-43 -11 16 -44 17 -43 60 -1 19 13 -55 -59 54 42 16 20 0 15 -32 39 -47 33 18 -12 -58 35 -42 -21 -13 -22 15 22 -14 3 -44 56 -4 -11 -34 18 53 31 3 2 16 41 -44 -8 1 73 -14 2 41 -45 -2 52 -35 55 33 -39 -32 -39 -1 26
30 20 -27 -1 32 16 -1 -16 22 -6 -5 -8 9 -9 -18 -20 -16 -17 -11 -1 28 6 26 7 3 23 35 -3 21 -2 10 6 -9 12 -16 -5 -35 -5 -6 -24 -2 4 -6 -19 12 -13 0 17 3 -13 3 15 6 12 5 -23 4 5 10 -4 -5 17 15 24
24 1 -58 39 21 23 -23 67 36 12 -13 3 -44 -12 -41 -11 -76 16 -1 59 51 -29 -14 -24 -25 10 65 12 -21 -29 53 11 -80 -9 -30 -12 13 29 -1 -39 -22 -54 -12 5 23 15 50 -54 9 9 40 61 -27 33 21 -15 20 -44 46 47 35 16 -18 -24
-28 -3 -7 -13 -19 -3 -11 -12 -17 -13 8 -15 -28 19 -5 -17 1 14 22 8 4 6 12 0 -10 -1 15 18 -27 31 -30 -29 -7 0 5 43 11 -6 -12 13 3 17 23 -17 24 11 -16 -43 20 -26 -5 16 -22 6 18 1 14 -14 -28 -24 -15 -26 -6 34
7 10 -23 -27 15 -17 -45 -3 -8 18 -16 17 -18 -17 -22 -77 -18 -3 -7 -12 51 4 -11 21 3 19 -5 -5 44 19 -7 -48 -18 -5 26 -22 10 19 28 -6 -2 10 -53 39 -16 5 17 0 27 16 44 -19 13 7 26 -42 -2 -33 -6 -6 22 22 12 -35
-30 -5 29 -55 -31 -31 -35 16 -15 -29 -45 -18 6 75 22 -25 -19 81 19 31 -17 46 21 35 -1 48 -47 -4 2 35 -21 8 -28 0 38 19 -8 42 -30 26 38 16 -20 -20 -11 30 1 39 31 0 21 4 22 -51 -1 24 -7 14 -31 -42 -41 -38 20 50
-1 0 -9 -7 -47 -1 -32 -22 -10 -5 -23 11 29 -7 0 -13 15 -7 -16 -4 3 -11 -6 4 16 -24 0 -37 35 34 -25 -26 -3 -9 -6 -7 18 -4 -9 -18 9 -6 11 -14 -15 -3 44 10 -17 -21 7 -2 -24 11 -11 5 2 11 -46 -21 -15 -22 -11 -10
1 15 -43 41 1 -34 5 18 24 -22 31 -44 -20 23 -29 -2 -32 -10 -57 -3 26 -8 16 -72 -8 -26 14 10 -1 24 -5 12 20 11 -33 -22 16 52 -35 32 -39 -25 -10 16 -35 29 17 19 70 27 -28 24 -42 -14 -34 -27 7 -15 5 -17 21 -19 24 1
4 -7 31 -31 -39 42 6 48 -2 -4 -7 -8 -17 15 -10 30 -43 93 -4 4 -23 -15 25 31 -52 33 4 -6 -43 -29 -11 60 -35 -22 -11 -21 -15 46 5 9 -17 -17 24 -70 44 24 26 -27 21 54 -10 17 -11 17 -28 -20 28 -8 23 18 5 -25 23 22
-46 0 14 4 -25 -38 23 82 -15 -14 25 -20 29 30 -35 9 -53 -8 -22 16 -64 14 35 -45 -5 7 16 -5 -2 -6 -17 63 -20 -14 -52 11 2 23 -67 34 75 -13 11 -54 -31 31 39 8 48 36 44 56 -24 -24 -33 14 22 25 -38 -23 -4 -80 13 40
-22 -8 7 31 50 -20 -15 20 1 56 34 22 -65 -69 -42 3 11 -60 -2 7 37 -30 23 -69 -53 -7 -48 42 36 28 37 27 21 2 25 35 -9 1 -52 7 -72 8 -6 17 -4 21 -63 11 11 27 2 52 -2 19 -67 -45 21 10 22 35 -48 -16 7 -19
36 -16 -24 12 -57 -5 -36 -17 8 -8 -4 26 -14 9 14 -63 -6 1 42 9 66 -22 -35 47 25 -23 36 5 0 26 17 -35 -23 9 1 -26 4 32 9 -28 -19 -6 -18 -5 -8 -19 29 17 -8 -43 19 -5 -20 -12 -2 25 6 -43 4 -3 28 -24 -36 -18
-35 -5 -30 36 43 -16 57 -11 16 34 17 79 -21 -53 4 31 5 -35 -9 11 50 -22 1 -72 -2 -5 7 -13 0 -48 70 17 27 -21 -3 -9 -3 -9 44 -10 -37 -22 13 -17 -14 -4 13 -33 -23 55 -25 22 13 29 18 7 -43 -1 36 38 14 53 -1 9
12 -37 34 18 -23 11 -16 -10 1 -53 41 -2 0 22 24 14 5 2 5 -17 -15 -6 19 -14 -4 -8 -22 21 -14 -11 -11 25 26 47 17 26 12 -47 -11 9 19 3 -30 9 9 -34 5 -16 -4 -18 14 19 25 -49 -15 28 18 -20 -35 -21 11 19 3 8
-29 5 -38 19 7 -36 15 -32 -25 1 -64 17 -5 8 -5 0 0 5 -23 -23 31 6 -18 25 30 47 28 -34 37 30 -7 -24 -9 24 -24 -16 24 8 -9 -29 13 -21 -13 0 -21 -8 32 -12 71 -32 2 -16 -13 9 -14 -28 -14 13 -10 -31 -17 -53 6 -13
-17 2 36 -9 -1 -4 23 46 6 21 54 -32 -29 28 15 26 -9 5 -13 -31 -72 30 48 -41 0 -22 -6 4 -11 -32 -4 29 17 9 -28 -17 -5 -2 -1 49 9 -3 -16 -37 -9 1 -22 3 8 59 15 -17 28 22 -19 -9 -2 40 -3 -1 -23 -48 17 32
19 -12 14 -14 -40 -12 -21 40 -33 -9 -5 14 9 18 -17 -56 -30 29 22 -13 -7 -37 4 -18 22 0 12 23 44 5 -2 -16 -25 1 12 -23 26 18 8 -17 -11 -22 -11 -15 9 -18 14 8 19 -37 31 14 -22 -4 -26 -7 31 -45 -30 -7 27 -26 -12 17
0 27 -52 22 82 5 -32 -17 33 -4 -44 -13 15 8 -10 -43 -12 -51 -84 -30 42 23 5 -28 -43 2 -39 -36 -11 -30 31 -38 0 -22 -33 -17 1 12 17 -5 -20 15 -40 -23 -40 -6 -24 39 -14 9 0 -25 -8 -20 17 8 -9 19 -3 10 3 80 30 -6
-3 -5 -6 -23 -37 0 0 21 3 -8 19 -47 2 -7 12 -37 -18 -3 -29 35 -16 -23 -10 -35 -6 -39 -33 2 15 24 -10 6 21 -12 -8 -12 6 26 -35 30 -35 6 7 5 -12 5 8 6 40 17 -2 7 -1 -4 -14 -3 -6 -6 -7 29 17 -8 11 -5
13 -9 5 -17 -2 12 -65 25 6 3 -2 13 -18 15 -32 -61 -35 18 -8 -29 49 -18 1 31 6 34 -6 -12 -4 30 -3 -21 -13 13 46 -9 20 57 9 7 -3 -16 -24 -14 -34 23 41 -21 30 -31 50 49 11 4 -18 1 15 -29 -26 -11 38 -2 -32 -14
-4 0 -24 23 7 -34 60 24 2 -42 12 5 45 4 12 -11 -18 -5 -3 33 -58 -3 -2 -66 -29 -31 10 -8 -12 -24 -4 16 21 13 -41 -3 9 -25 1 25 36 -38 21 -22 -19 9 -10 10 57 27 -1 52 9 -12 -46 42 -11 -6 -4 -10 -24 -41 0 51
21 -1 -2 13 -9 -4 -12 36 4 -26 -33 -16 -7 18 -10 -45 14 9 1 48 26 23 -17 -7 -8 -44 -22 29 6 0 23 -28 20 9 3 0 -17 -4 27 -27 -3 -15 -2 22 -9 -21 4 31 -4 18 30 -52 -3 -48 2 -1 -1 -20 23 64 57 60 8 -6
27 10 -7 -17 34 -19 14 8 21 29 -4 -32 0 21 -3 -1 27 -3 -2 -3 -14 -3 -18 -21 1 -35 0 -4 23 0 1 -12 21 -19 22 -27 -16 20 1 15 -7 -14 -10 -15 -14 0 29 17 12 7 18 3 6 -23 -8 0 4 22 -22 19 -17 51 -4 1
23 -13 -28 -34 -29 -41 -27 -2 -24 13 -44 -11 -29 -8 -7 -49 -13 22 55 -5 10 -26 -38 8 -6 -7 -10 -33 6 28 -37 -47 -7 -10 30 -22 33 10 -4 28 -46 22 18 7 -24 2 6 -24 42 -13 26 30 -9 15 -27 -13 1 14 -39 -16 2 -24 -7 -7
-36 -30 -1 16 24 7 14 34 -5 6 8 49 -15 -28 42 23 6 -15 -21 26 -2 3 14 -66 14 -48 -12 -23 45 -17 14 7 27 -38 -33 -15 7 11 14 37 20 9 -21 -70 3 -37 6 1 -1 54 -1 1 12 -15 -24 -4 -25 -7 26 23 11 49 14 26
26 15 -7 -20 14 48 25 -5 5 44 17 -17 -20 24 -11 -5 -20 13 -6 -11 -12 -47 29 40 -30 29 52 9 -59 -31 -40 11 -4 -40 42 -9 -5 36 20 14 -15 28 2 2 29 42 -4 -51 26 -11 17 7 -47 25 19 -12 26 9 -37 17 -3 -17 25 4
31 9 -43 16 -28 14 -82 -32 55 -17 -23 24 -15 15 -49 -22 -36 -28 22 7 51 0 -62 46 8 24 -1 -10 -12 20 16 -42 -38 23 15 7 -1 37 14 -27 -24 -14 -16 -3 -44 34 64 18 21 -38 9 18 -30 10 3 5 -3 -40 12 21 62 57 -19 -77
18 25 -12 -18 51 17 14 -2 5 38 11 -25 4 -14 -34 4 -5 -10 3 5 9 10 13 23 15 -6 17 0 9 4 -2 -11 -22 22 -3 3 -58 26 1 -11 7 -1 -1 6 -17 -9 4 12 5 1 8 27 36 3 15 -10 -6 -23 -6 8 -5 -3 7 30
-30 18 -35 -9 21 -28 25 -57 13 -19 -27 62 20 -10 19 -2 2 -14 -23 36 28 5 -6 -39 -17 34 -24 -73 20 -42 48 11 17 9 -54 -1 4 26 31 -17 -45 -55 33 -11 -14 18 -13 20 16 33 -59 14 18 -1 0 46 -24 33 73 -21 10 27 12 -17
5 -6 -31 13 5 -19 8 9 -1 0 10 52 28 -32 2 15 0 -17 -30 28 68 -1 -25 -24 -34 23 -18 -16 -13 -25 65 49 14 11 -28 -30 10 -6 20 -48 -51 -59 45 5 -8 -4 20 -10 1 7 -52 21 -35 35 -19 22 32 14 68 8 -4 -15 -5 -35
7 -4 -18 -19 -27 -27 -7 16 -50 -12 -23 -34 -14 5 23 -3 16 -6 10 -14 -17 0 19 0 0 -17 -11 -9 -22 31 -9 -29 9 -18 -45 -7 34 19 -16 33 -5 10 8 35 -16 -22 2 1 35 4 11 11 -31 -7 -17 -16 -15 23 -30 -25 0 -33 -7 -6
-21 -23 27 -1 12 0 10 -21 -6 35 13 19 -5 -21 34 -1 7 -49 -13 29 49 17 -16 -24 -7 0 15 -32 14 -36 23 14 17 -1 -28 17 -14 -5 -33 25 -33 -37 -17 -5 2 54 -43 14 -25 26 0 -3 39 10 6 51 -36 33 27 30 40 59 -5 -23
25 35 -37 -33 44 32 -1 -11 -12 5 22 -21 -18 -32 -37 -6 -37 3 5 -41 39 -24 15 -2 18 13 55 -1 -12 -11 -12 -18 -8 -12 1 -15 -46 17 38 -9 -24 7 -9 -21 2 5 18 -13 -2 -3 20 16 7 34 25 -28 13 -31 -27 6 22 11 25 -9
1 18 -7 -5 -42 3 -11 37 21 -5 28 -14 -11 8 -49 40 -61 26 31 0 28 -21 30 -5 -49 34 28 96 -49 12 -19 11 -12 -38 30 0 -1 -18 -20 -21 -28 13 -13 -6 -14 -3 4 -5 6 5 0 76 -57 22 5 -26 29 -45 -27 31 -23 -22 7 3
3 -6 -20 -3 -52 -16 -8 5 -35 -20 -17 -3 -22 -14 16 -4 3 -15 -14 -8 11 -10 -24 -6 36 -3 -13 -53 12 25 -37 -13 24 -17 -21 24 51 15 -17 5 -16 16 10 -13 -30 -13 -8 15 46 -14 -3 7 -39 7 13 -6 -19 6 -52 -26 9 -23 -22 -40
16 18 -7 -54 12 40 17 18 -7 7 13 -34 -35 -12 -17 -1 -23 26 9 -21 -29 -25 31 28 -40 25 6 10 -26 1 -33 -17 1 -46 17 -4 3 22 1 16 -22 19 0 -11 6 46 17 -31 41 9 8 0 -31 -7 42 -30 30 26 -38 11 -5 7 29 -1
7 -6 -1 -29 20 -14 -6 8 -17 6 4 -37 36 2 -11 -56 24 -9 42 -8 5 45 1 7 38 16 -14 11 38 14 23 -44 -27 20 36 9 -25 4 31 -17 8 -19 -37 49 36 -26 -21 17 -6 -9 33 -7 8 -13 13 20 7 -28 -15 -40 5 -8 0 37
23 11 -18 -3 -18 46 2 -3 -3 0 -1 20 -5 15 -41 -21 -17 18 21 -1 3 -26 27 -22 9 9 19 40 26 -3 10 -30 -23 -15 53 15 -56 19 17 -25 -2 12 1 -39 43 0 0 -1 18 1 17 27 -2 14 19 -4 24 -54 -37 -15 6 -3 24 13
3 -5 -23 4 45 -23 -24 -7 10 -1 26 1 -5 11 -14 -10 -16 3 -16 -21 -18 38 -13 4 4 15 5 41 33 -5 10 -13 -13 -3 34 -6 -33 2 18 -12 26 -6 -15 -18 6 -26 8 7 -16 13 23 9 24 7 -6 7 1 -14 8 -5 -3 0 15 37
-13 6 -4 43 20 26 11 26 50 -10 12 -8 66 67 -26 -5 -14 -14 48 19 -27 10 40 -48 -18 -39 23 -10 0 -27 28 -10 -2 -4 -58 -57 -3 -20 -26 24 19 -40 -11 24 16 48 -38 37 -3 -5 -9 20 -51 -18 -43 -34 98 3 5 -58 -20 -12 7 6
25 10 -26 66 15 -5 71 -25 24 19 19 31 31 -22 39 2 -21 -24 -14 9 -24 20 -12 -6 -20 -9 52 -20 -5 -52 20 -18 14 -17 -49 -78 9 12 6 -8 9 -7 23 29 30 -27 -7 5 -6 19 -4 -38 -16 26 -33 -3 10 55 31 14 17 -24 -5 59
-9 -23 63 14 58 -58 62 35 0 4 32 22 -16 -38 -3 6 22 -22 27 -10 -25 7 9 -24 12 -19 -22 0 8 1 -23 20 21 30 13 14 -16 -46 8 43 8 -11 -13 27 -2 9 -32 -3 24 50 13 18 34 3 -44 9 -54 16 0 -48 -12 -27 -6 58
34 12 -49 35 -3 17 -67 -31 35 18 25 21 3 5 -5 -11 2 -38 32 1 60 -31 -27 17 9 -8 0 -8 4 1 12 7 18 29 -2 -31 9 31 43 -25 -51 -3 25 23 -11 -3 -3 24 7 -44 -33 9 -19 5 20 -10 30 -10 47 32 28 30 3 -57
-30 -3 -36 42 38 -11 -31 15 29 -27 -12 -15 31 27 -6 32 -18 -13 -19 1 -29 73 2 -39 -19 -17 -7 -24 33 -24 10 -3 -1 -13 -41 -45 2 5 -40 39 32 -38 0 11 2 -5 -17 42 20 18 35 -41 -31 -5 -55 -30 13 50 -10 -15 -16 -15 5 52
16 2 -41 -35 6 5 67 23 34 18 -22 -14 -42 12 8 12 -36 64 18 -4 -26 -30 -14 -45 -5 4 51 16 -71 -82 5 -1 -16 -32 43 -62 -3 44 46 15 -46 -22 25 -61 2 67 5 -43 -17 44 -57 44 -8 15 22 37 0 25 42 51 -7 21 -10 17
-24 13 -41 2 22 -20 27 -3 -8 -20 -15 -20 -25 56 -61 -5 3 -15 13 -11 2 15 46 -24 -1 8 72 -15 45 10 1 -17 6 21 -37 18 9 0 -54 0 61 -24 -11 -4 -2 8 25 30 48 -24 42 42 -12 2 -14 -2 16 39 -41 -66 -10 -50 12 17
-3 -12 12 -39 -48 11 -30 26 -23 -22 12 -10 32 16 -21 -30 -2 7 33 0 -22 -23 16 -4 15 -5 -24 34 23 1 3 -22 -34 -16 20 -24 16 21 10 -39 -7 8 -4 -8 -17 -23 26 18 -4 -24 18 -1 -15 -4 -18 -5 46 1 -12 -12 3 -26 -11 27
21 -8 -51 -6 46 -42 -14 -5 10 43 -6 -38 -19 -27 15 -32 15 -8 2 -19 28 33 -22 32 -18 -46 16 5 17 28 38 -51 2 -5 39 -1 -5 32 -13 23 3 14 -18 41 -15 38 -8 -12 -6 19 29 6 10 13 -19 -7 -49 9 69 -1 24 27 -15 -46
-43 -11 47 38 1 -31 -32 33 -46 -35 21 -25 -15 17 -19 22 -3 -18 13 22 26 23 50 1 -10 31 26 30 19 27 -11 43 5 -1 -3 37 -9 -51 -48 -13 43 8 -14 29 17 -53 42 35 28 -51 69 20 -38 30 -75 -18 4 12 -34 -47 15 -45 26 9
8 19 -37 -8 11 10 7 1 -15 1 6 2 -56 3 -51 4 -19 7 -12 23 -19 -22 8 -8 25 21 29 18 -7 -12 -10 -21 -13 4 3 21 8 -21 15 11 -2 -16 20 -9 19 33 20 -36 11 5 -1 9 -28 -13 81 -16 39 -16 -34 -15 -9 9 1 7
-1 13 -2 -13 18 11 -2 30 -5 14 20 -38 -31 13 -2 45 -7 20 -2 -17 -5 -13 29 3 -60 11 7 35 -36 7 -30 46 13 -27 51 -30 9 -43 7 15 -55 17 1 18 0 -26 6 -22 13 8 -11 14 -35 -1 -11 -43 8 43 -6 -19 -24 3 30 26
2 -19 -20 -2 25 30 40 24 36 -16 36 34 44 -47 -5 9 -6 -12 -55 33 40 16 7 -59 -46 9 29 12 -26 -69 66 83 15 13 -59 -19 12 -23 10 3 -26 -66 28 46 3 22 -21 -39 -41 32 -30 0 -17 21 7 40 34 12 52 24 -22 -30 -1 -8
-4 21 -50 54 21 -39 34 -52 32 -3 -51 11 8 43 -8 18 -29 -61 -16 51 57 27 -21 2 -9 14 52 -54 -18 -16 31 -22 -28 31 -91 21 -2 56 -20 5 1 -12 30 0 -2 15 26 27 35 7 -8 40 -21 -18 -29 28 -62 10 80 -14 82 41 -27 -39
9 19 23 -39 -15 25 -41 25 17 -28 -31 -7 -2 10 6 7 -20 59 6 -2 -3 -14 9 30 -51 -11 -36 22 -9 29 -21 4 -13 -36 55 -38 -6 22 -8 -17 -35 13 -11 12 25 -5 39 32 50 -18 -22 1 -28 -10 5 -19 41 -4 -28 18 -7 7 39 -2
9 -8 -21 -11 58 -24 46 -47 -3 71 12 45 -31 -53 30 -12 42 -47 28 -6 7 1 -22 -3 32 -34 16 24 -3 -22 43 -37 14 2 -43 -35 -8 -48 50 17 7 -2 6 -2 -13 8 -56 -19 -23 34 -41 -21 27 8 19 -4 -16 -11 44 2 -33 17 -27 1
-50 -5 28 -32 3 -50 6 14 3 -34 -57 -5 53 18 25 -15 -20 3 -72 40 -7 66 35 7 -31 56 -61 -19 42 0 14 4 -9 72 32 67 -3 -30 -61 -5 68 7 -19 16 -2 6 -18 29 51 19 39 -3 79 -40 6 53 -35 12 -17 -62 -26 -54 14 46
16 -24 -11 0 -19 -27 -39 -8 13 34 -17 30 -9 3 -19 -51 -27 12 42 7 43 1 -16 -5 4 -17 -22 -9 14 11 13 -33 -41 -16 16 -24 -1 56 9 -22 -17 -32 -20 0 -6 33 41 19 27 -10 18 17 -8 7 -32 6 -4 -35 -6 43 44 30 -18 -33
5 -7 -11 -14 -41 -7 -23 -12 -34 11 -16 -6 -9 6 7 -14 17 -19 -1 -15 -1 -12 -5 25 16 -25 8 -42 -3 49 -21 -34 20 -15 -16 3 45 15 -30 32 1 17 8 -21 -1 -36 -9 -19 19 -31 11 -14 -43 14 20 -16 -18 5 -37 -23 -26 1 -19 -15
-38 -12 63 16 -63 -8 11 47 -18 0 -6 -11 9 96 24 -4 -81 99 67 23 -56 11 40 -10 0 30 40 5 -42 4 -44 39 -41 -45 29 13 -16 40 -19 24 64 5 -57 -51 -3 33 79 -8 24 3 83 40 -54 -51 6 35 47 15 -48 3 -2 -54 33 56
15 21 -19 1 12 27 10 3 4 15 -6 -9 -10 -10 -39 3 -30 11 21 -36 20 -4 29 -17 10 10 1 9 -26 -5 3 24 4 -24 3 -4 -46 32 25 3 -16 5 -3 20 11 12 8 0 4 31 20 17 -8 19 -3 -11 30 -23 -4 -7 10 20 19 13
-37 12 -10 -22 -2 -34 -14 40 -22 -20 15 -33 -5 26 -7 -16 -43 40 18 39 38 -1 49 2 -14 30 -8 41 -25 38 0 17 -10 -9 7 44 6 39 -44 5 -11 9 -7 1 0 25 4 -5 28 3 20 40 -47 27 -26 -4 8 1 -22 -50 -16 -34 38 24
7 -6 -12 -62 -1 8 11 -48 51 -18 -66 -24 54 127 7 -3 9 63 -23 -11 -13 26 -17 9 6 50 8 -63 -3 -51 23 19 -15 7 -56 -18 14 29 13 17 28 -73 26 -44 -8 47 1 22 -30 45 -48 -25 45 -61 20 93 -4 23 11 -4 -26 30 -2 -12
9 -11 -2 24 35 -45 -14 3 16 54 -18 -10 4 -12 14 -4 1 -15 -32 23 -4 18 -26 -19 -35 -12 -23 0 20 -12 -11 10 17 15 -22 13 -8 -15 -24 31 10 1 -2 26 -40 13 -6 -9 -14 41 17 -53 37 -36 -40 16 -42 30 16 21 11 30 6 22
-33 -29 27 30 27 -49 60 29 1 28 42 5 25 -15 27 -3 21 -22 -14 31 -33 -25 -16 -70 -5 -21 -30 -2 47 -22 5 34 26 -4 -33 4 -5 -1 15 35 25 -3 -22 -1 0 26 -47 24 9 65 -18 -7 39 -64 -22 40 -48 12 27 10 -15 7 9 30
22 25 3 -36 -2 18 -59 24 -1 -40 -8 9 30 0 -36 -20 -13 20 10 -1 23 -5 -14 34 -14 -6 16 11 3 3 4 9 -19 -9 6 -18 17 9 16 -7 -8 -14 -30 25 -34 -9 20 33 8 -24 18 -7 -20 -29 -9 -26 50 -9 -5 -5 37 -23 30 -32
-22 -15 73 -10 -4 -51 -60 -6 -24 -18 23 -27 12 4 38 -18 13 29 80 16 -31 48 14 61 0 45 -18 38 49 46 -35 4 -11 18 67 39 -18 -6 -49 6 31 11 -36 22 33 20 8 37 21 -26 56 -34 17 15 -43 26 -1 -15 -75 -61 -42 -51 10 79
32 10 -12 -33 -20 -5 -30 30 -38 5 -7 -41 -5 26 3 -22 0 19 27 11 -6 -9 9 5 2 -29 -10 26 9 39 -18 -32 -3 -42 19 -20 19 59 10 9 -28 28 0 4 -35 -26 17 27 13 -28 23 23 -26 -34 -27 -8 0 34 -23 -25 9 -23 -13 18
12 27 1 -27 -54 28 -10 26 -2 -9 -46 -42 5 51 7 3 -39 91 7 5 -8 -12 11 37 -44 -18 -12 7 -53 23 -27 -9 -59 -9 38 -33 -7 48 -8 -10 -20 0 11 -7 18 25 46 15 33 0 -7 -9 -22 -32 34 -12 14 -8 4 40 7 9 18 19
-4 -12 15 16 10 -19 23 24 12 -24 21 2 26 36 40 15 28 -29 -19 53 -43 -19 -20 -57 -3 -51 -8 10 26 11 -3 13 31 2 -1 5 -8 -11 -17 12 -1 19 -13 12 -15 -39 10 7 10 3 3 13 18 -66 -5 -8 -11 29 -23 -4 -1 31 2 -10
19 12 49 -1 -27 -1 -20 45 -12 -2 5 -24 -37 -11 20 38 -2 44 26 -38 -37 -11 20 19 -25 15 -10 18 -31 14 -40 5 2 -46 74 4 -25 -6 -9 12 -18 39 7 4 42 8 18 5 18 -3 -20 -20 -18 -1 -6 -19 16 42 1 -12 -14 5 18 20
14 19 35 -10 20 -12 -30 2 -18 -1 -13 19 44 -7 4 -86 -23 32 23 -10 -16 1 3 12 -15 7 -19 4 28 25 -20 -39 0 -11 80 12 3 43 -10 4 2 -1 -9 24 39 1 55 14 48 -13 19 -5 14 -26 -16 -13 23 -19 -66 4 -13 -20 38 32
27 30 -30 -15 29 -2 17 -22 -1 10 10 -7 2 1 -15 -13 -7 0 -3 -16 14 -1 16 -10 7 16 10 11 3 -5 12 -8 13 0 2 7 -60 39 -15 -1 0 -18 3 0 -18 6 -2 8 12 15 8 10 18 11 9 -33 2 -16 12 -11 2 12 14 24
-20 -22 -13 -29 -36 -28 -2 5 -15 -34 3 -46 -15 36 21 -6 3 5 -10 -17 -18 14 -3 -51 -5 -4 -29 -10 21 40 -12 23 28 23 -3 1 22 10 -40 20 -21 28 2 -15 -11 -39 -3 45 16 -15 15 22 14 -47 -18 9 -15 46 -12 -23 4 -28 13 28
6 5 26 -37 -24 9 -37 25 -8 -26 -3 -14 3 55 -8 -35 14 58 19 -25 15 13 -10 24 8 -8 -29 6 24 19 -11 -12 -20 2 11 -32 -7 70 22 2 -10 -4 -30 -29 -45 7 11 38 -12 -40 -7 -13 3 -39 12 27 0 -3 -30 -2 16 -23 5 -12
-32 -43 15 11 59 -16 56 15 -9 12 65 58 15 -51 32 -19 20 -25 17 4 -1 -2 10 -29 14 -31 11 -13 29 -22 20 30 20 -17 -31 -23 -5 -27 19 20 -1 -36 -16 15 11 -19 -6 20 -37 53 -10 15 27 15 -19 10 -6 -20 31 7 -5 -2 -6 -6
-13 12 -22 -17 0 41 -16 20 -5 43 14 -13 -19 27 -44 57 13 -6 60 -10 -11 -6 31 8 6 -7 73 31 -53 -36 -1 19 -40 -81 6 -7 4 52 5 18 0 33 24 -15 43 -5 -16 23 -53 -1 20 11 -42 33 -20 -21 48 5 -2 53 13 30 -6 -15
-6 15 -50 13 29 20 -18 -14 49 18 -28 54 -31 3 -62 21 -6 -15 39 32 42 -24 -13 30 -8 48 45 14 -35 -19 44 -10 -37 -28 9 -31 7 -27 46 -52 -13 27 6 27 5 -1 7 -12 1 -17 -6 -13 -25 -18 41 -15 41 -8 29 40 -3 41 -9 -27
-24 -6 -7 18 6 -2 -53 -16 37 41 12 82 -29 -53 -25 18 19 -39 -12 -14 17 4 18 -20 -5 17 -48 43 97 32 79 49 10 -3 10 -9 4 -21 46 -48 -60 -5 18 3 -11 -18 -2 13 -15 13 -49 0 4 -30 4 -59 37 -17 -8 -10 -103 -21 -2 -33
-5 3 -74 39 67 -37 11 -16 22 -12 -33 -31 35 23 -11 -19 -8 -28 -97 2 -11 36 9 -36 -40 -21 13 -5 23 -11 20 11 -1 17 -4 -16 -4 -14 -47 17 7 12 -41 19 -46 -6 -25 10 9 -19 27 -16 18 -46 -5 15 -18 64 35 -6 -30 23 22 51
2 12 -36 -8 -42 -35 6 -11 8 -39 -17 -15 54 7 21 -24 10 11 -20 -11 -10 9 -15 -13 -22 -13 -28 -18 2 17 -26 -6 30 -7 1 -15 23 20 -62 -5 14 11 5 17 -11 7 7 13 52 -6 -29 49 -14 -32 -2 11 23 26 -8 2 7 -2 16 -6
-43 3 0 7 -40 -21 27 5 -33 -15 -18 21 -18 3 43 37 5 19 19 10 -5 5 13 -19 12 9 1 -3 30 0 -7 18 5 -10 -58 -1 3 4 -15 16 -1 7 -4 -15 -27 -77 28 23 18 12 6 30 -39 18 -43 -9 -14 47 -11 -35 13 -27 -1 27
19 0 9 2 -12 -31 -21 -7 15 20 7 10 -3 -45 -44 -95 -20 -10 -4 -36 65 1 -19 2 0 9 -61 14 17 20 15 -41 -9 42 76 13 4 36 -19 -12 -14 -22 -18 29 -19 29 -11 33 41 -20 12 -19 9 -23 -3 13 17 -51 5 54 22 23 16 -21
3 2 -16 19 4 -38 -4 0 -22 -15 -2 -5 11 -3 19 -42 3 12 -5 -21 19 -21 -4 -2 8 20 4 -42 10 28 -22 -14 7 -6 -3 -7 23 -8 -28 8 13 -1 -1 -7 -30 17 39 -44 75 1 20 24 -6 -14 -14 10 -14 31 -49 -19 7 -45 17 7
-14 13 -101 29 26 -1 -12 -6 68 -7 -67 5 -22 26 -59 -7 -68 -22 -13 57 83 -16 -28 4 -12 25 68 -14 -38 -35 68 -12 -66 12 -53 -33 3 62 0 -34 -37 -27 -6 -12 3 25 86 -34 46 5 31 85 -39 -8 -12 17 -45 -18 44 -3 93 50 -30 -33
-5 -9 -86 39 43 -24 -21 -18 -5 13 -41 15 -12 17 -58 -7 -7 -34 -11 44 85 -12 -22 12 38 -18 42 -29 14 21 78 -8 -17 43 -57 9 5 31 13 -27 -5 -34 -10 15 -14 2 44 -2 45 9 14 19 -25 -2 -18 -15 -40 -30 30 -19 31 41 -35 -57
4 -1 -62 5 64 -36 16 -28 29 -20 -21 -14 11 -8 -23 -23 -15 4 -13 -5 33 16 -42 -16 -3 17 3 17 20 4 18 -34 -8 41 -16 -9 -26 -24 20 1 -1 -27 -38 44 -46 29 -15 11 8 17 14 -18 24 -7 16 6 -30 14 31 10 -8 8 23 3
15 5 -3 -34 16 -1 -20 18 -8 1 -13 0 -29 -44 -25 -40 -30 33 -1 -33 7 -36 8 18 -1 9 4 15 -2 -11 -16 -46 -35 5 56 -7 9 12 6 -4 -27 10 -24 30 31 24 26 -37 59 9 23 -39 -3 -2 22 -37 8 -19 -17 33 42 -2 35 -2
9 12 12 -12 -29 -4 -44 27 19 -9 -28 3 2 41 19 -29 -11 55 3 9 -10 -36 20 33 -15 7 -31 52 -11 24 -42 2 -30 -21 82 1 -22 38 -11 -1 11 18 -30 3 4 7 16 5 57 -5 18 -15 -24 -15 -3 -16 47 -37 -56 -27 -22 -15 8 31
9 20 3 -25 17 13 -2 -28 -7 6 -2 -22 10 -28 -23 -21 -19 -15 1 -1 19 12 9 18 16 16 27 20 17 1 -1 2 0 17 -1 32 -71 14 -10 -7 12 -21 7 1 -13 17 18 19 2 4 -11 10 10 17 -20 -37 -8 -6 7 -9 -6 -9 6 22
22 37 -31 -18 6 50 -3 -12 -17 18 -16 -29 -7 -10 -27 -8 -15 -29 -4 -13 23 6 50 36 27 42 30 -10 -14 -4 -5 -2 -14 -2 -9 -3 -76 35 6 -8 18 14 14 -13 5 17 -7 11 8 7 0 20 14 24 23 -20 15 -27 -2 -13 13 0 37 1
19 18 -12 -25 14 27 -10 -2 1 33 -4 -22 -5 -3 -41 8 -21 8 2 2 24 8 28 -4 0 13 42 24 -34 -26 3 7 -14 -12 36 5 -60 43 9 -7 -9 1 -11 -5 6 14 8 0 -13 20 9 23 -2 16 0 -16 43 -31 -9 24 12 28 24 24
-76 -13 53 -37 1 -26 30 12 -8 -15 -65 11 39 42 8 20 1 28 -28 -9 -35 77 51 1 -10 80 -39 -26 39 -8 -13 8 -19 22 10 56 -20 -12 -65 14 90 23 -13 -17 -11 2 15 8 1 18 69 -52 47 -14 -23 30 -21 51 -41 -63 -41 -71 26 82
-29 -13 -2 46 -21 19 46 -37 33 -25 13 36 42 -1 33 -2 -5 -9 -33 68 8 2 -35 -7 -15 10 66 -36 -29 -55 22 -2 -5 0 -58 -25 -6 13 -14 -1 20 -73 9 -27 17 45 3 -26 -8 31 -49 -10 0 23 -5 75 -21 6 63 63 66 27 -3 -29
7 12 -3 -44 25 38 -36 -14 10 47 4 -34 -8 26 -52 1 -15 31 42 30 7 -29 13 11 -14 0 36 28 -11 -40 -13 19 -11 -70 -17 -8 7 50 42 -1 2 -8 6 -6 21 28 -36 0 -10 11 24 -10 -40 18 -28 -38 45 -12 -10 32 31 53 5 12
-15 -1 33 -1 25 -4 63 -17 -4 61 24 10 -52 -38 27 11 21 3 27 -15 -44 -25 15 -33 -12 -28 21 20 -41 -16 -11 -14 23 -4 9 34 0 3 -15 44 28 -16 -1 -75 11 28 -25 -40 -16 44 2 12 19 29 -49 -11 -29 35 -19 2 -2 65 2 28
-27 12 25 38 -31 24 -28 8 -14 54 -1 32 -37 -15 5 15 -22 -18 54 -15 -14 -42 32 37 -11 2 28 15 -48 -5 -19 23 -17 -69 19 -16 -12 22 -2 -8 29 41 18 -11 34 6 -9 -3 -40 -39 43 -5 -46 27 19 -14 27 19 -20 20 3 -26 0 15
-5 17 -34 30 -28 -14 -17 6 -27 4 -25 7 -40 -22 29 2 18 -32 -18 -19 26 -8 8 13 23 -1 -6 -25 -30 11 1 -28 25 12 -24 -5 38 -10 -2 5 -26 5 5 4 -19 -38 -5 -24 48 2 -11 23 -59 7 -3 -33 -21 -24 -6 -30 0 8 -14 -23
4 -6 -2 -53 -22 14 -29 24 -14 71 -1 19 -22 -26 -1 -7 3 24 66 -17 -14 -36 25 0 -17 13 24 14 -38 -35 1 -25 8 -37 20 5 -1 38 -13 26 13 9 9 -28 -20 52 -47 -29 7 23 6 12 -5 22 -29 -10 3 24 -35 8 -19 13 12 27
-14 38 30 -13 -10 -8 -31 40 -34 31 -15 -18 -10 23 9 38 -17 50 20 -9 -20 -11 22 12 -28 7 2 20 -26 -3 -53 18 -6 -69 63 -38 -5 26 -5 -8 -27 36 22 -5 32 18 27 -10 2 -8 -19 -25 -34 41 -12 -10 26 45 -13 -20 -17 1 16 44
6 -9 16 -8 -52 -11 -12 9 -36 -18 31 -9 -20 -4 6 -9 7 -9 -9 8 -27 25 -3 -11 16 -51 6 -5 9 38 0 -8 18 -17 -20 -26 13 11 -18 25 -13 18 18 9 -4 -32 3 11 30 -2 -6 -24 -41 -16 -35 -13 -12 -3 -26 4 20 -18 -3 -16
-1 1 -17 52 37 2 11 -17 6 28 -36 -13 -23 -36 9 0 -10 -19 -46 -8 39 -19 7 18 -63 20 -28 -27 -11 -22 -6 35 -2 -19 -33 -29 -11 9 13 19 -21 40 13 35 3 -2 -32 3 57 20 12 -45 0 -37 17 -20 -2 50 46 53 29 41 6 -28
18 -5 -11 -4 -56 -17 2 2 -18 -27 -25 -22 12 5 12 4 -5 -23 -43 -3 -7 -9 -8 -1 13 -23 -20 -14 3 23 -8 17 7 -4 -21 0 26 4 -2 17 -28 14 25 14 -32 -14 21 33 34 -28 -11 6 -27 -32 -32 -10 9 9 -34 -40 2 -17 -6 -21
20 -6 28 -2 -5 -36 58 33 10 36 54 -41 -54 -12 19 9 9 32 30 -37 -85 -33 4 -39 6 -16 15 -34 -44 -25 -40 9 11 -45 16 -7 -4 4 5 45 -19 10 10 -52 7 12 -8 -26 -22 46 5 15 4 12 -3 11 -32 23 -29 -10 -35 10 28 79
11 12 -3 -9 -14 29 28 46 -14 16 47 -37 -22 22 -29 25 -5 6 8 -30 -15 -43 25 -3 -25 29 46 44 -74 -26 -18 41 13 -31 23 1 10 -23 0 25 -22 18 -12 8 -2 20 30 -48 -6 9 16 50 -53 3 20 -16 49 30 -20 8 -45 -26 33 9
-53 -6 107 1 -28 -24 48 47 -25 -10 48 4 -11 7 17 29 -15 33 13 -1 -85 24 31 -48 -31 14 -1 -1 -4 -11 -28 108 13 -8 34 38 -19 -39 -54 23 55 25 -1 -40 0 37 -3 -2 7 38 32 6 -9 -9 -15 10 8 15 -45 -24 -52 -66 33 103
-5 -5 -48 57 76 12 44 -4 89 -5 75 -34 10 41 -1 28 -25 -16 -42 -2 -39 43 -2 -57 -43 -10 53 36 -17 -13 15 10 -15 -1 -35 -51 -13 14 19 6 23 4 8 -23 -11 28 -32 32 -14 43 -7 5 -23 15 -10 -16 17 15 49 -3 -32 3 15 18
12 -1 16 -31 -57 6 2 -5 12 -19 -4 -31 -11 31 27 1 27 27 14 -17 -51 7 18 -47 5 -32 -26 4 22 -19 -9 25 25 -25 7 -18 -12 30 -6 74 -49 27 -18 -71 -17 -21 -1 44 -15 16 -6 -33 -10 -33 26 -9 -3 50 -10 -2 4 22 32 -9
3 26 -67 -40 -31 16 -44 -48 77 -50 -74 14 36 79 -50 17 -32 51 4 53 49 0 -46 42 5 43 38 -6 -15 4 37 -6 -94 35 -11 -18 4 53 27 -50 -21 -21 6 -8 -14 7 94 9 4 -19 -19 7 -16 -29 39 29 11 -23 16 29 34 30 -26 -42
5 14 -23 54 49 6 -19 -12 30 -4 -13 -13 -4 -7 -32 -7 -25 -35 -26 -2 60 10 18 19 -5 -3 -2 -9 36 3 -7 -24 23 -9 -33 -49 -16 11 51 4 -11 3 -11 0 -14 29 -33 15 3 -2 1 -21 11 11 -11 -28 -10 2 12 -12 -2 53 12 -4