20 -2 50 21 -62 25 9 45 2 1 -10 -9 -65 -29 3 16 1 -6 1 -63 -63 -14 21 27 -13 -8 7 26 -41 -7 -38 39 13 -17 50 -4 -39 -34 30 -14 24 25 -30 3 28 47 7 27 -25 12 34 -65 -11 11 15 -21 41 -9 -6 25 -33 -14 16 53
-14 59 -26 5 -18 29 -30 4 -18 10 -4 -41 1 12 -34 5 -41 -16 57 7 -7 -15 -9 24 -21 -14 41 18 -19 -31 40 29 -71 3 0 -32 -34 58 5 10 13 29 5 -45 20 55 56 -26 -12 -3 3 3 -10 41 4 -9 44 7 45 -20 0 17 -11 31
-28 13 43 -25 -49 -1 8 54 -20 -27 -23 -8 -8 4 -29 -18 -40 49 18 0 -20 -28 -1 -15 -48 -17 -39 7 -4 -2 -11 31 16 -16 51 -48 -54 25 4 22 -21 22 -17 6 -21 55 55 18 6 8 40 5 15 -43 2 9 68 13 22 18 -35 -28 60 57
-38 0 4 47 53 18 -27 105 -19 -34 48 1 -39 -37 -14 2 -60 -19 -7 52 1 -20 27 9 12 -34 29 1 -28 -15 -1 55 4 -21 48 -6 -15 13 -17 27 11 16 -8 -18 -36 23 31 -2 15 21 54 76 -27 35 -48 -13 -26 18 6 -4 24 -38 45 50
25 -15 -30 -3 35 13 -7 -69 4 10 -1 -35 52 33 -8 29 3 -27 7 -6 22 9 3 -15 15 -5 24 -32 -3 -21 19 8 -32 7 -36 -9 38 12 -4 5 -7 -4 -7 36 -16 10 -5 46 22 -41 -19 -1 5 3 -17 -8 35 3 7 6 34 30 -41 -64
-15 -2 33 -50 -46 -18 -19 34 -16 -20 -32 -26 12 42 -30 4 -53 30 13 -2 -28 -14 -1 59 -24 -10 9 26 -55 6 -6 11 -45 -29 10 -14 -43 34 -11 11 10 -11 -1 -42 -9 13 72 -20 -37 -4 -6 -7 -24 23 -13 -22 64 51 34 36 -30 -6 33 29
-38 5 -36 -22 11 -14 -4 73 0 -64 -30 -1 -11 50 -39 10 -44 43 5 27 -12 -5 -1 36 -15 11 12 -18 16 -1 -21 8 13 -4 -35 2 0 40 38 -21 -28 -20 17 -20 -36 1 71 -25 -7 -5 -16 -1 -3 8 9 -19 19 10 36 -9 -35 -47 61 28
-8 -17 7 -52 -29 15 -27 -2 -35 -9 -15 2 -57 31 -21 4 14 49 3 -4 -16 0 15 -34 -15 2 -28 34 -49 -40 -18 4 -17 -25 37 -15 -27 1 -3 14 -37 44 -16 6 7 0 -3 -1 -10 11 -23 -23 -29 -15 33 21 14 29 -4 10 -20 -9 39 -1
36 -3 -52 -59 20 7 -10 -7 -27 55 -10 -37 -56 -16 23 8 10 22 2 -2 17 48 1 0 -13 34 23 45 -34 37 -11 12 20 -33 11 1 7 43 43 3 -10 -6 10 -4 10 -16 -50 -7 0 5 -8 35 2 7 5 30 -9 -3 -1 30 -19 0 20 24
20 8 23 24 13 24 21 -38 28 -26 -7 0 66 80 -42 1 -36 23 17 -20 -2 -17 -28 67 -12 17 -9 -49 18 2 -10 16 4 25 -33 -4 1 -34 42 -15 25 -22 6 -22 3 15 59 -5 -55 -6 -14 -3 41 -32 14 -7 30 12 7 -3 -59 -3 17 -13
15 37 -22 -25 38 -11 5 -1 31 1 -55 -34 18 92 -24 -21 3 41 -6 1 -2 -17 -29 33 32 10 14 14 6 17 23 -14 -20 0 -30 -27 2 31 12 8 -5 11 17 -11 12 -6 2 11 -12 -1 -10 35 27 -4 2 8 -13 10 15 -19 12 28 8 -10
-44 9 -43 24 17 31 13 -31 -18 4 48 -19 -26 -76 23 59 52 -51 -43 -10 12 27 -11 -82 -13 13 -7 -25 -26 11 -4 -28 37 -35 -51 53 -16 -15 -5 8 8 -10 48 4 -10 -42 -91 -58 9 10 -66 68 33 27 4 41 -63 -26 14 -3 -19 -7 -10 -13
-7 -3 45 -14 -38 -12 -4 61 -21 -5 -26 3 -38 -6 2 -45 -35 0 13 -15 -57 -3 28 -1 14 3 3 33 -22 -24 -43 33 -23 14 16 -20 -15 45 -13 27 -11 5 9 3 3 53 16 14 33 6 13 -16 -39 -21 -15 10 37 6 20 -9 -22 -53 54 9
3 -23 43 -54 -70 28 -10 21 3 -30 9 28 -23 18 -9 22 -4 75 -11 -7 -71 -42 10 -21 -11 -3 -37 26 -50 -42 -32 54 4 -44 36 2 -17 35 33 32 -50 7 3 8 -31 -2 20 16 18 -8 -40 -49 -2 5 34 35 51 51 29 82 -54 -35 26 55
27 7 -9 -49 -18 31 -59 -56 76 -2 -79 -17 81 69 -4 4 24 60 40 -22 -12 12 -18 6 0 8 -9 -19 15 7 48 34 -35 29 4 -45 26 48 29 -23 -44 -4 18 -26 0 43 16 19 35 20 4 -74 1 -53 29 45 86 11 8 12 -30 5 -22 -16
-33 19 19 25 16 8 63 62 -55 -12 44 49 0 -1 4 -20 -31 21 6 2 15 -9 65 -10 -11 -6 28 7 21 19 -42 16 -3 12 -28 24 17 -10 -6 10 16 -10 10 -17 -51 3 70 -34 -23 25 31 23 -9 19 -19 -32 24 -28 -5 -19 -20 -34 27 36
0 -30 -36 15 28 -55 76 -41 21 45 -12 -54 -13 -4 -29 16 18 -32 -22 -27 -1 20 -7 11 -38 13 0 5 0 -10 15 62 25 38 -15 8 -26 -33 0 -37 11 -43 6 51 -33 4 -78 -29 -6 57 -46 -49 4 -8 -3 -35 8 36 42 -12 -45 -28 5 6
-61 -9 40 -5 15 -19 37 -19 -10 -35 45 0 31 -43 40 53 44 -58 -51 -3 -20 17 19 -40 -10 34 0 -25 20 0 -8 72 30 -46 -41 -5 4 8 -71 18 9 -22 45 97 -47 7 -70 3 -49 36 -15 65 10 10 -34 9 -1 38 -25 34 -22 -36 24 -28
-19 -5 42 -47 -5 26 -19 4 -37 -39 -88 30 7 4 2 11 22 50 -14 87 3 17 -6 -18 -32 17 -31 26 8 37 -25 -59 -34 -27 108 0 -11 -47 -54 -40 -13 17 5 49 13 -72 92 29 6 -14 0 22 1 -22 -64 -2 -3 3 -28 -7 -21 -23 -19 29
-4 -33 28 -16 4 -11 24 41 22 25 -28 26 42 9 26 -20 12 -16 -26 38 -61 -3 13 -27 16 15 -18 -31 37 39 -70 -21 -19 -46 52 -29 -22 37 -73 20 35 -4 -22 6 -53 5 34 18 36 2 44 -19 12 -44 -36 35 -19 -19 -81 -21 -12 -22 51 50
-52 -36 49 -21 18 -24 9 31 -29 -22 -38 59 28 28 56 -26 -6 23 -10 61 -71 15 18 -39 6 23 -38 32 51 28 -46 -31 6 -15 52 13 -12 -11 -11 26 55 41 -1 41 -47 -58 57 17 -1 18 57 1 24 -46 -58 -8 -24 -1 -31 4 -29 -37 56 19
26 8 -31 4 24 63 -43 15 7 16 6 24 -2 32 -6 -50 4 27 -11 -27 -36 2 -22 58 17 3 -43 13 1 24 -11 -53 0 -10 16 -55 9 19 59 -3 23 33 -4 -8 10 -39 18 -15 -44 -53 -17 -43 12 -11 -20 -46 -7 -21 25 2 -1 8 -15 9
12 -14 -14 10 10 28 3 -17 6 -41 42 5 0 28 -41 5 -6 -60 49 -29 53 -15 -24 53 7 16 10 -3 -7 -5 42 38 17 21 -74 45 7 -7 5 -7 -31 -37 43 27 -4 10 -16 14 -11 -25 -27 43 -9 -21 7 14 2 -15 11 33 12 13 1 -3
-59 -31 7 17 28 3 17 11 13 62 66 0 7 -36 -23 -22 -27 -54 -4 0 -1 -32 15 65 22 7 -5 22 -11 -5 -22 -24 -8 12 11 -54 18 -13 -22 35 33 -19 -16 -31 -9 55 -46 -20 59 40 21 -15 20 -41 11 -38 -22 -51 -17 -2 -46 -2 44 -1
27 16 -32 -34 -19 31 -39 -11 -36 -23 5 -29 -17 -26 -21 36 -2 25 26 -48 41 -7 38 -2 -16 16 7 -19 -43 -12 49 64 -27 -6 -108 15 -2 22 15 21 -20 1 30 2 -21 18 -52 -32 45 0 -6 48 0 32 20 -10 -7 -33 28 -10 16 8 -10 -63
12 11 51 27 -5 -6 16 51 26 19 -45 16 0 -35 -16 14 -37 11 18 81 -8 9 38 -2 -21 -46 10 -12 20 -3 -25 -42 -46 -1 80 -49 -26 -2 -6 26 -33 31 -28 -43 13 -34 33 -8 12 -16 30 -24 -35 21 -19 -13 7 -15 -27 -7 24 17 6 -4
-48 -23 56 -36 -28 1 24 6 -10 -19 -17 18 49 45 -3 -4 15 -18 -17 14 10 10 7 -11 28 40 -41 30 77 27 -40 5 38 22 60 19 22 -42 -25 -36 30 -26 -5 35 -2 10 19 38 -16 -14 0 32 27 -29 44 -11 -9 -18 -36 27 -38 -59 16 44
-14 -33 5 34 18 -29 3 26 17 2 -3 0 43 36 25 -79 -25 33 5 21 -45 -4 20 10 32 -20 19 5 27 17 -3 -44 5 34 21 24 -9 0 -41 11 17 7 -55 1 5 -39 72 33 27 -1 59 5 -18 -42 29 77 29 -23 8 -17 -35 -40 -31 47
2 -18 19 -5 -1 -8 -18 14 -31 33 19 -29 -29 -56 79 47 24 21 -32 -60 -13 4 27 28 51 -10 -64 11 14 43 -10 -8 4 -11 19 14 26 -2 14 46 56 -4 -23 -37 -68 21 -33 24 47 23 -27 28 -6 -3 0 -38 -102 12 -62 -21 6 -27 53 -20
20 -16 -20 72 62 15 58 -26 19 29 74 -5 16 -34 -21 -25 -13 -2 -21 -12 4 43 22 10 -1 -37 -6 50 6 -28 11 -37 9 -19 2 14 -25 -45 33 -25 -41 24 26 35 44 -37 -36 -55 -51 -25 -20 -79 -15 -3 -21 -16 59 -1 69 -11 -29 10 -17 5
23 -9 -5 11 -36 -2 -42 -40 -2 20 -45 -18 -40 -22 5 27 20 -33 40 1 3 -30 23 9 5 32 39 -22 10 22 13 8 6 -20 -19 -17 -8 42 -20 64 38 -31 0 -43 -45 17 -3 24 94 31 4 41 -9 4 2 20 -80 -4 -48 -46 52 -6 10 -51
57 25 32 26 -36 36 -17 23 -16 19 -58 -15 -13 23 -2 -8 -44 60 5 26 37 -29 11 -27 -9 -56 41 17 10 23 -5 -35 -38 -4 57 13 -9 -7 10 -55 -2 6 -32 -40 19 -30 27 -22 9 -58 -11 -37 -30 -36 -46 -44 -6 -31 13 11 27 21 -28 15
37 -49 50 -20 16 12 -51 29 18 21 -25 9 -15 16 15 8 30 -7 5 0 38 -6 -41 43 0 -36 -20 -29 14 21 3 10 28 -44 -20 -18 47 59 2 19 -22 9 35 26 -36 26 8 18 -27 -3 -10 -22 5 -16 -43 -14 -16 17 0 41 65 14 -54 -27
-50 26 -49 5 34 2 14 -11 -23 24 11 39 29 -24 -19 -6 14 -35 -14 -19 -9 -14 44 3 38 42 34 -1 22 38 31 4 -46 67 -23 26 -68 -19 -19 -16 42 -16 -22 34 28 -27 -40 -4 -20 14 24 12 -23 26 6 -11 52 -27 15 -44 -32 -48 43 49
-2 -20 59 3 23 -18 -12 -21 -31 46 52 -30 -16 8 17 -7 30 -34 0 4 -13 -10 -47 -23 46 -34 -5 -23 15 -15 -20 -20 0 -67 11 -14 53 49 6 11 24 -31 -14 12 -60 3 -5 -3 -21 -18 -1 -9 12 -19 -8 -11 -20 27 -9 22 39 9 -36 -49
-2 -42 -16 -19 -45 -19 -16 20 20 -18 35 -29 7 7 33 1 17 -12 6 3 10 -29 -25 44 4 1 -9 1 -52 27 18 -5 25 -17 25 -14 127 56 -22 29 -26 -36 25 -25 -46 36 6 -5 50 -6 9 8 -10 -6 9 16 -52 -31 -6 43 50 14 -42 -18
36 2 -3 -6 10 35 60 7 9 -33 -21 39 9 42 -1 30 18 47 57 36 2 -24 15 0 -45 5 6 -20 39 -4 14 5 -1 6 -24 23 -126 -26 34 5 -39 44 -6 6 21 50 29 8 8 37 -13 2 22 24 -60 18 43 18 26 -14 -28 18 9 -4
13 -21 53 -14 6 -20 -14 24 0 14 32 -29 -63 -3 62 -8 15 4 25 -16 -21 -14 -26 21 24 -2 -38 7 4 -5 -37 4 -1 -65 -5 22 55 30 19 47 -38 40 9 1 -36 36 23 -3 -1 -2 -17 -52 -24 -27 -12 26 -49 52 5 54 76 31 -16 -34
19 -17 27 40 -52 40 -7 9 14 16 54 -2 -2 35 23 -34 -31 -21 -10 -21 -57 -30 31 -36 -16 33 -16 6 -1 -10 35 -40 20 -28 10 -26 60 8 11 -23 21 -21 -4 29 46 16 -29 57 -58 9 25 14 -52 -13 32 -11 14 -54 -4 20 10 0 -30 -29
-12 -17 -26 39 -41 33 -74 39 -9 27 26 27 6 -14 1 -14 -38 -44 -52 -41 -4 -23 30 -29 15 18 -5 -27 -50 31 -8 -25 21 4 18 -6 123 -20 -8 -6 3 -50 -14 4 21 -31 -35 55 -29 -29 10 8 -58 8 58 18 -8 -63 -3 -35 39 2 -43 -18
-19 14 -8 17 12 22 49 14 -3 -14 22 -4 32 20 0 -3 35 -27 39 6 9 -15 48 -36 -11 0 31 -27 10 -15 -22 11 -27 36 -31 -16 -45 -15 -1 -65 -9 -32 -6 18 30 -14 -25 -38 -17 -20 -9 29 -10 -7 42 -45 29 -23 7 -10 -37 -13 61 11
-28 29 -8 31 -9 46 46 -23 -24 32 16 -4 34 13 -4 -6 -4 -50 -19 16 27 32 40 -18 -8 26 31 24 -25 7 11 17 -23 33 -5 -10 -29 -50 8 -64 23 3 -52 19 48 -41 -36 -24 1 -7 16 42 -49 28 47 -9 39 -51 -3 -68 -58 -55 6 6
-21 46 -26 17 33 2 19 -6 -13 -9 12 -10 10 12 -30 2 9 -32 20 11 -11 -4 38 6 0 -19 35 37 -12 -4 -15 -9 -32 45 20 13 -68 -14 -28 -52 -5 -30 -40 1 25 -3 -7 -20 -25 21 -3 4 -13 -28 37 -32 15 -1 23 -50 -48 -10 60 31
-32 32 -23 -3 8 32 30 -31 -6 6 -15 20 4 -6 -4 -16 -31 5 17 15 8 3 23 24 -2 31 22 -2 42 -3 16 28 12 52 -12 1 -94 -46 -21 -12 -5 -1 -18 -18 29 -15 0 -3 -14 16 13 41 14 34 -28 -37 33 -2 -16 -52 -24 -22 36 27
-43 -11 21 29 -30 -48 -58 17 -2 13 -8 -25 30 -39 -6 -22 -27 -39 -58 16 8 1 -12 37 -13 15 -27 10 -34 44 -11 -10 10 15 7 31 124 4 -16 38 11 -17 34 3 -16 11 -29 -2 33 -17 -28 0 -10 -11 40 14 -50 -36 30 27 44 -18 -6 -35
-9 5 -8 -5 20 23 27 0 -17 21 -35 -7 10 -15 -12 10 12 0 40 19 -12 11 45 11 25 22 45 -25 1 8 -2 22 -29 17 -11 12 -102 -25 -2 -38 10 7 -23 18 14 -49 -2 -41 6 17 -3 25 -20 -16 13 -17 40 -6 15 -52 -22 -6 45 54
-8 -46 2 11 -43 14 -30 53 -32 -41 -4 -20 -6 26 26 -5 -17 53 7 -8 -4 -24 -35 3 14 -24 -22 -28 -3 13 -34 -23 7 -38 16 4 71 46 41 28 -14 -27 -12 -11 -24 -16 31 15 30 -20 -7 -21 -21 -3 31 3 -50 17 1 47 63 -2 -21 -44
39 -26 45 -37 15 -27 -34 21 -7 -12 -14 13 0 11 -3 -15 0 -27 6 5 15 -17 -58 -1 -20 -14 -26 -14 -33 -27 -12 -29 -19 -24 -9 23 44 52 -20 47 -14 -26 21 31 -27 20 36 3 -5 4 -3 -42 -4 -1 -29 25 -2 -12 -25 10 56 26 -21 -31
-8 -3 -34 52 51 -7 37 27 17 22 -36 53 -16 -26 -28 -34 -4 0 -37 12 16 -69 -18 -20 -21 -50 -9 -5 1 6 70 2 -6 61 -10 13 13 -42 12 38 -10 -18 5 -39 -19 4 -12 30 16 17 -12 -16 17 -32 44 -2 -24 -3 40 6 -40 -2 -1 12
-16 -10 15 -25 -25 28 -40 -78 3 -40 -19 -10 -16 21 -7 57 40 20 27 -16 -31 30 46 -10 17 50 -33 22 15 8 45 0 -6 13 33 -9 16 -5 12 -47 73 -2 10 24 16 21 -100 -7 15 -59 -12 -3 -55 -38 7 -22 -1 22 66 -12 9 52 -48 22
-5 31 -3 4 17 -6 54 -13 -46 -18 31 20 -26 15 51 51 30 -11 0 -19 -51 27 17 -41 15 -47 21 -60 7 -2 -20 19 36 -75 -36 -12 27 11 14 0 21 -19 32 -15 35 2 18 -5 -24 25 -32 -14 -11 26 -4 2 -35 4 -18 49 4 -15 13 -11
-30 26 60 -4 13 14 35 0 -9 4 7 -20 -57 -23 -7 61 21 13 2 -69 -24 12 56 2 22 -39 45 -34 1 18 -58 -9 2 -44 -15 -40 3 -11 -7 9 49 23 30 -19 -16 4 3 -38 -47 -8 -48 -14 -73 44 33 -11 -41 4 -11 4 -29 -32 11 35
5 -23 -54 -12 -10 1 -32 49 15 -16 1 0 8 26 7 -45 -10 14 -9 31 25 -21 27 11 15 11 -12 7 23 33 51 -11 -32 58 -19 23 13 16 6 27 -16 -37 -23 -33 -20 15 30 12 79 5 -2 -15 14 -59 19 37 -37 -39 -5 -31 -12 10 9 -6
-20 9 4 21 17 34 56 2 22 9 -9 -12 -32 -36 47 33 68 5 -57 -17 6 23 9 -18 49 -73 -9 -78 24 15 30 3 13 13 -83 12 5 -13 -11 51 60 -49 30 7 -35 66 -25 -28 -33 32 -63 -6 16 -4 2 30 -22 -8 43 2 8 10 -23 -9
26 3 6 11 -18 14 23 15 0 26 -30 -28 -36 -4 -47 32 -33 27 68 21 29 18 -29 45 -38 54 15 62 9 -13 -7 21 -46 12 -21 -27 -2 11 -5 4 -4 -16 33 -13 41 14 -1 -27 6 -18 15 -31 -47 32 -9 -32 4 -25 54 -13 26 7 5 28
19 -13 0 -2 -33 33 -50 39 31 -23 36 3 17 17 -39 -25 -32 -9 26 61 -38 -3 26 -1 -3 38 1 81 -17 -13 -37 17 12 -36 73 -28 -4 -39 -19 -32 -23 21 -25 24 51 -23 -37 40 30 -58 1 -27 -42 -21 20 -9 47 -37 2 22 21 -17 -27 -22
-6 -34 9 -46 -42 51 -21 32 -2 3 -3 -35 48 40 -7 -69 47 5 -16 54 29 -16 -28 12 19 -35 -7 -8 16 8 43 -34 45 9 -25 42 -11 28 -44 38 -42 26 -38 -14 -68 6 46 10 -17 4 22 10 74 -56 14 72 -14 11 5 -53 -8 22 -26 -22
9 10 -2 -5 -13 -16 10 22 23 13 18 39 23 40 -25 30 -40 -3 27 16 5 -17 8 -60 7 27 49 70 -27 -6 -17 36 14 -26 31 6 17 -33 14 -47 -9 17 -3 36 -19 -78 -20 18 -13 -32 40 2 22 35 -28 -40 22 22 13 12 1 -25 -10 15
11 -32 -8 31 -22 18 1 -13 49 0 -8 -22 -3 19 -29 -34 3 -6 28 30 11 61 29 18 -49 8 3 24 29 9 50 -23 -49 45 -17 -34 -19 22 -54 -27 33 -40 -11 38 -2 33 -60 25 40 -13 -10 -61 -18 -69 -40 -2 28 -7 97 -31 22 -2 -1 19
2 21 -36 42 39 -2 27 -42 16 11 -15 21 -9 1 -50 35 -17 -32 25 -33 -12 21 26 13 -26 -24 -16 -18 -4 -8 63 -21 -16 37 -33 26 -7 27 -17 -27 52 -51 31 20 36 49 -88 -6 -17 26 -42 -74 -25 -56 -21 -10 -8 -9 103 8 -1 27 -27 15
8 30 19 -37 -43 -12 -4 -13 -28 -11 19 8 -33 -31 1 47 -14 25 37 -18 -22 18 -20 -49 8 -18 17 -53 -26 33 -69 -14 32 -85 10 -21 -18 9 41 8 -2 27 8 10 34 -19 -11 36 -50 -40 6 -7 -11 43 -17 -2 4 42 -93 30 22 -36 25 2
-17 -20 18 44 -8 29 -14 -16 61 15 -14 5 -13 6 0 62 -18 -6 0 48 -9 -51 10 -43 -17 72 -37 56 -44 -34 26 47 2 -33 29 13 -29 -34 40 4 -44 15 10 5 16 -7 -52 35 -31 3 -17 4 -7 1 38 8 25 -20 1 28 -31 17 -5 20
50 -22 36 -83 -33 -19 -27 23 -74 6 7 3 -22 7 30 11 34 36 10 -1 1 23 31 -11 16 -4 -16 -5 -5 2 -36 -51 33 -92 -24 -10 6 12 -19 36 -9 31 -20 29 -1 0 -33 -17 -16 -18 -24 18 -15 -36 4 -7 -12 17 -62 34 49 -29 -7 14
16 -24 0 13 8 -12 9 -39 19 28 -67 25 -20 9 29 30 33 29 -45 -14 36 24 -36 44 21 -57 -47 -40 34 6 28 23 52 40 -66 34 -10 11 -9 19 -26 -39 -12 35 -47 21 -28 -28 15 4 -63 -8 30 -53 -13 26 -34 35 75 -25 -5 22 -33 -6