24 22 -3 -53 27 32 -37 -9 20 26 -18 10 11 12 -28 -17 -16 5 21 28 15 36 -35 -19 -5 -13 -36 69 21 11 62 -68 15 41 37 -6 30 23 -27 -72 26 -3 -35 15 37 -52 22 29 30 -39 33 -23 -11 -8 -25 4 12 -44 19 -2 -1 30 -7 -43
-17 20 3 -22 10 -3 -34 39 -31 -21 -9 0 14 23 -5 54 27 46 14 36 12 25 13 37 -8 22 53 -42 -2 -16 -18 -17 -52 -9 -27 -7 23 21 25 -53 -7 2 18 1 -9 -65 -24 -31 -9 47 -7 -43 -27 4 9 17 -28 32 2 -29 30 -47 -3 33
53 -7 -13 8 -14 -23 -15 -17 -7 -16 30 -23 -42 1 -2 -30 46 -22 27 -5 15 -24 10 -30 -17 -11 5 10 3 1 -39 26 10 -29 39 14 -15 9 -11 37 -34 -22 -21 12 36 17 -30 35 -2 -4 -56 -11 21 -37 44 -13 31 32 -15 -3 -37 17 20 -19
49 -16 -4 -10 -42 -16 -55 8 18 -11 -41 -33 38 -14 46 -19 -2 11 -28 -10 30 13 -37 41 15 -28 -20 -2 -30 36 21 -42 -10 -28 -1 -16 -13 57 32 9 -17 3 -30 2 8 -1 -17 8 7 -28 9 17 22 -33 20 33 4 9 -23 50 44 35 19 -25
62 -30 -1 -34 -17 42 -12 -13 -29 11 1 2 -17 13 24 6 21 35 -29 -22 -7 28 -63 -8 -19 -13 -19 41 18 17 8 -63 13 -14 27 -41 5 3 10 -40 -17 6 -12 -1 20 -34 10 4 19 -41 1 -71 -6 -8 1 11 -8 -47 17 0 5 8 -32 -26
-10 23 -25 -22 -2 27 -5 0 -6 65 37 55 17 -26 -19 -42 -35 14 42 -21 -25 47 34 -19 -14 17 68 38 -15 -26 40 53 -4 32 -36 16 -8 -18 -27 -41 45 -23 -13 -26 -8 18 94 -39 5 8 65 -9 -19 37 9 -26 18 0 -30 -1 -27 -55 9 -7
-36 25 23 -15 0 13 24 28 -39 24 7 30 -19 4 33 24 39 4 41 22 -26 27 -10 10 -4 -13 30 -21 20 -19 4 52 -24 21 20 -19 -25 19 -3 1 30 14 45 4 -66 -5 -46 17 -10 -13 5 -37 -11 0 14 24 45 39 17 6 -22 -17 0 7
5 -10 5 -34 -34 -22 -8 17 37 22 21 -10 22 22 -25 -28 -53 7 -23 22 -37 -3 5 -33 -39 -36 -27 54 13 -12 23 2 -18 24 50 21 8 7 -14 -15 43 2 -17 -21 19 25 33 50 -10 -41 23 -20 45 -4 -13 7 -16 -14 -3 -11 44 -7 -31 30
-31 23 -8 -12 -51 15 22 29 -6 12 -65 -12 35 -3 -20 -24 -15 -3 27 -19 13 -10 3 43 28 39 -99 9 33 19 12 -1 -7 65 -16 68 17 -7 1 9 37 -8 -25 -23 -13 20 19 -9 -7 -19 36 -33 10 41 50 14 15 -18 -31 -50 13 -21 -4 8
-9 1 -33 -20 -8 21 -28 -31 -2 39 -9 -11 7 -35 -61 -36 -30 -47 -52 -26 20 14 -21 12 37 7 -22 37 40 -9 48 -7 -23 66 25 32 21 -6 9 -51 20 10 -29 -4 -19 -17 48 28 47 -14 76 28 26 -24 49 13 -21 -92 23 -41 -22 -9 7 12
-11 -7 -55 -48 35 52 -62 26 -21 28 10 20 0 -31 -82 -65 -47 33 9 -30 7 -6 -25 49 -14 -4 57 52 -26 -16 63 -14 -59 21 34 31 34 10 -8 -80 -12 11 -7 -35 14 2 87 -40 28 -13 24 -4 -34 36 28 -22 -2 -24 25 -20 12 7 9 -19
-30 11 21 26 -39 -45 53 -8 8 51 -10 -8 27 -9 0 -5 -23 -58 0 -38 -17 8 35 29 3 11 -51 -12 26 16 17 -5 -13 17 -9 -1 26 -4 -25 13 -1 -30 -30 -18 3 60 19 -49 -17 24 24 23 -11 5 45 -1 19 -38 -41 -7 -1 -10 -21 20
17 -38 -27 -5 3 -15 41 -42 3 14 0 30 44 -10 25 29 15 -20 -8 13 -24 -23 8 -37 -19 20 -44 4 -17 -25 12 -37 57 -33 13 -7 -12 -4 -18 -3 -33 -15 -18 25 -4 35 -57 -24 -18 2 11 33 14 -15 35 38 -7 25 14 0 -36 34 18 -25
81 -15 -63 21 -1 36 -52 -19 46 -41 -42 -46 23 4 -6 -28 -27 -24 -24 14 -1 -53 -36 16 23 16 11 41 5 25 35 -96 32 -7 28 -27 12 62 46 -30 -35 2 -35 13 20 17 71 61 31 -17 1 31 -58 -39 -4 42 -14 -57 46 4 66 80 -32 -51
71 -23 3 5 -21 29 -89 7 -7 -38 59 24 8 -12 -11 -12 -14 27 26 -15 22 8 10 -31 63 10 24 28 -2 39 -15 -17 -31 -28 24 -31 -7 35 60 -45 -26 -33 -41 -2 30 25 69 -16 33 -40 -16 -11 -43 -12 6 -24 -25 -13 7 17 17 -34 -30 -27
-12 39 -16 -28 0 -14 -40 3 4 4 20 7 -2 25 -51 -29 -71 6 -16 -20 23 33 -19 32 33 -23 -12 24 27 49 48 -10 -53 16 41 25 -5 3 2 -45 5 13 -56 2 -5 -1 69 -6 21 -25 53 19 -31 25 36 -26 -20 -71 -21 -19 56 -11 -41 -32
-25 -6 -7 17 5 -15 -7 28 -13 -31 12 46 -1 -37 -4 -4 -17 -22 -46 -45 -16 -41 0 4 -9 23 -41 -35 -3 29 -23 33 1 12 -20 -33 11 21 29 46 2 5 -23 -28 -13 -1 22 21 25 35 14 -7 -4 8 -18 -30 4 3 51 38 23 -38 7 -18
5 34 24 -7 -34 33 -26 -60 10 16 -7 13 -35 20 -8 60 32 47 4 -24 25 1 -12 26 3 54 -29 -28 -6 12 12 -16 10 -23 10 19 -21 -46 19 -14 -41 10 21 36 39 -17 -39 -50 14 -60 -2 -5 -4 8 31 -18 -37 -9 13 -52 5 -17 -29 -26
-9 -3 -17 -24 4 27 -6 -14 -32 3 3 -34 -23 -3 31 3 3 43 34 -22 3 -1 -26 4 40 -16 -40 -14 9 -5 5 -38 -9 4 27 26 -16 7 -6 30 45 1 10 -14 29 -105 7 7 6 0 2 -57 -3 4 -44 30 -39 -19 8 19 12 29 -22 -7
-23 3 13 -3 31 0 37 -59 -17 8 -20 -19 -14 -6 -3 1 8 6 -5 -9 8 -24 -6 11 11 21 4 -8 -28 14 13 38 1 0 -54 19 34 -8 17 11 8 -17 18 12 6 41 -55 9 -23 -6 5 0 36 -7 30 31 -17 12 24 -41 -10 -26 -6 44
1 -7 21 -48 -12 -4 4 -17 -9 -24 -43 -25 -38 24 30 25 29 29 -18 -24 0 33 0 -2 7 15 -33 14 39 -7 -5 -5 24 -56 -9 -2 9 41 2 34 1 9 4 27 30 -27 -38 50 3 27 -35 -19 2 22 -17 23 -14 -3 -2 3 -33 8 -23 30
-5 -12 -35 50 39 26 -20 -12 57 -61 24 -41 45 10 -13 -5 -13 -17 -47 5 -4 14 -21 -1 -50 17 33 -20 -7 -28 17 -10 -13 -30 -19 -50 12 9 24 -13 -2 -14 16 8 33 32 -47 19 0 -15 -29 24 -17 -11 -2 -49 -15 -7 -12 43 17 -19 7 2
52 7 30 -46 13 10 -2 -12 27 -8 38 -12 -3 26 -23 5 -26 -49 -17 38 -1 -6 9 -4 -44 -1 30 -34 1 -26 -11 5 8 7 -11 -11 -6 3 -19 9 -21 37 26 47 13 -1 11 29 -31 -10 -13 6 31 -52 2 -16 -6 27 52 -4 21 -6 -10 -31
57 -25 -23 24 -25 12 -44 47 39 11 38 34 11 53 10 22 28 -28 22 16 12 42 -45 -48 26 6 18 27 -27 35 -13 -14 -14 -25 -27 -29 -14 -10 24 2 -25 -44 -8 52 24 12 23 41 -8 -26 -16 -14 0 -37 6 -3 38 -3 -1 6 39 34 10 -22
-56 9 -18 -21 -22 5 -13 -10 -19 -24 -23 -1 12 28 13 -4 3 -19 -13 -39 5 22 22 -31 -10 -4 39 16 -20 5 13 13 14 -12 21 -20 -10 31 -36 -20 -6 -6 0 40 14 -24 47 23 -14 37 -36 39 -21 32 16 14 21 -31 -27 39 22 44 -1 4
-15 35 46 -10 10 43 1 -68 -25 35 -17 -10 -29 29 3 36 4 -10 18 18 12 40 -12 2 -19 25 33 12 -36 1 41 14 -10 -30 -17 18 26 -28 -20 -20 33 0 -17 13 29 -21 0 -39 -35 -16 -16 -44 15 28 46 20 0 34 1 -26 -9 4 -22 3
-59 4 3 8 -23 2 -10 56 -17 2 27 -51 24 34 28 9 4 29 -12 2 -7 47 47 -2 -21 -25 53 52 0 -18 -32 11 -38 -1 5 -1 -25 -8 -47 -14 3 35 -27 -16 -13 -19 35 24 7 21 45 30 -22 6 -14 -15 17 -4 -37 -5 -44 30 34 31
-19 3 -18 38 -22 5 -13 40 11 -15 -7 22 -4 -23 32 26 2 11 -11 -11 -11 -7 21 -1 11 1 -20 -26 11 -9 20 28 5 38 3 27 -23 -13 -31 -2 -24 -15 -31 -4 -21 -64 42 -9 44 -38 32 5 -15 -16 -4 19 -23 -34 -9 26 15 22 -9 -12
-14 -15 -22 -5 -36 6 -16 17 34 -78 2 27 44 23 -11 20 -22 45 -7 7 -2 -17 33 -28 -45 -9 -24 -17 8 -21 -26 21 -30 -11 12 -10 -22 -18 7 21 27 2 -22 -8 -9 39 9 26 30 12 -4 71 -15 -39 -5 -4 29 9 -27 36 -5 27 27 -46
28 14 3 32 48 -2 16 -52 16 27 -3 2 -14 -22 -14 -28 -19 -36 -14 38 -5 -21 -9 -6 17 25 -34 14 -28 -11 36 -31 -4 -19 -33 14 -3 -28 25 -21 18 -24 0 23 41 50 -38 -4 -6 12 13 -13 7 -8 33 31 -2 -2 65 -15 -1 16 -29 -16
36 6 -27 5 12 -20 -12 -28 47 12 37 20 -25 -20 -21 -22 5 -27 6 -15 48 37 -56 44 -8 -13 -52 -4 -19 4 14 -22 0 14 19 -31 -2 12 -6 -13 -59 -12 14 46 -2 -12 3 -42 39 16 -11 -12 19 11 -8 -24 16 -29 83 -21 -2 -7 -28 -50
49 7 2 14 -52 -5 -20 38 32 -47 35 39 -20 17 27 -2 29 46 -7 -46 13 4 -17 -5 33 2 -7 -35 -5 -1 -6 6 36 24 20 -21 14 1 54 -7 -8 -3 -10 25 4 -79 39 -25 31 -39 -4 11 -26 10 -41 -34 -13 4 -43 -35 21 -9 29 -20
-4 11 -43 2 -1 13 37 -4 18 33 25 20 -9 -33 17 -15 -1 8 28 24 -17 -10 15 -33 -15 -20 45 27 -58 -25 5 35 -21 -7 -55 -7 15 -23 17 50 -21 1 30 -44 -12 2 8 -18 -26 74 -65 52 41 43 -20 9 32 -22 -15 63 -29 -13 19 31
42 33 31 -8 -55 4 14 18 -56 -26 9 38 -38 34 70 -2 48 7 48 -34 -39 -30 -34 -6 54 7 -20 -23 30 -17 -24 -41 24 -49 30 30 -54 -23 7 22 -10 25 19 -38 -7 -12 24 67 -47 0 4 -12 21 -19 4 23 2 -1 -50 19 -29 -57 48 -8
20 -45 20 -39 -13 -64 -40 -28 -63 -50 -48 -48 -16 10 28 -6 26 49 31 -14 12 13 -36 -1 -44 37 -4 13 30 36 -6 -4 -6 45 14 49 -30 13 -26 -11 -46 48 -13 43 15 -47 48 -8 54 -39 62 -34 -8 -28 -12 -5 -36 3 -12 -9 18 -25 12 -30
-6 -16 -9 19 59 22 -9 -52 44 54 -36 10 46 -17 -52 8 -22 -68 -56 6 28 1 14 -26 -1 11 -8 -4 -19 -9 73 -15 -24 40 14 -20 68 -48 -30 -25 -2 -43 41 2 -4 49 -70 -69 3 47 -29 -25 81 17 11 20 -9 5 33 -23 1 -3 -13 11
22 32 20 -36 -48 16 -28 32 -28 5 23 11 5 16 -10 -18 -5 43 27 -6 5 43 22 15 2 11 4 0 -16 -9 21 -15 16 -24 41 2 -17 35 4 -24 -6 10 -21 -4 20 -16 9 25 -4 -41 17 11 -41 19 -24 9 12 4 -15 -43 -25 -37 29 -36
10 8 -24 16 38 56 1 17 25 16 22 4 -20 -11 12 33 -5 2 15 27 -2 -41 12 -49 6 -44 41 7 -21 -13 19 47 18 -47 -53 -49 26 1 31 -3 -5 -51 42 -32 12 15 29 -9 -24 9 -86 5 2 -14 5 29 -1 -49 3 32 1 60 -5 26
22 9 3 5 2 25 7 8 -49 -48 -55 -36 39 33 -47 -2 -26 -9 -3 -15 11 56 21 26 -16 44 -24 22 0 33 -6 3 -15 50 4 52 15 -28 -3 -14 -21 35 -66 64 -15 -24 26 18 21 -97 48 -43 -13 -27 11 7 38 6 -23 -15 -3 9 45 11
81 -31 -44 33 -40 -50 40 -3 25 5 18 16 -38 -20 30 -29 26 -12 15 6 -25 -45 -63 -57 56 -28 1 23 -38 -19 11 -6 11 -38 29 -51 13 13 46 7 -1 -57 43 -29 -19 20 -32 82 -10 -2 -34 67 31 9 23 11 -41 -27 -2 14 22 3 -13 1
36 -22 0 9 -33 -33 28 8 36 -29 -8 -38 -7 26 9 -34 25 -6 25 23 -33 -44 -21 -9 -19 31 -8 -21 38 -34 -34 -15 57 -10 -9 -30 -7 4 38 -17 -22 21 -26 22 -55 -57 -35 17 33 -8 33 -22 11 5 8 -1 0 2 30 40 -8 -46 -16 -5
43 23 -36 27 11 -51 56 -40 31 19 -49 24 9 37 -1 -8 16 10 -10 22 -26 -27 -15 -9 41 -19 25 26 46 16 -8 9 7 -19 -36 -14 27 -5 -12 24 -1 3 -9 20 -35 11 -14 45 -17 -12 -68 -1 27 -36 36 22 -35 -26 13 17 -27 -25 -1 -2
5 27 40 38 -1 -43 -80 -21 -57 -14 -11 5 -12 11 -2 17 -32 48 -17 -59 24 57 3 34 -51 39 -31 -17 5 44 -16 43 -4 55 37 85 -2 3 -4 -9 27 11 -13 11 -30 12 63 -16 13 -54 127 -25 -30 -21 -20 -66 -29 23 8 -52 35 -29 13 16
-54 23 48 2 52 -11 -20 -31 19 1 -31 19 17 -21 -19 9 -37 -22 -62 -29 -5 35 28 33 -10 24 -58 18 -21 24 2 -11 -15 48 -6 34 7 11 -38 6 -6 0 7 31 -10 -4 -13 -40 25 9 -12 -56 8 3 -10 -28 30 3 24 -32 9 0 10 13
-30 -4 -7 4 42 0 -22 -16 29 -4 -39 -21 -10 -41 -43 27 -21 -25 -76 -38 19 66 10 35 -35 27 -55 7 -38 1 53 -27 -68 18 31 44 38 -51 -48 -22 13 25 -39 57 47 0 28 -47 39 7 6 -38 -8 9 -21 -28 18 9 19 -14 -23 -17 8 -8
-3 -17 32 -15 -16 13 1 -12 -3 -42 -61 6 50 -12 -17 -28 -30 -33 -3 0 -12 44 -9 19 -36 20 -40 31 9 60 32 -5 -47 42 22 34 -24 2 -49 -23 38 35 -42 52 -29 -16 -9 5 26 -57 49 -17 1 -37 -1 -1 2 13 -19 -14 11 -37 -21 10
4 -42 -37 43 21 -52 17 -2 22 2 -6 -9 9 -12 48 20 19 3 -16 51 3 -51 3 -33 3 -29 21 -29 6 26 -21 -1 50 14 -8 -61 44 -8 -12 -6 -38 -17 11 -4 -9 8 10 33 -8 23 -49 2 27 2 -5 12 -74 -35 -12 25 8 75 -48 -4
-6 28 18 -34 -33 -12 -16 46 -51 -16 36 -14 -4 7 36 -1 12 41 21 -10 11 20 -18 -9 6 31 10 5 53 2 -47 3 32 -2 7 35 -53 18 -6 35 3 56 -3 -34 14 -46 -7 38 -4 -17 65 9 -27 -11 -11 -2 -25 -10 -8 12 -19 -23 42 23
-11 16 -3 0 1 34 -14 -8 -20 -35 -24 1 -12 22 11 44 23 21 -29 -19 -16 2 -25 -2 -11 13 -52 -60 3 37 5 -6 -4 8 56 60 -36 -18 35 -6 -50 11 -13 -17 63 2 -9 -29 17 -34 -22 19 -4 1 49 20 -28 -23 47 -1 29 57 -12 -30
2 32 7 16 -57 16 3 31 24 19 -51 -24 14 32 20 64 2 -20 8 -14 0 -21 13 -4 29 20 -1 46 15 -21 16 -32 -9 2 -14 5 34 20 16 -12 -45 -11 0 1 -20 18 -24 -11 -1 -47 -42 -58 -37 15 64 33 19 2 5 0 9 3 -7 8
69 17 -4 22 19 -34 -38 -26 18 -8 22 -5 3 -25 -17 -60 -50 -7 29 -14 -29 -30 -43 21 -27 -57 2 -3 7 17 -4 -22 -16 -45 -22 19 12 35 21 -31 3 -14 65 -23 -55 37 -3 23 -9 -6 7 -10 -11 -21 -3 -24 -26 40 -50 6 30 -6 -8 46
74 -6 -43 40 -43 -20 -38 -3 31 -13 8 -45 -36 -7 44 36 11 -10 13 28 17 -43 -14 10 -14 -26 70 32 -44 -29 -19 39 28 -46 -30 -67 -16 19 29 -9 -66 2 32 14 32 3 -9 -26 2 -26 4 -36 -72 -7 -40 -16 27 18 -15 52 20 37 11 -24
-7 0 18 -23 -7 -48 -20 -19 -28 -30 -26 9 61 41 -11 -2 11 -37 20 -16 7 55 -27 -7 11 42 -37 1 41 35 16 -63 2 68 22 26 8 -46 -51 21 51 -18 -65 -1 -39 9 -17 43 -30 -31 47 6 13 -21 -1 -20 -10 8 -40 -60 -12 -27 -13 -18
-4 27 -26 -5 31 18 -36 -4 2 56 16 6 18 20 -20 39 -69 -3 -20 47 8 -19 18 -12 -18 27 -80 3 13 6 2 -12 -4 -52 -22 -5 2 19 -7 4 19 16 20 -5 -15 12 12 -28 1 -2 8 -10 24 23 -20 -16 -44 22 12 10 33 10 15 8
-45 15 28 -54 -54 -20 44 2 -2 19 14 -58 -22 19 37 -20 61 9 -14 -37 -46 -17 -21 -15 -26 27 26 -22 14 -20 4 -28 40 -8 1 4 6 -14 5 14 13 -10 9 -34 9 -32 -48 -17 -32 16 -26 21 30 -4 39 26 -5 35 -53 15 -19 -19 2 36
-8 -52 24 22 59 -18 2 -6 -22 -25 -21 37 35 -12 27 -27 7 -2 13 14 -10 7 17 49 -27 18 -23 -12 8 18 4 -16 22 9 4 -23 -3 9 31 25 -14 -38 -47 26 -37 -38 18 -1 27 35 -1 -13 10 -19 -13 11 -8 -21 23 -16 15 -1 17 11
-3 4 -42 45 -26 38 14 -11 5 16 15 -42 -4 -4 -4 44 -11 5 3 10 8 -25 5 21 -11 -34 -7 52 -30 -26 -3 45 49 -61 -41 -54 8 22 -21 6 -41 -15 37 16 48 21 -44 -22 -23 -4 2 -31 -72 19 -47 -7 15 26 27 18 27 14 3 -15
39 26 -24 24 24 9 6 -12 -6 -10 -39 -19 5 -30 7 53 -14 -7 26 52 -16 -61 33 -4 51 4 20 -8 -43 -41 4 8 37 -25 -39 -50 14 13 25 -25 -56 -8 65 21 8 35 -41 -23 -24 -38 -31 0 -25 35 -8 -3 -20 -32 11 23 10 3 -20 1
-55 -10 18 -58 20 -6 43 1 -9 -12 -13 -5 38 -16 -13 -38 6 -21 9 -1 -7 42 3 -1 22 53 -28 -11 15 31 -20 -68 -4 -3 28 34 -4 16 -3 13 35 -28 -32 6 -64 11 -17 -3 -15 36 -9 54 67 7 64 13 -35 22 -61 -25 -23 -2 -4 14
67 -8 -24 7 23 -12 2 -17 -22 3 -2 45 45 3 -33 -45 -28 -29 49 -21 -34 -24 -26 -5 -30 12 -40 26 28 -23 28 -23 -13 29 34 7 17 -13 -10 -29 -51 18 0 16 -6 -9 26 7 5 4 -26 -12 -8 15 -20 21 11 12 4 -23 -46 -7 -14 25
59 -4 -25 -36 -1 -32 62 -5 40 -27 -38 8 4 21 21 16 -22 -26 19 -10 17 -15 32 -64 -22 5 38 50 -4 -5 -13 5 28 -2 40 -9 22 29 -49 -54 -49 -3 9 30 1 -19 -39 62 -18 14 -45 65 31 18 -14 45 33 -14 7 46 18 13 17 -5
-7 14 28 14 -9 37 -60 55 -1 29 5 -24 -45 -6 6 30 -38 2 -14 0 0 -25 -7 2 37 -5 5 17 -31 -3 15 26 19 -10 3 5 -20 22 8 3 -44 20 -9 -8 22 -2 11 -13 21 41 42 22 -55 59 0 -41 -45 8 -14 -26 7 28 18 -62
-13 16 -9 30 -15 9 -33 -31 8 -12 -5 26 -39 -24 -12 35 -3 -12 -5 25 43 -68 -21 -35 5 -8 -12 6 -27 -15 17 19 -17 30 19 17 -23 -13 -21 -49 -3 39 15 -2 51 -19 -16 18 32 -29 -23 -22 -17 -6 2 31 20 0 68 2 -16 47 -6 -38
-6 19 -14 30 -37 21 -9 11 52 6 -17 -18 -59 -23 -19 92 -3 -5 -36 46 -7 -63 35 -23 16 21 30 46 -65 -15 -26 6 -12 -28 -52 -50 4 6 -1 -21 -58 9 61 8 40 24 -35 -35 10 -41 -61 -56 -28 37 6 27 30 -18 2 69 -10 12 -20 -30