-2 -1 -24 -3 3 -6 -4 19 0 -12 -27 12 41 37 5 19 24 10 -6 -3 -42 19 -12 -38 32 -13 -3 9 25 1 12 35 11 7 37 5 2 -2 -1 -16 11 -41 -14 -20 -26 -20 1 24 4 1 2 16 -4 -38 11 27 43 19 -25 -2 -45 9 3 -3
35 38 -14 3 -3 39 -73 -18 14 -3 39 27 27 -36 -34 4 -31 10 4 -38 18 -35 13 13 6 11 15 4 -16 7 21 -7 -4 18 51 1 16 1 16 -33 -49 -7 12 -7 1 -32 26 -23 1 -12 -37 45 -36 41 29 -4 44 -75 -25 -15 -22 17 5 -10
-18 -18 1 27 -19 16 9 -33 -30 -16 57 3 -8 9 -30 -10 -7 -30 -5 -7 25 15 62 -6 20 1 -2 -2 0 17 -27 7 -15 33 10 17 10 -10 8 -1 64 -19 -29 -35 31 -24 3 -13 43 -39 -10 22 -10 6 -19 6 3 -17 -28 -4 -37 -37 19 22
15 18 -50 8 31 -7 15 -12 0 -9 -51 4 3 0 -3 -22 10 -33 -48 -9 -7 38 -25 4 1 -23 28 29 17 -14 -6 4 7 25 8 12 -19 -32 -20 -2 -14 -31 -6 10 -27 -27 -8 -20 -1 -6 -6 31 2 -14 7 -1 15 15 12 -34 5 65 28 -14
20 8 -8 -9 17 14 54 17 15 -23 -40 41 -11 -3 6 -36 -14 -1 -15 29 5 -1 -18 -26 -5 -10 -4 20 15 0 -6 -36 1 19 21 28 -33 -28 -9 -17 -14 10 1 7 -32 -4 2 -31 38 19 -4 1 21 -25 -11 31 8 8 33 -21 14 43 17 -3
-15 -5 -23 29 36 -4 12 -5 23 30 22 3 11 -9 -19 -17 -10 -29 -22 1 23 9 22 36 30 29 19 32 -31 -5 32 15 -16 36 -5 29 13 -1 -29 14 -16 -46 -31 29 12 -30 3 -21 -4 26 4 2 -28 16 -23 6 10 -26 29 -12 -1 13 -18 3
34 -11 -44 4 -38 -14 -41 -7 19 22 -93 -27 0 13 -14 -66 -37 5 9 -12 46 -34 -43 11 -9 16 -87 -9 23 11 26 -93 -50 13 43 14 -15 55 4 -28 13 32 -11 6 2 33 13 23 53 7 -16 -18 36 -9 11 29 14 -35 18 20 19 6 15 -62
0 23 -43 43 2 3 -74 -23 2 -40 30 -14 13 -7 -23 -5 8 5 21 -8 -5 20 -20 -3 33 2 9 -20 -7 23 26 -21 14 6 9 29 10 -2 13 -52 35 8 -8 -5 9 0 15 41 -12 -27 -8 10 -7 0 9 42 -3 -12 -42 -20 12 14 4 14
15 9 -1 -7 -29 25 -22 9 -12 -3 -27 -12 0 19 -16 12 -46 22 -10 -16 25 -6 19 12 -2 -1 -2 39 -10 13 -14 13 -34 -8 49 -6 -28 50 13 -24 -10 37 -12 -70 17 1 -10 1 14 -14 9 16 -29 5 18 -28 26 -19 -15 31 -12 7 16 -5
-4 -30 12 -42 20 -3 -8 -11 6 -62 -20 -16 1 24 22 -5 12 36 -19 -23 -9 41 -25 4 1 11 16 -12 41 -13 24 28 9 42 20 13 23 -17 21 5 7 10 4 -25 -6 1 3 14 -6 4 9 -13 42 -44 19 30 -30 11 5 -44 17 19 -1 21
52 9 14 -3 -32 8 -77 35 -45 30 -13 -20 -43 52 -9 -39 -12 34 56 -12 47 6 2 56 25 -36 24 28 -26 10 -16 -24 -64 -37 52 -37 24 26 41 -25 21 38 -35 24 -5 -46 45 29 -9 -51 71 -5 -15 -19 8 -22 45 15 -12 -31 29 -50 3 -48
1 -22 -24 31 57 -1 11 45 -22 58 46 9 -39 -47 2 -23 7 -43 -39 -18 61 -27 7 1 -8 -8 2 43 1 27 21 15 18 22 12 -4 -15 6 -17 17 -11 9 17 14 14 -13 -27 -3 22 39 1 54 1 36 -47 4 24 -22 31 11 -7 -14 12 -7
14 12 -3 21 32 -15 -15 -9 -3 7 12 13 -31 1 -12 -5 -4 4 -20 -10 0 -6 24 -44 26 10 10 -1 2 20 -1 -1 -10 -23 30 -6 -4 -2 2 -5 19 13 -8 1 -18 -16 -3 21 18 -11 29 22 -50 37 38 -17 29 -1 -14 -8 -7 -13 9 1
13 6 -8 -17 -19 -4 12 -10 -5 -9 -66 -43 21 127 -7 -19 -5 71 4 -6 -52 24 -4 -8 27 -6 -22 -49 32 -3 3 -7 -18 30 -51 4 0 31 -5 49 25 -21 8 -37 7 47 12 10 -6 18 -45 -40 15 -83 11 26 1 8 27 -35 -40 -2 4 -1
19 -2 25 -9 -32 11 -34 -5 -4 -11 46 -9 5 31 22 -31 29 14 14 3 2 15 -12 11 21 -24 -19 33 9 15 -38 -35 11 -34 -14 15 -2 14 9 12 -4 11 1 12 12 4 27 34 -7 -10 -13 -9 5 5 5 -11 -15 5 -7 1 -10 -3 9 11
-14 3 43 4 -15 -25 14 -2 17 3 -7 -29 -2 19 -4 -28 0 2 21 -16 -17 -13 0 4 18 -3 -22 -5 17 -19 -11 9 34 32 25 37 -58 4 6 -8 -3 6 5 7 -27 17 -3 45 36 -4 -2 -20 16 -39 4 -7 -8 -21 -23 10 -26 -2 27 32
13 1 -12 2 24 -4 53 -8 17 3 14 -38 -15 -6 -14 40 13 11 -44 -13 -8 -10 36 -52 0 3 40 13 26 -7 -25 31 21 10 -13 0 -24 -9 -4 -19 -7 -18 10 41 -9 -23 -25 1 -23 8 -15 48 -8 -22 -33 1 11 -10 -13 -21 -14 20 10 1
17 -13 32 31 -25 -16 7 -14 -8 15 -19 -47 -24 60 10 -27 -2 15 31 29 -30 -4 -27 -11 -3 -39 -19 -17 7 -1 2 -16 18 -22 -28 -7 -28 20 4 18 -15 44 4 -1 -16 32 17 18 11 -3 -19 -36 50 -35 -6 35 -31 19 43 22 19 20 -12 -5
-33 14 38 -19 -5 -49 14 22 -21 -5 2 -17 -37 35 30 -8 25 -8 -7 -19 36 38 17 30 -17 27 -24 -22 25 -8 8 -13 8 -2 -50 -6 -15 13 -41 -7 8 16 -53 39 -40 -10 -10 34 34 39 19 -55 36 -34 -25 6 -37 45 42 -26 1 -17 7 -33
-25 12 -37 -2 12 17 -2 -29 26 -36 -33 29 18 -17 -6 -5 -7 -23 -40 -6 14 -16 -3 6 -24 -10 -12 19 -35 0 20 7 -26 34 -9 10 -23 16 18 -37 -26 5 -26 -33 24 32 -17 -4 -2 -5 -23 -12 0 -42 34 -11 34 -4 47 4 -12 25 26 5
18 -30 58 -3 -52 37 4 50 3 12 -23 -21 10 85 -18 9 -25 101 63 40 -27 -29 33 22 27 22 34 18 2 -61 -14 25 -82 -22 41 -16 -44 47 26 42 13 0 -67 -73 -28 16 18 37 11 -13 69 -23 -61 -22 -12 30 47 0 -44 4 -2 -13 2 28
5 4 71 -4 -40 -27 -23 38 -55 19 -17 -43 -16 57 25 -31 5 65 60 -28 12 -25 15 6 -9 -17 -8 44 44 13 -26 9 6 -40 43 8 -33 13 -21 24 -11 56 -43 -17 -9 -28 15 66 9 21 53 -4 -2 -46 -20 -28 10 18 -34 33 1 -48 37 9
-47 18 -36 -5 28 17 14 23 -9 12 -6 -34 -7 -33 7 12 9 2 -20 -17 -4 -1 56 -19 33 12 43 4 16 -2 5 21 -7 -37 -14 -15 4 47 -29 0 11 -22 15 -23 -16 6 -24 -18 6 25 12 9 -29 14 -18 -15 -10 0 14 -3 2 -22 6 60
-9 21 -25 -14 -15 24 -76 -13 -3 -21 -17 18 -1 -31 27 -19 -17 -6 -13 13 17 52 43 34 -32 20 -50 -3 8 9 5 -38 -34 38 10 24 -2 11 -44 -54 15 -12 -17 33 -12 -42 -10 8 -17 -37 26 13 1 0 -13 -16 24 1 -22 -24 -15 -2 6 -12
14 -24 21 -16 -20 -33 9 -19 -2 -9 34 -20 -40 20 15 -36 -16 1 19 18 -17 -29 -12 6 17 -3 1 -19 23 13 -18 3 29 -30 9 -2 0 39 64 22 -33 21 -20 -19 -24 12 35 49 10 -9 -6 -23 26 -22 -7 -2 -18 -10 -7 7 6 -10 -13 -6
-4 24 -17 10 4 44 16 6 -11 -13 -2 -12 -18 19 -23 19 -17 -1 -2 -18 8 17 45 9 28 21 48 1 10 2 -8 -4 -34 -11 -17 -12 -19 1 -19 -11 34 20 -13 -37 35 -21 5 -13 -5 -23 12 30 -28 16 -2 -54 1 -6 -31 -8 -8 -37 32 36
-18 -53 14 20 8 4 26 21 6 -40 24 -5 20 21 31 -11 20 2 8 -10 9 -13 -2 16 22 -32 13 20 -5 39 2 12 13 -9 20 -22 9 20 17 -6 -10 32 -8 19 7 8 -19 38 -17 -9 1 -20 6 9 -8 3 -25 -11 2 -6 40 -12 -33 28
-5 -1 -52 28 29 -14 -3 -27 40 -11 -25 42 29 -22 -9 -10 -20 -18 -14 29 -7 -18 -25 14 29 28 8 10 13 1 19 -16 -7 28 -23 38 3 -34 9 9 33 -13 25 -12 -5 -22 1 -15 28 0 0 8 -5 -26 -19 19 15 -26 -12 -31 -23 4 -20 16
24 0 -35 -15 -6 28 -36 4 -3 -36 4 16 -29 -9 -18 0 26 0 -20 52 5 30 -7 26 23 -12 14 -32 17 5 -36 21 8 -37 -18 3 -9 -6 9 -36 14 4 26 13 -26 -33 9 -52 18 0 33 -25 -14 -2 39 -24 7 6 -24 -15 2 8 -4 36
18 -13 -77 -14 -7 36 33 25 46 21 -28 -50 -33 -8 -85 43 -55 22 -24 -15 52 11 24 -41 -96 50 11 15 -52 -49 83 35 -27 7 -21 -51 -6 13 32 6 -91 -42 11 29 22 81 -42 -31 -5 42 -33 3 -40 8 14 38 4 -8 99 44 31 90 -11 -26
-28 -3 -35 -16 -10 14 -2 -41 19 -50 20 -7 36 0 18 7 30 -14 -11 -6 -4 5 47 -60 -3 3 11 13 13 -17 -16 15 7 32 22 24 23 -3 -9 -35 57 -13 -24 -23 -16 -26 -33 16 44 -23 7 55 -12 -31 13 21 36 -2 -38 -23 -30 -36 17 34
-9 15 -32 53 2 43 22 -29 -26 -41 8 -19 41 -23 47 -15 1 -22 -45 -16 -13 -2 -1 -15 36 5 -13 -3 20 5 -7 23 40 -11 -27 -32 -4 49 29 9 -20 -21 -20 -43 37 1 -27 37 -6 4 -36 10 9 15 -8 0 -13 -24 24 5 23 19 -15 31
-12 -8 -73 49 33 17 18 3 72 -13 26 30 21 -7 -19 2 -63 13 -47 -7 -1 -13 -8 16 -31 33 17 8 -16 -14 43 -19 -19 8 -9 -33 2 -12 42 -24 -22 -40 -14 -6 24 25 38 -35 -27 19 -50 -7 -3 -6 30 -7 38 -25 39 28 9 28 -22 -6
-57 -14 62 7 -9 -38 -6 53 -27 -17 -18 0 4 18 48 4 30 8 -24 52 10 33 21 42 -20 22 -42 -29 29 12 -15 3 -8 5 -32 48 -40 0 -30 23 23 41 -57 -14 -22 -35 6 52 31 19 35 0 15 -8 -67 7 -31 8 9 -26 14 -60 44 49
-14 13 -20 23 13 6 51 -3 19 2 -3 -4 7 6 -17 0 -2 1 -9 -29 -17 24 3 6 7 39 9 11 -12 22 3 22 -40 28 -9 17 -32 -14 -10 5 -7 -1 -24 3 26 5 -21 -17 -13 7 -14 32 -1 22 5 8 16 -7 -20 -37 -28 24 23 25
-16 -22 26 15 -30 -30 9 -9 -1 -7 -11 -18 23 29 30 1 33 12 -7 18 -8 20 -2 -15 -7 -1 -58 -6 50 -5 -24 -9 25 24 9 17 -30 -2 5 9 -3 17 3 5 -29 7 9 28 45 35 -15 -30 6 -34 -18 11 1 19 6 -1 12 9 48 30
-15 -11 4 6 -16 43 12 39 2 -23 -16 -27 16 35 3 24 -38 19 0 13 -28 22 41 -13 -1 -21 27 -5 -28 -25 1 64 -8 -24 14 2 -21 -42 -28 -23 11 -19 -12 -20 8 3 24 -8 6 -21 43 -8 -29 18 -17 0 67 18 -3 13 18 -10 22 22
-34 -6 42 -2 8 -13 -4 16 -47 -22 1 -19 26 38 23 -15 14 14 29 -7 -14 66 4 30 -22 53 -15 -24 29 14 -44 -8 -8 2 17 18 -37 11 -47 -11 53 11 -22 5 -28 -17 14 20 48 20 21 -37 25 -19 -65 -44 -5 23 -9 -12 -39 -60 22 48
-109 -52 53 16 61 -34 20 14 25 -58 3 12 66 -3 4 -13 3 -12 -53 49 1 37 35 33 -65 81 -69 -27 92 1 26 23 0 33 7 41 -20 -27 -20 6 59 4 -33 3 -4 -25 -29 30 36 60 7 -47 31 7 -42 21 -42 -9 29 -38 -19 -22 30 45
12 -26 -14 27 7 -20 -27 24 -4 -32 -1 9 -15 42 8 -16 -2 -5 8 26 -3 15 0 13 3 2 -22 10 5 -15 21 1 9 -20 16 -5 -1 13 30 -34 -42 16 -18 8 -21 -1 -8 11 -3 -12 12 -3 0 22 -37 31 24 0 -2 -30 32 42 -2 -4
7 17 -13 23 26 -14 33 -28 1 20 6 -9 8 0 -4 -30 15 -1 -39 -9 5 -24 -19 -7 4 -23 -15 23 -4 9 -18 23 20 33 2 1 -44 -2 -46 -9 -10 -18 33 5 -11 -6 -6 6 44 31 -18 -6 6 -31 -24 23 -24 -14 23 2 18 39 24 21
6 29 -39 15 12 -14 22 2 4 48 -24 17 14 -19 -4 -34 -6 -5 -14 -34 22 -10 3 16 19 10 7 28 -31 18 5 -19 -43 29 27 29 -16 -6 -7 19 4 -43 20 1 -13 35 8 -74 12 30 -32 -18 -31 -10 39 16 8 -41 14 -17 3 19 -13 -21
-10 -7 -59 43 31 -16 -9 14 21 20 16 17 45 8 -71 -47 -40 -50 -32 -15 16 -21 2 -1 27 44 51 -2 -26 -6 27 -45 -26 45 1 8 8 6 21 5 -6 -34 24 33 -1 40 35 -7 40 3 16 29 -49 -32 -2 27 26 -23 11 -23 8 28 8 -6
-8 11 -29 -6 7 -17 -33 7 32 5 -21 -11 45 36 -9 -44 -16 0 -34 -22 14 5 -6 24 6 12 -15 35 38 11 16 12 -66 26 32 -21 -3 21 28 -24 37 -14 -45 -18 -5 -25 19 47 38 -6 21 6 10 -47 29 13 4 -21 6 -5 -13 32 4 -10
-4 -27 -8 42 66 -53 44 -27 38 16 -11 -29 29 -13 10 1 -1 -2 -6 35 -32 2 -24 -10 0 -42 19 -14 42 27 49 52 18 -5 -49 -14 18 26 20 39 9 -24 -13 -6 -25 20 -31 -31 -14 75 -39 -6 58 8 -25 5 -54 -9 32 11 -17 1 -32 15
30 39 24 26 -3 -15 6 36 -14 17 -1 -19 -25 20 19 27 -14 9 -29 -17 2 1 14 -46 15 -7 12 -1 -1 6 -45 -8 25 -26 12 -5 -21 2 -26 32 -3 9 1 26 -44 -28 5 -11 -2 4 1 25 -58 5 -19 -21 21 33 -28 22 2 -17 31 16
-28 -2 -17 20 18 -23 7 -3 35 -5 40 11 -6 -31 -58 -22 -23 -26 -31 4 17 -22 -11 27 -14 -6 34 26 -39 6 2 3 -14 64 32 25 -9 -22 -34 -14 4 -18 17 34 15 30 13 -16 31 -10 -1 29 -30 2 27 -6 34 -22 18 8 -16 6 -22 7
56 10 -18 -10 -12 -4 8 -19 -10 -2 23 -9 20 -9 36 8 0 17 5 10 -11 -53 0 15 1 -60 5 6 -2 1 -70 15 37 -45 15 -10 -53 38 -1 12 -59 56 2 -33 1 6 -27 38 -38 -22 -39 -14 12 -25 32 4 -16 23 -32 29 -3 21 24 3
-1 -3 39 33 12 12 16 18 -12 2 23 15 1 42 -25 20 -35 -3 16 2 -39 1 31 -41 25 4 27 3 -17 -27 -17 33 -39 18 25 28 -45 28 -23 17 49 3 -24 -61 24 10 16 18 24 0 -6 33 -30 -8 -16 -18 4 -13 -36 3 -24 -6 60 33
-12 -31 -14 15 13 -43 52 -17 24 27 -23 -17 -3 17 9 14 -20 -6 5 6 0 19 -21 1 -15 -38 15 -22 -4 -13 69 14 9 10 -78 -32 6 -15 -7 39 -7 -29 0 13 28 26 -4 -15 -4 70 -11 -38 43 -3 -45 -5 -32 1 69 24 32 38 -41 4
6 2 -6 23 -15 35 -2 -10 -2 -13 -23 19 55 15 -26 7 -8 7 -16 13 4 21 61 -23 -34 38 -74 39 -13 4 -2 33 -10 20 -12 -11 10 3 27 -55 -20 -17 16 -21 4 -6 1 11 17 2 -32 19 -16 3 4 16 36 -6 -13 26 -38 3 9 6
-16 22 40 -52 5 -41 -30 20 -42 -23 -19 -13 -31 54 32 -21 12 22 -10 -14 10 39 -11 48 -18 29 -23 -5 10 20 -36 -25 -58 14 17 12 -19 29 -4 -35 -1 25 -26 13 -3 -1 -1 51 20 36 85 -45 6 2 -16 -18 -13 24 26 -23 50 -24 3 -37
-11 1 37 -2 -25 -10 -3 14 11 22 23 32 29 0 -3 -12 -10 -17 27 -26 -45 -11 38 -42 51 36 -22 48 26 6 -9 -31 4 -44 92 -1 -11 12 -17 -15 68 -3 -33 -3 3 -64 15 31 3 -4 44 43 -3 -29 48 -25 7 -13 -47 -19 -45 -47 12 25
-33 -7 13 -11 8 34 9 0 -32 -52 51 -42 -5 -5 8 -33 38 -28 10 -25 -21 35 2 7 13 -26 23 16 -1 5 -1 -15 -8 -8 11 17 19 -17 8 -16 30 -11 -33 -16 24 13 -9 -8 -2 -25 20 -10 -12 -8 29 -17 6 -13 11 -21 -26 -9 -23 20
-23 -5 -28 0 24 -33 6 -14 21 25 6 35 1 -31 -13 -30 -1 -46 -22 -18 38 -13 -17 20 6 56 12 7 2 -9 20 -16 6 44 48 21 -11 -23 -33 -19 34 -11 -37 23 -10 23 -45 5 20 9 18 22 -2 10 7 24 5 -32 39 -46 -25 31 -17 -29
-5 29 29 -13 16 -20 -39 -22 -29 19 -32 0 -11 -22 13 -26 38 15 7 -13 24 14 4 23 7 -10 -13 14 16 24 26 -24 9 42 -9 29 -21 -6 -34 19 13 0 -47 40 -17 -18 1 -11 13 40 26 -26 20 -25 -17 -17 -10 11 28 -26 8 42 0 5
-14 -18 37 -7 -29 46 -1 -21 -34 9 -2 -18 -13 -6 10 -23 17 -30 18 38 16 5 0 3 -3 -13 9 34 23 9 5 -9 -2 26 -3 59 -10 2 38 -14 4 20 -9 -12 14 -47 2 9 -14 -21 39 -74 24 -4 26 1 -22 3 -7 12 -24 18 -33 13
15 -12 6 15 -10 7 -30 21 2 7 29 -32 -15 -1 -11 11 -6 -6 31 -22 -14 31 78 -17 -42 -11 41 -10 46 -29 -5 6 28 -13 -40 -11 1 17 -28 -12 23 -12 -20 -4 9 -35 -29 40 7 -26 23 -25 -26 -9 -3 -18 28 60 -19 -13 -47 -59 4 15
14 14 -30 -3 -15 37 -57 -51 -19 -15 33 5 31 -15 4 -35 -7 -25 27 14 25 -2 4 -4 -2 -4 -24 47 -46 -4 -18 -36 18 34 19 40 17 -13 -24 -14 3 -3 -1 2 -17 2 7 5 -22 -39 -29 -7 -31 -14 7 3 24 -40 -35 7 4 11 2 13
-12 7 -20 8 56 -22 66 -54 29 34 -27 7 11 -40 -13 -2 11 -23 -17 0 -22 -4 -13 12 -6 17 8 -19 14 36 36 -6 -1 14 -11 5 4 -26 -10 -29 -14 5 30 -2 -7 14 -23 -21 -26 42 -19 -23 66 6 -4 10 -31 -8 5 -9 -27 38 -25 40
-1 11 2 -60 21 15 -4 -33 -14 17 -48 -35 -9 -14 0 11 16 -25 -4 -11 25 19 -26 -44 -67 2 -3 60 12 -11 10 7 -2 -20 -29 14 6 33 -15 10 2 27 -20 -24 17 -17 -11 18 33 1 33 -4 15 -6 -32 -5 2 40 58 12 3 42 6 -51
-81 -31 -5 -33 42 -35 34 1 -30 -43 -8 -5 47 20 15 -20 31 -39 -35 -26 -19 59 5 2 -37 79 -58 -13 25 -5 5 -2 14 36 18 -1 3 -29 -26 9 50 0 -28 2 4 0 -24 14 22 28 46 -23 39 -28 -9 10 -12 29 62 -25 -39 -16 -2 28
4 -7 -24 16 14 -30 -22 6 32 59 -19 39 -16 -41 -42 11 -35 -34 -7 -23 83 -9 23 -29 -65 -32 -43 75 28 -8 36 -32 -16 -53 85 -42 3 -8 -5 -19 -41 24 -32 44 20 -34 32 33 1 -20 32 17 -5 12 -25 -27 32 -22 2 43 25 26 3 -56
17 11 19 -28 -23 5 -67 19 -30 36 4 -6 -38 25 -34 -41 3 64 18 -6 51 -19 -8 75 25 -35 -26 1 -7 27 5 -20 -45 14 59 5 -6 27 23 -5 -33 11 -12 -29 18 8 36 -21 15 -8 12 -39 -14 3 0 -8 -16 -45 -3 -3 14 -3 -32 -20
11 0 16 -15 0 -62 -31 -9 -47 -47 -3 -30 7 9 53 -28 25 25 17 -8 5 49 -7 -2 10 -10 0 -21 52 31 -29 -19 37 24 30 18 -16 4 12 -34 5 27 -35 -4 -27 -32 -3 73 16 -28 10 -39 27 -24 -2 -19 -5 24 -23 -7 -21 -38 27 0
-10 -33 -25 11 1 -8 -10 -23 8 -21 -3 42 64 18 -11 -35 2 -50 3 -9 22 -29 12 -3 -3 7 -38 21 -14 17 1 -37 0 22 59 -34 6 26 9 -25 22 1 -1 -6 26 8 -6 -16 57 -14 -50 30 19 -22 -1 38 36 -33 48 -1 24 26 -9 -2
21 21 -36 27 8 28 -30 10 29 32 -25 39 -11 -17 -16 12 -10 -8 -21 -41 34 4 7 50 -2 7 -29 -20 -26 -32 20 -13 -26 49 14 1 3 -28 -30 -3 -26 -46 -33 27 17 -17 3 -36 -26 15 8 -11 -31 -1 -1 29 42 -39 22 -21 10 30 -15 -33
37 24 -4 -7 -10 -9 -43 -9 6 -2 20 -4 15 12 -3 0 -1 16 29 -1 -19 -1 22 36 -6 -6 -72 -20 -17 20 -30 -10 30 -3 0 -13 -24 42 20 -1 -27 0 25 -3 -10 32 32 31 28 -15 -28 -28 -13 -46 -5 13 5 19 -12 25 -1 -5 22 -19
20 8 -10 -8 9 29 -11 18 29 -27 -23 31 -24 -15 -22 10 -45 -2 8 31 -4 7 -6 -1 -3 7 27 30 -6 3 -5 -5 -29 -6 53 -36 -44 28 -8 -13 14 17 -36 -35 28 0 27 -1 23 -14 25 46 -5 23 11 9 23 -7 -18 41 6 5 28 8
5 4 -18 3 -19 44 25 -7 7 39 -32 1 31 -12 6 12 8 -25 -19 -23 13 -39 38 -42 20 11 -17 34 -23 -1 -32 -16 20 -15 46 9 -8 9 -8 -6 -7 -14 8 -2 5 -7 -2 -9 28 0 -1 31 -14 -15 11 41 3 -22 -10 17 11 39 12 -2
-17 -3 -17 28 70 -37 7 7 -9 68 24 -2 3 -54 31 26 -1 -30 -20 11 20 49 -30 16 -9 -21 14 8 45 21 5 24 26 -2 -61 -17 1 -11 3 32 -15 -42 0 44 -24 -29 -29 -29 0 45 40 11 43 35 -59 -46 -31 33 2 -8 9 18 14 52
-55 -43 -2 58 22 -77 2 -3 16 26 -10 -10 45 15 13 -36 -5 -44 -4 28 -16 14 -7 0 20 -7 -34 12 64 55 34 -22 -26 30 -10 -17 -3 15 -34 49 51 -29 -29 37 9 9 -42 14 62 3 -33 -10 25 -54 -29 21 -53 -33 47 -2 22 -20 -28 -9
-20 -32 -26 34 50 -20 -2 15 6 4 -13 -9 29 15 11 59 2 -9 1 -3 -10 39 35 -73 -20 -19 26 -10 44 -10 18 46 23 -1 -39 -1 -8 -6 -28 21 13 -33 -1 16 10 8 -43 -2 -30 32 -15 24 -7 1 -16 5 14 -2 44 -29 -38 -22 -28 -12
7 17 16 8 -39 22 -15 24 -29 11 2 -5 9 33 -4 9 -47 2 24 -41 36 9 29 21 -4 -3 2 29 -16 -4 -14 -16 -77 -18 46 -27 -14 18 -12 -10 -13 20 -14 36 42 -24 13 58 8 -23 54 -18 -57 0 0 7 33 -23 27 31 41 -11 -1 -36
-46 -11 44 -5 23 30 15 11 -30 17 1 -17 -4 30 15 20 9 -14 29 17 -20 16 36 -15 47 10 -6 19 64 9 19 -3 -9 -17 -14 3 11 7 -8 1 28 -12 -62 10 -11 -32 0 10 -7 -19 48 9 -10 26 -21 -19 -43 -14 -63 -34 -26 -36 -15 18
6 -1 20 50 6 17 29 -11 -9 46 -15 6 -21 -1 32 -1 4 -50 -10 14 -25 -24 17 2 9 -33 19 56 22 -6 1 -4 20 30 -26 25 15 -46 -24 21 35 -4 7 0 17 -19 -9 -16 19 51 0 -19 -32 -19 6 -21 -10 -10 -23 -7 -34 11 -16 34
12 6 59 -6 -37 -14 -20 69 -26 -18 22 -9 -42 37 1 -25 -8 29 32 43 -8 -26 17 6 20 -50 18 56 5 18 -44 -1 -28 -60 29 -16 -9 31 -5 16 -10 14 -12 -11 -5 -1 16 43 -20 -31 48 17 -29 11 1 -16 -10 7 -41 8 28 -27 14 31
-5 13 -37 35 54 -35 4 12 23 -20 -7 -1 -34 -3 -21 -43 -31 -17 -49 1 20 -13 -14 27 -4 -35 18 -1 10 66 -23 -20 -12 60 -27 -17 -7 29 30 3 6 12 1 15 -7 48 7 -14 71 28 -33 36 8 -14 -35 23 -9 12 74 -17 9 9 10 -5
9 45 -32 8 -6 5 -40 16 -22 12 -15 -21 -31 3 5 -47 -16 7 9 -19 31 -5 -31 55 6 43 -18 -4 -28 17 11 -35 -7 50 27 17 -5 -28 -1 -7 -8 -36 9 22 -21 19 3 -9 30 -6 6 -48 -44 -13 14 18 9 -25 26 3 23 23 7 -23
7 21 -14 8 -22 12 -9 21 5 -18 -12 -22 -9 4 -11 15 -22 6 -12 -16 -15 -21 46 19 17 1 8 24 1 20 -23 13 -36 -13 18 -26 1 -3 14 -15 49 4 -22 -35 31 -22 16 3 3 -42 56 9 -52 10 19 -20 24 -8 1 -9 53 -12 7 3
-49 -13 -1 43 7 -67 -4 23 -11 17 -36 -10 50 -44 20 14 28 -23 -18 -7 -9 41 -26 -25 13 -1 -44 -40 81 50 1 21 16 19 -15 32 -16 -49 -23 27 17 -14 -5 29 -27 -4 10 -20 18 41 -8 19 75 6 -13 -19 -66 25 -8 -24 -2 10 -18 2
7 16 -14 -1 4 -15 -11 -26 -20 39 -64 20 -41 -3 12 -21 5 16 -12 -12 -4 -15 11 -7 11 16 -42 -12 -6 14 -4 -29 27 22 -21 21 -38 27 -37 29 -22 12 1 -1 -59 10 7 -2 60 57 8 -45 13 -1 -13 -12 -34 17 10 12 4 17 35 1
14 22 -3 -8 52 10 -3 3 0 -23 1 -28 -5 12 -22 27 23 -9 -23 -9 12 34 54 -30 -5 23 33 2 29 -22 -3 13 2 -14 -15 11 9 0 34 -36 31 11 -7 5 -12 -33 -23 3 9 -24 54 -11 -31 12 18 -3 21 5 -32 -8 -45 -22 34 34
11 23 -25 -25 33 -8 16 -29 -16 7 -25 15 -6 -9 -25 16 10 -25 0 2 -8 23 -1 -23 2 20 18 -18 40 -22 -10 18 -15 14 5 16 -11 -26 -18 -9 -3 -14 -40 -6 -5 4 -5 4 2 -27 -9 47 14 -10 14 4 31 3 1 -22 -23 19 14 -3
12 -5 -61 5 54 -19 16 11 11 -9 -47 59 -14 13 33 -12 -5 -4 -18 53 0 2 -18 -38 -17 -14 -17 27 32 -11 -4 25 3 24 5 -6 -20 -11 -8 -11 -15 6 -21 2 -42 -24 -12 3 6 32 13 -3 -12 15 -13 54 2 30 7 -1 -5 46 35 14
-15 9 -46 59 26 -23 -1 -20 -8 -12 -51 16 14 8 2 -14 -43 -12 -11 -18 36 7 -21 70 27 27 33 -31 -20 -12 42 -53 -37 74 -25 7 25 -15 24 14 32 -17 1 8 -23 -17 9 -35 38 23 54 15 5 -30 14 16 -36 13 29 -18 7 -14 -24 -22
-8 10 -32 26 2 38 -24 -11 -13 18 4 -22 -41 -4 -31 -9 -17 -23 -9 -22 5 17 19 6 12 13 40 29 9 19 0 -5 -40 -12 19 -17 -26 16 22 -29 38 28 -20 8 35 -32 -14 3 -9 -26 44 15 -10 29 5 -33 6 -13 -25 -20 10 -34 36 12
32 25 -37 8 -16 36 -54 0 5 0 5 -17 36 -25 -31 -17 -14 29 12 -31 -5 -28 -15 23 -16 7 -3 10 -47 -25 13 -3 -10 13 34 -40 0 -4 11 6 -28 -16 19 -8 -15 -10 42 -13 13 -3 -5 40 -37 6 28 5 19 -14 -20 42 7 41 4 -11
-2 21 -27 35 -15 -6 35 -2 6 22 -24 14 5 1 2 -27 16 -28 -57 -59 15 17 22 39 -8 0 -25 9 -1 50 -24 1 16 18 -40 7 -19 -10 -5 26 20 28 12 6 17 24 -11 -39 -9 18 -10 -7 37 13 -4 -10 16 -33 29 -8 -9 32 -10 -11
4 -12 -19 4 16 0 -19 -1 23 37 4 90 26 -55 -16 -4 -20 -22 17 -21 49 -21 19 0 -43 3 -46 72 2 6 37 -26 -7 -1 90 -14 -11 10 -23 -49 -19 12 -31 24 35 -51 45 19 15 4 51 9 -21 14 -18 -30 29 -20 -9 47 37 -11 20 -34
-33 -3 -28 7 11 -41 24 -28 12 -46 -10 -13 35 -4 12 -3 3 -4 -87 -9 5 32 14 19 -46 68 -40 -40 6 11 -12 25 0 25 -12 23 -31 -4 -38 17 13 8 17 8 -5 34 -25 18 37 36 -5 -19 8 -34 -26 12 -38 36 31 -1 8 -15 36 11
7 -18 17 -5 -6 -31 -12 48 -3 -45 -3 7 -3 26 32 3 28 19 26 -17 -14 22 9 14 -50 -5 -30 -11 42 6 -37 1 16 -22 -18 -21 -34 7 8 4 -19 25 10 -9 -48 -41 25 65 43 8 22 -14 -1 -44 -40 -27 -20 32 1 23 38 -28 25 13
-20 17 -32 17 20 -27 5 0 16 -28 1 3 38 31 -9 -29 26 -10 -34 -32 -33 60 -23 -9 -18 26 -21 -19 18 25 -14 -18 -11 46 19 2 -15 -30 -16 -41 4 -19 -17 23 -27 15 -28 -2 5 15 -12 19 16 -19 18 -14 40 7 27 -28 -30 4 26 8
-15 -53 33 -6 -2 -20 19 9 0 11 -6 -12 14 -20 3 11 5 23 23 0 -46 36 33 -50 16 -16 17 9 18 -24 -4 15 -4 5 13 14 2 -8 -42 25 -7 -23 -19 10 -14 24 -15 19 -4 -19 -3 2 -2 -21 39 4 18 18 -59 -45 -6 10 -6 9
-9 17 -39 12 -10 26 77 -13 28 24 -23 -19 -17 -10 -7 1 -11 -3 -43 23 14 -38 39 15 11 -28 75 -11 -36 -14 -9 12 -16 -15 -44 -18 -13 38 12 13 7 -7 0 -1 29 3 9 -44 -38 40 -3 10 -13 32 -1 -4 -30 8 13 14 9 10 -17 15
1 2 31 67 9 -51 -45 20 -5 1 -12 7 37 29 16 4 17 -1 -1 5 -6 37 -21 -29 6 -47 -12 -30 51 29 13 -11 9 29 -35 -2 -5 -32 -12 41 13 -27 -33 17 2 -49 17 16 14 20 -41 17 21 -29 -9 -30 -17 13 20 -65 -30 24 0 20
11 33 24 12 -26 -22 22 12 0 55 -9 -11 -35 -13 33 -24 3 4 28 -7 6 -25 1 -5 1 -45 -33 8 6 2 -31 8 37 -13 -25 -1 -22 35 2 48 -31 6 2 -41 -18 -7 25 -7 -18 22 -23 -32 26 8 -21 -13 -42 37 -13 0 -5 2 -16 20
-27 22 -24 54 17 4 -6 -19 29 54 44 20 -2 -35 -43 -24 2 -32 2 -52 23 -30 -24 38 23 5 46 23 -17 -7 47 2 -10 25 11 16 11 -24 3 -7 -11 -37 6 29 11 -5 31 -31 -1 16 -6 -5 -33 11 5 -4 1 -27 26 -9 -16 1 -11 -1
30 4 4 -17 -10 -18 -39 35 -34 -27 -14 -68 -14 19 6 13 34 37 0 -12 -37 17 43 -33 18 -3 -15 -27 11 -17 -34 -2 8 -31 -19 -8 -32 41 9 -5 13 24 4 -7 -18 -13 12 38 -1 -28 -6 -14 -40 -4 -27 -39 -1 44 -16 7 -15 -45 43 4
-10 -13 -44 31 34 32 14 -1 7 28 12 44 -16 -34 -24 13 -25 -1 -11 -26 -2 -16 0 -66 -35 -26 48 5 -34 -25 -25 27 33 -45 29 -38 -12 43 30 -9 -17 -11 -22 5 7 28 34 10 -12 29 -14 45 -29 27 -13 -19 3 -21 11 31 -4 46 12 -5
-63 -26 26 -75 23 -60 -21 24 -40 -24 -26 -18 25 38 14 -1 17 14 -3 -5 18 56 58 46 -44 63 -52 -18 70 0 -23 -21 -28 17 11 20 -9 0 -7 -11 24 34 -59 38 -19 -11 -18 32 9 13 46 -52 28 -2 -50 -21 -10 40 -7 -59 -40 -75 0 23
17 -15 -7 35 -21 -4 26 -12 32 5 -32 12 30 -16 -9 -3 -10 -26 -4 44 10 2 3 -40 9 -4 -3 0 11 -2 -4 23 33 26 17 37 12 -40 -51 -14 13 -31 2 5 4 4 -1 15 22 5 7 -49 5 -34 -7 52 4 -22 -27 0 18 39 -13 21
-36 -26 30 -3 7 -16 27 7 0 -14 2 3 2 -6 33 20 9 -16 6 35 2 -15 24 -15 40 -26 3 40 38 19 -1 -8 -21 0 -12 4 21 1 -17 2 53 -20 -16 -14 -14 -24 -50 0 -2 9 1 11 -35 -7 -7 41 -8 -41 -29 -26 -2 -18 -16 29
14 12 -5 -22 -33 37 -41 -14 -4 12 29 -9 17 -2 -54 -46 -15 -11 43 -21 36 -2 -2 8 10 -18 6 40 28 7 7 -33 -9 -18 16 35 9 36 -7 -19 4 -37 -1 30 12 36 18 3 1 -28 -7 10 -13 -34 3 5 37 -46 -44 -16 6 13 2 -21
1 -12 16 -30 -15 9 45 42 12 -14 -3 -15 -5 46 21 53 11 37 2 31 -26 -11 37 -22 -21 -12 80 17 15 -62 -18 76 -11 -21 -27 -1 5 -1 -12 21 7 -21 -7 -54 -45 -1 -11 -38 9 31 39 -14 -46 13 3 -20 31 21 2 13 -29 -11 4 -2
4 -27 16 27 25 -13 37 -16 45 13 0 -11 -14 32 -23 33 1 -1 -14 20 9 11 -21 -46 -52 -28 -2 -27 24 -34 -1 47 14 -16 -28 -30 -4 12 9 24 15 -6 -7 -12 2 24 -7 -6 -27 21 1 14 -24 25 31 3 36 26 21 -22 -25 33 -2 -3
-12 -2 -3 47 31 -15 21 17 -5 42 -27 -22 -28 18 -9 -13 -59 -34 1 29 37 -6 -11 58 -8 1 34 -28 0 3 23 2 6 -2 -47 22 6 3 5 45 10 -23 -27 14 18 -13 -14 -30 42 31 15 -39 -8 -18 -53 1 -44 -7 85 12 43 6 -30 -11
42 11 13 13 -39 8 44 14 0 8 28 -13 8 0 29 -24 6 25 -10 9 -12 -25 -2 -12 -1 -27 29 1 -3 -19 -29 17 0 -2 -21 -22 -23 13 35 40 -8 -22 1 -26 26 23 -36 -6 -14 36 -27 -1 -25 -12 19 2 -17 -25 4 -9 -19 5 14 34
50 32 -2 -14 -22 -13 15 12 -25 -12 -56 -39 -4 55 11 -24 15 43 33 8 -18 -13 7 4 -14 8 -69 -36 -7 -14 -26 -38 16 -22 -26 -23 -35 55 8 10 -15 -4 13 -19 -37 30 28 39 43 12 -35 5 15 -31 -40 -1 0 47 6 10 4 -20 26 1
-11 -9 -29 25 32 15 14 10 -4 30 -1 1 -12 3 -12 -25 -35 -35 -26 -8 16 9 23 5 -17 -5 25 -23 -11 31 -3 12 -10 24 -42 -13 -17 36 -31 -23 2 -7 -18 -11 20 26 -19 -29 46 9 54 30 -38 7 5 -18 10 8 17 -41 -11 -10 18 44
-24 -58 -17 46 15 -50 3 13 37 1 -26 12 18 9 22 28 16 -39 23 41 -3 19 21 -33 -19 -16 -48 -7 36 14 68 12 21 17 -37 -21 9 -20 -47 40 -11 -29 -5 6 11 26 -40 11 -26 57 -1 -25 35 -26 -39 42 -13 3 31 -26 -31 8 -17 14
13 12 -51 -4 -1 30 8 10 2 -2 -23 38 1 -12 5 -21 -20 -17 -62 -5 30 6 32 -36 -30 -2 0 11 -33 6 2 5 -18 21 -3 -41 -30 -5 3 -8 15 -11 0 -6 -3 6 -19 3 11 31 -1 50 -8 26 1 28 16 -7 13 5 27 26 41 12
19 9 -21 -29 2 -3 17 -4 0 -8 -67 -30 13 99 5 -27 -8 72 -13 4 -41 9 -24 32 14 34 5 -78 9 -25 23 -25 -46 39 -33 -8 1 34 6 47 28 -17 -11 -37 0 48 39 3 5 29 -16 -28 31 -52 24 33 -6 11 41 12 -11 16 -8 -21
7 -5 -30 36 1 -23 -10 -24 33 -4 -16 46 -14 -17 -3 -14 4 -15 19 11 36 -8 4 20 34 35 23 4 0 1 38 -28 -26 44 19 9 6 -24 19 -36 9 -25 -18 7 -7 -27 8 0 30 -12 4 5 -37 -20 1 8 2 -22 9 -29 -23 14 -14 -41
-16 11 -12 39 10 -6 15 8 8 7 3 -27 -7 38 -2 18 -18 -11 -12 -31 -32 22 -2 -62 -23 -23 15 20 13 -4 -6 77 13 -1 -22 -16 -37 13 -40 37 4 -12 10 7 -14 12 -56 -27 -16 66 -11 13 7 12 -16 6 -12 14 24 -7 -34 68 22 -20
-6 -11 -66 42 30 8 11 -15 23 15 8 1 60 -6 -40 -35 -12 -39 2 -11 9 -7 -37 6 10 30 21 -6 -59 -17 25 -11 -15 29 24 8 -7 -29 22 -45 10 -18 5 30 -14 -4 30 18 -9 -8 -13 41 -8 -30 9 14 23 -16 9 4 3 -3 5 -34
-2 11 14 -28 29 8 48 -32 -2 -14 -13 29 32 -29 1 3 -3 -6 4 25 -19 -13 -28 -31 -29 -1 20 16 -19 8 40 31 -16 12 -3 20 -11 -44 -33 15 -19 -6 5 12 -7 11 -13 1 -30 4 1 12 30 32 -26 28 -5 21 5 -18 3 20 6 10
-11 15 30 -27 -33 26 -26 27 0 13 -38 12 -8 50 -3 -28 -30 11 19 -8 -14 6 32 46 37 21 -7 3 1 -10 -16 -36 -46 3 56 10 -16 7 -11 -19 34 16 -73 -3 -3 -29 43 17 30 -10 85 0 13 -22 4 12 8 -8 -17 -19 6 -28 -8 0
21 -25 -52 -24 17 -7 -77 8 17 25 -6 18 17 26 -69 -62 -32 -14 34 -23 60 36 -37 76 -42 5 27 -15 -24 -6 71 -3 -91 34 14 2 10 -6 -10 -30 -18 -45 4 22 37 27 81 2 4 -36 48 -34 13 -35 -34 16 37 1 45 -10 30 18 -21 -51
-25 3 -2 -2 50 -16 12 22 15 37 17 9 -5 5 -24 -43 4 0 -30 -21 -15 16 17 -23 -10 10 26 9 19 8 18 12 11 35 -10 1 -36 -13 1 20 -12 -6 -3 -22 4 22 -23 -15 17 41 -5 6 13 -19 -9 -3 5 -8 18 -13 17 28 35 50
-9 -52 -18 46 18 -49 -6 -3 -3 50 -7 -4 23 -41 -30 -82 -63 -20 -41 4 40 -37 -7 29 -4 -19 -65 32 -13 58 7 -41 -51 38 25 11 14 37 8 38 13 -17 -7 5 18 21 7 -26 92 4 -10 11 13 -15 -57 6 2 -30 53 29 54 -6 -8 -14
40 2 3 -10 -51 -42 15 24 -15 -16 -45 -41 -23 87 30 -26 -16 68 40 -14 -36 -13 -5 19 -8 -9 -6 -60 -9 15 -16 -23 -8 -5 -36 -17 -63 27 37 6 10 13 12 -16 -24 40 16 25 43 6 -3 -22 16 -67 -33 32 -28 33 21 33 1 -16 3 22
-20 -35 -41 63 112 -24 53 36 41 20 28 -10 -15 -43 12 12 6 -62 -63 24 34 -16 3 -12 -24 -43 28 7 -12 7 46 47 -9 -19 -32 -26 -9 17 4 28 -32 -17 1 5 34 -1 -32 -15 2 51 -15 17 0 25 -57 -10 -40 -5 86 49 44 26 -2 4
14 -15 26 13 -8 -21 6 20 -14 21 -4 -24 -16 20 20 -17 10 29 11 26 -13 5 -4 18 -6 -44 9 22 15 1 -3 0 -4 -31 -24 -14 -10 39 -23 35 18 37 -19 28 -34 3 -28 19 -3 23 -3 -45 17 -30 -6 -34 -19 29 33 56 -1 0 -17 6
-30 23 -7 38 -23 66 -9 7 -17 -11 37 -38 27 -11 33 -10 29 -54 -29 10 -28 35 34 2 27 -41 6 19 -9 15 -8 14 13 11 5 36 -1 56 23 -8 59 -34 0 -14 15 -28 -14 17 4 -8 -16 12 -27 -9 -6 15 14 -49 10 -26 -9 -14 2 47
1 21 -2 24 -13 5 3 27 26 7 -13 12 -2 8 -36 10 -32 -26 19 15 -5 1 32 6 -2 41 24 20 -7 -1 -2 21 -30 1 12 -11 -26 -10 -8 -5 25 -12 -30 -24 36 -7 -20 -15 39 -5 62 41 -39 -9 -5 -10 6 -7 1 -20 36 1 28 9
34 -7 12 -34 35 6 42 7 23 -13 -14 -27 -18 12 -3 32 25 25 9 9 -10 20 6 -15 -8 4 62 -8 5 -46 -18 36 10 -2 0 2 2 -10 5 -13 -9 6 24 21 2 -4 -25 -43 7 -17 10 7 -12 7 10 -6 -6 1 -4 -25 -41 9 19 -11
-20 27 -59 20 2 -9 -9 -14 -3 18 -10 8 5 14 -9 -28 -18 -12 -60 26 38 22 -26 21 -14 7 40 48 19 35 -13 -12 0 49 -11 -7 -22 -11 47 13 29 28 19 -27 -4 -35 -3 -37 -2 -12 -39 8 14 -16 -33 -3 -37 -6 16 -8 -10 -8 29 26