-29 -48 -9 47 43 -34 27 -75 -2 3 19 -66 14 -34 -6 10 7 3 34 26 -83 0 15 30 -7 3 -7 -25 10 -95 1 -34 -26 -1 16 6 -55 12 25 -48 29 -15 -50 45 -55 16 -41 -7 -5 -34 -31 63 2 19 3 32 53 -10 -7 -9 36 54 -25 18 2 -2 -1 -30 6 -4 16 -16 -12 24 -53 10 -19 7 13 0 28 38 43 14 30 6 14 -47 34 13 29 9 52 15 -28 -38 23 -37 -23 -48 10 -1 -55 -27 -72 -22 4 -45 -11 19 -12 26 -39 -29 11 -34 33 14 -13 25 15 -33 -38 31 -18 17 -9 28
-1 2 30 -9 -4 -21 33 -24 83 -17 46 -2 44 1 -23 -16 17 -48 -2 -17 38 17 70 -3 -32 57 -12 -47 25 -5 17 -15 -77 -11 17 -40 -45 29 13 1 18 28 -52 28 -1 25 -10 -11 11 16 0 36 73 -12 -24 -4 13 39 -37 3 17 12 19 61 -6 18 -28 -14 50 51 2 3 10 61 19 -9 18 31 -16 78 37 22 24 -8 -10 -62 72 17 30 52 11 -22 0 -21 28 2 -4 -53 11 21 24 11 11 -2 56 5 38 11 -15 50 12 -5 -17 -36 19 -63 -21 60 -34 3 39 -35 42 -13 -8 26 46 8
-23 -65 -30 -11 5 20 -21 -7 -38 -8 -3 -21 -33 -18 23 -19 4 15 -14 25 23 -1 -27 6 17 -6 39 -44 13 -40 -45 0 9 -47 4 -7 22 -52 -61 24 11 -9 -38 43 32 -16 -46 32 -51 -6 -75 -25 -16 24 20 11 23 -4 23 22 -51 -19 -70 -12 -8 23 20 -13 -52 -12 17 32 9 -18 18 42 3 -41 -9 -33 39 0 -47 -21 -8 -15 -22 -59 11 -50 -43 9 -33 29 -30 23 31 -27 -5 -44 -72 29 28 9 10 -23 -36 16 -29 -15 51 -28 -48 13 -33 -15 1 -26 -63 23 21 -24 27 28 -4 -20 10 -43
8 9 -7 -8 -6 2 -6 -7 -6 -11 -19 -12 2 -18 -8 -11 9 -11 -14 6 6 6 -6 -5 -20 -6 -14 -6 -7 -11 -1 -16 -9 -7 -7 1 -1 1 -10 5 -3 -7 -17 -8 -2 -16 3 -12 -19 -2 10 -17 -10 -18 -11 -9 -12 7 -12 -1 6 -6 -23 -1 -7 5 -9 -11 -7 -18 -8 8 -2 9 1 -12 -6 3 -18 -22 2 -18 -18 -4 8 -4 2 -22 -5 9 -3 -13 -12 1 -20 -2 -12 -13 -10 2 5 2 4 7 -14 -18 -18 0 -4 -13 3 4 -4 2 -6 -12 -15 0 9 -2 -1 6 -11 -14 -5 -5 5 -12
6 -16 -13 -8 0 -2 -21 -3 -3 -11 -12 16 -5 -17 0 -18 1 3 8 -11 -21 -15 -1 6 -19 -25 -21 -10 5 -13 -19 -16 10 0 -21 -17 -20 -7 -1 -21 5 3 -10 -1 -18 -9 10 -11 -12 -12 1 -4 -1 1 -1 2 -22 2 11 -2 -19 1 -1 -6 -17 -22 -11 -4 -18 -5 -19 -23 -22 -20 -1 5 -1 -21 -15 -24 -19 -21 -19 9 -11 -11 -6 -10 1 -15 -10 -24 -7 -7 -8 -15 5 -20 -16 -3 -4 -13 -9 -9 -10 -2 -3 7 -23 -12 4 -18 -11 -7 -9 -14 -25 -25 2 3 -3 -6 1 1 -14 2 -3 7
-9 30 5 36 23 9 -10 38 -49 -46 9 -11 3 12 21 4 -15 23 -15 6 -20 11 -2 -16 20 -26 19 -2 32 -19 1 -10 -21 -9 0 -21 -65 -31 -61 0 -7 10 3 -39 -62 0 3 11 -36 -62 -18 -31 -27 10 -38 -37 -29 -4 33 -37 -26 -78 -6 32 -1 1 -25 20 6 -10 -52 -79 -38 -35 -5 -31 22 8 31 -19 -101 -17 8 19 41 5 -17 27 -17 -14 -15 28 14 -49 2 4 7 12 7 14 -54 -23 5 36 -22 25 -22 -32 15 -14 -45 22 -19 5 -33 -16 -26 -54 -54 2 1 27 -25 2 17 -14 7 -1
-16 7 -9 -13 -20 -5 -12 -10 4 -4 -13 -19 2 -5 -14 -20 -21 1 -13 -21 3 9 -2 -17 -9 -13 -17 -3 -24 -27 0 7 -17 7 -22 -14 -4 -10 4 16 -22 -4 -1 -16 -16 -25 5 -3 6 -28 -15 -11 -16 11 4 -5 3 3 -15 -16 9 -15 -18 -22 -6 -30 -7 4 -3 -4 -7 -10 -17 -26 4 4 2 -7 4 3 -31 -25 -11 -16 -2 -14 6 -17 -20 -12 6 -5 -6 -11 -27 0 -12 -21 -18 15 4 -27 6 -24 -26 -2 -11 -5 -10 -21 -10 3 -26 -4 -13 2 -16 -16 11 -1 -12 -18 -34 9 7 -4 2 -15
-22 -17 -49 -18 -6 21 2 19 -14 15 -55 -13 -8 -21 -13 8 -22 17 -50 14 -1 -32 -2 -26 -7 5 21 25 -12 29 -18 51 38 -70 17 8 9 -39 -97 33 1 22 20 -16 35 -57 18 -21 -10 38 -8 2 -21 7 16 2 -31 -47 3 32 -63 -69 -28 -22 -27 24 14 -6 6 -4 -15 9 12 -13 -16 -14 -77 41 6 -20 9 -17 -11 -9 1 40 -15 2 -14 -27 -60 -3 5 1 17 2 -5 19 -37 -10 -18 -8 -5 -16 -52 -23 28 -26 -33 10 5 -8 18 14 -13 42 -2 24 15 -18 -5 -10 35 -6 18 -16 -19 7
-11 6 -37 -3 12 -13 4 -39 -18 16 -12 -47 11 2 -59 26 6 -32 10 -40 -3 -13 -16 11 -31 -28 -51 -11 -40 -1 3 -29 -25 23 -5 0 -12 11 34 -26 12 1 -42 -4 23 -49 -44 -48 -32 3 -8 23 17 -47 12 -10 -18 -37 -39 29 22 19 -28 -10 4 13 5 -2 -20 -34 -12 17 0 3 0 1 -38 -23 0 11 11 24 35 13 -11 -7 17 -15 -37 21 10 -31 18 -2 -10 -13 -21 -34 -44 -34 31 -5 -28 -31 -56 34 -21 -11 -13 -42 2 -37 4 -13 51 -15 21 5 -8 41 -29 -4 -34 -20 -84 -31 -16 7
-29 -9 -3 -9 -2 -5 -57 -19 1 31 4 16 -23 -68 -16 -31 -5 -20 27 -12 -35 -57 -32 11 23 -11 22 9 16 -13 -7 20 -8 15 -10 2 3 4 17 -13 -10 -13 1 -54 -8 -66 67 -55 -18 23 -52 -46 -11 31 61 -3 0 -3 -13 46 43 40 19 -28 5 -23 -28 -5 -19 -40 11 -3 24 -8 -17 -5 -82 -40 9 -20 26 -15 -10 4 -31 -7 10 -9 18 -10 31 -4 10 -5 -38 -22 -43 -23 -57 -60 18 15 -20 12 -58 45 1 -2 -28 -11 8 -11 -21 -2 -26 61 19 -67 -38 -36 -54 -39 -17 -24 -36 -38 6 -30
-11 14 30 -7 2 9 3 27 -71 -15 31 -24 -16 -45 12 -4 -25 17 -11 7 -7 -8 0 -4 32 15 26 8 6 -69 3 4 -53 -75 11 -13 50 -7 -84 35 0 -10 -11 -38 12 -30 -20 -13 -20 5 -24 17 -46 29 -18 0 21 75 35 -15 3 -21 -56 34 -19 22 3 8 -7 -28 18 20 10 -41 38 -8 4 -3 19 -4 -59 -19 26 7 -16 -11 -51 -43 12 -68 7 18 4 -2 -17 -41 -17 2 -26 -75 -18 12 24 33 60 11 8 -23 -10 -23 -8 -34 -63 18 -19 -15 12 0 -7 7 52 -11 -15 30 19 -24 -6 0
13 -30 19 43 8 29 -4 13 -22 21 -60 -24 8 15 7 -6 -4 4 -8 22 -52 -4 18 -42 1 0 30 16 -5 -64 23 26 10 -13 4 -9 -7 -2 -72 -16 -21 -28 1 -1 8 -8 -4 -7 6 -16 -37 -27 -27 35 17 8 15 -11 2 -20 -13 -37 -71 -44 7 27 4 -1 -11 -22 0 23 13 -27 50 7 -32 21 -19 0 17 -34 20 10 13 11 0 -92 11 -33 -37 5 -11 23 -35 11 -14 -12 1 -27 -50 12 33 -28 -34 -21 -16 -5 -10 21 6 25 -7 14 -19 11 -4 -15 -29 -7 28 -11 -19 -5 45 -26 -23 4
-9 12 -11 -44 -15 14 35 10 -26 31 15 37 13 17 -9 -59 -12 13 0 11 -15 -60 -42 12 8 -30 9 -9 13 -36 -11 2 -28 -17 -6 -35 -21 -34 -14 9 -49 12 21 -26 -13 -25 -2 -40 -5 -12 -21 -6 -34 18 9 7 26 -3 -1 3 20 22 26 48 -25 -36 0 -8 -5 -8 9 11 -21 -2 18 8 -24 52 26 -3 -10 8 10 -3 -4 36 -2 -5 11 -9 -31 -22 -22 -33 5 -43 12 24 -25 -14 -29 -9 0 16 -23 -63 45 -37 7 22 -26 7 50 20 -30 -14 -34 6 18 -1 35 10 -5 0 -19 0 -25 23
16 11 2 -6 -1 6 -73 -1 -7 4 -39 67 30 36 0 26 40 26 -4 -14 -60 -16 14 27 21 13 -9 -23 -8 -16 19 -9 -9 -23 11 5 -7 -12 -46 10 28 -29 -5 -23 -40 10 40 34 8 -13 -26 -26 18 -21 26 41 -3 -38 27 -37 10 -52 77 -41 -5 7 -38 10 25 32 -8 -1 -27 -35 -32 -5 -11 -40 -30 4 -51 22 12 20 27 -41 25 0 -19 56 -20 14 -11 33 -19 -19 0 40 10 60 -22 2 -10 22 -39 7 -30 -23 28 -3 -40 27 2 24 30 3 14 -5 -66 2 -32 -3 45 16 27 13 15 -24
18 2 -2 -4 11 12 -18 11 14 -44 -119 36 6 0 2 17 -49 4 -31 30 -6 -2 50 -47 16 -12 9 9 9 3 -3 28 7 -23 13 1 19 0 -47 -14 4 23 25 25 43 -7 24 19 -28 30 -5 -33 -3 6 1 -18 -21 -4 -9 37 -49 -45 -110 -25 -17 45 -11 -4 16 27 11 35 18 -10 20 -3 -24 41 -15 -41 17 22 0 -13 -19 -14 8 -10 -4 -67 -94 -8 -9 11 30 11 20 31 -28 -10 -74 37 30 -16 9 -48 33 -14 -2 25 2 -27 35 -21 -72 -4 12 -10 -50 3 32 -7 22 12 31 -42 -1 39
-13 11 31 -1 -1 35 -96 18 18 -12 -77 25 1 10 2 11 -19 2 -5 16 -50 -14 29 -20 13 6 7 1 -15 -10 -4 38 4 29 22 -12 30 5 40 0 24 -21 -20 -45 7 -3 -14 -7 39 -7 13 -11 -23 8 10 -3 -22 -10 12 14 -17 24 -62 -48 -13 -25 -3 3 1 -3 12 61 -29 0 16 11 0 -14 -21 -19 19 10 -12 -5 -5 14 -4 17 6 -41 -8 -5 24 -16 25 39 29 30 -10 22 -5 -31 13 -34 -16 -54 31 18 4 4 -4 35 59 17 -1 -4 -5 -20 -44 28 -33 2 4 19 54 2 -10 -8
-38 -31 24 23 18 1 12 -31 -30 -39 -24 15 -10 -16 -18 -9 -12 -1 20 26 -57 -58 11 -11 13 0 25 2 9 -36 -10 17 1 -41 22 -19 -39 -29 -56 -12 12 36 -10 22 6 12 14 -41 14 9 -42 6 -42 12 39 32 14 27 0 11 -22 20 -90 14 10 11 19 -17 -7 -13 69 36 4 -36 54 56 -64 48 9 -25 54 48 19 13 20 -5 4 -42 44 -73 -15 11 22 12 13 37 26 11 -5 -55 -24 14 39 -27 37 -10 37 -32 -12 23 1 23 16 -4 16 -2 2 -13 -53 30 18 -26 6 -1 25 -10 -1 51
10 -64 -6 21 23 -4 -44 -20 -36 3 -47 -44 -28 -26 10 28 10 -6 12 -12 -90 -32 4 25 7 -2 6 8 58 -37 16 -3 -38 35 28 22 -30 5 1 -8 14 9 -30 -13 -30 -5 -23 2 3 -57 1 11 -20 -16 -11 12 20 -29 15 -23 -5 8 -28 -3 17 -20 9 8 -18 16 8 -35 2 -48 -3 2 -26 -21 -15 -26 -6 15 -1 17 32 1 4 -31 12 -33 12 6 24 15 -32 17 7 -12 6 10 9 35 -15 16 -39 -11 -31 8 3 15 -28 -14 -37 -4 18 21 -14 -12 34 25 -59 -28 -42 -11 -9 17 9 16
8 -10 -4 36 -2 -19 -15 -18 -31 3 -60 10 -11 -44 6 -27 41 -30 23 10 -65 -68 21 -41 -8 7 9 9 45 7 0 30 -34 -50 8 21 4 -15 -14 30 38 18 -21 -7 -31 17 -1 15 5 -26 5 -46 -65 5 -25 13 27 4 38 37 19 5 -40 0 21 14 -28 23 -39 54 59 -50 -29 -75 -9 -1 -73 34 -28 -26 27 64 15 3 31 -50 -5 -12 53 -26 34 4 18 0 40 -2 22 -18 -5 27 -41 41 -6 5 38 20 20 10 13 9 -35 44 -33 -65 24 -45 25 -69 -46 -4 8 -41 -16 -16 -2 9 32 50
-19 -14 -11 3 -15 -20 -4 1 -19 -5 -13 -11 -9 5 -13 -11 6 -10 -16 -13 -8 -4 -16 6 -11 0 -10 3 -1 -5 0 -12 5 -23 0 -14 4 -10 -18 -2 5 -6 -4 -1 7 1 -9 -6 -16 -13 -17 0 -8 3 8 -7 6 -17 -5 -7 10 -3 -4 6 -1 -8 -10 -3 -13 -14 -18 9 -4 -18 -5 -17 -13 -15 -2 -13 -2 7 -14 0 -4 -10 -12 3 -7 -20 -19 -29 -4 -1 -2 -26 -15 -8 -19 -18 -13 -2 -19 -2 -8 11 11 -9 2 -14 -21 -2 -5 -13 12 4 -10 -11 3 1 2 -8 11 -20 1 -6 6 -4
-60 -6 -50 -8 -41 22 -31 37 -62 20 24 -2 -2 -57 -49 -37 -30 -29 4 3 -17 -60 -25 28 -37 -30 -25 35 27 15 -45 -44 19 18 -20 2 9 24 9 40 -1 -2 6 -32 -6 -13 1 -59 6 30 4 6 -19 39 13 4 18 -4 5 25 55 23 36 -17 12 -53 24 -22 -71 17 -32 -28 -26 -9 3 3 -44 -93 16 -15 -21 4 -6 -26 -66 22 8 7 -31 12 22 -25 9 -33 -18 -39 -43 29 -41 -21 18 -6 -35 -7 -84 -9 -7 -9 -74 -37 53 -11 25 27 -9 37 49 -17 50 -43 -90 -35 9 -38 -36 -44 0 -5
-4 -4 -16 0 11 11 -59 14 -12 14 -21 20 -18 -11 -4 18 36 1 18 -36 -21 -25 7 -58 -4 -19 33 15 0 55 -18 7 21 7 -17 14 -45 5 -9 -9 23 25 -29 -7 43 -25 5 -5 -17 31 -9 -5 0 21 4 28 10 5 2 25 -17 6 -84 -28 22 -2 -31 -29 -39 11 34 69 26 -51 35 22 -23 -3 -9 -22 59 7 -20 1 16 -10 -20 -5 -19 -75 -29 23 12 13 29 53 -20 43 -32 23 -15 19 37 -42 51 18 10 7 -24 -2 37 6 14 9 22 2 38 -1 -86 15 -18 2 41 35 -32 -25 -9 -12
11 1 -19 -13 -25 -71 -48 3 32 -29 -21 -8 -6 6 -19 0 2 3 -67 29 -11 -30 -2 -57 -7 9 -31 -18 0 -14 -30 22 -84 -61 10 -3 11 -13 -37 -27 2 -12 -36 -38 0 4 12 37 29 5 -4 -33 -11 -31 -8 -18 -48 -15 1 -21 11 -60 -23 -27 -54 11 -51 14 23 19 -44 -31 11 29 -28 2 -35 -14 -54 -13 -54 -33 -26 2 -17 -30 8 5 -12 5 -12 -27 -16 -16 -7 -31 -3 -15 14 64 -49 -5 -11 16 24 28 -19 31 -4 5 -44 -1 18 -3 31 -1 1 -8 -50 -15 -15 -13 -8 -9 -7 11 27 -23
-12 33 -1 17 -29 -11 13 32 -2 30 25 -45 12 -57 8 6 -5 13 7 -8 -65 -37 -9 35 26 1 23 18 24 5 20 -2 0 -18 9 0 8 -18 48 42 -22 12 9 -22 -35 -14 -22 -25 -27 -56 25 -4 -50 7 13 -9 40 -17 35 10 40 44 -12 11 15 6 -8 4 -51 -7 -68 -18 -10 -29 0 -20 -3 -13 28 1 17 1 19 17 9 17 -23 22 18 -33 16 2 31 -5 3 17 9 -15 3 -55 -16 36 16 8 -18 -12 -70 -4 -6 -14 12 -40 -53 10 -48 17 -2 -38 -17 -9 -60 -6 -74 0 -6 -45 18 -10
-13 -2 -1 -3 -6 -42 29 -54 12 -41 23 38 26 -38 -10 4 -23 -15 23 0 38 30 18 24 -32 9 -42 -9 -10 -57 -22 -24 -58 23 5 -40 48 30 9 -43 -43 24 -41 -2 -36 -1 -7 -37 0 -28 -34 31 34 -5 20 23 -7 2 -32 -2 0 9 12 4 -5 -13 -19 -23 32 -10 -23 7 27 22 -11 -72 23 1 12 27 13 -3 10 2 -19 23 36 -18 -59 33 -31 3 24 -19 -79 -16 -26 -17 22 0 35 -60 -46 -20 42 -29 -18 -22 -9 27 12 -1 9 -8 -34 -47 -7 27 6 -30 30 -22 19 -5 8 36 9 -49
-24 -6 5 5 -6 -7 -6 -26 -17 -17 -1 6 26 5 0 1 2 -29 -9 -8 -15 -19 -25 -9 -39 2 -2 -13 14 2 -1 -23 -10 -13 16 -11 1 -4 -11 -5 -31 -20 2 10 1 7 3 8 31 -7 9 -22 -3 -25 -28 -11 22 -24 -2 -28 -27 -3 5 2 -28 12 -6 -6 15 8 -6 -15 -18 -27 4 13 -19 4 -18 -1 7 4 -45 -24 24 -23 6 -19 -17 16 -39 -24 22 6 4 5 1 -26 -5 -34 -12 4 -17 -19 -2 3 -2 7 -16 12 -1 -11 -27 -16 16 16 -17 4 11 -2 -5 -5 -18 -26 30 -5 -31 4
-7 4 -13 -11 -9 -15 -17 -18 -7 -18 -9 -4 -9 -24 -6 -8 1 9 -25 -12 3 -9 -10 2 -7 0 -1 -9 3 -14 -12 -19 -5 7 3 -5 -10 0 -4 -14 0 -20 -14 0 8 -5 3 -11 -11 -10 0 -12 -9 -19 -1 -3 -13 1 -19 -6 -9 3 -3 3 -12 -14 -4 3 -14 -9 5 10 0 1 0 -8 -18 0 -13 0 1 -25 10 10 9 -11 -4 12 -18 -23 -23 -7 -5 -29 8 -14 -14 -13 -4 -24 -18 8 -2 -20 -10 -6 -4 -8 2 0 -7 -10 -2 -19 -13 -20 -34 -16 -1 -11 -14 3 -8 -3 -8 -2 -3 5
3 -41 2 1 0 6 6 -15 -5 -37 -10 -10 5 -12 -19 -19 -37 -26 33 36 -25 -16 -10 -1 4 -23 -12 23 -14 -74 -14 -14 -18 18 -9 -11 -4 -10 11 1 -10 1 6 11 -59 -12 -46 -30 8 -36 -41 1 0 -24 -4 26 -5 -57 -35 -67 -35 16 6 1 -3 19 9 6 17 16 -5 18 -13 -19 -42 -50 -26 9 5 5 -3 19 6 -5 15 27 -8 -35 2 40 17 23 1 -49 -96 -1 -11 -11 -16 -25 15 -5 -48 -16 -5 -15 -1 -50 -2 -7 -27 15 15 -14 -25 -8 -33 3 -20 14 36 -40 -36 -51 19 -11 -22 31
-12 -33 13 -3 -16 9 13 -20 -13 0 -3 37 -11 32 6 -10 22 11 13 -54 -29 -22 -2 -5 -8 29 18 -15 8 -40 16 -10 -2 -24 22 -19 -2 -7 -112 19 -3 3 8 -63 9 -20 -12 -52 -36 22 -40 -20 8 25 -19 19 30 34 -1 -6 -7 -81 0 -12 11 1 -27 -5 -8 -22 47 71 23 0 41 13 -3 67 4 -22 44 -2 20 -25 -26 2 7 -39 21 -5 -75 13 -39 24 14 40 -33 -7 -12 7 -64 -6 46 16 18 -23 51 -13 -3 15 14 30 33 -4 -19 -18 9 -18 -23 -15 68 19 29 27 3 34 30 66
54 26 -20 41 19 5 42 8 -13 66 14 17 -4 66 -14 10 18 7 -19 8 9 -20 14 4 -6 0 -27 1 -11 80 33 4 2 -28 -14 17 15 23 -27 10 -18 11 36 40 -26 -30 4 -39 -3 -12 41 -15 19 -12 7 6 -39 -11 4 -32 -10 13 57 8 20 39 25 10 10 18 -48 -16 3 -25 -32 -32 -11 -20 14 -22 22 -7 -7 15 28 19 -20 15 -16 49 8 -25 27 19 3 -4 -46 2 0 35 -11 14 -3 15 54 9 -17 -22 16 -21 -28 13 65 10 8 19 -7 21 34 -3 48 42 20 -26 12 5 20 -17
-14 -3 -9 -8 -8 5 0 -22 -11 -4 -7 -22 -7 -15 -25 -4 -21 -20 -12 -15 -4 -12 -29 7 -4 -15 -16 -20 10 -25 -15 -6 8 -10 -13 3 1 -7 -11 -26 -10 -2 -1 8 0 -8 0 0 -16 -32 12 2 -20 1 1 4 4 -13 -23 0 -8 -5 -12 -9 -13 -13 -10 -13 4 -18 -20 -13 2 6 -28 8 -12 -6 1 -15 -15 5 -22 -7 -2 -26 -26 5 4 4 -20 -16 -8 -1 -17 -4 -13 6 -19 4 -9 -13 -27 -9 -19 -12 -4 3 -21 -20 -18 -13 -9 -24 -5 -6 -1 -10 4 2 -3 11 -4 -2 -12 -15 -17 3
-44 -7 -48 5 22 17 5 7 -28 -6 -20 -19 -52 -30 -14 1 -11 7 19 11 -29 -54 -32 11 24 -26 18 19 1 5 -23 30 30 17 15 -18 -37 -38 29 22 -24 -16 7 4 19 -40 -33 18 13 24 -7 34 -70 -19 10 15 -24 -25 7 12 -24 11 8 -12 -58 3 4 -33 22 -33 22 16 -13 -1 36 -4 -52 12 -8 -73 -1 -40 5 12 -24 32 -28 -34 -19 7 -12 2 8 -38 0 -15 -2 -2 -55 22 40 2 4 5 -22 -19 51 3 -34 -14 13 -6 12 26 -13 18 -11 11 14 33 16 -13 44 19 -16 -38 -3 2
-19 -9 -20 -14 -4 -16 2 -18 -13 -6 -17 -25 -18 2 -12 -12 6 -37 10 8 -17 1 -10 -9 19 -11 -2 -14 -1 -1 -10 10 5 -14 -6 -4 -23 -20 4 12 -6 -5 0 10 5 -9 -13 -19 -14 21 -21 11 -3 -13 -23 -30 10 5 -24 -13 14 -10 -18 -13 -11 -18 -26 -5 -3 2 -6 -2 0 -29 -13 -18 3 -15 -17 -4 -13 -22 -11 -4 -29 5 -18 -26 -18 -25 -11 -11 -25 -28 16 -6 -15 2 -3 -21 -17 -23 0 -24 9 -30 18 -20 -17 -15 -27 0 6 -8 4 -13 -21 -8 -11 -3 8 -7 -18 6 -19 4 -23 -3
10 -11 -20 6 -5 -8 3 -3 1 10 -20 -6 -24 -23 -19 11 -5 -13 -13 -7 6 -20 -12 -15 -18 -13 -22 -3 -17 11 -4 -13 -23 -22 -4 6 5 15 -9 -18 6 -17 -28 -19 3 -5 -19 -1 5 -16 -5 -9 1 9 6 6 -16 -19 -15 -11 -14 -18 4 -25 -6 6 -10 -6 -21 5 9 -21 -9 -1 6 -11 -10 -18 4 -5 -8 -12 9 4 -3 -8 -10 -20 -10 -17 -11 -19 0 1 -16 5 4 -16 -32 -15 -20 3 -11 -11 -4 14 -3 -3 -4 -15 8 1 -27 -4 -2 -5 -6 -10 -19 7 -7 -22 -17 2 -2 -14 -6 -14
29 -2 24 4 -42 2 51 0 17 -4 -18 25 -23 49 -13 13 -52 -4 -23 -17 23 -37 -17 20 -14 -11 -33 11 -26 31 26 -44 10 -69 -26 0 -20 -7 -55 5 -27 0 26 50 -15 -78 2 -54 -66 22 14 -37 28 -37 27 -38 -45 8 -1 -28 31 -46 12 11 1 51 -1 18 -19 -5 -50 24 38 -47 -42 -68 -30 24 -9 4 -17 1 -42 -14 -24 2 -5 12 -21 23 -10 -4 -10 -22 -45 24 -64 -10 -2 -41 -56 -19 -25 19 -37 -18 13 -84 30 -25 21 -27 34 2 -32 19 -11 -19 27 -27 70 30 14 -24 -18 -34 -55 36
-10 -30 -16 14 -18 -22 0 -4 -32 9 -55 40 0 -22 -13 9 27 -9 -2 -5 -10 -22 8 -11 -17 -15 -9 0 17 -5 35 27 -25 8 -8 28 2 -35 -25 -25 -9 -58 -53 36 60 11 -25 -12 -16 25 -1 -7 0 -3 -4 30 -2 23 -3 24 -17 -7 -30 -11 13 -8 5 -22 -44 -10 46 28 59 12 -4 31 -30 5 -22 -26 53 -22 -20 -7 -6 -48 -11 -59 -2 -4 -17 29 5 37 2 26 6 -41 -19 33 -33 32 22 -107 30 46 15 16 -24 13 51 15 -8 -35 34 -26 20 -7 -109 12 -20 -67 64 2 13 -28 6 10
7 76 21 -12 18 48 35 30 -5 2 46 17 12 37 35 48 30 57 73 0 17 65 6 48 45 -17 6 57 5 23 34 33 2 70 -18 48 -21 73 11 18 35 55 70 -4 -3 27 49 47 9 1 40 62 26 6 52 46 7 41 62 8 47 -15 -2 32 75 -7 57 69 6 20 8 13 14 -1 14 9 24 20 78 -7 25 55 33 9 18 71 -5 26 10 21 40 76 0 1 7 40 38 69 65 -12 52 11 8 53 -11 7 43 14 79 2 -9 15 25 54 20 45 5 20 65 -10 1 95 12 44 36 -4 -4 17
-4 -6 8 3 -18 0 1 -4 -4 -21 -16 -19 -1 -2 10 4 -26 -7 -14 1 3 -12 -21 -10 -10 -21 -18 -9 -6 3 -9 -4 -8 5 -8 3 16 -1 1 -21 1 -28 -13 -11 5 -5 -16 -19 -14 -1 -11 -9 6 -21 1 1 -18 1 -19 -10 -2 12 4 -18 1 -1 -17 10 -8 -20 -27 -13 -8 -4 -11 -15 -9 -5 -23 4 -4 -13 -13 -30 -17 -2 -11 8 -23 2 -9 -3 2 1 -13 1 -14 -6 3 -4 -5 -8 -11 10 -2 -3 -6 -20 3 -30 -9 1 8 1 3 2 -9 -20 1 -9 -12 -12 -5 -12 -2 2 -11 8
19 -11 -3 51 39 1 -9 9 -39 2 -39 -23 -15 -47 20 -20 7 12 -5 36 -70 -22 14 -10 30 10 26 18 11 -24 5 22 -15 -34 22 4 -18 -34 -78 15 6 38 10 -3 -6 3 44 22 12 -20 -12 -25 -43 24 -13 -16 14 35 15 5 53 -17 -26 -29 5 34 -16 -3 -14 25 -16 -37 -35 -23 11 11 -11 11 -6 -14 -9 26 16 28 48 -5 -4 -12 30 -29 31 21 24 11 -9 -28 21 -9 -3 -22 -51 16 34 2 -33 7 10 10 0 36 -17 22 -56 -7 12 -12 13 -40 -50 20 24 -15 -42 7 29 15 15 11
20 -67 25 26 42 23 -35 -59 -22 -16 -61 -12 29 -2 13 29 -2 -11 28 -3 -68 -28 -2 26 -12 -20 -10 5 20 -54 16 -12 -15 6 18 20 -20 29 17 -21 30 8 -42 25 -33 17 -23 15 3 -29 20 -7 -16 -57 -1 12 2 16 5 -6 -3 10 -39 -71 30 4 15 10 26 10 37 -30 -27 -62 -13 18 -29 35 -5 -29 24 30 30 14 34 -16 -2 -67 -9 -5 35 21 45 -5 -2 -9 -9 -2 12 -16 3 20 -41 2 -21 -3 -4 -22 14 17 -74 28 -22 17 16 -3 8 -43 -33 33 -5 -7 -30 -21 6 21 17 42
-48 1 -43 -42 -38 1 -95 -18 3 -3 -3 30 -44 28 -40 -27 24 3 -32 -61 16 1 5 -45 -46 -31 -34 -24 -77 88 -47 -1 42 17 -33 -5 -39 3 31 -5 -7 -16 38 -94 33 1 9 -8 3 34 23 -56 -2 -55 -13 22 -10 -26 -16 18 -4 5 -36 3 3 -40 20 -15 -9 15 -15 -2 16 6 -30 -33 -49 -37 -18 -39 -13 -44 -20 -27 -51 -6 -16 29 -9 -57 3 -20 -19 -33 47 -32 -9 -2 -23 64 45 -25 -49 -37 14 50 -9 52 -3 -35 11 30 -2 -9 50 36 42 -20 -63 -25 -21 3 60 -8 -73 -31 24 -4
12 -30 -3 24 15 -10 -95 -21 11 -36 -26 -39 20 -71 -30 18 -11 -8 -1 -1 -51 -52 12 6 -44 11 -19 -12 -16 -68 -5 -5 11 16 25 -8 3 -4 -16 18 8 -7 -31 29 -24 13 -44 -11 10 -23 -19 15 -14 -36 -18 12 -8 -31 -8 -65 22 -8 -16 -23 -20 -10 2 19 26 6 -6 -39 -18 6 -60 -53 -22 6 -39 17 -53 32 2 20 16 -71 27 0 0 -22 -3 2 9 -13 -42 3 -37 -45 8 -19 -11 -11 -9 -18 -42 22 -46 -12 -2 21 -26 17 -62 -28 41 31 -28 -9 -67 16 -57 -41 -30 -40 -9 24 -6 -5
-23 -22 -23 26 -23 -14 36 -22 -1 16 16 -3 -17 -8 -32 -22 -20 -18 11 6 11 -27 -48 5 -19 -28 -6 -20 -32 -36 10 -19 -42 58 -8 7 -19 41 127 -8 6 -21 -24 44 -16 -72 -32 -41 11 -16 -34 15 -3 7 37 36 -5 -13 -22 -8 -4 93 36 20 27 -2 8 -46 -12 1 23 69 12 23 17 -8 -53 -27 15 -3 57 6 35 25 -15 15 -9 2 -17 36 44 -33 31 6 -63 9 -30 -18 -39 -76 51 0 28 -4 -1 -14 -1 -9 -23 -25 16 2 28 -12 9 0 4 41 28 -2 -3 1 -41 -32 -42 10 -13 1
18 8 8 26 25 -26 47 14 16 -2 31 -42 23 -3 3 -5 -41 -7 -1 49 -17 -4 -29 13 4 -12 0 -3 19 -34 -1 -83 13 -49 7 -30 -4 -30 -42 -25 -39 19 10 26 -58 -31 14 -34 -8 -78 -37 33 13 32 5 20 46 -33 1 -36 -31 36 -23 50 22 0 -8 12 -2 -37 -19 -2 -37 14 -9 -19 -4 23 23 27 24 18 1 12 34 7 1 4 -6 -4 -27 -13 29 -12 -47 24 -21 6 -30 -50 -2 -52 1 20 -34 -23 -70 -79 -20 8 -22 6 0 4 -27 -2 -2 9 -1 -10 34 10 -110 18 -34 -13 -33 8
19 -32 9 -2 -41 -15 22 33 -9 7 40 -20 17 12 25 -7 -11 -10 1 -33 -20 18 -14 -3 8 -5 10 19 14 -69 24 16 -3 -5 -44 7 -44 -15 -5 13 -9 -17 -29 13 1 0 -7 -15 -109 11 -13 -14 -5 0 -19 -5 -2 -15 16 -26 -23 14 20 18 -1 21 -34 -2 -68 20 12 -1 36 16 30 -5 12 2 4 9 29 -25 22 -8 4 -30 12 -6 -25 37 0 35 -16 -9 -56 49 -18 -26 6 -22 10 17 32 29 -36 17 -47 -19 8 -39 24 -32 -16 3 1 -3 -14 -16 -45 -46 40 -6 -16 23 32 -53 -28 19
20 -9 -23 -26 -36 4 -6 1 -8 9 42 -45 10 -52 12 21 1 -19 19 -3 5 7 -31 -14 -1 -41 18 8 63 -68 18 -38 -13 -16 -7 -11 -5 -16 -35 25 -4 -18 -37 8 -59 -16 -40 -15 -60 -64 8 28 -17 34 -49 -12 37 7 4 -18 7 -41 -40 28 34 -18 3 -1 -4 -43 -47 -34 -43 -10 7 -20 13 -22 -5 -18 -53 -19 31 -27 -7 3 -25 -35 -26 -32 -5 -4 -25 3 -51 -41 -45 -16 -16 -4 14 -9 -5 1 17 27 -22 -51 -48 -25 3 -23 -24 11 -45 5 -35 14 6 -28 -44 -38 6 6 -23 12 1 -7
0 -14 4 -14 -6 -2 -9 0 3 -14 -13 -4 2 0 -6 -9 -4 -7 7 -10 -14 3 0 -9 -4 -21 -6 -2 0 -11 -14 -11 -11 5 -2 -11 4 -4 0 -12 0 2 -3 -15 -13 -4 -7 -1 4 -2 -9 0 10 -7 -9 -17 1 6 -3 -13 -10 5 -15 -11 -15 5 -14 4 -7 4 -2 -18 -7 -5 -2 -13 -9 8 5 -1 6 -21 -8 -15 3 -4 -3 -6 5 -12 5 -12 -18 -6 -11 -2 -3 -7 -15 1 -6 -12 5 3 -4 -4 -14 -13 -7 -8 5 7 3 -18 -1 -14 -3 -17 -4 -16 0 6 -5 -12 -6 -9 2 -10
33 -4 -10 -3 0 6 13 -27 8 22 -42 24 -11 72 2 19 21 17 -37 -7 -59 -10 -5 -35 -3 -16 10 -16 -10 29 13 9 12 -36 -6 15 18 -3 -50 -17 13 24 6 -8 9 18 6 14 -42 46 -14 -53 22 -26 1 -12 -37 -5 11 -35 -27 -59 48 -11 -15 48 11 -4 -10 26 -6 40 58 -58 -23 2 -35 -25 -11 -8 12 -12 7 -10 24 -16 -12 9 6 55 -23 -7 -24 41 -5 36 7 4 -3 25 -29 2 9 -3 -5 28 1 13 -8 -36 56 -2 -12 -2 33 -9 3 -48 -9 -26 53 24 38 8 -22 -11 14 -2
-4 -15 -2 -10 -6 -20 0 -4 -9 -3 3 -7 6 -18 -21 -9 -3 -18 -12 1 -17 -2 -13 -5 8 2 8 1 -17 -7 -2 -22 3 -22 -4 -20 -15 -3 2 -6 -10 -11 -29 5 9 -1 -19 -25 5 -3 5 -12 -18 -21 -2 -7 -20 -18 -28 -1 -4 -14 -8 -6 -8 -1 -10 6 2 -5 -7 18 10 -1 -12 -11 1 -7 -11 -8 -8 -21 -20 -6 2 -5 7 -5 -8 -17 4 -9 -3 -13 -16 -14 -1 -4 -15 -1 5 8 -15 -13 6 -12 -10 2 1 -21 -4 4 -15 -1 0 -9 -24 0 -11 -10 -8 -18 5 -16 -7 7 -6 3
-16 17 -57 -29 4 16 36 12 11 -11 11 -8 -8 30 -57 -66 -30 17 11 21 1 -65 5 16 -7 -57 -20 0 -19 56 -46 28 15 -25 -15 -74 -52 -73 51 21 -65 -15 23 20 -1 -43 -11 -2 9 4 -9 30 -40 -40 11 -23 -33 -55 -8 32 -14 32 41 -4 -28 9 19 -44 5 14 -11 20 -18 38 -3 -53 -15 -42 8 -32 -37 -43 -41 -33 -36 11 -52 0 -15 18 -4 -34 -62 -38 16 -31 3 15 -62 24 45 -33 -63 5 -1 -8 16 -12 -8 31 1 15 47 8 -84 33 5 39 33 6 -26 9 23 -18 -31 -40 -14 -47
-2 1 -15 -15 -1 -17 5 7 7 5 2 -9 0 -6 -20 -5 -19 8 -7 7 -13 -15 10 0 9 4 -16 -15 -11 -4 -7 -7 6 -10 -6 14 5 -8 12 -22 -3 -15 -13 3 -6 -5 -7 -20 1 -5 -7 6 -4 -20 -22 5 -22 -19 0 -11 -6 -21 -8 -4 -20 -2 -8 5 9 -16 -13 7 -5 -12 -9 -2 -16 -5 -13 1 4 -4 -13 -10 -6 -17 5 -2 -6 -7 -17 -2 -2 -5 -43 -17 -3 2 -14 -17 -19 9 -9 3 -30 -3 -5 -27 -6 4 -13 -10 -15 -8 -20 0 -7 2 -3 -7 -2 -27 -16 -6 5 4 -2 3
-5 17 -54 -34 -19 1 42 17 2 35 16 34 2 55 -26 -33 28 43 9 9 19 -51 -23 -4 8 -51 -5 -25 -10 62 -63 13 24 -54 -3 6 1 -52 -20 13 -10 9 11 34 55 -48 -5 -48 -36 66 11 -11 11 -15 -4 -19 3 -10 -4 22 23 17 80 30 -25 -56 25 -13 3 -31 41 18 28 52 -23 -26 -69 -26 29 -11 46 5 -14 -33 19 21 11 15 -59 60 -31 -28 -38 25 -13 25 9 33 -37 25 -13 -4 -31 29 -19 52 45 -6 12 -30 52 -10 54 6 75 18 -3 -3 81 0 17 10 46 18 -44 -3 -20 -22
-12 6 9 -33 -6 17 46 -2 -1 10 -11 32 -9 54 -9 -26 -27 16 -30 -13 -50 -70 -24 3 -19 -39 -19 1 -65 31 -32 2 14 -52 -19 10 12 -91 -39 3 -39 4 34 -34 -11 -97 24 -84 -39 40 14 -38 17 -67 18 14 -79 10 0 -19 10 -15 56 -17 -13 14 19 32 -31 29 -15 48 52 -14 -44 -56 -63 8 12 -28 50 -8 -38 -35 -38 14 -27 21 -36 56 -13 -31 -48 -28 -25 29 -57 18 -22 -7 -61 -1 -31 1 -36 26 16 -57 21 -19 4 61 37 1 -48 16 -49 -52 32 -42 64 6 -5 -15 -12 -10 -17 -12
2 -43 1 12 -2 -39 47 -27 0 32 -12 -23 -21 15 -4 1 -43 -15 36 -32 -55 -21 -23 23 -5 -16 2 -51 -32 -35 12 -12 -50 46 -1 22 -33 31 72 -12 -24 -29 -22 12 -20 -58 -18 -29 -27 -10 53 27 -19 -7 -10 19 -10 -3 19 -23 -27 68 31 -10 42 21 -45 -23 -19 -20 11 59 -2 37 17 -36 -40 -17 12 1 34 7 10 -4 -12 -30 -7 -2 -13 22 46 -2 44 -24 -34 35 -32 -55 -11 -36 66 19 -3 15 -46 -27 -5 -50 -3 8 11 -32 18 -10 -20 9 -11 1 10 -23 26 -13 3 -38 -14 5 -24 4
3 -29 -4 18 46 9 -7 32 -32 -16 -15 -7 -36 -65 1 -9 2 8 -20 25 -41 -16 -21 -54 12 10 15 20 -4 -47 16 32 26 -68 16 12 -1 -27 -66 15 20 -2 -29 1 25 -8 -14 -25 -11 23 -48 -23 -47 1 0 -4 30 31 17 39 -5 -20 -68 15 -6 32 7 27 -26 -11 0 5 24 -20 -30 34 -5 32 4 -15 -10 1 -8 13 41 -32 -12 -18 12 -51 -13 1 13 13 -23 -8 2 4 -6 -53 -75 42 21 -13 -42 -5 2 6 7 14 54 1 -75 -5 -16 14 36 -19 -102 32 -19 -27 16 26 1 -14 -32 13
0 -52 3 -22 -1 -2 -1 -60 -5 -63 -4 -12 0 -10 -5 15 -18 -5 -32 -27 74 41 -1 -42 -20 19 -48 -9 -51 -44 -6 -46 -2 50 2 -8 55 37 8 -9 -15 -67 -8 4 6 16 -12 -39 44 7 -59 4 38 -48 17 -12 -15 8 -23 -14 -57 7 3 -60 -2 33 -53 -18 2 4 -90 33 -44 -7 27 -25 18 -87 -50 24 -70 -16 6 -21 8 11 -6 -68 -56 -26 -17 -5 -15 4 -115 5 -13 1 3 -32 2 -36 -17 -28 38 -14 14 -42 -28 -5 -14 -4 -42 -9 0 -56 -52 22 -25 0 -42 1 18 -32 8 12 -14 -47
-21 3 -7 -29 -17 -27 12 15 17 -32 -8 4 -20 -8 20 -3 -2 13 -2 38 -24 -35 3 -1 6 13 -8 -10 8 -49 -32 7 -45 -54 -17 -1 16 -36 -18 -6 5 6 16 -16 -70 7 5 22 1 -58 -6 -2 -26 -16 -8 11 3 -35 15 -18 0 -54 4 -2 -59 -17 -31 24 5 21 -4 -13 -18 13 -28 -34 14 -15 -12 4 -60 2 -29 8 5 -22 19 18 19 21 -13 -4 -32 -42 6 -59 21 -20 -1 0 -60 -17 -8 35 -24 0 -40 6 -9 3 -46 30 -29 -48 -7 -34 -4 -17 -49 -15 2 -19 -19 5 25 -2 -19 -22
-39 -4 9 7 5 -53 -93 -22 -11 13 -8 -49 8 -58 37 38 -15 -27 3 -5 -76 -39 1 -1 14 13 -4 -35 -6 -20 -23 -27 2 6 31 18 -22 19 28 4 31 -24 -41 -19 -27 16 10 -4 13 -51 -53 1 -7 10 -77 28 21 -1 -6 -13 -13 8 -45 17 11 -39 -20 6 -3 -14 44 -55 -26 1 0 8 -17 -5 -14 -12 5 30 16 14 15 -86 20 1 16 -36 23 -29 21 3 0 -11 23 -12 6 11 16 1 6 -4 -38 14 -49 13 3 2 -70 4 -105 -40 42 -20 6 -24 -55 23 -47 -14 -82 -27 11 21 16 17
0 -2 1 -4 -3 -19 -4 -17 6 -25 -18 -1 -11 1 -24 -18 -30 -5 -14 -15 4 -18 -4 8 -16 -15 -18 -4 -5 -12 -12 -22 11 -16 3 -12 -21 -19 -2 -18 -22 -11 -7 6 -6 -24 -8 -22 -16 -26 -10 -17 -9 -1 -9 -4 -4 -6 -18 -15 -4 -9 4 -19 -13 2 13 3 -5 -2 -18 -15 0 -17 -3 -15 -29 0 -24 3 -11 9 -1 -1 -10 1 -7 -7 -7 -1 5 2 -9 -8 -4 -6 5 -17 -19 -20 -6 -9 -3 -22 10 -1 -18 7 3 -11 -3 -13 -22 -12 -4 -19 0 3 -18 -3 -2 -8 7 -5 -6 4 2 -5
4 -17 -7 12 -10 -10 0 -4 -18 5 -22 -5 -17 -13 -12 -8 -12 7 -15 6 1 -6 -3 -1 4 -5 0 -13 0 2 -21 -20 -3 1 -3 -4 -14 -7 -3 -21 10 -6 -15 -12 -5 -3 4 -15 -22 4 2 4 -17 -6 8 -7 6 -5 -9 -12 -13 -2 -3 -13 -9 -11 -6 -11 -1 -3 -21 -16 -22 -1 -9 1 -4 6 -16 0 -8 -20 -7 2 10 -19 -7 -14 -14 -6 -8 2 -13 -20 6 -2 -12 -11 -10 -2 -2 3 6 -1 -21 -14 2 -25 -22 2 -21 -11 -8 -19 2 -10 -6 -3 -12 -17 -17 -18 -7 0 0 -5 -7 -16
-4 34 -17 7 21 -17 13 5 11 -11 -31 -9 18 -13 -16 -8 -21 -14 -30 28 -3 -6 21 0 -36 -10 -38 10 -4 45 13 31 16 -15 25 -7 -9 4 -34 -3 -13 4 20 52 -1 -13 1 -16 24 -18 45 -37 -1 -8 -14 6 -41 -12 2 -16 3 -11 10 18 -1 39 33 20 -3 18 -49 14 6 -30 -48 -5 -35 18 16 12 -10 -16 -11 -14 0 -8 1 21 21 -8 1 -9 11 -11 12 13 -28 -11 -3 19 -18 1 16 12 22 -8 -11 -7 2 15 30 8 8 -5 -8 13 -41 5 -9 24 3 3 -40 -7 41 14 -3 -32
20 22 35 17 -12 -4 -36 14 -18 -18 -19 9 11 1 21 -20 -3 2 -5 22 -35 -23 28 13 17 21 24 1 35 -17 47 10 -53 -35 0 -12 -1 -23 -65 -9 -7 26 -32 -13 -26 16 34 2 -44 -42 0 -18 42 12 9 -22 -7 19 -1 16 9 -10 -32 -21 21 -3 -5 19 0 -2 3 -18 -4 -11 8 -10 3 48 18 21 8 -2 41 11 16 -56 36 2 26 -50 5 -15 24 6 25 8 29 -25 33 -9 -27 11 38 -49 -5 4 32 -14 7 15 -38 6 -16 -49 -30 -37 17 -37 -80 12 12 -21 -24 18 27 12 1 29
24 -51 24 10 -8 -19 -18 2 3 -2 2 13 13 -33 -25 -19 1 -57 -18 -22 10 -26 31 -37 -47 44 -24 -1 -12 -2 11 -25 -40 -9 18 -21 22 20 -23 8 -8 -6 -50 38 -19 -6 -21 -40 7 -7 12 9 22 1 -13 -22 -37 12 -30 -13 -11 22 20 -23 14 -3 -47 -13 21 -3 -17 -6 9 -6 21 20 -18 -5 -45 26 -4 -24 14 7 8 -44 44 -31 -21 3 9 5 21 10 -20 4 -34 -41 26 7 30 2 1 -24 22 19 -25 -8 -26 23 -16 13 -2 -39 13 -38 -27 38 15 -4 3 -40 -1 -27 -8 22 3 -4
-2 -11 3 1 3 -7 -12 -3 -17 -4 -8 2 -28 -7 2 0 -16 -15 -1 -1 13 -9 -13 -27 2 -17 -1 -11 -10 6 -23 -5 -9 -20 2 4 -6 10 -29 -15 -11 -2 3 -18 -25 0 -22 -5 -1 -22 -16 -2 -4 -12 -3 -11 -8 -2 -29 -6 -7 -14 8 -21 -15 -2 -13 6 -9 -31 -10 6 -20 12 -15 -17 -18 -26 -8 -10 -15 -32 7 -14 -26 -3 -20 -9 -5 0 1 -12 -4 2 12 -10 -25 8 -21 -26 12 -16 -14 2 -10 -1 -2 -12 -9 -9 -23 -10 8 2 -17 -5 -11 -3 -16 -3 -1 -13 5 7 1 -23 -17 -12