-0.16489650309085846 -0.27165406942367554 0.08887351304292679 -0.11192145198583603 -0.03379577025771141 0.0131958844140172 -0.16686487197875977 0.2368573695421219 0.0970737561583519 -0.023212887346744537 -0.07992395013570786 0.035369064658880234 0.0386459119617939 0.12888193130493164 -0.019650381058454514 -0.021541554480791092 -0.20716828107833862 0.21812328696250916 0.1142931878566742 0.15120960772037506 0.03254314512014389 0.0562649741768837 -0.033411744982004166 0.13223768770694733 -0.4111924171447754 0.09901243448257446 -0.11641411483287811 -0.055367372930049896 -0.025118667632341385 -0.2053375542163849 0.20247910916805267 0.07106175273656845 -0.2153262197971344 0.08509650826454163 0.04772086814045906 -0.06486710160970688 -0.006834942847490311 -0.04851483926177025 0.10059157013893127 -0.047806546092033386 -0.04086364805698395 0.0027552051469683647 -0.2396935671567917 -0.07845916599035263 0.027772527188062668 0.27476704120635986 0.1496642529964447 0.09836643934249878 0.008554779924452305 0.14380264282226562 0.12473651021718979 -0.16262201964855194 0.12297328561544418 -0.15975306928157806 -0.056919198483228683 0.15092718601226807 0.06977053731679916 0.14404873549938202 0.18863195180892944 0.15997754037380219 0.14688219130039215 -0.05971207469701767 -0.0584576241672039 -0.13343219459056854