-0.3531239330768585 -0.13775448501110077 0.007804387249052525 0.06677092611789703 0.21145203709602356 0.0489787757396698 0.040519602596759796 0.21850799024105072 0.1839783638715744 0.11237122863531113 -0.04796614125370979 0.13665850460529327 0.07033931463956833 0.09586213529109955 -0.13895633816719055 0.0197441466152668 -0.2082269787788391 0.06580643355846405 -0.11812646687030792 0.22457319498062134 -0.04629601910710335 0.021075893193483353 0.11075260490179062 -0.05568520352244377 -0.21749739348888397 0.043940991163253784 0.002236420987173915 0.09384460747241974 0.061283648014068604 -0.2002996951341629 0.30955228209495544 0.17705024778842926 -0.18831220269203186 0.1867304891347885 0.07773100584745407 0.017186857759952545 -0.16061104834079742 -0.16443859040737152 0.0347382090985775 0.016808871179819107 0.039516694843769073 -0.11269254982471466 -0.21836340427398682 -0.10980846732854843 0.1235189437866211 0.18760180473327637 0.03724970296025276 -0.0011099601397290826 0.041259199380874634 0.28432247042655945 0.18115361034870148 -0.06716969609260559 0.10080582648515701 -0.15652021765708923 0.019610751420259476 0.20684203505516052 0.18517829477787018 0.0700843334197998 0.1523791402578354 0.057646673172712326 -0.03004602901637554 0.16980350017547607 0.03707722947001457 0.07153631746768951