16 12 53 -34 -55 -20 17 -16 -63 -15 25 3 97 49 -43 26 9 26 0 9 14 23 -25 -25 -6 28 -20 16 -12 68 -42 22 -57 31 -7 -12 -21 -7 -55 3 91 53 18 -15 4 -32 -25 57 27 -17 -19 -12 33 -44 37 -52 7 23 -12 -78 -56 -57 -6 8
23 -25 28 17 41 -74 -40 -25 -46 20 40 53 -16 -36 -15 -22 19 -14 -13 -4 5 43 9 -30 -47 43 8 2 57 31 -23 26 -4 61 1 21 23 -117 -13 51 72 73 -72 -11 -5 -5 12 -13 21 38 40 -3 40 -119 -29 17 -41 29 -58 -78 -33 -32 -8 1
-18 -3 -1 -38 -8 60 20 -67 -9 45 35 -102 52 17 -6 6 -41 -55 -29 -7 19 30 24 3 84 23 28 18 -23 19 39 47 17 -17 -78 -11 35 10 -50 7 42 -69 31 -27 2 -39 -8 -8 -30 9 -60 -2 41 71 -84 -13 -21 -43 -13 24 -24 -11 0 52
5 -112 -32 21 -6 -23 -80 5 -16 -41 -6 29 -19 -37 3 -28 10 -10 8 -29 29 45 -44 37 -3 -40 -69 0 15 0 58 -12 21 37 20 17 -3 -13 18 -18 -15 -49 -3 -16 -24 16 39 -48 32 -23 -29 -14 11 -83 25 9 -15 6 18 -18 33 5 -47 -19
9 -46 8 -10 -14 -47 -62 -24 4 -25 -27 -40 9 11 -5 -58 -2 -23 36 23 6 17 -55 4 5 -26 -17 -24 -11 39 19 -30 39 -20 40 41 -18 21 -25 -9 20 -2 -39 92 5 34 47 50 59 -57 -6 -1 17 -105 -67 17 -45 -1 -15 -23 0 20 25 -41
-30 84 48 -11 2 13 -36 33 -20 19 -63 -14 33 1 9 -31 -46 26 3 -1 0 -33 11 -13 -8 -30 -53 -11 32 -26 9 27 -32 -3 -32 84 33 10 -6 -26 -34 -37 5 -6 7 2 -11 -15 -33 -8 -39 -29 47 -15 -30 -6 -31 -45 -11 -3 -18 41 31 -5
68 24 -29 -26 0 34 47 -14 -17 -16 -15 16 -7 -28 12 37 12 -24 -33 0 14 3 41 -26 40 -58 30 20 0 35 -15 31 -14 -45 -1 -56 -11 59 -5 -36 -16 32 -3 48 5 -31 3 41 -20 12 -11 60 -33 -5 15 -78 36 -40 -32 12 -11 37 28 -22
8 -62 -23 10 53 1 18 -61 -42 4 36 13 -50 -66 -33 32 -14 -38 18 -5 42 2 -23 47 38 20 -1 -5 -38 29 55 -33 14 -15 17 -32 19 -48 -36 13 42 -47 2 -5 -24 -8 -15 -33 -10 42 6 -99 -17 -18 -28 -25 -57 -14 46 -55 46 24 -11 36
-7 26 27 8 -92 -32 -23 11 42 -38 -41 25 16 31 34 31 32 -5 46 -25 7 4 -39 15 19 -34 -40 6 -56 17 43 -5 7 -19 9 -10 -12 61 -23 22 -33 16 -29 -21 -17 -6 38 17 -22 -15 -15 -21 -22 -29 60 -8 58 -2 -73 22 -49 -34 -4 -7
20 8 -10 -25 10 27 45 -2 -22 -12 -30 54 -15 28 36 0 -48 -8 69 13 26 13 8 6 -75 17 25 12 -24 -23 -12 4 35 14 39 -19 10 -2 -30 -11 3 32 36 0 -31 53 65 -16 47 -36 44 35 -25 -39 -52 13 9 25 22 -46 -4 47 14 20
10 -74 -36 31 1 23 -13 27 38 3 33 40 -57 -67 18 56 7 -7 52 -34 28 -40 -6 21 -50 21 2 -32 -15 -17 31 -18 31 8 64 -14 15 -16 43 -20 -100 -4 -8 -19 -44 -12 6 -56 40 -45 34 -10 -10 14 -69 -67 25 86 5 -30 -7 8 -18 -47
36 -46 -29 13 -1 36 -18 30 69 4 14 45 -13 -13 12 32 30 7 -48 28 20 40 10 36 39 -38 -19 9 -26 -10 42 -12 18 10 21 9 57 104 37 -62 -26 -79 -5 -8 -11 -56 13 -47 38 1 -22 -67 -22 -30 -51 6 29 -41 72 11 59 66 -35 -68
-21 -32 77 21 -6 -18 11 10 22 23 24 51 -27 27 12 -77 41 -36 -24 42 -40 14 -18 5 30 41 -38 14 35 46 14 -43 -6 -34 -26 10 7 11 35 3 42 19 -36 51 -45 -20 -9 6 -33 -20 42 -30 9 -5 13 30 -17 -24 -32 -62 -16 -41 8 51
-38 25 -77 -27 5 -42 5 30 20 16 -12 59 -42 -57 8 39 1 62 27 -37 64 -7 -6 47 -43 -11 5 -24 -38 6 28 17 -13 76 27 -30 13 -57 -17 13 -40 -41 27 15 40 -35 57 7 14 33 -34 -21 -12 15 -60 44 7 12 57 33 -13 43 2 -42
42 53 23 17 7 48 -31 33 17 25 -21 21 37 -57 16 -84 -57 37 -29 -26 2 -3 -27 -8 1 18 -49 2 -29 -29 0 50 -12 -12 19 -37 -18 7 -2 13 -84 -44 39 -39 -15 4 9 25 -28 -16 17 47 -29 99 44 -5 -4 10 -68 14 14 16 28 -20
-7 34 -43 -31 -51 37 -25 13 38 39 -13 13 6 -7 22 48 31 21 28 -20 9 -20 11 12 25 18 -36 -28 -44 -57 4 21 33 -38 -29 -20 -6 9 68 6 -53 -57 -19 21 25 -13 13 9 -11 -1 -60 14 -24 25 -43 -7 79 -10 27 39 -52 8 26 -93
-15 20 59 47 26 -47 43 28 20 0 -16 -1 43 -38 52 40 0 9 -46 7 -100 46 15 37 -7 -49 46 -33 86 -66 18 -30 13 -21 -9 -28 -51 -106 -11 48 -6 67 -6 3 -2 -7 1 -18 -24 41 -15 -50 27 53 78 -50 -26 43 -54 -34 -62 39 -16 -9
12 -25 -22 -26 20 -3 -75 90 11 39 29 -1 -6 -39 11 61 31 8 6 36 27 2 2 23 -63 -72 -31 -20 -43 -29 -14 52 -10 -5 5 -80 -10 18 -14 51 -45 -10 23 19 -26 -65 -37 -37 30 2 -7 -18 -68 -7 -41 -3 40 46 37 46 21 -20 -18 -65
8 57 -47 17 12 29 74 -9 0 -79 44 -43 31 47 0 18 1 -16 -6 -13 -73 6 6 -66 37 -4 31 -10 -49 -65 -41 43 7 -86 -60 -10 -34 -27 -8 -33 -30 -12 56 -73 47 -9 -34 -59 -120 22 -17 10 21 50 -40 -27 15 50 29 -14 -66 46 -4 47
-6 -62 -7 44 30 -47 -47 7 -39 48 -42 54 2 33 26 -70 -1 24 -19 28 84 -27 6 -19 0 -30 -63 38 -38 51 -6 -28 -22 39 -3 24 46 23 -29 26 -36 -37 -47 -14 -53 -7 28 -13 79 -29 4 6 -45 -33 -26 2 -37 6 59 -58 42 51 -28 -35
-64 8 -8 -27 32 11 -31 23 -16 18 -22 -16 -18 11 10 34 -48 8 -3 38 78 -27 -16 19 12 28 32 -15 -35 24 18 59 -52 78 -59 12 45 57 -22 -28 26 -61 -4 -40 -42 -1 -22 -36 62 25 59 19 -34 16 13 102 -25 24 27 -11 11 -11 8 -58
11 40 3 -54 -34 71 1 0 -23 -28 2 -21 -10 -26 -37 -80 -28 32 -3 -83 -20 2 18 68 52 92 -9 25 -21 10 -36 -48 -56 9 37 14 -27 4 82 -37 57 59 -24 -12 69 11 -5 31 -23 -14 -28 -7 -38 -35 55 -30 74 -97 -32 -23 -30 -11 31 -3
-6 33 32 -40 -47 44 -6 -62 13 -46 24 15 22 7 -28 -86 32 -38 10 -20 -1 -28 26 4 14 83 -7 45 26 48 -24 -36 -12 16 65 17 -21 36 25 -20 69 49 -43 -27 55 32 44 55 40 -30 -33 68 -11 12 46 0 31 -63 -77 -19 5 -63 7 11
-43 -41 62 9 33 -74 35 40 -15 -72 24 -4 63 33 2 -24 -8 -41 -74 -10 -56 72 -36 -116 -7 -66 12 -39 26 53 32 51 42 -15 -49 54 -2 -5 -5 108 47 6 5 -28 -85 -3 14 -18 39 74 40 57 93 -106 -64 50 -72 70 -35 -32 -31 -32 -6 12
-48 -24 27 36 65 -92 6 68 59 -61 12 7 13 -25 45 8 25 -21 -47 45 1 71 -56 -95 -4 -90 -22 -37 85 41 17 14 60 13 -18 -8 -19 -37 -62 59 5 -1 -4 44 -36 -48 -56 -15 -42 51 -11 12 65 -6 -11 57 -110 69 17 -15 -41 16 -28 54
-5 13 10 43 99 -91 -6 29 37 40 -18 19 -12 6 3 38 30 -24 -83 51 -27 47 -43 -10 -45 20 47 -74 20 15 37 47 27 11 -22 -31 -26 -43 -31 55 10 -5 35 13 -61 57 -22 -4 -7 8 72 -6 29 -40 -40 2 8 51 36 49 -36 -11 21 10
-83 18 -63 26 43 31 23 22 -4 48 -22 -23 -29 26 -10 35 -40 -17 -53 60 25 63 62 9 61 0 61 -42 -46 -51 -9 54 -4 29 -120 -38 7 -31 -20 -39 40 -39 56 -33 29 -19 -44 -51 -43 26 33 33 -58 78 -73 55 11 3 27 10 1 -6 43 -41
-5 -24 -53 -20 5 -20 -22 -3 -34 12 -22 17 21 14 14 -74 -40 33 18 0 -1 -10 -40 7 35 -68 -48 -30 -12 52 24 -2 -23 63 -33 47 58 69 47 79 27 -34 -56 -1 -50 -18 11 5 60 -48 -45 -41 -22 -62 -42 18 -28 -21 46 -31 -17 46 -38 28
15 -62 36 31 39 -87 -6 43 -33 10 -19 39 31 -16 41 -81 42 -20 -43 13 5 25 -9 -16 4 -32 -32 5 90 16 13 -14 6 -28 64 -25 -13 28 -5 43 3 50 -12 55 -38 32 19 -12 47 -2 86 13 74 -75 -42 -52 -89 5 -76 -52 44 -26 9 -17
31 40 -33 2 47 22 64 54 42 -10 64 -52 -50 -8 42 91 8 14 -28 17 -80 -61 45 -93 -1 -42 44 -2 -41 -95 -13 74 30 -83 -70 -27 8 -52 -35 24 -109 39 32 -73 47 7 0 -10 -97 46 -45 18 -9 39 -82 -8 16 83 77 46 -44 23 10 15
13 54 -24 -42 -61 65 16 -27 -63 -31 -38 -86 -22 -15 -48 -38 -30 22 68 -49 -18 26 -18 7 4 28 11 9 24 -11 -56 -57 -37 -87 43 50 -65 23 65 -39 -19 49 27 -12 91 -20 1 22 -39 -64 -68 16 -17 -19 60 -96 42 8 -84 24 -43 -30 43 72
-15 74 26 -22 28 53 63 -7 -20 -53 0 -30 23 0 -49 65 33 -30 33 16 -60 -45 4 10 -16 31 100 30 -22 -28 -44 4 46 -76 -12 -39 -78 -43 -20 0 -17 12 60 -32 18 4 -31 -55 -67 40 -41 -28 26 77 34 -77 53 20 -3 34 -26 5 40 64
53 -5 -43 -12 -24 -5 -6 -50 19 50 26 -20 -51 4 -21 -25 15 -3 24 -63 5 -61 -64 52 27 21 1 -41 20 -7 -4 -13 17 -22 -19 -25 -30 -67 3 15 18 -26 -11 37 64 93 -35 -4 32 -49 22 -30 2 23 32 -10 27 -21 14 17 -6 -36 -23 30
-52 -14 17 24 -28 -10 -23 5 -26 14 -4 34 64 1 -2 29 -11 -37 59 23 44 -19 -1 -5 -71 54 11 -16 -69 22 -41 4 -35 27 -37 -36 4 -64 -44 83 -27 -5 -11 21 30 18 -49 -30 40 1 49 54 25 -20 -71 -7 62 31 3 -23 -1 8 21 -56
15 30 -17 -8 -19 -21 -2 -71 2 -55 -31 -30 42 19 -1 9 -37 -24 18 4 11 -25 -6 22 71 42 -67 13 -23 30 36 -2 15 -27 -13 20 -7 82 13 1 -10 -47 -29 27 6 15 35 11 -33 14 -78 -60 -20 -16 37 7 -48 34 -39 7 2 23 18 -16
-30 20 22 -12 30 -49 18 -53 -30 -37 19 4 57 -31 17 91 19 27 17 9 -13 30 -8 26 -45 97 -4 -37 56 23 7 37 28 -45 -15 24 -6 -44 3 -19 -1 22 23 35 4 3 11 25 23 43 1 14 20 17 3 9 -40 44 -13 29 1 -28 -15 -6
-18 11 20 -5 50 -17 9 -48 37 -23 -10 -47 -16 12 -19 -6 -36 8 -45 14 9 -29 -32 17 -20 41 -29 28 8 14 39 48 -14 -1 72 21 19 11 -42 5 25 -20 -5 14 -37 -21 -4 2 25 36 -42 -1 -6 10 58 44 7 52 50 15 -4 -34 13 -14
9 -37 -48 -32 47 -51 24 -56 44 -54 5 40 -1 46 16 -10 11 35 -38 65 19 -17 11 -42 19 20 -49 13 30 16 48 -25 30 41 27 16 36 -14 -64 -39 8 -5 16 4 -30 19 14 -15 -6 -4 -6 -55 100 -30 -37 -21 -24 -37 47 -40 -37 -55 -15 59
-71 21 65 -14 34 1 -41 72 -26 56 33 12 36 -3 62 10 15 15 24 -25 -2 57 24 -12 0 -70 41 -49 67 3 -33 17 30 -39 -84 -12 25 -11 -15 97 17 18 -43 -37 23 19 17 28 34 -7 61 8 -15 21 -23 -34 -35 2 -14 23 4 7 -25 -1
12 -11 -20 7 -5 5 6 -35 49 -28 -36 4 -45 17 0 36 -23 -16 -65 -8 -25 -19 60 54 -29 -10 -30 -25 -8 -30 65 33 -17 86 -8 58 2 -93 10 -55 27 48 24 -53 -58 28 26 3 48 -3 -50 42 62 -21 16 -27 -14 -27 -6 -27 -52 12 -9 -21
37 34 31 1 25 5 -30 37 16 -26 -26 16 -21 22 -37 35 -26 25 13 -34 -10 -41 47 -18 57 49 -26 11 -17 -8 -64 -13 -39 -23 -1 6 -29 -36 71 -16 -63 0 -19 37 35 15 36 30 -6 -17 -14 -14 -94 50 33 -36 18 -21 -21 12 -10 -22 45 -5
-4 7 -35 4 -47 39 15 12 30 18 18 -42 -9 65 -48 -59 -42 40 16 38 4 -38 31 -9 -5 16 43 52 -36 -53 -46 -6 51 -61 24 -3 14 77 -14 -61 -40 36 43 -18 19 33 -16 -4 -18 9 -11 8 -69 19 -26 -1 73 -51 28 -2 22 23 -17 -35
-14 42 4 43 7 4 -47 2 15 -3 -38 -87 8 -10 -26 -46 10 -13 -51 -21 -62 16 15 10 -24 19 -59 -49 5 16 -27 9 -5 31 -15 -28 18 53 1 17 43 55 -3 -9 50 -16 -12 -2 42 3 10 -46 6 2 52 -16 -36 -14 -8 14 -39 -13 18 29
47 -1 -54 -7 40 -37 47 7 37 -21 -15 68 -35 -8 7 -48 -7 23 38 -30 -17 -27 -43 -12 -6 4 -36 27 0 47 3 -18 -8 9 63 16 11 12 56 -101 -34 -1 -15 36 -105 18 23 49 -5 -21 4 25 -29 -68 93 51 -12 -18 19 28 30 41 10 -11
-40 -6 -12 -50 -18 -27 11 41 52 -26 -40 -6 -37 18 33 23 -25 6 -9 58 45 -39 33 -22 -25 2 4 7 -81 -19 6 27 2 16 -10 -16 0 -53 -87 -40 -32 24 29 0 5 -8 -13 -16 -3 29 23 38 21 -29 -101 20 57 11 75 18 17 32 -18 12
33 8 -11 17 -6 49 42 -2 41 63 -16 56 -28 -43 -5 15 18 -3 6 -46 16 -6 -10 16 -14 -36 -27 -60 -56 -41 20 -78 15 25 43 -69 -28 -26 -75 -16 -79 44 -7 51 49 -31 5 -14 10 -43 -37 -1 5 37 43 -15 8 -8 2 16 11 16 21 -56
-29 -7 -25 33 1 5 -63 19 12 -40 -8 -24 45 -1 -66 28 -44 -65 -66 -22 -4 -8 25 -39 -15 8 -19 -54 28 -16 25 -53 -31 2 -2 -6 -14 -26 -2 -21 -28 26 -54 43 -39 -27 -1 -45 -17 53 48 -57 41 2 -19 -17 -20 -18 -6 24 36 -19 -24 -9
26 -13 17 22 18 1 24 -59 -5 6 41 -24 -32 22 -4 -18 34 12 -17 29 -24 -26 -68 -13 -30 -15 -30 21 1 13 39 -49 69 -6 27 19 -24 -68 -14 -2 11 -28 1 25 22 -32 -3 29 -45 -9 -22 13 -23 -4 5 45 -52 -6 -7 1 4 21 -29 -7
8 -16 -29 3 -29 51 -15 1 -9 -6 6 -78 16 31 37 -21 20 19 73 -30 51 -71 27 99 -32 -72 27 -65 13 -25 -9 -26 -20 16 -22 -12 -7 21 2 34 -16 -20 0 -33 -2 -30 24 -41 24 -61 14 -78 -28 -25 -27 19 30 38 -7 18 -14 -4 -10 -8
-44 -21 -46 26 15 13 20 117 34 84 -47 -33 -26 23 18 -55 -2 13 -25 47 47 0 -19 33 -45 -52 24 -13 -29 -44 38 -17 36 -2 -37 -42 -2 47 50 34 -92 -49 -28 -33 -16 -12 -22 -24 20 13 51 17 -42 8 29 -11 62 -33 40 33 5 2 -39 -9
-66 1 -13 -9 34 -23 -1 35 21 -25 -50 44 75 1 13 44 18 -115 -9 -11 -16 -18 -8 3 -57 -44 -48 -3 37 3 31 -33 27 92 -56 22 -1 -47 -15 -45 8 31 31 -1 -48 -60 -36 -14 12 -33 -30 -16 38 41 18 65 4 35 54 6 -30 7 -10 -10
4 16 -39 57 24 -24 5 -20 28 -63 75 -4 30 -31 -7 -24 4 1 -28 -45 37 99 -12 -25 71 59 -16 -13 8 -24 4 46 -57 -37 -4 -17 9 -9 21 29 -2 -19 -5 -17 84 31 -8 -46 -57 -7 6 4 23 21 41 15 23 -74 -69 -21 -22 -38 -52 19
-34 35 9 38 1 -3 10 -106 -69 -59 -13 33 29 -41 -12 4 -40 5 14 19 -20 -2 10 29 46 -1 20 48 29 0 -44 10 -19 29 0 34 -23 -94 10 -13 -7 12 -9 36 42 -36 5 -6 8 28 -1 -27 -4 -17 3 -27 -41 -26 -47 -9 -44 -26 36 8
36 -42 61 8 -32 -9 -32 10 -20 53 65 -37 -17 -15 23 -8 21 -34 78 -17 14 4 -26 -49 5 -7 32 30 15 24 -16 10 15 -18 7 7 -29 49 -90 39 -31 -38 16 57 62 52 -16 43 -21 34 57 38 -73 28 -27 -22 64 -32 38 67 15 65 -50 -22
-19 3 -33 12 -33 2 -26 -16 8 -8 -86 98 18 -2 60 -76 -15 -9 23 -1 -50 -9 -56 34 28 -23 -20 -9 52 3 -5 -38 -36 68 -34 21 34 -79 -42 -13 56 29 19 -3 -1 -32 91 53 17 -110 -45 -74 58 -45 77 43 32 35 -49 1 16 -81 38 15
-46 28 -25 54 -31 -44 -39 -58 -6 -28 -57 -41 57 -9 -17 -14 4 -58 -44 35 11 -29 27 -27 34 -21 -73 17 11 4 -14 -4 -9 70 -3 87 16 18 -78 -16 27 55 9 -29 48 -79 -26 29 70 -49 -71 23 43 -13 -62 40 -41 6 25 -19 -6 -25 47 -23
1 -28 -25 -8 8 -20 2 61 -25 58 6 13 -52 -70 -21 -62 -43 -34 -74 -25 49 27 -17 -40 -24 16 16 1 -32 -14 -23 -11 -4 -27 -4 -40 -13 59 -19 -27 -19 1 -2 6 -40 -3 24 5 -19 23 31 65 -1 -6 -19 -44 -22 -31 -18 8 64 -5 -43 -30
11 -33 -35 70 11 -46 43 21 -41 11 -12 32 7 -12 65 -31 14 -27 6 34 -43 -1 28 3 49 -63 -72 -25 -13 11 -20 -40 59 78 -63 44 41 -58 -50 -8 -6 10 -30 5 -38 -37 -11 29 -10 -43 -18 18 20 -57 23 -4 -28 -41 71 -69 -22 15 -52 41
30 -38 3 53 81 7 96 36 -40 82 77 29 15 19 37 -55 7 -58 4 61 -43 41 -36 -17 29 -64 30 -52 -19 -26 -15 -59 31 22 -35 -36 -6 -22 -33 20 -28 20 12 30 -12 44 -3 -30 -49 42 -2 -16 -24 18 27 -31 48 -38 -5 -21 40 57 -40 25
12 37 16 44 -3 44 -36 -32 9 45 97 -12 -8 -58 -48 10 -24 -27 0 -20 -22 -2 -45 -51 -29 -32 52 44 4 -28 -24 36 -68 -65 66 -11 -9 -17 -16 -46 25 49 -24 11 48 45 -20 11 6 -26 37 -8 4 34 19 -12 42 -38 -74 55 34 32 -3 -13
54 -19 4 1 8 -36 -1 -4 -59 -2 -34 -2 7 9 73 1 47 0 -49 12 10 -71 28 14 52 17 13 64 39 42 -14 -49 54 -2 -5 53 -26 -56 24 -11 -5 75 -18 81 33 -49 29 -5 -11 -39 -17 -47 15 -36 -30 -58 8 50 51 23 52 -30 34 24
-8 -46 19 44 0 18 73 6 7 36 83 -33 52 -35 41 17 40 -58 49 -14 -7 56 -30 -57 -40 -62 109 -44 39 -27 -1 -7 -1 -23 -42 -1 22 -52 -27 25 13 10 39 7 2 13 -18 -40 -65 51 46 -28 -6 39 -21 27 -18 63 -77 6 -46 -3 18 41
-19 -18 -48 -10 33 18 -51 18 21 39 -50 25 -33 20 7 -43 -32 71 11 -5 -32 -31 18 41 30 64 -17 -20 -12 -53 71 65 -49 40 -36 9 43 -59 36 -58 -45 -100 -5 -86 -3 15 41 -35 -34 -7 4 -18 -4 15 70 2 61 -12 -13 2 -26 22 -4 -11
-11 27 -30 -6 8 35 45 -124 18 12 30 59 72 -13 5 68 31 -98 40 22 -66 -23 9 -25 -16 24 12 -14 -14 -25 -6 11 48 -8 31 27 -57 -66 21 -14 83 23 4 -15 50 -20 42 41 -29 -10 -41 6 -16 -34 53 -47 -57 21 -26 3 -12 -7 -3 10