-63 -65 -9 -40 -16 -57 -15 -8 -23 20 -2 25 6 -12 1 13 -2 -20 2 -10 1 31 1 24 -27 -26 -54 16 29 57 2 17 38 -36 2 4 0 -80 -24 -58 36 -12 31 15 -57 25 4 -19 20 25 -15 -17 45 -80 -16 38 -23 14 31 -19 -23 -22 -18 -27
3 -1 41 -34 -22 -18 38 5 -53 -33 0 -47 24 80 23 63 25 72 42 -68 -56 4 53 -10 19 -25 1 10 -17 49 -49 28 11 -45 -15 19 -65 -47 -3 44 82 45 -20 13 4 42 -22 69 15 -62 28 25 2 -56 -48 -20 -29 -22 -14 -32 -2 -4 63 38
-13 25 -53 -14 20 -12 -43 25 37 -22 -6 -15 17 36 -6 20 -32 -30 42 10 -41 -51 -31 10 -72 60 4 -47 -47 -12 33 -30 6 -60 -16 31 14 -42 20 -5 2 -48 -1 -61 6 15 55 -15 -11 -45 -13 70 -2 30 10 5 -45 -42 -19 16 -1 51 -17 22
35 -34 88 3 -34 -19 7 63 -45 -21 -23 -9 18 26 30 47 47 23 45 -68 -18 50 45 -28 -16 -69 27 30 49 18 -74 49 11 -10 2 27 -7 -15 10 -27 44 15 26 11 -16 -10 28 58 52 16 18 -10 -12 -15 12 3 -58 -23 -49 -21 -37 -52 62 56
-11 5 -11 8 4 31 -14 21 14 -3 26 -18 52 -11 36 26 42 46 -27 -45 -2 -10 -25 -46 28 -28 24 -16 7 -27 -50 -21 -1 -24 3 -14 -21 30 56 23 -55 28 46 -16 0 45 -13 31 14 18 19 26 29 6 -55 -31 -4 -56 -22 50 -24 13 -28 21
2 20 -10 42 -39 27 -19 3 33 62 -45 -98 -28 2 -43 -71 -83 3 -40 16 31 18 -25 90 35 35 -2 -98 -59 -23 56 -15 -60 52 36 5 17 26 33 41 -39 -16 -31 -5 11 -4 7 39 11 -14 36 -50 -31 15 11 -10 -11 -30 47 38 93 43 -67 -49
-43 -41 19 -33 -9 -17 48 33 -55 -11 -29 45 -5 38 -13 37 4 24 26 -33 41 -10 23 -4 -13 21 -40 61 -1 13 2 10 51 -25 11 -27 27 26 -50 32 65 33 49 10 -15 19 -15 -33 0 -42 -34 -13 1 -24 -10 -8 -10 -37 -22 -43 21 -40 16 6
20 -6 -58 -26 15 89 -38 -7 16 26 9 19 3 -81 19 -51 7 -12 -77 28 36 -56 -10 -33 -55 8 7 50 -59 -43 15 10 49 31 -28 -15 65 -33 -17 18 -60 -6 83 41 -40 -16 -39 -10 -88 39 -1 2 -8 54 5 -48 63 -31 46 43 -6 -2 -4 11
41 -3 25 -27 1 16 25 25 0 -33 29 20 17 31 21 31 -39 32 2 27 -47 -1 25 46 -28 -40 31 -46 -10 -9 22 -40 40 15 18 7 -2 24 36 12 -21 -33 -15 5 18 73 22 33 10 66 22 -4 -33 40 4 11 -11 -17 -26 -22 14 -16 -35 -35
1 24 -61 71 1 -20 8 -53 -7 70 -23 -10 -21 -67 26 -34 23 -22 4 15 15 33 -26 10 -23 48 -15 18 8 -14 6 -47 -1 42 38 -31 48 9 2 23 -22 18 -36 -2 26 -38 -25 -52 42 43 -9 -2 22 24 -8 15 32 52 -26 40 -1 31 -33 -9
-18 9 14 5 0 17 23 17 47 18 -17 -43 -58 14 -25 -17 -51 -21 34 10 -19 11 25 68 48 9 25 -39 6 10 47 -23 -67 54 28 -1 -34 90 43 16 -13 -22 -59 -24 -3 22 44 29 57 -24 56 -13 -26 15 -17 19 -8 -3 -22 -6 53 42 -52 42
17 -35 5 -52 46 -2 7 -6 -10 -2 26 35 26 39 35 47 52 14 -1 20 -18 -30 -3 -19 -35 -46 23 55 -36 10 -42 -35 18 -74 -25 4 14 -22 -67 -10 -6 -2 51 16 -14 52 -26 -43 -52 -6 -48 -49 -5 -24 -23 5 20 -11 -39 -35 -10 -30 -2 -11
-38 -45 63 -52 -2 18 16 -1 -15 -79 29 20 27 0 52 50 49 0 -9 -60 -35 29 38 -65 -10 -71 7 -7 5 -1 -26 32 48 -44 -28 -14 -33 -15 24 19 -4 21 34 49 17 19 17 60 -30 -14 0 13 36 21 -43 34 16 21 10 -50 -69 -71 69 44
8 -52 11 -24 10 -37 48 37 -34 -10 43 24 27 -5 55 1 -5 -23 14 -50 3 20 0 2 -28 -34 -10 29 -16 1 -20 -4 78 -16 -2 41 -28 -64 -44 -45 17 23 -2 33 46 -6 -25 35 -34 27 4 27 30 14 -17 9 -12 -1 23 6 -24 -35 2 -38
35 37 -57 54 22 4 -22 -25 50 93 -55 -4 -36 -74 -73 -65 -29 -8 -40 30 43 -18 -16 9 -9 35 -64 -16 -60 -24 27 -34 -77 39 5 -71 25 35 -9 2 -44 -4 -7 10 -41 20 -19 -60 -16 26 21 -9 15 7 45 20 -8 -17 35 62 48 80 -57 -1
0 -6 21 10 -46 -28 7 -13 -54 51 31 -3 -11 53 -37 -13 -31 47 38 -69 0 -31 63 -12 73 -9 -7 -2 -4 65 -56 -14 9 -26 -2 32 -8 -33 -1 1 71 -15 -2 -14 -4 -29 -14 12 19 -22 7 24 -42 -31 7 -10 47 6 -44 -22 34 9 -16 61
-46 -25 -12 15 36 -55 -6 62 27 -33 37 10 -67 -27 -30 38 -70 11 -37 -13 -28 -43 48 -1 -7 -13 9 -34 16 27 -31 18 25 -27 -10 19 3 -29 10 -2 -21 32 -32 -15 -3 31 4 -67 49 -15 -13 36 -42 22 24 -48 37 -10 28 -20 -18 -35 -10 22
-13 5 31 23 -63 -3 86 -35 -42 -13 -14 -46 -4 61 -3 19 31 -38 -6 1 -37 -29 -31 -57 25 -74 31 -7 -38 -4 22 -5 58 -85 -20 -35 -16 29 -19 58 -16 53 57 64 8 32 -29 55 -54 11 7 29 17 -4 -6 4 -37 -27 20 27 21 9 -31 -13
-35 -13 6 21 -10 -17 -23 -12 43 20 -32 25 -36 33 -17 -32 15 28 -23 60 -28 10 -16 -4 -2 58 4 5 7 43 34 -39 13 -24 10 -11 42 5 -65 1 28 24 7 54 8 19 36 13 -47 6 -54 -13 11 -19 13 27 -31 30 27 20 28 11 -9 -14
32 11 14 -29 20 -57 6 39 25 -36 -20 -34 -20 31 56 -11 -9 6 -16 -2 -1 12 5 17 29 -28 19 -72 4 -22 35 -16 -8 18 28 -26 -1 16 25 54 36 -50 -82 -21 -6 1 -1 -46 66 -14 15 11 -14 5 17 -3 8 -34 7 27 26 19 47 -5
-54 27 8 21 -4 26 73 -40 7 -31 -12 -24 56 2 -27 45 56 -28 28 23 -32 54 -19 -26 42 -17 22 24 -43 -3 -31 0 26 -43 5 -29 49 10 -43 0 24 48 12 14 -2 -32 -1 69 -59 -49 -65 42 -20 -11 33 -5 -36 34 -11 -16 29 16 -11 -40
7 16 18 -31 -31 42 0 15 7 4 7 55 -3 54 -54 24 45 -10 35 29 -27 -33 -36 -26 -20 -8 31 32 -18 -8 15 -32 -19 -7 48 -9 35 -61 1 -60 -3 4 33 9 25 -45 18 -28 -57 -22 -26 -3 27 -24 -41 36 15 20 -23 -33 9 4 15 -30
14 38 -10 24 -16 31 21 -30 -5 17 -26 -24 14 85 -28 -44 28 0 26 -17 19 -3 -59 -32 20 -68 9 38 -22 0 -25 -56 -55 -52 34 -13 19 -22 -14 22 31 1 -15 71 9 14 25 33 -54 -3 -17 -30 -19 -57 8 21 -16 -6 -39 -32 -26 -32 -8 33
57 2 -21 -5 45 7 -55 20 -19 24 -35 28 21 -26 44 9 -23 -40 43 -7 15 3 -1 52 -64 51 28 -41 -32 -34 40 45 19 82 23 15 -31 28 58 2 31 -64 -50 -37 -45 17 -1 -29 14 3 21 -86 -22 13 -11 4 14 32 -12 -2 26 -40 -3 29
18 14 -31 48 -1 8 -7 38 1 -19 -8 8 -11 -7 25 -12 -5 -33 3 36 -49 -32 32 -20 -1 5 -16 0 -12 24 6 10 45 -6 23 -11 19 8 -12 -1 -35 10 38 27 52 1 21 -25 2 -28 -59 -17 33 -12 -10 10 48 -21 -2 17 -24 32 -12 -28
2 22 23 10 -9 -1 6 -16 5 1 3 -35 21 68 -15 26 19 -6 -3 -14 -20 44 -32 -39 14 -48 43 -24 -11 30 -38 3 -8 11 29 47 24 14 25 53 16 -28 -53 24 3 18 34 68 -58 -20 -16 37 -13 -7 -40 -46 -28 -25 -29 -45 -3 -59 -4 2
-10 2 -28 5 20 1 -74 30 34 71 35 33 -50 -14 -4 13 -47 -14 31 16 35 -44 30 44 -52 77 -4 -15 29 7 43 -2 13 61 -14 -19 -5 32 52 -25 41 8 -43 -33 5 -47 17 -44 44 27 -20 -52 13 6 -2 -21 18 25 -12 -12 -25 -21 24 39
45 26 35 -20 39 12 -22 32 -30 53 65 24 34 -19 -10 13 -10 16 -15 -33 -14 2 86 -5 -17 -8 -30 -8 8 4 6 9 -40 -2 -14 -4 -25 -5 21 -12 0 23 -31 -20 3 -52 -26 -59 54 -15 15 6 -23 54 15 -33 28 3 9 -8 -22 -19 -7 3
15 -6 56 -28 -10 -49 10 12 19 -18 -13 -24 58 -2 29 55 50 31 23 -29 -34 -1 1 -21 29 -24 -6 -32 40 -11 -1 63 -3 -20 31 35 -37 19 -15 -1 -2 -15 -40 -40 20 30 -25 25 19 -58 -37 4 -41 22 32 7 -13 -51 -42 -16 -10 -32 12 -18
-17 -82 -26 -66 21 0 -20 20 41 36 3 51 -23 -29 52 -46 11 5 -48 33 -29 -3 -18 61 -56 73 -39 -43 -11 -31 90 -51 -44 45 45 -1 -12 34 59 -47 3 -50 -10 7 -44 31 -38 -46 60 29 14 -4 -20 -22 -6 50 10 30 -12 18 -19 9 7 -62
50 -37 28 37 32 1 -54 18 3 65 -13 38 -10 -35 1 20 -7 15 28 54 18 -40 31 7 -37 71 2 1 31 -21 50 11 -31 20 50 57 -31 4 28 -22 0 -13 -6 -18 -36 -60 0 -95 -1 26 60 -52 -23 37 -55 -4 5 2 1 24 0 4 21 2
34 -5 7 -33 31 21 -21 -35 43 -14 16 5 15 -32 42 -34 3 -53 25 3 20 -12 2 46 -58 47 -40 -42 46 7 -9 40 -16 12 46 17 -23 15 -32 17 -44 -34 50 -45 1 22 3 -19 47 19 38 -19 -6 2 11 16 26 -8 -11 0 15 51 -15 -7
20 -39 -34 -7 0 15 11 74 -22 27 -6 53 -37 -20 -2 27 20 30 13 -33 -16 9 37 -25 9 -17 5 14 1 0 -39 3 8 23 30 18 -64 -54 24 -39 -37 17 -21 -32 95 0 15 19 3 26 9 -21 -35 56 48 -60 49 16 -1 -2 -14 -20 53 -12
50 40 68 32 39 41 7 85 2 -48 55 -43 -34 -14 -27 -50 11 50 41 -31 12 43 66 -39 39 -5 28 65 0 42 -55 31 -7 -5 19 16 -98 -33 25 51 16 15 45 -5 35 20 -21 -16 21 -15 31 -3 -10 26 -19 -36 78 26 -11 0 -32 -16 25 -42
32 -11 -2 44 -50 -60 4 -37 24 45 -17 33 14 -19 21 5 -8 -23 7 -47 27 -56 -9 -39 -27 10 -21 -33 -6 -1 -16 -29 -39 -42 25 -16 16 42 -30 31 48 83 -29 -18 -30 8 34 49 -36 9 -5 24 -21 -25 40 -28 -66 24 13 34 44 8 26 21
16 10 63 0 -10 -46 1 40 -10 -19 -16 48 30 -18 -55 -22 20 45 40 18 -38 12 16 -5 23 27 18 13 32 -1 -38 50 19 58 -30 -8 -65 -30 -1 -17 14 -1 22 -21 43 15 -29 31 40 13 -30 17 -6 13 -40 -10 58 -27 -1 9 -10 4 6 62
-1 3 28 5 7 58 -4 41 29 -41 64 -25 -44 27 45 11 55 13 24 -10 8 -1 54 -11 29 -84 10 13 -7 19 -7 38 -17 -19 8 25 -74 -13 -24 7 -1 23 2 -52 80 -41 3 29 -19 14 -42 10 14 -23 27 9 43 -4 -37 -47 -48 2 40 -31
18 13 20 11 15 9 -1 56 -2 43 80 -23 30 -41 18 -16 -24 3 25 -51 -25 45 -5 -11 11 -10 -26 31 -53 8 -6 12 15 -21 46 23 -63 6 -1 -25 8 -35 -33 16 -3 -43 6 11 48 -8 24 34 -7 -4 3 -48 -6 42 19 -31 3 32 57 16
10 -6 11 -19 3 -17 22 -17 -9 -6 -43 -18 14 19 7 45 50 -31 8 34 -7 -23 -26 -30 25 -13 -9 -66 35 -47 24 -8 26 -5 -71 32 21 25 -38 -8 -6 22 28 1 12 51 -55 25 -7 4 -1 -31 24 0 32 7 -49 6 48 42 34 -14 -35 -25
12 -2 -3 4 5 -57 -11 -70 -25 -9 -46 50 19 1 26 21 8 -31 -12 46 -49 25 -26 7 -46 -27 9 -71 -2 -43 31 -2 -26 25 -8 -22 80 20 -4 7 -7 49 6 -17 -56 24 25 22 -38 -47 16 -8 -17 -9 -8 46 -31 8 22 4 15 3 -59 -1
12 -11 -50 10 1 -26 35 -52 36 -35 -62 -22 22 -2 21 7 38 -20 -63 12 -26 17 -7 7 28 -11 12 -16 -10 2 -15 10 31 -15 -21 -22 15 -20 23 10 20 -20 40 65 62 18 3 4 -27 -2 -2 -27 -17 -12 73 23 -33 47 -33 -47 3 17 -53 -51
61 16 -1 5 -3 50 19 -3 46 -13 48 -40 -73 50 -8 34 18 48 62 11 4 -27 -2 15 -35 -4 10 30 -56 14 -44 -16 18 -87 16 8 -60 -1 68 -60 36 28 25 28 74 21 -25 -13 -37 -9 0 -28 -7 47 22 -13 53 -54 -29 64 -17 -25 -10 13
19 28 42 -32 -42 60 7 25 8 12 42 10 3 9 10 -3 -4 5 55 -18 -23 18 45 2 17 -56 43 46 -20 -13 -51 28 -24 -62 12 -38 -68 -48 42 -32 -36 -26 14 -9 109 -45 51 15 -42 -12 13 44 -26 -18 -29 26 106 -42 6 6 -59 -24 77 22
12 54 20 7 -66 -49 -17 1 -39 1 -9 48 26 -3 2 25 -45 11 21 13 -8 -60 -1 -30 -15 31 20 -15 35 14 -24 -7 6 -20 -5 9 -4 8 3 0 -19 60 -42 -12 -88 27 -15 25 5 24 32 23 27 19 5 4 -41 -32 -14 -26 15 -27 -19 17
9 -1 34 17 -3 36 -55 28 -21 -2 59 20 -2 34 -37 8 -19 12 33 -1 22 8 72 21 -41 -2 49 38 -17 12 -18 -19 23 34 65 -15 -43 28 22 -58 -38 -49 35 -4 78 -59 -29 -23 3 3 7 18 -20 36 27 2 58 21 -6 -35 -23 -35 28 33
22 -47 -52 3 21 27 -7 23 -10 4 48 -39 -4 -25 -7 12 40 -38 9 -85 -23 18 89 40 -75 12 -55 20 2 -29 13 28 1 61 -44 -45 0 -20 77 -42 -34 -50 22 23 59 -22 -9 -27 35 27 -26 -37 42 4 9 1 57 25 37 -9 -35 0 -19 -15
12 10 25 23 -32 39 -13 21 25 61 17 17 -25 -37 17 -7 -28 36 -25 -32 17 -19 -47 16 -30 19 14 62 21 -8 -30 8 -44 -88 19 -21 11 19 24 -5 -25 10 15 3 -63 -44 17 10 23 -8 35 -22 -37 4 -36 1 54 -14 19 30 21 -6 -20 10
33 32 16 -66 16 32 -7 17 -2 39 45 8 8 -3 -13 27 -31 64 31 45 -11 -2 27 38 0 7 25 0 -27 18 8 -10 -7 4 62 -13 -21 23 -19 -4 -13 41 -2 -58 2 4 -14 20 -7 -19 7 14 -32 45 34 -33 60 24 29 -32 -19 -57 55 31
-53 -7 3 -31 -10 -36 49 -56 -42 -38 39 -40 22 25 5 22 62 -19 19 -78 4 -25 0 -88 35 -61 41 -11 -19 -15 -46 11 38 -58 -22 -21 -26 18 -28 13 18 30 66 -23 23 57 -34 -15 -12 -32 -58 70 27 -23 0 27 1 62 -15 -14 -62 -1 17 22
10 35 -25 -63 -38 50 -10 -39 3 3 0 35 25 -34 -16 1 12 -11 6 25 -30 14 14 -35 10 -10 -12 36 32 13 40 -4 -1 19 -37 39 8 -6 -5 -8 -13 21 21 -17 26 -21 11 0 -10 -19 28 -42 0 -14 -5 12 -28 -34 -31 -45 12 29 -47 8
-28 35 -28 17 20 5 15 40 21 -5 16 -24 23 2 -17 25 -13 20 35 -42 23 24 -11 1 -8 -10 -18 -80 21 -7 -32 8 16 9 18 -19 -6 46 -6 -29 -36 -38 42 17 7 63 -12 -8 0 -11 -12 -8 -82 -18 -1 32 4 -15 12 13 22 -23 -28 21
13 -2 46 -32 -7 -4 31 -70 -15 -22 -27 3 43 15 26 -50 12 14 22 -12 -44 64 -14 -50 68 -22 23 -45 -14 5 5 -30 -14 -10 -21 3 -39 54 24 -8 -28 44 1 4 3 37 40 52 11 13 -61 46 26 -57 8 -31 24 14 16 11 1 3 29 -25
17 -12 -2 -15 -25 47 -21 -58 8 -2 -23 19 16 16 19 5 8 -57 -31 51 -1 -40 26 -34 -32 22 -36 12 -20 -4 25 -37 33 5 2 -36 51 30 -22 -69 -31 -36 12 12 -39 -7 -27 6 -3 -16 4 -1 -31 -10 -67 -2 9 -20 -8 1 21 17 -43 8
2 20 -11 -31 -28 48 50 -38 -45 -4 38 -49 -20 67 -7 35 10 39 -39 21 -26 14 -28 -39 30 -41 2 29 5 -17 -2 -5 58 2 -56 -33 -13 -50 16 21 -8 -24 -15 -41 36 55 6 14 5 0 -29 -27 -23 -34 -38 30 13 37 29 11 -32 -19 27 -14
-2 52 46 -32 -14 20 50 2 -42 -37 11 -26 24 38 30 22 16 69 -11 -37 -43 -3 1 -34 -16 -42 17 24 -55 11 -41 53 45 -39 -46 -19 -13 -18 -23 9 -16 35 32 -24 13 64 55 29 19 -34 15 -21 -32 -40 -14 -43 40 12 15 -39 -53 -47 -7 54
31 -36 -35 31 21 -26 -81 -46 49 22 -39 44 -14 -45 -43 -1 -21 -76 -13 74 71 21 -10 79 5 39 -33 -5 46 -26 36 -60 -21 23 50 52 18 40 19 -54 -6 -16 -27 51 -56 -70 12 -17 36 26 6 -40 0 -1 -48 53 -38 -23 10 12 41 -2 -44 -51
36 -36 50 12 11 -6 -44 2 12 8 15 50 -54 -26 4 0 -32 36 8 6 -2 -25 46 64 -29 52 -9 -13 51 68 -3 47 8 -13 38 19 -22 -18 -29 -55 60 37 34 28 -64 -45 18 -11 52 -11 66 0 31 22 -58 -9 -38 16 -26 -19 -4 -6 -30 36
67 -37 -11 21 12 55 -35 81 -20 60 -8 10 34 -31 -2 4 -44 -32 2 -22 28 -65 6 39 -23 -20 10 -20 -1 -74 -13 -3 26 -3 4 10 2 26 31 63 -43 -12 -48 -29 1 -16 -1 -71 29 -5 28 18 -57 53 -29 -48 7 -18 -5 59 -17 21 34 -47
5 5 25 8 17 -27 28 -25 -20 -24 7 -2 -39 15 -39 16 22 -3 3 -47 -22 18 -21 35 1 -10 -29 -5 37 -20 -43 17 -22 -17 -35 -40 -12 -6 -28 12 22 -3 12 -30 -20 12 -42 12 -13 4 17 -8 9 26 14 7 -11 20 -41 22 -27 6 41 -27
26 -9 56 -12 7 37 92 -45 17 2 48 -49 17 62 71 23 36 29 15 -19 -56 -17 18 -100 18 -57 3 -39 -54 -52 -46 21 23 -49 -51 -38 22 45 32 12 -5 17 41 -13 19 0 27 41 5 4 -38 16 -41 11 -4 10 -15 29 25 31 -21 10 3 5
20 -44 -33 9 15 35 -24 32 -1 -32 -16 36 -8 -17 23 13 22 -12 23 31 28 -53 41 -29 -4 27 20 37 48 31 -40 -24 -33 -1 39 -15 1 -9 -8 -44 -31 2 11 -21 -29 -40 -40 -1 -45 53 4 32 70 43 -24 19 7 35 5 -22 -21 -4 -14 24
-61 27 26 -30 -1 -36 45 33 -17 -33 24 -25 19 70 -41 29 16 -15 -38 -28 15 11 1 -73 28 -36 -9 39 -59 15 -22 25 55 11 11 -34 -30 -19 33 16 3 -20 -16 14 23 39 -17 33 21 18 -14 23 -22 -42 -35 0 -27 8 -4 3 -20 -10 -27 39
35 -59 -45 14 17 73 -33 -25 46 20 -62 -10 44 4 -35 -26 39 9 -48 35 8 -28 -1 3 -2 -44 -29 -34 -18 -72 28 -11 25 -16 -3 -55 27 -25 13 -16 -47 7 -17 2 7 47 32 -21 -36 -12 -52 32 -65 -26 21 19 10 -9 51 67 15 70 -63 -15
-73 -12 -23 -56 1 -14 9 -31 -22 20 -91 -3 22 57 -3 25 12 -38 4 57 -2 56 -39 7 -15 34 -40 17 66 93 3 -50 -50 53 -40 -13 40 23 -39 -41 35 29 -21 86 -11 -12 -49 69 10 8 -18 -68 16 -45 -65 13 -41 -7 33 -43 13 -25 -38 -22