40 -21 12 22 -24 46 6 39 23 -5 1 11 -25 9 2 42 16 29 25 -16 28 -11 -54 -71 22 25 51 43 -46 28 44 15 -36 2 34 31 5 35 -60 22 -24 22 -13 59 3 62 25 -19 -51 13 32 -11 2 -37 -21 3 -15 11 -19 51 20 23 -12 -16 49 29 -25 1 -46 -46 -70 25 -15 -11 24 -48 -28 2 6 23 -29 4 42 13 8 50 -11 46 -4 6 17 -14 18 41 -60 40 3 -4 65 7 22 7 -2 17 5 24 -17 65 -83 -28 6 31 53 -14 -81 32 52 -7 -32 43 -32 47 11 -41 8 19 -18 -31
-26 -19 -5 63 -58 -13 75 -19 4 -5 47 29 15 40 5 56 -1 -22 0 23 24 -12 20 39 20 -5 55 3 44 -43 62 -39 -5 26 6 18 42 11 51 32 -56 10 -5 -1 -44 17 6 7 -4 -46 70 35 -2 28 38 5 -21 -16 40 21 2 -7 22 25 -10 8 53 2 56 -24 0 48 -14 56 20 -1 -18 -10 13 42 -24 -32 -33 55 -17 1 23 52 46 -13 -8 -23 6 53 34 12 -36 61 59 18 42 -34 15 -36 77 48 -7 25 25 7 12 -3 18 59 35 -7 -15 -24 -29 -3 22 44 3 60 45 63 49 -16
39 -22 35 15 -12 -50 -6 -20 -26 54 -63 -22 23 -30 -55 5 41 -17 17 -5 -24 33 -90 -47 -1 -7 -13 38 -40 -5 -19 16 20 -5 8 28 14 -16 -9 -51 -16 53 18 8 -11 19 29 -16 -20 17 -13 -9 -34 37 -2 -18 3 29 -20 -87 -44 34 17 15 -4 53 -34 5 -12 31 -33 -34 39 16 7 -2 8 -17 -38 -40 37 -18 -6 -42 16 54 -20 -1 -33 3 -30 -30 48 -7 38 8 12 -32 14 79 12 -8 -26 -48 21 -51 -19 -6 -32 37 31 10 5 -21 -16 -20 15 -19 3 26 -5 0 9 51 58 -9 -30 -2
-27 -20 -22 -3 42 -7 88 4 5 -27 -25 33 -67 -13 31 15 -19 27 -5 24 -1 5 1 15 -43 -32 -11 -54 -43 -4 -15 -35 -49 8 -53 23 -9 -13 7 -37 -3 -13 -5 -44 -22 -67 32 11 2 7 -32 -5 -21 -8 -5 -3 -29 3 -53 -24 1 8 -6 -26 -21 -14 -59 -1 -34 6 41 12 29 -3 -19 29 -13 13 -49 -96 -29 -11 -8 18 4 -4 -53 -30 -43 6 -60 -30 14 -1 -5 -4 -20 1 -25 16 30 26 -60 35 16 35 46 -32 -12 9 -7 6 13 -29 2 -11 26 -26 47 -42 39 -30 0 -4 35 29 -27 -45
-1 8 -21 -11 -13 -21 -30 -21 -32 -14 -1 -33 1 -3 -7 -7 -22 -23 -18 -3 -34 -23 -26 0 1 1 -5 -19 4 -31 -19 -16 2 -6 -32 5 -2 -13 -15 -16 -14 -20 -6 10 -21 -24 2 5 -2 -10 6 3 4 -21 -4 -30 -35 -11 -20 -15 -9 -21 -20 7 -19 -14 -9 -18 -15 -6 -14 2 -31 -18 -26 -29 -27 -5 9 -15 3 18 3 -30 -5 -18 12 1 -29 -10 -25 -11 6 6 -1 -25 2 0 15 5 4 -1 -9 -2 12 8 5 1 -31 7 2 4 8 -40 -33 -13 -13 -4 -8 -7 2 -16 -9 -12 -34 7 6 -14
-34 33 -43 23 -40 12 3 18 18 -50 16 0 -35 16 -2 30 -17 -43 -7 1 -36 8 -17 30 -82 -70 19 -24 34 -45 -35 32 -16 -105 -24 -7 5 17 -12 21 -3 -1 -82 -48 2 -41 18 23 10 -73 -36 34 19 11 -44 21 -36 -4 -16 -13 -21 -26 -46 -10 1 11 27 -75 17 -27 -11 36 -41 16 28 -27 -37 -6 -5 -60 -74 -23 -39 14 14 -64 -78 -39 -49 -41 21 -31 -19 -41 44 -8 10 20 18 4 42 -57 -48 -30 0 -1 -93 -36 10 42 -5 -44 8 -39 31 45 -34 -2 -13 4 13 46 13 20 37 32 34 -25
-31 9 -7 -27 -1 -2 -26 -1 45 1 -18 16 20 0 -6 -5 18 26 -1 -33 31 -39 -81 17 -45 8 -5 -8 -21 45 56 1 13 -27 38 -21 -56 6 -35 17 0 -9 17 -31 -27 34 -30 9 -9 -3 -8 -11 -19 -6 -8 -43 13 -12 -48 -3 18 -21 43 -40 -57 -4 4 0 -18 -3 -3 -57 -7 -50 -9 7 18 -18 -19 -44 -19 12 -3 -33 5 -23 20 -15 26 16 -15 -3 -39 -38 -21 -56 -12 -20 2 18 -34 2 -19 -13 -11 -3 13 7 0 -46 -55 -26 -16 -8 25 -13 5 8 -36 1 -23 -5 -68 17 -48 -28 -30 20
-24 12 -22 7 -13 -17 10 -26 -20 -21 -4 -35 -37 9 -18 9 -26 -5 -25 -31 -1 13 2 -1 -5 -2 -23 -6 -23 9 -5 -7 1 -26 -8 -9 -48 -7 -3 -10 6 9 -20 7 -5 13 -11 -7 2 -23 11 3 -15 -5 3 1 -31 7 -14 -15 1 -1 1 -23 7 5 12 -3 -8 1 -15 -20 -16 -21 -23 -25 -14 -8 -7 7 12 10 -25 0 -42 -21 -19 -16 -9 -17 -4 -19 -21 -21 6 -13 -7 -22 -9 7 -11 -3 -9 -1 -34 4 -26 -30 -4 -5 -14 -29 0 -24 -23 -13 -1 -12 -19 -34 -4 -9 -12 13 -13 -13 -41 -7
-10 24 -16 -11 -35 -25 -61 -27 13 -30 -37 -16 -21 1 11 4 6 -26 44 2 -46 6 -47 -18 -13 -6 -16 -52 45 33 -18 -36 -37 -7 -52 -20 -4 -10 -38 -12 -4 -4 -33 -17 -32 -2 -6 -34 8 0 -33 -5 -42 -15 -21 2 -6 -18 -32 -4 -20 -38 -33 -33 -28 -31 -49 -17 2 -41 -35 -58 -17 -26 -9 -33 -19 -33 -8 17 -29 -44 -22 -9 0 -30 5 -7 31 -29 -41 -49 -28 -16 -8 -12 32 29 -1 -16 -3 0 7 -14 -7 -48 -16 -5 6 11 -16 -24 -18 -27 -25 14 -24 -44 -12 -24 -15 20 -19 -29 -4 -50 -26 -18
-12 8 19 -34 15 12 -36 -7 -14 -56 11 16 8 -65 -39 -16 33 -11 55 -22 -20 4 -4 -1 46 -8 3 40 42 -96 8 -26 -51 -32 -65 25 38 -29 -58 -12 -4 -15 14 -36 -35 -18 31 -19 -63 19 -19 -35 23 -76 -2 71 18 20 40 1 -9 27 -22 29 8 -16 -48 -4 11 50 -118 9 -32 -32 -9 12 25 11 -13 22 -33 -51 37 -82 3 -7 -78 -5 31 -69 9 22 -21 49 -10 33 -3 -14 17 -69 -18 18 17 9 9 -100 62 53 -63 -56 -13 21 65 1 -75 -21 -25 -25 -1 20 -24 -37 40 -3 24 19 -54 -46
3 7 -13 -2 -18 6 -17 -19 -5 -32 -15 8 -21 -2 -25 7 -14 -6 -1 -25 -8 8 -19 -3 -5 5 8 -6 8 -16 3 -4 -22 -22 -27 -14 -2 -12 -30 10 14 0 -11 -21 13 5 -12 -3 -16 -8 -30 9 6 -15 -12 -10 -14 -14 -10 -1 5 0 -10 -22 -22 -27 11 -37 -4 -16 -30 -33 -23 3 -19 -2 -5 0 9 -5 2 -14 -29 4 -33 -1 2 0 -5 -32 -6 -23 -6 -22 -13 8 -9 5 13 -33 12 -36 -1 -28 17 8 4 23 -8 6 -24 -19 6 2 -9 -8 -29 0 1 -5 -7 -3 -17 3 -16 -19 -15 -12
-26 -37 -40 -39 10 13 -1 -7 8 -45 -67 7 21 -3 -14 21 -12 -17 -49 -8 -25 -12 -17 -8 0 4 0 -63 -18 -15 -54 -18 11 21 -27 22 -28 -16 -5 -7 -14 26 -6 25 -13 11 2 -6 4 16 -7 -25 21 5 -49 4 -59 -8 -42 -30 15 12 -13 0 13 -61 -47 -20 -42 29 1 23 3 13 -20 -27 4 -14 -66 6 -19 -3 9 -41 -29 -4 -70 12 -10 -15 -8 -23 18 -47 8 -32 0 -43 -16 -17 -18 -25 -19 -3 -1 0 -12 -23 -14 22 -4 -31 21 -13 -27 -38 -19 -39 7 -20 -5 -31 -23 -4 -7 -23 -4 -35
31 8 25 5 27 5 0 -25 -9 23 -56 -17 40 -52 8 -3 22 -10 -30 31 -27 24 66 -20 4 -7 -36 -35 -41 60 5 -9 22 -29 -6 35 -18 -26 -17 -5 -21 26 29 -24 -35 11 2 -12 -49 4 29 -46 41 -28 -5 27 3 43 -53 -53 -2 55 20 8 -1 4 4 -3 -28 33 11 -3 44 -10 -22 1 31 66 -26 -18 30 37 22 27 -17 14 20 1 20 41 -23 20 -7 -2 -22 -10 21 -8 25 40 16 -14 38 -6 31 6 45 16 2 -47 -22 42 -47 -44 -34 7 23 13 31 9 -23 -35 -25 -18 -9 3 -76 34
-23 -28 18 -5 -24 -38 -9 -9 8 19 -7 23 -16 -32 -15 -11 -23 -20 -9 -21 -12 -21 23 -11 -18 -6 -28 -2 -19 -17 -13 -20 -19 -27 -13 1 -32 -2 -18 -32 3 -27 -24 -13 -23 -18 -27 -1 -17 -19 10 -40 -10 -15 -22 -9 -10 -14 -9 -7 -17 -37 -28 14 -28 -3 7 -43 -22 2 0 22 -32 -11 -2 22 -44 13 0 -9 4 24 4 3 -24 -10 -32 -7 -28 6 -10 -2 -22 11 -22 -11 8 -11 -27 -3 8 -12 -4 -35 -1 -1 -2 4 -7 -14 -12 12 -6 5 -19 -23 6 -23 -47 -12 -9 -2 -7 6 -10 1 -30 -18
-49 20 -106 -34 -25 16 -26 49 -17 35 5 13 -1 -21 -13 22 37 -41 18 -29 18 30 -20 -28 21 12 36 8 -45 -3 -42 31 42 -7 43 27 29 27 -35 19 3 20 -1 3 30 -33 41 -8 -18 18 -2 -12 -25 -20 33 48 45 45 -6 -16 11 -20 15 -2 22 -8 -17 6 -16 48 -31 1 -22 -30 10 -5 20 -5 40 -17 -30 -45 7 -3 11 22 -3 31 12 -18 33 -11 10 6 -18 -8 53 -76 33 -53 -28 22 9 19 -10 24 -16 32 -11 -20 27 -2 21 -9 -8 20 13 13 8 33 23 -33 43 13 -10 -40 4 58
-69 -9 -40 -47 -63 51 -9 -35 -40 -13 -21 14 26 -6 -49 24 45 84 -9 -43 52 -32 30 37 -29 -11 -61 -8 34 22 11 -36 -29 3 24 44 -7 3 22 -47 -46 26 -21 14 33 -49 31 8 15 -26 -5 -34 40 -1 6 -71 -21 -3 -11 13 -32 7 14 -12 38 -28 43 -19 47 31 10 52 -54 -4 -13 -51 -23 73 -23 41 -20 -23 -37 4 18 -11 5 17 -17 -23 28 -6 12 9 31 36 -17 -78 24 -4 -26 12 11 -21 -26 31 13 -45 -18 22 36 24 -60 -9 25 -4 45 -18 -39 30 -39 -67 30 4 43 24 42 15
-39 -22 -25 -29 32 -7 -19 9 -5 5 5 -18 17 -52 -15 5 27 13 25 31 35 45 27 12 18 31 27 25 18 -8 -27 44 -63 -1 55 32 -8 -27 0 10 18 54 -25 12 -22 33 -2 24 -52 51 -9 -52 -34 -15 0 -16 20 77 -18 -6 10 11 -17 65 49 10 15 16 11 13 -39 -18 -8 -40 6 -15 40 22 14 -33 5 6 14 -30 30 29 3 24 -65 -27 37 -20 29 25 -17 18 49 -20 32 5 -18 32 -4 -18 -13 -2 34 49 -8 4 10 41 48 -45 -31 22 38 0 18 -11 -53 41 43 -4 23 -38 -17 -33
-9 -34 -13 3 -4 -36 -18 -13 -19 -29 -8 -16 -19 -38 -10 4 16 -19 7 -33 20 -23 -6 -19 -11 3 2 -1 -22 -31 -13 -4 -19 -14 0 -10 -16 -21 7 -10 22 -9 -29 13 -7 -38 4 -2 -16 -19 1 -25 -20 17 -17 -18 16 -30 -1 -16 -37 -21 -49 -6 -6 -33 -39 -24 -45 -24 -17 -11 -15 7 17 -24 -17 -2 -19 -4 0 14 4 -44 -3 -46 -14 -27 -16 -17 -36 -9 -5 7 -16 -5 -5 -34 6 0 18 0 -23 -10 16 20 -12 -6 5 -15 -22 -26 -37 -29 -46 -1 23 10 -25 -40 -7 6 -3 -40 0 -21 -30 -8
-21 -68 -23 -32 6 1 -27 -20 5 13 -15 33 1 -41 -7 3 10 9 6 -40 21 -15 -39 -3 -48 -3 8 26 -5 -9 16 4 -78 -6 -2 12 -16 -57 -38 -15 -1 36 7 35 -30 54 7 -33 -18 18 27 -75 -1 -59 23 -3 -33 -33 4 -4 -11 27 -18 35 -5 -37 -15 0 6 5 -6 -23 -48 -15 -45 -43 -12 -40 26 -6 10 -1 30 -67 5 16 7 -3 6 -7 0 26 22 13 -1 -33 10 -14 0 -15 -4 -12 6 -67 -35 -33 1 12 1 -27 2 4 -3 30 -29 -30 -18 -19 9 -6 -17 -22 -32 10 14 8 -65 -10
10 -57 20 38 25 1 46 12 51 23 -64 -37 23 7 -17 18 -41 -26 -30 -26 -18 -12 -116 -121 -56 -58 2 13 -85 12 -9 -28 -18 -41 -77 -102 8 7 -112 30 46 7 -77 -9 -43 29 -49 -30 -46 29 -67 10 -58 -41 26 -49 -2 -66 15 -5 16 -46 -27 -48 -74 6 -73 -61 -59 -34 -5 -40 18 -52 -5 -31 -22 -23 -38 -56 45 -43 11 4 -28 -36 33 33 -55 32 -57 -40 43 6 -57 -56 46 45 -25 9 -49 5 -40 -34 15 5 19 -17 -30 -63 -60 -81 19 -88 -56 8 -43 19 20 -77 -19 41 -30 -71 -85 -11 -47 -14
30 -36 2 22 28 -3 0 16 4 27 12 35 63 -28 32 -23 -43 2 7 10 21 -45 37 21 -31 -14 28 -42 12 -47 14 -13 -70 -77 7 -44 -11 5 15 -13 33 11 1 36 -26 17 -14 -6 5 26 23 7 17 38 0 52 33 -20 -5 -51 27 -15 -61 17 4 32 34 -23 44 -7 27 47 36 -9 -20 56 33 -19 -38 5 -13 -19 2 41 7 -40 12 42 -53 22 -61 -31 -1 6 -5 -2 -28 8 -53 -14 28 -12 -42 17 8 -36 14 -7 -50 44 -1 -20 9 -58 3 -15 -28 61 4 -19 -6 13 -14 -9 18 22 -32 1
18 14 -74 -43 45 -16 -29 47 -4 -51 -35 19 -35 8 42 8 -53 -1 20 12 -23 4 6 -37 7 18 -26 24 -15 24 -55 9 -63 -1 -42 -42 -56 15 -9 0 44 -18 -29 -32 36 -50 5 35 -28 4 11 -15 -40 -16 -2 31 40 38 26 -33 20 -54 39 48 -23 1 -65 -47 -33 -47 -10 -27 15 3 -5 -17 -4 -4 42 -64 17 -15 -11 20 46 -4 -63 -9 -81 -12 -12 20 23 -17 -65 -2 -3 -52 -29 -24 10 6 -32 27 2 -3 -11 -58 -55 -31 -45 -3 -13 -41 -8 -45 18 20 14 -1 11 18 -40 -20 -4 -67 1 -8
-8 14 2 42 -22 -13 -13 29 -15 -33 22 34 -48 35 2 26 -23 -15 -14 -1 10 12 30 18 5 -20 9 -8 27 -39 7 -20 -22 16 -20 -30 2 4 60 13 -12 -25 26 -19 27 -22 5 -6 32 -56 -22 2 20 46 -33 -2 19 -34 53 49 -2 -4 -28 -45 14 37 39 -22 29 -64 23 6 -28 9 -6 51 -20 -23 -2 -15 -14 -39 -18 -41 -11 -15 -72 6 22 -27 18 16 0 -10 28 -5 -11 -12 7 26 -35 6 -5 -31 5 5 0 6 14 0 10 19 51 50 47 39 -9 -25 -78 -8 -7 28 -8 18 36 43 7 -3
24 19 0 47 -55 1 -6 -3 23 -45 -22 -4 -21 36 17 -5 -15 -7 37 -9 5 -32 -51 17 24 22 22 30 -5 19 10 2 -80 -47 -26 -22 -32 12 6 36 -26 -29 -30 -13 8 30 10 2 -31 -31 38 7 22 -4 24 -31 13 26 -46 -44 -47 25 -5 39 -1 31 20 1 33 -3 7 35 -16 -33 -32 -45 -46 17 12 -22 -9 -40 5 -1 -14 2 37 -22 -51 11 29 -15 7 10 -18 -9 28 -6 -1 3 -36 -14 -29 -8 -9 14 18 -19 1 -16 -2 41 25 -44 2 -30 17 -10 12 32 14 17 22 11 9 52 -17 8
-24 -72 -30 46 -67 -23 4 13 -33 3 -3 11 -10 14 -58 6 8 3 4 2 10 -7 -121 -110 35 53 39 9 -45 -5 -9 34 -36 -37 -7 20 5 12 -33 36 -16 3 35 23 -62 -1 58 -39 -81 17 -20 -85 23 -29 81 7 -14 2 -12 -22 -29 1 37 30 6 -40 -8 -1 -64 32 -52 -8 -31 -48 -42 -28 -1 -38 4 -6 -49 -22 43 -65 -20 62 -20 15 16 -48 15 -10 21 -27 -11 33 36 -1 38 -14 -1 16 40 21 -20 7 15 -2 -75 -60 -45 19 -1 39 -52 -26 3 -44 -31 -3 0 23 55 3 31 -6 -68 -13
42 17 58 5 24 -9 -10 23 -19 13 -9 39 58 -1 55 24 -14 6 2 45 0 -16 -21 34 -62 7 6 -36 -19 -16 28 -21 -42 13 -37 27 -25 5 -2 5 6 -1 -84 -28 24 4 -3 -8 -15 33 -34 -2 19 20 -1 43 41 -8 4 -74 47 -17 12 -62 -16 51 -22 -4 83 13 -28 50 12 -3 9 -67 47 -11 25 41 70 -16 -26 17 -66 3 36 12 11 10 -9 -1 -8 20 -36 -11 -20 -33 65 4 -26 -7 16 55 23 64 -15 -45 33 -31 19 -12 62 -30 -10 -51 -15 29 -14 -41 -4 -13 -26 -3 -22 -1 -41 -23
5 19 -25 8 22 22 11 -23 -50 11 -8 -30 -26 -1 4 -17 -21 -38 -13 -8 -49 51 27 20 24 -49 -15 24 34 15 -30 -7 -19 -65 -112 -20 -14 24 27 -11 67 -7 10 -29 47 -17 -22 37 1 -66 0 33 32 44 -38 -17 -57 -31 -55 15 -16 -32 -22 1 -20 -20 24 -55 34 12 44 -24 34 23 1 39 -50 -5 -17 -42 -40 -42 -44 -6 0 1 -42 -38 -11 -15 -10 13 -23 -32 9 2 -5 29 -24 -51 10 -41 -8 10 -36 -91 -18 -42 -56 39 -4 -23 -5 0 33 14 -31 -18 -25 -59 41 19 -42 39 13 63 24 -31
0 9 9 -38 -13 -31 14 9 -28 -24 -16 -35 19 -6 -40 2 -24 -16 3 -10 -34 0 -28 0 -77 -59 21 5 -2 -3 26 -55 -24 -50 -26 -14 -11 8 4 -21 -23 -10 -24 -31 -29 -11 7 1 7 -16 -21 19 -14 -25 -17 -54 0 15 37 -26 -47 -23 -10 -15 -35 -36 19 23 19 0 -8 -38 -18 8 8 -3 12 -19 -11 20 23 -14 8 5 -34 -43 -14 -23 -29 -21 1 -38 4 -1 10 -5 -11 -24 -7 6 -1 -27 -23 14 -14 21 13 8 -22 12 -2 -25 -27 -23 -17 -4 20 -6 24 -7 2 -36 -8 20 -9 -27 -2 -35
-11 -5 22 -33 5 -30 -18 -1 -23 -37 17 -3 -8 -26 -2 0 -16 -15 -4 -5 -7 -13 -29 1 8 -18 -5 -28 -8 -39 -20 -20 -7 -29 -43 -21 3 -17 -9 8 -10 -26 -4 10 -22 -14 -23 -21 -38 -37 -12 -4 3 19 -13 -2 11 11 -42 -21 8 -40 8 -37 3 -21 -12 -18 -6 11 -21 -40 -4 -19 4 -13 -4 -8 -21 -19 -4 -4 -6 -28 -4 -27 6 -23 3 0 -33 -7 -7 -40 -14 -30 -12 -11 -18 -3 2 -12 -23 -3 -35 -25 -16 -16 2 -6 -7 -24 -12 8 1 6 -12 -20 -26 -16 -13 -42 -21 -27 4 -11 8 11
-41 6 -8 -47 -41 20 3 13 -14 35 -24 18 -28 -17 18 10 -20 -50 21 34 4 40 22 -9 34 -27 -42 63 -31 30 -7 -31 78 -36 1 16 5 -11 -8 2 22 -35 1 25 -4 -26 6 -30 -35 -27 39 6 -40 -50 -29 24 0 29 -17 -37 25 -20 12 27 -11 -7 9 -19 -36 -21 -3 -43 -16 36 0 59 -39 35 5 -8 -22 15 -6 -43 -44 26 33 34 -69 16 -14 18 -4 -6 17 7 7 8 -27 27 40 -2 -57 56 -20 2 -58 18 42 -45 -2 -12 -3 12 12 -19 29 9 5 -45 -3 -41 -23 12 14 -14 -30 53
-31 -33 -41 2 -28 -62 -35 20 13 -33 -44 -23 -43 -8 -49 -12 8 -16 26 -43 -2 -26 -67 -47 -2 -21 -11 3 1 -15 -13 -3 -14 0 -42 -30 2 -16 12 -10 17 -24 24 29 -14 4 -47 -13 -37 -15 -37 -28 -16 -23 -21 8 -43 -32 -15 -19 -14 -26 -37 -45 -77 -11 29 13 -31 -10 -13 3 -22 -34 -1 21 -44 -34 -1 -39 -8 -12 1 -10 -51 4 -7 7 16 1 -33 -6 -13 1 -12 4 1 -27 -5 -12 -5 -20 3 -15 -25 -2 -36 34 20 -41 -36 10 -40 -19 -41 -6 -52 -13 -19 21 -33 -17 -50 9 -23 -3 -25 21
-5 -4 5 -13 -15 22 -19 -25 -14 17 6 9 0 6 -30 0 -29 -34 -36 -27 -34 -24 23 21 -30 -24 -11 -15 20 -31 -22 -65 -6 20 -22 -26 -14 -29 21 16 -12 2 0 3 13 -33 -28 -8 58 -40 -18 30 21 18 -42 -3 -82 -13 -13 5 -26 -3 -44 54 -13 -4 15 -52 50 -68 46 30 -15 27 39 15 -86 -6 -17 -21 11 1 -17 -12 -8 -60 -14 -47 5 -13 -55 19 -8 -34 31 0 -10 -31 -40 39 -58 -16 -32 -46 -36 0 -11 -57 55 42 32 -38 -10 -8 9 20 -3 -47 -79 -9 27 -40 -11 20 39 32 20 40
-12 31 5 5 -2 8 67 9 -7 0 -5 -5 -10 -38 -11 -5 59 1 29 -16 61 -38 15 -24 13 18 16 -24 -7 16 -74 48 38 -18 39 35 15 16 -20 -12 -5 26 28 3 -8 -3 7 5 -33 23 6 -36 16 -6 -16 48 -14 23 -5 53 -13 -23 9 13 40 -25 2 42 -16 22 -25 -14 -21 -21 -22 -12 37 9 25 -63 -4 -4 -19 -13 21 48 -43 33 17 -48 45 41 23 42 -44 34 23 -49 15 9 33 69 34 30 -13 -66 6 54 -28 -5 6 50 28 -19 -8 -12 5 15 10 16 -47 -11 24 -50 0 11 -14 21
19 23 9 0 34 -36 -36 37 4 2 -43 7 27 16 15 -6 16 4 16 -14 -10 -39 -51 -33 -24 1 6 -32 -54 -28 4 43 26 0 18 -59 -24 60 1 -1 40 23 -66 25 10 -18 30 -6 -38 22 -46 53 -28 4 19 24 52 2 -18 -44 48 -23 15 -69 -20 22 -50 -5 -41 26 18 -27 19 -12 9 -25 21 -17 26 10 -22 -47 1 3 -16 -25 7 -5 -69 -5 -4 -49 46 39 -23 -74 -58 -62 14 -23 -4 -36 -50 6 42 -16 43 -23 -24 8 -19 -8 5 -66 -40 -12 2 17 11 64 21 10 -12 -28 -39 -33 -7 -20
-47 -35 4 -50 39 -76 50 11 9 -30 -13 -8 -16 41 -15 -41 11 -51 -50 -13 28 -21 -14 -18 -36 -8 14 -31 -8 -43 7 25 -49 -41 -35 -7 -31 4 30 4 -19 85 -5 -1 -47 25 10 55 -98 41 -7 -50 -2 -37 22 -26 15 -31 -13 -58 16 -23 -52 -79 -3 -38 -4 -34 -6 16 -2 -5 -30 -26 -23 -39 0 -44 9 -24 -13 8 -11 -11 21 -17 -34 32 -15 -26 -25 -82 -6 -22 5 -62 9 14 -43 -40 58 -17 -40 -32 -21 -3 28 7 -3 -18 -43 11 20 -35 6 41 -24 22 -46 -6 -95 22 24 29 4 -41 -26 -19
-25 14 -20 -49 -11 -39 -11 -19 -10 -2 -24 -20 -29 -19 0 6 3 -13 -16 -14 -35 -8 3 9 2 5 -6 -2 -3 14 6 -5 -2 -27 -22 -17 -4 -24 0 14 3 5 -14 -17 -13 -6 -25 -23 11 -2 14 -23 11 -19 -4 -25 -25 10 -29 -5 -25 7 -5 -38 -35 -27 -18 7 0 -35 -7 -2 -5 -6 -19 -16 -9 -6 -41 -1 -18 -17 -21 9 -29 -12 -18 8 -23 0 -48 11 -16 -15 4 -12 -23 -8 -14 -11 -18 -31 -35 -15 14 8 -20 3 -6 2 -11 -18 -35 -9 12 -19 -13 -34 -20 -11 -17 12 -25 -11 -1 -19 -13 -36
21 -33 38 46 -34 -11 6 62 49 -3 7 43 -10 -42 -43 21 7 13 -9 30 43 28 19 4 44 52 -26 27 -10 13 29 19 6 27 29 32 42 -27 -34 27 8 30 56 21 22 52 41 67 0 -22 -18 -35 54 13 40 -29 -25 47 20 13 -43 30 33 41 34 64 -28 -8 12 3 -38 44 38 -7 -2 35 -22 59 -31 -31 32 -8 30 -5 32 25 59 -21 33 43 46 32 54 3 -13 47 9 17 -23 31 -11 21 16 11 18 24 27 16 3 -35 51 7 1 56 -17 20 8 -41 54 22 19 1 26 6 33 52 -40 -2
-28 -11 -35 31 64 16 -2 33 14 0 47 26 -9 32 -27 59 -10 -37 2 40 -30 32 43 41 34 17 -31 28 28 28 -9 -55 76 21 28 38 14 -1 -34 -4 -10 -17 4 22 -36 -12 13 14 33 -39 -14 -20 -15 -20 -32 2 -18 -10 59 40 -24 -11 -19 -7 6 1 -28 -10 -22 -3 -18 42 -33 29 18 80 -13 37 -24 55 -1 19 -42 30 -22 -26 17 12 15 -43 -5 -20 8 34 4 18 3 -17 -18 31 9 -59 -14 40 -41 -9 -56 23 30 -15 32 19 18 10 -24 0 23 -17 21 16 37 -18 36 6 -77 13 -9 24
5 -32 -1 -44 -10 -26 -16 4 -12 -20 -17 0 -17 -27 10 -39 -11 -8 4 -29 22 -19 -5 -3 -3 -36 -3 0 -17 -19 -22 -21 -18 -1 -7 -16 -23 -29 -15 -64 16 -24 -1 9 3 0 7 -8 -24 -1 18 -6 -32 -32 -8 -11 0 -16 -20 -16 -40 -7 -26 5 0 8 -12 -3 -17 -41 -8 7 0 -5 -14 -5 -43 -32 -37 -29 24 -4 -18 -27 -15 -4 -2 18 21 -4 -27 -15 -7 -15 -5 -24 -6 -28 21 -13 -11 -21 -14 -22 -25 -6 -41 -20 -3 12 -10 3 3 -39 -24 -17 -9 -8 -32 -17 -25 -50 6 -10 -8 -3 -22 -28
0 22 -24 -21 -1 11 3 40 -27 -17 -15 -2 1 -40 -25 26 20 -16 17 -50 12 14 -110 -13 13 36 -20 30 -31 -39 -41 -24 -20 -27 -24 1 4 22 0 -17 -4 4 42 31 22 5 -27 -43 15 20 -7 -45 -21 0 -36 -29 12 -15 30 64 -23 -31 -29 41 19 -31 -5 14 5 23 10 -12 -56 -2 -26 54 6 -37 -16 -22 -21 -17 -19 -5 -34 11 -28 33 -4 3 11 7 -1 20 41 -12 39 -55 6 -4 -26 -14 30 2 -50 0 15 33 13 11 0 -12 -14 3 -21 -40 8 -41 -34 10 -50 -2 -9 -14 8 -16 39 -48
-78 -34 -69 -46 13 -36 51 -75 -59 -1 5 2 -37 -67 -38 -50 6 2 -33 -41 32 -57 -22 25 -15 -59 0 -31 13 -86 -2 -38 -25 44 -35 -7 17 -9 -22 -39 -44 -64 65 70 -99 -18 -6 0 16 -63 20 -32 25 -1 -35 -12 -53 -70 6 20 -41 -9 -6 -35 12 -40 28 27 53 2 -18 0 -44 5 -8 -18 -24 -55 -27 20 -31 -35 -78 -10 -8 22 -19 -19 48 -42 -7 32 -61 10 -12 -4 -44 35 20 -43 -48 11 -6 -63 17 -8 8 19 -3 10 -6 -12 -36 46 -23 -52 -20 -45 -44 -69 -21 -57 -12 13 14 -7 -55 -32
18 -10 -22 45 -17 21 -56 -4 -6 -36 -19 29 -20 13 -14 26 16 10 20 26 -46 35 6 30 16 -4 17 32 17 -50 -1 2 -28 -12 -27 34 12 3 -10 -38 -50 39 -46 -6 46 47 -2 3 -20 15 12 -11 14 -11 -47 -20 -10 -8 -23 11 -3 9 -111 11 45 35 -48 13 -7 -52 -33 37 -11 -4 -19 -22 23 20 -11 -30 -2 19 11 4 27 2 -14 63 -53 -38 28 -44 7 17 -27 13 21 -10 60 3 -16 15 27 22 35 0 -10 7 -20 -22 34 1 29 -26 6 43 23 7 -54 -11 -27 25 21 23 54 6 -10 -57
22 -4 37 39 1 -13 39 -13 7 7 76 23 5 -19 13 50 5 43 29 42 30 42 -9 55 -16 19 6 16 48 -17 37 16 15 45 35 19 24 -2 -12 -20 20 23 67 -3 -7 41 -18 -6 38 -9 28 -10 17 -1 -5 12 49 -20 71 52 0 36 -19 55 13 12 3 16 58 44 -5 10 6 -43 -1 15 35 9 11 17 21 -30 53 27 75 31 48 16 -12 30 0 33 -4 62 10 53 -14 6 53 -8 40 -1 11 -16 9 -25 48 80 -3 -4 40 45 22 17 -13 -8 48 46 33 34 -16 28 58 -28 47 37 -18 -6
44 -35 37 23 6 -51 -25 18 24 34 -53 -24 37 -27 -50 25 44 -13 24 14 4 -23 24 -31 22 24 10 26 -60 -44 -42 -9 -29 -22 35 17 -34 8 -47 -23 -23 40 55 29 -29 26 -19 29 -40 43 -7 -9 -26 6 7 10 30 20 1 -13 8 -43 -19 34 -16 55 37 28 19 42 -19 3 62 -1 31 -12 23 31 17 -16 37 16 16 2 -68 21 24 62 -60 47 17 -11 60 43 -2 -35 12 -11 -31 29 -4 -26 11 15 -27 -31 22 23 -39 4 -23 -7 52 -105 -17 23 -25 11 45 -5 12 2 -11 5 -6 -11 -27 -15
-1 -11 -11 -13 21 25 1 -17 36 -31 37 15 -26 16 -54 8 -30 15 -54 14 1 39 56 62 -10 -2 30 -35 29 -28 19 0 -84 18 -2 -15 -42 -12 60 -38 27 -37 -68 3 -26 28 -7 13 -2 -7 47 54 28 -14 -45 -8 4 -2 -68 4 -63 33 -79 7 25 6 22 -29 43 -19 23 13 -3 44 11 -44 -12 -1 -30 -9 26 69 -31 -69 21 -10 -23 25 14 -22 9 -36 19 37 49 -5 -24 1 -32 -6 40 -38 -9 44 -22 4 -40 -5 -11 54 -12 21 10 14 13 36 50 -42 11 4 -11 43 -37 21 74 56 11 -36
-13 -25 -4 -13 3 8 9 2 -21 -1 -5 7 -24 -1 0 -24 -9 -13 -20 -26 -15 -15 -10 -11 -21 1 -14 -17 6 -24 -11 -12 7 -37 -9 -25 1 -6 7 -6 -14 20 -6 -2 -16 -22 -19 -6 -12 -12 5 -11 -29 -3 13 -13 -6 -6 -14 8 4 -20 11 -13 -21 -24 -5 -34 -8 -17 2 -2 -3 -23 -13 8 -22 5 -28 -22 8 -3 -12 7 -21 10 4 -3 3 -2 -9 -32 19 8 -3 -8 9 -24 -11 0 -6 -4 -10 -17 14 -17 -27 11 -2 12 -16 -10 -19 -27 -11 -14 -14 -16 -1 -31 5 9 -1 15 -22 4 -6 -28
-57 -75 -41 -54 47 -5 29 36 0 2 -23 14 -43 13 -10 2 33 29 -20 18 52 44 15 -60 15 11 27 -33 -74 -12 -31 -13 31 -28 -25 14 -6 -53 -11 3 41 4 -3 6 -57 -13 34 56 7 48 -9 -27 2 31 37 -30 -50 48 9 -25 -28 -34 56 -59 -24 -42 -39 50 -82 9 40 20 -52 -45 -5 -58 15 -21 -89 1 -3 44 21 14 52 8 -3 -4 -4 -21 22 3 8 -38 -4 -8 -19 -21 20 -25 -1 32 37 17 10 61 -8 -10 40 -8 -58 -27 -43 -14 -8 30 11 -4 28 -15 12 -22 52 5 -26 -35 -40 39
34 -61 -11 32 11 -78 12 7 -9 27 32 3 -16 -60 5 6 -55 -9 -43 1 23 -42 -6 -58 -8 52 26 -26 -26 21 -8 -9 36 1 -11 -46 -7 -21 -56 31 -45 -32 1 -15 -59 3 -6 -50 1 46 -43 -127 25 -101 15 -2 15 -34 19 22 -23 -34 8 -18 -29 -19 -27 9 -51 2 -21 -22 -52 -41 -5 56 23 -54 -37 32 20 -16 8 15 -40 14 -8 42 6 -13 11 -2 -3 38 -12 19 -68 46 -18 4 8 9 26 -61 10 -15 7 -12 -65 -23 -6 -1 -18 -10 -64 -24 -25 -8 -57 -32 -65 14 20 -16 21 20 -15 -2
-7 -51 39 14 -16 -43 14 28 -4 33 1 23 15 -31 -18 -2 -88 -14 3 -7 -21 -50 15 35 -33 22 -36 -30 11 -5 -4 -26 27 16 4 -33 -26 -5 -5 50 -82 15 -8 29 -68 -23 -9 -47 8 -50 21 -2 -12 35 0 -12 -13 -48 14 -56 -19 14 -50 8 -31 11 10 -25 1 24 38 10 -30 20 45 30 -46 -40 -28 -18 30 13 2 21 -35 -32 23 -33 18 8 -76 -46 11 -9 8 19 6 59 -15 8 -44 -24 -101 -11 30 44 -29 -17 49 43 -1 -3 8 3 23 -44 -32 -43 -31 -12 25 -15 -70 18 20 26 -31 12
-107 -7 -21 -44 -6 -52 7 47 -30 -3 34 30 -20 61 -50 3 10 -10 -66 -40 8 -30 30 10 41 2 -1 -48 -10 25 -4 -8 87 16 23 -5 7 8 -87 -45 -33 -33 32 -11 -22 -19 22 16 17 30 62 36 38 37 -16 -21 -20 -17 2 -18 -19 -9 37 -6 -14 -78 -105 24 4 26 -26 -41 -22 -54 -2 12 9 -8 -35 45 -87 -88 -36 40 -25 -36 -13 -47 38 -24 -11 -26 -55 -27 -35 -4 -43 36 -44 -45 13 0 -5 -27 -51 -1 -35 -5 46 -8 20 -23 -48 32 -72 -47 -12 19 38 -10 18 -7 12 -11 -14 19 7 1
0 24 5 -51 -17 2 -2 -57 -39 7 -33 -19 -9 15 34 -2 -5 -34 -16 -6 -41 1 -24 -64 -24 -64 -21 3 -19 -38 -11 -31 -3 -26 4 -16 -40 -1 -20 -32 -4 -28 -34 -40 24 -47 -47 -29 -16 -44 8 2 -15 -5 -37 30 -17 18 5 -28 17 -9 5 -15 -53 -7 -15 -50 -41 5 -6 -85 5 -17 -8 -5 -5 2 19 -5 -11 -34 -18 11 8 -28 -48 -49 -52 -17 -28 11 27 -25 -2 -20 -37 -35 -23 0 -1 -46 -7 -17 -9 -27 -2 3 -58 -17 -37 -59 -27 -65 4 -7 -21 -4 -19 -44 8 18 -72 -14 -30 -42 17 -6
41 -34 -7 63 -30 9 10 4 -3 -7 49 8 -55 -41 52 14 0 -36 -48 12 -38 -2 31 -14 -27 -13 -22 9 26 23 20 1 119 74 -9 -19 4 -34 -8 56 -46 -38 24 22 -19 -8 -3 -18 61 -31 -9 1 -7 31 -22 -31 5 -41 16 26 -19 3 -49 -37 -10 27 0 -65 -16 -9 -10 8 -24 -12 -23 114 -3 -18 -24 33 51 39 10 -4 -94 -43 38 43 25 6 9 43 -46 50 13 9 -16 43 -26 63 9 -38 4 -20 -6 68 -29 10 85 -6 21 -9 29 27 -21 -9 -14 20 -66 -47 13 -29 -10 1 42 56 -5 -15
27 4 -1 -73 8 2 2 1 -64 21 -51 -42 -7 -32 -10 -22 14 -12 22 -89 -9 -15 -25 -68 -60 44 20 -50 -36 -17 -16 30 -34 19 -35 -22 -4 19 -68 11 -15 34 -34 1 -4 23 -23 -29 -6 41 -35 -66 -56 -46 -15 1 -2 -2 -14 3 -19 -27 20 -72 10 -17 -45 24 -40 0 -40 -35 11 -73 -10 13 37 -18 12 -15 28 -56 51 35 15 8 -12 9 -50 -38 24 6 28 -9 -14 -56 12 -29 -13 1 -8 6 26 -28 26 -13 31 43 15 9 -13 6 8 -42 -29 -5 -1 35 8 21 -40 51 24 8 -8 -52 5 19
-22 -4 -1 18 -45 13 14 -3 80 -72 59 18 -78 -33 -60 55 20 53 -6 -1 16 7 -9 49 -3 -4 33 4 57 15 63 -14 -31 62 38 24 35 -9 12 -41 -3 -23 -2 -23 -49 27 43 11 39 -22 -1 41 67 1 10 11 -63 -19 63 34 -67 51 17 -67 7 -3 -31 12 50 -103 -47 29 -44 15 19 -17 -13 34 -56 45 -18 -35 -1 -33 5 -39 4 13 61 -19 18 -45 -36 12 -23 8 37 -6 21 -11 -23 20 16 4 12 15 39 53 -1 12 27 -7 22 88 -35 18 21 -36 -43 -12 2 20 1 6 -3 34 -32 -37
-6 3 29 -48 -12 -47 -50 32 43 -10 -8 34 -10 47 -23 14 -24 56 -31 -24 -37 -13 -95 -18 3 15 96 18 -48 59 -14 3 -56 17 4 35 -2 69 -2 21 -51 37 -51 -8 0 63 -22 45 -49 4 -22 -18 62 -22 0 20 24 59 -30 -74 30 30 0 -13 2 -16 -6 -43 19 -46 -86 11 -36 -50 -72 -53 -37 -11 30 47 -18 -39 14 -1 -20 26 -2 27 42 11 -51 -81 -6 36 19 2 -3 -34 18 0 -22 -20 -50 -2 -27 23 66 -9 42 -17 -58 -12 40 24 -53 38 -17 12 -23 59 23 18 41 34 92 26 9 -33
12 30 -2 -21 9 -30 -36 2 -64 27 -87 -19 25 -19 -52 -21 38 3 -11 -70 41 -29 5 -100 23 8 3 -24 -27 -19 -18 26 53 -51 15 -35 -14 16 -36 -48 -21 20 4 59 -13 33 -45 -67 -18 14 21 -21 19 -4 -42 -35 -23 -29 -28 -44 -35 -85 -7 -24 4 3 25 45 -70 9 -32 -22 -48 -31 -47 27 -9 -4 -49 -2 -7 8 27 -41 -37 6 13 -26 -46 -12 6 23 28 20 -31 -26 24 -25 -50 33 11 -24 21 -31 -22 -27 -27 40 -2 -35 -33 12 -69 -23 -18 15 15 -8 19 59 -9 -35 9 -36 18 44 -21 15
13 -35 29 -6 -25 31 1 -23 53 -18 9 12 15 -87 2 38 8 31 51 -6 25 -14 -6 -33 5 -11 -10 -26 -36 -3 20 -24 -121 22 13 32 24 -124 -92 -21 -7 -32 19 2 -76 13 41 4 -79 -10 5 -51 17 -53 3 -69 -56 -32 -17 61 -14 19 7 2 68 9 -14 -24 -18 -32 -72 55 17 6 -49 -36 -63 26 -12 33 -5 28 21 -36 14 19 22 34 28 19 7 -5 -54 -11 -61 16 50 -56 6 14 0 12 -36 -65 0 -3 -13 -3 -23 -64 -3 13 -10 6 -38 -11 49 -60 -61 -38 -36 -15 -15 -34 -9 -22 -40 -69
-37 22 -13 -25 15 9 -56 0 -19 -15 11 -3 3 1 14 -1 -18 5 -26 -29 10 -8 -54 18 -27 -56 1 -7 -25 -26 9 -16 -22 8 9 5 -28 45 -4 -25 46 -12 -51 -2 36 -32 -52 -33 -26 9 -17 -10 -58 -25 -33 21 50 -53 -25 -4 18 -19 -28 -68 32 -43 11 28 -7 7 11 -8 -63 4 -65 -1 -10 -55 56 8 2 -15 -30 -16 -35 -14 -34 -7 12 -35 -2 17 5 12 -57 -28 -42 -16 48 -29 -70 -11 -24 48 5 12 -15 3 -37 -16 -1 -20 -6 -9 21 21 -28 12 -3 13 6 -51 -18 -15 -47 -11 27 -38
-71 2 -30 -20 -61 9 -31 18 -10 -4 34 -23 12 13 -58 -30 -23 30 -4 26 -14 -27 -6 56 -23 37 -7 -33 19 -60 2 -8 12 -51 -64 8 -52 1 50 -13 32 -1 -22 2 26 -61 -74 -24 -22 -26 21 -44 -8 -17 -35 2 -25 -12 35 19 -112 1 -60 3 40 -9 -4 23 23 -34 39 33 -84 7 -43 19 -15 29 -32 -45 -21 -13 -15 -22 -9 -15 -10 -21 -74 -59 40 -21 -13 -4 42 -6 41 -39 9 -41 -35 -48 44 -6 -28 -16 -6 2 34 20 -14 37 -22 -13 13 -24 -33 -51 -14 63 -68 -38 -13 -1 40 18 43 -9
-13 -63 -6 0 -13 17 -33 44 3 0 -29 -18 -32 -22 -17 45 -32 5 4 -5 4 -7 -29 16 -1 57 0 48 -8 5 16 -50 -10 -34 -1 -7 -15 -48 -23 9 -35 40 0 -24 -62 19 -55 -37 -46 -37 1 -28 -29 -17 -4 0 -36 6 -51 5 -34 29 -28 13 -3 -14 0 -10 26 -11 10 30 15 50 -31 -33 -17 30 -28 -20 19 -20 -27 23 -7 1 5 -9 -51 19 -16 -24 26 -48 -24 -19 -4 -8 -10 32 1 -49 -36 -50 -13 -59 17 16 -19 -21 -9 29 -9 0 -32 21 1 -73 21 -35 -15 -38 -28 18 -19 7 -21 -26
-41 -30 -12 -16 -9 26 -1 12 -30 19 -34 9 11 -14 -28 -18 14 -29 8 -27 24 -3 -2 -24 9 -23 6 -29 -37 -19 -23 10 -24 -1 15 -31 9 13 -3 -20 31 5 28 12 -51 -30 8 -23 5 21 2 13 -20 -27 -18 -14 -38 -7 -25 -36 -29 25 -51 -15 7 -1 0 -8 -8 -42 -9 -17 -39 21 -28 -17 -29 -25 -49 -3 -28 -33 -9 -11 -40 -36 2 10 -47 -13 -26 -21 -50 6 -10 -42 16 -29 22 -38 10 -3 -25 -11 10 -12 -2 22 -45 -40 -14 -22 21 -39 -31 18 21 -11 -12 0 -7 10 -39 -36 -33 -15 -17 18
12 -9 2 -83 -13 11 -49 -34 -55 19 -18 -46 49 -40 -6 2 -10 10 -29 -16 -14 -16 -10 0 27 30 24 18 -5 -23 12 -10 -23 -1 56 -31 -38 -84 -28 -39 -32 19 -43 35 -12 6 -31 -19 -4 22 -7 -43 -7 -12 -10 25 6 -10 4 31 3 8 -28 18 -57 -26 -53 47 -52 1 -20 5 12 28 13 18 25 -11 -49 -49 -7 -34 -2 -32 1 34 -7 -24 0 20 68 19 26 47 -23 -2 1 -2 -71 -21 -7 -19 7 -60 -31 -37 -19 31 -3 -24 -8 24 -12 23 -23 -26 -39 0 7 -5 -31 -25 -6 -9 23 12 -56 65
-50 29 -44 -34 -2 65 48 -23 -1 2 2 39 -3 54 48 36 -15 -1 30 -63 -4 17 18 -2 -7 -9 21 -41 24 -12 -19 -34 -5 -16 31 5 10 13 45 8 13 38 -33 -39 32 -15 -36 25 2 -4 18 28 -24 0 -63 -5 19 19 16 34 8 -31 -30 23 -30 -49 40 26 24 -51 5 -20 22 35 47 2 -7 29 29 4 -21 -6 5 24 -1 -36 -20 14 6 -7 17 37 35 -5 74 -29 7 38 -23 -18 2 23 -14 35 14 28 11 29 10 6 43 9 -30 -3 50 14 34 -6 11 -15 56 5 -7 48 20 16 33 -31
-61 15 -32 -36 1 -7 -18 17 -15 13 -13 30 4 -11 45 -13 1 -33 -7 -58 -31 -24 25 19 -48 3 14 -61 -6 -21 29 40 -1 15 -17 -9 -14 9 -3 -50 -12 -80 -13 -66 45 -87 -57 -29 -4 38 -6 -36 18 -36 -50 51 2 -6 17 21 65 -18 -15 -16 -22 -20 -5 -36 -14 -11 -38 -43 -14 -12 -34 -6 2 -30 46 -17 -46 9 10 -25 33 -54 -64 -27 3 -35 38 40 -69 -61 -20 -25 -23 -1 -24 -28 -35 7 -13 39 -40 -10 -6 -25 -6 -46 7 -58 3 -21 15 -20 9 62 11 9 -20 -15 -3 -7 -48 40 20 9