0.007558769546449184 -0.1291576325893402 -0.16165699064731598 0.08458032459020615 0.176047682762146 -0.06690879166126251 -0.18669967353343964 -0.13969838619232178 0.030224470421671867 -0.019298559054732323 -0.035317786037921906 0.09908300638198853 -0.029345761984586716 0.017887067049741745 0.11424735188484192 0.14661847054958344 -0.13306710124015808 -0.21166816353797913 -0.19036296010017395 -0.04319392517209053 0.24465100467205048 0.12777239084243774 -0.21592633426189423 0.05975235253572464 -0.21059657633304596 0.02567223459482193 -0.034613147377967834 -0.08339601755142212 -0.09806011617183685 0.036165751516819 0.2578796148300171 -0.09817606210708618 0.061561040580272675 -0.029532117769122124 -0.140146404504776 -0.019622506573796272 0.29968923330307007 -0.0004287691554054618 -0.08151625841856003 -0.06688845157623291 0.06529806554317474 -0.22235572338104248 -0.009534747339785099 0.15615519881248474 0.05068691447377205 0.03094414807856083 0.010118486359715462 0.03197207674384117 0.16970586776733398 0.080217145383358 -0.009640701115131378 -0.06738552451133728 0.12866026163101196 0.0034607418347150087 -0.09533771127462387 0.2334401160478592 -0.1339111626148224 0.19652970135211945 0.05968823283910751 0.1431732028722763 0.1971554011106491 0.16575011610984802 -0.13969188928604126 -0.234404519200325