0.018704811111092567 -0.05690643936395645 -0.02570023015141487 0.012992293573915958 0.011265318840742111 0.03718682378530502 -0.03148816525936127 0.1783493310213089 0.06900870054960251 0.018331661820411682 0.10432134568691254 -0.039246514439582825 -0.064325712621212 0.05723554268479347 -0.11174462735652924 -0.033093638718128204 -0.10865969955921173 -0.09440596401691437 0.10115998238325119 0.19762969017028809 0.013312389142811298 -0.013909622095525265 -0.004314414691179991 0.031204666942358017 0.01714964397251606 0.11501143127679825 0.10430653393268585 0.025456402450799942 -0.09812947362661362 -0.008573532104492188 0.10477504879236221 0.008192948065698147 -0.09026165306568146 0.05495927482843399 -0.0333484522998333 0.08991052955389023 -0.05327611416578293 -0.06671745330095291 0.022323230281472206 0.06670549511909485 -0.0016183998668566346 -0.08583711087703705 0.00484527787193656 -0.08735349774360657 0.10241999477148056 0.059849321842193604 0.0001078430432244204 -0.05318132042884827 0.04607570916414261 0.032566215842962265 0.09896434098482132 -0.013191012665629387 -0.128221794962883 0.00709531782194972 -0.007294554263353348 -0.03408156707882881 -0.030039621517062187 -0.01679965667426586 0.06733687222003937 0.00892193429172039 0.004260031972080469 -0.006222716066986322 0.0107879051938653 -0.0008893311605788767