5 30 29 -7 -3 -10 4 -10 -41 -48 15 -5 -27 -17 -15 55 -25 -54 -9 -5 -1 -19 -41 -8 6 9 -1 14 7 17 -22 -2 -20 2 4 22 23 11 38 29 -23 -9 19 21 -33 13 -18 4 -35 7 5 3 0 30 7 30 19 -12 -6 -1 -5 7 3 8 -13 -4 20 24 36 -32 -6 -28 25 17 -19 -5 18 12 21 43 -7 -12 19 -14 0 1 -14 -3 -33 -5 1 -38 -27 3 -2 3 -30 -17 -42 -9 11 -7 31 0 16 6 -6 -21 -3 5 -14 11 -32 -5 -5 -7 -47 8 26 -14 14 -33 6 24 24 -23 3 -38
18 25 -22 19 -1 44 10 -32 52 34 -23 13 39 1 28 14 49 -28 42 3 -27 -22 17 35 -11 6 38 50 31 -16 -12 25 16 9 45 50 14 4 9 -34 24 33 14 7 6 22 3 46 0 25 -16 11 18 -6 53 7 16 6 -25 8 27 37 -1 54 17 4 24 10 5 12 4 41 6 26 18 23 12 5 43 5 34 10 25 21 -5 6 -8 28 -20 8 2 45 65 -1 2 22 5 34 62 40 29 -16 -23 43 1 -19 45 -16 8 -8 43 -31 50 -1 2 67 7 29 -19 48 -2 49 -12 -27 22 -14 16 65
-24 -4 -22 -34 0 -28 -12 -11 -20 -17 3 5 -6 -37 7 2 -12 16 -24 -5 -26 -18 -9 17 -20 -8 -9 -23 -11 5 -30 -12 -21 -2 5 -28 -9 -32 -36 -30 -18 -26 -14 -27 -39 14 -18 -14 57 7 2 -26 20 -34 -17 -17 39 16 -6 -34 5 19 -7 -32 -16 22 -13 -52 -10 -1 -42 -24 31 31 2 7 -15 -23 -9 -30 2 46 25 -33 -19 -34 9 20 21 -14 18 29 -25 -55 6 -13 -16 -5 -7 11 -4 20 -32 -3 -17 0 6 -36 -32 -20 -25 -9 -19 -5 -14 -45 -37 34 -52 -24 25 -24 3 1 -16 27 22 -49
19 -27 -42 7 14 8 -21 -1 9 -36 2 14 -5 -29 -17 -17 8 19 -18 7 -65 -26 -12 26 -39 -32 18 -8 -7 -28 19 -11 -8 -6 -3 37 -25 28 6 -20 6 -32 -18 -6 31 6 -4 -14 -7 20 -24 13 23 -55 -14 21 -4 6 -9 19 -26 -6 -9 -27 20 -11 -6 -25 23 9 3 -20 -20 21 -19 -22 -29 -27 26 -18 -3 6 -9 6 22 14 40 7 3 -16 20 -34 -27 14 12 3 33 -10 -29 -15 0 21 12 -22 14 -5 -7 3 3 -1 6 -16 -26 3 -27 12 -8 -13 -48 11 -12 -11 13 -22 -6 -9 16 -28
-12 -23 5 2 -33 0 -18 1 -6 -32 11 -18 -19 -19 -23 -5 8 -35 -24 -34 -3 -28 -48 -25 -22 -6 -7 -2 -12 14 -13 -38 -24 4 16 -15 -9 -5 -9 21 -19 14 1 5 11 -23 0 -16 -39 -45 -14 -19 -8 11 -39 -17 -16 -6 -5 -16 -20 -25 -17 -5 6 9 -8 4 -6 6 2 -10 -19 -34 -17 -17 -2 -10 -36 0 -25 -1 21 -7 -21 -8 -27 -1 -12 -37 -22 -10 -20 -9 -6 6 -7 -12 -26 -6 -10 -13 -12 -8 -18 -29 -15 -2 -6 13 -27 -1 -58 -16 -12 -13 -5 -15 -18 -10 -26 -5 -40 -8 -19 19 -8 -21
-4 -27 15 -2 -80 -18 -20 -37 -3 -8 -52 -43 29 -15 -31 -7 43 -9 3 -10 -21 -45 14 1 -22 -14 18 10 -4 -41 19 -53 -3 -32 -11 9 -21 42 -17 -15 4 0 -46 5 22 -8 -8 -1 -16 -19 -36 14 10 -35 -6 -41 -22 10 -21 -27 20 -49 -6 -37 41 23 10 -16 -18 -14 -7 -32 -29 -43 -29 8 -14 -23 -6 0 12 27 4 55 5 14 5 4 2 -4 -5 -8 -5 -7 23 -14 18 -30 -16 23 -15 -9 -40 22 -1 -22 -22 21 -1 -11 22 11 -4 -12 -1 23 -32 28 -20 -2 9 9 27 -30 -16 -9 25 -9
4 2 6 4 -21 -12 -8 0 5 8 -18 4 -18 21 -20 -13 -23 -15 -4 -24 -19 6 8 -3 -11 8 -17 -16 -6 -25 -13 4 0 3 5 -11 -36 -28 -25 -14 -9 -39 -18 -2 -18 1 1 -5 -13 -13 -19 -16 -1 -15 -15 -4 -38 -19 -15 -14 -16 -28 -14 -9 -11 -14 18 5 -19 -13 -16 11 -9 -26 0 -21 6 -19 8 -17 -27 -9 -34 -17 -7 -6 -27 9 -12 -7 -24 6 -2 -38 8 -28 -25 -13 1 12 -10 -19 -16 -9 -30 -2 -12 -21 -17 -25 1 4 -2 -18 -2 -11 -29 -18 7 -18 -12 -7 0 1 -14 -14 -19 -24
19 -3 24 -10 -20 17 51 27 7 1 -10 46 -30 -8 49 -13 30 -73 -26 74 15 3 7 -18 38 25 -8 21 4 9 -15 13 19 -16 16 10 -9 -16 29 47 -5 19 -24 -13 -44 -53 -19 21 -50 -50 -25 1 -8 16 22 24 -14 -21 72 -38 17 62 -24 18 -39 20 0 -48 1 -18 -81 -31 -5 0 2 -8 27 27 30 21 14 -42 -10 -19 -25 -16 -55 -37 -61 -21 -14 -64 22 -22 -28 -15 0 25 -30 18 10 -22 24 9 -25 19 1 -45 8 30 -7 35 -51 1 34 45 -69 -2 29 11 -7 28 12 -6 50 -4 -28 12
-10 5 -11 -22 -13 -13 -15 -7 6 -19 -9 -1 5 16 -15 -10 -14 -9 1 -1 -1 -9 -17 13 -28 2 -10 7 -12 0 6 -17 -6 5 -11 -11 -18 -11 -10 5 -17 -15 1 3 -4 5 -14 8 8 -3 -14 -23 5 3 0 -9 -11 -13 -15 -8 5 -11 -15 -7 -8 -8 -10 -15 -11 -2 4 -22 -12 -13 -17 -5 -12 2 -9 4 -25 -10 -19 -10 7 6 -9 -4 -10 -14 3 4 4 2 -8 -21 6 0 -9 -8 -20 -15 -6 0 -9 -12 6 3 -2 -20 9 -12 1 -9 3 -3 -9 3 -2 -9 -9 -11 3 -22 0 -21 -17 7
10 12 3 9 2 -5 -16 -42 -6 19 13 6 11 20 12 8 -11 -28 21 -26 26 7 3 22 20 -6 9 3 7 -2 30 9 20 -46 -60 -15 23 22 -7 -15 -25 18 -38 1 10 -44 -9 5 -29 7 2 -32 -7 -9 -16 0 -20 -69 17 -10 34 -20 -22 -19 20 3 -31 -15 -17 10 4 -23 15 -41 35 5 -28 3 -11 17 -10 1 -39 -18 -24 -12 -51 2 13 6 -28 -34 10 1 -14 -8 -19 23 -12 -30 -31 -37 -20 -15 -6 1 -7 -26 3 -3 -28 -23 -34 -26 1 4 3 38 0 5 -9 -45 4 -31 4 -26 -2 14
0 -5 -11 28 5 -42 -6 -8 7 -13 37 -22 40 -10 31 -1 1 -37 12 34 -4 1 1 1 -9 -12 13 27 26 22 -56 -38 -14 -18 0 -12 -40 17 1 11 44 -33 18 20 -3 9 13 1 -2 22 -25 2 -1 -23 27 13 19 15 34 -14 23 22 5 -5 21 38 10 -20 8 7 39 -73 44 -4 -62 -4 -33 37 -1 -4 -15 24 17 3 28 0 20 19 5 57 -13 -3 -27 10 -21 -39 -13 3 -10 3 33 3 16 -7 33 19 -62 -61 8 -11 -1 -21 -30 0 -43 -22 13 -66 -11 10 17 14 22 -21 13 -41 17 0
-43 24 -57 -26 -36 -65 -29 -1 1 -21 -13 3 -2 -32 -6 42 17 -10 -24 4 -20 -17 -19 -18 -19 -25 -3 -35 -11 -50 13 29 2 -5 -49 -13 8 6 -72 3 -30 21 -25 -22 29 -45 32 -27 -5 -42 -35 20 -28 -37 -3 -77 -31 -28 0 13 3 -32 -14 -19 65 -9 -67 -4 -39 -4 14 -38 -21 -22 -8 3 -9 -48 -5 -10 2 0 -3 -8 -17 -49 -10 0 29 -1 27 -9 36 -5 -6 -3 6 22 -21 -62 -31 -1 4 -8 6 -35 -8 -12 -38 -34 -48 -7 -25 -10 -35 -44 35 -10 5 -29 -21 -11 -47 -33 -11 -44 11 -8
-28 -4 -7 -7 -18 -9 -6 -19 -7 -25 6 -4 -21 -1 -3 -16 0 -18 -16 -13 -4 -2 2 -5 -4 -1 -15 -2 -11 -15 -6 -17 -18 -9 -28 3 9 -8 -14 9 -20 -2 -7 -23 -3 -10 -5 -10 2 -6 -19 -18 -27 -5 -7 -22 -3 -27 -5 8 -10 -16 -14 2 -17 -12 5 -18 -23 5 6 -8 -5 -5 -13 -2 1 -15 -3 -25 13 4 -10 -2 -3 1 -6 10 -4 -10 8 12 13 -9 11 -23 1 -5 -19 9 -10 -18 -10 1 -26 -20 -32 -13 -6 -6 -22 -9 -13 2 -16 -9 -1 -7 -14 -10 -24 -27 5 -22 -21 -9 -13 0
33 6 -24 -25 -23 39 -20 4 -2 -22 8 17 -23 -43 23 0 -37 -25 -4 2 -26 -30 -13 3 -24 17 -27 -15 -28 -29 3 12 -10 38 -7 -29 -20 -16 -17 -15 3 -16 33 -14 37 13 -21 -29 55 11 -22 -3 11 2 26 -9 4 -10 -21 29 -4 -13 9 6 -10 -35 13 -41 -22 14 -36 -50 -13 20 -14 -22 21 -23 -4 -36 23 17 9 19 -3 -29 6 -21 -1 4 -21 47 -20 20 6 27 9 -30 -30 4 11 41 -13 -11 -6 7 20 -9 -28 -4 -27 -7 -18 -25 17 17 9 19 0 2 7 9 10 -21 17 12 8 4
18 8 9 11 20 31 -7 8 -18 -11 21 33 -33 -15 27 -30 17 -20 -18 -1 26 6 -51 -16 24 11 6 0 31 12 -26 -16 -18 35 -16 8 -7 -15 26 2 -22 -5 -3 -15 -20 -6 -22 -25 -22 16 24 22 0 28 14 40 -10 -22 14 -9 -18 6 25 26 -57 29 -5 1 -11 -34 28 -32 11 -25 14 11 -1 3 18 5 -46 -18 11 -63 2 8 -47 -3 -23 3 19 -20 -44 -29 -16 -36 -8 -5 -34 16 19 -33 24 20 -34 8 19 -21 -53 10 0 9 -46 -3 10 -17 -69 -20 2 -4 -3 -2 -9 20 12 -5 -25 -33
-4 14 15 14 -22 3 1 19 -19 6 -31 -28 18 6 -4 33 -48 20 0 -55 15 10 -5 13 -13 15 -4 17 8 -27 6 -28 -26 7 15 -33 -2 -15 -6 4 -36 -37 16 39 12 5 7 -7 43 -7 -5 -37 -20 23 -40 2 -5 -3 -16 -14 22 -91 9 1 -18 37 16 5 -28 -25 35 26 -4 -18 16 6 26 -14 3 0 -18 -33 -26 -24 -14 22 -18 -65 -24 -24 -3 10 -33 -1 -31 21 18 -35 14 -26 -28 -11 -4 -14 6 -5 -2 -15 29 -2 13 16 17 21 22 -21 -12 3 14 12 18 -5 -7 25 -6 -7 -5 -46
-21 8 45 4 -13 -23 -27 11 5 36 33 38 -18 0 -42 13 -24 22 45 -32 47 66 0 6 -12 -37 -13 -34 52 21 -36 -41 14 4 13 20 13 21 7 24 1 -40 30 -7 26 -29 -12 -9 2 -14 34 -16 -3 -5 7 27 8 7 29 -21 26 -57 6 -12 33 2 -22 8 -25 -20 60 -8 20 -46 12 27 -16 12 -25 17 -24 -6 -5 -25 40 -22 -28 36 -12 -17 -19 13 -26 10 -45 -25 -9 20 19 -1 31 11 -12 -45 10 -37 -17 -13 -25 -32 -4 -2 13 2 0 -34 3 2 -4 -22 18 -2 6 15 -10 5 0 -52
-13 12 -25 16 -30 -22 47 21 -45 22 -32 -42 -23 6 -9 10 -15 41 -17 -26 4 -42 -16 -34 3 -27 32 -40 -19 -27 52 19 -7 -10 -29 -38 -7 -17 -20 -13 13 -15 7 9 8 -20 -1 3 24 -30 -17 -42 10 -15 -49 -54 -19 19 35 32 12 3 -10 -14 -39 -35 -6 14 -17 23 -17 8 -29 -72 -43 -6 -36 -35 6 -35 -38 -30 8 16 -24 32 8 1 2 -44 8 -17 -32 11 0 20 20 -34 9 -20 -19 15 -10 -47 13 5 -7 49 1 -31 3 -13 17 19 8 -41 31 -10 -9 8 4 -21 -15 2 0 -12 5 -49
-15 -29 38 21 6 -19 -6 18 -18 -1 8 -12 8 6 -60 5 -17 7 11 -43 -17 -1 -11 2 7 -23 11 4 9 4 -25 11 -2 2 -7 2 15 7 5 6 12 -29 27 11 -17 13 18 -33 -19 25 19 18 24 14 -14 36 11 13 4 1 -22 -69 22 -28 50 1 16 13 15 -11 18 4 8 -35 2 13 -25 -6 12 1 -30 7 7 -15 20 -1 -4 17 15 13 -5 9 -35 9 20 -6 -15 8 -2 -24 12 -4 2 -46 26 4 15 -15 -27 -57 19 -8 -19 29 -5 -52 18 -10 0 -10 21 -21 13 33 -7 -13 7 -45
7 -47 -4 10 5 -19 11 -22 -6 -78 -50 21 -33 -78 71 6 -25 -60 -8 41 -32 -21 -16 -9 -18 -3 24 -43 -21 -19 14 18 -33 10 -45 -11 9 -18 25 12 27 -1 -21 12 4 21 -21 -14 -1 18 -4 -4 20 0 22 -11 -4 -14 4 20 17 31 -5 -36 -35 26 19 -18 46 33 -42 -96 11 37 -21 -13 -2 -32 8 -36 -27 45 -31 12 -16 22 -26 -6 4 54 -43 -4 -36 3 20 -21 15 -33 -81 -57 -7 8 -4 -15 -14 25 0 -55 15 -28 1 10 -73 -27 45 19 -27 10 2 -1 -10 6 16 -16 9 -8 -8 19
-17 -33 1 -1 -19 -3 8 -6 -8 -2 -21 8 -7 7 -9 -7 -14 -11 5 -20 5 -10 -14 -13 4 -6 4 -12 7 -4 3 -13 -10 -22 -14 4 -14 -15 -5 -28 3 5 -20 -4 -30 -14 -13 -9 -12 -8 4 6 -8 -2 3 -11 -16 0 10 -9 -21 -3 -16 -5 -17 -22 -2 -18 -26 -9 15 -6 -12 -9 2 -8 -9 -14 -21 -8 -18 -9 -24 -19 -21 -7 -16 -1 -6 2 -25 8 2 -19 -3 -17 -37 -14 -16 -5 -16 -9 -14 -9 -13 -15 -4 -18 0 -7 0 -7 3 13 18 -10 -23 -14 -4 14 -14 11 1 -7 -15 2 -17 19
-11 15 -23 -18 2 3 16 -6 -15 27 -8 -40 -29 28 17 -52 -52 16 -21 -7 10 -15 14 7 -40 -18 -10 23 -5 -23 10 -18 -35 -6 -10 -11 -7 -21 -48 -41 -46 -27 -12 -9 9 24 -45 -1 34 17 2 -17 3 -29 -27 -31 -7 -16 -23 -15 -1 5 -13 7 -34 1 9 -12 -16 -7 0 49 -19 32 39 -13 -27 -22 3 -23 -13 -22 -12 -10 -16 3 -18 -45 -3 -10 -28 40 -15 -5 -1 -41 20 -26 11 -2 -3 3 -32 -33 -19 5 5 -17 24 -33 -3 -68 35 -3 -29 -3 -24 -14 -26 3 2 3 -1 -34 -16 12 2 -7
3 -12 5 -19 -31 12 -24 4 33 7 7 -2 7 10 -6 16 -2 -3 -9 -7 5 -29 18 4 -1 31 9 28 18 9 -24 -44 -3 -10 23 -53 7 5 12 22 10 7 -7 0 -44 11 -59 1 -36 17 -47 25 -16 -26 -14 20 -7 22 -7 -39 6 -43 7 1 -24 0 -2 -23 -16 -38 3 29 -25 -15 -19 -8 12 -4 0 13 44 -55 49 -16 2 -14 -17 -20 -25 -43 -20 6 22 -51 -32 -4 -17 24 9 21 -19 -58 14 14 0 -13 -17 -1 -2 23 45 20 17 3 14 27 -1 -12 22 -16 -9 5 2 -13 17 -4 -29 36
-24 41 18 -14 20 -60 -4 11 -23 5 29 -32 -40 2 -14 32 -6 24 -9 -18 4 -5 -9 9 3 12 5 0 -28 24 -27 -17 19 -30 -26 26 5 2 19 -27 5 -10 -6 -15 -25 -26 -25 25 41 -2 -1 51 -9 2 -17 -2 29 16 -8 -44 -50 26 5 -11 8 -22 -2 -3 20 -11 -6 26 16 5 -37 -13 -24 12 10 -4 43 -16 -4 6 26 -21 20 6 -6 2 -6 20 4 15 19 2 -28 -5 33 -8 4 -6 13 -6 -4 0 -38 43 -13 -5 6 -49 33 -9 -59 -44 -41 -55 0 5 0 -5 -23 -17 -28 -27 -6 -45
37 23 -18 1 16 59 24 3 56 -35 20 -12 11 -43 -15 14 3 -10 -17 -30 -21 12 25 30 -36 18 39 -9 12 -35 1 -29 -4 24 21 12 -21 7 -35 -16 -4 33 41 22 -7 52 -14 -33 3 49 12 1 37 -20 -7 18 11 34 -8 -11 3 -52 25 25 37 33 18 -5 -20 7 10 -32 -20 36 14 1 -4 -18 17 4 5 2 0 -7 10 32 -14 -8 25 -17 16 21 30 -31 31 16 -6 18 -15 -20 20 -11 -23 0 -21 15 25 -38 18 20 -2 -5 -67 18 -21 39 -11 4 -20 -6 20 40 13 -7 22 18 0 39
-35 4 -39 12 -85 -3 17 -28 -2 -11 -31 -18 -7 -30 -45 -29 -1 -26 19 -61 -64 -20 19 9 -55 -4 14 -4 -23 -46 -23 30 -20 13 -14 -21 -2 16 12 -16 -8 -16 34 -15 16 -60 -45 16 5 2 -91 -6 16 -12 -42 -16 8 -13 -23 23 -5 -55 -47 5 3 -18 -48 -80 -86 15 3 13 -17 -53 2 -8 13 -12 5 -26 -1 -14 22 11 -19 5 19 -12 29 12 -29 -4 19 19 -27 36 -16 4 -3 -19 -21 18 -52 19 13 -3 8 -28 -18 -15 -51 12 16 -12 -39 -25 44 -4 -26 18 -20 13 -32 -12 -72 3 2 -23
-9 1 -2 36 -1 -78 2 -5 -34 -37 14 -29 15 -29 -46 15 -6 -4 -7 -58 1 10 -10 9 -7 -4 19 20 14 -26 5 -4 9 -46 -14 -37 8 26 -20 18 16 -56 7 10 22 17 15 5 -10 26 3 -11 37 -9 -9 12 16 16 52 -25 7 -60 14 2 19 13 38 -3 -23 3 18 -31 21 -38 -61 2 -31 -16 7 -28 -9 2 -9 6 11 31 29 15 17 -13 11 14 -53 18 -21 -25 32 -58 -55 22 15 31 -45 6 15 27 -71 12 15 -46 9 2 -24 0 19 2 19 -39 -6 -21 32 -31 16 2 -11 -50 24 -34
8 -1 -9 -7 0 -11 4 -7 -19 -14 -18 7 -20 -8 0 9 -20 -16 -16 10 -19 0 4 6 -17 -16 -2 -7 -16 4 3 -11 2 -16 -10 -16 -21 2 2 6 -16 5 -9 -12 -7 -5 1 2 -4 -3 -15 -1 -2 5 0 -14 1 3 -1 -1 3 -8 4 -13 -8 -17 -1 -9 -14 -13 0 -19 -9 -16 0 -8 -19 1 -2 -16 -19 -3 -24 -5 -11 -8 -7 1 -10 5 -9 -19 -5 6 -11 -1 -13 -5 -12 8 -11 -2 -19 4 -1 2 2 0 -1 -19 2 5 -19 6 2 4 -10 -22 -13 4 -7 3 0 -11 -14 -8 -14 9
2 -22 8 -41 -16 -4 -26 -33 1 -21 5 -21 -58 1 -11 -9 24 11 -10 21 -8 -12 -13 3 11 -33 -6 -49 -7 17 -39 -18 4 -7 -40 13 -23 -10 32 -21 -21 37 32 -30 -49 -22 12 -11 11 18 -40 -8 -11 -33 6 0 15 -25 30 -6 10 -14 -25 -11 6 0 -25 1 21 21 -7 -18 -25 5 -13 5 -12 34 17 -9 2 -10 -13 -21 -31 -16 -5 -2 16 10 7 16 5 -27 -4 -20 -24 -24 -19 -4 -12 -10 -13 2 -27 8 4 18 -31 21 -22 -9 -6 -20 -50 6 -9 -31 -18 4 -29 9 -10 -37 17 0 15 -2
-1 11 -3 -11 -13 24 9 -16 10 0 17 29 19 13 45 24 9 -12 23 26 13 23 -12 -10 15 -5 -20 -30 -34 43 -30 16 24 14 -6 38 15 14 -14 20 26 28 -12 5 -23 -46 2 -19 22 24 8 -10 19 12 -1 11 41 2 19 20 5 -8 12 5 24 14 -20 -38 11 -11 31 -44 35 -34 56 4 -6 33 14 36 2 34 7 -18 11 -3 -20 8 0 9 -13 -26 2 -22 19 4 -23 23 4 -13 1 -2 -15 -13 -6 -1 12 3 -15 10 -24 16 -43 -43 3 -5 -31 28 -24 -1 17 21 -8 -16 -1 11 22 29
13 9 -1 -14 2 -1 3 4 4 4 -19 -4 -7 6 -7 -17 -13 -1 -20 -17 10 -18 3 -11 -5 2 -3 -4 -6 6 3 -6 -8 -2 -10 2 -9 -25 -13 -2 -25 -20 -25 -27 2 -20 -8 -16 6 2 -29 -15 -15 -18 4 -17 -3 -9 -15 2 -4 7 -14 -11 -9 -17 -7 -23 -1 -10 -10 -5 -21 2 -2 8 -20 -21 8 -5 -11 -7 -3 -21 -19 9 -17 -14 -12 -18 3 0 -7 -7 7 -26 -1 -15 1 -9 -15 -6 2 6 -3 -8 -17 1 -4 -15 -16 -10 -14 0 -27 5 5 -12 -1 -2 -21 -4 -9 -9 6 -7 -10 -18
-12 -4 -13 -24 -17 -5 9 10 0 -5 -16 9 3 -9 -15 -23 -18 -8 -8 -19 -11 -21 -27 -16 -6 14 -9 12 -14 -24 -51 -25 -11 -2 -3 -35 0 -26 -9 -7 -26 -9 -20 -29 -31 -14 -23 0 -14 -15 -22 -9 -24 2 -16 -27 -24 -12 -5 -44 -11 -11 -13 -1 -34 7 -16 1 -21 -14 -16 7 -34 -32 -33 -16 10 -15 -22 -13 -26 -36 -11 -21 -21 -13 -27 -54 -17 -20 -27 -7 -9 -13 -29 -18 -25 -17 -3 -3 8 -57 9 -6 -10 0 -26 8 -9 -19 -6 6 6 -9 12 -5 10 -19 15 0 4 7 -9 -9 -4 -39 0 -3
14 0 20 1 47 6 -6 47 -45 -28 24 14 -18 -10 -22 23 -11 -26 -6 -5 15 1 -12 11 11 16 -34 16 -4 34 -22 -19 -13 5 -15 -3 24 8 17 14 30 -32 -12 25 -35 12 -12 -17 -18 -9 35 -21 37 37 18 22 18 -13 11 -23 -1 -16 19 -21 -14 9 6 8 -5 -20 24 -14 25 6 2 3 7 23 6 16 -29 -24 16 2 3 19 -54 10 -52 15 1 2 -54 -11 -22 -9 -21 -41 -40 4 37 -35 27 1 7 7 2 -1 25 -7 30 -11 -8 47 17 -16 -39 13 31 -13 7 -14 3 21 29 5 17 -35
-6 -1 -23 -2 -19 -7 -13 -28 -17 -12 -18 -23 4 4 10 -4 -17 -4 -15 1 -7 -9 6 -3 -24 -5 5 0 -9 -12 -3 -3 -13 -34 -6 -19 8 2 -20 -6 -22 -22 -4 -8 -11 -23 -6 -20 -19 -14 6 -24 -16 -18 -15 3 -2 -10 -12 1 -13 -8 2 -13 -10 -17 -19 -12 -4 -1 -18 -14 2 -20 -8 0 -5 -18 -6 -1 -2 -12 -9 -14 -5 1 -2 17 -16 -9 -12 -13 -11 -4 -3 -3 -8 9 -6 -6 -1 -6 9 -7 3 -13 -1 -5 -8 -16 -1 3 -5 -12 -16 -4 -12 9 -6 -10 -2 -14 0 6 -14 -11 -8 4
-43 2 10 8 11 -22 27 12 17 -32 23 -30 -12 -20 -35 16 0 -41 -31 -12 5 -26 -16 25 -6 -4 -9 12 15 16 -21 -40 -21 2 0 16 12 -27 9 7 -21 35 -2 22 -40 16 -2 -18 -12 -2 9 26 1 12 -11 6 4 9 -25 -41 -26 -24 -5 -19 18 3 6 -4 3 -7 -15 -19 13 5 -56 34 -3 29 10 6 -37 12 27 14 27 -1 -9 -3 -1 -44 12 12 -3 -3 9 -4 -14 17 -60 -6 1 -2 10 6 -33 20 -20 -48 35 27 18 0 -57 24 12 -12 -42 -18 16 -34 4 -4 2 6 -13 17 -19 0
20 -53 -20 3 19 22 -26 12 11 -19 0 -15 -8 -11 7 0 -2 11 -29 3 28 1 -31 28 -22 -16 2 -13 -9 9 -53 -18 -15 21 -16 -3 -13 -24 -30 -27 8 7 -8 23 -23 54 -41 -37 16 14 6 -4 25 -12 -17 10 -23 -7 -76 1 -6 -28 18 -37 6 10 12 -9 -29 15 -35 3 -23 12 21 -2 -12 -14 -20 -26 -54 -7 -6 -4 -32 -22 -5 -17 15 29 -16 9 -4 -22 5 -24 -45 3 -59 -34 11 -20 -21 -11 -51 -2 -3 7 10 -7 -4 -15 -35 8 -35 -40 -1 18 -4 16 -9 -6 5 -6 8 1 -6 -32
-3 16 54 27 12 27 36 -14 -19 -4 2 -3 12 -2 37 -1 -26 -32 24 56 13 -1 -5 23 -6 -29 16 14 26 -7 21 -16 -12 31 -3 -6 -12 18 -27 -21 17 7 23 6 36 -3 1 8 -23 -2 -17 3 8 -12 -7 0 43 -11 2 32 10 65 -28 -20 -1 26 8 -3 1 36 20 9 -2 39 -15 -10 -24 17 43 9 19 1 30 23 -2 13 8 -16 15 11 10 7 9 35 -17 12 15 44 -9 -1 15 22 10 7 30 26 28 -18 37 -19 27 -57 21 7 -29 -19 38 -28 -25 37 4 3 -4 -11 -25 35 4 -29
33 5 15 11 -32 28 12 -40 -21 -1 3 2 -17 20 79 26 -48 -48 48 42 4 -7 8 -43 19 -4 -11 -7 -25 27 -4 32 27 -2 -34 7 -11 16 7 28 25 -45 10 24 -1 -46 -38 -31 16 -20 -3 -7 24 20 62 -2 32 -2 12 40 46 58 -23 -15 -49 -8 2 -4 41 -8 25 -24 39 -8 67 -11 5 -8 26 43 3 1 -8 27 6 10 -22 2 -18 39 4 -15 -35 20 -1 5 -9 3 -20 -5 27 -12 -8 -13 -11 22 -6 -29 9 11 -9 29 -22 -59 -8 5 -38 -12 -19 30 17 -14 8 -15 31 5 -31 -12
-34 17 24 13 10 -15 -6 11 -5 10 8 -22 -32 11 15 35 -7 -77 -33 16 6 -6 -51 2 2 5 -30 14 -25 -8 -50 -47 -5 -10 21 -28 -5 -47 -3 9 -21 -46 -1 12 -31 -10 -18 12 -7 -5 1 3 10 31 -16 14 17 -38 -14 -22 -18 9 -19 -21 -34 -30 -8 14 39 -19 -39 19 5 -2 -16 -40 40 12 10 -5 8 13 -14 -11 32 -1 3 11 -6 -10 -22 -17 -47 -30 -9 -23 -20 8 1 -16 16 -11 -5 -66 -32 -8 -42 -45 9 -19 16 25 33 -25 -3 -40 -29 -32 -2 -10 5 3 -9 19 18 -25 -11 -41
1 -13 27 3 8 -11 1 -6 -14 -9 14 37 -48 -4 -19 -19 -4 -11 -19 -7 12 33 6 -16 35 2 7 -8 0 1 -39 -4 -12 23 0 22 8 -10 5 25 25 -12 18 10 -1 -26 23 -9 11 -8 10 -26 0 13 16 2 -3 -34 4 3 32 -28 -9 -4 -15 19 18 -2 9 13 -1 -19 12 -27 5 8 21 -8 27 4 -27 9 14 21 19 -19 -4 -6 23 15 6 -29 -36 5 4 7 37 16 -32 -19 24 15 36 1 -31 -31 23 4 -17 0 0 18 -68 7 35 -21 15 -11 23 -19 -7 15 10 2 8 34 2 -28
-20 20 -29 2 -17 34 -1 -23 37 -20 13 2 17 -32 -20 -26 -1 -23 -9 -21 -9 -14 14 7 -14 21 12 -15 24 -9 -8 12 -4 20 12 -17 -27 19 -11 12 -1 6 2 11 -8 -4 -33 6 3 29 -66 12 3 -29 -16 4 -13 22 10 0 8 -71 1 -11 -16 2 -9 -40 -60 21 23 -27 -7 -50 39 3 22 -4 -31 11 33 -13 29 12 -39 -6 1 -23 22 0 -13 17 33 2 -9 24 13 -8 -12 -5 20 12 8 29 6 7 35 3 -6 16 -44 15 -36 -29 22 13 10 25 -32 -7 10 34 19 -20 -14 28 -4 27
2 5 21 23 -22 -16 3 5 1 -1 28 -26 -30 8 -59 18 -12 -28 -7 -22 6 5 -21 11 -1 15 -16 -11 15 -17 -58 -15 6 5 26 -7 -10 -13 4 27 -21 -6 57 18 -13 -20 -17 -13 -21 -14 -34 -28 -3 -31 -39 9 29 -15 -7 0 -26 -35 -3 -7 -18 6 -18 -9 3 -4 0 14 6 -38 5 23 7 14 8 0 -16 5 27 1 5 -11 -49 -7 -16 -16 3 7 -12 13 -11 -3 -14 20 32 -10 18 -16 -48 -2 -25 -5 -1 -29 -18 19 -1 37 8 -33 -10 -26 10 -14 6 -28 29 -13 4 -1 19 -20 -20 -10
-6 15 1 25 20 -12 22 2 -3 22 -18 -17 4 22 -21 20 3 -9 31 -25 2 21 6 6 -25 -2 -23 28 14 -30 4 -4 -23 10 16 33 -20 1 -22 13 22 -9 52 14 30 -4 31 9 -23 -1 2 -5 -3 12 -21 -23 -18 -13 0 -31 51 -11 -40 -3 12 -15 10 24 -19 -3 29 55 -13 -5 17 19 -29 3 5 -31 -29 -17 2 44 1 36 11 21 12 -11 -11 -15 -7 50 -3 11 38 20 19 -18 12 8 8 -18 41 3 9 23 43 -53 37 6 41 -17 -6 -12 7 40 20 4 -9 -30 11 9 -18 -2 15 -39
27 4 1 -16 13 11 -43 10 -4 -38 22 -8 -21 -8 -33 4 8 31 17 21 -4 -6 -26 10 -54 -23 -17 7 6 -2 -55 -13 -26 28 -1 -24 20 4 25 13 -23 -3 37 -33 -23 -20 -39 -3 -4 22 5 22 10 -1 30 42 -13 0 -42 16 -20 -2 39 -16 9 22 0 -16 -11 7 -16 -15 14 3 26 0 -8 22 30 -21 -51 -23 16 -75 -11 -25 -4 -15 42 -7 -31 18 19 -67 1 -21 -40 21 -9 -28 5 -37 -6 -24 -2 3 -15 -39 -68 -2 -14 -10 -37 -20 -37 -9 3 -21 -23 16 0 -29 -14 -17 -35 -3 -27 -20
22 27 16 11 -45 -29 -8 -32 -6 38 17 -44 24 44 -14 54 -50 -5 16 -63 9 -40 -38 -24 -4 -10 4 12 2 2 21 24 -37 0 33 -3 0 26 13 -9 7 -53 14 21 13 -21 -33 10 11 -8 -22 -8 3 11 -50 2 23 13 -75 12 -5 -85 8 25 -21 -30 0 -11 -24 -63 -26 15 -21 -46 31 13 26 11 -2 -10 -9 15 14 8 -29 2 -50 -4 4 -25 -36 16 11 3 -25 19 20 32 52 -7 -17 -41 -11 14 4 -20 -16 -10 5 -9 -6 24 35 -10 -33 -29 7 36 -3 7 33 -52 -17 9 -13 -45 -11 -38
-22 -5 -17 -34 26 -8 -4 3 -35 -37 7 9 -61 -58 4 -16 17 40 -16 3 -9 -4 -38 -11 20 -32 -30 -30 17 11 -32 9 -1 -14 -19 -5 15 -70 11 6 -3 -14 -12 -30 -53 1 4 -33 -46 -27 25 -16 -21 -14 10 -26 20 -17 7 15 -60 3 24 -8 -22 -26 -2 12 0 -30 1 -12 16 -12 -17 3 -21 37 -16 -37 -46 -8 10 -32 -6 -20 -24 -2 -18 -9 -29 2 -24 -53 -30 -34 1 7 -35 -32 -11 -25 12 -34 -35 -55 -51 29 -12 2 -12 7 -21 -6 31 -2 -12 -18 4 -19 -4 -2 14 20 14 -47 -51 -22
-19 -4 -18 -27 -66 6 3 -7 28 -30 -5 12 14 -13 28 -2 4 -45 -6 40 20 -10 41 -18 14 18 30 19 14 -12 25 5 3 -44 19 -3 -18 -9 12 27 3 18 -27 -3 -51 -7 -35 5 -23 -16 -33 -44 -6 -9 2 -12 -14 -20 35 -1 21 15 -1 14 14 -31 -32 -41 -50 -25 -14 -31 2 12 3 -3 10 -10 -2 17 33 -22 -12 -7 0 -7 -12 -18 -19 3 -4 -13 32 -52 -31 11 -15 -6 1 0 -17 -15 -3 11 -27 -47 18 -46 -7 4 -10 16 -26 -8 22 36 -21 -3 10 25 -3 26 11 0 18 -24 -16 52
2 -10 -8 -21 -24 4 -10 -17 -6 10 6 -5 2 -5 2 -5 6 2 -3 4 0 -2 -3 6 -10 -23 -5 -4 10 -18 2 -13 -21 0 -25 7 -31 -20 -6 -25 -4 -14 -25 -5 -5 -15 5 -9 1 -11 -27 -8 -9 -10 -7 0 -4 0 0 -22 -23 -10 -10 -3 -4 -1 -2 -17 -6 -19 -13 -10 -26 -13 2 0 -1 -14 -22 -36 -19 -2 -6 -12 -19 7 1 -12 -17 -7 -8 0 5 -18 -12 -19 -15 15 4 4 4 8 -13 -10 -18 -25 -6 -8 -21 6 6 3 -16 -25 2 -4 -8 -14 -16 1 7 7 -1 8 -12 -21 -8 1
25 7 -37 -46 -26 1 5 -1 0 -46 -6 22 41 36 51 -8 4 8 56 44 -28 -4 26 16 36 -17 -2 -7 -70 22 16 64 -2 20 -44 -24 -3 -24 0 28 22 21 -29 -14 19 -29 6 -2 25 1 -43 9 -19 -19 -4 -37 34 16 26 33 61 45 26 -15 -12 7 -23 -29 32 -10 -27 0 23 31 10 -16 -12 30 36 6 17 6 -2 4 -5 -6 21 10 18 16 34 8 26 2 37 13 34 26 -26 30 -55 29 -28 -6 12 -34 26 8 -4 -26 -12 -40 -12 -24 12 -5 16 51 -27 11 30 -24 18 -23 0 12 29 18
-22 15 -23 -9 -8 -31 18 -56 21 -1 -66 52 13 15 21 -7 23 8 -42 11 -7 7 -12 -43 29 -13 -16 20 -31 -13 32 47 -8 -5 -40 -36 -19 -36 16 12 -21 16 -13 -26 10 12 43 10 25 -35 10 6 -3 -4 3 -28 -18 -9 -7 44 -50 71 -31 24 27 -9 -19 20 32 1 -43 -5 17 49 46 -24 6 -19 22 10 -9 7 -17 3 5 -36 -18 7 -21 -9 44 -6 33 0 14 -15 -14 0 -10 14 -2 19 -7 1 -48 -18 -22 -34 16 -4 -30 -5 -20 -20 -28 23 15 34 -17 -22 -16 -9 -30 -35 -12 -17 -4 7
-25 -16 -19 7 -14 14 -14 -15 -11 -1 2 0 -7 3 4 -10 -4 -4 -13 -8 -14 -7 -4 -13 -6 -5 -8 -17 -7 -29 -15 -10 -9 2 8 -32 -27 -4 -18 -6 0 -13 -27 9 0 11 -22 -9 -13 -5 -8 14 -22 -8 -5 -11 -9 -19 -6 -22 -6 -11 -7 -7 -15 6 -30 3 2 -20 -7 11 -26 4 -23 -19 -3 -3 0 1 -9 9 -17 -20 4 -16 1 -2 -16 -1 -15 -22 -2 -25 -30 -28 3 -14 -18 -3 -11 -8 3 -1 -20 -11 -13 -13 6 -22 -12 -25 -8 6 -20 0 -4 -15 -33 -18 -16 -31 -22 -8 -15 -20 -9 -5
27 -23 -22 -8 11 68 1 20 2 -16 -14 -19 -11 -8 55 2 -34 -11 13 18 -24 7 -13 5 2 -15 28 10 16 5 46 79 -16 33 -10 25 6 10 -21 11 27 -25 2 4 38 27 12 -42 -30 19 5 -1 -7 -17 36 -9 -14 -7 -7 97 31 7 35 -15 17 8 29 17 30 -8 8 15 -5 31 55 -12 3 -4 -5 21 -42 -3 -1 33 -22 -10 19 8 -3 18 37 19 -33 -15 3 24 13 16 -28 -60 6 38 -7 -28 -21 -18 43 -2 4 9 -14 -10 -12 33 23 7 25 38 14 28 14 -8 -15 22 -7 42 10 -7
-19 -3 1 -35 -16 5 -28 -19 -7 -1 11 -26 -3 -21 5 -34 -17 12 -23 -2 -21 -4 -19 -19 6 -16 -7 3 -10 -44 15 17 -20 -38 -7 -15 -21 -49 -29 -26 -16 -12 -15 -2 -30 -47 9 -3 -17 -30 -13 -8 -6 -31 -4 -43 5 -25 -9 -30 -29 24 -47 -14 12 -15 4 -30 12 -42 -15 15 -28 -27 18 -24 -10 1 22 0 26 -2 -11 19 -8 5 -33 8 -24 1 -15 -19 -31 -6 -19 9 21 0 -2 -48 9 -16 1 -28 -57 10 12 -51 -13 10 -2 -23 -24 4 -9 -31 7 18 -11 -27 11 -34 13 -35 -26 -26 -19 -18
-24 -32 -40 19 -3 -40 37 -25 19 24 -18 21 37 -8 6 8 16 -29 12 -44 5 2 -5 16 -7 -1 9 25 -30 -41 21 9 -9 -1 -3 21 -36 23 -24 -31 29 -10 -13 48 34 15 -28 36 -12 -4 -13 6 35 -19 -16 -33 36 -17 -28 -34 18 -44 -4 8 19 -28 12 -14 -21 18 17 47 -40 11 -1 13 -18 -21 26 -19 2 2 -22 38 15 55 -32 12 -39 -16 -41 -7 18 38 -8 5 15 2 17 12 28 0 -18 18 9 34 -7 1 37 -33 22 -16 35 20 -39 24 18 8 -23 24 -1 -5 -5 -7 -19 -27 -7 -18
-14 -16 23 16 14 -51 20 24 40 -6 -2 -44 16 -46 -33 12 -17 -27 -43 -53 16 11 -8 22 -27 16 33 -7 4 -21 12 -20 -31 -87 -27 33 3 45 6 -13 -23 31 -21 13 26 17 -2 -4 -3 23 11 20 17 2 -49 47 21 18 -17 -33 -2 -1 19 12 14 4 6 -10 16 -8 15 -20 -22 25 -127 -22 -32 -30 34 4 -10 -58 -13 -4 29 12 30 -1 16 -19 13 48 15 18 -18 -28 39 -34 10 -15 24 -3 -18 27 26 21 -64 -23 -13 14 18 7 -17 3 -51 -2 -4 -89 12 -72 6 38 -14 -8 -6 -46 13 8
-26 3 -72 -22 -35 -37 -24 -51 -2 -15 2 1 -3 12 -55 -33 22 42 30 -23 -39 28 -10 -48 -51 -27 14 -23 -29 -24 -17 10 -12 -26 -30 -18 -33 2 -51 -3 -59 7 -50 -36 18 -16 43 -29 30 -22 3 -22 -36 -37 3 -33 -9 18 11 -3 -5 -23 -26 4 39 -26 -10 -39 -33 3 16 -32 -38 -33 10 -18 -28 -16 -62 -33 -2 -19 -14 -7 4 -75 33 10 30 29 15 -1 32 -6 9 -21 14 -7 -17 6 -48 7 -57 -46 -1 -27 -29 14 -61 -24 -21 -40 -31 -4 -44 -41 22 18 -27 -45 -20 -18 -27 -11 -33 -13 1 6
2 -12 -19 0 -3 -5 -12 11 -21 2 -11 -5 -1 -18 -20 -10 -2 -6 4 -22 -15 -21 -17 12 -10 10 -19 10 -6 -22 -4 3 -2 5 2 -1 -13 -8 4 1 -17 2 2 1 -8 1 3 -12 11 -17 -17 -12 -5 -19 -13 -21 -25 -22 -13 -20 0 -6 -14 -16 -9 -24 0 -5 6 -5 -14 -14 -11 -29 -7 5 -26 -12 -14 -1 -14 6 -19 -11 -13 5 -21 7 -30 4 15 -10 -3 6 -9 3 0 -21 0 -12 0 -24 -10 -9 -15 -13 2 11 -12 -9 0 8 -27 -7 -18 -1 -11 -9 -3 -20 -6 -4 0 2 -6 -21 -11 5
-16 14 23 20 -12 -28 -13 5 -44 13 7 31 -6 24 -45 13 -25 -38 8 -41 -3 15 -3 -8 23 -2 -20 26 31 -6 -23 -45 -31 -17 21 3 12 -13 10 14 -8 -32 -5 9 4 -21 -35 -17 -3 -17 3 -29 -23 19 -15 15 31 -5 -20 -44 16 -46 1 -31 -4 -16 25 -3 -19 0 9 30 7 -38 -12 -20 30 -19 -24 -26 -42 -25 3 -12 25 -10 -19 12 -52 -6 -15 -33 -64 -3 -11 -37 -21 -34 14 -26 30 -27 27 -7 -3 4 -55 -1 -8 -4 12 42 22 21 28 -40 -25 -12 20 -3 15 -3 -14 24 -8 -25 -21 -62
-24 -5 -18 -6 2 -12 -17 -19 -19 -18 -17 5 0 -10 -3 -3 -14 -3 -10 4 -3 -5 -12 -1 -1 -14 7 -6 -22 -11 -15 -12 -14 -10 3 -13 -11 -6 -5 -3 -7 0 3 -18 -15 -13 -13 -7 -10 -14 3 -10 2 -14 3 -15 -5 -13 2 -10 -8 -18 -7 -14 0 2 -3 -22 -15 -1 -15 6 0 -8 -10 2 2 -5 8 -22 3 -2 -17 -5 -2 8 -6 2 -17 3 1 -11 -12 -17 -4 3 -6 -8 -17 3 -7 -16 -10 -11 -2 -8 -19 -8 -6 7 -11 -14 3 -19 -2 -11 -8 -7 4 2 9 1 5 -12 2 -3 0 3
-1 10 6 21 -39 -50 -29 -7 3 12 6 -4 -2 29 -15 11 -30 18 -20 -56 -37 -14 6 18 -10 18 -20 48 -9 -14 -36 -28 -9 -11 7 24 -16 2 -3 -5 -12 -34 17 3 -21 12 -21 14 25 39 16 6 -5 26 -19 -2 -26 23 -14 -31 0 -53 -5 16 -8 17 -9 1 38 -53 -29 18 18 -49 15 -4 7 -14 -5 14 -6 11 22 -29 2 -22 6 -9 10 -47 6 -14 -39 -15 18 8 -10 -44 12 29 28 -37 -20 -43 1 -3 -27 -14 -7 -18 20 26 25 -57 20 -19 -42 14 10 -9 -22 -27 -8 -37 4 -28 3 -30
-27 -8 -3 -2 10 -35 35 -17 -15 -26 -17 -42 -3 10 32 2 4 -63 -5 31 -41 -39 -35 36 -14 -28 -34 -37 -3 -22 8 -8 -19 -4 -40 -4 -28 -27 16 -33 14 9 -9 12 10 1 7 -27 0 -2 4 -14 16 12 -16 -37 -22 -13 -3 -3 -3 12 4 -4 -22 -18 -4 10 45 13 10 8 -3 70 -25 -22 -33 -5 23 11 3 -20 -15 9 -31 -6 -27 -5 -6 27 3 38 -24 12 -17 -11 15 10 -6 -20 9 -6 -11 24 2 -8 -18 -84 41 -21 3 -36 -1 -8 -49 3 23 -9 -25 -21 -23 -2 -8 -26 10 -16 -7 9
-3 3 1 -14 -13 -12 -40 8 -6 -18 -21 -9 3 -8 2 -7 -14 -6 -8 -13 -13 5 -21 -22 8 -6 -8 -8 -12 4 -19 -2 17 -3 -12 -20 -26 -8 -24 -17 -31 11 4 -10 -24 3 -13 2 -18 -2 -12 -12 -25 -20 12 -11 6 6 22 0 -6 -19 -23 -18 -6 -13 6 -11 -6 -24 6 -13 -12 3 -3 -5 -4 -4 -8 -3 13 -34 -18 10 13 -11 -13 -6 -3 -6 -20 -11 -5 -4 -10 13 -4 -7 -1 -7 -5 -10 -11 6 -2 -4 -3 -24 -3 -10 -23 -13 -18 -10 -8 16 -5 -18 -15 11 1 -9 10 11 -10 -8 -27 0
0 -2 -49 -37 -18 -8 -17 -27 25 4 -5 33 4 -39 9 5 5 2 5 -26 -50 -37 -3 -33 9 -5 -4 11 -35 15 -35 -15 -5 -21 -19 24 -27 -8 1 -20 -14 9 -14 -4 -15 -14 -20 12 -15 -16 -14 2 -9 -10 21 -34 22 -14 -29 -29 -21 -16 -24 44 1 -32 -38 -44 -12 -34 12 -38 -3 -30 -14 3 1 -12 -3 -18 4 13 19 -7 -43 -7 -37 -6 -41 21 -25 -3 22 -35 -1 6 -34 0 5 15 14 -49 29 15 7 -16 6 -10 -7 -9 -46 -28 -50 -18 12 31 -34 -12 -14 -3 9 4 -8 -28 4 -21 -30 45
2 -9 -20 -11 -17 -4 -7 -11 -19 -14 16 -28 -25 -16 -4 -3 -7 -16 -2 8 8 -10 18 2 -11 1 -6 -22 -30 -27 -8 7 -20 -6 -19 -22 -23 -17 -26 -2 1 1 -35 -6 -16 -11 -7 -5 -1 18 -15 -14 5 -22 -25 -20 13 -17 -13 -18 -21 -2 1 6 14 -2 -2 -10 3 10 -41 -28 -3 9 20 2 -14 9 13 11 2 12 -13 -13 -29 -8 -15 -4 -26 10 -21 -18 2 -26 -10 -29 -33 22 -18 -16 2 -23 -2 -11 -2 -6 -24 -5 -4 -29 -26 -17 -32 3 2 -10 -1 -13 -13 3 -13 8 4 -26 4 -3 -20 1