-0.2063809633255005 0.1339731216430664 0.00030167214572429657 -0.008519782684743404 0.12224411964416504 0.014155957847833633 -0.2061099112033844 0.08459127694368362 0.15218570828437805 0.025015918537974358 -0.08885928988456726 0.1096944659948349 -0.07098173350095749 0.013520331121981144 -0.2143159955739975 0.04352753981947899 -0.28770628571510315 -0.05122437700629234 -0.03020692989230156 0.06043688952922821 0.0590922012925148 -0.023109694942831993 -0.07316291332244873 0.22553807497024536 -0.15700946748256683 0.27934780716896057 -0.06800702959299088 0.005824776366353035 -0.13229411840438843 -0.005502923857420683 0.3274519145488739 0.1134234145283699 -0.19536565244197845 0.18325406312942505 0.02453283593058586 0.013036932796239853 0.058667853474617004 0.04463673755526543 -0.0007871435373090208 -0.1424151062965393 -0.0343070812523365 -0.15568028390407562 -0.16801659762859344 -0.00879224669188261 0.12771211564540863 0.1631450057029724 -0.08466597646474838 -0.12495086342096329 0.05212603509426117 0.10137887299060822 0.20070448517799377 -0.0184482429176569 -0.05596824362874031 0.005710950121283531 -0.07357717305421829 0.20891281962394714 -0.012771829031407833 0.04453080892562866 0.13847410678863525 0.03502868115901947 0.07070539891719818 0.0485503114759922 -0.12172768265008926 -0.03125624358654022