13 -3 25 41 40 22 8 -16 -1 -6 -28 -3 19 12 -19 -13 -21 -1 5 -5 -21 -22 22 -3 -20 8 -11 -1 -6 -26 21 9 10 -28 57 18 4 -12 -5 12 46 9 -7 -20 -27 -2 5 -9 -7 24 1 28 -33 13 -68 -9 -24 8 8 -12 7 -35 -18 -34
-33 13 -28 28 28 -11 -17 15 -9 10 -63 6 44 0 5 2 0 53 3 -52 25 19 -36 -37 -46 -57 -51 -48 -24 -58 -61 29 -52 -1 33 -55 -40 -78 29 4 33 0 -40 -38 -17 41 -44 29 10 1 -12 -59 0 43 23 -16 42 14 -10 25 27 61 -1 31
6 27 26 -15 47 55 -34 15 -31 49 19 13 -37 -33 -32 -33 11 -5 -43 19 3 19 -22 -40 7 -46 13 -37 51 -11 -22 -40 19 15 -51 -18 28 -7 -47 7 -43 -3 1 -38 27 -35 -11 -35 -45 6 28 22 10 -20 48 -12 -2 -22 53 16 -29 40 17 -40
27 41 -31 -16 12 -62 3 40 -6 7 1 17 42 -10 23 45 12 -22 -31 66 -28 26 29 -7 -23 -31 -33 -11 55 75 0 -24 -15 12 22 9 -12 -16 9 -11 4 18 -25 -1 37 16 37 20 -7 -58 12 6 49 51 9 -11 -29 39 -12 -29 35 5 20 39
5 23 -21 -4 45 6 -13 22 35 -26 -9 29 -8 -20 3 -27 -46 11 31 -28 -58 50 33 19 -67 17 -45 -34 -36 5 57 -1 -7 -23 -22 -24 -26 -10 -3 16 38 -11 -52 -35 24 -21 32 -24 34 -45 29 -13 -54 5 -26 -20 -48 42 16 -10 20 -8 -31 -11
-4 6 -22 19 3 -71 -24 -93 -3 46 48 65 74 45 -3 74 -17 -4 42 14 -26 0 2 58 25 -28 3 21 -19 -35 -29 52 -4 22 3 -7 -9 -7 -13 57 -24 -13 24 16 31 -10 -13 -9 -29 -2 3 -9 22 14 21 42 -20 7 -15 32 28 13 17 -8
34 39 25 9 3 21 11 -12 -18 -21 15 -6 -37 -37 -49 13 -34 23 -6 8 38 -3 -8 44 13 31 14 55 0 -1 -16 34 -15 3 -12 0 -18 -37 14 4 32 56 -20 -24 28 34 -23 -44 -28 26 -29 22 37 -4 26 12 9 -3 -16 -37 18 2 36 -10
39 21 -29 53 14 61 -24 51 -14 -44 -12 -30 57 8 95 -44 -21 -38 -28 8 0 55 34 -37 -11 -69 -34 -49 21 -5 -9 28 -39 24 32 -16 -78 -70 -36 -32 -83 33 4 24 11 12 -7 -54 -8 -2 36 21 35 -8 -16 -5 -22 35 37 -3 11 9 -21 51
4 -24 -40 -7 42 -52 43 34 59 -59 15 -8 4 -26 -22 20 51 -36 -52 36 0 -30 -29 -24 -31 21 16 3 -11 -5 -24 10 27 30 -18 -31 -31 -59 -33 -13 -17 15 41 -69 -36 45 6 -30 38 -17 -36 -1 -8 17 -10 -6 23 -34 -21 -35 18 -15 -21 12
-15 30 15 37 -2 -3 -7 -52 37 29 -17 -29 29 21 -62 47 7 -12 5 20 -30 64 15 23 -33 -21 -21 4 13 8 18 47 -11 1 8 1 -14 -11 -51 -33 84 20 9 -42 53 -17 27 16 -25 -19 -28 21 10 17 29 -62 -14 -4 -13 -28 16 24 0 6
-4 -10 1 -22 -47 -7 37 22 21 9 17 -62 -46 -49 -25 23 13 -13 -26 11 -7 -5 -28 -6 5 -3 17 26 51 36 13 1 -56 -20 -28 -2 -9 33 -15 82 -43 -7 1 38 14 21 -84 19 -16 26 36 23 39 -34 -16 16 26 53 1 -8 -18 -40 31 -22
-36 -19 8 -14 33 22 -78 6 -11 59 -1 29 -38 20 -43 -76 -65 70 63 -52 -10 35 -43 17 -55 3 -19 -11 -42 -34 48 27 29 25 26 36 -20 -10 -118 -60 64 -7 -68 66 6 -2 3 48 -35 9 27 -33 29 -25 9 1 -8 13 31 -14 -26 -9 35 -20
-21 7 -20 -34 -39 -20 1 -25 -32 54 18 11 -7 3 -30 64 0 -56 -41 -8 1 -2 -55 -36 -32 14 -35 -33 -3 3 -15 29 36 4 -27 -11 94 68 69 19 -68 9 63 11 -50 -15 31 3 45 -54 24 30 -8 -46 -2 -20 7 -7 -16 66 -14 7 -26 2
53 40 -46 -43 -4 -17 -1 25 22 -44 -21 -34 6 -36 28 -8 17 23 35 40 -29 51 38 -19 35 -81 -20 -37 53 0 -89 -27 -10 17 -30 -16 27 10 44 1 2 15 30 -19 4 -20 51 -25 -26 22 28 -50 27 18 -7 -3 -40 25 -21 -45 53 -14 10 -7
1 -1 -6 26 -11 -5 29 66 38 -13 22 -36 -15 -40 40 -21 -27 14 -25 -46 28 78 -3 -13 7 -50 28 12 -13 -69 4 24 8 4 36 -12 -9 -15 -32 -30 -24 -5 23 26 -50 -12 4 1 43 49 -37 4 5 -14 -16 -13 -15 -63 -3 -66 -43 -43 9 -59
12 23 -42 -23 -25 -40 55 63 66 -90 -11 -28 36 -45 46 -17 -40 1 -12 -35 22 33 8 -20 -29 -19 -8 -58 -1 0 4 35 4 -16 -11 19 -8 -18 67 -9 18 30 6 10 14 -28 18 -24 -47 55 28 -24 -9 9 -25 22 -43 2 1 -22 -35 18 -2 -6
5 33 48 -44 -23 -1 9 4 48 -29 19 -9 -79 -31 -50 4 -8 -28 -32 -10 16 21 40 29 24 -51 -21 -35 68 28 -25 53 -23 -4 -51 9 -6 2 41 23 36 51 5 -37 54 -7 -9 -45 40 44 -44 -11 -3 19 -19 39 15 -1 -8 3 17 -41 -6 -32
41 30 39 -46 39 45 -12 -9 -3 0 -62 -16 38 -46 35 -64 -17 0 11 -31 -5 -28 -11 21 29 -67 -5 -17 -6 17 30 -9 -28 -39 63 14 -33 -5 31 -6 1 -20 -85 54 65 44 3 28 -23 53 4 -12 20 10 -2 35 -20 12 9 -11 15 -26 -8 -4
22 45 7 -91 -16 16 -8 41 -43 26 -49 -47 5 -61 -28 4 -44 11 23 -3 -28 1 -28 3 12 6 13 26 -6 -43 31 9 36 -66 -59 7 88 54 -10 12 29 15 -72 -14 25 -37 5 16 -77 36 14 -11 61 42 -15 37 -12 56 6 -13 -31 -9 -2 55
9 30 -22 -34 -12 -13 21 31 6 -17 30 16 4 27 -5 -16 -16 -9 -9 8 -29 25 42 -15 -28 -15 -7 -1 20 -7 -31 12 3 -2 -7 -9 58 44 -46 25 -108 22 69 52 -46 -52 4 5 -1 -33 42 17 2 9 -23 11 50 -25 20 9 19 32 39 -39
-66 -26 1 40 -30 27 -35 -8 -39 28 -47 3 -36 10 -14 -44 26 7 25 -27 18 -36 9 -44 2 3 37 23 -18 -1 13 -42 24 -39 -40 4 45 57 38 16 -27 -18 46 -3 -33 -18 41 3 14 -46 -18 -15 -53 67 -15 36 -20 -17 -15 -66 50 0 15 56
-36 -22 41 -19 -25 48 -8 42 -7 -23 -20 -7 -85 -10 -13 -77 -30 11 13 -1 21 -3 7 -26 -13 -20 -32 -25 59 -12 -12 13 -26 41 21 20 -28 16 18 -44 -54 -21 15 37 36 55 6 -40 -30 22 -17 28 17 -24 12 24 -35 -24 -18 -14 -8 -20 20 -54
10 -22 14 -26 -24 -59 0 -21 -11 29 21 17 -4 51 -6 -18 -6 16 16 24 -10 13 30 29 -5 -51 -39 0 5 -21 -10 23 34 -41 -48 53 80 71 58 87 -65 -18 45 19 -20 -52 7 8 -19 -18 2 -21 -28 -60 21 -14 35 -39 38 33 4 18 -13 -32
-7 47 -14 3 68 6 -29 -67 5 48 -39 68 23 29 -63 11 -6 -39 0 -30 -4 -24 -62 -23 -1 41 10 19 -39 23 3 -50 11 1 -36 -26 30 -32 -52 -47 58 16 -52 7 44 23 -33 23 29 -1 -36 48 -46 25 19 -26 -52 -47 -28 31 -35 -30 -10 -18
7 11 -21 -2 16 -13 21 28 -1 21 -9 -55 35 -61 7 24 32 -35 -24 38 -29 68 -28 -27 35 -40 -32 8 45 19 0 56 20 15 -6 -14 -11 -17 -41 -32 8 38 -12 2 40 -19 14 4 -52 -10 5 15 16 3 23 -45 29 24 5 -38 -31 -15 42 -33
-15 -1 28 -42 16 -5 -65 5 -29 78 -8 32 22 10 36 1 22 -1 3 -19 5 -61 -40 -11 36 49 33 14 -26 -7 21 -56 11 45 -3 32 26 19 -33 -80 63 10 -109 40 34 82 49 47 -9 18 5 -15 -15 -10 8 -30 -14 31 4 30 -13 24 -15 16
2 -57 -1 -47 29 10 -3 76 1 -6 -26 -58 17 -31 18 -34 26 -53 -10 -21 -18 -6 4 -10 0 24 0 14 -24 -23 -16 42 12 -18 -9 -15 -38 -25 20 39 4 55 12 -31 -1 -21 -28 -40 -17 22 22 6 65 51 -23 35 -3 37 -10 -40 -2 -5 27 22
45 4 -70 -39 -49 -56 41 -70 9 -19 76 -39 8 25 47 99 10 -27 3 5 3 -18 33 -27 5 -14 -8 -36 39 24 -21 -58 -58 -23 2 -58 -10 2 57 58 -71 -50 87 14 3 -3 -85 -11 -6 16 31 -36 25 -56 41 34 26 -29 13 73 -9 -18 24 -46
-13 -10 39 -34 -2 37 38 -5 4 2 22 29 -81 10 -28 -29 -8 4 -55 -2 -66 -35 18 -39 -61 70 -20 29 -3 -13 9 -22 17 15 31 -33 40 45 7 -6 2 -30 8 38 -25 -2 5 64 -26 61 27 -23 11 5 15 16 28 -28 -10 9 -7 -23 61 -25
2 11 8 6 -29 30 36 42 34 11 36 -34 -30 33 -34 -24 -21 -25 7 4 -36 13 62 14 25 0 12 12 -7 2 34 14 67 16 30 44 27 44 6 27 -38 -25 20 39 -46 -27 4 23 43 17 12 36 24 19 8 3 -6 1 -19 13 -16 -18 16 -33
-37 -28 -52 -7 -55 17 26 -5 47 -36 26 22 -6 7 4 0 -6 48 36 -7 4 -6 -49 -79 5 20 35 -31 -2 35 12 -69 35 2 -3 8 -5 8 23 -49 -33 -28 -2 38 29 -14 24 27 63 -33 -7 -11 -12 2 -37 20 -37 -69 20 30 5 -31 -5 35
-5 -7 43 -71 -25 19 -29 28 -27 34 14 3 -6 -17 25 -66 20 -8 -2 -49 -20 18 -55 -42 10 2 -6 -57 21 50 1 -50 -10 63 33 8 -25 -31 -27 -54 12 -8 -49 22 16 13 33 11 5 -26 -11 -2 34 -31 -25 23 1 -26 -18 17 -11 4 22 27
-19 -1 56 24 21 -27 25 12 29 -16 -4 -44 -35 11 -35 -9 -33 -11 -24 -11 5 22 29 26 -19 10 -3 6 -3 11 -14 -3 8 -51 0 1 43 21 2 83 -65 6 83 1 -57 -81 -1 13 -6 21 -38 36 -12 6 16 -4 2 -64 25 25 -4 16 18 13
-18 41 3 23 19 45 9 -31 27 -22 -17 19 15 -8 -49 -30 46 2 22 27 -39 -5 26 27 45 37 39 2 20 43 8 -24 -45 14 16 -59 -67 -59 -16 -30 7 15 -24 -60 39 59 -5 0 -17 30 25 -12 -13 9 11 0 -3 4 -27 -62 10 -4 -7 -33
24 4 -3 -54 -9 -22 28 2 3 -19 0 -41 -6 -14 52 1 51 7 -60 1 47 -47 6 -28 14 34 28 50 -9 -33 -6 -29 -62 -20 10 7 -69 -61 83 16 6 3 -42 -27 43 27 -18 -42 -3 -14 57 8 -5 -25 -9 1 0 37 43 40 2 4 -53 -8
14 28 3 -21 3 1 36 -3 -6 18 44 -13 -31 -61 -32 -3 45 9 13 2 3 -13 -6 34 42 -65 -43 16 53 7 -38 -4 52 -34 -51 -1 44 1 -56 32 -7 -43 14 46 10 -43 -18 -10 -5 -9 -1 -15 4 11 -16 -6 24 -17 -18 29 19 16 -8 26
29 3 41 25 26 6 -1 5 0 9 -24 -25 -11 -14 -22 -29 37 -49 8 -2 8 -72 60 58 33 84 20 53 36 53 63 -21 21 -17 19 43 -3 44 9 13 -14 2 80 24 -59 -60 34 -18 -28 -10 42 6 6 -26 25 14 14 -12 12 69 8 3 -30 -70
2 10 23 33 -13 -49 -22 -29 -40 19 -17 34 32 24 -6 -23 -36 9 32 21 -2 16 27 40 -18 38 -35 27 -7 -31 -31 26 6 -42 44 30 15 19 42 86 -58 -48 38 64 -46 -8 18 25 33 34 14 -3 -12 -62 9 43 84 -65 70 70 -7 44 25 13
30 32 4 2 75 -11 -52 -33 -47 79 -3 17 43 -29 5 -1 -47 40 38 -30 -27 22 29 -11 -53 -3 20 -56 -57 -17 29 28 -17 -35 -7 -6 0 32 -2 35 31 -34 -44 78 49 -25 -60 38 14 -45 60 -8 0 -5 -33 20 36 56 -35 -36 47 15 14 -3
-11 -25 16 17 -31 57 30 13 14 -3 -28 -21 -24 1 -10 -33 17 -69 -78 -8 -43 23 4 -54 -49 -42 5 -19 -15 7 -2 16 -25 12 18 31 -41 -25 -13 -24 6 -7 -2 -50 -46 34 35 -44 -12 -25 30 34 -11 -12 59 -33 -90 25 9 64 -48 3 -20 70
-44 32 -4 -30 13 2 38 -25 4 13 0 19 -35 -11 -65 30 6 -42 8 54 -34 3 -51 6 20 9 -62 0 35 28 37 40 -14 -7 1 -4 -13 -34 -16 -49 74 15 -30 -40 63 33 37 -25 -6 2 -7 15 5 27 38 9 -11 35 -34 -57 -11 -16 17 29
0 -20 -6 18 -71 -29 34 -21 19 16 36 -2 45 69 33 18 3 -5 -19 4 6 -3 34 27 28 -9 21 -25 22 -26 -26 -23 22 -15 54 59 54 17 -57 5 44 49 2 41 -60 -66 49 27 13 -88 27 -14 18 43 -27 -75 25 47 5 2 61 10 -32 -4
42 22 25 24 46 -81 15 -21 -3 -9 0 -26 14 32 -29 79 -33 -12 24 26 26 -34 -46 4 6 3 16 3 -5 14 39 13 -16 -23 14 -20 -16 21 64 45 47 -19 18 -29 -14 -32 -37 26 -21 -66 -8 20 27 54 20 -21 -4 30 4 -1 -11 30 9 71
-22 -21 -17 -10 2 50 36 87 70 -46 34 -5 -90 -62 -22 -39 75 14 -5 22 -1 -36 -12 -29 10 71 40 21 29 -6 -51 -5 49 -4 0 15 1 5 -25 -38 -20 27 29 -24 -36 3 39 11 37 -3 -13 41 -27 15 13 -23 28 -6 -28 -4 -12 -6 -24 -33
-23 -14 -2 -2 -72 -62 26 -21 32 -22 71 -18 11 51 -10 65 -12 -54 18 12 -3 -25 17 9 -1 7 18 -6 -23 -3 -32 -12 -10 -33 -29 -26 -15 4 28 -22 -39 -10 -22 -10 37 -29 10 -51 -9 -8 24 18 -4 21 -26 -26 -27 22 -36 4 47 0 -57 21
-1 43 -12 -34 8 -17 41 -29 7 -24 28 -3 -17 -5 -2 31 49 47 49 45 8 -47 -75 38 54 -7 -3 62 0 19 -21 -5 -22 54 -4 15 26 15 7 17 -10 26 3 -21 -36 34 29 7 4 15 -54 -17 -1 1 -31 40 23 -50 27 -9 28 6 27 32
-14 -56 46 31 58 68 -47 20 -20 55 -59 27 -42 -5 7 -58 -5 47 -22 -23 34 25 -15 -10 15 -13 31 23 -26 -55 -32 19 -53 -8 17 -5 -35 0 4 -20 8 -7 -73 9 2 3 -11 -22 -37 21 -2 29 -19 -9 12 41 -32 -4 -4 -24 -14 -1 27 0
4 -71 7 -74 -23 -17 -14 22 -20 5 0 -15 -68 0 31 -24 27 23 -44 0 -3 -50 31 -28 4 10 57 44 10 -5 14 -17 66 -10 -18 37 46 89 12 -43 -39 -11 -1 -4 -15 -68 107 1 -19 25 38 -19 25 -53 19 21 16 -9 -31 7 13 -26 -11 -30
9 6 16 59 -42 -8 3 -18 -32 14 -33 49 25 46 -6 24 46 -37 -53 83 -23 -19 -21 28 42 5 -27 -7 34 34 18 -6 -21 23 19 8 18 33 1 -1 48 -35 -19 83 -29 -13 -27 46 42 -24 -41 22 -55 50 -24 65 17 -2 -18 -22 66 -21 25 1
10 6 -50 37 -10 9 28 -41 -11 -9 21 34 28 62 35 -21 -42 24 29 7 -11 1 6 43 13 -41 -42 -26 -22 -21 4 45 -37 34 48 -11 -50 -59 -3 -27 -49 2 26 17 2 38 0 9 4 -8 -33 -4 -38 19 24 -12 -54 -17 16 5 16 -4 5 29
-21 14 39 30 16 33 -28 -13 -24 36 -15 47 -16 32 26 10 6 -11 28 48 -19 29 -24 -3 53 -63 -29 -27 40 29 -20 21 36 -14 -15 -36 -18 -26 -23 7 -10 19 -23 -34 21 -44 30 -14 -32 -25 -15 -8 -18 -14 -15 -12 -27 17 9 -48 19 -27 -24 15
-30 -44 31 16 -47 32 8 36 38 -59 13 32 -55 -17 51 -66 -10 27 49 -5 23 -7 -7 81 10 -14 7 15 28 8 -48 18 -34 28 30 9 -13 10 58 13 -15 14 36 24 -50 51 1 3 23 11 15 -17 -31 24 -32 -7 27 54 -16 -19 30 -17 -37 -11
4 -3 -18 16 30 34 30 -2 60 1 -22 4 -46 12 -59 -1 -65 47 15 -79 48 7 -23 -43 -30 4 3 15 -80 -39 16 -45 25 6 -23 -16 10 12 0 -43 25 -50 7 23 14 -11 33 31 -23 -4 -13 2 13 -11 -36 0 -46 20 -8 -4 1 -9 -20 33
56 -6 -30 -62 -31 -12 -10 9 -26 4 -52 -36 65 -72 43 16 -49 15 -17 -73 -14 27 -1 -58 -63 38 40 -10 -52 7 67 -7 -44 -24 -22 -38 -69 4 32 28 -6 12 21 -2 45 32 -102 -5 -42 -38 -1 3 33 -14 -12 -34 10 43 7 18 -33 15 20 28
80 12 17 -4 -8 24 -22 73 -21 -9 -29 -14 52 -44 88 -30 83 -30 -44 76 12 -61 -1 -16 41 22 -11 26 101 2 -24 -27 -32 19 80 -6 -83 -5 -4 -20 49 19 -42 -15 12 75 1 34 3 40 -20 -13 -34 -54 6 -40 1 18 13 30 -44 15 -10 -33
-41 -26 6 1 -1 46 25 11 38 -47 22 -19 -86 -21 -45 -6 21 1 -35 27 12 32 8 1 50 -14 12 -21 91 -38 -84 47 22 0 -16 -54 53 39 -37 19 -45 -45 1 -10 -15 21 -58 -3 -20 13 45 -11 4 -2 -3 21 12 44 -2 -7 -22 0 -11 -29
17 1 12 -10 -3 -17 -29 -3 -15 32 18 -29 52 5 -13 20 32 12 25 14 16 -58 -39 -2 55 -40 12 1 4 -28 -21 -30 -18 24 -6 -13 -8 0 5 -32 41 47 -53 0 53 50 -20 -14 -33 16 -7 33 12 21 -5 5 13 27 -58 -10 43 -25 33 30
17 22 8 -19 31 65 7 38 60 -46 -41 23 -35 -40 32 -20 -15 -18 -10 -30 31 -9 -35 -39 -31 -17 -4 42 -17 1 -39 15 -10 58 1 -21 -19 -26 -71 -78 6 59 -16 -19 -15 50 13 26 47 3 -18 -22 9 -21 -16 9 18 -42 -15 -40 -12 -2 30 14
48 67 -60 59 17 -16 42 -13 52 -79 30 26 28 -43 8 51 -7 15 55 -13 -9 0 9 53 11 0 -39 24 -13 7 10 27 -35 90 33 -32 -106 -112 -55 -59 6 43 19 -56 -36 71 -33 20 -2 -26 -22 4 -11 10 -4 -2 18 -11 -7 1 39 -13 11 24
-29 15 -37 35 -33 -94 10 -36 27 -46 -5 -35 77 66 13 76 30 -14 -44 -6 0 -9 -57 -62 9 7 -23 18 4 -26 3 -16 -26 -39 5 -35 -13 -26 27 36 59 10 -36 -44 32 5 -5 -11 -26 -3 -27 15 7 4 36 -37 -63 16 16 19 -47 37 -7 1
-18 -64 11 53 -22 -12 -25 -28 33 -1 -28 -27 -2 51 -11 -5 0 44 -23 11 -6 -46 -50 -7 47 -8 -31 -12 -21 18 20 -35 47 -31 67 71 -16 -7 -36 10 24 -74 -25 89 -52 -58 14 25 1 39 -12 2 -45 17 19 -15 -44 -20 40 47 -54 46 -18 -24
-21 51 -23 42 -21 -19 36 -8 45 -88 7 -13 28 19 -20 27 14 53 10 23 5 8 57 3 0 11 11 19 32 -25 -5 11 5 -37 -49 -10 31 28 34 39 -61 -8 71 -13 -33 -43 16 -38 76 5 6 -21 -67 3 10 5 -13 -48 57 67 14 11 -29 5
-32 -15 -37 -29 1 -59 -45 -46 -53 23 10 7 46 66 45 -17 29 -41 -28 -18 -29 37 -18 -56 10 -55 -55 -67 14 -30 6 -1 -9 36 -27 28 40 2 3 -44 19 -7 -14 55 1 52 -20 31 47 50 6 -39 -59 8 -62 21 -73 -52 36 22 -10 -9 -59 -24
16 34 5 -7 41 -28 3 -57 -60 36 41 66 -32 47 -50 30 -62 -25 41 -1 -72 24 27 12 -55 9 -6 -9 -61 29 61 5 -19 -17 24 29 40 32 5 21 -21 3 13 38 3 -18 44 39 -43 5 -8 -6 3 -31 6 31 0 -38 -32 -38 4 -49 47 -24