-0.05950265750288963 -0.1471947878599167 -0.0340852290391922 0.20490330457687378 0.15153467655181885 0.01013656985014677 0.024523450061678886 0.07272845506668091 0.2190779447555542 0.1294342428445816 -0.05074729025363922 0.21155595779418945 0.097114697098732 -0.020893318578600883 -0.07798979431390762 -0.08173587173223495 -0.13857577741146088 -0.11272981017827988 -0.12247366458177567 0.185021311044693 0.07213127613067627 -0.010622220113873482 -0.08145764470100403 0.1044347807765007 -0.13175348937511444 0.06156505271792412 0.05596039071679115 0.03388817980885506 0.03570473939180374 -0.1209462359547615 0.21231509745121002 0.09947337210178375 -0.16756576299667358 0.23139503598213196 0.09213221818208694 -0.003514067502692342 -0.0635199099779129 -0.09400419890880585 -0.03033643402159214 -0.08915698528289795 0.06757655739784241 -0.07602854818105698 -0.2727310061454773 0.04768950864672661 0.028625119477510452 0.11582836508750916 0.04343623295426369 -0.04359882324934006 0.07009175419807434 0.08387085050344467 0.07250544428825378 -0.09113465994596481 0.10920345038175583 -0.09526293724775314 0.07808779180049896 0.23207443952560425 0.10050442814826965 0.020492590963840485 0.17107102274894714 0.11825601756572723 0.09397710859775543 0.11968059092760086 -0.06519215553998947 0.04494128376245499