-0.1613364964723587 -0.29052498936653137 0.0006470209918916225 0.09475758671760559 0.1736000031232834 0.04426969960331917 0.06741082668304443 0.19089365005493164 0.24624888598918915 0.12561437487602234 0.0798814445734024 0.12298687547445297 0.04447316750884056 0.04759645462036133 -0.07737360894680023 0.03427967056632042 -0.20284651219844818 0.031226299703121185 -0.12052914500236511 0.19626551866531372 0.12745997309684753 0.03819107264280319 0.0943581685423851 -0.001480646780692041 -0.3261680006980896 0.10542865842580795 0.017462773248553276 0.07028787583112717 0.051945384591817856 -0.07309582829475403 0.24199621379375458 0.15499240159988403 -0.1512870490550995 0.08569823950529099 0.11574656516313553 -0.048606958240270615 -0.013322263024747372 -0.00018150631512980908 0.029310336336493492 0.05942152068018913 0.08518671989440918 -0.0831892117857933 -0.16295228898525238 -0.02367212623357773 -0.019840339198708534 0.32107028365135193 0.1516864001750946 -0.05679184943437576 0.19771210849285126 0.1402454525232315 0.2087535560131073 -0.012960555031895638 0.11497481167316437 -0.14280040562152863 -0.010759375989437103 0.22453010082244873 0.001899993629194796 0.10985532402992249 0.1613704115152359 0.13069204986095428 0.07845021039247513 0.1546982228755951 -0.030696198344230652 -0.011229370720684528