7 -4 -43 63 -18 36 -12 -66 40 9 46 -50 12 -39 19 -6 24 -3 -45 23 -16 -30 24 -82 -13 -109 -26 67 -44 -8 16 -9 -46 -32 10 6 -11 18 -7 -29 -43 15 -7 30 49 -108 69 74 29 3 -28 38 -8 -17 -56 -49 -34 -9 58 -7 6 43 24 -23
-34 -22 11 -19 12 -68 29 52 -45 -39 -30 4 32 20 50 21 53 -9 -50 57 -32 -15 -29 -116 -1 -48 -61 -30 33 0 30 0 60 16 -29 -59 -21 5 -8 51 -47 -22 15 4 -27 -20 -7 76 76 46 -30 34 17 -31 -73 27 -82 51 23 34 -11 15 9 26
-50 -6 -9 -68 2 24 5 -93 3 -47 -74 -31 5 14 14 72 69 -6 -1 11 5 31 -9 -15 35 38 35 -82 64 -1 39 -2 6 18 -44 3 3 6 21 -36 29 -34 4 -28 -21 44 -3 -26 51 17 -58 -28 8 -36 40 -8 57 11 30 6 -60 22 3 -33
13 -23 35 -40 -4 16 44 -7 -1 -30 4 5 66 58 23 -12 12 30 32 25 -42 86 -42 -16 8 -36 42 -17 42 -2 -17 37 -24 32 -53 93 6 16 -49 -15 43 -51 47 -13 -57 3 -67 6 -24 -32 0 -5 -26 -21 -55 25 14 -9 -7 -36 2 -30 -28 50
-14 -26 -7 31 31 -55 8 0 18 35 2 16 -13 2 11 -54 8 41 -49 5 -15 40 14 38 -13 35 -80 -19 -17 29 28 40 -54 24 61 -20 19 -36 -53 -14 54 39 -31 -17 1 1 -4 -22 70 42 24 -19 31 -71 57 -14 9 12 36 26 23 4 8 -9
-31 21 -13 46 70 18 -9 4 28 59 -37 -6 -37 -51 51 56 44 -8 -12 34 -55 17 -37 -18 20 -10 8 -48 -23 -70 50 36 -42 -36 -48 -118 -4 -26 -24 12 25 -55 11 -70 -42 -6 48 -29 -27 43 -29 -14 50 45 -5 69 23 31 43 59 -12 26 16 21
-35 -30 78 29 -3 -71 59 11 -24 -60 18 -5 18 32 50 32 50 -9 1 -22 -14 -1 -3 0 21 28 -17 -42 53 22 -14 -53 91 -15 22 42 3 -24 -25 67 28 24 -2 47 -69 5 24 32 33 63 -20 -23 -2 -21 -30 15 -73 17 -55 20 -23 -55 14 32
20 43 -78 45 -6 21 6 26 83 51 -6 32 -37 -38 -71 -23 -62 -35 -103 61 -4 -19 14 -27 -13 5 -15 -2 7 -20 65 53 -32 -17 9 -105 -14 6 12 -9 -22 -46 -50 -88 23 -35 78 47 34 42 -5 47 35 -12 22 -40 30 -6 14 -8 -2 91 -26 -29
-33 20 -32 60 20 46 65 -22 45 37 21 44 -63 -54 -13 16 8 -45 -83 -11 -20 2 2 -67 1 -50 -23 -30 35 -18 -2 58 -6 8 -17 -56 9 -31 7 -9 11 9 -31 -25 36 -47 39 -8 26 47 -10 20 28 -11 29 -22 1 -2 35 36 0 22 4 4
7 -16 -17 7 -22 -23 -33 34 18 -14 5 -10 3 20 12 -63 -45 34 10 -12 -6 -43 -12 -18 -31 -32 -16 -8 -20 30 25 -7 -70 -13 89 -41 -11 52 -45 36 -71 2 -7 -53 -11 58 22 14 38 21 -43 47 56 -19 -3 -7 23 36 74 1 4 63 18 -22
33 -20 45 -26 -32 -18 38 16 -66 -41 44 -38 2 5 99 34 96 -3 30 -11 -64 17 -33 -15 -10 -50 -1 14 -38 43 -27 27 70 -22 35 13 -9 -30 -14 101 47 11 25 -1 -13 -45 -10 43 19 -20 -32 -60 11 -33 3 9 -9 79 -22 31 2 -42 -29 18
14 24 39 -8 -14 62 31 -10 8 -32 33 -11 -58 40 43 42 58 60 127 -69 -37 -18 -47 40 -40 -15 76 -20 -59 -23 -22 9 -16 -78 13 -51 22 32 8 15 -27 0 31 -13 49 40 38 12 21 -35 -33 0 -66 -9 6 -15 67 41 39 34 12 18 -2 -15
37 -42 -14 -34 28 17 -50 -1 8 6 0 -74 53 12 -11 -76 -10 -2 19 -18 33 -30 -1 26 33 -83 -18 26 -29 38 7 -56 -22 46 1 -23 -6 35 -28 36 16 -19 -41 94 -3 48 16 53 -6 -54 -1 -57 -4 -25 1 56 21 6 28 32 36 -2 11 -6
-3 -23 3 -28 -23 -21 -17 -15 -16 0 7 -37 51 10 -65 33 -37 -40 69 -62 47 -20 57 33 56 51 62 4 5 20 -32 -1 14 -9 -15 35 -7 -15 10 1 59 16 6 55 27 -17 3 -49 -24 -65 63 17 -38 -17 -39 -43 23 -70 -11 -55 -32 -64 -16 -3
-43 -6 -7 -22 19 -68 -41 90 6 -6 -72 -23 0 9 16 -48 17 30 -18 47 50 10 -30 -29 -1 -59 -98 28 20 17 -4 23 -26 46 64 -42 -3 19 -50 46 -5 -55 -57 -13 -46 16 18 74 125 78 -24 14 64 -104 -41 8 -24 65 77 6 45 51 32 3
-6 -29 -1 22 27 15 -58 -13 28 24 1 -15 -39 -35 -47 -34 -118 -23 -63 -7 72 -15 23 58 -23 67 -27 39 -46 44 -2 -18 -63 -18 47 -7 -6 55 -39 -5 -68 -1 -16 2 13 39 13 -26 55 62 53 3 33 27 9 -23 -5 -47 13 -10 62 30 33 4
17 -34 17 -8 5 -20 11 -31 -30 33 -30 89 8 -6 4 -4 26 -48 53 -28 38 23 -23 29 8 29 -47 15 17 11 2 -88 -27 13 43 44 14 -17 -2 -6 37 -18 3 34 -78 -102 -24 9 -44 22 -10 -32 -21 -8 -29 52 -15 11 -22 19 3 42 -11 -9
18 11 55 -1 -40 -41 12 -48 -103 -18 -16 -25 11 -5 6 -32 -3 3 51 -40 7 28 -10 14 -5 -8 -39 9 39 40 -62 -47 60 11 -49 72 -29 32 11 21 49 31 9 23 1 -49 -33 20 24 36 -15 -46 -19 -19 -25 0 -73 11 -52 -22 45 -26 -21 9
-1 -22 -27 5 32 -38 40 -32 5 14 -4 -34 8 -109 -8 -18 44 -76 -44 -88 -17 4 -16 -46 27 18 -3 -22 9 -14 13 -26 53 -1 -38 34 19 -24 20 23 73 -16 -16 20 -20 -12 -41 16 18 34 -1 16 75 26 16 77 -82 35 -49 -39 -20 10 10 15
31 -7 32 -22 -16 -10 -68 -27 -34 -74 -64 -12 16 100 23 -48 24 21 4 55 -3 -15 16 -10 7 -12 -48 -24 6 59 -15 -45 -15 22 -24 16 -4 53 -58 38 19 43 -21 3 3 30 3 66 65 -9 25 20 -42 -77 -27 -1 23 -67 -8 -28 4 -12 27 13
17 -30 -33 41 29 -23 14 -20 -31 20 -18 12 -8 19 -6 44 -3 6 41 38 -5 -25 -28 -75 -53 27 -29 -35 -71 -43 3 42 46 21 -51 -47 0 -61 65 45 -14 -12 62 -1 -38 7 -25 12 -11 47 -12 50 3 -2 -51 -15 12 21 -2 23 7 12 2 -8
12 11 26 -83 -23 18 -42 -16 -34 -21 -14 -57 -105 -43 8 16 -23 -10 -28 -42 51 36 14 46 11 -45 31 47 4 17 -8 59 -30 52 -3 33 15 -12 -13 13 -28 -2 -62 2 58 -12 16 -41 64 35 11 -4 11 -35 -20 -22 -27 -10 51 11 6 -19 -11 -65
-25 -16 30 -27 -33 -43 -39 -33 -30 -32 -31 -54 -8 20 -12 -39 6 0 -63 -55 48 23 9 64 -3 9 -43 -36 56 100 -12 -53 -49 43 57 42 -8 30 -23 6 29 41 -22 5 -40 -14 -15 -5 58 -3 -6 15 19 -23 44 18 -24 -11 -2 -28 22 -31 -2 -39
-31 24 -17 -42 24 72 -4 -13 65 -42 -39 -6 5 34 -35 8 -21 57 -26 -13 42 1 9 67 -64 -5 7 43 -53 7 30 10 -43 -57 16 -15 -18 13 -9 -41 -28 18 35 -54 21 51 -45 15 -40 -47 -27 -9 -22 24 15 -52 81 -7 16 42 -4 37 -10 -33
46 2 -20 -42 -20 71 -34 -48 30 23 -14 15 16 -12 -31 -35 -29 -7 65 12 43 -29 -20 60 30 41 -31 68 8 -38 -8 -32 -21 -11 47 33 -1 -11 30 -77 -18 23 -32 46 70 -36 6 24 -26 -17 20 0 -46 -28 -4 -13 90 -92 3 40 38 -17 -6 -24
22 1 13 7 28 14 -25 34 -27 -22 55 -18 -67 -39 -22 -33 -49 20 9 -13 -17 0 43 9 -34 -56 49 66 -55 19 -23 13 15 -44 42 -35 3 6 -17 9 -13 14 -20 17 64 58 -17 -12 20 -7 -14 1 2 -45 -38 -19 33 8 79 17 9 11 5 -39
-21 -11 51 -11 -27 -69 -36 2 -25 -46 -90 1 20 10 43 61 39 -16 -35 11 16 18 36 -87 -74 41 -49 -34 10 50 -53 98 25 -27 -34 22 -16 -17 -40 11 1 36 -6 10 -67 -24 15 3 64 42 18 33 -21 -34 -24 10 -85 60 -21 21 -11 28 23 -71
-40 33 58 -64 22 -20 -21 -45 -26 15 -4 -13 34 0 -1 45 -30 -4 -2 -30 -23 -47 19 53 -8 53 -22 39 -27 -3 -17 -17 -24 -61 84 30 -1 16 -6 21 -29 46 9 -53 52 -36 -10 53 -21 -20 -26 -77 29 22 -63 8 2 40 9 21 -9 1 21 56
-37 25 15 6 11 -37 -14 52 3 25 106 -29 36 -38 -11 -73 15 23 -31 -32 -52 98 -21 77 -23 -21 14 -18 12 43 -24 5 -38 -6 -10 35 0 12 -60 31 74 7 10 -17 -50 45 17 -29 -16 -6 21 -65 2 53 39 33 -33 -3 13 -36 10 -98 -7 72
-38 -16 -30 -25 -14 21 -25 -3 23 -7 -55 0 54 67 -20 -4 -15 -4 -3 32 22 -76 19 9 -17 2 -46 -13 -55 -24 18 20 -6 -35 44 -48 -2 16 48 -14 -31 34 1 61 -5 -21 -1 -2 12 21 15 42 16 -29 34 -16 21 13 36 11 39 57 -1 -38
-9 13 62 18 12 -48 0 4 -66 -7 -2 -23 46 -2 0 15 76 13 -9 -29 4 33 -9 -6 -41 79 -117 -25 -13 -6 -12 -15 16 30 -35 58 -18 -36 -32 49 -14 -10 44 28 -25 -22 -85 -16 -13 9 7 -16 24 56 6 50 -26 14 -69 4 0 -37 22 -31
28 5 -5 13 -25 37 12 28 -66 -8 -15 -14 15 1 53 -63 -11 23 38 31 -51 3 -11 -50 23 -83 -38 13 4 44 -53 -1 51 -30 15 -26 -26 40 1 25 30 74 25 -22 38 -22 -25 67 21 -44 5 -64 -21 -52 -44 -41 4 60 17 -1 -26 -41 45 58
46 -32 85 -7 -13 -72 -32 9 -45 -26 40 -25 -14 39 38 -45 29 1 -9 32 0 -8 -10 7 -2 -5 -15 27 22 51 -60 -45 46 -26 34 21 -26 48 -40 83 -16 41 4 4 -28 12 -23 46 31 -51 72 1 -2 -8 -19 -27 -56 43 -93 6 33 -44 0 -15
41 34 -17 -1 32 53 13 -22 -67 7 4 -42 5 -22 -34 -17 -21 1 -32 -21 -4 -19 37 -86 2 -27 40 -11 -41 -20 -28 31 17 -7 -43 1 -21 -13 12 17 6 -18 4 -16 -26 12 -6 49 -2 6 -45 53 -4 35 -16 -6 -9 25 -55 7 19 19 -17 20
18 18 17 -2 32 23 -7 6 -65 -10 12 26 0 14 70 14 20 10 -60 96 -26 28 22 -50 -3 -54 -36 71 -43 -6 13 55 -22 -47 1 -11 -24 45 11 17 19 25 -6 -24 -46 -35 -10 -1 -10 -26 50 -26 -68 18 -30 -31 -65 -7 -38 -18 42 -21 0 50
-15 5 -3 -12 -21 14 -28 -43 -17 -42 -37 38 -9 -31 12 -23 19 -18 -30 -23 29 3 30 21 62 118 -54 14 3 13 -27 -31 23 -20 38 -7 -26 -7 -3 19 -5 41 -37 -43 -40 -31 2 -16 16 -30 -17 -8 7 49 28 -5 -3 -24 -79 -57 7 -28 0 -54
9 -26 -34 12 50 8 72 0 52 35 -11 26 27 -5 -33 -9 -41 -7 7 57 3 -9 -8 14 -25 25 39 -25 11 -73 33 4 -63 49 -41 -41 42 -22 21 -46 -8 -3 -33 -11 2 38 47 35 -1 47 -37 2 30 -63 13 0 1 15 73 36 15 79 -25 3
15 15 42 47 27 -18 37 -5 34 -11 57 86 -10 7 30 66 15 28 1 42 -83 28 -21 -31 40 26 20 -27 -9 -61 20 -17 -34 -61 -10 -19 19 -5 11 -4 34 -11 -13 6 34 -48 17 -30 -68 9 -76 -36 -27 -23 16 -14 1 18 -24 1 -38 24 0 12
26 16 -21 -6 -16 43 -35 -52 -29 56 57 -14 -47 12 -3 -27 -34 18 54 -86 24 -1 0 39 2 -6 61 33 -34 52 -11 -21 33 -10 16 19 11 47 20 -18 -41 28 0 28 58 4 10 13 -3 -58 24 -19 -15 -21 16 -14 48 -32 -37 -15 20 7 -2 -26
-25 41 -22 -1 -27 2 10 38 -30 9 13 -10 -53 -33 -26 26 -22 -3 1 -11 4 -79 22 -6 21 -1 40 -5 3 45 -51 -49 2 -67 13 -26 -38 18 11 -28 -26 58 35 -73 -11 18 0 27 18 -24 57 78 17 27 19 2 2 -25 -50 -10 23 -36 14 8
1 10 -20 69 45 8 18 -2 54 -7 9 57 -21 -23 34 -4 -23 -17 -32 38 -3 12 -47 -36 -2 -63 20 44 17 -40 80 48 -43 -7 -11 -96 -17 65 52 1 29 7 -26 -32 -42 5 14 15 18 46 0 11 31 -17 0 47 -45 16 33 36 37 14 16 14
92 17 5 -10 -11 10 -46 3 27 19 47 -7 -25 -66 -48 -48 -35 -9 26 -23 14 -27 -14 39 -36 8 17 53 -35 10 -11 -24 -1 28 48 -11 -8 19 33 29 -54 11 4 9 37 -52 37 -7 59 -8 10 0 35 18 -4 14 50 -42 15 -42 33 50 -6 -67
57 35 24 -20 -82 36 -11 -19 36 8 -26 45 18 67 -6 -37 -32 24 34 -18 -56 25 6 30 40 87 19 37 -12 37 -32 -16 -1 -28 50 8 17 30 13 -64 55 8 -7 -33 -1 -14 29 4 -6 -15 22 46 11 5 11 -21 15 10 -69 -65 -57 -22 -16 22
-35 -3 -25 -43 30 -25 -23 -4 32 -10 -26 -16 21 37 2 31 -36 5 -8 70 40 -10 -41 -54 -42 -20 -61 8 -60 -6 -31 51 21 30 -48 70 22 -31 -49 -20 -67 -7 29 15 35 12 -25 -7 -10 44 -6 28 -17 12 -90 6 27 10 56 -13 -14 68 4 33
-60 -35 20 6 -17 11 22 -74 52 -13 -15 79 7 -13 -4 32 13 38 45 25 -28 37 -70 57 -5 72 16 -60 36 -44 32 2 -41 7 17 -24 39 -58 29 -73 1 -41 50 18 3 3 63 -38 -79 10 -32 51 55 -26 24 -31 13 10 -23 -24 -16 25 -12 -19
-27 -32 26 -60 -54 -37 -31 31 -8 -15 -3 29 -16 17 -17 -20 7 -21 18 15 -17 44 -52 -19 -29 -23 15 -17 75 33 24 -4 -16 73 -45 48 -3 -29 -30 -4 38 -45 -17 -8 -7 -11 49 41 29 -16 -25 16 36 -78 34 -42 -55 74 48 16 5 11 14 -6
31 11 -47 34 -7 21 -7 42 18 17 -29 74 -46 20 92 15 49 -20 10 66 6 10 10 -15 25 -27 -37 13 -16 7 14 -58 7 -32 24 -49 -28 -11 9 -21 -4 30 -17 -16 -21 -52 -1 49 -13 13 -15 -52 -40 -22 -7 12 -9 1 -39 0 3 18 -19 -20
-72 -41 25 0 11 -55 29 -11 -2 -15 -9 50 49 0 -31 -29 2 -29 -22 -17 -35 27 -27 -37 13 48 2 -15 102 46 47 -20 -2 58 2 71 -2 -13 4 36 68 23 -57 -5 -12 -37 14 -7 -21 9 12 -15 64 -64 20 29 -21 -22 -20 -33 -53 -23 1 20
24 -38 15 27 74 -26 57 44 -27 61 68 51 -1 -28 -6 -56 5 -43 -27 14 -39 -39 3 -18 6 -34 -25 -12 55 -61 40 6 36 -16 2 -29 -4 -23 79 1 2 -56 -33 -6 0 -17 36 -24 -25 80 14 -40 11 -60 88 0 -32 -58 11 -13 -7 21 -24 50
-25 22 -35 -17 13 5 15 7 47 -17 -48 -36 29 0 15 8 -19 -24 -44 -18 -35 11 47 -28 -66 24 28 12 -43 -27 -27 -8 -5 -50 -40 -12 -22 22 -66 -4 24 26 59 60 -21 40 -87 -42 -10 55 6 -10 -3 53 -73 -26 6 27 -4 7 -39 -32 52 52
69 -1 -10 -67 -18 31 -40 8 -5 -55 -7 62 35 18 7 13 -31 56 -1 35 -11 -11 -1 23 10 17 9 35 62 -17 0 40 16 -40 -10 -24 1 -22 76 3 -19 53 -7 -47 -31 -41 36 56 -24 -46 -22 -24 -42 -14 24 10 11 87 -81 -13 -16 -37 8 -10
-8 2 -11 -11 -10 68 -9 20 -2 78 55 84 -44 -44 -33 -58 -1 -23 -7 68 29 11 16 -4 -3 0 -12 -15 28 23 55 -18 -46 -17 -22 52 29 41 -54 -48 -68 -25 -11 43 -34 0 15 33 -44 -1 -1 68 -31 34 8 19 8 -7 72 -11 37 -1 -4 -23
-17 48 55 25 31 21 -5 32 44 16 -22 -59 -4 10 30 12 -9 -15 -30 42 -44 -7 -30 -91 -32 -8 8 13 -19 -67 -59 49 -16 -82 -27 11 -14 17 -23 -5 -5 30 13 1 30 71 -42 -6 -64 97 8 36 53 4 -21 -3 -20 -12 21 14 -34 -15 37 92
-3 -2 -42 0 63 -11 46 -3 50 43 -78 -56 33 66 17 -1 -45 -58 7 -24 36 -13 -12 -2 -48 28 9 -39 -54 -70 -13 49 -34 -2 -62 -48 3 10 -72 32 10 -79 57 1 18 39 -61 10 -21 91 5 36 23 -2 -35 52 -13 39 115 33 -65 32 8 7
39 33 1 92 -27 47 -53 51 85 -70 -41 23 -37 45 23 34 -9 95 59 9 -98 -20 -26 -44 -49 -30 -18 -2 -7 -58 7 32 17 -81 2 -76 0 27 50 -62 -76 2 4 -32 -20 5 12 21 -61 -6 2 16 -98 78 -31 -27 78 39 -42 21 47 37 19 12
45 27 -66 27 -51 69 -17 27 13 55 -62 -12 -37 25 10 -26 5 -39 1 0 69 67 -45 43 56 24 49 -23 25 -22 84 -22 -45 41 -25 33 14 -20 5 -31 -3 -77 -16 20 -4 27 50 23 -69 -46 -5 31 -57 51 99 14 -31 17 38 29 16 -4 -47 -4
-1 -37 -42 -32 31 -5 52 -11 69 72 -41 2 -3 -21 -51 9 -45 -43 -22 3 5 -43 15 58 -42 50 11 -20 -64 -76 26 11 1 12 -33 -25 27 -23 37 -7 88 2 19 5 -22 20 -9 -86 32 3 18 -57 7 33 -49 18 12 -6 42 -28 -46 -6 -5 74
-37 5 70 4 64 -66 -20 -6 22 -23 -17 -22 21 36 -19 34 37 47 -19 60 -86 28 -49 -32 14 -53 28 -1 27 -40 17 82 3 23 -58 60 -31 -57 5 18 -5 -62 18 -9 3 57 -51 -15 -57 9 23 -57 88 -5 20 0 -49 35 -20 10 -46 -13 -10 15
3 -6 39 -29 102 18 -28 19 -4 17 0 43 -15 -23 -40 -17 19 7 -13 81 4 -57 -17 -64 -54 19 -41 21 46 -8 19 94 11 -40 9 67 32 -53 36 27 -72 48 -48 19 26 25 -3 -34 15 51 29 75 35 -19 -18 13 -40 24 -13 -7 16 -43 20 10
-11 21 -35 49 36 17 -6 33 55 83 33 49 8 -63 -23 30 -26 -52 7 -8 34 66 -50 7 -29 -22 10 10 -61 -74 35 17 -4 -33 9 17 1 9 11 -21 -55 -63 30 -14 -27 26 2 -11 -22 74 30 11 3 57 -4 11 45 -38 63 41 52 3 -56 43
62 2 -25 8 -81 3 -53 -61 -60 8 7 12 17 -7 -7 -47 -24 10 -14 -67 35 -22 8 45 21 24 -10 23 -30 25 -38 -76 14 55 36 -1 18 -3 19 11 1 68 14 8 0 -49 26 -10 47 -27 6 -5 -31 -28 16 -13 30 -31 -22 -1 29 -19 31 -70
26 11 -4 25 33 20 41 -25 44 52 88 -3 -7 -69 11 -1 -46 -28 -26 22 -56 -8 -18 -58 19 -19 33 -7 -75 -80 -2 32 6 -44 46 -56 -8 71 37 17 -43 -2 -14 -35 3 40 20 -20 -15 86 -26 29 -50 39 35 -22 34 -48 14 26 23 27 -34 59
-45 13 12 -90 -20 2 14 -30 -23 -31 -12 -7 6 6 -10 0 1 27 17 -21 34 60 -8 104 -64 57 6 -32 0 45 -48 -59 -38 52 -9 -4 -2 -44 -25 0 46 -47 -13 -9 -37 -47 -38 -54 10 -55 -27 -29 48 5 -11 58 -44 38 -33 -44 -43 -48 -29 -39
54 -21 -24 61 -5 -12 13 19 59 -28 29 87 -15 16 54 -15 25 33 34 -2 -80 9 -98 -10 68 -11 28 -35 46 -87 29 3 34 -55 40 5 -18 -42 60 18 -30 -9 -45 -75 23 -5 59 23 -43 24 1 -34 -12 -46 99 9 -14 13 -37 -8 -14 53 8 20