-2 9 -2 20 -21 36 7 14 1 -10 -12 -16 -2 -7 -23 -20 -23 0 28 -16 5 23 5 -7 -3 11 -23 -13 16 -7 -9 -8 -10 18 18 1 -5 14 -35 -7 23 -17 -8 -4 1 6 -1 8 20 -8 -18 -5 -14 4 -22 -5 30 18 38 31 -7 -20 -8 1
-46 2 -2 49 -23 -46 48 -67 -77 -27 50 16 33 38 8 -13 59 -20 27 -20 33 -33 -7 -27 17 -18 -24 26 12 28 10 -45 61 4 25 36 -54 -9 -11 19 -27 -23 27 2 -29 -6 50 -30 40 10 -64 30 3 43 -27 0 47 -5 -38 66 -16 48 -11 -9
20 -17 22 -38 19 18 -27 55 31 11 -28 -15 14 -23 30 18 -13 9 -4 4 -11 -19 -37 11 -2 8 7 23 -12 -8 2 37 -20 -9 6 1 6 1 -2 4 27 2 -2 -4 -6 16 18 31 26 -26 22 -4 -39 -21 5 17 6 -16 -1 -18 6 -8 2 53
-32 7 17 8 7 -9 5 -17 -16 23 14 -1 -1 -4 22 8 -4 13 -24 36 -6 6 20 2 19 -4 -15 -2 6 -7 5 36 16 -14 -16 7 -13 -8 -9 -2 -18 -11 -1 3 15 28 14 10 -20 37 5 -34 18 33 13 -18 -10 20 7 -13 -11 -24 -7 25
-14 7 2 15 -25 4 15 -23 -4 -6 1 17 -27 2 -30 -19 -12 1 5 -10 9 -13 -20 -18 -11 3 -10 -2 12 -13 12 16 3 6 -2 7 -12 -5 3 17 -5 -5 20 -3 6 -11 -9 0 -34 12 -2 -15 -2 -1 28 7 5 -27 -29 4 10 -7 14 -18
-27 14 -13 -4 24 -16 40 -19 -3 -10 2 -17 -17 -5 12 1 8 13 -4 31 3 -14 6 -15 -7 10 -7 -10 -1 3 7 12 12 -18 -10 3 -1 1 -24 -5 8 -13 -24 14 -3 11 4 13 16 -7 -17 23 -14 9 5 18 11 10 11 31 -27 2 -16 9
-27 -27 -4 9 1 -13 1 -9 -21 -3 -10 11 -5 10 -1 5 10 -20 -18 -15 0 3 -5 34 30 14 -32 12 2 6 -9 -21 4 -17 -20 6 -3 10 3 6 -8 12 12 4 10 12 -4 -4 -7 3 -1 -14 5 -2 5 -3 13 -15 5 12 23 -5 16 5
6 -7 31 -7 12 24 3 12 30 -14 -4 -22 -14 -6 -17 0 -23 -16 16 -20 23 -7 -38 4 -7 10 9 -10 -34 4 -9 -10 -21 -4 2 3 6 13 -18 -7 21 -15 13 -16 7 -12 6 15 -11 -13 28 -11 -14 -10 6 19 -8 -19 -15 -22 23 -23 7 5
-9 -3 1 -1 -9 8 -4 3 5 -10 1 -7 3 18 -8 -7 12 15 -10 1 -15 6 -15 -24 2 16 -3 8 -12 -6 -15 31 -8 10 -2 1 -3 -7 6 1 -2 5 25 -8 11 3 13 -11 14 -7 1 -1 -3 -9 -1 13 13 9 -9 0 -1 -6 6 -5
-8 16 15 -8 -13 -14 2 0 -2 10 -17 3 2 1 27 4 11 20 2 26 -1 14 18 -2 0 7 19 16 -18 9 -1 9 7 0 2 -7 4 -2 -4 5 -1 -3 -3 -3 -9 5 6 -5 1 6 -9 5 -9 6 -39 7 -3 -4 -9 -5 10 -16 22 -20
-17 16 40 27 1 24 -12 1 3 7 2 23 0 -16 40 -5 -6 -6 -4 7 -33 17 26 4 -5 -6 -15 -18 35 -21 -18 -3 -3 -1 7 -8 -3 5 -3 8 20 3 -13 2 -4 -3 -1 -24 0 24 -1 3 15 4 23 -25 -1 1 39 6 -15 -3 6 -11
-3 9 10 0 3 -8 8 -1 -5 19 1 7 5 -22 18 8 -10 24 12 8 35 -18 -15 0 -27 4 20 -8 15 -11 18 14 10 -11 -4 13 -6 -9 -19 3 -13 -8 -10 2 6 14 15 -2 -25 11 12 -12 -4 -28 45 -34 -36 -24 -3 -18 33 -9 -9 -4
-7 23 -7 -3 -2 -12 20 -10 6 -4 1 -9 13 -5 29 24 -27 -15 -42 14 -6 15 0 26 8 8 16 -3 3 5 -16 8 5 7 9 -6 -4 7 14 0 18 0 -9 17 -7 -9 -9 -13 18 5 26 11 15 -8 20 3 -9 7 35 -13 -6 2 -7 17
19 -17 -4 -48 -1 25 3 23 32 -8 -7 -7 -5 16 -11 13 3 -4 -6 -9 10 -18 -16 -5 17 11 23 11 -43 17 21 -4 -2 20 -4 -10 -13 -1 -27 9 3 -11 -30 -11 0 0 10 -5 13 22 -38 2 26 38 28 21 -1 2 -31 29 -26 39 -46 -3
17 8 11 -7 -11 22 -34 14 6 2 -21 -21 -1 -5 16 15 -25 19 -9 1 -25 20 -12 -1 -11 20 19 8 2 -15 1 23 -19 2 -4 11 7 -9 7 -2 6 22 4 -6 0 -14 13 11 -4 3 8 8 -17 -6 -19 22 30 4 33 0 14 -20 30 -32
-5 -15 1 9 -2 2 0 -8 -8 3 -8 5 8 -9 -10 -4 4 6 -8 3 10 -18 15 -2 -23 -4 -11 15 31 -2 13 3 3 8 0 -18 -12 8 -6 4 5 -19 -1 11 -5 -4 1 5 -10 -8 -3 2 20 -3 6 14 -38 4 -4 -1 -12 -10 -8 29
9 -35 9 -24 -10 -5 -10 14 -7 -7 -17 -12 -3 31 -13 24 14 19 -8 -13 -16 17 1 -9 10 -2 -5 27 23 -13 4 9 15 6 1 -3 -10 -19 -3 0 -17 -5 -1 2 -10 10 2 27 2 6 -34 22 32 46 13 6 7 -4 35 35 -24 30 -14 -33
8 -18 -6 -14 -5 16 -34 24 34 -23 -19 -10 -26 -6 -35 21 21 13 24 -13 5 -37 5 -14 -20 -14 15 -4 13 5 31 -2 -2 3 15 -15 -9 7 -3 -1 27 -13 -10 10 -4 -7 -12 4 10 -18 -2 -5 7 -33 18 15 -42 -8 -8 20 8 24 -41 -1
32 -4 -21 -18 -5 -4 -17 28 -4 7 -12 -12 12 -14 13 27 12 -17 23 -53 29 -24 -23 16 -8 -24 -10 12 9 10 31 -17 14 10 0 -10 -14 -10 5 1 2 -1 -14 16 -4 14 -10 3 12 -14 -14 12 -19 4 -21 22 6 -9 9 17 13 1 -12 -25
11 6 0 7 -18 -18 2 -5 -6 2 1 -16 24 4 -2 9 -25 -17 -12 -15 2 -4 -15 21 -24 4 23 41 -13 0 21 17 7 18 -1 -16 -21 4 5 -6 -12 13 -1 7 -13 -10 -4 -13 -9 17 -6 -17 7 26 -18 -13 -7 15 -10 -2 -5 -6 15 -8
-8 -4 5 0 -6 -2 -7 -23 -17 -4 18 -2 -1 14 -23 -11 -3 38 16 42 -13 3 26 -16 -12 13 32 19 -6 -6 11 32 18 -10 -9 16 -10 1 0 7 -15 15 0 -8 4 -15 4 -22 15 -11 6 -40 16 -6 -5 -13 -20 17 -10 -16 18 18 -18 25
17 13 -16 -12 8 -17 5 15 4 5 7 14 4 6 21 2 -12 4 -2 6 5 25 26 -18 -13 22 23 -19 15 16 -13 -5 -1 -9 6 13 -3 3 -7 -6 -1 11 -9 -4 7 3 -6 1 11 5 18 -2 3 -33 21 -13 -13 -14 -1 -6 13 17 -5 -3
-6 22 4 8 0 19 36 -23 -15 7 34 35 14 -20 -4 -32 -2 -18 -11 11 19 -46 -10 -4 -11 -26 30 -12 -27 7 -21 13 20 6 -6 -14 6 -5 8 -8 1 1 -32 5 -6 9 -3 -15 6 3 -2 11 -12 -18 -13 24 0 -11 -11 15 3 -4 9 10
16 30 -10 -11 -13 17 -1 27 5 9 13 -13 -21 -19 -5 5 2 24 -9 -7 4 -6 -19 -15 5 -11 1 9 -7 -12 14 5 -5 9 13 -11 -5 -1 -21 5 15 5 6 7 0 -1 7 12 0 7 -12 24 13 -7 5 21 4 8 6 19 -19 19 -5 -8
-3 11 -30 -16 22 -19 11 -17 -4 29 11 -2 17 -3 28 13 -17 -7 3 10 -9 -8 -15 6 14 19 -14 17 3 -9 -1 21 6 6 3 -1 7 7 24 11 -3 8 1 -19 -15 -42 23 -63 5 1 25 12 -14 -5 14 15 18 -31 -18 12 37 19 -2 -5
13 0 -14 19 -8 -4 6 -14 3 5 13 -3 20 -22 9 -14 7 14 -23 9 16 1 -9 0 -12 -20 43 -7 -10 4 19 -4 -5 7 3 -7 6 -1 -8 -6 10 10 8 12 -2 18 -12 -8 5 -4 13 -16 10 -9 6 -16 4 12 -4 7 7 14 -9 4
-3 10 -21 23 5 -11 40 -17 -3 4 25 7 -14 -15 10 -24 4 -2 4 -8 -1 19 1 -15 -18 15 16 8 15 -16 10 -6 13 -19 13 -2 -3 -12 -2 -11 -5 7 0 16 -6 4 9 -8 -11 -10 -2 -17 10 9 -20 -31 11 17 11 -11 -2 -9 14 -10
-2 28 24 6 7 11 5 -6 9 3 -12 -6 -3 -19 30 4 2 4 -22 16 -38 21 26 19 27 -6 -15 1 11 1 1 -3 -6 -5 2 1 7 -12 2 -1 20 5 -25 4 -12 3 -18 -18 9 25 9 -18 21 -6 32 3 11 19 -6 12 -20 22 -8 24
0 -8 -18 -2 2 -11 -3 -1 -9 -2 -2 -2 2 17 -7 18 28 2 32 -1 -1 1 -1 -28 12 13 -38 -27 1 -1 -18 -7 19 -14 0 -8 3 14 23 6 -25 7 13 5 -9 30 -2 14 -27 34 6 -11 23 17 27 -44 1 15 -16 21 -4 17 -7 -31
7 5 -22 3 -9 9 -13 -11 4 -9 -5 3 9 3 -7 -13 13 -5 4 5 16 0 5 -2 -7 -17 21 -12 -16 18 15 -30 -3 9 -7 4 -3 8 -5 -5 -6 -3 -8 5 7 9 -4 -21 -4 -12 3 20 21 1 19 23 -31 22 11 14 -8 -5 -2 -13
-3 -12 2 -8 -17 -16 -8 -24 -11 -10 2 5 -1 13 -24 -12 8 -13 14 -22 -1 25 20 1 8 -32 -35 -31 -13 -12 -39 -29 7 -9 0 2 -2 -1 8 2 9 24 19 -16 12 -14 6 -1 30 -43 -5 3 -35 17 9 38 37 10 5 42 -30 46 -14 37
12 15 -6 -13 4 -12 21 -24 7 3 -4 -8 4 -14 9 -8 -4 18 2 2 -12 2 8 13 -5 2 17 19 12 12 -7 3 1 4 5 1 -3 -1 17 4 8 9 -4 -12 -10 -4 17 4 25 7 6 -19 27 -15 -4 -18 -27 -4 14 -8 1 20 -22 25
4 -31 11 -11 -20 -8 -25 10 -3 2 -13 -17 8 9 -7 21 26 10 19 25 -22 4 22 -40 -1 -22 -13 -11 16 1 -18 -8 -16 -8 -1 12 -14 -7 6 6 -7 11 14 -10 7 -13 12 -13 13 7 9 3 13 12 4 5 9 -3 6 18 -13 9 -9 -1
0 12 -33 -23 -17 26 -8 21 9 29 -3 35 -30 -35 -4 22 6 -27 -23 -26 7 24 2 21 42 30 -34 23 -30 45 -24 -36 -2 -5 -6 1 20 -16 -9 0 6 15 -5 18 -3 0 7 -28 14 -7 0 -7 30 8 13 6 -4 13 -8 4 -15 5 -15 32
6 -1 17 3 -4 3 -20 8 -2 6 -5 -9 14 -2 9 -1 -7 -1 30 -11 -3 -4 12 3 -17 -11 -2 -8 13 -15 25 -27 -5 3 -7 -13 3 -5 3 -12 32 3 -1 5 -7 6 9 -4 13 -15 4 -34 -12 -13 -33 -7 -2 29 3 -15 -2 -23 5 35
8 19 -7 -1 2 9 12 -7 4 -14 15 27 10 -17 -5 -27 15 -2 11 -2 -9 3 -8 -27 31 -22 -2 -12 -11 0 -1 -28 -2 -6 12 10 0 20 -13 3 13 -3 -22 -4 -7 -11 5 -4 37 -7 0 19 -23 4 -17 11 30 -33 -16 11 3 9 -11 12
19 -54 -53 -55 53 -70 -42 69 56 39 -102 21 -84 -39 2 14 5 48 5 6 32 -34 -13 14 -9 12 23 24 -17 -18 33 39 -126 -70 -123 -110 127 99 -58 -113 -68 -97 -72 106 127 50 -90 24 -26 5 28 -20 34 11 3 -26 -25 -20 32 -38 10 -24 9 -28
2 -6 -1 -14 -14 10 5 25 10 -26 12 -24 -6 19 -9 -6 -7 -6 30 -3 -23 -3 17 5 -10 -4 11 -12 2 -5 -5 -8 -2 13 -2 0 -7 -25 10 11 -15 12 23 -9 -12 -9 -25 12 -5 0 -21 1 3 -12 -44 19 1 13 23 -4 -2 -34 29 -25
-3 -26 -1 -3 0 -17 19 -31 7 -27 13 7 -9 21 -25 -2 -9 14 -14 1 6 24 -18 10 26 17 -3 19 -16 5 -1 -12 5 -3 -2 4 -10 -12 5 5 -17 -5 19 -2 6 -8 -1 -28 -1 -28 6 2 -5 -25 16 -2 -7 -22 1 13 17 0 -20 16
7 -8 21 8 -6 7 -20 28 8 -19 1 -8 -9 12 -1 -7 15 8 46 6 -20 -4 14 -16 -8 -36 -15 -3 5 -11 1 -5 -17 22 11 -8 13 -12 -17 0 26 2 26 -17 3 13 10 -2 -13 -15 22 32 -17 15 46 61 -1 -27 -9 18 11 4 -18 20
12 15 -16 -1 10 21 -8 8 5 32 18 18 11 -12 18 -7 -26 -4 -14 15 5 15 7 -16 3 8 27 -3 -2 -9 2 6 -5 -8 -12 -4 -3 -2 -2 4 -14 6 1 -8 10 0 -21 9 -51 32 31 -9 26 -3 28 5 22 -13 15 -17 13 -14 11 -26
-32 -7 -3 21 -12 4 17 -20 -13 -13 5 31 -1 -9 -12 -34 7 18 0 8 7 -11 19 12 34 17 4 9 -15 31 18 14 3 1 -7 -11 14 17 -20 -9 21 -10 -6 14 7 6 -8 -4 -13 12 -13 6 18 19 -7 1 8 5 -3 19 2 17 11 -20
13 -13 -19 -4 8 -4 -29 12 3 1 -35 -41 13 5 1 41 -5 3 -18 4 -16 -15 -1 20 7 -12 -6 21 6 7 5 13 13 2 10 11 0 -23 7 7 -3 9 23 -2 -12 -10 -20 16 -16 23 21 -22 13 -12 6 -17 -12 -3 7 -15 9 -17 17 -27
-8 -14 -7 10 -17 14 -29 13 13 -8 2 6 -10 -10 -30 -18 -11 -1 -40 -5 18 -7 -43 34 0 22 5 9 -35 2 -9 5 -2 13 2 -6 -9 -12 -16 15 -3 5 -1 14 -2 -2 7 3 5 -1 20 -28 12 -9 2 -35 -7 11 12 -29 2 -22 18 -3
-36 12 18 41 24 23 21 -7 -5 -10 20 11 -5 -4 23 -39 16 -8 9 -19 9 -15 -37 -19 -1 -11 -34 -15 -12 -9 -18 -7 9 -15 15 -13 3 7 -3 -22 6 -5 2 -15 7 24 -5 22 -9 11 25 -4 8 21 20 13 9 15 -21 -7 -26 -26 33 -2
42 17 4 -1 4 -1 -8 22 12 -4 5 9 10 -1 9 -4 8 8 4 -12 15 -7 -10 -12 -4 -6 19 4 4 2 -1 -5 -3 6 -15 4 4 -21 6 6 0 29 0 18 -3 7 -17 -5 -13 -1 -6 19 -15 14 -24 -5 9 -62 -4 -8 30 2 7 -51
-22 -18 5 -4 -1 -24 -3 -13 -8 -16 8 5 -12 6 -6 11 -15 -13 -12 -4 -32 -2 0 16 10 -19 -19 -10 20 -22 13 -28 0 13 -5 13 6 0 19 10 -27 1 11 -7 -8 -6 -3 2 0 19 -16 -21 21 -5 -25 -14 -11 28 -10 -16 -4 -16 24 14
-18 -14 16 -17 16 9 -19 9 7 6 -9 5 19 10 -1 11 -19 -11 10 7 -2 -1 -8 -2 8 6 -13 2 -23 5 1 0 5 3 -2 -6 -10 -10 20 8 -4 1 7 -16 -3 12 1 5 -7 3 -29 -30 -17 15 12 -14 16 14 -25 -21 -9 -17 3 2
3 -33 -3 1 -24 23 -15 -11 7 -33 -4 9 -9 18 -48 -20 6 -9 -8 -11 8 7 -14 5 6 -7 -9 -25 -21 -7 1 -24 -9 21 -4 14 -14 -2 12 18 -18 -2 28 -1 5 -37 -4 -24 -6 29 -15 -2 21 37 -10 13 40 -17 -10 18 10 26 -23 -15
-6 -11 14 23 -14 -33 -15 -12 -10 -14 -11 -3 2 22 -31 -9 14 -20 -12 3 -2 26 11 17 -5 -4 12 -14 -17 25 -14 -3 -12 3 8 0 -1 7 24 0 -29 6 -1 9 -6 9 -9 4 -8 -2 3 11 -22 -37 -9 8 -6 -17 -3 -9 -1 -7 -10 -28
-14 13 19 25 5 10 17 -10 -12 3 8 3 0 -12 14 -29 11 2 -1 12 3 22 13 -1 25 -23 -1 -10 -18 -10 14 -16 -4 -8 -2 -3 -2 -5 -4 -5 3 1 -11 1 -10 16 -12 16 3 -2 3 14 13 -6 -20 1 -12 26 18 9 -20 -17 -5 -7
-34 -12 2 2 -1 18 29 -40 0 -9 30 34 3 -10 -12 -36 -3 -23 -3 -10 9 22 6 2 -4 19 26 -10 -14 21 6 -26 5 -5 -2 -3 12 5 -7 -13 -33 2 -10 1 -5 24 3 32 9 -7 -12 11 -1 -16 -40 -24 -18 -12 34 -18 10 -21 -7 -14
4 4 -18 5 -3 23 -7 15 4 -1 8 2 5 -12 -3 -7 8 -14 0 11 -5 17 10 -13 24 -23 2 -20 -10 4 -14 -22 1 21 1 -17 4 13 -1 9 32 4 -11 6 -14 14 6 -8 8 -43 17 -1 -38 -15 -20 27 -17 -10 1 -17 5 -12 4 -10
-8 2 -28 21 14 -19 10 0 3 13 1 4 12 2 39 9 -6 32 -11 18 -17 -16 27 -13 -12 2 0 9 43 -18 17 14 13 -3 3 -21 11 -7 -9 0 16 -12 1 9 -2 23 4 -5 17 -44 21 2 -39 -29 1 12 -24 -5 -4 -9 16 -6 22 33
5 -22 -11 0 15 -25 13 -16 -20 -1 2 26 5 14 -13 1 21 11 27 28 -17 23 45 -29 -16 27 26 -29 20 2 12 10 16 6 21 5 -14 23 -16 -6 -1 -10 4 1 11 -2 15 -5 24 -12 -7 17 12 7 7 -17 -16 13 19 -5 2 12 -5 21
28 24 -13 -4 -7 3 -5 22 12 7 4 -27 -7 11 22 1 -25 9 -16 -4 -6 15 -4 29 -6 10 9 5 -2 4 7 14 -12 -7 -5 9 8 -3 3 -7 -7 7 4 9 -7 22 5 19 -15 17 26 -22 -10 -31 -16 -25 9 -8 8 -30 39 -30 32 -18
14 18 -19 -17 14 4 21 4 15 -13 1 -23 -8 -11 22 22 -1 11 -27 20 -21 6 -2 13 16 9 -6 13 31 -6 -6 27 12 2 2 -9 0 6 4 6 7 -14 -3 0 3 -4 -1 11 8 19 3 18 13 14 7 -1 3 -18 19 12 -23 11 -26 -20
0 -29 10 -27 7 -14 -22 32 5 -7 -21 -18 7 -4 -21 33 9 -17 -13 -10 -27 -4 10 -4 -1 -8 -12 3 49 -9 12 -1 -13 -13 -9 6 2 -3 22 2 3 4 7 -6 -4 -17 -12 0 15 13 -22 -1 3 4 -28 1 11 -7 -11 21 -8 9 8 3
4 1 10 0 -13 11 0 29 5 -7 1 -2 -1 -4 -17 -10 -2 -3 6 -19 9 15 3 -3 5 11 1 -16 -2 8 -11 3 7 2 9 13 3 11 -5 7 26 13 8 -19 9 -4 9 24 -12 -5 5 -1 -11 -33 31 2 -4 2 5 20 -8 7 8 5
0 12 15 -4 13 11 -25 25 7 -8 -25 -42 -1 10 11 15 -24 24 -4 13 -4 11 15 5 -40 -7 45 25 27 -16 42 11 -22 15 -6 6 6 -12 -9 5 -13 -2 14 6 6 -25 5 3 2 -29 -2 -16 -8 3 -27 5 -6 30 39 -8 -11 3 6 20
-24 11 54 17 6 30 18 23 17 -26 8 -28 -1 0 -12 -19 -3 -20 34 4 28 -19 -2 -8 -37 -23 0 -29 -3 -11 -1 4 -24 15 13 12 -6 -24 -18 -8 17 15 23 -10 -10 0 0 15 5 -27 18 -15 -8 -39 19 -42 -40 11 26 -25 8 -28 -16 19
19 4 21 -1 -16 -22 14 -21 -6 -7 -3 -6 -1 24 -2 -2 23 16 18 5 -10 -6 13 -29 6 -6 -18 -3 16 -16 2 7 11 -19 -22 3 -13 -20 5 -12 -11 5 -19 8 -11 17 -16 19 -9 -12 -8 6 -23 20 -21 38 -4 -3 -18 22 12 -9 18 -16
-1 18 5 26 -12 22 -9 17 -8 7 -21 -41 25 20 -2 21 43 -23 19 -2 -5 7 10 0 9 -23 -2 -4 18 0 -13 -20 64 28 52 32 -42 -47 24 44 -2 43 27 -51 -58 -26 35 -21 44 -3 8 -17 -24 -13 2 -18 26 7 -21 -2 -9 -7 -2 21
11 -11 -17 -15 9 -25 -2 16 11 12 9 14 8 -1 -5 -20 -18 -33 -27 2 -11 1 -6 12 22 19 -32 -25 -3 21 -24 -17 5 -4 -1 -3 6 9 13 -9 -2 7 8 -13 10 3 2 -12 -27 -6 20 -13 -12 -14 12 -3 -20 -6 -32 -28 22 -20 23 -4