-0.018286466598510742 -0.05060708895325661 -0.09394551813602448 -0.15881170332431793 0.12509991228580475 -0.028516774997115135 -0.05927802622318268 -0.21700546145439148 0.12642785906791687 0.022740526124835014 -0.0997995138168335 0.04557660594582558 0.04350771754980087 -0.06578829139471054 -0.049562010914087296 0.22617076337337494 -0.003961884882301092 -0.11412082612514496 -0.06488751620054245 -0.00026277126744389534 0.11910080909729004 -0.1271722912788391 -0.24343393743038177 0.033805474638938904 -0.09114068001508713 -0.07786302268505096 -0.02029157243669033 -0.049337051808834076 -0.03533817082643509 -0.10389699786901474 0.3803514242172241 -0.07660670578479767 -0.038882315158843994 0.02001054398715496 -0.07927653193473816 -0.06335048377513885 0.234078049659729 0.03860864415764809 -0.22478114068508148 -0.028119981288909912 0.09071595966815948 0.05382249876856804 0.16827234625816345 0.01513709407299757 -0.023141710087656975 -0.04326428100466728 0.0700327455997467 -0.08462698012590408 -0.10373448580503464 0.13262197375297546 -0.05327717959880829 -0.02094605378806591 0.10270007699728012 -0.011013723909854889 -0.07525293529033661 0.016011573374271393 0.009261345490813255 0.021916238591074944 0.003928727004677057 0.05602722615003586 0.004046971444040537 0.14093956351280212 -0.10549406707286835 -0.0030460194684565067