7 36 15 51 -46 -16 -33 0 -85 -28 -20 -79 0 17 36 -42 5 -7 12 -16 52 -43 -27 52 7 -84 7 -7 -25 -3 -8 -8 -67 40 -53 -21 31 -2 -19 9 -8 9 2 30 53 50 51 53 15 -16 -20 4 -17 -3 -37 -12 52 1 -29 19 -18 -31 10 16
-29 -56 -26 -6 41 -38 28 52 50 -4 -16 -61 69 39 -23 -3 17 -11 -12 19 13 -27 -69 36 6 -67 10 -49 51 -13 11 -61 -1 49 -13 -1 -22 25 -31 7 -12 -27 14 8 -59 -25 13 -5 25 29 9 -44 -11 -20 13 16 50 16 40 22 -9 5 6 63
12 12 -17 14 -4 25 14 -13 -9 -17 -15 50 28 10 -20 72 -8 0 37 -52 -6 4 -21 -20 -22 -7 -23 -16 57 -39 9 18 33 49 39 24 -13 -10 -29 -29 13 -14 -1 5 10 -3 -30 -55 -42 -24 25 61 33 -1 5 -8 47 -29 -6 0 13 -4 -32 7
-40 -37 14 -48 -5 -75 9 -25 4 33 19 73 3 -42 45 28 17 27 -7 24 -4 68 29 -55 -54 61 -64 -19 -62 24 38 1 35 -26 -27 -17 -3 12 37 -33 -20 14 -8 -47 20 15 20 31 -13 6 12 -23 10 12 5 44 -19 4 12 -7 -20 43 -20 -2
-66 -34 -27 56 43 -12 -32 -13 -16 34 -65 -55 72 19 -34 -2 -35 -41 -16 0 70 -55 -69 45 -30 -89 44 -68 56 -36 6 -13 -29 76 -66 8 14 -24 -48 -16 20 39 -28 25 -53 -8 29 -47 20 31 -36 22 -17 36 -5 29 -4 42 37 31 6 2 65 22
65 10 37 -40 -51 16 -5 -17 -10 44 38 47 -33 -28 -2 -74 20 65 37 -24 -38 41 50 -26 24 64 24 10 -4 -15 15 20 -21 -55 41 -26 9 -36 13 13 16 -27 28 -32 71 -44 33 28 -57 -38 -8 -22 25 -27 25 -17 -45 21 -30 -15 24 -7 8 -38
-75 -43 -3 2 45 -73 0 -42 46 -22 -72 -15 72 26 -19 -29 5 -22 3 -2 -7 21 43 12 -22 -14 22 -94 11 24 34 -14 25 3 -62 -10 1 0 -32 -22 14 -16 -35 42 -12 -18 -9 33 8 20 22 0 -33 -8 -10 17 1 37 41 -13 -1 -10 -15 -12
11 29 -18 -15 3 20 -15 39 -15 14 27 44 -28 17 -4 4 -18 58 27 -17 -25 -4 -13 22 38 1 -28 -64 59 -38 -1 7 42 29 23 39 24 5 -46 39 11 -21 3 -44 -36 -8 -78 7 5 -8 9 -57 11 -1 -20 -27 12 27 16 -20 -19 -18 50 34
-15 21 -31 25 18 -9 -50 -12 -19 -9 -33 -4 -22 25 -1 -69 15 -52 11 -19 63 19 20 61 -47 2 15 -20 -13 58 -3 -81 -24 41 -51 -7 -13 18 46 -31 -2 -48 5 28 -17 46 55 20 70 56 6 -20 -51 -51 4 -9 22 22 31 -17 12 -1 19 11
-16 15 -7 -21 16 -65 6 42 36 0 -6 -33 38 31 56 -28 -10 9 -33 39 29 -15 31 52 -54 -17 37 -29 1 -13 34 -47 31 51 -47 -20 -14 22 -14 -41 43 -10 -46 67 13 38 42 19 56 47 -2 -42 -32 -39 -44 6 19 11 34 31 14 -44 22 -12
-13 -30 23 -64 -24 -60 -3 -22 -31 39 -63 -13 75 15 66 -39 -1 -14 10 24 4 14 49 12 -38 -13 -21 -98 -78 49 0 -51 43 1 -57 1 51 -8 -18 -28 72 -56 8 6 -49 9 -26 33 4 1 27 -75 39 -29 0 87 -23 17 76 -21 28 -37 -43 -46
9 64 -21 31 -10 23 -38 18 -7 3 -17 -45 4 14 31 -74 -28 4 9 1 58 -80 -15 97 -9 -47 45 54 58 48 9 -23 -124 -24 7 44 -2 -24 52 -24 -42 14 -48 12 46 -21 56 -36 24 6 4 -8 -51 -14 -55 -49 37 -35 -53 13 43 -4 65 23
-27 -52 27 -22 37 -47 -74 27 11 34 15 -51 -12 18 2 -61 -26 17 14 20 3 44 29 58 -56 -10 -34 -10 -53 5 4 -48 28 46 -16 -39 27 -6 -10 -8 34 -38 4 12 -18 -19 -20 22 53 -9 -4 -82 -14 -52 -21 -10 79 -22 -16 17 26 -9 -5 -49
26 22 -15 56 -20 -42 27 15 -28 -25 -8 -2 -30 -17 -11 24 -43 11 8 -63 35 -25 12 39 34 -43 17 -7 4 9 -21 22 -36 61 67 19 -8 -12 58 -12 -21 -28 2 -4 -28 0 -17 -45 -14 -9 5 42 25 33 12 -27 61 -55 -15 1 5 33 24 -13
-41 17 38 -30 42 -26 -31 -19 33 -23 13 -20 -22 -20 5 -3 2 -10 -43 -1 -1 -2 21 -28 -50 35 -54 14 19 -10 9 -29 11 -35 -39 -6 -29 -4 2 33 -25 -32 28 9 -18 47 34 30 38 -29 41 -20 -46 42 -27 15 -67 26 13 -47 45 -13 -48 25
58 22 -31 -70 -33 29 28 -3 -16 32 29 75 -42 -23 -38 -44 40 9 10 14 -76 31 47 -48 6 99 -25 1 -22 41 -22 -9 27 -95 23 20 22 16 -21 30 13 2 24 -26 25 -12 34 -19 -68 -50 -9 6 14 -22 45 -29 -50 -1 -55 40 54 16 -48 -5
11 6 -9 -18 19 -1 -7 9 12 33 4 27 50 13 -24 11 -50 -18 3 -16 -40 -70 -31 10 -26 -33 25 -28 -19 -44 16 0 -29 10 50 -30 17 -29 -32 7 -2 11 -36 31 -36 27 -48 -57 -14 -4 -1 -19 22 -51 19 38 11 -9 22 19 -17 -12 25 -29
-2 -38 -21 -22 15 -9 10 -34 37 31 24 59 -2 -47 43 -55 44 -23 27 36 -28 -3 -12 26 22 18 15 38 -23 -4 54 -20 30 38 1 -7 -2 21 35 41 -14 -23 -7 54 -29 49 -14 -18 -33 34 11 -25 -36 2 25 43 -40 8 28 -2 38 26 -12 -53
11 -2 29 48 4 -6 -28 4 -35 40 39 -27 28 47 10 17 34 5 -39 3 17 2 -46 21 -17 -32 0 10 8 8 7 18 -49 58 -2 -16 34 -39 -26 -17 26 20 29 29 15 -16 15 26 2 42 -54 45 37 17 34 -4 -37 27 -24 18 55 16 26 1
1 18 -47 -50 -19 26 -60 -28 17 3 13 53 28 -33 0 -48 31 4 28 31 -31 22 -3 -45 -17 13 -1 7 13 -10 -22 15 -30 31 -16 2 19 38 -19 -15 -22 -3 1 -8 28 36 25 39 3 11 7 -26 6 -2 46 4 15 -58 -7 33 22 19 -32 20
20 21 5 -26 19 29 -44 32 33 10 -2 12 -5 -60 -14 8 -20 6 -5 -7 -22 35 50 -35 49 -47 33 43 -24 13 -36 -5 -44 4 7 6 21 24 -20 31 28 -60 33 18 -18 -26 1 22 -16 -29 36 10 -61 -53 20 -8 25 4 -53 24 9 -23 -7 -47
-53 9 31 31 14 -76 18 7 -5 -35 2 14 -3 28 -4 -17 18 20 -20 64 27 36 35 3 -44 23 21 25 38 19 -41 18 7 15 -38 27 -3 30 -18 -22 -14 -10 -7 -32 -29 3 -4 -54 13 -32 39 -32 -26 -13 -10 52 3 -22 4 -37 36 -21 -25 -7
-2 4 -31 -27 -3 -28 31 33 -12 -3 5 29 36 -8 79 -51 1 -16 1 -14 -37 36 -5 38 15 41 33 -24 34 -61 -21 28 50 -28 40 -33 11 -27 -1 48 10 10 -18 16 -6 15 -5 -42 -4 41 0 -22 -13 -30 -1 2 9 0 12 45 -56 -40 -4 14
21 -47 -48 -11 5 37 -14 -16 53 34 20 -19 58 -23 41 61 -32 -42 -29 -43 7 -35 -45 -12 16 -9 25 26 -28 -9 14 5 54 -10 15 -58 51 2 12 11 -21 5 4 43 40 -24 -46 15 49 1 -18 20 18 18 48 -4 -45 -45 28 35 -20 16 -2 -54
4 -3 46 -22 -25 40 -34 -5 16 -47 15 -16 10 37 -55 -2 -47 22 8 27 26 33 3 -14 -7 -46 -19 -12 33 -13 -14 12 -31 -17 48 19 7 25 -48 12 32 58 -64 -29 -33 -13 -11 39 38 3 -27 -51 -3 -28 18 25 28 -29 26 -1 0 -50 35 5
41 20 26 29 -37 30 3 40 -7 7 1 -31 -1 30 -4 -9 -15 5 -20 -63 19 21 27 -29 16 -13 1 33 -26 -28 1 -33 -43 15 -6 -41 -2 25 4 14 -25 4 13 8 -14 -26 -8 4 -5 -6 14 -14 -6 11 -9 -69 19 43 27 15 -35 -12 15 10
-16 -18 -48 20 -32 27 45 12 25 19 15 77 47 -44 81 15 -7 -47 -2 -38 46 -41 -27 13 22 -16 9 -6 25 31 59 22 17 15 -29 24 32 -38 -14 -1 -58 -30 -14 -14 81 20 8 -33 -47 15 37 34 -28 37 -9 6 -28 -40 -5 -23 -27 18 -15 -26
-9 21 -25 10 2 27 -28 16 38 7 14 26 -21 -33 -30 -33 19 42 1 -20 -69 -23 26 -15 61 30 -17 -6 -17 51 -11 -16 7 47 26 -32 1 64 31 19 20 -6 -12 26 -10 24 -7 0 -32 41 -43 -38 -6 -31 31 -1 31 -30 28 28 -27 -30 -12 0
19 4 -2 5 -13 -10 4 30 10 29 4 2 -10 -42 -9 51 -27 -1 -13 20 34 -52 -34 5 12 -57 1 -48 -4 32 -15 52 63 22 -10 5 -31 -64 -38 35 -15 -34 38 -16 -13 -30 -9 -8 -19 3 28 17 38 -37 -27 -39 -28 27 9 -18 -38 29 23 -10
11 -46 4 -20 17 -6 40 -5 -1 36 21 29 17 -13 18 9 53 -16 36 48 1 32 3 1 17 -16 14 39 -32 46 37 17 15 -19 11 -2 17 6 -28 23 -11 -40 -36 13 -35 5 -14 -7 -5 2 -16 8 -2 46 -37 -7 23 -11 -12 21 6 34 -49 -1
37 3 6 6 -19 11 -11 -32 -15 46 -3 15 -26 19 -25 -13 -30 -11 17 -41 0 1 37 -10 15 -46 25 5 -66 16 33 -12 -43 37 5 13 45 9 -19 -21 3 -13 9 -10 -4 -38 -29 31 -46 -14 6 3 2 -18 59 -27 -2 7 -20 63 26 45 33 -19
-5 -62 1 -32 -12 6 -29 -20 40 35 37 26 19 17 -8 -26 -16 -3 -20 7 -17 -30 -28 -40 16 -7 -11 4 -38 6 3 9 3 77 -7 15 14 14 16 -37 -18 -28 -46 38 -7 93 -4 35 -4 43 -24 30 29 34 57 -10 11 -21 19 42 12 -11 18 16
26 1 12 37 -24 51 58 69 -58 -52 -8 44 -20 14 14 -15 -33 60 -13 54 6 2 74 -24 -43 -56 51 -29 -59 12 4 30 1 -2 28 22 4 -28 -4 56 -34 -26 -7 -51 38 21 38 23 -2 -34 52 6 6 7 21 -40 -45 -45 -14 -46 13 40 41 32
22 -17 10 -30 38 -22 -3 -39 -4 -61 7 -29 0 35 -19 26 4 -19 19 -22 -5 8 6 12 15 -14 54 -5 40 -16 -10 -5 13 -15 6 -7 -59 -36 23 -25 -20 -23 -14 -47 69 -6 50 33 -3 -50 -9 28 -63 56 46 4 2 -50 -8 37 29 14 44 -19
-48 12 23 32 12 -6 48 28 -30 8 -8 26 -27 56 -21 -53 -2 67 -18 9 -9 -29 24 -24 14 -3 51 33 -13 25 16 24 4 -26 -2 -31 -62 -10 -23 42 -20 -11 9 -30 36 -38 28 34 13 -15 43 -24 26 -15 44 -49 14 -15 -30 20 -53 21 69 27
-29 -63 16 -19 87 -20 -1 -66 79 2 -81 -25 68 6 -43 28 17 -55 -54 53 54 39 14 8 -9 87 -97 -64 35 -24 45 -8 3 0 -56 -24 63 -54 18 13 4 18 56 90 -71 1 -25 -86 -30 66 -62 -32 13 -46 -59 69 7 54 40 14 19 -18 -38 18
17 -52 -42 34 -2 -21 -30 18 -78 -14 45 25 -2 8 30 -35 10 -30 45 -31 -35 30 29 -5 15 6 28 2 -36 36 -11 25 30 14 50 32 24 -16 -39 23 -42 -80 54 -52 41 -37 3 28 -24 -14 -26 35 -43 51 38 -77 -22 23 -33 -45 0 -22 2 0
-7 -19 3 -11 -8 20 -14 70 34 -21 19 50 63 -3 14 -6 -26 -7 -70 31 23 -2 -21 -28 11 4 -45 32 25 -22 14 12 -7 30 -20 -52 -24 -27 14 57 -19 22 -8 5 23 -19 41 -36 22 4 27 -64 21 -50 -20 44 -58 7 1 10 -4 -10 -7 -11
21 23 -83 -6 -21 -3 -1 10 -50 -15 20 -13 -48 -4 11 -40 -29 -7 5 54 -7 -49 57 -28 3 -73 42 13 -43 32 -2 0 -1 8 -1 44 10 -4 -33 5 -19 -18 -26 24 -6 -19 9 67 45 -1 12 -3 7 43 -21 1 -13 -17 14 16 -20 20 -8 -20
-45 2 -39 16 -31 10 60 23 0 -22 30 4 -23 22 -15 -47 -1 6 -7 20 10 36 44 -13 -49 26 -18 8 -34 -37 23 -30 25 -13 -3 -3 7 -28 -18 54 -27 -11 -16 34 -23 -30 -14 6 4 -21 11 5 -17 -8 -27 -28 -4 -17 37 43 -5 17 8 31
40 28 43 -64 54 -22 -19 -32 -8 26 -14 -29 -50 -18 -35 36 63 -41 41 -31 -3 -54 -60 12 -15 -41 25 -1 35 -22 51 -13 -9 -12 44 -45 -14 35 44 -64 -6 -2 2 35 -48 -11 -48 35 10 26 -77 -12 26 15 -22 17 40 20 20 40 48 6 37 23
17 36 34 30 25 30 -7 21 -14 -38 -18 3 31 33 35 -50 -32 39 -56 -43 -43 -30 27 22 -56 -18 30 63 13 -7 -20 30 5 -41 28 -34 -56 8 -24 5 -45 40 -56 19 49 44 60 60 -10 29 7 23 20 -3 -53 -52 48 -56 11 -22 -43 -5 1 44
17 -22 54 -31 21 -25 -31 -85 56 29 -78 -14 33 -47 8 53 -42 -48 -2 24 24 23 -51 34 45 18 -67 -48 -1 -23 41 -49 11 68 21 -26 8 44 -9 -56 4 16 58 43 -72 14 -19 -31 45 56 -14 38 34 -23 31 85 -13 40 13 -4 57 32 -52 -24
7 -31 -30 -19 3 -54 -36 -8 43 -31 8 -11 -34 6 -22 36 51 -32 27 -9 -9 -20 11 -10 40 15 -15 -24 -38 8 -51 22 3 24 5 53 -28 40 -2 -76 7 -40 13 -8 9 12 -15 3 -23 -14 15 -4 -8 28 6 29 50 47 2 1 69 22 40 14
15 62 7 -31 -12 40 -10 5 21 25 29 19 34 1 -1 21 0 40 -48 3 3 -25 17 -57 -26 8 -61 -10 22 -11 -24 -16 -42 25 28 17 7 -51 23 66 12 1 4 -16 -59 -3 -34 20 -20 0 -35 16 19 -12 -99 -26 -32 -3 -5 -49 -8 8 0 10
-22 15 -41 -27 -15 16 -16 30 -36 -2 11 58 35 -17 17 -27 -35 -27 -31 27 38 32 42 -3 -35 -69 11 -7 36 13 6 -23 7 -15 -5 2 -15 -12 -16 46 -33 14 28 5 -59 -49 47 -35 2 24 27 -7 7 -72 -18 -23 -40 -27 -30 -46 -30 -54 28 27
68 4 -31 51 -41 57 34 29 -41 6 8 -10 -16 46 27 7 -49 57 -32 -12 34 -77 -1 12 -58 -80 13 69 6 59 32 -13 -37 -9 54 -62 -52 -6 -2 -20 -74 49 -80 -47 3 35 60 59 25 -20 -12 55 -47 49 57 -118 13 -82 -22 23 -31 20 52 22
-21 -28 22 -22 58 -51 -44 -47 45 -4 -75 -69 -3 -25 30 52 34 4 24 -25 30 -45 -44 29 23 56 -48 15 21 11 11 -1 -13 -16 -12 -12 26 13 21 -64 30 -23 55 34 -50 8 -48 -32 0 22 -67 1 27 28 4 79 12 33 -7 45 58 39 -41 -31
0 -36 28 31 6 20 -2 -31 -67 52 -54 -16 22 -6 4 -49 -15 28 23 -22 -4 31 -8 -46 5 -3 -22 35 -46 -32 -47 12 24 -7 -59 17 -26 -4 20 -5 -25 25 32 4 0 22 -32 -17 -31 -10 49 -28 14 34 -30 -23 -45 -4 19 12 18 30 -41 49
-50 10 -13 23 -23 13 -42 56 -7 -42 -23 -44 -30 12 27 28 -27 -41 29 26 0 -23 5 8 -11 46 23 -39 -8 34 -19 6 20 -27 50 10 15 -54 12 5 1 -6 21 22 -51 10 -39 13 25 -41 16 43 -10 -44 10 -12 -11 -12 -11 -14 14 15 33 -42
48 -21 13 12 36 -2 64 -17 -7 10 41 48 -58 13 12 -1 16 18 -17 18 -18 8 -29 -45 23 8 -15 7 14 10 -70 3 44 -4 -17 -47 -16 13 66 23 12 37 -1 -10 6 19 -7 -19 -10 41 -5 -16 18 -13 20 25 30 9 -39 -7 -33 -20 10 -1
-12 2 3 57 -59 10 -10 -39 -21 15 -7 -27 14 14 -47 -24 -32 -21 -20 -7 -6 3 53 -27 -49 -21 -4 -17 -32 -10 27 44 -13 -3 7 33 21 48 -2 -27 48 -3 8 -23 -26 -2 -40 3 -1 -6 -22 47 13 -16 39 -27 -25 -22 -8 -17 -24 -13 -10 -18
-5 30 -29 53 -71 55 -24 -10 40 -24 -30 -8 -59 31 15 6 -16 4 12 -18 4 -5 58 -41 -16 6 15 -23 -24 -13 37 10 -40 23 0 45 -6 -28 -52 22 29 -22 30 -1 -1 -37 -63 42 -27 -13 -37 28 1 18 43 -49 -63 -9 8 -1 -27 -6 6 -37
12 -6 41 13 -20 -28 20 23 -58 4 1 -7 -46 1 34 32 24 29 11 33 -52 60 18 11 37 50 -11 -35 -32 40 -6 -5 21 13 13 -20 -18 -68 -32 -32 21 -35 -12 48 36 2 -37 8 -30 -60 -9 -1 0 -47 -21 19 22 -25 6 -19 -30 2 9 47
-20 16 19 -45 39 -39 -34 50 -8 7 61 -49 -6 -23 17 -33 39 -18 1 38 22 44 0 28 52 8 -28 35 17 33 25 -5 38 4 -22 2 4 -25 46 21 -50 -33 13 18 -3 -19 0 -34 49 -9 19 -1 9 8 -42 14 21 9 16 -15 -3 -22 -37 7
-17 55 -26 22 -42 18 -10 -1 54 24 9 76 24 -6 15 19 -5 23 -56 25 -6 19 -14 -65 7 1 -8 -20 2 -39 15 16 -4 -24 15 29 -11 43 21 -17 -21 -6 2 -42 -18 15 13 3 -10 57 -55 -55 17 9 -4 27 -5 -16 -38 36 -24 1 -18 7
-1 26 3 32 -23 8 -3 -26 20 -46 -48 52 28 -8 8 -13 -2 4 -9 -48 0 -67 -47 20 -14 12 0 -5 -41 -17 6 -41 -8 28 14 -44 22 -1 29 4 -1 20 16 -9 -16 17 26 41 -16 6 -16 11 3 35 -27 1 -10 6 -34 -13 35 -37 19 26
3 -37 -7 -50 14 -44 -19 -9 -23 -26 -18 -27 37 -21 -15 -14 -4 23 16 17 -15 -30 -22 11 24 44 19 -10 51 33 -8 -9 -37 -14 -15 -47 10 -20 43 -4 0 -10 -40 39 20 49 50 -69 -9 7 48 -12 -52 37 -34 -14 9 42 -12 -9 -10 45 -25 34
-35 -51 4 32 -1 -8 20 1 -18 -6 54 -85 7 6 28 -19 -5 -16 16 -31 18 50 -8 -5 29 -4 -1 -28 18 44 -6 8 -3 -23 27 22 24 -24 -2 17 -11 26 17 -6 10 11 13 -9 36 5 22 16 -18 -24 -33 6 1 -31 16 9 -4 -1 29 -10
7 -49 6 -68 42 -9 -57 -19 -32 14 -32 -36 11 12 -2 -28 21 -40 38 5 9 24 -60 53 -10 30 -4 32 49 41 -3 -17 10 -28 -20 2 -39 36 4 -35 -26 2 -4 -6 12 46 -16 -18 48 21 1 21 46 5 -57 34 38 -1 -46 34 33 32 30 -8
-17 7 26 -16 41 20 -59 -12 -36 -7 9 -50 18 0 20 -30 -31 -37 11 2 13 25 2 11 -16 -31 -22 48 2 -15 11 13 11 34 -28 -75 -27 25 2 9 -35 34 20 12 -3 -53 6 -76 35 -10 26 -26 33 22 -30 18 -12 38 -6 29 4 -35 8 -22
38 31 -33 24 -34 19 -1 -3 76 -6 -17 49 31 -57 13 -4 12 -1 -26 -33 2 -12 -44 27 -19 24 14 -1 15 -71 9 15 -40 -2 26 -63 27 27 38 -35 -32 20 37 -7 -59 42 6 -1 34 57 -59 -45 -22 -13 27 23 20 21 22 57 -5 65 -7 -39
-36 -30 -8 -17 -14 7 4 34 -17 -3 -47 2 -26 -40 -17 -45 21 7 49 23 -59 23 30 -25 -20 20 -12 22 33 2 -27 28 38 -18 -80 -11 -42 -1 20 36 -33 -6 9 17 1 -9 -2 -53 21 26 20 1 12 30 -25 24 -11 3 15 8 63 -10 6 -1
-27 -8 15 -2 -11 21 9 -55 9 64 -8 -47 11 -16 -4 -22 12 -9 -5 -14 -3 17 9 31 -42 -16 11 26 17 -19 -46 -16 22 15 -45 -13 20 -13 12 -9 -30 -6 -54 -43 5 -26 -13 18 32 -22 39 5 31 -13 -13 -28 -54 -13 -6 7 4 -17 11 36