-13 -10 18 22 -28 35 -21 -17 -16 -33 16 -3 25 -22 -15 2 15 -22 18 11 -13 -3 10 -3 -5 21 0 13 -5 -5 41 -16 -17 7 -5 23 22 23 -3 -25 19 35 12 6 20 14 27 14 12 4 -38 39 15 -1 -3 9 15 13 -19 31 -23 53 37 -3
10 29 -47 -7 -13 -19 -3 22 9 35 -22 -17 12 -11 -35 17 13 8 54 40 19 19 70 -1 -53 45 -3 39 -1 47 13 22 -13 21 33 25 -17 8 -11 19 5 8 19 29 19 -22 -34 35 0 11 -13 22 11 -7 47 -17 28 -17 -9 -41 49 -32 1 -21
8 27 -3 32 -7 24 -24 -1 -23 -17 -18 -13 51 -15 10 23 37 43 -37 -4 2 2 2 -17 3 6 -32 38 21 -35 -19 21 36 51 -21 1 3 -2 35 33 26 -44 13 -33 -23 -44 -37 -49 -61 -50 -15 -3 -23 -55 55 37 43 70 50 -63 -11 -24 -6 14
39 -8 4 -2 -36 -29 5 6 35 -21 -5 -1 11 22 -9 -18 0 -45 -18 31 -5 31 1 -9 -25 6 -5 21 17 39 4 -21 17 49 -46 -15 -18 -39 13 16 -11 -18 15 -26 -70 31 11 -46 20 17 13 -34 8 38 6 -29 1 -8 -41 13 -17 -1 12 -27
-23 0 -44 22 12 -26 9 3 -21 36 7 23 -34 -30 10 16 -17 -38 -13 -18 -2 0 -26 12 15 -78 -29 -9 -33 63 2 -29 0 -18 12 1 0 9 -11 -16 -6 -27 -16 -4 17 -29 7 -24 -23 -48 31 -10 24 -15 -10 40 2 -13 -17 3 19 -7 -9 -5
50 -32 -16 -9 -10 5 8 39 24 -21 19 7 41 -42 2 31 27 -12 -33 2 -38 -5 11 -12 -8 -28 16 26 31 27 -2 -16 7 18 39 9 11 4 -5 23 0 -11 -12 -6 15 -28 -16 39 9 -12 2 20 -29 -3 -34 -29 -24 9 -37 27 -22 -7 12 -2
21 -9 -2 15 33 -4 -44 -15 -26 21 15 13 8 -4 6 -27 45 53 9 -53 36 -25 -47 -34 -37 2 -16 11 -61 37 -23 46 7 0 -8 4 1 37 27 -19 -23 -36 20 14 30 -7 -5 16 -6 -12 18 -36 19 29 -16 22 -18 -15 -5 -7 19 9 -20 -4
-18 -6 -21 19 21 13 28 15 43 25 -10 33 47 13 1 15 -13 -15 -31 -13 -30 -30 -19 36 36 -9 23 -12 52 -29 20 -9 13 27 -14 20 -9 -22 -9 16 14 -14 20 -17 -32 20 -23 -26 -17 6 -9 44 -33 -33 0 -20 -20 21 22 0 12 -11 27 6
15 -43 -4 4 12 -28 -4 22 -16 -40 51 34 -8 28 8 32 1 -13 13 -7 18 -8 -3 -2 -8 26 25 -37 -28 10 -30 -6 2 16 -12 18 8 47 -42 12 -68 65 7 -37 -36 -19 -22 -30 7 -55 38 0 26 -5 19 15 17 -35 -7 -21 20 10 -14 -12
-31 14 15 0 0 18 -55 -37 -45 7 -73 -20 61 -30 -16 9 -8 15 26 20 30 -3 2 -25 6 -18 -11 1 -59 -20 -15 26 21 4 -8 -13 -2 -4 5 -5 -5 20 -42 -33 -48 5 -18 -18 16 -41 -21 -19 11 -7 31 23 35 24 -14 -29 7 -30 -28 10
5 -17 27 -3 -1 -40 -21 -25 -26 36 14 16 27 -45 -30 -10 29 -23 -31 -13 -53 1 -48 -8 63 -73 -37 -9 37 -13 8 7 8 1 -18 -18 -35 -9 -19 17 20 -2 32 8 29 -27 -22 -36 -55 -63 16 66 4 -48 -38 22 -29 -8 -10 0 -7 23 46 61
-6 -8 -1 -48 0 1 13 5 45 47 31 31 -28 -8 -1 -13 0 -17 6 14 20 10 38 -3 -21 78 -10 43 40 4 -21 2 12 -16 12 -4 13 8 28 -32 21 -24 39 6 20 -37 42 25 35 26 -39 14 -13 -10 8 -27 7 -26 6 6 4 12 40 -29
10 29 -1 -41 -11 -17 10 10 14 21 37 -21 26 9 -18 -2 -9 28 -39 36 -24 5 -8 -7 -6 21 18 -3 -4 -8 -22 23 3 -25 16 9 22 8 0 -2 6 19 -23 49 50 -1 30 9 -8 5 35 -24 0 -26 27 17 -3 -15 2 23 -5 11 -24 -4
2 -19 -2 19 19 -15 5 49 6 -30 -26 -13 6 4 17 35 51 3 14 -50 32 18 -25 -1 2 11 -37 1 -28 3 -47 27 -5 -41 35 8 -4 23 -1 7 31 -3 34 57 -6 -7 -6 30 -42 -27 -34 19 -4 -5 -17 4 -9 -11 1 26 -25 35 23 18
22 10 -47 -33 1 -23 44 -5 54 63 3 23 -44 14 -44 -42 -20 -35 -1 9 -43 -11 -43 66 36 26 57 -39 42 15 48 -56 8 17 15 -61 49 4 -18 46 -43 -2 -12 -51 22 -1 -37 16 -52 6 29 12 -9 -13 -12 -30 38 -25 -22 -34 9 -9 -16 33
-18 7 -29 -46 36 -11 20 4 16 31 25 35 -15 14 28 -49 22 -10 -34 -18 4 -23 -38 -18 20 -3 -9 14 2 36 -18 19 41 -10 -10 -19 -12 4 18 30 9 24 -3 23 16 36 -22 30 -56 -29 18 24 0 -28 -10 21 -13 8 9 6 -6 21 -2 20
16 2 -27 -8 25 -22 17 27 -11 -7 14 9 -7 7 17 -15 34 29 -25 -28 23 -29 -9 -8 48 -31 -16 -16 -27 54 -40 37 -19 -16 35 -9 -26 39 -20 -5 -39 -13 7 8 45 -13 21 39 -16 -39 12 7 -13 -4 -13 3 32 14 -27 -28 27 -14 36 -16
-15 -24 -16 12 -55 -30 -10 37 -6 1 31 -5 13 22 -18 -2 28 -7 -2 6 -56 -15 -46 1 -17 -29 -18 -26 49 22 13 -25 -43 2 33 27 -37 -18 -2 17 9 -26 28 63 42 35 24 61 -15 28 -1 27 -25 -12 -36 -16 12 44 12 16 -21 30 38 2
-47 28 3 -12 21 18 -36 -26 11 40 -12 19 16 -46 8 10 24 45 -48 -30 -25 12 -39 18 -6 37 -12 30 50 -13 -8 11 48 27 -14 6 -14 3 10 49 -1 6 -14 -33 11 -2 -10 17 -52 42 7 85 -42 -46 -59 1 -7 30 38 19 -34 64 2 60
-76 16 1 -40 31 56 -27 -21 -12 -19 -79 -52 11 23 21 -16 9 17 -17 34 -5 10 68 2 -21 34 -2 24 4 -9 15 -10 10 -72 11 1 15 -5 -9 -52 20 10 17 20 56 31 41 70 -19 -17 -17 27 -56 -48 47 61 -9 2 37 -15 -25 3 -20 16
8 -27 21 10 30 14 29 7 -3 -35 34 11 -51 43 24 -27 -11 -17 32 -2 19 18 -12 -8 -11 11 23 -29 38 -2 -17 -16 -22 -21 -9 16 7 15 14 -38 -19 15 8 8 -6 -42 16 -5 42 64 1 -17 -8 77 -8 -26 -31 -60 -50 54 2 -13 48 -40
-32 62 -11 -47 -24 -43 -25 25 -22 53 -36 0 8 -36 -1 29 30 8 -30 -7 -6 7 9 10 -26 6 -8 -29 -17 -3 -21 17 -13 38 -5 -26 4 34 7 3 -9 35 2 -16 -19 -34 -3 -12 9 -20 -17 13 13 2 39 -22 28 -3 -1 -23 3 -28 -36 7
54 11 -7 -20 -41 -15 -20 -3 -2 19 -27 -34 6 3 -14 -6 22 6 -40 -7 7 14 -18 -1 10 26 -15 47 47 -12 -1 -10 12 18 -34 26 -20 -14 5 8 55 30 23 15 -36 50 -7 -29 -35 -1 -11 29 -27 -16 39 -20 -19 -14 46 7 -17 7 -14 15
-39 -30 -3 32 19 19 -19 -1 -14 2 12 47 -11 -25 -7 2 -20 7 2 -17 -3 -3 -1 -2 -1 10 22 -6 19 35 40 -5 -13 65 -12 -23 -32 -9 -18 19 -8 -2 12 5 -36 20 -49 -64 10 12 -19 12 27 0 -47 -46 18 -8 -2 23 13 13 24 27
-4 -16 47 26 77 37 -32 -50 -26 -99 -26 -80 -53 6 45 -48 15 20 50 25 -3 34 27 -1 -19 -7 13 40 -38 19 21 32 -6 65 -13 -9 -39 9 3 27 30 10 46 -13 4 -30 -45 -44 3 23 -22 -28 -23 38 -9 -1 -21 15 2 8 -21 -16 -10 34
-10 -10 27 24 36 26 -13 2 -18 -57 -68 -48 3 -39 47 11 -27 -34 40 43 15 21 -6 17 8 10 2 26 2 -41 -10 -45 2 40 -13 20 -65 32 -22 9 15 -4 41 8 -13 4 -47 5 12 20 -21 17 3 -7 4 -16 5 29 11 38 -32 -32 56 -40
-25 12 -20 30 17 -30 -31 11 -26 -21 -40 -2 32 -61 8 13 7 28 -39 -2 7 -29 -24 0 5 19 -34 8 -27 34 20 20 31 -5 3 -18 11 18 3 23 -40 -2 19 12 62 -21 -13 -24 -47 -33 -33 62 -59 -52 -32 20 -8 39 39 -2 14 5 -13 64
25 -24 -12 23 9 15 -9 -13 -12 1 1 -12 -21 4 41 -16 29 -10 27 -16 20 17 12 34 -1 -30 12 -17 -24 -19 -15 -7 -28 -45 39 41 26 6 15 -37 -22 -4 -1 68 54 6 70 85 -17 -28 14 -38 11 26 18 8 -13 -6 26 17 31 -11 -10 -8
14 -39 46 33 29 24 21 -19 -43 -47 -18 2 -26 -30 30 -17 24 -3 44 0 26 0 12 28 11 48 -14 8 -3 -11 -6 14 34 23 -47 -16 -36 -10 14 34 33 -8 17 -17 -45 47 -10 0 61 7 -9 -54 -21 -16 57 15 25 15 4 -1 3 -12 11 -41
23 -47 3 -10 31 -6 4 32 31 -9 22 7 -27 19 -21 -12 6 -14 14 -31 35 19 -6 -19 5 3 15 27 9 45 -36 8 0 -23 11 10 -13 -48 6 18 24 -30 -18 12 -25 8 -16 14 40 57 -39 -33 -6 -3 6 22 5 9 4 -10 1 -36 -30 -2
-27 46 7 5 -32 -7 -16 -15 -1 -24 20 -6 3 28 -16 -13 -1 37 16 -17 29 6 -5 -9 9 -17 23 8 12 -35 -15 17 -10 15 -12 -6 6 17 25 23 13 16 -11 -39 -23 -3 11 -12 19 -17 -11 -11 -1 14 -11 24 -10 0 -5 -4 48 -43 27 -40
10 -38 25 30 -13 15 1 5 18 -24 10 3 -18 20 -11 24 19 2 -46 -41 -4 1 40 -15 22 -32 -8 9 -17 47 -9 28 8 -7 26 4 -13 50 -21 -12 5 1 -1 -46 -6 -45 7 18 -29 -39 6 28 -27 -55 -4 24 1 39 51 -42 -26 -6 -5 37
-38 54 -29 -51 -19 -20 3 1 16 8 24 8 -1 26 -22 -1 3 -6 19 -8 -11 24 -34 32 27 -33 -9 -23 -14 54 6 27 19 33 6 -5 -9 47 -35 9 -51 23 -1 -13 -13 26 -17 4 32 27 56 21 -17 -12 19 49 20 14 -1 25 12 11 0 -31
6 -11 -39 -57 -4 15 35 -22 49 33 -10 0 -45 57 -9 -13 -4 -11 12 42 -14 -5 7 -4 -28 44 2 40 2 -3 16 -10 6 -2 43 -42 -4 10 26 28 23 -54 8 -11 3 -34 30 5 30 58 -47 -11 5 25 -7 -7 -10 -21 0 7 1 13 0 16
-13 -11 -30 -12 -33 27 -4 4 24 15 24 46 9 7 -5 -8 -39 -38 6 -1 18 -29 -31 -12 23 -57 9 -37 19 7 18 5 22 18 3 -1 22 -1 16 -36 -15 18 4 -3 -10 -31 27 -31 25 22 14 18 -1 52 -42 -48 -4 -59 -43 62 2 7 43 13
-20 -40 -6 28 35 28 -15 -23 12 -31 35 -19 41 38 30 16 30 27 31 -12 -31 3 4 37 1 48 10 18 56 -16 23 -8 -41 -42 -8 12 -3 17 -14 -19 9 16 27 28 -6 10 19 29 -22 33 -39 10 -28 -48 -4 -18 -10 74 20 7 -19 -21 14 25
40 -19 0 -8 -1 -7 4 11 -5 -23 4 -34 -58 6 17 -56 4 -26 43 14 8 -7 25 21 -3 32 11 -48 -40 41 26 0 4 26 42 23 63 -28 -2 -15 -46 17 -12 19 -22 20 37 32 92 11 26 -45 27 36 61 57 23 -29 -29 20 57 -65 7 -34
-18 18 44 43 -11 6 -34 -21 -20 -29 13 -51 -30 -44 20 -3 -28 12 1 -8 -7 18 53 -10 -5 -14 7 9 10 0 27 -13 -27 39 6 7 1 48 6 -27 -24 -41 29 -46 -32 -35 -18 -30 38 4 18 -19 11 17 5 -16 10 -37 -22 -12 -2 -9 30 -44
-31 -16 -41 -12 -19 -18 60 -2 24 12 2 27 23 -4 -30 9 -69 -72 -24 20 2 2 -35 14 6 -45 50 25 29 -2 28 -46 23 32 -84 -16 12 -24 -55 -40 4 47 18 -35 -60 37 16 -60 19 26 -5 20 21 17 -25 -12 -14 2 -21 11 11 20 29 -14
-2 26 21 25 -16 5 -29 -18 -45 -18 -11 14 4 -51 -10 -41 20 -20 21 1 -9 -19 -55 43 -3 25 -11 31 -15 44 24 -8 32 28 13 -5 41 16 16 6 14 -14 44 2 -26 -29 -39 -60 14 -33 28 -37 3 -19 35 -3 34 22 4 -40 22 -16 -58 2
12 25 -3 19 -31 -29 -24 4 -20 -13 -11 2 19 -43 -5 24 3 57 -33 -9 26 -26 -23 -8 -8 25 -22 -22 -3 -49 -33 11 -18 -13 -13 38 -35 -44 -23 -1 39 3 4 1 6 31 8 26 -2 -6 31 24 -19 19 7 -32 24 11 14 -1 -34 9 17 27
0 -31 3 18 32 8 -18 -8 3 -44 26 -30 20 25 42 16 -19 31 66 27 1 40 69 -21 -18 19 28 -8 -8 -17 1 35 -28 -34 -13 46 15 52 -59 -75 60 45 9 4 5 51 30 9 33 9 -8 -38 9 7 31 -29 38 1 -16 -4 33 -44 9 -20
38 -20 16 43 -10 -43 11 23 2 -24 -3 2 -26 4 8 16 9 -11 22 44 40 -35 19 21 14 18 -15 12 -3 24 -35 22 -38 -70 30 -44 14 -31 -19 -13 20 8 -27 44 39 31 31 61 36 23 42 -39 9 25 52 35 51 -22 11 -41 14 -29 -33 18
-7 12 -23 -1 7 -14 -48 4 -8 15 17 5 -24 -29 -11 12 38 19 33 -21 39 -8 -20 -58 -2 15 -3 -12 -39 16 -29 32 10 18 11 -12 28 29 17 -6 -10 24 22 -19 -21 -29 4 11 1 -5 38 -59 15 28 15 3 43 -17 -6 -35 16 -22 -62 -34
-25 -2 -22 -4 -17 -8 -11 -30 35 39 -15 12 42 -17 -7 18 5 12 -39 12 5 -2 -39 -29 22 -13 -9 -27 12 15 -15 13 0 -18 -63 -24 -24 -73 32 49 35 9 -11 7 -34 48 -8 -2 -29 -44 16 15 2 18 -47 19 -21 -33 17 -16 -24 51 22 -7
20 -28 -3 18 17 20 16 -27 20 -18 15 -39 -31 3 32 -11 -8 -58 -17 22 6 -15 11 16 13 -41 35 0 -29 -10 14 -45 -23 47 -11 -4 0 -2 -23 13 15 15 28 -5 -47 -8 -19 -46 -26 -48 18 24 -11 -16 -3 27 29 -28 -30 -31 7 -29 -26 13
-5 -15 -35 -37 -1 -13 21 25 1 14 25 51 38 20 11 10 -10 -50 -41 53 7 -11 -29 31 19 -36 31 21 17 33 33 -43 -22 -28 -45 7 2 -33 16 -14 56 -26 -17 -5 -72 63 52 16 -8 38 -2 27 4 19 -10 0 -25 -36 -11 23 -40 9 13 -11
6 0 -8 0 -48 -40 10 18 30 4 55 1 28 -43 -11 2 -30 14 -12 -10 -41 -12 -20 7 16 -24 -6 -32 9 -10 23 -10 -21 -3 -23 9 -17 28 2 -17 13 -3 -2 -6 4 -44 -5 -13 -16 -12 16 32 -12 31 -21 0 -45 -54 -38 45 -47 51 36 16
12 -14 -8 -19 8 40 3 -7 -16 5 29 -21 6 40 33 24 -7 1 -20 1 -4 12 -25 19 -1 -31 -5 53 11 3 25 -13 1 46 -32 10 -19 -16 8 32 23 -67 25 -17 -26 -24 29 -40 9 6 -9 -34 15 62 -58 -52 -49 -48 -48 37 -34 46 41 -19
-31 29 20 -23 15 8 -30 -1 8 -39 -34 -49 8 -14 -37 -33 -25 18 3 -33 -12 29 -11 -50 21 -28 -45 4 -79 -23 -66 14 -35 18 2 25 41 21 -17 0 -5 6 -31 -21 -23 12 18 -28 -20 -92 41 -38 -14 39 -1 28 32 -4 24 -63 32 -47 -10 -32
-10 -11 15 -43 -17 6 4 -12 -5 -1 10 -7 12 19 -5 7 -21 16 -10 -9 16 5 52 25 0 58 -11 -18 11 -23 16 -31 8 55 4 -14 -34 32 -25 26 4 -17 50 -20 4 -28 -29 -36 -19 41 -12 20 -21 -25 29 10 10 55 28 -33 -17 -20 0 9
6 37 -13 -30 -7 -29 7 -10 34 65 18 -28 -6 35 -13 36 -16 -43 -12 -12 -41 35 6 8 -16 -18 21 24 33 3 21 -29 -6 42 32 3 10 28 18 -9 -13 -23 30 1 -17 -63 20 2 3 2 -38 1 -5 4 20 5 -12 20 22 16 -25 27 -32 1
15 5 7 45 37 -19 -15 4 -26 7 4 8 -13 -10 -14 7 -14 43 29 -19 21 -44 -18 13 -26 20 -11 17 -13 33 -10 20 15 -12 27 7 31 26 -3 0 -51 -44 -5 33 32 -24 -12 37 33 -22 54 -57 3 13 38 -18 2 -48 -37 -32 7 -39 -28 -20
-28 -17 -37 -17 40 5 -12 1 -22 -5 27 20 -12 40 42 20 -44 -48 34 -4 -16 -14 8 47 4 10 17 -13 39 10 48 -25 7 53 -6 8 -44 -20 20 44 -10 2 10 -15 -9 -48 -42 -31 -26 23 20 43 32 -28 30 41 37 17 8 12 -11 18 -9 17
-4 -23 10 -35 -18 1 -23 12 21 -57 34 -54 -49 21 25 -2 -12 1 18 -4 4 -2 24 -12 2 -15 21 -13 -25 -11 -12 32 5 13 10 36 -51 -3 -18 27 28 -36 0 3 -34 13 -24 7 38 45 30 -28 15 14 45 14 54 -8 -25 -39 5 -54 -35 -20
-5 -15 1 -18 -4 -8 42 33 29 21 29 20 23 -7 -28 50 -9 25 -55 44 0 -19 5 4 17 -19 -4 -9 5 -67 19 -23 20 13 8 -5 63 -22 11 -30 -22 -4 -25 16 2 -10 31 29 54 60 -11 -12 2 -15 47 13 -6 19 38 -5 -26 26 12 16
53 30 28 34 -11 -57 -17 8 -15 38 42 -11 4 -12 -28 5 21 46 46 -9 32 8 34 -48 4 6 -2 -3 -45 -61 -18 45 -58 -37 1 39 -11 39 -60 -21 2 69 10 40 39 37 -33 67 -6 -16 -11 21 7 6 -86 -39 -14 -68 -35 -12 21 51 13 32
11 -24 -30 17 -6 0 -19 4 13 23 6 31 50 -38 -10 33 28 10 20 -27 -2 14 -24 -25 -1 14 -12 16 -41 1 -33 43 -51 -9 24 -1 32 38 20 -35 1 4 6 3 59 -52 49 -1 -5 3 -4 -13 1 -24 -9 4 -23 21 24 -28 -9 -9 -22 25
24 5 -30 -14 -16 -39 -12 32 46 41 67 34 -5 31 -37 24 -36 2 54 50 17 -1 27 -5 1 -12 9 -5 -53 18 -13 -16 -24 -51 -10 46 21 -10 -36 -27 17 21 -12 2 -41 40 49 17 30 -56 16 -60 60 81 -20 9 -19 -73 -28 24 28 -13 -22 -78
22 1 -8 0 -17 -34 -17 17 -16 -21 9 0 11 -28 -28 11 7 7 -35 -26 -13 12 -46 -50 37 -69 -14 -30 -57 -10 -19 29 -26 -53 -11 10 25 -8 -15 -43 28 -16 -3 2 -24 54 52 51 -19 -26 31 -35 18 -7 -12 -7 8 -50 -10 -7 -1 13 -5 -1
-29 11 -8 -24 1 -16 4 -13 43 -32 13 -16 -10 -2 11 9 -54 5 29 56 35 8 4 1 -14 -12 42 -24 25 -9 39 -31 -22 23 2 -21 28 -24 -10 -15 -49 -1 -27 5 -25 -3 -37 0 9 26 23 -51 19 60 -1 -29 -13 -26 -48 30 2 -13 33 -45
-2 32 -20 -18 8 -31 2 -39 -14 54 34 8 -14 16 -35 -27 -43 -16 10 -17 -22 -17 -14 -13 -1 -52 -2 -17 -44 2 -1 -12 -20 -24 -1 16 15 1 -9 -2 8 9 4 22 -7 25 -10 42 33 -68 7 -31 25 42 -19 28 11 -94 -56 -1 41 9 22 -28
-10 25 17 -45 -7 44 -8 -17 -21 -19 35 17 46 9 -14 50 -9 5 -16 -34 -22 -37 -70 12 29 7 20 -25 86 -66 30 -16 -12 0 13 -33 -32 -6 25 57 -4 -39 18 -17 -6 2 -23 -37 -21 34 -34 73 -57 -29 -47 -28 -25 49 18 48 -84 63 39 59
8 39 0 -13 -8 13 -17 -34 -26 -20 -36 -10 42 -64 1 -45 31 69 -37 -11 8 20 -3 -29 -2 8 -19 13 -15 -25 -45 -6 -17 27 34 36 -16 35 -27 28 24 41 13 -18 44 -21 -51 30 7 -2 11 41 -5 -62 25 -3 6 14 59 -38 -5 -17 -38 8