22 63 43 -32 -48 -24 1 -11 -43 -12 -15 -64 -6 48 5 37 12 57 -38 -17 2 -1 29 0 0 -4 -17 -16 -41 -34 -46 65 6 -15 -17 -2 -69 -25 5 -24 -42 47 12 -7 36 6 -38 -19 -1 16 -18 -21 26 28 45 -41 -32 7 -32 10 -34 -23 40 -18
33 -20 -11 -2 28 -16 2 -28 -3 -7 -25 10 37 -14 13 -41 11 -46 -1 32 25 23 5 15 36 -4 16 28 56 7 -6 -4 36 -24 -20 1 1 -18 20 34 14 5 -6 -32 3 -64 31 20 -13 10 19 0 15 -23 15 -31 7 -7 40 -24 1 45 6 -5
34 -48 21 -11 34 16 2 3 -56 -4 -7 -4 51 7 5 -53 54 -5 39 -26 -21 13 -3 57 51 -9 -1 -35 44 48 11 -31 20 27 6 31 -8 9 36 20 51 8 -31 68 -12 -26 -3 15 21 -34 32 -12 -4 -29 61 -30 -9 -1 -21 -12 13 -7 6 8
7 48 13 20 -6 -12 2 0 -13 26 -25 -42 34 2 4 -16 -9 -8 -36 35 -18 13 -5 -10 39 -55 10 20 -8 -39 -35 28 22 -20 -41 -15 -29 -21 -30 4 -2 12 1 -32 -11 -37 -42 18 -1 62 -40 -18 21 20 31 13 -6 18 37 -36 -31 27 30 22
-29 -54 -29 6 6 22 30 -6 -35 17 -6 17 56 1 -6 7 19 -64 23 -2 22 -21 58 26 63 33 21 1 34 46 42 -21 -14 -18 -29 37 -5 51 18 -21 27 -34 27 27 40 -33 15 11 -10 -48 -12 33 -14 28 34 -13 7 -24 21 -7 20 3 -10 -21
-35 53 -46 -9 7 10 11 -7 53 -12 -36 -11 -29 2 -9 53 -37 41 -9 39 13 -19 5 -58 -67 3 -6 23 -43 -34 -2 10 -36 -21 24 -38 10 -7 -28 -27 -70 19 -10 -62 8 35 4 -5 -2 20 -29 2 0 25 -57 18 20 -4 3 28 23 -2 31 9
36 -20 31 4 12 -30 -24 8 -30 10 16 24 31 -19 28 -53 44 -49 5 -8 4 53 -45 66 50 9 -26 -37 51 52 -10 -41 10 51 -14 65 -42 17 16 41 45 11 -4 53 -11 -52 -16 31 -14 1 40 -6 33 -8 79 -23 -15 -5 -23 -34 -30 -20 0 -24
22 40 -17 12 -34 -3 11 4 19 17 -1 -5 -57 28 27 84 -31 59 -6 -10 -8 -30 10 -61 -61 -36 7 -1 -54 -32 -41 26 -29 -44 6 -61 10 -16 12 -38 -38 1 33 -26 29 2 -28 -10 -57 -6 -55 0 -30 59 -8 7 25 9 -11 47 -18 24 -2 12
20 -59 -11 -18 55 -7 -29 -28 -21 -9 7 53 67 -3 -10 -51 35 -54 26 15 21 -16 -12 58 46 11 21 -6 71 39 48 -70 11 24 -16 19 1 35 30 24 45 -15 15 41 -46 -8 32 9 9 -7 17 15 35 -7 48 2 16 14 -9 -22 -20 14 -22 4
-12 -38 -21 12 37 -22 14 20 28 -53 -43 34 7 28 53 69 -37 22 16 32 -8 -41 1 -36 -61 -11 18 4 8 -24 -11 58 16 -28 23 -43 -24 -68 62 15 -24 47 -11 8 -7 46 44 26 42 -16 13 37 17 -10 -7 18 -25 37 -10 20 -22 15 -30 -38
14 28 33 9 -2 -31 -14 40 -65 16 -22 -28 -2 59 53 4 23 19 -4 23 -17 22 1 -37 28 -37 -29 -39 18 -25 -50 62 27 -9 -3 -29 -80 -44 13 2 9 80 -1 9 -4 -16 -5 7 22 58 -36 -15 28 -29 37 -3 -13 0 -8 -3 -40 -18 8 23
37 58 19 -12 -43 -21 11 5 -8 20 -36 -42 -7 56 25 -17 -22 24 -32 5 -22 49 5 22 -14 -40 3 -3 6 -14 -30 5 4 -9 -4 1 -48 -29 -37 -8 -4 60 -4 16 18 -19 6 1 6 23 -7 -29 -8 5 4 7 -24 12 -18 -6 -39 -49 27 -5
-46 0 -57 14 -18 -3 6 -31 83 -12 -22 -5 -19 -6 -56 38 -38 46 -25 28 39 -55 -6 -58 -87 18 33 44 -62 -42 35 46 -14 -38 23 -65 22 -4 -1 -65 -43 -37 18 -37 10 48 19 -17 13 -21 -36 25 -30 37 -79 43 1 18 9 30 18 25 9 -9
-17 -51 -44 -4 26 23 29 -56 15 39 -16 76 55 -9 -35 -4 -9 -59 16 27 51 8 3 31 19 30 26 7 9 26 23 -9 16 1 -35 36 6 16 -21 2 19 -3 9 -2 -12 -26 35 -4 -30 13 -7 44 -7 -15 47 -7 2 -26 29 -9 1 25 -18 -5
6 18 49 4 6 -17 -8 -9 -72 -34 -58 -37 -14 65 36 -5 3 45 1 -13 4 20 5 20 7 -21 -16 -44 6 -11 -53 47 34 -2 -11 12 -91 -27 7 18 -38 84 -5 10 12 2 12 -1 5 34 -12 -18 20 -22 47 -35 -18 32 -15 -34 -16 -7 21 0
17 3 54 -26 40 -50 -68 32 -59 -16 -41 8 28 15 40 -101 38 -1 1 10 18 -1 -34 53 61 -17 -24 33 41 60 -17 -12 35 37 36 65 -22 -52 -18 68 71 59 -67 34 -56 -11 26 42 42 1 86 -31 69 -69 9 -23 -46 56 -6 -46 -7 -7 9 -3
47 -21 44 17 -37 7 34 40 -14 -31 42 3 24 -24 17 2 34 13 41 -8 0 -40 10 30 60 -14 16 -8 17 -15 -23 -14 26 -18 -7 -35 -10 -1 79 42 21 -8 -3 28 12 4 9 3 18 -22 -45 11 -21 -9 31 11 -3 -2 -63 17 -13 -29 -2 27
34 25 -37 20 -7 -10 -25 -29 -38 -8 -26 -38 -4 1 -24 -5 -2 -25 25 -15 4 32 -14 1 24 29 -34 -28 4 -5 -25 5 8 -23 -29 18 45 45 -14 9 -13 -16 24 -10 6 -15 -19 24 9 14 -4 51 -22 21 18 -28 -23 2 34 -18 -17 42 18 -38
-13 -24 -8 17 26 24 -14 16 -1 68 45 34 26 -29 -48 -19 -18 -30 9 20 42 4 -7 7 -5 -33 57 44 11 29 35 -10 -38 2 37 -1 11 38 27 4 14 -67 21 19 3 44 39 17 15 5 -14 5 36 -8 -7 23 22 -26 53 76 65 61 1 -35
28 -30 39 7 4 -9 36 -31 17 18 -22 -15 21 25 -10 39 55 -15 -9 10 18 -36 -4 -18 16 -17 -21 -1 39 6 -38 7 53 26 -72 9 -4 41 30 26 14 -15 12 13 39 -37 -14 -4 -26 18 -45 3 -24 4 0 13 -57 -17 -11 -3 -17 6 5 -1
-4 -3 -16 11 6 1 -44 -40 12 -12 -63 -18 -39 6 -39 -26 -35 1 -4 25 -2 24 -20 -28 -13 31 -3 -11 -24 -14 18 0 -26 -13 27 19 89 -20 -41 -8 -45 -31 -17 13 -33 17 -21 -3 -15 4 -3 21 -6 -2 -9 7 14 3 25 -31 22 22 23 -34
-25 -5 44 -38 65 -38 80 -56 11 -3 -15 -32 13 7 19 2 -12 2 -40 55 -26 20 -11 -37 -96 -13 -8 19 8 1 -5 -2 -15 -7 -55 3 12 -19 -50 43 6 -1 18 25 35 33 -82 -23 -33 36 14 -23 27 -23 -49 40 -10 62 61 -27 -18 -43 -9 88
-14 0 18 -31 84 -58 41 -18 42 -12 -19 25 16 25 -8 -25 -27 6 31 57 -19 -12 -40 14 -70 -8 -15 1 54 14 32 10 3 -6 36 -5 -1 -33 -23 43 -15 -7 -21 52 -17 28 -27 -4 12 -23 19 -30 47 -39 -67 59 -40 48 15 -37 36 -28 26 47
-53 7 -58 32 -24 -2 -23 13 38 26 -15 -17 -16 -18 10 17 -26 -23 29 19 42 25 32 -10 54 27 -33 -6 6 -14 41 -50 -47 -5 -2 15 -17 36 -55 -46 -33 -28 36 30 -34 2 2 -23 -3 -5 11 32 -54 32 -6 20 35 5 41 45 25 67 -10 -34
-58 33 -20 21 86 -38 33 -40 56 -22 -42 0 12 31 -26 17 -14 -16 -68 86 -40 0 -2 -41 -73 -5 -35 -7 17 -19 11 30 -6 6 -29 1 26 -19 -42 33 23 18 -21 34 -13 36 -37 -10 -6 11 -6 3 35 -22 -19 23 -27 42 72 -29 -40 -27 18 94
-9 7 9 38 0 2 23 3 6 -9 20 4 16 10 28 0 13 12 -11 -13 -30 -38 27 -6 35 -34 -6 12 -3 -3 10 -14 4 7 -9 -39 -49 1 28 28 24 -4 -13 4 5 -18 -28 -4 2 25 13 -15 -16 -4 0 6 3 9 11 8 3 13 -36 60
-6 4 -28 -24 -77 14 -85 -11 -10 45 -1 31 -33 -38 -11 26 16 1 28 -93 63 23 8 66 11 -7 -36 -12 -73 -7 32 -28 2 -31 9 28 -15 37 -11 -19 -30 -11 26 -8 3 -13 39 5 -17 -49 40 41 -13 44 3 -33 8 -17 14 36 25 65 -30 -127
21 -7 16 14 7 33 61 12 3 -19 15 18 4 1 19 3 8 -14 -13 -31 -39 -26 -16 6 43 -17 23 -16 8 8 -24 20 -6 20 -40 -25 -76 8 21 24 34 12 -23 -16 20 -1 -4 5 -9 18 2 -8 -21 -20 13 18 8 23 -47 1 -17 4 -6 65
0 5 2 1 23 22 31 7 30 -21 8 -13 12 42 -6 -1 5 13 -17 58 8 -19 10 -24 27 -24 -22 43 17 -29 6 -36 -10 28 -12 -8 -11 -9 37 6 7 -5 0 6 6 -4 -37 -18 -27 -7 -26 -35 -1 -15 -29 50 -24 0 -11 6 -5 -19 -21 68
-2 -29 15 4 55 -35 67 -48 8 26 -12 -49 2 24 8 -8 5 -6 -19 38 -44 7 -28 -39 -23 -34 14 -22 32 -15 7 12 7 4 -94 15 12 27 -21 40 27 -16 31 8 27 2 -93 25 -20 28 -15 4 9 7 -6 15 -55 26 0 -23 -35 -12 9 53
-11 21 -30 -3 -58 -4 -35 -2 -34 28 -5 -12 -29 -3 -12 22 -11 3 7 -18 11 13 21 -24 56 36 -16 4 -19 -15 29 8 14 -3 7 19 18 2 -49 -48 -40 -45 -9 -12 -24 -5 9 15 -25 -11 -20 63 -44 18 21 -3 37 -7 23 -19 10 65 -11 -35
-42 -13 2 32 83 -24 31 32 14 19 57 34 14 -13 -26 -9 -40 -22 -22 7 -12 -3 15 -8 -34 1 40 28 1 -1 18 -5 -21 13 65 -21 -18 -61 6 19 57 -4 -2 15 -6 16 -40 -6 -4 4 -7 -55 26 0 -37 50 -14 -2 25 64 0 -45 5 59
32 -19 -5 -9 -24 -44 -5 -11 -69 -10 15 3 -24 6 39 16 36 2 43 -31 -13 -9 -23 35 27 1 -28 -32 -14 26 -75 -32 5 -18 -10 25 7 -25 23 -10 15 44 9 3 -6 2 -8 -32 -23 -50 -8 3 4 -3 -5 -14 9 3 -56 -34 7 -16 -19 -23
-13 -36 1 36 29 16 44 -32 11 14 17 25 5 13 -8 7 30 -27 -23 12 -9 -22 -4 1 -9 8 23 -25 35 -4 34 -23 5 5 -22 -13 -6 -22 5 14 15 6 -3 13 -27 5 -5 31 -19 46 -29 29 7 -11 15 -6 -4 -18 32 27 4 24 11 9
13 -27 -7 26 -16 -23 24 25 -11 -2 26 12 -7 10 11 2 -12 13 -3 -58 -16 -23 16 29 14 14 -14 -33 -7 -1 -40 12 -1 19 5 -4 -14 -48 -10 17 38 -11 6 -56 -39 -21 60 -56 43 -32 4 -1 -31 19 -1 20 3 -29 -57 -8 -15 -2 2 -2
0 -41 -8 -5 -14 26 48 -5 38 6 29 2 10 -42 -15 13 13 -8 4 -26 -4 -12 25 -20 1 -15 35 6 -38 -16 -3 13 -32 -26 -8 -11 11 40 12 -16 -8 1 12 -22 17 24 17 -1 7 36 -32 14 -16 20 18 8 -19 11 26 29 23 -5 -18 -22
13 1 11 11 -27 -16 31 29 -17 -45 20 33 -5 43 45 1 15 37 57 -4 -24 -51 -25 -11 8 -15 -5 -12 27 35 -72 5 55 -13 -3 -24 -3 -25 26 40 30 22 21 -22 -49 23 -31 -19 12 -23 -12 28 -12 -25 -47 22 12 6 -95 -11 -31 -29 -3 -16
-2 -35 8 6 36 26 27 -18 6 11 27 27 -2 -21 -16 -2 9 -45 -21 1 6 -17 -3 -19 19 19 -10 -21 -5 24 53 16 -11 -7 -12 -21 -40 19 -14 9 22 6 29 -9 -10 -4 -13 8 22 58 -19 -11 52 -6 7 -1 -11 0 38 29 1 30 -34 1
47 -43 -10 -1 -24 21 -27 -10 -23 8 14 5 36 -42 -4 -13 32 -20 27 -58 51 17 28 64 48 1 19 -26 -21 49 -13 -62 9 3 25 13 -3 -13 -1 -11 15 0 49 28 34 -24 49 -54 -15 -18 -5 48 -24 3 17 -19 -6 -25 -21 33 24 12 -7 -63
-34 -32 31 28 24 -15 29 7 -7 11 29 13 17 49 33 9 11 7 22 -9 -34 -23 -33 -11 -9 -40 -3 20 9 -12 4 -2 21 7 -25 -13 -27 -26 22 50 57 11 12 -9 -58 21 -23 2 27 -1 -23 -3 5 -8 -34 31 -45 27 25 -28 -17 -14 -20 19
12 55 35 15 -6 -7 -26 41 3 13 0 -8 -38 -15 1 -29 -34 -8 -10 19 -14 -5 -13 -11 -44 -12 -30 31 0 -25 27 26 -36 9 54 -7 -11 5 -8 12 -27 20 -77 -4 19 0 -20 47 29 10 39 -49 14 -32 29 9 13 -9 -7 23 18 -26 18 22
1 21 12 -14 -21 -10 -35 31 -47 -14 -28 -27 6 -24 25 2 -32 -15 12 3 24 20 9 21 -4 -4 -32 -17 -12 3 -37 9 -16 -29 -5 4 -16 5 -14 -13 -26 37 -1 8 28 -12 14 11 15 -8 52 2 -14 12 -26 -1 43 -29 -37 22 12 10 10 -6
-16 -11 -4 -9 32 21 37 -34 33 24 -4 0 15 4 6 -7 25 -16 -11 11 4 9 15 -4 -10 -1 7 -4 26 3 36 -19 -13 13 22 5 8 10 27 -26 -5 -2 16 20 17 -4 -12 1 -21 33 -33 -10 22 -9 3 16 -43 11 56 6 21 6 -8 20
-19 -18 -3 2 62 -18 -3 -3 43 32 16 27 31 -32 -22 -19 -10 -25 12 -1 5 20 -21 -25 -24 2 -4 -20 33 1 64 -15 -20 31 2 1 2 17 7 -41 -9 -8 -35 28 41 4 -20 63 -4 17 -1 -15 35 -8 42 24 -32 -5 42 7 27 22 3 -2
23 -11 20 -22 -17 -18 -7 -8 -73 -22 -18 -26 -12 19 16 -11 28 15 36 14 13 7 -19 13 -13 -13 -5 13 17 37 -31 -48 5 24 -18 35 15 -39 18 5 1 53 -14 -1 -14 -46 -13 34 3 -42 32 -29 3 -13 -23 9 17 14 -37 -32 -45 -43 -7 37
-28 -39 -8 28 38 33 36 -8 27 33 -10 -1 6 -22 8 8 -2 -3 1 22 -8 -10 -9 -14 7 2 -12 18 20 0 15 -18 13 23 -14 -19 7 -8 12 -28 22 3 27 12 -13 -11 19 1 19 46 -5 11 41 -29 4 -1 -35 19 72 26 40 17 -10 -18
-46 -18 -4 -18 14 1 14 25 35 -15 -12 13 14 16 30 22 -17 30 -4 3 -32 -30 -36 -14 -69 -17 2 25 4 6 -4 30 16 10 -14 -21 12 -27 35 26 12 -30 1 2 -19 13 -38 27 -14 -6 -38 -4 1 -17 -60 30 -6 -5 22 18 -23 18 10 -2
-56 -25 -20 1 3 4 3 23 53 42 15 45 -16 -53 -13 34 -28 8 2 -20 11 7 49 82 -36 71 34 -21 -33 -26 14 26 -17 25 -18 19 13 -19 4 -6 -11 -67 -20 -10 -14 45 65 -75 -27 -1 2 -3 -22 24 -8 5 16 2 29 39 28 10 21 6
2 -10 15 11 15 18 22 12 5 32 -5 -6 12 12 17 -2 19 -6 -9 1 -9 0 -12 24 -11 -26 -1 16 9 4 -6 -6 7 16 12 4 -65 -29 -21 28 13 10 18 -24 4 4 -10 20 2 33 -9 2 22 -18 -21 8 21 0 -15 20 9 -13 20 6
1 -32 15 -15 -18 19 -2 -25 -12 -17 -5 -15 -40 25 -34 -30 18 -4 1 -9 23 27 8 30 17 2 -4 23 -11 4 28 1 -14 15 -3 -7 46 -16 14 -13 21 20 1 20 -8 -24 4 0 -13 -25 -16 -21 8 -1 -2 -37 5 0 -34 2 8 -5 27 -36
-22 8 -23 -1 26 12 -9 40 24 1 6 9 27 -11 -7 -56 -27 -21 -4 10 10 -21 -10 30 11 21 41 2 3 42 20 -7 -41 -8 71 1 -18 -52 -20 -28 5 2 -18 7 5 33 -1 -51 4 8 -4 -15 2 -29 9 64 8 -39 -11 -8 28 -11 -4 2
50 -21 -5 -10 -25 -17 -47 -49 7 -48 -26 -17 -11 23 -13 15 30 -15 28 -1 27 -10 13 13 -15 -7 1 -9 47 12 -23 -2 27 3 -24 20 -19 31 33 17 -29 5 -13 15 5 14 34 35 -7 -18 7 -5 -3 12 29 -67 -42 13 -15 -2 5 57 20 -51
67 33 30 8 -30 34 10 -10 -32 -63 4 -74 -51 19 -4 15 39 52 60 2 -31 20 -3 -22 73 -39 31 32 33 7 -75 48 3 -36 4 39 7 28 -15 23 1 7 7 -3 27 3 -1 50 -36 -72 -2 -18 -65 67 23 -64 4 59 -58 -10 -9 -4 39 16
-14 26 -19 -6 -27 13 -14 33 -1 6 23 -10 -11 19 -14 -25 -17 4 -17 -5 -5 -4 -22 -8 -22 -20 32 8 -5 0 -42 1 -14 10 8 8 -20 -8 17 29 12 -6 -13 -21 -2 -9 11 3 13 16 18 12 -3 -6 -3 32 12 -32 -15 -20 -13 -7 17 5
-3 22 28 4 -3 -5 0 32 -6 -16 24 15 6 -13 -13 -2 -17 15 -4 23 2 -8 6 5 9 -3 10 0 -21 24 4 -14 12 -20 25 -12 -29 0 -15 -2 6 2 21 -13 -15 -2 8 -26 26 -19 28 8 13 -39 -3 41 12 15 12 8 21 -24 -15 1
-14 -39 -14 7 6 -14 9 14 58 46 -10 -10 9 13 -8 16 9 -28 -58 52 -26 -20 -44 -27 -40 6 -59 -13 13 4 47 4 -5 15 -38 -13 2 32 13 -1 -30 -19 -5 -3 2 -28 -44 16 -41 11 -38 -6 52 -29 -17 -8 -35 32 68 19 -15 -14 5 66
-5 -11 33 -17 -14 21 -39 -17 29 -10 -25 6 10 14 -17 22 2 -35 50 -29 -1 -54 -12 7 -24 59 -113 -37 -7 7 13 -1 9 48 15 -8 0 4 49 -20 -47 39 -11 10 10 -28 42 -27 12 15 -8 6 45 -10 4 6 -36 -8 -24 -11 -25 86 18 -49
0 24 -2 22 -2 -17 -7 28 0 16 5 -34 -12 -26 30 21 8 -11 14 6 16 1 -19 -21 -18 11 4 -11 6 -3 -42 -10 18 -9 -16 -6 -76 -6 -6 -2 -17 0 -25 6 -2 -6 -24 26 23 29 8 10 23 -22 -1 -19 6 34 -3 16 -10 -3 27 11
24 -15 4 0 18 -17 -25 -1 -3 6 -5 -12 -27 17 -17 19 9 -17 2 19 -9 -9 20 6 -16 28 -20 16 -5 -22 31 -16 22 -19 -1 12 29 14 10 11 14 9 32 -14 -2 0 3 -6 13 -20 -3 3 -17 27 15 -22 -33 -14 -3 15 -33 13 9 1
-4 40 14 -9 -16 -22 0 17 -6 21 18 -9 21 9 -4 -12 -12 2 10 23 5 -12 -34 -16 13 -6 9 -3 6 5 -11 2 10 -10 -7 8 -66 2 -28 14 2 -17 30 11 -23 33 -24 -19 -14 32 -6 -8 -10 6 -24 -3 -5 14 -4 8 0 13 10 51
61 17 -13 13 -16 -14 -32 -2 -15 -46 21 -50 -9 -8 11 15 3 5 -5 16 -14 29 17 -49 14 -9 -15 -13 18 -21 -70 52 3 -37 -22 15 -9 10 -34 7 -34 9 -11 -9 55 -2 27 65 -33 -30 8 17 -32 21 17 -63 -7 55 -13 -42 15 15 1 14
10 59 -6 23 -8 -4 8 13 -5 -3 14 -28 -12 0 5 21 -8 47 -12 3 -20 1 17 16 27 14 18 0 -1 -12 -57 20 -12 -9 22 -10 -79 -10 14 -3 7 33 -17 -14 38 -36 14 -5 19 -29 2 -18 10 20 13 -28 20 18 -34 -26 6 -31 2 17
-32 22 26 -13 -11 -10 25 8 6 16 4 -27 26 9 -3 -6 -15 36 4 19 1 -5 -4 1 -26 -37 43 24 7 -28 -10 1 -27 -7 29 16 12 -35 -3 16 -22 10 -46 -11 -1 1 -1 -3 16 -21 1 -16 5 1 -28 -2 4 8 12 -14 29 -40 0 43
-13 -24 -16 -11 20 11 -42 -9 -10 3 -11 19 15 9 -20 -45 -28 7 15 -12 14 23 8 26 8 -5 -17 27 8 6 15 -13 -27 -10 15 -27 53 10 3 -23 19 4 -4 24 11 -20 -15 -10 -18 -22 34 27 -5 2 11 14 -16 -40 -11 -6 11 -19 -11 -5