3 -2 3 -3 -4 1 -1 -3 1 3 1 0 -1 -3 -6 -4 -3 -3 1 3 -1 1 2 -5 -2 -2 1 -3 3 -4 -1 -1 0 -5 -5 -4 -4 -1 -4 0 -2 -3 -5 -4 -1 -5 1 -4 -2 -3 -4 1 -5 2 -3 -2 3 2 -5 -6 -1 -3 -5 -5 0 -2 2 2 -5 -5 2 1 -4 1 -3 3 -5 1 -6 -2 -2 4 -1 1 -4 3 -2 1 -3 3 -2 1 -5 -5 -5 0 1 0 2 -6 -6 0 -1 -5 0 -1 2 0 3 3 1 3 0 2 2 -5 3 3 -1 -2 2 -4 -3 -7 -4 -4 0 -6
12 -6 34 7 -11 11 30 -13 41 45 -8 11 30 31 -20 29 -1 24 2 17 8 38 39 -3 -16 -5 7 8 -2 41 33 27 36 25 -7 39 14 32 36 20 55 25 -2 8 46 45 -5 41 -1 -5 17 38 16 16 -17 10 -23 54 -21 24 6 32 -17 22 37 17 16 56 41 24 -5 25 1 53 32 -20 17 9 24 -8 28 -16 41 21 -17 4 0 44 -13 31 -2 1 3 25 21 25 30 3 21 -19 -3 -8 -12 59 21 -2 -20 2 18 -2 51 -4 50 8 48 12 -32 47 -22 5 53 41 -30 10 44 53 2 21
-6 3 -1 2 3 3 -1 0 -8 0 -2 -1 -3 -4 -7 -4 -3 -3 -7 1 0 -3 -7 2 -3 -2 -8 -6 2 -5 -2 -1 -2 1 -3 -8 1 -1 0 -3 -3 -12 -2 -4 -7 -1 -2 -5 -2 7 -2 -10 -12 -6 1 -10 0 -6 -4 -5 3 -2 -3 0 -4 -5 -3 -6 -6 4 -7 -2 -5 -2 -4 5 -3 1 -1 1 -5 -1 -4 -2 -2 2 0 -11 2 -4 -9 -8 1 -6 -3 -3 -4 3 -1 6 2 -1 0 -7 -5 -1 -4 0 -7 -2 0 2 -3 1 1 -6 3 -6 3 -7 -10 -3 8 0 -3 -8 -2 -4
-2 -4 -4 -2 -2 2 1 -2 -4 -1 -1 -4 -5 0 4 -3 -1 -4 2 -2 -4 0 -4 -8 -8 0 -5 -8 -2 0 -3 -4 -2 -1 -2 -3 3 -1 -7 -3 0 -5 -4 -4 3 -4 -2 0 -4 -3 0 0 -6 -6 3 -7 -5 0 -1 2 2 3 -6 2 5 -1 1 -3 2 3 0 -5 2 -1 3 -6 1 1 -6 -1 2 0 -6 -2 -1 -5 -6 -6 -2 -6 -5 -8 -3 -3 2 -3 3 3 2 3 -5 -2 1 0 3 -4 -2 -6 1 -8 -2 -8 -4 0 -6 -1 0 1 -1 -5 -4 2 1 -6 1 -2 1 2
3 3 1 2 -2 -2 -1 -3 -2 3 -3 -1 -5 -4 4 -1 -6 1 1 2 3 -3 -2 -1 -3 -2 -1 -5 1 -1 -4 3 0 3 -6 3 0 -1 -6 0 -4 1 -2 0 -2 3 3 2 -2 3 -2 -5 -4 -4 2 1 -2 1 2 -6 3 0 -4 0 -1 -1 2 -2 -2 0 1 -1 1 -2 3 2 -4 -4 2 -5 -1 2 -2 -1 1 2 -5 -7 -1 -6 -4 -3 -3 -2 2 0 -2 1 4 -3 0 -4 -5 3 -4 2 -4 0 -4 1 0 -5 3 -2 -3 1 -2 0 -3 2 0 0 -6 -4 0 -4 1 -5
3 2 -2 2 -3 1 1 -2 -4 -2 -6 -5 -2 -4 -1 -3 3 2 -2 3 -6 3 -2 -4 0 -3 -6 -5 -1 -2 -2 -5 2 -2 -7 3 1 1 -2 -3 0 2 2 -7 -9 -2 -3 -4 3 2 -1 0 -9 -3 -3 -2 -3 -4 -5 -7 -7 -4 3 2 -1 -4 4 -2 -5 -2 5 1 -3 3 -2 -3 -3 0 -1 2 -2 -8 4 -7 -4 -1 -6 0 -5 0 0 -2 -4 1 -1 -3 -7 3 2 -3 -3 2 4 1 -3 -4 -2 2 -4 3 4 -2 -1 -6 0 -5 -3 0 2 -5 0 1 -2 -2 -3 0 1 -5
0 -5 -1 -5 -2 3 2 -3 -5 2 -4 -2 -6 2 -4 0 -1 -4 -2 3 -2 0 -5 -5 -4 -6 -3 0 1 0 -1 2 -3 4 2 -2 -5 4 1 -3 -4 -2 4 -1 1 -3 -3 -5 -1 -6 -2 2 2 -4 -5 -3 -2 -4 0 -4 -1 0 4 1 1 -5 3 0 -3 -5 2 -2 1 1 1 3 -2 -5 -2 0 2 -2 -3 2 -1 -2 -2 -2 0 3 0 3 -4 1 -4 2 -2 -4 -4 -4 4 -1 -4 -4 1 4 2 3 -2 -1 2 0 0 1 0 0 2 -1 3 1 -4 -5 -5 -5 -3 -5 2 3
2 4 -1 -1 1 1 -9 -5 1 -3 3 -6 -1 -1 -4 -7 0 -7 -2 -4 -3 -5 -2 1 2 -6 -6 -1 2 2 3 2 4 0 1 -3 -4 3 -3 3 -4 -4 -8 -6 -2 0 0 -2 1 0 -8 1 0 0 -4 -2 -1 -3 -3 -11 -5 -2 -4 -4 -9 -12 1 2 1 -6 0 -1 2 -1 0 -5 -10 -8 -11 -3 -4 -3 -5 2 -2 -4 -5 1 -5 -4 -10 3 -2 -1 -3 -7 2 -2 2 -7 -4 -3 3 1 -2 -4 0 -6 -10 -5 -1 -5 1 1 1 -7 -3 -1 -3 2 -3 -1 -6 -1 -7 4 1 2
0 -2 1 -7 -4 -6 5 -5 -5 1 1 2 1 -1 -3 -5 -1 -3 -1 -6 0 1 0 -2 3 -3 -4 1 0 -2 0 1 -6 0 0 -3 -2 0 -5 2 0 -1 -4 -7 -5 -3 -4 2 -6 -5 -6 0 -2 -3 0 -1 2 -5 -2 3 -2 1 4 -2 0 -4 2 -7 1 4 -7 -3 -6 -7 2 2 -2 0 -6 2 1 -1 1 -4 1 -5 -1 -8 -1 -5 2 3 3 -4 -5 -4 3 1 -6 -4 2 1 -3 3 2 -6 3 0 -3 -4 -5 -2 -1 0 -1 -6 1 1 -1 -1 -3 1 3 3 -8 -6 -5 -6
3 2 3 -2 -1 -5 0 -2 -2 -4 2 -5 -4 -2 -6 0 3 0 -5 -4 -3 -6 -4 1 3 1 3 2 0 -4 -4 -3 -3 4 3 -4 -1 -4 -7 -2 -4 -4 -1 -1 -1 1 -1 0 -1 0 -6 0 2 -2 4 -5 -5 2 -7 -2 3 4 -2 -4 1 1 2 -1 0 -3 -3 1 -2 1 -1 -1 -3 3 -4 0 -5 -2 -4 -1 0 1 -5 -6 -4 0 0 -5 -6 3 2 2 -1 -5 -5 -4 -4 -1 -5 -2 -2 -4 -5 -4 -2 -1 1 -3 -1 2 1 0 -2 0 -6 -1 -1 0 2 -4 -4 -5 -4 -2
-2 0 -2 0 -6 -4 -4 -6 -6 -2 2 -5 2 2 1 0 1 -8 5 -7 -5 -2 2 -7 -6 -8 -6 -7 3 -4 4 -2 -3 -2 -2 -4 -8 0 -3 1 -3 -1 -8 -2 2 1 -1 -3 -1 -2 -5 1 -1 -5 -5 3 -5 -1 2 -4 0 -6 -10 2 -1 -2 -7 -6 3 3 -7 1 -5 -4 2 -5 -5 -6 4 -2 -3 0 0 -3 -3 5 0 5 -3 -4 2 2 -1 -1 -3 0 3 5 -2 -1 4 -1 -4 -4 -4 -5 -2 -4 -7 -4 0 -7 -3 -2 1 0 3 -2 -9 -3 -9 -3 -4 -4 -3 -2 -2 -1
-3 0 1 0 -1 -2 -1 -3 1 2 -2 -2 1 0 0 1 0 0 -5 -4 3 -1 2 -4 -2 2 -3 -4 2 1 -4 -1 1 -1 0 2 -5 3 -3 -4 3 2 -1 0 3 -4 2 -5 1 -3 -2 -2 -5 -2 -1 -2 -5 2 1 -3 -5 -3 -1 -4 -2 -2 0 -1 0 -1 3 2 3 -1 -4 3 2 -1 -5 -5 -5 1 -2 0 -4 -2 -2 -5 -3 0 -1 4 3 1 2 1 -1 -5 1 3 -5 -7 -1 -5 1 0 -1 -4 -1 2 -5 -7 -3 -3 -2 -5 -1 1 0 -5 -3 4 0 -5 -5 3 -1 -2
-7 -4 0 5 -5 -5 -3 -1 3 3 -1 -2 -3 3 0 0 0 -3 2 1 3 1 -5 2 4 2 1 2 -1 -4 1 -2 2 -3 -4 -5 -7 -2 -5 3 -2 -2 2 -2 1 -3 2 -3 -2 -3 -6 0 2 -6 -6 0 1 4 -5 -1 -2 -6 -7 -3 -6 -4 -3 4 -2 -2 1 -7 -3 0 -6 -5 1 1 -3 -7 -4 -7 -2 -5 -6 -7 1 0 -4 -1 -2 -6 0 -3 2 0 -7 -1 1 -2 -3 -4 0 0 -6 -1 -1 2 -6 -3 2 -6 2 1 3 2 3 0 -1 0 3 -1 2 -3 -2 -1 -3 -2
-2 1 2 -2 -5 -6 -7 -3 -2 -2 -3 2 -4 2 -3 1 -6 -4 1 1 0 -4 3 -6 2 -2 3 -4 0 -2 -3 -2 -3 -3 2 0 -4 3 2 2 2 -1 -1 0 0 3 1 1 2 -2 2 -6 -7 2 -4 -2 0 -2 4 3 -6 -1 5 -5 2 0 3 2 -7 -7 2 0 -5 1 -5 -1 -5 0 -2 4 -2 -5 -1 2 -3 5 -5 -4 3 3 -6 -3 2 3 -2 -5 0 -2 -4 1 0 -2 -8 -2 -7 0 4 1 1 3 4 1 3 -4 -3 4 -1 -2 0 -3 -2 -1 3 1 -3 4 4 1
-4 3 -1 -4 3 -9 -4 -4 3 1 2 -2 -8 -5 6 -2 -1 -2 1 -2 2 1 1 -4 4 -7 -1 -6 -2 0 -4 -2 0 1 0 1 -7 -5 -2 -1 3 5 -11 -6 -1 4 2 3 1 -6 -1 -4 -1 -3 1 -12 -5 -3 -8 1 3 -6 -9 -8 -2 -8 -3 -3 -1 -3 0 2 2 3 0 3 -4 0 -7 -4 -4 0 -2 3 -5 -2 0 5 0 4 -1 3 2 3 -7 -8 3 0 2 -6 -4 -1 -2 2 -5 -3 1 -2 -4 -4 4 -7 2 -4 -3 -1 4 -5 -7 -6 1 1 -5 3 0 -4 3 0
4 -2 2 -5 -3 0 -5 -3 4 -3 -6 -3 -6 4 -3 -5 0 -3 -4 -5 5 -3 -3 0 2 1 4 4 -2 -1 0 1 -7 -2 3 -8 0 -4 3 1 1 5 3 -2 -5 -3 -4 -2 -1 -3 -6 -4 -6 -4 -1 -1 1 6 4 -6 -4 -3 -9 4 4 3 10 6 -6 -5 -2 4 4 4 -3 0 -1 3 -1 -1 2 -10 1 -5 -7 -4 -2 5 0 -3 4 1 2 -5 -4 -4 -5 -1 1 -1 4 -5 2 0 6 0 -3 -4 2 -3 -4 -4 1 -3 -6 -3 -2 -4 1 2 -7 -4 -3 0 -1 -6 0 -8
4 -5 -10 -5 -6 -9 3 -1 -1 0 -2 2 -6 6 4 -1 -7 -2 -1 -1 -2 4 0 -5 -1 -6 -2 2 5 1 -2 -5 -2 -1 2 0 2 1 3 0 -5 8 -3 -2 -3 3 -8 -1 0 -7 -2 0 -7 1 -5 -6 3 2 1 -2 0 0 -4 -7 8 -4 1 -1 -5 -3 -6 1 0 4 -2 -3 1 0 -3 -3 1 1 1 -5 2 0 -3 -2 -3 0 3 -2 0 2 -1 -1 -6 0 -3 -2 0 -7 -3 1 0 -8 3 1 -7 0 0 -2 -1 -1 -1 -2 0 -1 -2 -4 -2 0 -4 1 -1 -4 -4 -7
1 -5 3 -3 -3 -6 -9 2 -1 -1 -1 0 -3 -11 3 -6 1 -6 -5 -3 -4 -5 0 -4 -4 -3 -1 -4 6 1 -6 -8 -1 -2 -8 0 -3 -1 3 -5 -2 1 -8 -7 -1 1 4 -1 5 3 -1 1 -6 -3 0 -6 2 -2 -2 0 -6 -3 -5 -4 -5 -5 -4 -3 -1 -9 4 0 1 2 0 -1 0 -7 -5 3 0 2 4 3 -3 -4 -5 -1 3 1 4 -2 -6 1 2 -4 0 6 -6 3 -4 0 2 0 -5 -4 -1 0 -2 -2 1 2 1 -4 1 -2 -5 -2 -5 2 0 2 -6 -8 -2 0 5 -3
4 -3 0 -3 -3 0 -4 1 -4 3 3 4 3 0 2 2 -5 2 1 -1 -6 -7 2 0 2 2 -3 -3 4 0 -7 3 2 0 0 2 -5 -3 -3 0 3 1 1 1 -5 -6 -3 -4 -1 -3 -1 -4 -4 0 4 -10 7 1 2 1 3 2 0 1 -4 -4 2 -4 -3 -2 -11 4 5 -5 -2 0 2 -2 -3 -2 3 1 3 3 1 3 -1 1 2 3 -3 0 -2 4 0 -1 0 2 -3 1 4 4 0 -6 1 3 5 7 -7 -4 -3 3 -5 -5 -5 -1 -6 0 6 -9 -6 -4 -2 -6 -3 1 5 -5
-5 -2 0 -3 -8 -2 -3 0 -9 -2 -2 1 -4 3 -3 -7 0 -4 2 -5 4 -14 -7 -1 2 2 0 -5 -3 2 -3 2 0 -1 -4 -8 -3 -6 3 -4 -4 1 3 0 -5 0 2 -3 1 -3 -2 -8 -3 -4 -8 -2 4 -1 -3 -7 -8 2 -8 -1 0 -2 -2 -9 0 -7 -4 3 -5 -1 3 -11 -4 -3 -3 1 2 -5 -5 -3 -7 -6 2 -8 0 -4 -3 1 -1 -5 -1 -5 -2 -2 -7 -6 0 3 -4 -2 -3 2 -11 3 -3 -4 -5 -1 3 2 -3 2 -3 -5 3 2 -3 2 -3 1 -4 -3 -2 -7
-4 -5 1 3 0 4 -2 0 0 -8 -2 -3 3 5 0 3 -2 5 5 2 -2 0 2 -2 -8 -5 -6 -6 0 0 -6 -3 -5 -9 0 -2 1 1 -1 0 5 -3 1 -5 1 -6 -6 1 -4 -1 -3 -4 3 -7 0 -5 -5 -3 0 -6 1 -8 -5 7 -4 -1 3 -7 2 -1 -5 -5 -8 -4 0 7 1 -5 2 1 3 -5 -7 -1 3 3 2 2 -2 -4 -8 -2 1 -3 -4 -4 3 -1 1 -1 3 -10 -1 3 1 1 -3 6 -2 -4 0 -8 -5 0 -8 0 -1 -5 -2 0 -5 -1 -1 -2 -5 0 -3 0
-2 0 -1 -1 0 -4 -6 3 3 -4 -1 -3 1 -1 7 -4 -4 -5 1 3 -1 -2 -4 -3 -1 2 -6 -6 -1 -2 -2 -2 3 -4 4 -3 -6 3 2 1 -1 -1 -1 -1 -3 -1 -4 -2 -1 0 -2 3 2 1 -7 -5 -4 -3 6 -2 3 -6 2 -3 -1 -8 -2 -1 -3 -5 0 2 -4 -3 -2 1 -3 -1 -9 4 4 0 2 4 -4 4 1 -1 -3 2 -3 3 3 -1 -1 -4 0 5 -3 1 5 -4 -3 -1 -1 0 3 5 0 1 -3 1 0 -7 -2 -4 -7 -5 -6 2 -2 -3 -2 1 -2 -1 2 2
3 -4 -2 1 -3 -2 2 0 -5 3 -1 0 1 -4 0 -3 -5 0 0 -2 2 0 4 -2 4 3 0 -1 -5 -5 1 -5 1 3 -2 3 2 -3 1 -6 0 -6 -2 -2 1 2 0 -1 2 2 -3 -1 -4 1 -2 -3 -3 -1 2 -1 -4 -1 -4 1 2 -4 -1 -3 0 3 -4 -2 -4 0 -1 0 3 0 -4 -5 -2 3 -2 3 -3 -1 -2 -5 1 1 -6 -1 -2 -4 3 0 -3 1 2 -4 -3 -3 -4 -1 -3 1 -2 5 -3 3 0 -4 -4 1 -4 0 -4 -6 2 0 0 -3 -1 -5 2 -4 -1 -2
2 -3 -4 -2 -1 -6 3 -6 -4 2 -6 -2 0 0 -5 -2 -1 -5 -3 0 3 -2 2 -3 -2 3 1 1 -4 -3 -1 1 -1 1 2 0 -5 0 -1 0 -3 0 -3 0 -2 -4 0 -4 -5 -3 -5 0 -2 -2 -2 -4 1 -5 3 0 1 2 3 -5 1 -2 -1 -4 -4 0 -4 0 -2 -3 3 -5 -2 0 1 -3 0 -1 2 1 3 -5 -4 4 -1 -2 3 1 -6 -5 0 0 -3 -3 -4 -2 -3 3 0 4 -3 -5 3 -3 3 4 2 0 -1 -2 -5 -4 0 -5 -3 0 -3 -5 4 2 3 2 -6 -4
-5 -4 -5 -2 -1 -5 -1 2 3 2 1 -4 -8 1 2 -4 -3 -3 4 -1 -2 -3 -3 -7 -6 0 -1 4 3 -6 1 -5 0 -4 3 1 -7 1 -2 -5 2 6 0 2 -1 1 2 -5 -2 -3 -3 -2 -2 0 -2 1 -1 3 -2 -7 0 -8 -5 -1 -5 -3 0 3 -5 -7 -4 -1 -3 4 -4 -2 1 4 -2 1 4 -4 0 0 2 -3 -7 4 -1 1 5 -2 4 5 -3 -7 0 3 -1 -6 -1 2 -4 0 -9 -4 2 2 -2 -6 -1 3 1 -2 0 0 -1 3 0 -7 -2 0 0 1 0 3 -2 -4
2 -3 -2 1 -5 0 -6 -2 -5 -3 -3 -1 -5 -2 1 -7 2 2 3 -5 1 2 -5 -6 -6 -1 1 1 -1 -5 1 -7 -4 -2 0 -6 0 -2 -5 2 -3 -9 -5 4 -4 -3 1 4 0 -8 -3 -1 -1 0 -6 -1 0 1 -1 -3 -1 -2 -7 -6 -5 1 -5 -3 3 -4 1 3 -2 4 -1 -6 -2 -3 -3 -5 -4 -6 -3 -7 -7 -4 0 -6 -3 1 1 4 1 6 -2 -1 -6 -6 4 -5 1 -3 -4 -1 -8 -5 -3 4 1 -5 4 -4 -2 4 0 2 -2 -2 -4 3 1 2 -3 -7 -1 1 -5 1
-1 2 -3 -1 2 0 -1 -3 3 1 1 -2 -5 -3 4 -4 -4 -5 -1 0 2 0 -1 -1 -5 -1 -3 0 2 -3 -5 -5 3 0 -3 -4 0 -1 4 0 2 -4 -1 -2 -3 -3 -3 3 -5 0 -1 -2 2 -3 1 2 1 1 2 -1 3 -3 2 -6 3 -2 1 1 -3 2 -5 -1 -3 3 -6 2 -6 -4 0 1 -5 -1 2 -4 2 -2 -4 2 -1 -1 2 -6 0 2 4 3 0 4 1 -3 5 -1 -2 0 -2 2 3 -1 3 2 -4 -6 2 -1 -2 -3 -1 -4 1 4 -3 -4 -1 1 -2 -6 -5 -2
-1 -4 -1 -4 -2 -5 -11 -6 -7 6 3 18 -6 -2 -2 -4 0 -5 4 -3 0 -2 -1 -7 -7 -3 -4 -5 -2 -1 -5 -1 -1 -1 0 -4 -4 2 1 1 -3 -1 6 -5 -5 -5 -4 -5 -3 3 -1 -4 -5 12 1 -3 0 0 5 -4 1 0 -4 1 3 -2 1 -5 -1 0 -4 -6 8 -3 0 1 0 -3 0 -7 -2 2 -9 -4 1 4 1 -2 3 3 -5 -3 2 4 -4 -7 0 1 7 5 4 1 3 -7 -1 4 -9 -2 -5 3 0 2 21 -3 -6 -4 1 -4 1 -3 -6 -7 6 0 -7 -5 -2 -2
-5 -3 3 -4 -4 -6 8 -1 1 -6 -4 6 1 8 2 5 -9 -5 -3 -5 -1 1 0 0 -5 -4 -1 -6 1 -1 -1 0 -10 -3 4 2 15 -1 -1 7 -1 -12 7 -1 -7 -3 -10 1 0 -13 4 -3 -1 -6 -6 -1 -6 -6 4 5 2 9 -5 5 14 -1 -9 1 -5 -1 -8 -8 -9 2 -4 -1 -7 -11 8 6 -7 -7 3 -11 -8 6 -6 -7 -6 -9 -6 -8 2 -1 -4 13 -2 -8 -3 -2 -6 0 2 6 5 -3 -1 1 -1 5 -6 -13 2 -3 -2 -3 1 0 -7 2 4 -2 1 1 -1 3 -4 6
2 -3 4 3 2 -5 3 -8 -2 -3 -9 3 0 3 3 -7 -6 0 1 -6 -4 1 1 0 -4 1 -6 -8 0 -4 -6 -1 -4 -2 -4 -1 4 -1 1 -4 4 -9 6 1 1 -5 -1 1 -5 1 -1 0 1 2 -3 1 7 -5 7 0 0 -1 -4 -2 4 -1 -5 -6 2 2 3 -3 2 -6 4 4 0 -1 0 -4 -7 0 -1 2 -5 6 -5 -3 2 3 -3 -4 -2 -2 0 -1 -4 1 1 1 5 0 2 -6 2 7 -8 2 -4 3 -1 0 1 1 -3 1 3 0 3 1 -2 -8 6 -2 -3 -3 -1 3
-6 -2 -4 -3 -7 1 -5 -3 -2 2 0 -1 -5 -2 -3 -2 0 1 2 -6 0 -7 2 -4 -2 3 -9 -2 3 -4 3 2 2 -3 -5 -2 -7 -5 -4 0 1 -10 -4 -3 2 -1 3 -1 3 -2 -5 3 0 3 -2 -1 -1 -4 -3 -3 -3 0 -1 -3 -5 2 -4 -3 -3 -5 -4 -3 -4 4 0 1 2 -6 -1 -4 4 -4 -5 -5 0 -2 1 -3 -4 -6 0 1 -1 -2 -1 2 -6 -3 -3 -6 0 1 -2 -4 -6 3 -2 3 0 3 -4 -5 -3 -5 1 -5 -3 -1 -3 3 1 -2 -7 4 1 2 -6 -1
-4 -1 -5 -2 -2 -4 3 1 -3 -3 -7 3 -2 -4 3 0 3 -4 -3 -2 -6 -2 -3 -3 -6 1 0 3 -3 -5 0 0 -5 -5 -1 -4 -4 2 1 2 -3 2 -4 1 -1 1 -4 -2 -1 -3 -5 -1 -4 -2 -2 1 -5 3 -1 -5 -4 -4 1 -5 -5 1 0 1 -1 -4 -5 -1 -2 0 1 -2 2 1 -3 -3 -4 -3 -3 1 -7 0 -2 0 -5 -3 -6 0 1 -4 1 -3 -5 -3 1 0 1 -4 3 -4 0 0 0 -3 -3 0 -3 -5 -1 -5 3 -1 4 0 2 -1 -4 -1 -1 3 1 1 -2 -4
-3 -2 0 -2 1 0 2 2 -5 -1 3 -1 3 -5 0 -4 -6 -3 0 1 -4 -4 -1 -3 -1 -1 -2 -3 -1 3 -3 -4 2 4 0 -1 0 0 3 -2 1 0 6 -3 -2 1 -2 -5 0 2 -5 -4 -5 -4 -3 -4 -5 -8 -1 -6 -4 4 -1 3 -2 -3 -5 -7 -2 0 -3 -8 -6 1 3 0 -7 -4 -6 5 -1 -4 -2 -3 0 -1 -4 -7 2 -5 1 -5 0 -3 1 -2 3 -3 -4 -4 -3 -4 3 -4 -2 1 -3 1 -7 -2 -4 2 3 -5 1 1 -2 1 -6 -7 -4 2 2 0 -3 -2 3 0
-2 0 2 -5 -5 3 -7 1 -5 -3 -4 -1 -3 2 1 0 -3 0 -3 -3 -3 -5 3 -1 -3 -1 3 -3 -5 -2 -4 -2 -4 -2 -1 -6 3 -2 -2 1 0 -1 -2 -6 4 2 -1 -7 -5 -5 0 3 3 -3 2 -1 2 -6 -5 -6 3 -2 -2 1 -3 2 -1 -2 -5 -2 -6 -1 -2 1 -4 0 1 -4 -4 -3 -5 0 1 5 1 3 -7 -2 -2 -8 -1 -1 0 -1 -3 1 0 0 1 -1 -4 -1 -5 -5 -2 0 -4 -4 -5 0 1 -1 5 3 -6 2 1 2 -6 3 3 -3 -1 0 -1 2 -4 -5
2 3 5 0 3 -3 -4 -1 -6 7 5 6 2 1 -3 -2 -1 -4 -6 -4 -6 0 -2 -3 1 -3 -4 -2 0 0 -6 4 -6 0 -2 3 2 0 -1 -4 -5 1 0 -1 -4 -4 -3 -1 -2 0 -4 4 -1 -3 2 -10 3 -6 -5 -4 -1 1 1 -4 0 2 -9 -5 3 2 -9 -4 -3 -9 2 -1 -1 -2 -1 -4 1 -3 -1 1 2 -2 0 -7 1 -5 -4 -1 -3 2 -6 0 4 3 1 4 -4 -1 2 -1 -2 7 2 2 0 6 -4 0 4 -4 -6 -1 -5 2 5 -7 3 -6 6 -3 -6 -1 -1 5
-2 -3 -4 0 -5 -1 -4 -4 -5 -2 -4 2 -2 6 4 1 -2 1 -1 2 -4 0 -3 -6 -1 -2 -7 -1 -1 -1 -6 -4 -2 -5 3 -3 5 -3 2 1 1 -1 0 0 1 1 -5 1 -6 3 -5 -5 -6 2 -1 -5 -2 -8 2 -3 -1 3 -1 -1 3 2 2 -2 -1 -3 -2 -5 0 -6 1 1 -6 1 -2 -1 5 3 0 -3 0 0 4 -1 1 -3 -4 -3 3 -2 1 2 2 1 -1 -5 -1 -6 -4 3 6 -4 -5 2 -5 0 -7 -4 0 0 -1 -5 -1 -1 -2 -5 1 -5 1 2 -3 1 1 -3
-86 46 -73 50 65 40 42 32 33 -48 44 105 27 23 -11 40 49 33 -2 68 47 69 -85 51 58 34 98 44 -39 -100 41 55 -110 34 64 45 64 -95 -127 81 -46 50 74 30 -87 -97 39 71 41 37 51 -87 97 97 44 45 -10 -70 84 32 94 38 52 -47 6 42 34 -58 -106 47 45 -100 96 -88 -98 41 41 54 43 73 -91 69 25 -83 37 31 43 54 83 -79 44 32 6 -80 -108 52 -65 1 108 77 3 46 106 -60 82 104 35 -1 47 107 -112 42 72 42 -97 48 63 -83 53 41 -51 -103 88 36 -95 -101 31 76
1 2 -7 -4 -3 -3 -3 -5 -6 -5 -3 4 -6 -1 1 -3 -3 -6 0 1 0 -3 -2 -5 -3 3 -1 3 -3 2 -6 2 2 -5 -3 -1 0 -5 0 -5 -2 2 2 -3 -8 1 5 -4 1 -5 0 -1 0 3 5 -6 3 -6 -6 -1 1 1 -1 1 -3 2 1 3 3 3 2 -5 -6 1 -5 -1 -2 -3 -6 -5 -6 0 0 3 -1 -2 1 -4 -2 -5 -4 -3 3 -2 3 -2 -1 3 1 2 -2 -6 -1 -2 -4 2 -6 -2 3 -1 2 -2 -3 -1 -5 -5 2 2 -4 3 -3 -5 -1 -5 2 1 -1 1
-1 -6 0 0 0 2 -8 -5 -4 7 -8 4 -7 0 -5 -1 -5 3 0 -4 -7 -1 -2 -7 -3 -7 4 2 -7 -5 4 4 -6 1 4 0 -1 -4 -10 -8 -1 4 6 -5 -2 -8 -6 2 -2 2 3 2 2 6 -7 1 -1 0 -2 -8 -2 -3 -5 1 2 -3 4 -2 -4 -5 -2 -3 6 -1 -1 2 0 7 -5 -4 1 3 3 -5 -6 3 -6 0 2 5 5 -3 -2 3 2 1 -1 -2 7 -5 1 -4 -4 -4 -2 -2 -2 -6 6 3 -3 -2 5 -7 -8 2 -5 -4 -4 -1 -9 -1 1 -5 -5 -2 0 4
-2 -2 -5 -4 -2 -6 2 -8 0 3 -3 0 -2 -2 -5 -2 -2 1 3 -3 1 -1 0 -3 -4 -5 -4 1 3 -2 -3 0 2 1 -6 4 2 -4 4 -3 -4 -5 1 -3 -5 -1 -2 -2 -4 -4 -1 -5 3 0 -6 0 0 -2 -5 -5 3 -2 1 4 -4 -4 -3 -1 1 2 -4 -2 4 3 -2 -4 -5 0 -3 -1 -3 1 -4 -3 -5 -2 -3 -5 0 -2 -4 -8 0 3 -5 -4 0 -6 -3 -3 -3 -7 -4 0 1 -4 -6 -3 -2 -3 2 2 -2 -3 -3 2 2 -2 2 -5 0 -5 -3 -6 2 -5 -5 3
0 -4 1 2 1 -4 -3 1 0 2 -2 -2 -3 -4 2 -6 -4 -6 -2 0 1 0 0 -2 1 3 0 -1 0 -2 -3 4 -5 -4 2 -1 3 0 0 0 -5 -2 2 -2 -3 3 -5 -2 0 1 0 2 -2 -4 -2 -4 -2 -1 -6 -3 -3 3 -1 4 0 1 -4 0 0 1 -3 -3 2 -4 -6 3 -1 0 -5 3 2 0 -5 -2 2 -4 1 -3 -4 0 1 1 2 -4 3 0 -3 -3 -3 -1 4 -3 -5 -3 -5 -1 -1 -3 -4 3 1 -3 3 -6 4 1 -1 -3 3 -5 -4 0 -2 2 0 -3 -5 -5
-9 -7 -3 -3 -6 -2 -5 2 0 1 4 0 -5 -14 -9 -3 1 -7 -3 4 -11 -2 -1 -5 1 1 -1 -9 -6 1 0 0 0 -2 -9 -6 0 3 3 -3 1 -13 -4 -13 -2 2 1 -6 2 -2 -2 -1 -1 5 6 -14 -2 4 -2 -3 2 -1 5 -2 -6 -6 -1 4 2 -4 -9 -1 -1 3 -1 -1 -7 -4 -7 0 3 -3 2 -4 2 -1 1 -2 -2 1 -9 -9 -4 3 -1 -3 2 3 2 2 0 1 -5 -3 -5 -2 4 -5 -8 1 -4 0 4 -7 2 -8 0 0 4 -11 -1 -2 -3 -5 -1 0 4 1
-4 -8 6 1 -4 3 -4 -5 -8 -4 -4 1 -1 -2 4 -6 -2 2 -3 -2 -8 -7 2 0 -7 2 -2 1 1 -3 -5 0 1 2 -3 -8 3 2 -3 -4 3 6 -5 0 -1 -5 2 -2 0 -2 -3 -6 1 -4 -2 1 -3 1 -5 -7 -2 1 1 4 -2 -2 7 4 -3 -10 -2 -2 1 -7 4 -3 2 3 -3 -3 -3 0 3 4 -7 -5 -3 5 -4 3 2 3 -4 1 0 -1 1 3 3 2 1 -1 -1 -5 0 -3 2 -3 -6 -2 -4 0 9 -6 -4 0 0 0 -1 -2 -5 -2 -7 1 -2 -4 -7 -1
-3 -4 -7 -5 -3 -1 2 -7 -1 3 0 -6 -4 0 1 1 0 3 5 -1 -6 -2 -2 -3 0 1 -1 1 -4 2 0 -1 -6 4 0 -6 0 1 -3 -6 -5 0 -2 -4 -4 -2 3 -6 2 -4 -2 -4 -7 -6 -3 -4 3 2 -4 -5 -2 1 4 1 -5 -1 -8 -1 -2 -6 -1 1 -3 2 -7 2 2 1 2 0 2 -4 -4 -4 -1 -1 -6 -3 -4 -1 0 3 5 2 4 2 -5 3 -5 0 0 -3 -3 -4 -4 -2 0 4 -1 -5 -7 0 -3 1 -2 1 0 5 -4 -1 -1 -3 -4 -3 -4 -3 2 -5
4 -1 1 -3 1 4 -11 -3 -10 6 -1 8 -3 -3 0 -4 -6 1 -2 -4 -8 -1 0 -7 -6 -2 3 -9 5 -2 -7 3 2 -5 -3 -2 -8 0 -5 -1 0 -3 4 2 -6 -5 0 1 -2 -1 -5 0 2 12 -1 -11 1 0 4 -4 -3 -8 0 0 6 -6 -1 -6 -2 -3 -9 -1 11 -4 -3 5 -1 -1 -1 -13 -2 2 -3 -3 0 -4 0 3 0 -2 -2 1 2 -5 2 -13 -4 6 5 -1 -4 -4 1 -6 1 -1 -1 5 -6 -3 -6 4 8 -3 -6 -6 2 -4 5 -4 -6 1 4 -4 -6 -6 -3 1
-4 1 -4 -1 2 -5 -2 -3 0 2 -5 -4 -5 2 -2 2 -1 -2 1 -5 3 1 -6 0 -6 -1 -2 -2 4 0 -6 -3 0 -1 -2 1 -1 2 -1 1 -4 1 2 0 -8 3 -2 0 0 0 -3 -6 -6 1 4 -6 2 -4 2 -3 0 -3 -3 1 -4 3 -1 -1 2 1 1 -3 1 -6 -7 -1 -3 0 2 -5 -4 1 -1 -3 -1 -2 0 -2 -4 -6 -1 -2 -5 -3 1 2 3 -3 1 -5 3 2 -4 -5 1 2 -4 -2 -3 -5 3 -6 0 0 -5 -1 -5 2 1 -1 -2 -2 1 -5 -3 -2 3 3
1 0 -4 -6 -4 -1 -1 1 -7 -3 0 -6 -3 2 5 -2 -7 -4 -1 -6 2 0 1 -1 2 -3 3 -1 3 -3 -3 -1 1 -3 4 -6 -5 -3 -5 -1 -8 3 -4 3 -4 -4 -4 -3 -2 -1 -1 -6 -4 0 -4 3 6 0 5 -4 3 -2 -3 -5 -3 0 1 1 -4 -5 1 -3 -5 -4 2 0 -4 -5 -1 -5 -7 -4 -2 -2 -6 5 -1 -1 0 -1 -2 1 3 1 -6 -4 -1 -3 -1 3 1 2 1 3 -3 3 -2 -1 -6 -6 2 1 2 1 -6 2 3 -5 -3 -4 -3 0 4 -7 0 -5 -3 2
-1 1 -1 -3 -1 -2 -7 -5 -1 -7 -6 -1 -6 -2 -2 -5 -2 -1 1 -2 -1 2 2 0 -3 -7 -3 -4 1 -1 2 -5 -3 5 -1 3 -3 -4 -5 -6 -4 4 -9 -5 -8 0 -3 -3 -2 -9 -2 -5 -7 0 -1 3 5 -1 -3 3 -2 -5 -5 -3 0 0 -8 6 -6 -5 -1 -5 -1 2 -6 2 1 -7 -4 -1 -6 -3 -4 0 -7 -5 -6 2 3 -9 0 -3 3 4 -2 2 -5 1 -9 -2 -7 1 -2 -3 1 2 -6 5 3 -2 2 -5 -1 -3 -2 2 2 1 -5 3 -2 -1 -6 -4 4 -6 -6 1
-5 1 -3 -2 -6 -4 -5 1 -5 -5 -9 4 2 3 5 -3 -2 0 1 -5 5 1 2 0 3 -2 0 2 -3 -3 1 0 -2 -6 1 -4 -6 3 1 1 -2 -2 -2 3 -7 -7 0 5 2 -1 2 2 -4 -1 0 1 3 -6 -4 -3 1 -2 -1 -5 -2 -2 -1 -6 -4 -5 1 2 -1 4 2 1 -2 -4 -3 -4 -2 0 -1 2 -2 1 -2 -2 -2 1 3 2 0 -1 5 0 2 -4 -1 -6 0 -2 -6 1 -2 2 3 3 -4 0 -4 -3 -1 3 0 1 -3 -7 -1 -3 -4 -2 -2 0 -2 0 -3 -6
-5 2 -7 -1 0 -4 2 0 -2 2 -6 -7 -3 -3 -1 -6 -8 2 -6 5 -5 1 -4 0 -5 -1 1 -2 0 -2 -1 3 -4 -8 -2 -2 -5 -4 -1 -4 -2 -4 -4 0 -2 -7 0 2 -1 0 0 -5 -6 -4 1 -6 2 -4 -1 0 2 2 3 0 -3 1 -6 -2 -3 -2 0 -2 -2 3 -5 2 -6 0 1 -3 1 1 -1 -2 1 -4 -4 -6 0 -6 -5 -3 -2 -3 -4 -1 -3 -3 -5 2 3 -3 -3 -2 -2 -1 0 -1 -2 -1 1 -3 2 2 -3 -5 4 -4 -3 -4 -5 -6 -1 0 -4 1 3 3
1 -1 -3 4 4 -3 3 1 -3 -5 -2 -1 3 0 -6 -6 -7 -9 3 -6 -1 -1 5 0 4 -1 1 4 5 -2 0 0 1 4 3 0 -1 -3 -8 -3 -5 4 -6 8 -1 -3 -4 -5 2 -2 2 0 -2 1 4 -5 6 -3 3 -5 -2 0 -7 2 1 -2 -6 -4 1 -6 0 -4 4 -3 -2 -5 0 3 -4 -3 -6 -6 -2 3 4 2 -7 -7 0 -1 -4 1 -6 3 -4 -6 -5 4 -2 3 0 -6 -2 -2 -5 -1 2 0 -4 -2 -2 -3 -4 -2 -3 -6 2 0 5 -2 0 -5 2 3 -2 -7 -1 -2
1 2 2 -1 -3 -4 -4 -1 -3 -5 0 1 -8 0 0 -7 -2 -4 -3 -13 4 -12 -1 0 5 3 -3 -1 -2 -3 -6 -4 3 2 -2 -4 -5 -2 3 -5 -4 -7 4 6 -8 -5 2 -10 3 -3 -6 1 -12 0 -10 1 -2 1 -6 -1 -6 1 -11 0 3 -5 -4 -3 -4 -9 2 5 -6 1 -2 -8 0 -6 1 -3 3 -6 1 -4 -4 -5 -5 -8 2 -5 2 -1 4 0 -5 -1 -5 -3 -10 -9 -3 -4 0 -1 -6 2 -5 -7 3 -3 2 -5 2 2 -2 3 -7 -5 -7 4 -10 3 -8 -1 -5 -3 -5 -6
-2 -3 0 0 -6 1 -4 -9 1 4 -4 -3 -2 3 -1 -4 3 -7 -3 -2 3 -1 -4 1 -2 1 -6 3 -5 -5 0 -4 2 5 -4 3 0 4 2 -2 -5 -2 3 0 -2 4 -4 -4 -2 -2 -4 -1 -3 -4 -6 2 1 -3 -3 -5 -6 3 -2 -3 -5 -1 -8 2 -5 -2 -4 -3 -8 2 -7 -7 -4 -5 1 -1 -4 -6 -2 -2 -6 -4 -6 -6 1 -7 6 -4 6 -1 1 0 -6 -2 -5 -5 1 1 4 -2 -7 -1 -6 -5 5 5 0 -6 -3 -2 -5 2 -2 -4 0 4 -2 -4 0 -5 -6 -1 -4 1
-1 2 5 -8 3 3 1 -4 -10 3 4 6 -6 -8 -2 -6 -2 -3 -2 -4 0 -10 -7 0 1 -4 4 -7 1 -5 -10 -4 -1 -6 -5 -1 -5 5 -2 -4 -6 -5 -2 -2 3 1 2 1 -6 3 5 2 -2 8 0 -5 -2 -6 -1 0 -8 -2 5 0 -8 0 -3 -2 -1 6 -4 5 7 -7 1 -4 0 -3 -1 -3 2 4 -10 5 3 -1 -2 6 5 4 -6 1 1 1 -1 -4 -2 -4 0 -1 -2 -2 1 -8 -7 7 -3 1 -2 1 -3 3 5 -5 -6 -7 -1 -3 6 -4 -6 4 2 1 1 -3 1 -1
-4 -3 -1 -4 -1 -4 0 2 3 2 -1 4 -1 0 3 -4 0 -5 -5 3 1 -2 -2 -2 1 3 2 2 0 3 2 -3 1 1 0 -4 2 3 -2 -5 0 3 -2 -3 -3 -3 -2 0 1 1 -2 -7 -4 -4 -1 -5 -6 -4 2 -1 -1 1 -2 3 2 -5 -5 -5 3 -5 0 1 5 0 0 -3 3 3 -3 2 -3 -4 -4 -4 0 -1 -5 -5 4 -1 -6 -3 -1 2 1 4 -4 -4 -3 4 2 2 2 -6 -3 3 -1 -1 4 -4 2 1 3 1 -4 -2 0 -4 -2 3 -4 4 -5 -3 -2 -2 -4 0
-7 1 -6 3 -4 0 -2 -3 -11 -8 1 -6 -6 0 4 -3 2 -3 1 -8 2 -6 4 0 3 0 4 -4 -5 2 -8 -5 1 -3 0 -2 -6 1 2 -3 0 -7 1 0 2 3 -1 -8 4 -3 3 0 -4 -4 -6 -5 -3 -7 -1 -4 -5 1 0 -1 -6 4 -1 1 -3 -2 1 1 -4 -4 -5 -3 -1 -4 -2 -1 -1 0 -2 1 -6 3 5 -6 -3 -5 0 -6 -2 -1 -6 0 1 -2 -3 -2 0 -3 -3 1 3 -4 -4 -1 -7 0 1 -4 2 -3 1 -5 -4 -6 1 4 -9 -4 -2 -3 -4 -1 -5 0
-3 -1 0 -1 1 2 1 -1 -5 -6 -5 -2 -6 0 -4 -1 0 2 -1 -4 -3 -10 -3 -9 1 -6 1 -4 -2 -1 -8 -3 -5 -6 3 -1 -2 -5 0 -5 1 -14 -4 -3 6 -7 1 -6 -7 0 -6 3 3 6 -2 -5 3 -9 4 3 -3 -3 -3 -3 -4 -4 0 -4 -6 0 0 -3 6 -2 -3 2 -3 -1 0 -3 -5 0 -5 -3 -1 -10 -6 2 -3 3 -4 -1 2 1 4 -5 4 -4 -3 0 -5 -6 -1 -6 1 0 -2 1 0 4 -4 2 0 -2 3 1 2 -6 0 4 -8 4 1 -3 -2 -2 3 -8
3 -1 2 2 2 1 1 -1 -2 -5 0 -2 -2 -3 4 -1 1 -1 0 -4 -3 -5 0 -2 -1 -1 -2 -5 0 -1 0 -2 1 0 2 -9 -3 4 -3 -4 2 -6 0 1 7 0 0 -3 5 -3 2 -5 -1 -2 -2 -3 -1 -2 2 -4 1 4 -2 1 -3 -3 6 -5 1 -3 4 -1 3 -5 -2 1 -2 -7 -2 5 -7 -4 3 -1 -1 1 -1 1 -1 -1 2 -4 -4 3 -4 4 3 3 0 -2 4 0 2 2 -5 -3 4 -2 -6 3 -3 -5 -3 -4 0 -5 3 -4 0 3 -2 0 3 2 -4 -1 -4 -3
-4 -3 -6 1 -3 0 3 1 1 -2 -2 -4 -5 2 0 -4 -4 -4 3 -2 2 -5 -2 -4 0 0 3 -4 -4 1 -6 -4 0 2 -3 -4 -7 -4 -2 4 0 1 0 -3 1 -1 -3 0 -5 -2 0 -2 -4 -3 -3 -5 -2 -5 3 -4 -3 -3 -3 -1 -6 1 -1 2 2 -1 -2 1 -5 -1 -6 -3 0 -6 3 -6 -5 4 -1 -1 4 3 -2 0 -5 1 -5 5 1 -1 -4 3 2 1 -6 0 -3 1 1 1 1 1 5 2 -2 3 1 0 -2 -3 -6 1 -1 0 3 1 5 -4 -4 -4 -4 -3 -3 -4
0 -2 1 1 -3 -3 1 -4 -1 3 -1 -2 -1 -7 -2 1 -4 -7 3 -3 -6 3 1 -4 0 -4 -3 1 -5 4 -3 0 -4 -4 -8 2 1 -3 1 2 -3 4 1 0 -1 -1 -1 1 -5 0 -1 -1 1 1 0 -5 -6 -5 -3 -5 -4 -5 -6 2 0 -5 -1 -3 -2 -2 -4 -6 -3 -3 -4 0 -6 -4 -2 -4 1 -3 1 0 -3 3 -6 0 2 -3 3 1 3 3 -5 -1 -3 -2 -5 2 -2 -4 0 0 -1 -5 0 -5 -3 -4 -3 -3 -2 -5 1 -3 -2 3 -4 2 3 -3 -6 -5 -2 -5 2 3
-3 1 2 -4 2 -4 -2 3 -4 -1 -1 3 1 -2 -4 2 -3 -5 0 0 1 0 0 -1 -2 3 -4 -5 4 0 -5 -1 1 0 -3 -2 3 -2 3 3 -2 -2 1 -5 -3 -2 4 -1 1 -2 -5 -3 -1 1 -2 -9 -3 -1 -3 -6 1 -3 7 -2 -4 -9 -3 1 3 2 -4 -7 -4 -1 -2 4 -7 -2 -1 2 0 -1 0 0 3 -2 -6 -1 -4 1 -7 1 2 1 1 0 2 1 -1 0 -6 -7 1 1 -2 1 5 6 -6 3 -3 -3 4 -7 -3 -1 -2 -3 1 -3 -2 -3 3 0 2 -1 0 -2
3 -4 -2 1 0 1 2 0 -2 -3 -9 8 -1 -5 -1 -1 1 1 0 -8 -9 -1 -5 -2 -6 -7 2 -8 2 -1 -7 1 0 3 2 5 0 -6 -7 -5 0 -7 3 -3 -1 -4 -4 0 -5 0 5 -4 3 1 -9 -2 -4 -9 4 4 3 -1 2 -5 2 -3 -6 -2 -1 -3 -4 -1 6 -1 -4 2 -9 -2 5 3 3 5 4 2 -7 -2 -3 -2 3 -4 -4 -1 -3 -7 3 3 -3 -8 3 -2 -2 -7 -7 -1 1 4 -6 -5 1 0 -2 -4 0 1 -3 -2 -8 -2 -7 -5 -5 -4 -6 4 -3 -7 -2 3
21 -47 49 -46 18 -25 -13 -52 20 36 -41 32 12 -36 -7 6 -44 7 -2 26 -44 27 32 -51 -32 -60 30 -62 10 26 21 29 36 4 -26 17 17 37 44 32 40 0 -5 -44 37 34 -55 35 -50 -47 16 39 39 44 -32 -44 -2 35 13 -1 24 10 -28 48 -21 -20 -10 34 36 20 -58 22 34 26 38 -16 -23 -16 -23 14 22 13 10 28 -43 -55 -57 45 16 31 -62 -72 -5 12 39 19 30 0 42 19 -6 -46 29 27 23 41 -53 -4 -28 42 31 -29 35 -39 32 -43 1 23 -12 -50 45 37 12 -60 25 31 -63 33
-7 -2 -9 -1 -8 -5 0 -1 -4 3 -1 -2 -1 1 5 -2 -1 -6 4 -2 5 0 -6 0 0 5 -11 1 2 -3 -4 -3 -1 -5 -4 -8 3 -5 -1 -5 0 0 0 2 -1 -2 1 1 1 -2 -4 0 -10 -9 -3 -1 6 -5 -3 -3 -3 1 -1 1 3 -3 -2 -7 -3 -5 -1 0 -7 -2 -6 3 1 -5 -5 3 1 -3 -8 -5 -3 0 -2 -8 0 -6 -4 -2 0 -3 0 3 1 3 0 -1 5 3 -4 -2 -1 -14 -4 4 -10 2 3 -3 3 3 -1 -4 0 -1 -6 0 4 3 -2 -1 -3 2 -1 -7