2 -16 2 -1 1 0 2 3 -12 -1 -6 2 5 -10 1 4 -1 -1 11 -2 -2 -4 3 -2 5 -1 -1 -5 4 -4 -4 -6 3 -3 -2 0 4 -3 5 1 -4 3 2 -7 -1 2 -2 -4 1 -4 0 3 -9 5 1 -4 -6 0 2 4 -4 -1 -2 4
2 -9 36 -6 -21 10 24 16 2 13 22 -22 -14 0 16 19 23 6 20 5 -2 -22 8 -15 19 -13 17 7 0 7 -6 -32 15 -5 1 16 2 18 -31 -21 2 4 -21 -6 -5 2 -11 -13 14 -5 9 -15 15 18 15 16 18 -11 -1 -8 -36 -6 -13 52
-4 -4 0 -15 6 0 5 -4 1 -1 9 10 1 -2 -1 -3 1 4 -4 -6 -1 3 0 -11 10 0 0 1 5 1 -1 2 2 -5 -2 4 5 2 3 7 3 2 6 2 5 -1 -1 2 0 -1 4 -1 -19 1 -1 -1 9 -3 -6 0 -1 7 1 6
-1 4 -4 -2 -2 -3 -8 -3 2 -4 -5 4 2 4 -7 -7 1 -1 2 3 1 0 1 4 -7 4 0 3 2 3 -1 -4 2 1 4 3 1 -2 3 -1 -2 1 2 0 -2 4 3 -2 1 -1 -3 -1 6 2 -7 -2 -6 -1 -4 -2 -2 3 -4 -9
-1 0 1 -1 3 3 -4 1 -3 1 0 -2 2 -1 -2 2 -1 0 -4 -1 -5 1 0 -1 1 -1 3 0 -1 -4 1 0 1 -2 -1 0 -1 -2 -6 -2 1 -1 -5 0 -2 1 1 0 1 -1 1 -2 6 0 4 -4 -8 1 1 1 3 -7 0 -2
3 -3 5 -1 0 -3 -3 2 1 6 -5 -5 11 -3 -6 1 6 -3 -5 -1 3 -4 -4 -5 -2 1 -10 -3 -5 0 -5 -1 -1 -3 -4 -2 -3 3 -5 7 -4 -3 2 -5 -3 4 -4 0 -2 2 0 -2 -12 0 1 5 1 0 3 -4 -10 -2 4 2
6 5 0 2 -4 -5 5 6 4 2 -2 -1 2 0 2 0 -1 2 -2 -1 7 1 -3 3 -4 3 0 -3 5 0 0 -1 2 -2 2 -3 0 1 -1 3 -3 4 0 -2 -3 -2 0 0 -1 -3 0 2 0 -3 -5 3 6 -4 -5 4 4 0 -5 -5
-6 -2 -8 3 3 5 -2 -10 -1 -9 6 1 -5 -3 -2 -6 -3 -5 -7 5 1 -1 6 2 -7 -3 3 -2 0 3 2 -5 1 0 1 3 3 -2 3 2 -2 -1 2 3 8 1 1 -2 -4 -4 -3 2 -3 2 2 1 -7 1 4 0 7 3 1 2
1 0 5 1 -4 -6 3 3 -5 0 -3 -4 6 0 -2 4 5 -5 2 -4 -3 4 2 4 4 3 -2 4 -4 1 0 0 4 1 -4 -1 0 1 3 1 -1 0 5 4 1 0 -2 -3 -3 -1 1 2 -1 0 4 -2 1 -3 3 -1 9 -1 -1 9
4 8 -7 2 0 3 2 -4 3 0 6 2 2 1 1 -3 -2 -1 -1 -7 1 3 -2 -4 5 2 2 1 -4 2 2 2 2 -1 -3 1 -2 -1 1 3 4 3 2 -3 -2 0 1 -5 -1 -3 3 -1 7 1 2 2 0 -1 1 2 -2 -5 1 -4
6 -1 -4 4 -2 0 -5 3 -11 3 0 -2 3 -5 -2 4 3 -3 2 3 1 -1 1 -12 2 0 -5 8 -2 -7 3 -5 3 1 9 0 -5 -5 3 4 4 -1 -2 3 -3 -2 -1 -3 -1 3 -3 -3 5 1 1 2 7 -5 1 3 0 -1 2 -4
-1 3 -3 7 -2 0 -5 2 -4 2 0 4 0 5 -1 -3 -2 -3 -1 5 -6 0 3 2 0 4 3 0 3 4 4 3 -3 -1 -1 -2 1 3 1 1 2 5 3 -1 -4 -3 -1 -5 -4 -2 -2 -4 2 -1 2 4 -2 1 -3 3 2 -4 0 4
-3 0 -2 1 1 0 2 -1 -3 -8 -7 2 -2 -7 -4 -3 0 0 -1 5 2 0 -5 2 -2 4 -2 -2 1 -5 2 5 -1 2 -1 0 2 -2 2 -2 -1 -2 2 1 -1 -6 1 3 -1 2 2 -3 2 -1 -4 1 -3 -2 0 -4 -3 3 2 -6
-1 -2 -9 -3 4 -4 2 -2 7 -2 2 0 -6 10 -2 -1 4 1 -9 -1 2 4 2 -2 2 -1 0 1 0 -1 -1 -2 -2 -2 0 -1 -3 -1 -2 8 1 -4 6 0 3 4 -4 -1 1 -3 1 2 0 -2 0 -1 3 4 -2 4 3 10 -4 -4
-4 7 -9 -2 -4 3 2 -1 4 -2 1 10 -4 -13 5 -1 4 -1 -5 2 7 7 4 2 2 0 3 3 -3 7 3 -6 3 2 -2 6 1 -3 3 -5 2 -2 5 7 9 -3 2 -2 2 2 5 5 -7 3 3 -2 -4 0 -4 -2 1 2 -1 -2
-1 5 4 8 2 6 -6 -2 2 -3 6 2 -3 1 -1 -4 -3 3 -16 4 5 7 3 2 -3 -1 -7 4 -7 -3 3 5 3 2 0 -7 1 -3 3 -3 -3 0 -1 -2 -2 -4 -3 2 4 -5 0 -1 0 4 -2 1 2 -3 -6 5 -8 2 2 -7
-9 11 -2 -4 -5 10 6 -5 2 -3 5 5 -12 -7 8 2 -3 2 -12 -2 5 9 1 -9 3 3 0 2 -1 4 -3 -2 -6 -2 -5 -8 3 -1 -4 1 -1 1 4 -8 -3 1 5 -3 0 -6 1 5 -4 2 1 -1 2 -4 -3 3 -9 7 -5 -10
-9 3 -2 12 0 9 -3 -2 2 -8 1 3 -10 -3 -2 -5 -1 2 6 7 1 8 -3 0 2 5 0 -3 7 3 -2 4 -2 -2 4 -3 2 2 3 5 3 2 -3 -11 -4 -3 1 3 0 -4 -3 -3 -4 4 -5 -3 2 4 1 2 -3 2 1 3
-7 -7 -5 2 0 6 6 4 -6 -7 2 2 -3 -9 5 1 1 4 -5 0 5 -2 -2 -5 4 0 -5 4 0 -3 -3 -4 -5 -3 -5 1 -1 0 -3 -1 0 1 2 -2 -3 -2 -2 -3 -1 2 3 -4 -10 -4 -1 2 6 -1 2 5 3 1 2 6
-2 0 -4 -3 3 5 -2 3 0 -6 4 2 -2 1 -5 -2 -5 -2 -10 1 5 5 -1 1 1 2 -3 -4 -4 -1 -2 1 0 2 -3 4 -3 -2 -6 1 6 -3 3 3 -3 0 2 0 -2 -3 2 4 10 1 -3 3 0 -3 0 4 -3 -3 -4 6
-6 7 -6 -12 3 0 10 1 8 -2 1 -5 -15 0 -1 -5 0 -1 12 4 -8 2 1 1 -4 -2 4 -4 3 -2 -3 3 2 3 -3 0 -2 2 2 -3 3 -3 0 5 -6 -6 2 -3 0 -2 2 4 3 0 -3 3 0 3 4 3 -5 0 0 -7
3 -6 2 6 4 7 1 -2 -1 -6 -5 4 5 -7 -1 -5 0 2 -7 4 1 6 -2 3 -5 0 -1 5 0 4 0 3 0 1 0 2 4 3 6 -4 -1 0 1 -1 5 1 0 -2 -1 3 1 2 0 -3 2 -3 0 -2 3 2 9 1 -3 -2
6 -3 12 -1 -9 -8 -2 5 8 2 10 10 9 -1 9 4 -3 -3 -1 0 5 -7 -2 7 -1 2 -3 -3 -1 -3 2 2 -3 3 -5 0 3 4 -2 2 -4 -4 -7 4 -10 3 -1 0 -3 -4 2 -1 -4 -5 -5 3 -2 1 -2 -2 2 2 1 -3
1 -1 -2 6 -3 -1 4 1 0 -5 -2 -4 -1 -1 -1 4 0 0 8 3 -2 -2 4 3 1 -1 -2 -5 4 4 0 -2 -2 -4 6 1 -3 -2 4 5 2 2 2 0 3 3 -2 0 6 -3 -4 1 3 5 -4 -2 -2 -3 -1 -3 2 -7 4 -6
3 11 -11 -2 2 -5 9 -4 1 1 -3 1 8 -2 2 -9 2 4 -10 2 -3 6 0 3 -5 -1 3 4 -6 5 2 -1 0 -2 2 7 0 1 1 -2 -6 0 -4 0 6 0 -4 3 -2 -5 0 -6 9 -4 -3 -3 -5 1 -2 -1 14 -10 4 4
6 3 -1 3 3 -8 -2 -2 -1 4 -6 -5 2 5 0 -3 -5 3 -1 4 3 4 1 5 -6 -1 -2 -1 3 -3 2 7 0 -1 -3 -2 2 1 0 -3 -3 -1 1 1 -2 -1 -3 -2 -5 3 3 -2 -1 -1 -2 4 0 2 7 1 -2 4 1 -2
7 -5 3 -4 3 2 -6 2 1 -4 6 7 2 -5 -6 -6 -3 -1 -4 0 2 -5 -2 3 -5 3 -2 -1 0 -6 -3 -5 6 3 -4 3 -1 5 1 0 4 3 0 -4 0 -1 0 2 4 2 1 0 16 4 -2 0 -6 3 -1 -4 1 -9 -3 -10
-4 6 -4 -10 -12 1 -1 4 1 -3 0 4 -7 -4 7 3 -3 0 10 -3 -3 -4 -2 -2 8 -4 4 -2 7 -3 -2 -1 -6 2 4 -1 2 -1 1 -3 -4 -3 5 4 0 -1 2 -2 -2 0 4 2 -3 4 2 -5 -5 0 1 0 -1 -1 -3 -2
4 -5 -2 16 10 11 -3 -5 -1 0 1 6 5 6 -2 -5 -3 0 0 -4 4 4 0 -6 6 -3 -3 5 2 -1 -3 -3 -3 -3 2 2 -4 1 2 -1 6 2 -4 4 -2 -3 -5 3 -5 -4 0 -2 3 -5 5 1 6 -5 -4 -2 12 -1 2 3
-6 -3 -4 11 8 5 -11 -3 2 -10 3 3 -1 1 -6 1 -1 4 12 -3 -4 -2 0 6 -1 0 10 -7 6 -1 0 4 3 1 8 0 3 1 6 -6 5 -1 -2 4 6 0 3 -2 1 2 3 0 14 3 2 1 1 -1 1 0 5 3 -2 7
-2 11 -9 -3 0 2 0 -3 8 -7 1 0 -3 2 -2 -5 -2 1 -4 1 0 3 -1 0 -6 -1 4 0 2 2 4 2 -2 -3 3 1 -3 -5 6 -4 0 -1 4 12 -2 0 1 4 -1 1 -5 -2 2 -2 -3 0 8 -2 -3 -3 -5 2 -2 -3
-7 -6 7 -10 -1 8 0 -5 7 -6 0 0 1 -6 -6 -5 -1 0 -5 -1 0 1 1 3 2 0 2 3 -4 -1 -3 -4 1 -4 1 2 3 1 0 -1 -1 -1 -5 -4 -2 2 4 -1 2 1 1 -1 0 -3 -1 6 1 1 0 2 -2 0 2 -5
-1 6 5 1 -1 9 6 -8 -2 -7 4 -5 -10 5 3 0 1 4 -7 -1 3 -3 -2 0 3 3 -6 0 1 0 0 1 -4 -1 -1 4 -4 -2 -1 3 3 4 3 -2 0 -3 3 -2 -3 0 -1 0 2 4 4 -3 1 -1 -2 -4 -1 3 -2 -3
5 9 2 -6 -4 -2 5 7 6 8 -3 2 0 -3 5 2 0 3 10 3 -2 3 -2 0 -2 1 5 -6 11 -4 -3 0 -1 -1 2 -3 -4 -3 0 2 2 -1 0 -3 -4 -1 -1 0 -3 -1 4 -1 4 2 -4 0 2 3 2 0 16 -1 2 3
-1 -4 -1 0 -4 2 -2 -4 -4 0 -4 -11 -3 -1 2 3 5 2 3 -1 -1 -2 0 -5 -3 0 3 -1 -2 2 -4 -5 4 4 -3 5 2 1 -2 0 2 1 4 0 1 -3 0 1 -1 -1 4 -4 -1 0 -2 3 0 3 -6 -3 9 -2 1 -4
4 -2 3 -7 -1 -2 6 1 6 0 -4 -1 2 2 1 -5 -4 6 -4 2 -3 12 -2 -5 2 5 -2 4 7 -1 6 2 -4 0 0 4 -1 -1 -3 0 -6 -4 -3 -2 -7 1 -1 -2 -5 3 0 -4 -9 -5 -2 2 -1 -3 1 -3 2 4 0 -7
20 -9 52 2 -57 -3 41 47 -12 26 26 -47 -2 -12 43 48 -98 -108 15 -118 -98 31 -107 77 -82 95 -95 108 -101 -97 -117 79 -78 107 -68 -50 -100 -73 21 -31 -69 116 -101 42 70 102 88 75 -102 117 -114 121 43 -107 -94 -120 89 119 -122 127 -104 101 119 5
11 0 -7 7 -4 -10 1 2 -7 4 -9 -14 3 -3 1 7 2 0 2 -5 1 -11 3 3 2 -1 4 -4 1 0 -7 -5 2 -2 0 -2 -1 -4 -1 -3 4 1 1 3 1 -1 0 0 2 4 2 0 -5 -1 3 -1 -3 -3 -1 4 -5 -5 -3 -4
0 -4 -5 -4 0 5 8 -4 5 2 1 1 0 -3 -1 2 4 1 7 1 -4 2 -3 0 5 4 1 5 2 2 1 -3 5 -2 -1 -1 1 4 -3 -4 -1 6 0 2 -5 4 0 2 6 3 -3 -1 9 1 2 1 -4 0 2 -1 0 2 1 -3
0 -4 -10 1 4 4 5 -8 3 -7 -2 -1 -6 -2 0 -8 1 -2 -7 2 4 6 -2 1 2 0 4 1 0 2 5 -2 3 -2 4 1 3 -2 -4 6 2 -2 4 -1 0 0 3 4 4 2 -1 -4 -1 -2 0 -3 6 1 2 -3 -3 2 2 -6
2 -1 0 -2 2 -6 5 7 -7 7 -4 0 7 6 0 3 0 3 0 3 2 1 2 1 -4 3 -2 -1 2 1 -1 -1 1 1 2 -1 -3 -1 6 0 -2 -1 2 5 1 -2 2 -5 -5 3 2 -3 -2 -1 -5 -2 -8 -1 9 -4 0 -1 4 -5
3 12 -3 3 -3 -9 -3 6 6 9 -1 2 1 2 8 -1 3 1 0 1 3 -6 -4 0 3 -1 -4 -2 -3 4 -2 0 -1 4 2 -3 -4 1 8 -3 -6 -1 2 -5 -1 6 -1 -4 -2 0 3 3 2 4 -1 2 0 -2 -1 2 -6 0 0 -2
4 6 3 15 3 -2 0 4 -6 10 -3 -5 0 7 4 3 4 -2 -1 3 4 -13 2 4 1 0 1 -5 -4 -4 -1 0 0 -4 0 4 -2 1 -6 0 -3 -2 0 -7 -3 1 -3 -2 4 0 1 -3 -6 2 -1 0 1 -2 0 -1 -3 -3 1 0
4 -6 -1 3 10 2 0 -4 -3 -2 5 4 4 7 2 0 -3 -2 13 3 -5 -10 0 -2 2 2 2 -6 3 -2 -2 4 -3 3 -1 2 -5 1 1 1 3 -5 0 4 -1 0 -1 0 3 1 -2 1 6 3 5 -2 0 -5 -1 -2 5 -3 0 3
2 -12 2 2 4 6 -5 -1 -8 -1 1 4 7 3 -5 2 4 -4 12 4 -4 -11 -2 3 2 5 6 1 2 1 -2 0 0 2 -1 -1 0 1 -2 5 0 -4 5 1 0 -2 0 3 1 1 -2 -4 -12 4 -4 1 -3 5 -4 2 3 -3 -3 -6
2 -3 3 2 2 -7 4 1 1 4 0 -9 4 10 5 6 0 -2 5 5 6 1 -3 0 3 -5 -2 1 -2 -2 -2 3 2 1 2 1 -3 0 0 1 2 -3 0 0 0 -2 -3 0 -4 1 5 -2 -7 3 -5 0 -2 2 -2 -5 3 -1 2 -3
-7 -1 -6 -6 0 2 7 -4 2 1 -2 -3 0 -1 5 -4 2 2 5 2 -2 -3 2 1 -6 5 2 0 3 2 4 -1 0 0 4 5 -2 0 0 6 0 -1 -4 3 5 1 4 2 5 -2 -2 -2 9 0 3 -2 -1 1 1 1 8 -3 3 -4
2 -4 -2 -1 8 3 4 -8 -4 1 1 -1 3 4 -7 -5 -1 -4 4 0 -2 -5 5 -8 7 -1 0 7 2 2 -1 -6 1 3 -1 -2 2 -1 0 3 3 2 0 -1 4 -4 4 2 0 -3 -2 3 -7 3 2 -3 7 0 -1 -2 6 9 1 8
1 -3 -10 13 6 2 0 1 -4 -5 0 -1 -3 -3 3 0 -6 2 8 1 1 6 2 1 -4 -1 11 -8 6 2 -1 7 -1 -2 5 3 -1 0 3 -1 1 -1 -2 7 1 1 0 -1 -2 2 1 -3 10 -1 0 -1 -10 -3 5 -1 -1 -3 3 -1
-3 8 -2 1 -3 4 -8 -4 -1 -5 0 0 -9 -6 -2 -3 -3 2 -4 0 3 8 -3 -1 1 -4 4 -1 -2 5 -2 1 -2 1 2 0 -2 6 1 -6 0 -1 4 0 3 1 4 1 -5 4 -5 3 -1 0 4 3 -4 -2 3 -5 -3 5 -1 3
5 1 1 6 0 1 -1 -7 -6 3 -5 2 -2 -1 -6 -4 3 -3 4 -3 -5 1 0 1 -4 1 3 1 -5 3 1 -1 -2 -2 -2 1 1 3 1 -2 -6 -3 -2 -4 1 -3 5 4 -3 -1 2 3 0 3 2 1 -3 -3 1 1 1 -1 1 3
-1 0 9 -2 1 0 -7 0 5 1 -2 3 0 1 -4 -7 -1 0 5 4 -2 -2 -3 7 -4 1 -4 -6 5 0 2 1 -3 -2 -1 3 1 -4 1 2 2 -2 1 -2 -1 0 2 -1 -4 4 3 -4 6 -5 -2 2 0 -1 5 -4 9 5 3 -2
-3 0 7 -3 0 0 5 0 1 -3 -3 -4 6 7 -6 -7 -3 1 -7 -2 4 7 -3 0 -1 1 2 -1 1 2 3 4 -1 3 4 -2 3 4 -1 1 -2 -5 -2 1 -1 1 -3 -4 -2 2 -2 2 3 -2 8 3 -2 1 3 -1 10 -2 -1 5
-4 1 8 -2 4 -1 -1 -1 4 3 -4 -8 -4 4 -1 -1 -5 1 -6 4 -2 -3 -1 4 -5 2 -2 -3 -2 -7 5 -1 3 -2 -7 1 -6 4 -3 -4 -1 -2 -6 -3 -7 -1 -1 -2 1 1 1 0 -1 1 -3 3 5 0 -3 -4 4 -3 2 8
2 2 10 0 -3 -6 2 -1 -11 6 -4 -11 3 8 -3 0 -3 3 3 3 4 4 0 -1 1 -1 -1 1 -2 -1 2 -2 -5 0 -4 -3 3 -1 3 -2 -4 -1 -4 0 2 1 2 -4 0 -1 1 -1 12 1 -2 0 0 2 3 2 0 2 0 -1
-6 1 -4 -7 2 1 -1 1 2 -5 -4 -3 1 3 0 4 3 2 -9 3 0 4 2 -4 0 -1 -1 0 2 3 -2 1 0 3 -1 1 0 -2 0 0 4 -1 6 0 -1 -3 2 0 3 -3 1 2 -10 -3 1 -1 -2 4 6 3 1 1 -3 1
6 -4 5 4 -3 -1 -2 -1 -1 5 0 -5 0 0 2 6 0 3 2 2 5 -10 -4 2 1 -4 -4 -6 1 -9 -2 -5 -2 -4 3 -1 5 1 1 1 -1 3 1 -2 -4 1 0 1 3 4 2 -3 2 1 -6 -3 -1 1 7 -5 4 -4 5 -1
2 -6 2 -6 6 -3 8 -7 2 -4 -7 -11 -4 5 -3 -4 2 -4 -6 0 7 -4 1 -6 6 -3 -6 -2 -2 2 -1 5 4 2 5 4 3 1 -2 -6 6 2 -1 2 4 1 -3 3 4 -4 -4 7 -15 1 -1 2 9 0 -7 1 4 14 -3 4
1 2 -1 2 -3 4 -1 4 2 2 4 7 3 0 1 0 1 4 4 0 4 -2 -1 3 5 -3 0 2 4 1 3 4 0 0 0 3 4 -2 2 -2 -4 1 1 -2 -5 -4 4 -4 -2 1 2 3 1 1 -1 -1 -2 2 6 -2 -3 -1 1 -6
3 -6 -3 -2 -5 2 -3 5 0 -2 4 -2 8 -9 -2 5 1 0 -6 -3 4 -7 0 -3 7 1 4 -3 -5 3 -4 -2 4 -4 -3 -2 3 -3 2 -3 -3 1 7 3 1 -2 3 -2 6 0 0 -5 -3 6 1 -3 -3 3 -2 3 -13 2 -1 -4
0 -2 -5 1 4 -7 -7 -2 -8 2 -8 -8 6 8 -2 -1 -1 4 -3 4 -2 1 1 2 -2 -2 4 -2 2 6 7 1 3 -2 -4 6 3 1 1 -4 3 2 4 12 5 2 2 -3 -1 -4 0 -1 -18 -4 -4 1 -4 0 0 -1 -8 0 4 11
-7 -7 3 -4 -5 3 -1 -2 -5 2 2 -8 -4 -2 -4 3 -3 -3 4 -3 1 1 3 -6 3 -2 2 6 -1 5 -3 -1 -3 -3 -6 3 -2 2 -7 -1 -2 2 -6 2 -2 -3 1 -1 -4 -2 0 -3 -2 3 3 -4 5 -1 1 -1 -4 1 0 -6
11 -13 28 -1 13 -12 7 -7 -11 7 -14 -19 -5 37 -12 -5 27 15 7 18 19 -16 17 -20 23 -27 17 -13 10 15 14 -24 24 -22 16 15 23 21 -20 -2 16 -16 6 -22 -27 -15 -14 -27 37 -29 28 -31 -6 32 27 25 -12 -29 19 -24 -4 -30 -27 28
7 -3 6 -1 -7 -3 -5 7 1 -2 0 -7 5 -6 2 0 1 -3 -1 3 6 0 -3 7 -3 -1 -7 1 0 -1 -3 -2 0 1 2 4 4 0 5 -3 1 0 1 -3 -3 4 -1 3 4 -2 3 4 5 2 0 -2 -6 -3 3 2 17 0 2 -7