0.054302413016557693 0.23696328699588776 -0.2980760335922241 -0.14237597584724426 -0.13850651681423187 0.24067240953445435 0.015856999903917313 0.00491099338978529 -0.14290110766887665 -0.057258885353803635 -0.11533030867576599 -0.045049794018268585 0.08181199431419373 -0.07227874547243118 -0.06388729065656662 -0.05591844394803047 -0.12703630328178406 0.07240890711545944 -0.09635286033153534 -0.07165398448705673 -0.13356147706508636 -0.009006147272884846 0.12653790414333344 0.16386359930038452 0.22154784202575684 0.09522441774606705 0.28410032391548157 -0.05274836719036102 -0.11887750774621964 0.09524839371442795 -0.09974035620689392 -0.07648526877164841 -0.056424617767333984 0.2345508486032486 -0.06638812273740768 0.16466817259788513 -0.14181168377399445 -0.1625315546989441 -0.05427752807736397 -0.028918901458382607 0.13190464675426483 -0.010211039334535599 0.07342808693647385 -0.04128777235746384 -0.15270721912384033 -0.22245636582374573 0.2261190563440323 -0.14228267967700958 -0.19102779030799866 -0.13111001253128052 0.2403779923915863 0.10823659598827362 -0.13589249551296234 0.15311618149280548 0.0856379047036171 -0.22235161066055298 0.11561005562543869 -0.11614549905061722 -0.19226346909999847 -0.061224088072776794 -0.013882246799767017 -0.1936233639717102 0.34411290287971497 0.04524208977818489