-21 -13 21 42 -11 -20 90 -34 27 -12 15 -59 46 9 15 51 15 -19 -12 -14 -74 29 27 -36 36 1 -6 -26 19 -30 -41 17 69 -3 -2 -4 -5 5 -63 45 9 -12 -3 -45 -28 0 -53 -19 -11 19 10 0 48 5 -26 -19 -49 61 -15 -11 -59 -11 14 61
11 -26 -16 -30 7 4 -47 19 -21 -3 -1 37 -15 14 -5 -25 -32 23 1 28 66 -34 -5 31 -20 -5 15 25 -11 -4 73 -22 -71 0 36 15 14 -4 33 -57 -39 -7 -17 24 4 -15 31 4 -7 18 -1 -27 -9 -16 -17 20 16 -30 54 -13 20 31 1 -35
-12 -26 17 -48 6 25 -3 48 -25 -33 11 31 2 16 -33 7 -25 -17 20 72 66 -43 -3 -12 -25 -25 2 55 -3 -16 62 -10 -48 23 11 29 -23 -52 43 -85 -29 -10 -40 108 9 -13 51 15 18 -12 24 -18 -21 -65 -15 21 51 -54 67 -11 -16 0 -2 -23
-29 -36 6 24 18 -34 100 -47 44 26 10 -21 35 10 50 48 37 -5 12 27 -100 48 15 -39 2 12 31 -9 -10 5 -23 55 61 21 -4 -2 13 -9 -17 43 11 -7 24 -70 14 -4 -11 -2 -29 31 10 32 64 -19 -32 -38 -6 74 -6 28 -36 -1 16 68
21 -7 14 -31 23 60 -83 3 14 62 -39 62 -21 -25 -45 -58 -27 27 1 -18 81 14 -14 38 -42 -34 -10 7 24 -19 35 -35 -61 -24 22 -29 -9 70 43 10 -51 -21 12 49 0 8 14 18 9 -3 7 -40 -6 14 26 -4 13 -37 11 11 77 73 -2 -36
4 21 8 20 -29 -48 38 -34 15 19 20 -38 43 -10 31 36 26 0 1 -27 -35 3 17 11 25 46 -8 -84 -31 -2 -60 11 54 -32 -24 15 19 -9 -51 39 28 12 23 -37 3 -11 -68 -20 4 -5 -3 18 33 53 24 -25 -62 58 -81 23 -32 -46 16 16
-23 -46 -3 63 49 -27 118 -8 23 -2 -24 18 -15 34 13 83 34 16 10 108 -32 35 53 -77 -25 9 24 56 21 -69 47 30 -36 78 -37 43 -12 -38 -1 0 30 11 -23 29 24 7 7 -22 -15 2 4 -23 4 -34 -43 3 30 13 69 -27 -76 8 -15 97
-2 25 19 4 -30 0 16 -7 -1 6 34 -86 -2 -8 27 0 15 -12 -52 -69 -112 14 4 19 34 22 15 -50 -6 7 -34 16 47 -15 -14 18 -3 50 -37 70 2 -4 -2 -95 -49 -15 -23 3 9 34 -3 -1 23 31 11 -30 -59 30 -85 3 -8 2 -3 -20
32 -23 9 -54 -2 30 -57 42 8 6 -43 57 -33 0 -27 -22 -41 30 24 44 89 5 -10 28 -25 1 6 23 -6 14 30 -26 -75 -3 15 -10 -3 18 34 -66 -11 5 -13 63 24 12 61 26 23 -4 -1 -35 -32 -13 -3 31 58 -59 34 -25 68 25 -14 5
-26 -26 -48 -19 16 7 -65 13 -19 20 41 -13 55 34 -18 -81 -46 -10 -49 -27 78 19 -1 16 -9 -10 -12 -41 -10 67 8 52 11 17 43 28 -2 83 -28 -15 -33 10 -65 15 -6 39 70 41 74 28 57 74 43 -10 -19 4 -3 -1 -26 8 13 1 46 -21
-24 -37 2 18 29 -40 92 -26 15 -19 8 -19 0 8 60 81 51 1 -12 25 -88 5 22 -80 7 -1 35 -7 32 -1 -26 61 41 12 -10 19 -3 -6 -34 23 -5 -8 -14 -30 -24 -5 17 -7 -29 51 27 21 39 -24 -29 -38 -15 56 -18 -4 -33 -27 45 61
-35 -22 29 63 -1 -6 91 -30 32 -21 40 -28 31 -17 37 36 25 -5 2 14 -66 8 -11 -53 10 22 -5 -31 24 -26 -20 39 64 30 -14 20 -4 -32 -37 61 18 -7 26 -45 7 13 -42 10 -27 -4 -18 21 12 10 -5 -29 -51 22 -5 -12 -66 -19 15 30
-3 21 -34 -3 -4 -1 -116 0 13 65 -13 -37 -3 14 -69 -106 -73 -1 -27 -98 33 2 -8 108 -1 13 -16 -72 -45 45 -45 -43 23 -63 -12 -33 19 84 -9 37 12 -22 19 -10 -32 11 22 9 27 -2 8 -13 -11 64 49 -32 -1 -29 -54 42 88 16 18 -37
30 -12 -29 -32 14 25 -109 48 -40 31 -34 13 -24 4 -55 -22 -38 33 -12 5 66 13 -25 49 7 -30 -38 1 -5 -18 28 -32 -43 -10 -3 -14 -5 36 55 -53 -17 11 -4 58 19 0 20 -21 -6 5 -7 -1 -10 34 10 -5 7 -62 11 8 35 28 -30 -25
-41 -36 14 64 -2 -4 102 -36 31 -18 26 -45 33 14 48 65 35 -31 -24 39 -94 8 15 -68 22 26 3 -44 0 11 -20 25 69 16 -32 28 -16 -6 -41 26 29 3 -20 -26 -16 7 2 -5 10 24 -21 -11 34 -15 -51 -8 -24 44 -28 -17 -58 -19 31 21
-48 -53 -9 35 10 -43 112 6 -21 -78 -15 58 53 27 29 63 34 -11 53 85 4 -15 23 -105 -11 13 -10 53 -1 -37 -8 13 13 91 -21 46 3 -76 -15 -70 -7 5 -23 101 18 -27 31 4 0 -40 -2 31 -25 -79 -52 38 62 -24 35 -48 -62 -16 16 65
0 -14 33 -2 -32 6 26 -13 -7 27 8 -51 -21 31 21 46 18 -11 41 -17 -6 -29 1 14 13 6 -26 -41 -31 -15 -12 -14 38 -40 65 13 -22 16 31 57 -51 7 -15 -6 11 43 46 29 36 0 -4 -43 -11 -108 24 19 10 55 -7 -19 -7 38 -21 -68
11 -34 -24 0 26 3 -15 8 23 23 -30 11 16 1 -10 13 16 22 42 -16 -6 -27 6 -45 14 -26 -29 -1 -14 -32 29 -46 -7 -13 -1 -10 21 61 28 15 -18 -40 -6 -9 8 -1 -15 14 -5 -41 12 -45 -13 10 24 28 -30 -17 -10 43 57 60 -20 -8
-24 44 -48 20 -31 2 10 74 -16 -7 16 -27 42 10 -13 -43 -19 -15 -12 11 -6 24 30 -5 53 -34 35 0 -63 -2 0 26 -13 16 -30 -13 3 4 -50 -43 -2 -20 12 -62 7 13 54 -19 -37 -11 16 53 -19 62 16 4 49 -39 -1 -30 -16 -50 -27 39
-11 -31 2 -51 -28 -30 25 -22 0 29 5 -44 -13 -19 22 94 40 13 16 -37 -13 12 -37 -12 15 -24 -25 -31 11 -6 37 -58 37 -26 17 33 -22 29 12 50 25 -39 51 55 -18 8 -20 6 23 -15 -32 -39 -24 -43 25 8 -32 9 17 40 -7 41 -14 -77
3 14 -10 -14 -35 -20 -66 26 -30 -25 5 -3 5 7 43 -31 -20 12 9 -50 -8 27 -1 -34 -16 -58 13 -11 -25 13 -29 -32 6 -46 11 -34 60 2 0 11 -40 0 -1 10 -10 -37 1 23 -30 -38 11 3 -44 -25 -18 -4 1 -21 -24 -13 -5 -39 -15 15
45 9 -4 -34 30 -73 41 -66 9 -29 -36 -34 -62 -6 -7 83 49 30 -38 -6 -15 -50 -20 -9 -63 27 -69 -11 -38 5 -18 -6 71 -13 6 50 1 -35 -28 16 -30 46 84 12 -53 -2 -79 -27 38 58 -55 -34 40 26 36 -22 -72 41 -16 65 -19 25 16 -59
3 35 -23 -33 -69 -28 12 -45 9 -41 -16 -127 -16 33 22 -18 -1 31 -61 40 9 -15 -7 25 -15 -55 -33 80 -32 57 -35 35 39 43 -73 15 -4 41 -44 33 16 79 57 5 -25 -14 -6 24 40 -19 -20 -15 -17 -17 -14 -44 -11 32 -2 -52 -11 6 20 -13
-21 19 -50 42 46 49 -52 -16 -35 -39 25 16 26 -44 1 -36 -12 -2 14 -10 -6 48 37 10 32 -18 36 -22 -15 1 4 -17 -17 -24 -44 -15 -4 43 54 -26 62 -83 -13 5 17 -39 14 -7 -80 15 -12 16 8 83 -16 -36 -42 -64 -38 4 29 17 -3 30
-10 8 -20 -41 47 -62 61 -37 35 -33 -73 -21 13 -35 24 51 33 29 -39 4 14 -14 -29 -58 -51 -6 -17 28 37 13 -30 7 25 29 -85 14 26 -9 -22 12 -7 35 65 -11 -67 -44 -79 3 -27 20 -58 33 84 7 -28 -24 -100 11 23 -7 -12 -13 28 25
-22 9 16 10 27 -6 47 -22 16 51 15 15 10 -44 -13 11 34 -24 -4 -1 19 7 -4 11 18 26 -17 -5 4 -55 9 29 23 12 7 32 -24 -52 -5 -19 -17 -35 19 -14 11 35 9 2 -28 3 -2 10 41 -2 15 -33 19 -12 23 -19 -8 23 28 5
18 23 -18 21 24 45 -67 37 24 21 39 54 35 -44 -28 -33 -7 -51 10 13 18 14 12 39 31 7 31 26 -30 -18 44 -26 -89 -3 23 -7 1 41 13 -35 71 -92 -33 30 62 -7 -15 -59 6 20 16 -56 -66 67 0 21 -9 -89 -24 57 37 -3 -15 -3
6 -25 20 -37 5 -6 43 -37 -5 14 8 5 9 7 -18 4 9 -13 14 31 -10 -11 -3 -17 14 69 6 -10 1 -33 7 34 19 7 2 42 -44 -14 -15 -1 -2 -26 -17 0 -22 4 -9 -24 -14 17 -19 5 69 -6 24 -32 3 35 39 10 -8 21 29 -17
25 15 59 -34 0 8 31 -56 17 27 -25 7 -23 -35 17 23 27 -21 18 -25 -10 -11 -15 -3 6 7 -41 -7 -1 -22 -9 -14 16 7 13 30 -17 -11 5 -20 -18 -13 29 -8 5 -11 -3 2 -13 -16 -37 46 65 -13 -8 -7 -25 34 19 -23 -15 -9 40 2
30 -19 8 -6 -22 -59 48 -46 -6 -10 2 -28 -45 -4 -1 125 64 29 -3 -12 -16 -4 -45 9 0 3 -33 -50 16 -8 8 -20 54 12 -15 32 -10 5 23 19 -5 -19 65 -3 -70 -31 -47 1 34 26 -77 -35 -19 -8 37 27 -44 42 7 33 5 46 -13 -43
15 14 -32 35 46 24 -28 4 -36 32 19 74 5 -21 15 -1 -37 -30 46 -18 1 21 6 5 41 -37 27 -10 10 -12 2 -29 -37 -21 24 -24 5 24 56 -29 12 -38 -44 0 33 -44 24 -7 -55 -42 5 -31 -6 14 31 21 -6 -38 -27 13 34 -24 -9 37
-1 29 -21 47 3 12 21 -15 -34 -60 15 -23 -8 17 21 -23 -44 8 -54 13 21 -5 32 -5 -10 20 38 -1 -18 -3 -13 27 -6 38 -48 20 6 -12 -60 -23 6 -4 -9 -69 -44 -27 15 -22 -10 2 5 70 -2 30 -5 -6 -9 19 -21 -57 -50 -40 24 62
-9 -37 39 -38 -3 -60 -37 12 32 43 -2 -8 14 37 -19 -35 -4 7 -8 31 15 26 -19 -2 -39 -24 -6 21 39 49 26 -37 -50 13 9 -19 -3 119 -64 48 49 3 -23 39 -39 35 -31 18 115 41 18 30 55 -26 -68 33 39 45 34 9 44 12 -30 29
-37 9 32 -26 25 -12 7 -63 17 14 24 -17 10 -23 -24 6 12 11 -6 10 32 -18 -24 -13 -3 17 28 8 -16 -79 13 47 1 -8 -5 0 -17 3 -7 19 -13 -33 27 16 21 -1 -5 17 -61 33 -36 -17 36 -6 3 -35 -24 6 29 3 8 50 23 -9
14 13 46 -10 -37 -21 -9 49 -5 9 7 -91 -53 52 -15 6 32 31 9 7 -30 46 -24 -6 15 3 -7 -8 5 -9 -10 -5 7 -45 -18 -19 -6 -2 -46 29 -7 56 -17 -21 -23 47 -60 0 9 -13 25 -31 9 -18 -24 4 16 40 10 4 -12 -34 2 -20
5 -24 2 10 3 10 42 -6 13 -18 23 31 16 -3 -32 -32 11 -11 24 -6 31 -65 -16 25 -1 18 4 63 -27 -44 -1 -6 -19 -9 37 -30 -1 -34 30 3 -9 28 -1 13 -3 39 5 25 -43 -26 -10 -30 9 -9 1 3 6 -44 -11 40 9 -25 20 -6
-3 -6 27 -62 -8 -53 -4 42 19 30 -14 -60 -32 45 26 26 -14 55 -30 3 -18 1 -19 -13 -5 23 -18 -53 6 13 23 8 -1 -62 19 3 -6 74 -69 89 11 -8 38 -24 -43 45 -20 39 59 5 -6 11 -19 35 -10 11 -3 100 -14 30 27 -9 -31 -19
-19 41 -16 -39 46 39 37 -33 -34 -21 -26 -5 -14 14 -5 -9 5 -8 3 -12 -18 -38 31 -2 -16 10 43 9 -18 -33 -12 2 -4 17 -17 -40 -40 -38 30 8 -6 6 11 32 27 -27 32 7 -24 14 4 7 -2 38 25 -3 -6 16 34 -13 -23 -16 39 39
-3 -16 -14 27 10 16 1 20 21 -19 -6 48 37 -34 -44 -55 -40 0 -21 63 38 11 31 32 22 -24 15 56 37 37 11 -22 -59 87 11 12 -23 3 -13 -16 19 -33 -3 24 59 26 49 -42 8 24 11 11 14 4 -6 21 1 -97 28 -15 23 29 -1 24
-9 1 27 -55 31 -12 37 19 1 33 -42 -32 -29 61 -11 59 -21 25 -17 1 -17 9 -32 -30 -35 9 -35 -18 29 -32 -10 38 6 -59 -14 -31 -6 13 -52 63 10 14 29 -9 -74 10 -29 47 38 29 -12 -18 5 15 18 -16 -15 105 33 11 9 -23 0 54
25 17 -51 19 -37 17 -32 27 -31 -15 -43 -9 -4 12 40 -2 35 -12 11 -30 -21 48 33 -39 19 -26 -46 -27 -14 34 -13 -2 45 7 -51 29 28 -35 -16 -40 2 8 7 -52 -10 -50 -18 -14 8 -12 -21 0 -53 33 5 2 10 -20 -50 -61 -17 -50 30 -22
26 18 0 -1 -44 2 -16 58 -28 -41 3 -8 9 -1 25 -12 -23 -7 22 -14 2 45 18 -18 42 -1 3 6 7 57 9 -9 -32 32 -25 18 2 45 36 12 -5 -18 9 -50 32 -23 13 -45 26 -36 21 10 -22 4 -25 30 17 -68 -26 -12 -17 -24 -1 -1
1 -16 -22 -1 58 -1 15 -17 14 22 2 30 1 -8 -18 5 10 -1 -4 -1 28 -15 -1 13 7 3 10 42 11 -20 -7 21 -16 18 1 -8 -1 -67 10 -26 10 1 -27 27 16 -11 13 -8 -36 -16 -3 -5 53 -5 33 13 -1 -11 -11 34 4 37 8 21
-21 -11 -43 6 54 54 19 -49 33 9 0 43 -6 -6 14 16 5 -3 11 11 -19 21 -6 21 7 -2 8 13 28 -23 -15 9 -15 56 -3 12 2 -46 16 -50 24 -1 7 46 21 -19 17 -7 -82 12 1 6 27 2 27 -16 -41 -59 -5 -36 -51 45 1 13
-18 -26 -27 -21 -19 -32 -27 -6 25 49 -43 -5 13 29 10 21 -3 17 -52 -9 36 53 6 -50 -59 -29 -27 -25 52 68 11 -27 -7 18 -19 12 5 30 -79 5 34 8 22 19 -49 -11 -14 6 54 29 -7 49 56 -18 -36 -2 4 39 9 -37 -3 36 -23 29
-2 -17 2 -13 38 41 -2 -56 17 33 30 -10 -18 15 -26 33 14 12 -1 -12 1 -15 21 10 -5 -17 26 45 5 -31 34 -13 -4 -10 15 -8 2 -40 -10 -20 7 3 -17 20 -3 16 7 1 -31 13 -22 4 10 34 29 -19 1 12 -1 9 -21 7 25 26
-31 -25 42 -63 27 -27 50 22 58 15 3 -3 -4 -7 16 45 16 0 18 8 -26 -76 -54 -3 -17 20 4 -42 7 -52 19 17 -21 -55 -3 -25 6 1 -1 33 -12 6 38 25 -71 44 -42 31 -26 12 -10 -42 26 -3 11 13 6 63 32 86 12 39 0 8
63 -14 23 49 -30 38 -18 -26 50 9 17 -11 -18 -10 39 -6 21 31 41 1 -49 -19 -3 11 14 -2 3 46 -28 -67 -7 2 6 31 59 -10 9 -64 82 9 -27 33 -46 -72 59 15 -27 -12 -101 -46 8 -21 43 -77 11 -13 37 -68 15 18 -28 55 15 -5
-24 13 32 -28 26 4 49 -40 -9 11 3 26 5 2 -38 13 2 0 -22 17 48 4 -4 -4 -1 8 16 6 -5 -22 31 24 -14 3 6 -10 -42 -18 -33 -7 10 -15 3 0 15 -10 -15 -1 -15 13 -10 14 18 35 -1 -7 24 3 34 -27 -30 -4 -12 35
4 -3 6 -12 -35 -34 -52 32 -11 -28 5 14 7 27 33 -21 8 6 22 -24 -18 -3 -16 16 32 -8 -15 -10 -6 31 -19 -33 -3 -17 24 -14 41 -6 28 15 -13 1 -9 0 1 -22 -17 5 13 -9 11 -8 -13 -17 -17 -6 -1 -15 -8 12 45 -9 -27 -24
18 26 12 28 13 34 -8 23 -51 -5 16 6 -28 -10 1 -33 -30 5 13 -40 28 1 0 44 -6 0 13 20 -35 31 -35 30 -8 22 0 -4 -28 10 1 -15 41 -10 -26 -19 18 7 40 -37 -21 19 3 13 -31 20 14 -10 -15 -8 -21 -9 35 -13 9 12
-32 -29 -29 -38 -13 6 -37 -25 17 -23 -48 8 36 -18 3 1 -9 -20 -4 31 41 -1 3 -5 14 8 -47 -17 33 7 62 -31 -43 -5 16 -7 2 17 15 -5 -26 -2 16 -4 -6 -25 -2 14 8 18 20 11 70 14 -30 2 8 3 -16 -6 27 -21 -23 -41
-11 -76 114 -8 -5 14 29 3 63 21 -2 16 16 -6 5 11 -16 53 32 25 6 -8 13 -40 -45 24 -38 25 38 -62 54 48 -19 -41 58 -30 9 -10 40 -17 -50 -1 -11 -2 59 32 -12 57 -37 -18 27 -91 41 -24 -35 24 36 38 30 74 36 18 -24 9
-23 -6 -8 -17 0 44 1 -29 -9 30 32 -14 -25 -18 -22 9 -9 12 29 -24 11 -13 13 -6 4 -6 40 13 -23 -28 -15 4 -28 9 14 -5 -34 -17 -20 -29 -7 -21 -31 2 36 -4 27 28 -10 6 8 -7 -1 -13 1 -28 17 -13 0 -34 -22 30 40 38
12 12 0 3 -7 29 -12 -14 -1 21 0 4 17 -13 -12 -22 -19 23 2 -33 50 -13 -20 25 10 13 -9 23 -6 7 -9 34 -14 -11 -19 -9 -32 -5 -22 0 16 -16 -8 24 22 24 34 -15 -38 4 -2 -12 14 24 -16 -29 -1 25 15 0 -23 -2 16 41
31 29 -19 -24 -15 -11 24 -50 -2 19 -9 -39 -20 -12 -16 4 50 -39 1 21 -6 11 14 -18 26 6 51 -33 -17 -41 1 8 53 38 -63 52 -6 13 -12 16 1 -61 32 -11 -55 33 8 -4 9 44 -43 49 -3 27 39 -24 -8 24 -3 -10 -48 31 -5 -2
-22 -2 -80 7 64 -48 -4 -7 3 20 -1 -13 92 9 -12 -48 -16 -31 -25 7 25 42 21 -7 32 16 53 -40 2 45 -9 -44 -14 19 -36 6 -1 53 34 12 35 -28 14 41 -18 -21 -2 -27 0 53 -8 71 24 3 34 2 -18 -36 -10 -45 -12 -10 -13 26
-32 -19 10 -31 19 7 50 -34 21 0 10 19 9 -2 -16 -2 -23 20 6 -3 21 11 3 -10 -9 33 24 35 -26 -21 23 26 2 28 -40 5 -50 -12 -26 -16 7 -7 -31 -3 -12 -3 11 -24 -45 43 -13 35 54 0 10 1 21 7 54 -28 -21 -8 30 21
25 4 -53 -19 -26 -19 -32 -9 2 -4 -8 4 26 1 34 20 4 17 -9 4 -29 12 -13 -30 -13 -21 -8 -7 17 27 16 -12 4 -12 5 -4 28 21 -6 2 -23 21 6 16 -23 7 -5 28 37 -36 -30 -25 4 12 5 -6 17 2 0 -15 29 -18 -23 -5
4 -6 43 -11 34 36 39 -30 23 17 -6 26 -27 -13 -6 2 -16 0 -13 26 10 -13 3 -13 2 -2 -7 49 -27 -44 -4 49 4 27 -2 -18 -44 -17 -27 -7 20 -1 15 16 -1 15 -17 -25 -25 17 -5 3 2 -2 -20 -25 23 30 45 -13 -11 0 29 35
-30 -40 9 -48 -2 46 11 -47 18 8 -10 -9 6 21 -14 10 9 16 23 50 -24 -23 11 -31 14 33 -41 40 21 -77 48 48 -10 14 28 -2 2 6 -12 -4 -18 -31 9 9 -12 27 -53 24 -22 16 21 -28 33 -7 -51 10 -13 -10 30 62 21 22 -15 -1
-24 -15 9 -34 0 48 32 -13 4 26 -5 -9 21 -6 -23 -22 11 21 13 2 14 15 14 17 -3 22 7 39 8 -16 27 11 -20 -18 -2 -16 -66 0 -9 -12 31 -7 -40 -3 1 8 22 -3 -44 7 29 -27 4 24 -39 -22 -9 -9 15 -5 -7 35 47 41
2 10 56 -41 22 33 6 5 -25 14 34 -7 -8 -22 -18 -27 1 -10 49 -18 -7 -14 -9 -2 -6 1 5 40 -22 -58 -4 14 -25 -21 31 -15 2 -17 16 -28 -31 -36 -8 -40 -15 12 -4 8 -46 -6 32 -11 -7 21 -25 16 -24 -13 1 37 4 10 30 54
30 7 -45 4 -6 -10 -44 31 -10 -3 -9 -1 -36 47 12 -19 5 43 -14 -32 -42 10 -4 -9 30 -36 -19 -36 -23 55 -34 -31 5 -30 43 37 27 20 47 24 -28 14 -1 -42 11 -30 32 -11 12 -27 20 0 -52 6 -7 -10 6 -38 -33 5 25 -4 -2 -26