-20 -14 32 19 7 3 -12 -9 41 25 17 42 26 -14 54 11 5 -36 -5 34 -13 -9 1 -12 20 -20 3 5 20 -14 9 53 30 -9 19 -4 12 -19 2 9 -7 3 -4 -1 3 -2 20 11 -3 -4 -19 2 -2 -36 -12 17 6 -3 16 39 12 34 9 -18
27 5 -34 0 -5 29 -19 -42 -15 25 -9 16 -22 14 21 -19 -9 17 -8 1 45 -13 -7 15 -20 27 -5 -1 -18 -10 16 -47 7 -22 -6 -5 3 -12 12 -14 0 17 -20 -3 -36 -13 2 13 -28 -16 12 -51 -23 12 14 10 56 6 -9 41 13 28 3 -6
2 10 16 21 -20 -18 -11 44 -6 11 12 28 25 16 12 -2 -12 2 28 18 30 -9 -22 15 43 -5 15 -58 27 24 13 6 -11 -12 -10 -18 -2 40 24 16 -15 -24 0 43 -17 44 39 26 47 13 -30 32 -26 -14 -1 15 -59 34 12 -9 47 -7 -11 -24
22 4 37 25 -17 -18 23 -5 -17 -6 31 24 2 -8 35 16 10 -7 37 43 -46 -9 -17 -20 43 -32 27 22 18 -5 -24 -19 43 17 -28 15 1 -1 -6 26 28 -15 4 -6 -47 -7 -14 -4 -42 10 -22 -3 2 -16 24 40 -18 -16 -6 27 -5 17 -26 27
-2 -5 -24 51 0 -21 24 4 10 15 -14 31 32 26 -6 -5 -5 -26 10 36 -36 -13 -1 -2 -4 -35 -10 25 4 -8 -22 17 25 15 -15 7 -5 -41 19 25 33 8 3 4 -15 -1 -10 4 -2 2 -26 -7 6 -28 18 -26 -13 -23 -15 1 -3 20 7 33
6 20 15 -37 -24 -19 21 21 -18 -11 6 -23 -33 12 -27 -7 -37 45 3 -5 -52 18 16 -35 -26 2 -2 1 -17 0 -11 -11 8 -12 8 14 -8 12 9 -2 4 -13 17 -22 -11 25 -10 1 -11 8 1 29 0 14 -24 -6 -23 2 0 -21 -9 -12 7 19
-39 16 -25 25 25 18 -22 11 -15 16 -11 6 5 21 -4 0 -33 -15 -49 25 29 5 16 10 -27 60 -11 21 17 -5 13 -12 -3 21 -16 6 0 -22 -31 -13 36 27 2 -20 -16 -37 15 -10 48 14 10 6 11 -8 -3 -18 36 4 18 -16 6 -1 2 -19
23 1 -3 -6 -8 -8 -27 0 27 -3 18 14 -4 14 25 24 32 12 -37 -8 18 29 -9 -10 8 11 5 8 20 -15 20 0 -17 -24 21 -33 2 4 -21 0 -8 -24 15 4 28 7 -5 7 -24 21 5 23 -13 11 -11 4 31 1 3 12 23 14 -22 -26
-13 13 -10 16 -2 18 -32 -6 27 13 2 7 13 3 -13 14 -9 9 11 -21 25 -26 0 17 -27 -2 -19 -4 -48 -8 16 -14 -22 -30 16 -47 -5 0 -20 -7 -5 30 -1 20 9 -11 -7 2 6 -4 20 -35 -21 -3 15 -11 16 11 10 26 -11 20 -3 -25
-6 -6 -34 27 6 9 -23 24 40 1 13 7 6 11 24 -5 9 -17 8 43 37 -18 -27 21 -2 20 7 -15 21 -1 17 -10 -6 16 -11 -22 4 23 -2 -8 -8 -23 1 -7 -45 -9 4 -1 14 17 -7 6 -8 7 3 51 -3 5 15 12 9 22 -2 -9
-1 11 -16 7 15 2 11 20 30 -14 21 10 -9 11 2 46 -34 -5 3 3 8 4 17 -36 -36 12 5 -19 -8 -40 -5 20 16 -14 14 -31 4 4 32 -18 -8 -10 8 -10 -15 22 -8 -3 -12 10 -8 14 -6 12 -18 1 10 23 11 30 -22 28 15 -1
3 10 -23 -23 28 28 7 11 28 -8 20 21 -11 9 19 3 -8 33 28 11 -37 -2 10 -18 -44 -11 43 19 -35 -39 -11 37 -10 -17 24 -42 3 -21 4 -4 -31 -23 -9 4 -3 52 -38 -9 -26 30 5 -10 -14 11 -13 -9 39 -6 12 64 -4 20 13 12
11 -19 -2 6 29 -29 19 33 42 1 -1 12 10 -5 19 25 -6 -18 24 8 -29 -14 13 -39 18 -21 44 11 -2 -2 -6 51 -9 -8 5 -13 12 -44 13 7 -8 -13 10 21 35 12 -13 10 8 9 6 -7 -1 -13 -2 21 10 12 45 11 2 32 19 9
1 -6 -35 68 31 -15 -3 12 -5 -3 3 23 31 4 3 -1 5 -37 22 13 31 -29 -15 -15 17 -46 -13 -7 9 1 3 -15 29 5 -29 -8 -1 -27 17 11 -2 7 -6 3 -64 -44 -15 21 24 -6 1 1 7 -7 30 -7 -21 -8 3 27 12 37 0 -7
-36 8 -25 14 18 19 -18 -13 33 -5 16 -5 -18 -16 31 4 -7 8 -22 15 22 -7 33 32 17 30 20 3 7 -11 -1 8 6 -20 -5 -14 0 12 0 -23 3 -4 -4 -47 -14 -8 -7 3 -16 0 -7 15 -10 37 8 15 31 14 12 38 20 9 -13 -3
-26 7 -14 -15 16 -2 20 4 18 1 26 0 7 -10 5 33 29 3 -15 1 24 22 7 -23 12 23 24 -10 47 -12 10 21 -13 4 -19 6 9 43 11 6 1 -29 4 -33 -5 -23 21 -16 -6 31 -4 35 17 20 -9 13 -11 -1 37 -28 -10 7 -20 4
-43 36 -18 6 25 5 42 -14 -4 26 3 -3 24 -32 -49 17 -25 -21 -31 44 0 -6 45 -39 -59 3 26 23 33 -1 -15 63 14 -10 -21 3 -48 -27 -37 -5 74 19 20 -51 -46 -8 -21 5 21 51 8 -14 17 24 29 -9 -26 23 7 8 -18 -24 20 31
31 18 -8 -5 27 36 -8 19 17 15 14 27 -13 5 -28 3 -35 18 46 17 -5 -37 12 -12 -40 -49 29 -4 -14 -20 5 11 0 -70 -10 -41 -22 35 75 -10 -61 -6 -17 -13 20 30 26 28 -30 5 19 -2 -19 -25 -17 -30 44 16 3 32 27 16 2 -19
-40 0 29 2 21 36 20 12 15 23 -12 -8 -3 3 8 59 18 -6 2 20 -18 14 -21 6 5 -29 27 -14 -5 -24 -13 41 -3 -22 -68 15 3 22 -17 9 23 -3 35 -36 -4 -44 -21 -29 -50 54 -3 9 21 28 -3 -2 -22 -4 7 36 -29 23 0 -13
48 -10 62 -25 29 36 24 -55 -23 18 43 -25 -25 15 -8 -1 31 58 89 25 0 -42 7 -60 -32 -69 30 50 10 -10 -22 27 -1 -38 56 -37 -55 28 22 66 -63 38 -28 21 -4 6 -25 20 -34 4 22 -57 29 -27 20 -7 14 50 -12 14 11 37 34 32
19 -6 2 6 0 -16 -35 10 -63 -13 16 19 12 -13 -2 -37 -13 7 13 1 11 36 -2 -40 71 10 -18 26 7 24 -8 -28 11 26 58 2 -26 -13 23 -37 -24 -27 -28 -20 29 -21 64 28 17 -16 25 29 -5 23 -2 7 -27 -8 -34 -32 31 5 -7 -13
33 2 -26 -34 -24 27 -29 -7 10 -2 -22 2 -45 15 -36 -14 -34 -1 24 -3 35 -2 51 -5 -9 5 24 7 -4 19 -13 -21 3 -31 12 -31 6 39 18 -59 -19 19 -12 22 32 -16 46 48 22 -31 -3 -13 -37 -18 -20 -24 55 0 11 -3 27 -16 1 -43
14 32 -19 12 37 44 32 -27 18 -4 -11 -10 -4 -7 -32 -20 -28 21 0 27 3 -40 32 -42 -68 -34 43 42 0 -2 13 20 -48 32 32 -29 -27 -24 21 -26 -17 28 -3 4 45 0 17 -19 -18 11 5 -53 14 20 15 -13 19 17 9 4 -16 17 5 23
28 -13 57 -3 -20 10 -12 -3 2 13 33 -23 2 3 29 -7 37 -16 36 -13 -38 -5 -34 -8 25 -48 -4 17 4 9 -7 -46 8 3 20 -23 5 5 -41 41 -20 17 -18 -5 -5 -21 -40 16 -28 -19 8 -25 19 2 34 -14 -18 27 -28 8 -9 19 -20 4
-39 15 -62 50 1 26 2 13 -9 -1 -24 39 22 -4 -14 28 -41 -17 -67 12 37 27 21 33 24 57 -2 -53 -18 -4 -1 11 -9 24 -17 9 -16 -24 12 -26 30 -14 -2 -44 -15 -26 62 -15 9 26 16 17 -15 38 -8 -5 0 -20 15 -34 9 -17 17 -23
-2 -8 20 -47 15 -21 2 42 24 46 14 -23 -30 5 -27 -28 -4 -18 48 -2 -14 4 -34 22 -39 34 0 -7 -7 -1 -9 -9 7 -14 7 10 24 -18 -31 55 0 -2 -3 22 -19 46 -40 4 12 20 24 -20 11 -43 8 -12 12 6 30 -11 11 3 1 30
-2 24 -5 15 -20 84 13 -32 48 -4 -1 -37 -21 17 -15 44 -3 -10 -3 28 -11 9 20 4 -20 -36 36 26 4 -43 -2 5 -18 -39 -40 -7 -3 8 2 -41 4 15 -2 -37 16 -43 -6 16 -89 -28 -1 -6 -48 12 -4 -26 34 -17 -16 14 -34 8 2 1
-19 6 -25 -58 -19 -22 -7 10 12 19 -60 4 -43 9 -25 -28 -38 5 -18 10 39 -30 -10 29 -35 70 -16 9 -23 25 -11 5 1 13 12 8 23 -27 -22 -10 63 -4 24 50 -7 8 5 -10 112 -19 -3 22 -3 -8 -17 3 2 -5 5 -28 9 -30 18 -14
9 16 -6 9 37 38 1 22 -1 18 27 -16 -23 -21 30 25 5 16 21 0 13 -32 9 -5 -31 -26 38 -15 -29 -20 14 17 -6 -74 -51 -28 -13 16 50 5 -21 -9 22 -26 -28 9 -11 -26 -28 12 11 -4 -25 40 -21 -36 6 -2 15 49 -5 34 -17 -15
26 19 -48 6 -15 55 15 20 35 -29 3 -5 -11 6 -31 -9 -34 -25 -11 11 8 4 23 -14 -35 -16 32 22 11 -24 0 5 -20 19 3 -45 -15 24 10 -63 6 16 -3 2 25 -17 33 14 -9 -17 37 -44 -58 4 24 4 44 -36 16 5 -14 -20 13 5
41 -1 -5 -29 16 40 12 -13 -10 -27 7 -36 -16 19 -16 -11 -32 59 58 36 -22 -33 6 -10 -36 -63 52 31 2 -29 -22 18 -41 9 55 -78 -29 29 49 8 -32 49 -17 24 12 31 36 16 -1 -34 -14 -50 -31 -60 34 -25 61 41 16 26 1 13 19 33
54 -16 -9 9 -21 5 -23 25 -18 -37 20 10 -20 13 20 0 17 5 18 -9 -22 -14 -26 18 64 -33 -10 -10 -2 -11 28 -6 -5 11 -6 -51 13 16 50 -14 -38 -5 -26 14 -13 -20 27 -19 -28 -28 -2 20 -44 -24 20 8 15 -15 -18 14 22 2 -36 -24
-8 -12 10 20 11 12 -29 15 24 1 -13 48 25 -42 -30 8 -21 -1 -23 7 26 3 1 7 21 9 4 3 19 8 22 9 15 9 -2 -10 4 2 14 9 -8 -19 19 12 -17 -11 25 7 -5 13 8 10 41 17 -4 -17 -25 -17 -17 -26 34 1 -12 22
72 29 26 -41 -24 8 -8 -26 -10 -39 0 -72 -48 11 14 -27 42 0 57 13 -12 -36 4 -17 29 -1 -13 38 -43 11 -30 -37 25 -13 33 18 7 22 15 -7 -35 30 -16 32 16 -11 -32 31 4 -103 -6 -25 -35 2 -5 -24 -9 -2 -26 -22 -35 4 31 -35
12 -8 -51 -21 28 26 5 -28 0 -12 10 5 -23 22 1 5 -1 6 -12 16 -19 11 14 27 -13 -10 -17 19 -1 -14 9 -23 10 -1 -31 8 1 -5 20 -9 -10 18 23 -37 7 27 1 18 21 28 -18 -29 -30 -15 15 -34 -14 8 12 1 -16 33 5 -16
6 -5 -10 -29 1 5 -3 1 28 9 12 21 -5 -35 -10 -9 -9 0 14 10 24 17 4 26 31 13 22 -30 -6 -18 -3 4 -21 -3 17 15 -2 -2 10 -8 2 4 18 -8 26 -5 -16 16 6 -21 -19 -5 -8 -4 -7 1 -10 -39 -22 -20 -22 -8 -2 -18
-13 -18 2 17 15 5 19 13 38 -3 -23 36 11 -18 12 1 -16 -15 -36 17 -1 29 28 8 5 -1 -9 0 9 -10 46 6 5 23 3 1 3 4 7 14 6 -12 -27 2 19 -7 3 13 -5 38 -3 -2 37 -4 22 11 3 -7 28 -9 8 14 3 4
0 -15 4 14 -29 -12 -8 -14 26 30 19 12 5 -25 -3 14 6 -6 -34 29 -6 35 -12 19 22 1 13 -3 14 -7 -19 -6 -5 -12 -4 7 0 12 5 -11 23 2 -7 13 7 -7 -20 -9 -42 17 8 -9 -6 5 38 9 -11 -23 8 17 9 -25 3 22
12 5 -18 13 15 16 32 22 8 -9 -38 -18 -15 3 16 -12 -10 8 -24 -21 -24 -16 26 -8 4 -4 -35 1 -19 -8 -5 -14 14 15 -10 -8 -5 5 7 -17 -47 22 -2 5 -2 31 11 -6 9 35 -6 -15 -14 -10 14 8 -26 -4 22 10 6 19 -14 -22
2 1 5 1 15 21 16 12 30 1 7 -8 0 33 -20 26 -16 -4 12 -2 -4 -2 5 -16 -18 13 -7 14 47 -4 12 0 -8 17 -3 -20 4 -4 -27 8 -1 7 -12 -43 -6 0 -27 26 25 -10 12 -20 13 11 -2 -22 16 -13 12 -14 -9 18 21 27
-8 9 -1 9 10 6 -36 6 5 16 4 8 8 1 -36 -7 -15 12 21 5 17 -8 -10 44 -15 10 25 15 15 -19 21 21 -10 16 38 -31 8 22 53 -8 -14 -15 -21 0 10 16 32 0 32 -7 6 12 13 -15 6 -11 21 -8 -1 9 29 -5 -17 -32
12 40 14 -13 -32 0 -27 -24 -12 -33 -15 -23 -3 30 -31 -40 13 -5 38 -19 16 -36 0 -7 4 4 -26 11 27 18 -36 -11 11 -32 12 20 7 29 1 0 -15 14 -3 20 14 -20 11 12 32 -46 18 21 -8 13 1 -7 -7 -7 -52 -31 -8 -31 34 -21
-19 -17 -10 28 48 -12 -3 49 23 -14 -43 6 -2 9 -29 -22 -27 -8 -50 0 15 10 18 -1 -6 -24 -29 7 22 16 38 26 11 25 27 -12 -14 -29 -6 21 -11 0 -20 -27 -25 -15 20 -5 32 -4 1 3 39 -7 -8 -6 -28 25 25 -18 4 11 11 -23
20 -3 -2 -3 19 -3 -15 -13 -18 34 -28 24 -9 4 -12 -18 0 15 32 -1 0 -26 1 14 -2 21 9 1 -17 11 -22 -14 -15 40 34 7 0 -31 35 -3 -16 -15 13 13 -12 -25 29 -27 -2 -48 18 -17 -11 8 -5 -6 21 5 7 -9 -20 -13 3 -18
53 18 -9 -19 7 22 -4 -8 23 -31 -25 -40 -22 -14 -19 -21 -24 -12 -10 -8 15 -4 23 -21 11 3 -22 5 -22 -8 28 -30 -1 13 36 -21 1 12 16 -10 -40 19 1 25 33 0 -45 18 51 -16 -20 -7 -16 39 -9 -22 10 -13 27 11 16 15 -14 -34
41 23 3 -29 -35 24 -2 -44 -10 -33 -5 -40 -25 -3 23 9 38 -10 31 3 -19 -11 -10 -27 10 -23 -30 2 -25 -13 -18 -49 16 3 -29 30 5 9 -29 -2 -42 -13 24 16 32 23 -77 51 0 -18 -19 15 -10 6 13 -13 1 4 -19 -28 -15 -12 8 -22
14 8 1 -3 -23 -8 1 -37 -3 -15 -33 -14 35 15 18 -8 18 -26 14 1 27 -17 -3 5 -7 -17 13 9 -25 14 1 -6 16 5 17 40 -1 -11 -3 -33 -36 16 -13 -5 -15 -26 1 35 -7 -33 -21 2 28 -18 -19 -6 -43 17 -28 -14 10 -16 19 -5
10 11 12 9 -30 29 -10 -17 -7 -31 13 -16 4 3 -20 -5 -12 3 54 -9 11 0 -10 4 -19 11 8 12 -16 -5 -18 11 -4 18 19 -27 -4 13 3 17 -8 9 0 6 2 -21 -23 13 21 -53 -18 -12 -21 13 -23 -27 14 -8 -21 5 11 -25 -2 11
38 32 58 -5 -25 22 26 0 -17 18 33 -23 17 34 -41 -9 14 15 49 19 -58 -37 31 -28 9 -1 -1 67 46 -7 -69 2 60 16 52 0 -33 8 -19 40 6 10 -22 -7 -12 49 -20 14 -32 -39 21 -14 -22 -45 9 -37 8 12 -37 -21 -50 -42 47 44
-68 -40 -25 16 2 -68 -18 10 6 11 -50 18 7 -39 31 23 29 -49 -61 4 43 32 -38 32 36 36 -12 -54 -27 12 14 16 -47 18 -60 13 71 -61 -22 -43 43 -39 56 15 -11 -32 -22 -62 8 39 -9 9 -34 -22 -42 22 -54 -35 13 -10 47 -17 -52 -42
53 38 29 6 6 57 9 10 13 -12 32 -33 -34 28 8 10 7 19 61 17 -25 -20 29 -56 -2 -75 26 39 27 -34 -43 3 52 -24 25 -8 -60 19 35 25 -46 26 -43 -36 32 -32 65 58 -51 -9 12 -32 31 -9 -4 -24 -6 33 -17 22 -12 51 47 -6
-54 -36 -46 -16 -28 -50 -29 21 32 18 -36 77 27 -40 -6 -23 -60 -61 -63 -39 68 9 -59 71 26 127 -41 -60 -69 45 84 -35 -54 34 -1 6 60 -22 -20 -42 -29 -69 15 32 -48 33 -18 -66 27 31 -10 49 -33 51 17 40 7 -68 17 11 48 -15 -59 -88
44 15 11 -8 -5 17 9 -41 8 -13 35 -17 -19 18 22 42 52 37 59 -23 17 -35 20 16 -5 -16 17 -4 -48 -8 -55 -26 -3 -51 -9 31 13 -43 10 -11 -35 23 19 16 34 0 -21 -20 -48 -38 -12 -31 -62 11 -8 -27 24 7 -30 5 -25 6 -13 2
43 46 37 -15 -5 21 -10 -20 -41 -24 4 13 11 17 -33 -6 11 39 52 27 -53 -2 30 -31 2 15 -36 38 76 -17 -68 38 42 7 16 30 -48 -4 -19 28 -28 16 -29 -24 -4 -10 43 3 -18 -54 10 -3 11 1 16 -19 -13 28 -26 -8 -43 -23 52 39
22 20 -8 20 -8 19 29 20 -10 -4 -11 16 0 10 -48 22 -33 16 -18 39 -6 -31 41 -43 -13 15 18 -1 -27 -26 -34 40 3 -26 -12 29 -8 -7 17 -32 -29 32 11 -32 17 1 23 -7 18 0 -13 27 -46 -30 20 -34 44 -7 14 -9 -20 2 33 2
59 54 8 -36 38 68 32 -71 -11 -38 8 -86 -46 47 -24 19 21 62 64 22 -35 52 38 -28 -19 -75 10 52 49 -4 -31 -7 41 -30 -9 64 -73 13 -14 36 -1 37 -19 -21 22 15 26 65 -40 -7 34 -61 -9 -3 2 -53 7 29 -5 -36 -40 35 35 32
-3 7 -33 -16 -5 -11 -30 -15 -2 43 -18 -4 -6 11 -38 -61 -48 18 -10 -23 33 -4 13 36 -35 18 -31 31 -1 28 28 -16 -17 16 33 -26 11 38 -25 1 10 -22 -30 19 2 61 -10 18 61 15 4 -10 40 -22 -4 11 -5 1 21 -15 -10 12 5 13
-69 -37 -17 32 -24 -70 -14 13 47 -5 -10 35 56 -63 34 -5 7 -70 -24 -13 36 8 -45 35 30 90 -48 -16 10 31 59 -33 -30 37 6 8 77 -1 -53 -28 60 -38 27 60 -41 -16 -62 -48 61 -17 -48 19 14 -2 -23 29 -35 -39 -20 -13 63 -15 -62 -35
3 30 18 13 27 30 39 -29 10 -52 -6 -30 -26 20 17 87 39 25 32 38 -30 24 33 -66 18 -52 31 -32 8 -48 -25 60 21 -14 -12 35 -40 -32 38 25 -30 45 -18 -17 24 -53 51 26 -73 11 16 -34 -7 8 10 -25 -4 30 -21 7 -21 24 3 8
-45 -39 -31 -17 -27 -44 -54 8 9 42 -30 29 60 -30 -17 -63 -30 -35 -9 -66 23 22 -46 69 3 83 -51 -26 -12 56 36 -72 -17 24 14 24 53 -24 -26 -42 43 -41 28 29 -34 52 -57 -35 22 -3 -29 62 30 19 -39 19 2 -54 -21 -11 51 -35 -28 -49
36 3 -20 38 -3 53 26 -11 51 19 19 1 -23 7 6 33 -27 26 25 7 -11 -89 9 38 -26 -26 69 22 -78 -16 2 18 -12 -109 -22 -62 -7 29 57 31 -26 24 24 -37 -20 -2 -2 4 -1 16 -36 -20 -33 -10 41 -10 33 2 6 72 -11 41 -6 -22
-45 -12 -30 -21 29 -2 -6 -34 -2 43 -20 0 -1 -17 -44 -39 -32 -40 -67 -28 31 46 -3 32 -6 46 -19 5 -25 11 39 -7 -41 25 -14 9 -2 12 -34 -7 49 -16 -2 13 -10 18 4 -8 65 17 5 11 11 14 10 1 13 -33 40 -21 -2 4 -15 -31
-56 -57 -40 31 -25 -71 4 -9 31 5 -66 36 41 -50 72 13 78 -45 -62 -19 15 4 -57 21 8 44 -32 -47 -37 33 62 -17 -18 14 -79 -1 78 -19 -29 -24 28 -48 68 5 -61 -4 -45 -61 39 27 -74 42 -5 11 -33 21 -43 -9 6 22 56 -16 -59 -27
21 27 -54 21 11 -2 -23 6 8 15 -25 -1 -1 5 -13 -22 -31 14 -39 -1 -8 7 -12 -10 -21 -8 -42 -12 -28 -21 1 -10 13 -21 -12 -10 2 52 -39 18 -38 -13 23 -30 -36 2 -21 13 49 31 -24 1 12 46 22 8 8 7 28 15 10 31 15 10