-0.033277228474617004 -0.020641550421714783 -0.05553622171282768 0.08570466935634613 0.07065476477146149 0.10922899097204208 -0.006925859022885561 0.1285557895898819 0.16566181182861328 0.061499062925577164 0.05770129710435867 0.012066798284649849 -0.05961951985955238 0.07966948300600052 -0.16185128688812256 0.05159005522727966 -0.19766637682914734 0.06720563024282455 0.061024364084005356 0.07237506657838821 -0.03122243657708168 0.0041235582903027534 0.0007352040847763419 0.05638981610536575 -0.04616853967308998 0.019062329083681107 0.07366814464330673 -0.010966122150421143 7.764105248497799e-05 -0.11331285536289215 0.083475261926651 0.03951946645975113 -0.1353500485420227 0.10062860697507858 0.062156639993190765 0.027946555987000465 0.020760219544172287 -0.10664006322622299 0.13539764285087585 -0.008991995826363564 0.0672883465886116 -0.1398714929819107 -0.1405424028635025 -0.15594728291034698 0.07405810803174973 0.10778959095478058 0.030123097822070122 0.03685496374964714 0.02856932394206524 0.04610559716820717 0.00910465233027935 -0.05518967658281326 -0.039735812693834305 -0.08737379312515259 -0.006855921819806099 0.1337180733680725 0.03344690427184105 0.06413733959197998 0.04715137928724289 0.023259088397026062 -0.02741619572043419 0.031942956149578094 -0.008077534846961498 0.004799242597073317