25 -10 -32 30 29 -6 -37 33 -49 -15 1 1 -41 25 12 0 -26 11 -10 -12 39 -39 -21 46 -5 -10 -40 -3 -17 -1 27 -20 -5 39 28 11 -9 -32 22 22 -5 -2 -7 6 -20 -26 13 -20 48 -18 11 -52 8 -2 43 -25 2 -8 24 -15 2 10 -27 25
23 16 -70 -2 -37 1 7 10 1 -11 -26 -55 -30 40 -58 37 17 -3 -19 -47 12 27 37 -11 27 32 0 -70 10 -85 -20 42 -15 13 -39 -52 1 25 -18 -56 12 -22 11 41 -28 -38 5 -28 -4 -8 -11 -86 -36 8 78 20 16 46 6 1 31 -33 10 -45
-55 -43 -2 12 14 21 9 -13 11 14 8 41 29 35 -25 9 -10 0 -64 -41 -25 27 -28 40 -69 41 -69 -64 32 13 18 19 -34 57 -40 -4 32 -39 -8 -23 50 -16 -16 -10 69 -45 -5 -29 12 56 36 -4 26 18 -4 -31 -41 32 37 -7 -51 3 -16 39
-8 -12 34 -4 -38 25 -21 -53 52 32 -6 -17 16 -33 -30 1 41 -25 6 1 -18 47 5 -13 25 -22 45 5 -19 10 -11 -30 26 -19 -20 53 -30 26 -56 -5 -18 26 -35 33 8 -18 -40 8 -16 -4 25 -24 23 9 14 41 14 1 10 -36 -57 12 -7 1
-37 15 -30 29 33 10 52 22 -11 5 50 47 7 27 -10 5 -11 -48 -5 -41 10 20 27 -16 -63 -58 4 4 27 22 26 38 -10 -8 -7 -33 -10 -17 -4 9 -13 -34 1 29 38 12 -2 -3 1 18 25 6 21 31 -2 -32 9 30 4 37 -59 -33 35 10
-11 -12 -16 50 16 -4 -21 -3 11 22 -18 -56 42 -11 -51 -16 -21 -15 -50 -19 48 -25 30 40 -5 10 -42 -46 -20 42 3 35 22 52 19 66 12 -20 -23 35 -14 37 31 15 -1 -28 -42 0 39 -5 30 -27 17 -8 -11 9 -10 5 5 38 -3 -68 -28 13
-55 74 -22 25 35 41 -14 19 29 -9 46 43 -16 -28 36 7 -34 -28 -22 8 18 -11 -44 -35 12 -15 37 -15 -20 -34 14 -9 9 -27 49 -18 -14 15 20 2 -13 30 -5 -15 86 -2 -31 4 -44 -6 27 65 31 50 -9 13 -7 -49 -9 15 -41 -16 20 41
30 9 27 -3 -36 2 23 3 -19 32 21 -43 -26 10 -26 13 45 12 -13 14 -43 15 -37 -22 15 4 43 -4 30 -19 -17 44 -4 -52 -28 35 -47 20 -34 51 22 18 28 -28 -31 -9 -13 -10 -7 18 14 33 32 -4 -13 -27 -22 -7 -9 23 -56 -41 24 45
22 -24 -2 23 58 -14 32 13 -28 -36 -9 -30 19 26 -29 -9 34 36 -50 5 15 -20 -13 13 -6 -1 18 26 -19 11 11 9 23 11 21 -5 -12 9 -18 -9 9 14 -15 -16 6 33 4 15 13 50 -23 22 -20 -30 -93 14 -22 56 25 31 -13 5 -3 -22
46 -63 20 11 17 -12 -39 0 -43 32 -46 22 -16 -39 63 9 -8 -42 -48 33 -34 -21 7 11 31 -13 -36 -16 44 52 25 4 11 23 31 16 -21 -54 -1 2 -7 25 -14 15 -39 -67 24 8 29 -31 1 -41 58 -45 0 30 -16 -14 -39 -11 4 10 48 -7
-2 5 53 21 8 -21 35 9 -9 32 -31 -2 9 -1 3 -41 -37 -51 16 2 37 6 7 23 37 -18 13 7 -4 8 -28 -27 38 36 -14 -4 -15 -20 4 16 22 31 -37 -8 50 -11 -27 -45 -33 -17 1 -8 29 -39 -12 -41 -50 -24 57 -77 -9 -38 2 51
-36 -32 -5 28 -23 26 -59 12 -56 -33 35 49 6 10 -1 3 31 -1 29 8 -14 19 18 14 30 21 0 24 17 57 -1 -46 -36 45 34 -2 7 -19 14 -8 23 -41 -39 12 1 -24 43 10 -1 -20 67 -38 -41 -39 9 29 11 -12 7 4 50 -27 -49 -41
-6 24 1 -55 10 -9 -23 -33 6 12 -7 -16 30 -38 8 4 -9 -9 32 -43 12 39 -15 -3 0 15 41 48 21 19 25 -2 -15 3 -45 25 -8 -63 -32 25 4 33 -36 -28 -23 -52 28 -63 -52 26 8 42 -22 -8 -5 15 7 46 -52 -59 -72 0 20 -10
21 -23 -40 -17 25 19 1 31 -19 8 5 32 -34 -30 31 15 -12 14 36 -15 -11 -18 10 -31 74 -3 27 -6 -56 9 -38 14 -17 -67 6 -42 -6 49 -33 26 -100 -54 -22 18 -3 70 28 18 -18 -28 4 45 6 -21 -18 41 22 -30 -25 -25 52 54 31 4
12 17 -19 74 25 25 -15 37 -19 17 0 37 -20 25 7 -30 30 44 -2 -2 -38 -10 -1 39 3 -19 17 27 0 30 -3 9 -49 63 17 -26 42 31 -7 31 -20 -8 47 23 3 -56 52 -1 35 4 19 26 15 -18 -5 -33 49 -23 36 41 -12 -16 19 -1
5 18 32 -57 -32 38 -12 -10 41 -10 19 -17 -23 46 -33 26 -34 30 50 1 -17 -28 24 -34 22 30 49 45 -4 -22 -2 26 -6 -56 -6 -11 27 -34 0 -18 -15 -44 -33 -28 -20 -5 -50 15 -47 16 -3 -5 -41 26 40 3 -34 -29 -46 -46 -20 -16 14 48
2 21 -7 4 -11 -16 6 16 37 -37 -4 -15 -4 4 -37 56 -15 -16 -31 34 6 26 35 -1 -17 -29 14 -5 33 -37 26 -18 16 56 -30 63 -28 -82 -56 -24 -7 -24 -24 -13 19 4 -44 -8 6 30 -3 -9 -2 0 -32 27 -12 -1 39 -20 27 4 3 -7
-33 -20 20 6 -15 -52 30 -1 42 -18 -29 6 -5 19 -27 48 -32 39 8 1 6 20 11 19 -7 56 0 -16 24 -19 20 -39 -1 25 -23 25 20 -20 -9 -14 17 11 -36 -16 14 5 -23 -3 61 -24 28 20 44 -36 -13 23 -66 1 -19 -18 -4 -43 29 -12
2 -17 -34 -4 -38 23 -4 -12 42 -5 -18 -3 86 21 -24 6 -4 -33 14 -20 18 -23 -33 -57 -68 -2 21 18 -27 18 -31 -28 -15 41 3 35 9 -53 -3 -34 -20 -37 17 30 13 -70 28 46 5 33 -27 30 9 -8 21 8 18 5 39 34 -36 8 35 -18
42 11 4 5 -36 -22 21 -24 16 3 38 34 -34 7 -43 -17 -2 1 16 -22 12 13 -72 6 36 61 0 52 -16 -42 13 23 18 10 -9 28 -8 -3 16 -27 15 0 37 -28 -10 19 -20 17 -46 34 -12 24 -8 -39 34 12 7 8 13 19 1 23 -40 -20
-52 46 -35 39 20 20 -10 13 -36 4 31 34 19 23 -14 43 -20 -1 -15 -6 -5 -39 -2 11 -71 -7 -21 43 16 2 22 -23 13 -25 53 20 -1 -8 -8 4 -42 45 20 -15 27 6 30 19 -18 -28 8 29 -13 6 -47 -42 7 -3 54 43 -19 -26 41 3
50 3 13 -54 23 57 7 -1 -19 15 -18 -22 2 -2 24 -62 -16 13 -6 -47 -5 48 -24 32 14 4 35 -43 -27 -19 -17 1 -4 -15 -3 -18 4 33 28 -41 -7 -28 2 -8 -25 -67 7 -33 55 -38 41 -50 -13 -36 17 17 -6 10 -22 -53 61 -58 -34 -10
-12 31 22 29 -34 -34 -6 -1 18 -45 -3 -33 -16 6 22 9 -24 10 -10 -26 -16 -24 -25 18 35 40 -31 -29 -7 2 2 -12 -23 10 -35 -42 -22 -16 -16 16 -35 -31 -31 2 -1 13 -21 23 10 24 2 2 22 -14 -19 15 -45 9 16 18 33 -40 43 33
-9 -7 -16 -20 2 -52 44 12 -19 -7 -31 42 39 -16 34 -12 17 -34 10 -5 15 -32 5 13 -85 32 4 -13 30 -24 -19 -31 37 30 -42 80 -24 -29 -30 -16 8 27 -16 37 -28 3 9 3 4 19 12 -33 10 11 -13 -3 -22 -15 -11 -15 -16 -15 12 1
3 -14 11 7 -14 -42 -22 59 -55 24 -3 -13 -1 -16 30 -30 27 28 -8 10 -24 -10 52 -31 16 8 -27 10 31 39 -17 -22 2 19 -11 -22 8 47 -26 26 -19 41 -7 -22 -11 -41 12 -53 73 -38 40 -6 10 15 -20 -45 22 -23 9 -4 -20 -30 -24 26
10 23 29 6 -3 -34 -31 -24 18 -17 -52 -33 -20 9 4 -11 14 -19 -17 -14 31 -3 14 21 13 -20 -37 -12 -13 8 5 10 41 13 -2 -31 -31 -1 28 6 58 5 0 -24 0 19 50 9 34 9 -24 -8 41 -12 11 47 -42 -14 -21 13 -7 49 17 -12
3 12 -18 -33 4 12 -3 7 -56 26 10 41 10 -24 24 -31 -21 9 26 26 37 24 6 11 49 4 -41 -1 15 -21 -15 9 -12 -19 0 24 2 -6 0 -24 -31 11 -41 34 37 -37 -4 -27 17 -4 22 -3 -8 1 -29 27 -35 0 -27 -5 -26 13 -5 49
26 16 -20 -38 65 -23 33 17 -37 -24 13 15 8 -13 11 69 -19 13 -13 -3 -15 30 -5 -9 8 30 62 31 -12 28 -12 38 13 -1 -32 17 6 -22 -42 14 14 36 13 -17 -44 -19 -39 38 -41 4 -5 -35 14 14 -30 8 2 32 36 31 8 -13 0 -24
-72 25 -4 2 11 14 -5 -10 -13 -18 -35 -4 11 -16 -12 -40 -12 -48 -31 -30 48 42 20 10 -15 7 29 5 16 11 22 26 0 45 -7 1 -23 -17 1 -36 24 11 6 1 36 -60 33 -7 43 20 26 3 39 -3 -21 -15 -13 11 44 -45 19 -63 -3 4
-13 -30 32 23 25 9 -35 50 -7 27 -49 -15 -10 -23 17 -56 16 -10 -16 30 -35 -42 -2 -10 33 14 27 -16 11 -44 6 10 18 -33 21 4 32 36 -35 35 -8 -39 0 -13 -45 15 -30 -15 58 37 48 -1 12 -12 9 0 -35 38 -45 -55 11 0 -16 23
10 -14 0 -7 24 26 15 -2 -18 -14 -17 53 10 -13 12 -16 -48 -6 -14 15 13 -65 -16 -53 -74 16 -44 -2 6 21 22 -21 -19 18 -41 44 -15 1 -31 -4 3 11 27 -54 -23 27 -38 -12 28 -27 10 -2 -15 -6 16 -31 -46 26 22 11 34 -24 32 21
-15 -51 32 57 10 11 -27 -29 12 62 3 43 -41 -39 3 -23 -19 40 25 -22 -55 -37 -8 38 -29 -5 -12 24 -10 12 -10 39 -12 -50 17 -47 -12 17 36 -32 -34 -16 14 -4 -28 49 0 -36 6 49 -18 41 14 30 13 30 3 40 -12 -29 -14 -33 -10 -2
4 -14 2 8 61 30 34 66 31 76 113 53 -110 -41 -21 -55 -23 -37 38 34 2 -12 12 7 -46 -26 17 51 -68 22 20 -1 -1 -41 28 63 -65 -36 2 -48 -54 26 -13 -46 36 -41 -20 -62 105 44 75 74 -81 59 -53 7 13 -20 51 41 -8 -13 -7 -33
26 -8 -32 10 39 -12 11 -23 19 -38 0 9 32 14 29 -45 -21 18 -18 22 6 0 -8 45 21 -1 21 -14 54 27 20 1 -59 7 -21 16 -28 -8 96 -11 45 23 18 -16 -60 67 9 10 -7 5 -6 -34 -14 -43 56 48 -25 27 30 17 56 -19 -47 -29
-42 -35 -21 2 51 19 -3 64 -34 66 37 34 -20 12 -33 44 -5 -21 16 3 -13 -3 14 -28 -54 57 -16 28 -20 -8 11 -4 71 21 80 -22 6 -105 1 -4 -33 62 -27 35 -10 -74 -18 -28 17 -19 38 54 39 26 6 -45 10 25 11 7 5 -35 36 -24
-71 25 -16 -2 -47 22 53 -3 -17 -17 -43 -47 2 49 43 23 22 16 44 -23 7 3 -13 13 57 41 13 -62 7 -20 -4 13 5 21 7 35 -6 -10 -61 -8 68 9 12 -13 24 -21 -25 36 -59 -11 11 -63 61 9 6 63 -6 49 11 -51 -1 -21 -11 33
11 18 16 -17 -12 20 4 30 14 -10 -19 43 23 -18 0 33 47 12 -19 8 -47 -19 -6 -11 21 -5 -16 -11 30 9 14 27 -44 -28 -22 -44 32 29 47 -48 25 -26 -24 5 34 -27 -37 -38 -42 31 -11 -46 11 31 52 0 24 11 23 -2 -1 -6 5 5
-44 62 -38 -46 -8 -15 -27 -36 31 11 -58 41 44 32 46 -10 37 -5 11 32 -8 28 28 21 20 13 14 -28 61 -12 17 -18 0 48 13 -35 13 -19 58 -26 49 -20 4 -31 17 -19 -40 2 -33 -29 -59 -22 15 7 9 12 -13 -6 -52 -48 -72 -17 -27 37
25 -3 -43 -71 14 16 -51 -1 -32 -39 -50 5 14 43 -7 -48 -12 -14 -15 -26 6 -35 -8 26 35 26 -55 1 6 23 -7 -61 -47 -14 39 32 43 -9 -19 -78 10 -29 -13 11 0 -35 14 28 3 -50 -19 -26 10 -9 44 5 31 -17 12 -25 -35 22 -33 -31
-31 -46 5 36 3 27 39 59 -51 11 48 -5 -84 -59 -2 -37 -28 -36 -7 -33 47 -25 -49 12 -97 -23 12 43 -43 3 7 3 -4 12 68 11 -37 2 -26 -41 -52 37 -4 8 34 -12 71 -33 77 -36 33 40 -61 -16 -14 -4 27 -9 -33 80 55 3 47 16
-9 18 11 47 10 7 31 -7 23 -29 17 -13 41 -25 33 -7 27 58 -4 -48 -20 5 42 13 11 -14 -12 2 -9 -17 -36 6 9 -47 23 6 1 -43 -25 42 -6 -14 46 -3 30 -4 -61 -37 -28 10 -2 23 -76 25 -42 -8 2 -54 -4 18 -33 -32 3 -31
-10 3 -10 -21 30 15 20 -4 -24 85 37 21 -27 -35 -69 22 -3 -52 -5 12 19 50 0 -37 -45 11 24 -14 -3 15 5 38 36 26 -3 15 -39 -18 -56 -44 -7 22 -14 -5 48 -61 -14 30 -5 -33 46 0 -39 6 -17 -1 -25 7 -47 8 -28 -13 -3 -29
10 -39 -32 -6 -34 7 -43 14 9 6 -61 -10 -19 9 43 -18 1 -3 26 -36 -10 55 25 -18 50 30 -24 -24 -9 23 -4 -20 -55 45 50 18 -4 -4 49 37 21 0 -21 -7 -28 -37 2 36 30 -59 -11 -72 -29 -53 26 -23 -9 -15 -2 -18 -10 -9 29 14
-9 8 -7 15 -37 -30 -16 5 -17 -33 -21 21 64 -39 25 -3 -27 43 15 -5 37 -28 38 7 -46 37 -38 10 47 -6 -8 -18 -23 27 6 40 3 -1 2 -34 25 -3 -4 2 10 -20 19 -25 -9 6 27 -4 20 24 -23 -11 33 -13 -32 -23 32 -6 -29 -36
36 34 3 -45 -41 48 -54 -41 68 -15 -25 21 37 68 8 -12 -19 35 -9 44 -26 -5 -47 23 84 11 -58 36 -9 -2 4 10 -5 16 1 -42 35 42 9 -19 -9 -58 -22 7 -6 18 20 29 -15 27 -64 -19 10 -43 23 25 40 1 -9 -25 5 -9 -31 -14
-1 43 14 4 14 -35 -23 -5 -14 29 -45 -14 -3 37 33 0 11 44 -43 -36 -1 -22 -32 8 -5 10 -65 -41 -25 25 15 -67 -17 79 40 63 -25 23 20 2 35 -6 34 -23 26 -22 2 29 56 -6 19 16 -30 15 -13 -8 -19 3 24 -40 29 14 -39 -56
8 31 -27 -37 14 -11 29 -71 -20 -2 -37 -39 39 48 -23 49 -49 32 -3 27 -3 21 -35 19 81 -8 42 -48 -18 -49 3 -39 27 18 -86 -12 31 -18 -30 10 51 -12 -8 13 8 9 -11 22 -7 -1 43 -28 33 -68 32 59 -11 45 1 -34 -6 11 -26 38
44 -16 19 -12 -10 -19 -8 -33 -16 2 -35 -12 50 -6 54 -66 -37 -13 18 -15 17 13 -6 -18 66 -23 -12 -10 23 57 11 -1 -28 10 -57 -7 58 34 58 -7 -34 -25 10 -14 -37 -17 9 25 16 22 -31 -21 38 -24 12 -28 -24 2 40 5 -10 34 -60 -17
-48 -25 28 -23 39 -15 6 22 19 24 27 25 9 -7 17 -29 -53 -14 -23 -1 -12 71 -31 -13 -6 -31 35 16 -40 -43 -8 24 -11 40 10 22 22 1 -86 -42 2 39 15 -15 30 1 -78 -19 -32 -15 9 -21 88 -20 -23 -1 -36 55 18 15 12 -25 -26 22
14 -44 9 -20 -16 15 9 10 -38 32 0 14 -35 16 -11 -12 14 -1 -25 11 8 20 -11 48 6 -35 -10 -40 -20 34 -36 -15 7 -9 -52 15 9 -55 17 14 -19 -28 -26 -4 0 39 -5 -16 -60 3 -13 -28 -24 30 -13 -39 1 33 17 -72 -31 -37 7 -31
-78 -37 47 7 -15 -11 30 -53 -24 -31 -54 95 64 7 -37 -10 13 11 7 -17 15 56 22 -49 23 45 -14 27 67 24 63 -15 10 22 1 22 5 -17 -7 -79 22 13 24 13 -52 -74 -18 7 5 -2 29 14 0 -16 -5 -12 49 65 19 -12 11 -38 28 -14
79 -18 -46 -24 -56 -2 -38 24 -1 26 -2 -64 -50 21 0 -17 43 46 -8 -21 33 6 -11 -18 28 8 36 -37 -16 36 -35 31 33 -60 29 0 8 47 60 -10 -51 -12 -21 -23 17 21 21 -1 -9 6 -15 5 -44 63 -16 -7 32 -9 43 78 24 -27 -13 -29
-18 -34 24 50 22 -32 -8 -6 21 7 -22 56 -10 -30 14 21 23 -12 -36 -9 -14 26 -21 20 -33 -29 -52 -10 14 -6 5 14 -22 40 24 49 12 -7 -26 48 4 -22 -33 2 13 -5 -23 1 17 0 38 -7 43 -40 -47 41 -38 5 -20 -7 -8 -6 29 -28
36 -14 -42 -8 -26 10 -33 19 -27 -3 21 -19 47 -41 14 4 -22 -3 41 32 6 5 9 34 -1 8 32 41 0 -6 -1 -3 -39 41 12 10 25 9 4 -34 -28 5 -4 -46 9 47 -13 6 -8 33 -6 -15 -41 -8 7 9 50 -15 -23 25 -19 22 6 2
-38 27 4 13 26 -26 22 -17 -2 -15 48 -6 35 36 -33 17 -24 7 -14 -11 4 -26 -7 33 -14 25 -1 7 -9 8 14 -14 -7 -15 -27 -50 -12 6 -6 9 36 -7 12 -14 18 7 4 2 -31 -28 -40 22 -6 14 -39 -3 -27 -5 5 -6 -22 10 -18 7
-112 26 40 4 13 -42 -49 28 45 -1 5 -9 -25 6 0 19 -25 -22 -3 30 40 59 -18 -4 -24 39 -52 -4 4 33 -6 7 -36 60 15 30 2 -9 -63 0 30 -1 -22 44 -45 0 10 -1 35 -30 0 -14 13 -16 -29 39 -26 20 -30 -19 -9 -22 -19 3
-1 -39 37 -29 40 16 34 -24 0 -9 33 -27 -10 -7 12 -4 24 -2 -2 -20 24 11 -7 14 34 -21 -8 46 -7 10 31 -23 -16 34 42 -37 15 23 -9 -31 48 -33 24 29 14 25 -39 -3 -10 -27 -27 10 -37 51 48 -12 4 18 -2 5 -26 -37 27 21
41 -25 12 27 -51 1 -14 42 -40 -45 4 -47 39 -22 -6 -49 -45 28 -10 4 2 -45 5 -40 -5 34 -51 28 -14 -15 -7 -12 -3 19 -28 52 -33 4 -6 -24 24 23 18 -21 47 -7 47 50 55 -43 -29 5 11 -22 12 -19 20 -1 8 11 24 -23 -12 7
13 -22 26 43 -15 -29 -37 29 -24 -36 -2 3 66 4 16 -33 -48 22 -13 30 -26 -59 7 11 -3 26 16 -59 22 -46 31 -25 71 -24 -31 -25 -1 12 31 74 -41 57 -17 32 -1 -11 3 -2 -30 -20 24 78 -42 -2 -22 -13 -15 -21 7 39 -18 -44 20 -29
-2 26 33 11 -30 -7 -16 52 -11 7 -29 -5 -25 -61 25 21 27 -8 52 13 -13 -23 5 17 26 -3 28 11 47 -43 20 28 14 -3 19 -5 13 -39 -20 5 -36 -3 4 14 -32 -11 16 -50 -68 32 45 -4 -60 40 0 -11 22 -37 -38 18 1 -48 11 -20
2 23 -3 49 -6 -24 -2 -38 -6 -16 8 31 38 -41 5 44 14 -1 28 -21 3 -14 -13 -3 1 3 26 5 22 -34 -30 32 19 -22 15 -4 10 -9 26 34 55 15 2 -18 -40 24 20 -4 2 28 18 -3 -14 5 48 -23 -28 -4 -50 36 -24 -36 0 4
-37 15 12 -17 -41 61 -3 -2 8 -18 18 18 -42 3 1 6 -19 -15 31 -33 -43 -15 -38 8 -23 -71 32 48 -92 17 -29 28 -50 39 -25 39 32 27 30 -5 28 -57 -20 -47 36 11 26 51 33 -12 38 -27 42 -10 -12 32 -17 9 48 27 -27 -10 -28 -2
-3 24 -19 -41 -47 16 -51 -1 -22 -70 13 51 30 13 61 49 21 11 25 5 26 19 42 4 40 41 24 27 -1 -47 15 -4 -41 13 21 2 2 37 15 -6 -56 3 -6 -10 -75 -2 36 -11 -42 -7 -42 -8 -11 34 11 -17 51 -24 -41 6 -19 -43 15 14
-2 -4 29 1 -18 -74 19 -25 -38 -36 26 28 16 -40 75 -7 73 43 33 9 -24 -40 -43 -6 1 -24 -14 -8 38 16 -7 22 56 -29 -30 11 -12 -38 -2 8 -4 -17 8 -11 -28 39 13 -35 -37 12 -16 15 -19 -29 9 -10 -41 11 -19 -12 23 -13 -23 32