3 -14 -55 1 4 -4 34 -18 -34 -3 -19 1 -7 35 5 -10 -43 6 -30 10 -47 27 1 5 46 13 0 -22 31 49 -20 20 -17 -2 -46 -21 -10 6 -29 4 28 -40 -47 -17 1 -34 27 43 7 -30 -1 26 -24 15 15 -14 13 -2 -1 14 26 34 23 0
41 -1 2 -24 -23 48 -18 -41 40 35 24 8 -53 3 52 -73 34 -22 15 -35 26 8 -47 -22 -10 -31 5 41 33 -29 -11 -38 -70 -57 -13 6 -16 -18 65 23 32 26 35 59 -6 57 -6 -30 -33 25 16 7 30 -20 -23 -22 -33 1 -16 8 12 -4 31 40
14 -30 22 8 8 30 -12 -17 23 47 5 -28 -4 -22 -19 -53 44 49 24 7 -62 -1 13 -2 -59 50 -31 -17 -18 25 24 0 63 29 -20 -8 -4 14 33 23 -29 -4 5 15 -10 46 -27 35 39 -26 25 -70 10 -2 -29 2 13 -31 -12 -33 -19 39 -6 -21
-32 -25 -10 37 28 12 -15 10 5 7 31 -20 28 -4 -54 -19 27 20 5 17 -6 8 46 22 16 13 11 5 3 22 10 2 25 -44 49 6 -31 -56 -24 2 7 27 13 -39 -46 -3 -10 1 -34 32 -8 44 -26 35 9 -25 7 -1 42 2 -21 10 -1 -2
24 14 -11 24 -18 15 -31 -26 -30 11 -24 51 33 7 28 0 -5 31 1 -2 -4 9 -1 -29 18 4 15 -29 27 26 -6 18 -32 -56 -4 12 34 8 -19 -21 -16 33 -19 -17 -4 -53 -16 -16 37 29 34 -6 -38 -34 -9 -31 29 -56 -53 3 -2 -18 18 9
18 -31 -13 2 -36 -12 7 -21 23 8 12 -5 -32 24 -28 -32 -2 -5 20 25 21 -32 18 58 -3 -10 -19 30 16 13 -10 -16 16 31 43 43 -17 -3 -26 -47 -8 17 -15 -26 -67 -11 33 17 36 -18 -17 -45 -23 -4 -10 26 3 2 -42 -41 1 -2 -54 50
-17 10 -2 17 -12 -2 -20 4 18 37 5 -14 1 -11 -4 -11 -10 -4 -18 -19 -23 27 10 -44 7 34 -4 -6 12 17 -43 -21 -50 27 -44 -9 33 57 62 -12 -29 -42 40 26 55 -7 6 41 -32 -9 -23 14 6 21 -29 8 -10 5 6 13 -26 -17 4 -30
-10 9 32 40 1 30 -38 34 17 42 46 36 30 -58 -35 -20 12 -9 16 18 -55 -4 16 -25 -51 8 -72 19 4 -5 16 6 8 35 -63 10 7 -5 8 -24 -59 -21 -23 -4 44 -15 74 40 21 -22 -18 -6 -33 -9 9 -49 26 -11 18 -6 13 -11 -19 19
-19 63 -17 -11 -6 -9 4 36 -39 -26 53 -33 24 10 -2 52 -4 -17 -30 -2 -21 -2 2 -9 -13 10 4 -38 -26 -40 -5 -11 -2 13 -18 0 -10 -26 -14 39 -10 -31 16 17 -28 8 -30 -7 -11 5 -24 -35 -37 27 -4 -59 -11 -34 33 63 -6 15 -29 24
-18 66 -17 -2 5 5 -36 -29 15 -58 -25 -6 0 -12 5 -27 -50 -4 -17 -5 -12 76 -6 -20 32 -11 30 -42 26 -24 -44 -39 19 -30 16 -32 20 -9 -9 10 -10 8 -34 4 -22 -50 -18 -6 -41 -51 8 24 -44 20 1 15 -9 39 17 5 3 -3 23 -57
-23 9 30 18 -11 21 18 14 30 -15 -19 -40 -4 -24 0 -50 -52 0 5 18 31 2 0 -8 18 -28 16 -26 23 -15 0 29 -26 -4 -18 -47 45 35 25 -39 -26 7 -23 7 4 -5 -8 56 -52 -34 45 5 -24 46 -12 40 -21 17 -25 14 11 -50 28 -45
2 6 11 0 -4 15 -16 6 19 33 -22 -7 6 -27 2 -16 1 38 15 31 -9 -17 12 32 -16 14 -29 -2 23 63 50 12 -42 4 -23 25 14 18 -27 -9 12 -6 -34 -16 17 23 51 -4 32 -30 5 -33 0 -12 9 -20 -2 -15 -17 -18 37 -6 -20 13
-26 -59 39 35 2 -3 21 7 28 -20 -34 -57 -26 1 -6 7 -7 3 8 -29 33 3 -9 -29 -49 47 3 16 13 -55 -35 -2 75 -13 -4 28 8 -33 -6 51 6 -23 -34 2 -28 6 -35 -46 26 31 -31 -25 6 -13 18 29 16 16 0 8 -4 26 -49 27
-8 -24 -6 38 12 16 -8 -7 60 42 5 23 11 15 -7 -23 -17 -45 -15 49 -5 21 -7 13 -13 16 -6 -20 -2 29 -23 50 25 42 22 -17 6 29 14 33 -25 -43 11 -7 13 4 -45 6 -26 6 2 28 4 45 -35 -19 -3 -2 26 21 20 -22 8 4
-15 38 -47 -38 -14 -10 -12 -6 -18 -73 -5 19 20 16 62 36 14 16 -9 -26 32 -20 1 -11 33 24 14 15 7 -11 -8 -15 -7 -7 -5 11 -39 47 8 14 10 -9 4 29 9 1 2 -3 10 -22 0 -28 20 -39 4 20 -13 -24 13 -42 -19 15 21 -12
1 -38 0 3 30 -8 -1 20 13 19 38 13 -30 38 4 10 3 22 -29 -27 27 -9 -37 36 1 31 -20 -15 2 -15 42 -15 -40 32 4 -7 -24 24 43 18 -43 -6 40 20 -7 23 20 -29 -16 -32 17 -21 12 6 -11 17 23 -1 -49 13 -47 7 -7 -53
6 -8 14 -22 -8 -2 14 -1 -8 -45 21 -31 36 22 17 23 14 3 -21 -24 50 -17 -12 1 27 -20 4 22 9 38 19 35 -39 -67 -15 -4 29 -4 49 -17 -7 -31 17 10 5 11 -29 30 31 15 5 -44 5 -2 -5 -8 -25 -64 18 -10 -21 30 8 -35
1 -53 19 -13 17 -37 36 2 -38 29 17 42 49 21 -29 -15 13 -18 6 3 -47 5 25 23 8 48 -21 -7 25 -2 -15 -17 -19 44 -36 -21 37 46 4 -21 -54 -9 -12 -39 31 1 34 53 -44 -15 7 33 -16 -4 11 -5 -12 36 -25 -36 -10 24 -4 20
30 -62 -7 -45 -10 18 62 -53 16 22 -40 9 -17 31 -33 -50 18 31 -3 -26 -21 28 29 6 19 -2 34 -41 22 -40 -4 11 51 48 23 -110 19 -22 19 40 -33 -38 9 49 1 20 -87 55 7 -64 12 38 16 75 21 31 -38 19 -10 -43 -88 1 1 -73
-40 -33 2 19 -18 -41 -10 5 28 -5 -4 -19 23 16 -42 -13 0 3 -19 49 10 -3 42 -19 10 8 10 -17 -10 -12 29 -2 -20 4 -38 35 -4 -12 14 -28 -3 -11 17 -19 22 24 42 -42 7 -42 1 3 -43 8 23 -8 34 9 -5 -47 -46 70 -11 -35
8 -2 -52 -23 7 -33 62 38 26 -15 -30 -49 -57 57 0 25 56 24 1 -16 0 -20 -22 24 -10 15 -11 57 15 -10 3 -11 12 -71 20 13 -27 0 -7 27 45 29 19 21 -19 -2 -48 -38 -32 10 -17 8 12 24 -23 7 21 -30 35 8 -12 4 -3 9
31 -7 19 6 -1 37 15 -1 17 -10 -8 5 -23 -13 9 -3 25 28 -41 -48 26 -40 -5 16 21 8 1 -48 44 11 -4 38 -44 41 -57 34 8 25 25 -80 -22 -67 3 -53 74 22 57 26 -46 12 2 -7 -32 16 21 30 -9 23 -6 -23 17 20 52 22
7 -27 14 26 -1 45 53 -16 -14 -18 -13 13 15 -63 4 -52 0 44 1 -17 4 -14 1 22 11 32 -29 -17 7 -25 27 -17 34 -13 13 -24 5 3 -33 18 15 -11 -21 -34 -43 -15 -17 -37 -41 -6 -33 19 -6 44 -38 -45 -33 46 12 -4 0 31 -6 -4
31 32 14 1 -3 -32 14 -18 7 -28 24 -36 2 0 0 27 38 16 24 17 6 -37 -11 -6 32 3 26 27 -9 1 19 -32 -68 2 -5 64 39 69 -19 -87 15 -1 41 5 61 21 66 -10 -19 -32 -7 -9 -6 20 4 5 -16 11 9 11 15 14 5 0
-5 34 23 -9 -4 48 -2 -30 -14 -22 -84 -44 -22 -20 23 -33 1 -36 -10 16 3 43 -18 -45 -40 -5 -7 10 -30 -28 -11 -3 -17 38 -55 -30 0 -4 0 1 -3 -62 20 10 -18 5 -9 25 -31 43 -51 -2 -9 1 29 -41 -9 -20 41 21 66 -10 -22 27
0 9 18 -31 -16 -8 -49 -18 18 6 -1 8 5 -19 -4 23 33 -7 -28 28 10 43 -6 -13 -39 -45 -12 -1 -8 -25 2 -51 -35 -11 32 79 -17 62 -39 -27 0 16 51 1 -30 29 0 -48 9 23 -11 23 -8 -17 -26 -52 -33 29 18 16 32 8 3 3
5 -7 3 1 -43 19 1 -68 -5 6 -51 12 -19 13 -38 -34 -46 6 -14 -1 -1 37 26 10 9 -30 14 -51 9 17 -2 23 -75 3 -20 -26 7 -5 75 3 5 -43 8 3 62 28 14 61 19 -31 43 -48 52 -4 -25 -5 22 21 25 26 12 -11 -7 4
-5 -21 -36 -10 -27 -22 -16 -19 -6 19 -40 -34 -8 40 -24 14 -28 40 8 0 -25 28 2 -6 4 -7 -6 -37 -18 -14 -42 -25 24 -11 32 -46 17 -6 -40 42 -24 12 -41 -43 -23 -34 -31 -27 -18 -7 2 15 -9 -35 -18 -39 -39 32 30 -27 -15 -29 -58 14
13 7 41 26 -4 35 -20 37 20 -9 33 7 -1 -47 -35 5 -8 8 -41 -4 -29 -12 25 35 10 2 -37 3 3 28 -1 5 51 24 -53 -29 -3 -10 -20 13 18 -48 -8 -12 15 10 -12 27 19 -6 -44 43 -18 20 -11 -56 9 -21 -29 6 1 35 -18 -1
24 -34 3 -4 -45 33 -33 -3 -7 46 28 40 26 -41 -11 -18 28 13 -7 -4 -46 3 16 46 -14 -27 -25 29 10 48 37 13 -32 22 -17 30 -4 -32 -4 -18 8 -43 -14 1 23 -35 8 20 1 10 25 -31 33 -6 -4 22 -1 0 21 42 1 10 -10 9
12 17 -42 -4 10 -35 -6 49 -11 -42 16 26 12 23 -2 15 2 38 23 13 -32 -57 -14 -8 14 16 -16 -36 7 -11 -10 67 10 20 -11 11 -41 -16 -31 19 -27 3 60 -12 26 12 -19 -21 -18 17 13 25 -24 -11 -23 0 -5 17 -37 12 0 -46 26 46
-27 -29 -30 5 1 -5 24 -2 20 -34 -15 -1 9 14 -14 -22 1 -38 5 24 6 -23 -21 -47 -30 -10 -11 5 -32 -8 -4 13 56 5 -38 0 -45 -39 -3 50 -28 -31 47 -34 14 35 15 -28 15 54 -6 -27 -10 -10 20 29 -1 -32 2 -10 13 -17 -27 9
-24 24 -32 -12 -33 6 4 15 -33 10 23 10 25 -1 -5 16 -63 -24 -12 -3 -13 16 40 9 33 -31 6 -23 -33 -5 -9 38 33 -30 20 -46 -42 -42 18 46 -13 25 -37 46 -15 50 -31 47 8 -58 -6 5 23 13 43 31 19 -45 0 -20 -23 25 -40 -58
-1 14 -5 18 -13 6 -6 -14 -24 5 -29 -18 -40 37 14 -31 -5 22 -12 -38 -9 14 29 62 31 -8 12 -5 23 21 8 -6 36 17 -27 -28 36 -6 -29 22 19 -24 -4 -41 -17 -21 -31 -19 -1 -27 -23 31 -6 -10 -14 17 12 -31 -2 21 -21 0 -23 11
24 78 -15 -7 -13 -13 -15 0 -20 -32 -20 -18 -7 24 32 31 -11 -17 -31 29 0 23 -24 -12 8 19 6 -31 -46 -2 -12 31 39 42 -41 6 30 -20 39 6 19 15 10 8 17 5 -8 45 -12 -2 45 -1 26 -12 7 -2 -6 21 -12 -23 -16 -22 5 -10
-2 6 -27 5 21 -27 13 4 15 -3 -32 -36 -3 20 -17 -4 -23 -23 -26 28 2 -23 34 -37 -18 -12 -49 16 -40 11 14 -7 -12 -46 7 -50 -4 -22 17 45 -14 18 -39 26 -6 -16 -32 44 21 -23 5 -40 19 -25 17 -23 -15 14 31 -24 23 -3 -20 10
-73 -24 -44 29 -29 -15 55 76 -5 -33 28 -87 9 -24 23 32 2 -63 21 -6 -6 -34 -12 -41 -30 15 -36 -19 -41 -12 4 -14 30 2 -37 -15 -10 0 -36 27 52 -10 -51 -4 -61 -9 -44 -2 5 -31 -35 -16 -14 21 -17 8 2 16 -6 15 -10 13 -19 -5
11 -56 38 23 13 10 3 -5 -10 3 35 38 52 -11 -9 41 16 13 25 -12 50 -28 -5 -12 -11 -18 -20 16 39 -83 3 -16 35 7 21 35 -47 22 -29 18 34 25 36 11 -22 32 18 -15 26 17 11 -20 40 -17 -11 26 3 -51 39 11 -19 -49 -44 2
-15 -51 -34 31 -17 -29 -48 33 -8 55 1 15 10 11 61 -42 -19 -57 -2 1 18 2 -12 -17 41 3 -33 15 -50 -8 -29 -13 -80 -19 -44 17 4 32 47 -62 7 -27 -12 5 42 3 37 22 -18 24 -39 5 12 -21 -9 -6 -3 -16 36 -10 30 -6 7 12
9 -24 3 -25 9 -38 25 -8 12 -57 -30 -23 6 1 9 16 -18 -8 3 36 -4 34 -3 -35 -22 -59 -6 -39 6 8 -13 29 21 -7 -36 -18 -12 -55 70 33 -14 -24 10 -5 8 1 12 14 12 11 53 -12 19 57 9 52 -9 41 -21 -5 -22 2 -6 -14
-9 -21 21 -1 24 11 23 -30 10 32 0 -27 -4 -36 -25 -9 26 0 30 -29 25 0 19 -8 15 -20 16 -41 21 12 23 12 55 11 -4 -48 23 -13 15 47 0 33 -4 16 -10 -39 -20 17 -10 5 51 1 9 22 -16 36 10 16 7 30 4 8 50 -8
-20 -2 -32 32 -17 6 7 7 -33 -50 -1 -16 -46 42 11 9 -18 -52 41 26 -10 -32 -19 5 15 10 -6 48 -38 -18 12 -9 -56 4 -47 32 56 60 -6 -51 55 -40 -32 -18 -1 0 41 -5 -23 -17 61 -4 15 2 -33 52 3 19 -26 1 -5 -19 28 45
-20 -22 -2 21 -32 -35 10 29 -14 10 51 17 10 9 -11 30 -44 -51 9 -27 44 -40 -58 14 21 -5 5 50 -47 -18 37 0 -71 -20 6 -2 35 -23 10 -11 56 -13 -40 37 21 10 2 30 13 -26 -20 -14 5 27 -9 5 19 -46 -20 5 69 -40 54 34
-38 -67 7 -18 10 -21 -12 39 -9 1 54 31 43 21 -25 -7 12 29 -27 14 -42 11 -2 -13 -9 16 -11 -12 -7 -21 -4 -23 43 -23 3 35 -32 19 -47 15 25 22 -17 -1 -14 17 7 -12 -28 -6 -64 29 -5 -27 37 -17 -3 -8 -14 26 48 24 60 16
-3 22 29 3 -30 9 -37 20 -3 36 -6 -12 14 -2 -15 32 2 21 -29 -30 -55 -14 -29 10 55 -5 49 13 40 21 -31 2 39 38 -23 -11 -14 -28 -2 29 -27 23 -7 -62 -22 8 -29 18 -26 -22 -9 44 -48 45 -7 -25 -15 8 -35 20 18 36 39 -29
27 34 10 -26 -1 20 -75 12 -12 30 0 9 1 -18 -22 7 46 50 14 29 -39 -8 44 12 6 24 -17 -19 -3 -5 10 -33 14 -3 45 14 8 -3 -48 -4 -24 12 29 -29 -9 -25 -14 8 12 -4 31 -42 12 -16 7 4 0 -11 16 -33 -14 12 -20 8
-38 18 -14 40 24 -19 -13 16 -7 25 3 -20 -15 -18 -40 -19 21 26 -12 -17 -37 17 18 -33 -8 6 -8 23 -34 -13 -25 -27 8 2 2 -11 14 -18 27 11 23 -40 21 45 -33 14 -15 13 19 5 -12 17 33 -9 0 24 -13 0 4 7 -9 -11 -5 29
35 25 31 -8 -22 -21 29 9 -31 23 19 34 5 4 0 -40 -14 18 -32 16 -32 -2 -14 -2 -7 21 -10 -27 5 37 -14 -17 94 2 53 -49 6 -36 2 69 -51 37 37 -15 -11 1 -18 -38 -3 -27 -10 -31 23 -7 9 -8 -20 -22 -2 -29 -31 -1 13 4
-17 56 -40 -16 -60 -42 19 6 -45 -4 -9 39 -7 36 7 46 1 -25 -4 -11 4 9 -6 18 15 -34 31 50 -34 5 21 -12 -20 16 23 43 31 20 -38 -59 42 0 -9 -40 -35 -29 19 -22 -46 35 -59 36 -44 4 0 -29 21 2 -19 80 3 -21 20 -22
-3 25 -16 21 51 -29 22 -2 4 -12 -5 -25 -22 65 -19 5 16 31 18 -4 12 3 -15 -3 -20 8 -20 21 32 -4 -27 -43 -45 22 34 69 -10 29 1 -3 -14 3 43 -23 8 1 48 -23 -29 7 43 -16 23 -35 -21 39 32 13 -3 8 -13 -29 15 22
2 -39 -15 1 -45 1 -3 -37 6 49 11 -29 -22 32 -21 -7 6 -15 -3 21 28 -61 1 15 33 -14 -18 -8 -7 -38 20 4 -28 29 -25 22 17 51 10 -52 -19 -36 23 -16 31 9 28 44 46 -24 0 -30 -13 9 20 -41 39 -43 -2 9 -25 -21 -2 15
61 -7 32 34 17 40 5 -56 25 19 9 38 -14 -46 1 -54 55 32 -31 -40 -27 -9 2 58 28 -6 15 30 25 42 -22 -3 17 6 13 29 -12 20 -56 -18 8 -15 15 -37 -45 -38 42 -7 23 1 65 -26 0 -9 -3 18 43 -4 -35 33 20 -54 41 13
9 16 -43 -23 13 -5 -13 -22 -5 -18 -2 55 -11 6 15 21 -5 -13 -30 0 -12 22 -6 2 22 -44 16 -26 -16 42 -8 21 65 -63 34 -17 -17 -39 -47 56 76 24 -17 -8 -32 -34 -57 -67 -37 10 -3 49 -49 50 -39 -10 22 33 19 64 9 -13 73 22
13 26 10 19 -33 -10 -6 -8 -4 -4 -34 31 -21 35 35 -8 3 26 -30 -11 -47 30 52 44 -9 15 -37 15 -39 19 -35 -59 -12 -10 5 37 -57 -10 24 55 -6 41 30 13 -19 27 19 -29 2 -30 -4 27 7 -2 1 -13 -35 -42 -20 -34 -36 69 -55 -9
11 -31 14 -29 57 18 -13 8 58 17 -10 0 13 -6 29 -18 -26 18 34 32 8 -34 -27 81 -16 -39 -29 29 -4 63 50 24 8 15 13 59 -29 63 -9 -58 29 -30 20 -22 14 28 23 5 41 18 -6 -8 63 -52 -12 -6 -20 2 -25 -6 29 2 -34 50
55 12 29 -63 6 26 25 -62 27 -45 -68 -5 -7 33 8 -27 -23 15 -2 29 47 -24 3 -42 -1 -55 6 -20 1 4 21 46 -14 -15 6 -26 19 15 -30 18 -17 9 14 -8 -34 11 -28 3 44 -6 24 -19 -1 -14 -9 9 14 26 25 -17 35 -12 -21 -4
5 14 43 -14 55 37 58 -7 23 -29 34 -52 -29 -30 -6 -23 -10 7 33 -51 46 -14 3 10 -28 -5 30 -40 75 -11 9 -8 -40 23 -7 18 -12 26 -2 -19 -6 20 11 13 -37 -15 28 28 -21 23 4 7 -2 21 16 32 24 -16 -14 5 21 29 59 0
27 -4 -1 42 26 -25 -3 28 -6 -39 -3 43 48 6 -23 42 24 -10 -6 38 8 -1 -49 -18 -18 -23 -4 1 25 -5 10 -21 41 30 -12 19 -12 36 14 -24 0 11 17 -47 48 -25 30 -60 -17 20 20 -35 18 0 24 1 -7 18 -5 -31 -10 15 -20 -15
17 -10 -36 -6 -38 8 0 16 4 23 -6 -18 17 16 10 -10 -10 -4 4 15 -28 7 -3 50 -8 11 -8 3 -18 31 -13 0 -46 2 7 25 -21 46 -31 -34 -9 4 46 0 18 -24 57 -20 -4 2 14 12 8 -21 7 3 -35 -32 20 10 32 -41 -12 18
-29 1 19 -12 21 -4 -13 -4 37 -21 8 -26 25 7 -26 1 29 8 40 3 1 -33 -16 26 -18 -28 0 32 -7 15 12 -38 54 -5 72 12 -17 10 4 56 -21 60 12 9 -59 -34 -15 2 15 35 -5 -20 28 -23 16 -6 32 -45 -1 -10 -2 10 4 11
-43 -39 25 61 37 36 31 40 -25 7 37 -10 25 -13 -20 28 -4 1 -9 -7 8 12 -3 -16 -15 21 -25 3 -21 17 -33 -19 35 -69 21 -3 6 19 -43 -2 3 42 -23 -14 -39 -10 -25 18 -9 -44 40 -29 18 -1 -36 -3 24 -8 10 10 -38 -6 -12 -35
29 25 -57 -6 -13 38 -51 20 -3 9 12 36 5 10 52 24 -45 22 8 23 27 -9 0 13 -9 -4 -41 -8 45 22 33 32 37 -19 32 -4 1 -1 -13 8 -18 -15 -40 0 -13 3 -37 -52 12 -11 -18 24 -44 -14 22 -6 20 -22 9 -15 -28 -6 -17 -25
61 -2 57 -25 34 -11 21 -54 25 -23 -44 46 -43 -15 -4 33 37 27 33 25 23 -4 -45 -12 -16 -41 18 -49 27 26 42 -39 41 1 28 -14 -4 12 -6 35 -44 -6 22 11 -11 -5 -31 -33 -12 10 -29 44 11 -17 -1 -38 2 0 27 -17 45 -6 19 37
-29 3 36 36 10 -10 30 -13 10 18 -27 10 26 -40 -26 10 34 38 16 -32 4 -15 -6 -26 17 40 -4 3 22 -6 -51 2 57 41 27 -39 13 7 26 17 -34 23 23 29 22 21 -35 24 45 -18 5 -22 25 -21 -14 -11 -6 -20 28 -7 1 -19 -35 -26