83 5 4 -30 17 37 -37 7 3 -58 -4 11 -46 -15 -21 -18 -17 29 -19 28 -16 -2 28 -42 2 38 14 -39 -39 -24 -28 -18 -24 17 -1 30 33 -66 -25 2 -60 -18 -9 -23 -50 -42 -23 15 -57 -23 45 6 -4 15 43 16 -33 -49 -32 -16 1 -24 31 -18
43 13 16 -41 -47 63 -50 45 23 11 -15 -64 -45 2 -57 -27 -31 53 22 -28 48 0 65 20 18 -14 21 22 28 -12 20 -41 -38 22 -8 -44 -54 1 34 28 -58 9 -19 -48 53 -35 11 6 -22 -10 62 -39 -47 55 -51 -51 4 -73 -58 11 34 13 -13 -15
25 49 -24 -40 -47 67 -72 79 -19 6 19 1 -51 0 -20 0 -44 97 121 -22 -31 13 23 -18 7 38 28 48 -6 0 -78 20 -51 -20 83 24 -68 29 63 25 9 31 -70 -4 52 -30 49 18 11 -92 17 12 -43 -19 5 -63 71 -36 -45 -2 -40 -33 19 35
74 35 -18 27 -49 79 -74 80 -10 2 51 23 4 35 0 -27 -33 80 86 22 9 -11 25 25 37 3 12 20 -30 20 -31 -40 8 2 33 -2 -67 -33 33 -51 -32 -12 11 2 20 -49 21 21 35 -82 52 -29 -89 7 9 -31 60 -66 -28 -3 24 -30 -8 -20
-36 -22 -16 2 -27 28 -53 34 -9 8 -10 -55 4 32 -36 -8 -5 58 4 -3 56 14 37 45 -15 5 15 -57 -13 -56 37 -38 -12 -2 -10 -14 -31 36 21 -26 -47 12 -23 -17 -11 -20 16 -21 66 -24 43 -3 -32 11 -26 -10 -6 -79 14 41 2 42 -39 -42
98 9 -21 55 -41 30 -52 51 33 -10 51 44 -36 17 -23 24 -8 45 46 -62 -7 -15 34 52 12 11 -66 51 -14 21 -20 -6 10 -22 63 -55 -32 7 27 -32 1 26 -39 -10 19 34 95 4 54 -30 92 -45 -42 -27 -56 17 27 -1 -34 -15 47 -50 30 -31
81 24 -33 0 -32 63 -69 6 21 -33 26 -64 21 26 7 -15 11 87 10 -1 -25 15 22 34 43 14 -5 -22 -31 1 32 -51 -45 -11 47 -15 -35 -34 55 13 -49 49 -51 -24 53 1 43 -15 52 -39 30 -49 -64 -9 24 1 -1 -69 5 -20 19 -21 -11 -35
83 -16 28 -28 -42 17 25 25 1 -37 14 56 3 13 -11 13 10 65 94 -61 4 20 28 30 21 -64 -30 0 -13 -5 -15 21 21 2 24 30 25 -54 4 -21 78 -27 -36 -9 8 -36 87 61 -19 -49 12 34 -40 -33 14 28 99 50 3 10 -6 -10 19 -38
37 40 -16 -34 -32 -16 -30 -12 16 12 -22 -58 0 31 12 -40 -16 47 -15 15 7 -7 0 3 30 -25 12 -11 -15 -35 49 -8 1 20 -12 -29 -38 5 38 61 -83 47 -32 18 -16 52 -48 -23 59 -34 -22 -8 23 34 -35 41 9 -27 6 13 30 -11 1 29
40 -11 5 15 -27 30 -16 65 28 -32 1 -8 -21 31 -40 -28 -26 36 36 -25 1 -4 27 -1 22 20 -21 -35 3 -44 -9 13 23 -11 27 -51 -6 19 70 39 -39 11 -21 9 -2 65 50 -22 47 36 -39 -7 13 17 4 33 26 -58 28 -32 27 -2 -27 -13
79 32 -19 38 -86 72 -8 33 32 -16 39 -38 -59 28 -59 7 -64 61 101 -71 4 -51 50 -12 16 -17 7 44 -44 -24 34 -12 17 19 22 -28 -12 -33 33 -26 -38 -11 -23 21 15 14 20 42 60 -57 38 30 2 -52 -16 -47 86 -3 -5 10 -10 6 13 -34
-7 -12 -15 -69 40 1 -10 -63 34 20 32 -29 20 -25 18 -15 48 22 -42 77 -26 -31 -21 -3 20 -5 40 -15 4 -25 5 36 4 -29 -77 21 37 -19 15 19 15 -2 39 9 -21 14 -10 -33 13 64 -10 2 47 24 -46 21 -120 -14 48 12 -11 52 -16 -15
39 45 -3 -20 -35 44 -34 6 13 -30 37 -31 -10 -2 -5 -32 -17 75 3 -66 -11 20 7 20 50 28 17 34 -13 -18 -47 -27 -14 -26 75 -32 10 -29 81 -37 -24 41 -44 -48 21 -47 38 5 -25 -40 6 -18 -56 29 -16 -42 37 -84 12 27 25 -45 7 30
70 83 34 19 -29 34 -41 -2 -23 18 25 -51 -25 38 -33 -46 -15 71 54 -20 37 -30 19 58 10 18 18 53 6 -37 -44 11 -10 -11 55 18 -41 -7 68 -26 -41 75 13 3 5 -8 -17 -34 28 -16 -4 -22 -30 4 38 -68 54 -13 -63 -43 26 25 70 -18
68 1 21 -4 11 14 5 12 16 20 4 -31 -58 43 8 -1 6 -13 25 -8 -32 -26 12 -6 -20 -34 26 9 -12 -32 -8 24 -16 -22 0 28 11 -51 -47 2 65 -5 32 -6 43 3 16 -10 -22 -37 -40 27 -3 -39 41 -14 45 -9 -75 -29 -47 -58 47 12
83 -11 -12 50 -52 1 -51 42 -38 -34 31 -19 -32 23 18 -20 -19 52 51 -31 -5 19 10 44 10 30 -75 -9 -26 33 17 -57 -26 33 13 -13 -41 -44 13 -7 -3 -25 -32 13 -38 8 39 60 -5 -36 86 -4 -29 9 -11 39 -5 2 -41 3 16 -18 -24 -2
12 -76 17 -44 30 -49 33 5 44 26 -2 0 11 -34 45 13 35 -29 18 11 -40 17 -8 36 11 42 14 -60 74 -25 6 34 -3 30 -51 -14 31 13 26 47 5 -52 -31 40 -33 -35 -11 -74 31 18 -19 7 -33 -4 -34 13 -60 57 17 -19 4 5 -26 16
-86 -9 51 -60 29 29 -31 -2 15 13 29 -5 -12 -22 23 28 19 -33 -31 58 46 51 31 -20 -33 33 23 16 35 -16 -11 60 44 0 36 9 -21 -68 -15 -15 35 16 -5 -14 -21 -26 -1 -36 -7 -2 50 4 9 -31 -56 24 -2 -32 -13 4 -58 -59 17 50
-29 -50 35 2 71 -82 44 -29 18 1 -26 89 44 -57 116 47 52 0 9 63 -20 19 -38 -36 -48 -9 27 24 32 31 17 6 50 -60 -10 7 20 -1 -82 34 -5 24 -30 46 -42 -20 -28 -69 -67 22 -67 -33 54 20 -56 -1 -76 35 -19 -12 -20 -4 20 -10
-47 16 -40 -24 15 -18 -4 49 4 6 48 -20 -50 36 12 -1 -21 19 20 10 -18 32 -21 13 13 -13 10 -18 -26 4 -29 33 23 17 -41 5 14 -21 41 -32 -2 -12 29 -27 -49 -3 66 -8 30 -22 19 38 41 -31 -21 17 -13 -12 -8 -2 -15 -11 -3 -9
-14 -8 -19 2 14 -7 -21 -63 55 -25 -64 -7 10 -64 41 -17 52 -70 -47 -3 24 10 17 5 -25 -17 -69 -38 33 8 2 -37 33 8 18 -59 -16 25 -6 26 41 -4 62 29 9 10 -22 -5 9 3 -65 -46 10 23 29 29 -70 -41 15 -14 -49 -22 -24 16
-47 -33 54 43 68 -39 19 32 -21 8 -51 55 32 -24 42 38 56 -5 -53 9 -34 -12 3 -31 33 -29 -50 -17 50 34 -11 6 82 23 -31 52 11 28 -38 -6 39 -18 -15 16 -40 -47 -56 -53 4 54 29 -34 64 16 -20 9 -99 9 -18 -8 16 -16 -17 15
-38 19 61 31 -36 -12 -3 56 -28 -63 -12 37 -12 -19 61 25 3 -22 7 77 -22 73 -27 -34 2 9 55 44 39 38 -51 -9 52 -25 62 43 -6 24 -31 42 6 28 -1 -16 -26 -47 -40 26 0 -26 48 48 9 -48 -28 24 7 39 -82 -27 39 9 -20 16
34 26 0 -31 9 13 -10 5 -2 47 50 10 -36 11 20 -42 -7 -22 -2 34 -20 34 39 30 27 45 55 -32 -19 13 10 13 -5 -3 -15 39 -1 -31 -36 -12 -41 -47 -22 -4 -16 -17 -4 -18 -36 -50 52 -16 -38 7 6 -27 54 64 9 -34 -18 18 49 -6
-54 -5 13 29 23 29 10 -59 -30 -5 -40 52 -32 -43 1 18 26 8 -57 41 45 31 -51 -16 -6 -65 -54 -34 37 -8 -34 -42 -11 -40 10 -20 -28 2 -28 8 17 64 103 4 -33 18 14 67 -10 -14 -38 5 24 -19 27 -21 15 -62 -17 31 42 42 -35 -29
37 30 -23 -33 -15 79 29 -62 -60 -40 26 55 -65 -2 16 15 34 -41 -11 6 -25 -36 19 -14 13 -45 35 81 -15 27 -28 -7 48 -32 44 -10 3 9 -14 -69 -1 30 25 -58 25 14 46 86 -23 -43 -1 86 -16 -28 43 -22 42 -15 -30 39 28 -40 28 -17
-60 -61 -12 6 46 -64 35 -11 -32 24 -5 -25 -23 -15 57 32 74 -19 -29 28 -27 -22 4 -18 -20 -47 -21 13 62 46 18 10 41 49 36 -11 18 -39 10 44 4 -21 37 40 -6 -16 -50 -48 41 77 -23 -40 82 -19 -48 -2 -89 21 7 -18 -27 3 2 -41
-28 31 9 -40 -16 36 28 -23 -56 28 61 -16 -9 29 -1 34 21 -13 27 33 -38 13 -11 -32 5 16 17 35 -22 21 12 29 -30 0 -38 65 -32 32 -7 6 4 50 -41 -64 -33 -6 -34 -5 -14 -46 33 -12 -37 -9 33 29 31 38 -4 -46 -16 -47 -13 -10
-79 -73 -4 -2 17 35 56 -23 -10 -56 -56 52 39 -81 71 33 37 -48 -66 57 -32 -28 -69 -48 8 -66 6 51 -8 1 32 -1 74 -35 44 -8 -6 37 -8 -19 -18 13 -34 14 -47 -32 -2 -12 64 73 -28 48 47 -58 -31 42 -52 9 37 35 49 -2 -22 16
-49 7 80 -39 -37 -16 -29 18 -36 49 -37 -92 37 12 25 -24 21 35 61 -62 1 33 25 16 16 -2 30 -14 36 5 -10 31 -50 85 25 47 -5 11 33 8 -14 18 -12 -20 -11 57 63 30 13 -65 15 -18 -33 -37 16 12 59 39 -61 -84 -2 -65 35 -19
-37 -23 7 19 4 -8 21 47 26 -22 -37 63 38 -2 22 18 34 -2 -34 9 -40 -15 -17 8 -10 1 -41 -16 -28 41 -50 -2 27 -51 30 27 15 -19 11 -2 34 7 -11 -3 -28 -20 0 6 36 28 -32 0 1 -49 23 10 -80 10 -1 2 42 0 -20 6
-1 -53 33 -13 -22 -21 52 69 7 12 -60 -43 42 35 9 -3 19 40 0 55 -43 59 -6 37 49 37 23 -23 -17 -13 27 60 -7 0 1 -5 -12 11 3 42 -19 -43 -7 10 -42 -56 -15 -53 -5 82 -10 -69 16 -35 -3 59 -53 37 -19 -10 -41 -19 17 41
-32 19 -54 45 25 -13 0 -26 19 9 -8 50 36 -9 -1 -18 5 -75 -53 0 18 20 -2 6 -36 25 -21 59 50 -5 77 17 8 26 15 -12 102 -42 -54 -67 31 13 38 2 -11 -38 -28 -80 -14 -15 14 40 60 44 -65 -10 -42 -15 -17 -14 35 50 -57 -12
-48 -45 8 35 49 -41 -17 -15 29 -23 -20 23 20 -30 41 -55 48 -58 3 -1 0 65 -24 16 -23 -10 -11 24 34 84 35 -2 12 67 18 36 -5 14 -8 19 -25 -15 -5 27 -49 -72 -47 12 25 -30 -23 -14 3 1 -60 -9 25 -34 25 -43 -7 -41 -23 59
25 -23 -42 -52 11 50 24 -63 48 60 -26 -17 -8 5 -53 28 -21 -44 -78 18 19 43 14 -16 -13 10 -38 31 2 -16 16 -37 -16 4 3 1 57 3 28 -77 -26 -57 9 -1 40 -18 -20 -69 -60 -30 -26 15 17 23 36 3 26 -26 14 20 70 64 2 -5
16 -2 -43 -62 13 58 1 51 25 42 19 -24 -2 45 42 39 -45 85 -14 -2 -10 20 25 -55 54 -44 7 -10 -20 -16 34 61 19 31 -44 -32 -46 -8 16 42 -10 -21 -21 -89 -26 59 -17 -18 -8 47 34 -28 13 26 33 25 -38 75 4 -7 -4 -32 -12 -35
-4 61 4 28 -8 7 1 -32 29 -38 -33 9 -3 -36 -3 -19 -35 -38 -53 28 15 -18 -25 23 15 -38 -13 65 -32 41 -6 -28 14 -74 59 -25 26 13 -39 19 34 31 15 6 53 43 -64 -13 -10 -19 -38 45 65 12 31 -36 -54 -32 49 51 28 16 -32 -22
-4 -16 -55 -73 -35 42 -13 7 -20 18 38 -32 -50 3 39 24 -4 16 25 14 33 -17 -23 0 -1 12 46 -13 -18 10 -20 33 46 -9 -1 -2 -34 -16 14 9 -32 31 26 -48 10 19 1 33 8 58 2 -6 -35 -21 27 49 40 57 1 -17 -37 27 -30 -17
-8 7 9 -13 79 -10 52 46 -4 -8 -23 1 -7 41 79 11 48 -7 -21 46 -4 19 37 -34 -30 -37 34 -40 0 49 11 27 22 0 -15 75 -29 10 -39 66 -45 -23 7 -31 -68 1 15 -25 -7 63 -12 -43 -8 -4 -66 15 -32 55 32 -38 -11 1 3 61
43 -3 30 -41 -83 23 14 23 -19 12 -2 -87 5 55 16 -23 13 84 86 -68 4 28 -7 15 64 38 38 -18 10 -25 -61 56 -6 17 15 28 -82 8 48 -9 9 18 -57 -32 31 64 28 55 -30 -14 71 6 -52 -9 34 6 23 54 -19 -14 -39 -67 68 47
-33 21 50 7 34 -50 -9 -69 -1 -14 -49 23 -27 -61 41 79 8 -43 -17 54 4 -40 -7 -48 -59 9 -24 5 -24 67 -22 -3 -1 -9 6 -16 7 -24 -66 -28 -13 -11 26 59 21 -17 -72 -23 -44 -18 -10 -25 47 3 -48 -1 -36 5 30 12 32 -19 -43 -10
-54 -19 26 41 43 -26 9 -84 -13 -62 -7 54 -3 -72 75 51 14 -31 -46 63 16 -16 4 -2 -6 4 -42 9 2 64 -61 -1 -14 38 9 -34 -23 -40 -37 15 15 -5 32 57 4 -31 -71 18 45 -39 -16 31 47 -11 -19 -21 7 -9 -21 14 -35 -20 -10 63
45 -18 55 -32 -28 -40 -48 47 -25 8 39 -82 73 25 8 -106 -36 17 37 -70 -17 36 54 22 -5 56 -27 -7 77 41 15 15 3 69 23 28 -6 -7 84 -58 20 26 -54 -17 -76 -28 15 23 46 46 35 -33 22 -56 -11 12 17 -1 -27 -1 -51 -23 9 -16
9 -21 12 14 31 -48 2 -22 15 -8 -34 -8 19 -53 4 -58 37 -38 -26 46 -15 12 -60 33 -52 -5 -43 -14 39 48 -10 26 -10 26 -48 32 6 -36 -32 11 12 22 -26 62 -9 49 -60 -41 9 10 -36 -47 83 4 -26 -57 -16 20 -12 10 55 -32 26 41
12 -2 -12 -28 -37 52 32 -8 13 -35 -19 24 -39 25 23 18 1 16 -11 11 -40 -19 -10 -51 19 6 -13 50 -40 17 -57 -4 -1 -27 16 4 -34 16 -11 3 9 -13 16 -1 22 -2 -8 10 42 30 -51 8 -38 -12 62 0 11 -24 -8 -16 -10 -21 2 25
-4 26 29 87 -2 -50 -30 -102 51 14 -4 16 15 -20 -59 27 24 16 19 9 -21 8 -72 18 -20 17 -18 3 53 24 -29 12 23 -37 51 -31 50 -15 -49 -53 -11 58 44 26 12 -8 -42 -31 -27 -24 -10 33 54 20 -19 -31 -31 4 -8 -15 44 -9 -5 -39
21 4 25 -1 0 -35 -64 -25 -6 52 -9 -16 18 -32 0 -24 -10 -10 27 0 53 30 -41 18 -18 41 13 -9 68 37 25 -31 -25 -25 33 -22 61 -38 -15 -34 13 -23 3 83 -35 -10 15 -19 -29 9 -26 -50 -31 -1 15 -41 4 6 -26 18 24 -18 -41 -8
4 39 23 -18 -42 -20 -16 15 25 -13 -27 -63 73 13 35 -42 -31 -46 -3 -59 9 23 30 -9 -63 14 -20 -53 17 49 -42 -33 -20 8 12 -16 26 -12 11 1 -10 -10 4 4 -10 -48 -44 -4 -6 -7 7 4 -21 15 -55 -9 44 23 20 -33 23 4 46 23
-23 0 -9 32 -27 64 -40 -24 59 64 -39 30 33 19 -39 -40 -34 -28 -4 44 91 -6 -22 55 -20 54 -8 7 31 30 82 -16 -88 15 12 -15 123 43 9 -37 -25 -54 -14 34 21 -60 57 4 26 -16 48 31 -40 55 8 -5 -66 -56 0 -36 78 27 -81 -63
-58 9 -9 49 12 -5 -23 4 29 45 -80 38 -10 -11 -21 -8 -7 -20 -19 38 59 -16 -1 66 39 -8 -9 -22 7 40 53 -38 -52 3 -17 7 59 6 -41 -44 -26 -49 -44 36 -13 4 6 17 28 -22 55 37 -31 42 -21 4 -66 1 24 -5 49 80 -40 -70
58 10 61 -21 21 -49 -39 27 -23 -45 42 -44 -8 25 41 43 -11 71 8 -64 -77 -3 -26 -11 -6 8 20 -18 -1 17 -29 40 32 -19 -8 25 -90 -16 48 49 12 61 -11 -53 -19 20 35 -30 -54 -37 -9 12 -30 -14 -31 -29 31 -7 -52 -15 -23 -85 59 102
-22 -29 -30 30 9 51 -18 -20 30 -35 -5 0 -31 -20 0 -6 -77 -64 -39 -13 39 -19 -40 92 -42 -5 14 20 -22 4 6 -56 -88 0 -23 -32 49 27 -31 -20 -38 28 -26 48 9 3 -6 21 13 -15 17 -25 48 -3 3 10 -40 -5 -3 9 43 44 -47 -67
43 1 -13 -22 61 35 36 37 7 72 15 53 -27 8 -13 -27 -10 55 20 13 -5 11 -6 -29 21 -31 5 29 37 25 39 -8 14 11 -14 5 8 46 -7 28 40 -15 -35 -9 30 -23 -22 1 24 -2 15 -13 -24 -22 -15 -13 15 -19 33 -8 6 -48 5 20
32 -26 24 -17 35 -79 47 -17 23 -35 3 13 13 5 55 15 21 12 -27 25 -43 -14 -34 -84 -3 -46 23 -31 -5 10 -20 16 51 -58 -29 6 -9 -2 -8 40 24 38 28 14 -15 24 38 -22 -70 -24 -68 8 4 -23 26 19 11 45 32 -16 -21 -18 31 9
-81 -23 34 49 -59 16 -48 -25 9 6 49 -10 20 -40 -44 -37 -29 -27 4 -73 -9 17 73 53 -32 -10 -38 25 20 6 2 -25 -33 72 -14 -29 -13 -39 -6 -28 20 12 6 36 44 4 -40 -27 5 -22 36 11 2 -15 -2 21 8 -3 -41 2 35 -12 -16 -42
-40 6 -8 6 -50 19 -51 3 -8 -45 -62 -26 -1 47 10 -12 1 31 16 -39 27 -17 2 12 56 30 1 -12 66 5 -45 -31 -19 70 20 -14 -9 -20 -42 -63 -8 -13 -36 14 1 -65 54 55 33 18 28 -35 40 -26 -6 -8 21 -22 -26 -17 -1 10 -26 9
-14 -2 -24 30 -58 46 -55 23 -13 -2 -56 -24 43 11 -47 8 -36 0 -20 -7 4 41 10 70 -1 22 -5 36 7 -26 12 -11 -7 54 -9 7 33 8 -35 -13 -15 54 -23 32 -30 9 -16 -3 47 -47 48 38 34 -5 30 -20 1 21 -33 8 38 -14 -9 -58
-24 -3 -33 82 -44 62 -44 -36 13 44 -35 26 5 -53 5 23 -77 -31 -8 -6 72 -14 22 94 11 25 33 5 -1 28 62 -13 -64 46 -16 -27 51 39 -17 -21 -30 21 -27 -5 50 -1 55 16 43 -36 27 -7 -35 24 -6 -22 -6 -24 -64 -9 46 23 -42 -78
14 11 -57 28 -28 62 -74 70 -51 0 29 11 41 -49 18 -24 -24 9 49 -78 30 24 59 60 7 -22 33 19 19 7 -4 15 -29 18 17 13 -4 -30 44 -41 28 -1 -48 2 36 -76 -33 -50 -24 8 21 -5 -4 -3 12 16 33 -53 -15 -37 25 -59 -8 -55
11 17 49 -23 7 -60 28 -23 -71 4 37 16 -5 48 3 21 43 60 23 35 -10 -19 -9 -66 -3 -51 37 -15 48 -17 -53 58 80 -32 26 7 -62 -22 -20 -2 -5 54 15 -33 -6 -5 -14 -8 12 59 -70 -44 27 18 -41 6 30 76 11 67 -16 -13 63 54
4 -34 -26 12 54 -92 43 -40 -24 -30 -44 27 -19 -9 -14 39 50 45 -12 48 -51 -54 -14 -57 39 -52 35 -34 23 -32 -60 -5 52 -66 -47 19 -3 28 -11 80 -18 -24 -10 -26 -22 25 -32 44 -5 51 -61 20 9 -3 -35 10 -35 48 -15 38 -43 -23 26 55
-32 -32 -20 34 24 25 -40 13 16 -3 -81 23 -10 49 -4 -25 -18 16 -18 12 17 -53 -37 69 24 16 8 5 10 21 -7 -91 -2 19 -23 -23 92 52 13 7 11 -47 -26 8 6 14 68 -2 12 21 13 30 25 28 19 -43 -62 -38 11 15 44 67 -20 6
-10 22 -37 23 49 -19 14 -8 42 6 -29 0 -31 -38 -24 -27 -17 -66 -82 19 37 -1 33 54 -1 39 -15 48 36 -11 12 -24 -26 -13 -4 -8 62 -8 -5 24 -6 -34 -23 49 33 41 -24 24 13 -10 -19 9 53 -3 -44 -61 -67 -18 -33 58 12 28 -40 -52
-15 20 13 12 22 -46 -16 -2 -12 -7 5 -26 37 24 8 -25 17 14 -7 -27 -59 44 -15 -64 -32 -31 17 14 12 -1 -56 64 16 -58 -31 4 -37 10 22 2 51 21 16 21 -21 11 -15 -63 -20 13 -49 -41 37 -21 -10 -7 34 48 9 -10 -30 -31 28 22