41 -47 43 20 2 19 -26 -28 46 10 -3 45 3 -48 -8 37 42 -34 -11 -16 -33 -9 -15 17 12 27 -19 16 66 -15 47 16 -22 1 53 -60 6 -35 -8 -67 22 10 -3 38 -2 -30 -26 -34 30 10 10 -28 28 21 41 22 23 32 -41 5 -40 -27 15 15
-72 -49 -55 -5 -17 -62 14 -12 24 -65 4 32 32 32 -31 10 0 -13 -3 85 -31 -18 -21 22 40 -26 10 -29 15 0 -9 -36 -5 11 -6 -22 -15 -7 22 -9 66 61 -12 -9 10 5 66 3 41 -22 -16 66 10 -44 23 22 -27 -37 3 23 87 -19 -7 30
45 -40 -27 -23 -10 39 -20 -32 47 -22 1 55 29 -52 13 -4 37 -19 -1 -22 -11 -27 11 -19 53 25 -31 41 46 -13 36 -22 36 1 17 -13 -1 -2 34 1 -22 12 30 -5 -34 3 40 69 -2 -33 -57 -17 -30 32 51 -7 -7 -77 -95 2 -1 -11 9 -30
37 -16 -31 4 -41 43 -2 40 -39 21 40 3 -3 -20 -16 -6 -13 -28 -21 49 37 -2 -6 -17 -38 33 37 -38 6 -27 -15 3 62 9 -45 32 31 -15 5 8 -36 -10 -25 -32 -34 -21 -48 1 -2 16 2 2 -12 46 9 9 -28 -25 -27 -11 75 -8 -43 -5
26 -6 -25 -28 -33 59 -6 0 -1 16 -59 1 -40 112 -7 -51 -36 2 25 40 15 29 13 33 36 -37 -52 -41 -56 17 46 -35 -52 62 -9 -14 -5 25 84 15 17 7 -12 -40 -18 -5 50 27 32 -71 35 -11 -25 -88 36 28 24 -33 21 -18 32 1 -50 -7
44 23 11 -56 -13 27 -25 20 0 32 -49 -48 -21 43 0 -20 -17 38 5 -32 35 5 13 -22 29 -25 -66 76 81 -42 63 62 -69 68 -18 -17 9 18 124 -22 -67 -38 -13 -6 -16 21 -81 8 21 28 -66 -95 -19 -62 -6 -12 104 39 67 -68 -78 -50 -20 10
48 -35 -5 -8 -15 32 11 37 -26 16 -44 -15 -35 0 -8 -26 -19 -24 28 -30 -4 -21 25 8 29 8 -1 40 -17 -20 8 -29 5 -39 10 6 -59 28 8 -12 -12 -16 -22 -52 -27 -16 23 -3 -20 13 6 -1 -32 4 36 13 27 17 -3 39 -17 -4 37 28
2 -51 39 9 -4 -57 -20 46 -12 -22 -21 10 9 -14 -4 -49 0 -7 -26 42 53 24 -1 26 0 3 -21 -24 29 54 13 23 47 51 6 24 19 31 -27 27 31 27 15 24 -23 11 -12 0 43 -2 32 -44 -2 -62 7 16 -4 15 19 14 11 -18 16 -10
3 29 37 12 -60 57 -13 46 -32 9 18 -23 -17 68 16 27 -45 40 11 11 -37 0 46 16 -8 2 6 10 8 -8 -33 13 -1 39 7 60 -2 -16 -2 -19 38 3 4 -37 0 -43 -23 45 28 -15 -6 -59 -7 -30 -13 -3 -9 41 0 -43 11 -15 60 35
30 28 -24 -45 -8 10 21 -4 44 -46 -60 -13 7 117 -5 26 5 70 20 -44 -60 29 -23 11 34 21 24 -48 15 -28 -25 32 -25 27 -28 -36 22 16 37 14 -3 -55 1 -22 -27 30 -15 13 3 4 -13 -58 2 -34 58 40 3 25 12 0 -10 11 -30 29
-35 2 62 -25 -25 4 -103 80 -42 -22 -32 -46 11 -4 24 -33 -43 40 69 -44 -3 31 91 122 25 30 -46 34 52 27 10 -28 3 53 44 -9 3 19 33 -16 24 2 -81 22 19 -4 3 18 30 -1 71 -62 -37 -23 -28 -37 -7 19 -49 -73 -37 -42 15 -8
41 -7 -41 -21 -14 -2 43 24 -28 -14 52 8 -18 28 -34 44 13 7 6 52 31 27 -13 -32 -52 12 45 -32 6 -21 14 -3 3 -8 12 -1 -25 22 21 -8 -16 38 -1 -21 30 -40 -22 -18 33 -24 -5 -2 17 -49 20 -11 35 -30 19 -4 56 -1 -18 -4
43 -10 52 -25 -43 17 -105 15 -19 40 26 24 -1 34 -12 -41 14 31 65 -52 12 0 35 79 22 54 -25 23 2 45 1 -18 -62 41 100 -12 -30 -7 71 11 -15 5 -88 3 0 -49 74 6 -22 -20 39 -46 -22 -43 9 -22 18 -6 -41 -27 9 -58 2 2
-38 21 45 4 11 39 -18 48 -63 55 63 -28 10 12 -39 -15 -37 38 14 -36 -36 3 79 -31 -11 -50 33 54 -17 -1 11 35 22 -24 -14 -56 -7 -19 7 1 -36 6 28 -61 54 8 -1 21 23 9 -51 37 -35 -25 29 -23 39 14 -5 -18 -93 -12 21 -11
13 10 3 58 16 4 22 -18 53 8 58 81 51 -16 -17 16 10 -34 10 -25 -40 -6 -24 -2 -12 56 33 39 30 7 3 30 23 -61 74 -67 -45 -50 -16 -84 58 21 7 -12 -8 -3 16 -42 -14 36 -20 88 -1 41 25 -26 0 -27 -35 26 -54 22 31 43
57 5 33 -58 -19 -2 -60 -16 -27 30 -2 -14 -25 4 8 -8 10 -7 -5 -17 32 68 -11 56 4 1 5 -13 47 11 4 -53 -10 -8 73 38 -1 29 45 -7 -44 -6 -45 24 -57 -45 48 15 14 -15 24 -25 -4 22 10 -6 2 -16 -57 -34 1 8 -30 -16
-38 21 37 -31 -9 -55 -23 17 -13 32 -13 -3 -11 -13 29 -25 0 -11 76 12 8 4 23 13 35 10 44 -12 52 -34 36 -11 -1 -22 -32 -20 12 46 13 -12 53 -24 -68 -1 -43 -7 -6 -53 -66 26 29 39 10 14 59 27 2 -24 -48 -5 -28 -4 -40 -5
-76 -64 -16 27 36 -30 16 22 31 -10 -3 -30 -30 55 7 1 -34 -12 41 -24 7 -5 -24 38 -45 7 -4 -17 7 -27 52 4 2 -16 -56 -38 -25 -42 23 32 -26 -24 2 17 6 45 -67 -40 25 61 23 -6 9 2 -10 30 -26 71 74 11 34 -15 -25 -13
-27 -46 -23 -23 2 10 43 32 22 -8 50 -14 20 47 -39 6 -24 -15 11 14 -12 14 45 6 -16 -6 11 -6 -16 -38 -5 11 11 37 -25 13 -7 37 2 -19 50 -42 -41 -28 -36 42 37 -3 -17 32 -19 58 -23 11 12 36 -5 -43 -5 -31 44 31 8 -1
7 17 11 29 -24 -4 4 8 60 -9 -9 -36 44 -32 -25 72 -12 32 15 -9 -17 -13 -34 22 -27 -43 47 8 -19 -23 -13 62 26 -79 -16 -40 33 -36 25 5 -57 -20 39 -34 10 46 -19 5 -5 60 -103 -18 27 43 11 -37 22 -15 -25 14 -59 -22 -4 9
55 27 -25 -31 -22 48 -55 -3 20 -54 27 25 10 -25 23 -19 26 5 -55 -50 31 30 -18 -13 40 19 5 6 13 -38 -31 1 29 6 64 -6 5 2 31 -27 -21 40 5 -9 -11 -9 49 83 -39 -57 -51 34 -51 32 59 -46 11 -27 -26 24 -12 -39 34 -39
-6 -4 2 13 7 -27 21 3 -73 -9 39 -26 -61 -6 6 -4 16 15 -23 15 73 17 28 -21 7 -24 46 18 -6 -14 2 -36 -10 -4 -55 -12 -11 -14 -45 73 -18 -2 0 48 18 6 2 -39 4 29 54 14 25 30 -44 26 42 17 18 17 25 -3 -16 11
28 5 -62 30 46 12 -24 88 -4 -4 3 -65 -37 46 -13 -44 -16 -20 38 15 -24 -60 -37 19 -9 -53 21 20 -36 -22 -20 23 -6 -31 -8 -21 -10 33 49 16 -57 -32 22 -12 -11 97 -1 23 33 20 -45 0 -46 -29 41 19 58 -2 74 62 -2 25 34 9
0 -47 3 15 41 -8 0 -7 -23 56 -23 21 -44 2 -61 12 -4 -42 19 34 15 -52 14 -27 -84 -34 -4 -22 -1 45 50 0 -35 62 14 22 -16 -36 -37 -16 24 -20 32 14 34 13 15 -65 -2 -2 0 -3 -7 19 -17 60 -19 -3 27 46 24 41 -26 -24
32 -55 2 23 53 20 -19 6 -54 18 -33 44 -4 -1 -48 4 15 -43 -47 0 39 6 71 12 -28 33 -19 -8 -26 -1 10 -30 -2 -16 45 -14 3 75 68 -7 -37 42 -17 -42 19 -36 11 -11 46 1 -6 26 27 19 17 -30 -19 -35 -16 21 -12 5 12 1
30 4 11 0 -42 6 -25 39 16 -19 22 42 63 25 15 7 -53 21 61 16 -27 -25 20 36 18 38 16 -1 24 -10 25 -26 -22 15 45 78 -25 12 64 -22 -8 -25 -30 -43 13 -40 53 -27 18 -22 29 -28 -35 -63 -37 9 -16 12 22 13 3 -43 23 -45
-68 18 7 -1 22 -61 29 -46 -16 -31 1 13 39 6 -18 -7 -1 -9 -17 29 7 17 -1 -2 -42 9 -18 -11 34 72 16 12 10 22 -14 35 -8 -1 -20 -5 108 -7 27 13 5 -9 -53 23 9 44 42 34 35 -10 -24 2 -41 55 30 -32 3 16 -25 49
-11 -14 20 -18 -15 -50 63 -8 -8 -27 42 -28 64 28 -11 -24 -4 -15 42 14 -37 17 -2 46 25 11 2 -13 8 34 -28 -40 4 15 14 25 -25 -3 -34 -3 70 -2 -71 -10 -1 -28 -20 29 -43 -25 47 -11 10 -8 -25 -12 -10 -16 -11 0 -50 -15 -15 78
-77 -8 19 -21 22 -60 22 -22 -35 -78 -14 3 -15 -7 5 3 21 35 21 47 -19 24 -28 -46 -8 -8 30 -9 29 25 28 -3 3 -23 -55 0 7 13 -53 -37 65 55 25 -26 -25 10 23 28 54 -1 -2 27 66 -24 -50 24 -14 26 -7 17 28 38 -12 12
41 45 -37 7 -25 76 39 47 4 43 25 -5 -35 6 -74 17 -9 42 30 -4 -24 -47 43 -39 19 -5 39 107 -43 -37 -18 45 -27 -76 -28 -74 -34 82 12 -2 -82 8 -1 -68 14 27 10 -18 -51 6 -61 16 -59 7 75 -33 80 -11 -35 53 -32 5 49 74
7 -2 8 1 -23 44 17 -17 32 63 -18 -23 50 21 3 34 -11 -32 21 -1 -44 -33 41 -31 6 -42 34 20 -31 -33 -2 17 46 -18 -69 -89 34 16 5 17 8 25 3 -35 38 -11 -29 2 -77 1 -75 27 20 59 16 -14 29 -20 -3 1 -58 15 -16 12
44 23 -7 -6 -18 55 23 41 -10 20 26 -65 -69 25 -56 25 -2 27 15 -31 -21 -21 -24 -9 -26 -31 42 56 -46 -6 -18 39 -48 -13 37 -67 -56 1 47 -49 -5 -3 -10 -44 41 1 -18 -14 -45 45 -19 -20 -33 12 32 -54 59 31 -22 45 -78 0 51 23
24 1 -16 17 -17 54 36 66 36 -11 64 -74 -58 84 -55 8 -17 51 65 -5 -34 -49 8 6 15 -64 72 10 -45 -24 -28 -3 -38 -80 -30 -80 -35 54 81 -19 -52 -24 8 -55 67 63 36 -6 -33 39 -49 1 -58 34 39 8 27 5 10 76 -11 23 -7 -4
-4 5 -57 6 15 2 20 -5 34 12 1 -1 -47 37 -41 -16 -33 -44 23 13 -16 21 -25 -2 -21 -26 0 14 -75 -19 44 -39 -60 16 58 3 -30 37 25 -47 -42 16 -19 -13 21 22 21 -5 14 -6 -2 1 -2 -28 45 1 2 7 23 81 30 4 5 -34
-32 -12 6 -7 55 52 -58 34 -9 37 5 23 32 36 -44 33 -14 24 -42 33 -21 42 -41 -15 0 31 -3 17 -34 4 50 15 -19 74 72 -26 11 -6 38 -21 -27 7 -77 -30 9 -27 15 14 10 45 -15 10 -20 -6 9 5 38 -5 31 -38 -8 8 -7 -21
-38 -2 74 -4 -69 18 51 -18 -15 -18 3 -11 0 26 -12 -28 -28 -14 65 6 -9 15 4 14 25 -5 -25 -1 16 36 -43 -19 36 29 8 104 -42 -41 14 -32 100 -43 -14 26 -26 -8 37 18 1 -27 65 -58 34 10 -29 33 -43 19 -7 -43 -17 -19 34 32
-2 38 -34 -7 10 -9 33 -7 -25 -28 -1 2 17 53 17 15 -6 36 11 32 -2 -29 -4 -34 8 -27 16 18 -39 -2 -21 -3 -5 7 -52 -13 48 -28 13 35 -30 31 -11 -7 -45 -5 -41 26 -13 34 -19 -18 -4 -4 14 -7 0 -2 3 83 -11 39 -40 -23
32 20 -2 59 48 -6 64 20 6 -3 48 -9 -2 -8 -62 -3 -4 -1 4 22 12 -5 -5 9 36 11 27 40 10 22 -44 -24 -23 -11 0 -24 -56 20 53 -24 7 -7 -6 1 54 34 71 -18 8 18 0 58 -46 37 39 -27 14 -42 12 3 10 17 21 22
-38 27 18 21 -4 -1 -13 47 -2 -34 -16 -59 -22 72 -1 18 -1 47 22 58 -58 12 -17 17 15 14 79 -53 -52 11 0 -42 -26 -19 -1 37 -46 87 35 1 62 -61 -29 -82 4 6 -11 2 56 27 27 68 -48 -50 -16 0 -31 21 28 -18 58 -21 -9 -40
-42 -11 5 19 -25 29 13 78 61 -84 -16 66 26 29 -17 24 -8 42 -21 52 6 -27 4 13 -26 13 -15 36 36 8 10 33 5 49 -35 40 11 -36 79 -3 -16 -21 21 -24 -11 23 17 -14 -5 -4 -9 -6 -66 3 30 38 30 -12 -18 40 28 -35 -9 6
21 1 -56 34 -5 -5 -48 58 -24 -12 -74 -4 9 -23 54 6 29 20 -20 -53 33 -10 29 -38 46 18 -37 -37 17 -31 -15 20 -24 77 15 28 -41 -9 -8 10 -78 -9 7 31 11 -9 49 7 68 -9 -43 -36 28 35 -25 29 11 -7 -7 10 58 -1 7 -46
-54 8 37 -18 -30 -47 45 19 55 -40 18 -55 5 46 38 -30 -25 2 -33 -77 7 -12 23 -18 12 -16 4 -15 30 -13 11 -26 -18 36 -9 57 -14 34 -19 60 13 -45 -27 -8 -5 16 -18 -22 36 -16 41 -20 10 -2 -34 -12 27 -26 36 -20 47 48 -37 -40
-21 19 -10 42 25 -25 -21 45 19 -23 37 -26 -6 75 -6 -27 -95 47 -19 58 -45 1 -47 13 -28 3 -9 -39 -46 -5 18 16 -3 17 11 -13 -56 10 -15 -2 49 2 -5 -53 58 43 10 45 56 -14 -11 -29 18 29 -12 -13 -16 49 45 3 37 8 -4 25
-2 -28 9 36 13 15 -45 45 20 -24 33 -24 46 -14 2 13 -21 20 4 25 -44 16 21 -42 -28 -47 5 18 -1 -61 32 32 -12 61 5 24 41 -24 51 -15 10 -16 1 -24 -2 33 -5 20 -55 -47 -15 -31 -28 22 -28 23 -15 -2 -40 -1 -19 -5 16 -16
-10 5 -29 -32 23 1 -41 4 -45 4 10 -65 25 11 27 -26 -11 47 -7 -15 5 55 -16 49 13 -27 53 5 14 46 -30 22 3 -8 11 -11 1 -23 29 53 -17 -17 12 26 -3 -12 -18 15 10 -7 28 -74 -42 -34 9 2 52 -28 26 3 -28 1 -12 -36
-60 -24 55 10 -38 12 -11 50 -1 31 4 -4 23 20 32 -29 -34 26 -3 3 -2 -1 1 70 -34 -6 -20 -7 62 22 -25 -29 -23 57 44 20 -15 -3 -12 -1 82 -7 -38 8 -12 20 19 6 30 9 68 -3 26 -63 -44 29 -32 -23 -21 -21 30 -14 -6 11
65 7 -33 -27 37 20 4 16 22 24 40 -44 -28 57 16 -12 34 21 38 -6 -25 7 -5 -29 -2 -54 76 4 -54 -53 -11 0 20 -40 -16 -87 -25 69 34 41 -15 -12 -18 -58 -20 37 5 14 -20 26 -40 49 -77 -20 48 7 61 0 -19 35 -1 50 0 11
4 16 52 -21 2 -21 17 24 -26 -29 45 -42 36 73 5 -21 -13 33 31 67 -32 29 -29 -16 -18 22 33 -21 27 -28 0 0 -8 15 0 46 -37 20 7 39 20 -34 -48 12 14 5 -22 18 -74 -48 -36 -26 5 -20 16 22 -28 18 12 -29 -11 -39 -2 5
0 34 27 -39 56 31 38 54 9 15 44 -10 -19 13 -29 -38 -10 10 16 41 -34 3 -16 -28 -48 27 49 16 9 12 35 -7 -3 17 -1 41 -17 -28 31 24 2 -20 -28 19 0 -58 -4 -20 -2 -61 21 6 20 -13 26 36 -20 3 11 -19 55 -19 -11 -4
-35 -47 -10 9 8 -52 14 29 -15 -11 -53 11 35 40 3 -8 -6 -2 -28 3 6 -30 5 -44 -74 -48 -35 12 -19 97 6 -14 16 34 -40 30 -1 -14 4 24 44 35 41 39 15 0 -24 -38 36 63 29 6 31 -30 -40 16 -16 11 65 53 7 -18 -25 34
11 -23 -42 -34 12 51 -69 -4 -33 23 -22 -2 -43 22 -32 2 5 24 10 11 56 15 14 34 4 -13 -9 76 -63 48 31 -6 -46 44 59 21 6 -15 25 3 -18 -13 -18 -10 17 -7 36 5 17 -49 32 -24 -69 22 -10 22 31 -11 -27 43 34 25 -31 -51
-4 8 -32 7 -15 -24 12 15 34 26 21 8 9 -3 20 85 21 16 -27 -22 -32 -17 3 -43 -18 37 -3 -48 -65 -59 -26 6 30 -78 -27 -37 23 58 -5 53 -11 -13 30 2 45 15 12 7 -11 -9 -49 1 -44 62 44 -17 57 -4 -22 23 -23 5 31 21
-37 -31 10 30 -4 -53 -42 -5 17 23 -56 0 -7 -23 -2 -34 -37 3 5 72 -21 -44 4 -24 -20 -30 -10 3 56 44 -2 14 20 62 3 20 16 54 52 16 9 -3 -1 5 -35 -30 22 -40 28 -2 -48 -26 32 20 -32 10 3 -9 -39 -12 4 4 -14 15
-62 -15 5 -5 -27 -1 -37 47 51 19 -8 -18 49 8 -31 6 -4 -14 -11 15 -47 3 9 -6 2 48 -40 -7 57 -28 39 -11 10 -10 6 -21 19 30 52 3 -38 -17 -12 17 -64 20 -42 -25 32 35 -66 -70 -20 9 45 29 29 16 -18 70 -5 1 -26 -19
-16 -63 33 15 21 -26 57 -18 30 -4 -24 20 4 24 -19 -1 -2 -22 -18 21 25 -56 1 -10 -75 31 -4 1 -67 -38 38 20 7 35 34 34 -24 -28 -2 -3 -35 -12 -47 45 -69 11 -35 -30 -46 77 30 34 42 30 70 56 3 -20 2 30 23 9 14 -15
-10 5 -20 71 -23 13 3 56 -6 3 -60 24 24 26 1 -17 9 -25 -35 -11 30 2 -17 -13 70 62 -30 -28 -14 17 -4 -22 -6 16 -73 -12 -23 27 12 20 -42 -49 21 29 -37 76 -30 -34 48 93 5 29 39 -2 -2 33 -7 -3 19 13 48 -54 3 1
-27 -2 -37 45 -16 90 35 -26 35 -4 -4 8 -34 9 20 14 -24 28 21 81 28 36 31 -31 -5 -12 45 59 24 -26 17 7 -72 5 -16 49 -43 53 16 -37 15 14 -28 -69 22 -8 1 8 -16 9 -1 35 1 -18 42 -11 -1 29 -27 46 -25 19 -1 18
3 -33 -51 39 -22 35 -13 40 -46 21 -29 -53 -72 13 -26 -14 -67 -17 -43 -20 52 -11 -21 52 -23 -56 -29 2 -41 20 -11 -10 -29 -21 -15 40 2 22 -22 37 -46 19 7 1 33 57 20 19 77 -59 62 -10 -62 -35 -27 -41 -11 -10 20 35 40 6 -3 -26
-4 -6 -54 85 -50 9 -33 43 -45 -6 -97 -15 -47 -1 -9 -18 21 12 -37 -5 -10 -43 66 -30 11 29 -31 17 1 48 -12 -15 -14 58 -60 22 20 30 26 29 -7 9 41 -21 12 -63 5 -4 72 -22 -15 7 -2 20 4 -30 6 33 15 9 -12 -47 -33 -13
9 -52 -53 58 37 -49 27 -1 0 33 -54 -32 -26 101 0 25 -76 -27 25 52 1 10 -84 30 38 23 16 -62 -94 16 -27 -69 -23 -19 -29 4 -23 -13 -36 29 -17 28 -4 54 18 31 61 13 70 -39 41 20 16 -55 -19 42 -40 32 44 43 53 62 -7 -8
23 11 -40 39 -5 24 5 29 2 11 33 -35 20 16 22 36 -5 -27 -33 -10 -33 -33 25 16 28 -33 29 -25 -31 -8 3 -5 -1 43 5 -38 47 -42 1 -29 -17 26 29 -9 45 -5 -31 14 18 -16 22 -56 -15 -1 27 2 21 27 56 45 46 -80 -42 -11
26 -7 -5 -13 -21 73 -86 22 -9 28 -63 -56 -15 91 -31 -44 -17 8 28 -5 13 27 40 10 4 -39 -48 -19 -14 -39 66 -8 -70 45 15 -37 -15 8 92 -35 12 -41 -81 -33 -24 19 -42 60 37 -9 39 20 -4 -93 73 17 -7 -5 54 4 32 30 -27 -13
-13 -17 -25 -1 -14 17 -12 9 4 -63 22 44 2 16 -47 5 -25 2 19 -55 18 8 17 -21 -43 -74 19 30 -27 -11 -1 -32 -12 -22 20 13 -33 28 64 24 -14 12 -54 0 -2 32 37 40 3 -40 24 29 -61 22 81 -21 24 -47 13 32 21 24 -9 -29
-23 -5 46 7 18 -37 5 52 -13 7 -45 -26 55 105 13 -16 -11 -24 34 -2 22 42 -8 17 16 13 -26 -35 -14 -39 -18 -15 -22 13 -31 90 -15 -48 33 24 57 -30 -50 -1 -20 37 -40 24 -2 25 1 -67 -17 -56 -56 -4 -20 37 15 -63 -6 -19 22 24
35 -6 -31 -38 33 13 17 -74 37 53 33 -11 -29 31 19 23 42 -19 -29 1 4 -11 45 -27 14 -35 86 -22 -30 -23 -7 -36 35 -19 -53 -87 -6 40 -10 21 10 26 31 57 1 -50 -25 8 3 -3 -28 97 53 34 18 -38 20 -41 35 1 5 -18 -26 -31
-85 2 -21 11 -29 2 -26 7 66 -6 46 -2 11 -23 -16 -11 2 18 -6 24 -6 -1 34 37 -55 37 49 28 -34 -31 28 17 -7 48 8 -14 48 -2 -19 -2 -7 -42 -2 -42 -8 3 -18 -31 -12 51 -13 -52 -14 24 -29 2 23 22 13 6 -11 -11 -35 -36
-81 49 56 -25 -21 -6 -1 -10 2 -39 -19 -9 -10 52 0 3 -9 9 -3 37 5 13 15 -12 -24 2 -48 -18 -7 25 -19 6 33 46 1 -24 -8 38 -11 -23 -12 35 12 20 -11 -54 -19 41 39 -17 30 -57 -20 -26 -5 -69 12 35 16 -41 20 -23 8 66
3 20 24 -3 13 -15 2 22 -34 25 6 13 -61 25 -47 -45 -43 4 -31 13 -45 5 -6 11 22 30 61 -15 -16 -12 -11 16 -6 -8 -12 31 -30 -3 56 54 5 42 -48 6 4 -11 -14 -62 -2 -19 7 11 -59 -15 -9 10 9 -6 11 -46 -4 -43 18 -3
-21 -16 -14 36 15 -6 9 68 34 9 18 -25 36 25 14 21 -31 37 -6 -27 20 -63 -12 2 -17 37 26 -18 9 -20 9 1 -3 29 -32 -77 2 -25 33 4 -7 -42 -35 28 -10 32 -36 7 31 59 -27 -58 -46 -23 -41 -24 -5 11 -1 17 42 -2 6 22
16 -20 -23 -1 6 20 -35 3 2 -5 -33 81 -15 76 -12 -29 -79 -21 -28 30 -8 46 -17 59 49 -3 39 -17 -38 38 33 -61 -28 23 31 11 -27 7 78 38 67 3 -83 -33 22 14 47 54 33 12 9 14 27 -57 40 20 3 -8 13 -39 5 20 -37 13
-42 -4 50 14 59 -31 1 6 0 -19 -73 26 6 -45 37 37 20 -62 11 26 -58 -4 33 -13 -42 41 -38 9 32 17 37 32 24 41 -4 58 -6 -22 -31 -46 73 -16 6 -18 18 -3 -64 20 -9 27 22 34 9 8 -19 30 -2 25 12 -36 -54 -23 56 -4
-9 -4 -70 -18 -23 62 -45 46 44 -29 -57 3 36 5 -29 5 -18 54 -24 36 -11 -16 76 -9 17 7 38 13 43 -12 10 9 -7 44 2 7 25 -34 -1 -33 -21 -27 -21 -17 -9 14 -19 15 46 0 -15 -65 -26 11 17 41 51 14 -50 38 -26 -32 10 -4
-13 -58 13 50 20 34 -25 86 -65 1 0 -74 -76 25 8 -26 -23 11 -9 -32 42 10 3 17 -38 -100 24 19 -44 22 18 -15 5 18 -36 12 32 10 -19 58 -52 5 14 52 37 40 -53 -25 69 -57 26 -42 -56 9 -32 -35 29 59 76 11 42 4 10 -7
-51 -3 16 -32 28 14 7 -8 6 -32 55 -27 20 18 12 -6 -30 17 -13 7 21 41 4 23 48 -7 -1 18 6 -9 -26 -6 -33 -16 -13 63 -34 -43 5 42 50 3 -32 -8 14 -27 23 7 -63 -16 23 -27 11 11 -13 5 -23 12 37 -38 9 -3 4 43
35 32 -9 -2 -44 -14 11 -1 23 -12 -95 -44 -6 102 14 -25 8 39 26 5 -15 -9 9 64 31 -11 -8 -71 -30 -66 0 -14 -63 72 -49 -5 -15 -22 42 9 -12 -57 11 -12 -36 45 -41 6 39 -7 -14 -77 -18 -50 42 72 38 -32 25 -16 36 13 -27 -12
11 -22 -23 -1 -42 78 -8 36 39 10 32 -28 0 7 -10 5 -27 9 29 -55 6 -37 77 -1 24 29 23 37 -16 7 14 -7 -28 -34 50 24 -25 8 57 -3 11 13 -39 -28 56 -12 25 31 -17 40 -13 17 -31 28 15 -38 37 -42 -19 31 20 -3 19 -13
9 6 -41 -30 34 24 20 40 6 31 10 20 -21 14 -51 15 -14 -19 -13 -25 -19 37 -26 -5 17 -7 31 26 21 3 13 -13 -64 -14 -15 28 -34 0 3 12 7 12 -24 -32 20 38 -11 26 10 45 66 27 33 -34 11 13 9 15 -13 -19 -66 19 -15 1
-47 -27 71 -10 -5 -28 -20 24 30 -10 49 17 -4 -25 7 -31 22 22 24 47 10 13 34 -5 -18 -12 -31 39 66 -6 1 -3 -6 73 54 25 8 4 -15 7 44 -15 -48 55 -8 -31 24 -23 35 -26 -28 -67 40 -41 4 -14 -9 -13 -40 -20 -29 -4 -9 35
-54 -9 -84 -64 -16 52 -26 -14 -19 -20 0 51 37 -49 51 21 31 6 -30 -48 25 34 -15 7 3 24 25 -36 -15 30 -31 22 -33 -27 -6 -17 -20 67 -2 -8 18 -5 -14 17 -48 -68 1 -24 37 50 -10 38 -17 39 27 21 -2 25 -77 26 -8 -8 32 -11
-67 13 -4 -3 6 32 20 6 56 -27 -23 -10 21 56 11 -4 34 34 -19 20 -18 27 -22 0 21 17 -10 20 -25 -8 -26 44 25 70 -13 15 12 -20 40 -51 69 -10 -48 -21 -14 9 -2 4 -14 -26 -26 -23 52 -23 -1 -7 -52 33 -3 -62 -20 17 46 20
-63 -26 37 9 -1 -56 -35 29 -9 -38 -17 3 41 36 32 -57 17 10 45 27 21 19 2 6 -7 -26 -43 25 21 69 14 -23 26 75 -18 39 11 -32 -2 24 55 -26 -63 36 28 -6 -17 6 34 -2 2 -10 6 -50 -58 34 -78 44 22 -47 21 39 -28 3
9 -23 21 -13 -21 22 0 -15 0 20 -38 5 -35 14 3 -67 -28 -23 -6 8 55 35 -25 59 14 18 -17 21 13 50 23 -76 -45 -45 75 17 -34 34 -18 -12 2 34 -36 31 -2 -25 29 10 17 -16 84 -52 6 -61 22 5 -34 -9 -49 45 46 25 -11 -32
28 18 9 -54 -16 3 -44 35 -58 -16 -24 26 2 -32 21 -6 11 31 -1 23 -1 35 16 16 -7 -40 -67 -4 35 21 3 17 -2 -2 -6 42 46 15 -8 41 27 22 34 -17 -47 -64 -13 42 -6 -7 4 11 -19 -16 -11 9 -3 -38 -45 -39 -5 25 -9 -29
-10 -29 63 -43 -9 -10 7 46 45 8 -5 -16 -25 -50 -31 -10 -3 -13 -12 10 9 -15 30 -25 -19 -18 6 51 59 -2 44 54 46 -11 -4 -57 25 -2 17 -56 -67 -20 -7 6 -42 12 -18 -31 -36 -4 -44 10 8 22 12 -20 42 29 -32 -33 -103 -38 36 79
-41 3 -41 14 9 71 8 76 60 -1 24 41 -5 22 3 -45 -37 5 -9 59 -23 -27 -28 4 10 -1 33 11 -26 -71 63 -19 -28 49 -9 -20 -22 -32 0 1 6 -13 -75 -66 13 40 15 -15 -1 4 35 40 -9 13 55 22 10 -34 -5 47 35 24 -31 -24
-23 9 -2 30 -39 -6 5 0 5 -55 -7 -90 41 52 -16 -13 -34 98 -30 -30 -19 6 -28 59 0 5 -1 -65 21 -43 5 -33 0 3 -81 -33 21 21 85 47 3 -44 -11 -22 -36 16 10 21 24 20 -18 -51 -28 23 -22 31 13 -19 -12 -26 -9 4 7 0
-4 -23 -26 -20 -30 41 37 -38 -25 -3 16 -31 42 29 -17 27 -12 22 24 4 -43 55 -39 -27 18 -16 20 -10 25 -51 -51 40 -35 -54 -15 -61 -28 35 3 -10 -57 -39 -65 39 38 52 19 86 25 14 -13 -4 -25 -62 16 26 37 13 10 22 -21 15 34 -36
-29 -87 -5 46 56 -49 -37 42 0 26 -45 -92 -33 -8 -31 -27 -46 7 -57 36 63 -37 -34 39 -34 -21 -12 6 -33 -20 11 -30 -12 59 -37 7 -38 -51 -32 20 -31 -27 -7 57 32 32 -39 -19 69 -6 41 -55 -40 -40 -57 34 -14 87 84 21 7 33 -15 -26
-30 -14 3 28 -7 -34 3 21 45 11 -5 -17 -24 7 -21 -4 -51 -8 -7 36 23 -43 30 30 15 29 -18 10 -26 -41 11 68 11 102 -21 55 -18 -14 10 18 -11 -18 1 -12 11 52 -67 8 8 92 46 -8 31 8 -12 -28 -13 0 5 -11 7 -44 -22 6
19 13 -26 10 -59 99 -22 69 -60 14 9 -26 -26 27 -18 -27 -30 64 42 2 14 -17 32 11 -38 -71 14 31 -54 7 -20 28 -31 -11 9 -32 -8 31 84 -30 -93 -22 17 -85 59 21 -1 -4 -17 26 13 -8 -114 38 50 -12 37 -19 55 30 -12 27 2 2
73 6 -19 0 25 39 -37 27 -38 62 26 28 -34 -4 -8 13 3 -5 47 -53 31 47 3 26 3 -14 34 -8 -13 -13 -11 3 -31 -50 22 -9 22 -20 69 -5 -2 -12 -20 9 41 5 23 1 -35 -25 26 33 -39 19 14 -9 -14 -26 -82 18 19 25 -17 21
24 -2 4 -18 -31 11 18 27 45 -9 -63 -72 25 86 -30 -2 21 43 -5 -18 -26 50 5 -1 30 -11 13 -38 -23 -72 25 25 -45 15 -47 -57 20 19 33 36 0 -71 -1 -11 -19 -7 -56 26 29 -21 -32 -70 -24 -4 32 24 30 71 -7 12 -44 -9 -15 26
-53 13 6 -20 78 -22 17 -7 -58 -10 -70 3 -42 -48 -10 25 7 1 -9 -9 13 -8 -10 11 -51 -8 -36 5 56 53 15 40 -19 24 -7 36 10 -36 -14 -22 55 18 0 3 4 -42 -54 28 47 24 11 15 43 -27 -67 30 -6 73 -3 -11 -24 -16 -16 9
8 23 1 5 -41 -61 7 1 2 82 4 37 -9 -40 3 8 -22 -1 39 -39 -30 -10 -13 -19 -3 -28 25 -93 -13 1 -43 -44 20 -28 -16 -65 14 47 25 83 -15 -28 -41 34 15 -32 0 45 -41 8 -15 14 -23 5 -32 18 -4 -33 -14 1 8 -18 -31 -7
36 -27 -75 -13 -16 52 5 81 0 14 27 -51 -23 7 -5 21 -22 57 -20 1 -35 -18 -27 -8 11 -95 56 20 -56 -14 0 78 21 0 -48 -72 -34 47 85 -18 -57 -20 -3 -89 5 60 -11 -25 7 18 -35 34 -94 7 95 4 19 -8 26 55 1 23 14 -32
-23 -24 51 21 12 10 2 -28 65 -57 -5 101 14 -62 -28 48 9 -20 -27 -30 -56 -11 27 15 -8 71 -14 15 44 -18 37 2 -27 -25 54 15 -7 -46 -9 -59 10 34 -20 -5 0 -49 -19 -41 -12 6 -13 53 17 31 14 -29 -12 8 -32 2 -59 -16 64 51
-96 19 24 22 -20 5 59 58 8 -29 -6 -26 -5 122 35 44 -56 50 49 56 -41 21 -13 55 -24 -26 22 -9 -19 -45 9 -31 -15 -23 -37 -2 1 26 -21 32 77 -12 -30 -71 71 24 25 -34 34 9 15 22 17 -18 -13 34 -28 20 -32 47 40 -11 -6 31
7 -12 40 18 13 13 55 21 -11 -56 44 -2 -27 41 4 21 1 31 -12 48 21 5 3 -35 21 9 74 -5 40 2 -21 27 19 2 28 32 -15 7 15 25 9 5 -27 -55 -18 16 1 9 -24 -35 12 2 5 -15 20 43 -17 -4 -24 -28 4 -4 4 5
-10 -11 -55 10 -56 53 -5 -3 -26 -37 -22 51 34 -30 36 19 32 60 -32 62 13 -74 32 -5 59 5 -23 -10 -10 8 -44 45 40 35 -13 34 38 -36 19 23 -4 24 63 16 -47 -71 -1 -9 57 27 2 20 -42 1 -19 -12 -29 18 -23 -24 11 -9 20 -15
-4 -2 -22 -28 13 -29 -46 -8 -57 41 14 -9 -13 10 79 -44 22 -10 -9 -21 37 64 25 23 4 23 7 -63 -26 9 -12 -41 11 35 16 16 14 -24 46 11 -15 -13 -16 23 7 -1 62 4 -23 -13 41 -17 -5 14 9 14 -13 -1 -55 -22 13 14 -52 -28
-28 0 53 42 91 -33 29 -2 36 30 10 15 20 -20 -16 -7 10 -25 13 16 -44 25 40 10 -40 31 -2 -17 44 5 22 48 19 10 65 3 -40 -41 16 -11 40 11 -24 -6 22 9 -71 -10 -8 3 16 13 1 -16 24 8 7 3 -32 2 -36 -2 3 38
-34 -24 19 65 27 -19 1 9 5 11 -15 -60 -4 42 -16 -10 -24 -21 -24 29 29 -16 -37 48 -32 -35 13 -11 -64 31 21 -27 23 37 -32 85 -16 -14 -27 57 7 51 5 8 88 0 -4 1 34 -19 46 17 -25 -24 -42 11 -12 20 87 53 79 52 -29 -51
20 -16 -37 -33 -30 17 -8 15 2 8 -11 -6 -29 31 -43 -54 39 44 25 2 2 -26 -8 -33 26 -39 -29 57 -16 -50 31 -12 -3 -14 22 -37 13 -30 17 -25 5 -14 -18 -34 -27 26 9 83 6 -15 -34 -5 -16 -45 -15 58 55 27 -63 6 6 48 -9 8
-2 2 8 44 -39 26 14 38 14 -5 8 -20 -24 -5 37 10 -1 30 -26 20 -15 -43 37 -35 -27 1 16 -62 -25 24 -19 10 6 -19 0 -52 34 19 54 36 4 -30 16 -40 15 -7 -23 -10 -13 -14 -70 23 -10 42 5 -35 -6 1 35 -20 10 10 -6 7
-57 29 -6 38 -33 4 -10 -46 56 -19 -26 85 17 -56 17 -16 24 4 -28 9 -71 24 -54 -38 -23 73 -28 34 11 8 -31 18 25 26 65 -48 -54 -81 -6 -119 39 28 -26 -13 -11 -40 60 -65 -45 -16 22 0 28 30 60 -4 33 14 -80 -35 -53 -1 59 41
26 -17 -2 0 17 7 35 -3 42 26 22 -15 -37 38 -57 1 -51 10 -3 4 17 -52 31 -13 -12 35 -24 11 -39 -46 10 -16 -50 -48 18 -51 -49 41 32 18 -49 21 -25 -34 1 45 39 16 -18 19 -27 -30 -19 15 -4 -18 28 -2 18 -9 -10 -14 9 43
14 37 -14 8 -20 7 57 -17 13 -33 -91 -22 -34 127 18 24 2 41 6 20 18 38 5 10 39 -28 -13 -29 -47 -67 -4 -45 -25 10 -35 24 -2 21 61 72 -19 -4 13 10 -11 16 -66 29 16 -16 8 -29 -37 -66 51 51 -35 23 53 -32 20 47 -12 -13
15 13 -14 16 -47 -18 -43 5 -50 -20 13 -15 20 -11 52 -26 34 -27 -33 -16 0 -31 28 9 64 -21 -49 -15 18 -9 -15 17 9 66 30 85 5 43 -1 3 16 0 41 16 -37 -32 -47 -4 -1 -7 56 17 -4 -18 39 5 43 -63 -5 6 28 46 -48 -10
-82 -12 -25 55 10 3 64 -15 56 7 -2 -31 1 88 -8 8 11 24 -37 -32 -35 12 30 -2 -51 22 51 -55 -3 -14 -23 15 -33 2 -7 5 -12 -33 -48 -13 -27 -12 -19 -15 5 25 44 34 57 21 19 39 44 -39 16 32 5 22 25 -3 -12 22 35 24
-11 -36 15 46 -59 -16 27 73 5 -33 6 0 -40 5 16 -24 -39 23 -35 35 14 -28 35 -37 7 10 14 4 33 24 -3 4 9 7 -7 -23 -10 -10 75 3 2 17 6 -9 -23 -25 43 34 51 -39 3 60 -13 33 0 -38 -15 -36 36 1 0 5 51 28
18 3 -52 -38 24 38 12 22 0 9 11 11 -63 -10 -23 -17 12 -38 12 -11 -5 20 21 27 18 4 78 -28 -32 24 14 10 -71 22 -8 4 -23 4 -8 -17 28 17 -64 -47 14 -27 -11 0 -2 17 23 46 59 -22 -11 -10 14 6 63 41 -20 6 8 7
-16 30 -27 13 27 -10 74 4 61 -14 -37 -32 17 42 49 37 49 9 3 40 -40 16 -38 -32 10 6 26 -21 -21 -35 -13 75 25 -59 -30 -6 -29 4 8 9 11 -17 23 -52 -17 83 -27 40 -41 -6 15 42 -1 -14 19 38 15 64 -21 -29 -28 -10 9 2
-31 27 -18 -6 -37 37 -26 67 24 -37 -74 -1 -21 12 -33 57 -96 43 -49 67 24 -37 60 51 -31 8 -27 -5 -16 -40 47 -9 -37 23 -31 -20 -19 18 70 -3 -12 22 -43 -1 50 -11 66 -22 44 38 -15 9 -21 5 25 23 -10 36 53 64 3 18 2 -29
30 13 -63 48 14 9 14 -24 8 -2 7 58 8 28 -20 -6 5 4 0 41 -19 26 -11 -46 -35 -17 -21 24 -1 -5 -36 20 -26 26 2 -9 -3 -53 -45 -34 -34 34 3 -50 9 -7 38 17 44 -48 -40 -7 52 -74 -6 44 47 29 21 57 1 15 13 34
17 -26 -12 -4 -6 45 -57 24 14 49 -21 -14 18 8 -23 -2 0 6 5 -70 36 -18 36 0 -2 -42 -4 27 -37 -56 -21 41 -1 -46 -9 3 -7 64 0 8 -49 27 29 -5 -21 18 18 39 -5 -8 -68 35 -35 3 51 -36 60 -48 -23 93 57 49 9 -45
6 -7 -13 49 2 37 -6 34 -25 5 32 -54 -14 -10 13 5 -28 -5 40 -57 1 8 9 11 17 14 26 4 -31 -72 -60 -10 -25 -57 35 -25 -52 65 58 23 12 1 25 -48 15 9 15 -28 -15 36 17 16 -59 67 23 -51 35 -18 -6 15 17 23 11 24
3 -56 -4 -29 9 -11 20 44 19 -25 53 55 -9 15 -1 22 -10 -34 17 41 -54 -28 14 -18 -50 13 1 33 -10 5 14 -29 -44 -19 41 7 44 -24 -22 -21 18 -7 -20 -21 -39 25 35 32 8 8 -17 -5 -18 -8 68 -4 12 15 -51 9 -2 -3 -5 -26
20 -22 -20 18 47 -1 59 -27 38 5 25 -11 -20 11 11 59 41 5 -30 15 -43 47 5 1 2 -12 27 -64 -16 -33 0 29 33 -39 -20 -102 -19 43 41 44 -31 -37 -12 38 -52 56 -46 0 -19 54 -32 71 8 32 18 -6 33 -9 2 23 -20 5 40 8
28 12 -53 6 41 36 59 3 67 57 -43 55 16 44 -18 15 14 -24 60 -11 -20 -41 0 -37 41 28 42 40 4 -28 -21 -14 -29 -89 77 -38 -20 39 25 -23 -15 -26 -45 -5 -5 32 50 -4 -43 4 -59 28 -1 -20 50 -30 58 -13 6 41 -42 -5 25 13
-23 5 39 -7 -14 -24 -1 40 58 14 8 -28 -16 -5 -6 -46 10 24 37 46 -26 40 18 -42 -44 -35 30 31 -4 -48 -41 45 -23 32 0 5 -4 -7 -12 22 21 -5 37 -34 35 14 -9 -7 16 12 -21 11 20 -9 12 4 25 10 23 -19 -20 24 42 65
11 12 9 25 -54 44 -3 30 14 31 90 -16 64 36 0 25 -9 7 32 -30 12 -26 70 -36 -7 -47 42 22 1 13 -22 13 -4 -44 67 -22 -10 -6 -39 7 23 29 -31 2 64 31 41 55 3 -22 -13 -8 -73 -2 55 -3 13 -27 33 40 14 17 -5 -46
-38 -6 -13 26 7 -32 54 17 4 -1 66 71 23 -88 -25 -29 -4 -59 -5 49 48 7 57 -26 -28 30 -23 56 0 6 13 20 18 -15 73 -35 -50 29 -32 8 -37 -1 13 35 33 -8 46 17 -14 -26 14 71 19 1 -26 13 32 -30 -46 16 -14 13 -29 20
30 -38 16 86 31 3 -40 71 -7 56 15 -75 6 -25 -50 -73 -30 -2 -10 -3 9 -22 2 25 -21 -44 32 27 -13 21 17 -13 13 34 17 28 -12 -3 -17 6 -80 36 7 -2 -6 12 -11 -22 70 12 51 40 -32 3 19 3 -20 -47 -14 7 15 20 29 12
-23 -8 11 3 -18 15 -43 12 81 -57 24 111 32 -76 13 17 26 -4 -39 20 -50 18 16 -6 -46 72 -19 16 37 -47 3 36 24 -3 92 -42 -47 -51 -3 -81 -6 -8 -6 -21 -15 -10 30 -34 0 -12 -25 63 56 52 66 -8 30 -40 -101 -40 -69 -11 27 -5
-73 -19 17 12 19 -9 -18 46 43 -28 23 -38 16 32 -25 13 -25 25 32 2 -56 27 43 -16 -56 38 43 3 11 -18 12 35 -38 28 7 66 12 -22 1 52 -8 -27 -5 -32 -16 48 -35 56 -12 -6 37 -36 -16 -9 -40 29 -16 38 -27 -5 -48 -42 17 20
-18 28 24 14 -4 -31 29 48 7 39 -68 7 25 3 33 15 -3 -5 57 8 34 12 -30 40 56 69 2 -10 -1 -49 -30 -6 -12 -20 22 -11 -15 41 55 34 -4 -28 -32 -55 -28 38 20 -41 5 26 27 -11 9 -9 -12 17 -41 -11 -41 8 12 22 -52 -14
-3 -9 9 10 -10 -17 26 14 -1 -1 -16 -49 -32 7 -35 -17 -1 -45 9 2 37 -30 13 -9 8 58 56 24 -18 -61 10 41 -26 46 39 20 -44 -24 -4 24 -7 24 -28 9 -9 31 -51 -57 43 17 6 -13 -12 12 56 -7 36 1 -28 -3 31 0 -9 16
-43 3 56 -54 6 -39 50 16 6 -14 11 -8 44 22 -45 0 -22 8 8 -30 -1 32 17 9 19 8 8 2 46 0 10 21 -18 -3 24 40 -13 -18 -8 10 76 -3 -22 20 -10 13 -34 -3 -64 -40 -4 -77 14 -62 -29 13 17 60 -15 -37 -66 -58 23 61