-30 8 32 19 17 -7 -40 -19 0 9 -11 13 -45 17 -52 -15 18 -13 36 31 1 -11 -23 3 21 0 -23 -16 16 -79 9 -54 -80 22 -1 2 3 -32 19 26 -6 -7 18 42 8 -13 -22 8 7 -3 -2 31 27 31 -16 -3 -13 7 17 -43 22 0 -15 -24 -1 46 22 -8 -11 2 -35 19 -17 -16 6 -23 0 4 -7 10 -33 -47 14 4 1 31 11 -48 -26 -3 -16 -4 -28 18 -40 -49 27 16 16 0 -5 -9 25 39 -20 -36 -48 -3 8 32 12 -14 -13 1 -15 -37 7 -5 -37 20 -19 0 -27 -2 23 -6 15 -6
-14 -59 -4 18 -15 -14 22 -60 75 26 37 -23 39 13 -8 -10 9 -7 12 25 10 -37 38 27 42 23 -97 33 -75 58 11 48 26 -10 -1 14 -45 0 28 56 28 1 12 6 20 23 27 -22 7 -17 -8 20 -4 11 20 17 24 38 33 -13 15 0 8 28 -18 25 12 -10 10 -6 -66 27 54 -8 7 44 23 -10 45 -5 -26 20 -28 -23 20 45 42 34 -19 64 11 36 -49 -24 44 -11 50 -21 -6 -1 -23 34 -26 20 2 -8 13 -9 -2 -5 -22 -23 12 5 60 54 4 -10 6 -11 43 -3 25 -26 0 2 21 -5
-54 21 -21 -25 -18 -31 -18 4 -24 21 -12 6 -5 3 -14 -26 -8 -18 -2 -22 -33 4 -18 -16 -55 13 6 -17 8 -27 0 -15 -1 -6 -18 -19 -4 -48 -27 10 -36 -9 -16 5 -18 3 -22 -21 -27 20 -11 -9 7 -25 20 10 1 16 -25 -4 -26 -8 -4 -53 -20 -12 -15 -8 -49 -13 -6 -41 -41 -10 2 -2 -5 -5 -26 -32 -2 -40 6 3 8 -12 12 4 7 -1 -29 -9 -12 6 2 -16 -1 -12 -15 0 21 16 -4 -28 -43 -27 -4 11 -19 11 -37 6 -3 17 -12 -43 3 -14 -12 8 18 47 -26 -7 -8 10 -26 -25
6 -7 -50 -49 -24 -4 -2 -49 4 -39 -35 -15 21 -3 24 1 -21 -39 -22 26 -8 -9 -8 14 -25 -56 -11 -15 -8 -20 -28 -7 -9 -5 -14 -3 -26 27 -20 -10 -13 -35 -30 15 19 -54 -12 -9 -26 -1 -50 10 -19 -14 29 -25 -52 -28 -14 38 -34 -1 -38 -76 -45 -38 -10 -5 -32 -5 16 19 -24 -19 -13 -31 -18 9 29 -6 -28 -40 -16 45 -13 -52 19 8 -46 -28 -29 -14 6 -15 4 33 -31 -12 -5 -17 22 -15 -1 -18 36 10 -10 -35 12 38 -28 -8 -17 -12 -3 3 -13 1 -5 30 -24 11 14 9 -24 -7 2 9
2 10 -23 -1 -20 3 -18 -13 3 -31 1 18 -19 -5 -1 4 -14 -14 -41 -30 -25 3 -23 -40 -26 7 10 3 -26 -14 -32 -21 -9 -11 -15 -23 -26 -16 -31 7 -45 12 11 -19 9 -16 0 -23 -16 -9 -22 -11 -31 -4 -23 -13 -31 -22 9 -6 -9 10 -22 -6 -5 -11 -1 -23 3 10 -37 -9 20 -6 -20 -8 -23 -23 13 -10 -24 -7 0 -33 8 -23 -6 -4 -1 -31 9 -8 -29 5 -6 -28 -24 -33 -8 -22 2 8 9 -14 2 2 5 -24 -26 8 -32 -12 -6 -14 -25 -22 -9 13 -3 -7 -13 0 -7 2 -25 -24 -26 -7
22 -14 16 -22 -50 -1 10 -14 -11 -23 -26 -14 -26 -18 -34 -10 3 -27 -10 21 -16 -43 -9 0 -4 -32 -15 -41 -23 -15 -3 0 -14 -28 -33 5 -37 -5 -6 -28 -24 -15 -1 -30 4 3 6 -27 -23 -37 -19 -36 -29 7 -24 -28 0 -20 -35 -20 0 -30 -20 -5 11 -10 -17 -21 8 -14 -34 -20 -17 -30 -14 -11 -10 -24 -21 3 -27 10 -28 1 -2 1 -23 -38 -7 -9 -5 -26 -1 -24 -4 -43 -1 -13 -18 -7 -15 -14 -23 -40 -42 -23 -37 -20 -17 -30 -19 -25 -28 1 7 -24 -4 -34 -16 -14 15 2 -23 -12 -2 -19 -4 -15
-9 0 -12 -7 -5 7 -14 5 -15 -12 -4 -19 -13 7 -9 -25 3 3 -12 2 -3 3 11 -12 0 -12 -19 -22 -10 -5 -8 -3 -18 -12 -25 -27 -15 3 -3 -12 -25 -12 -9 2 -4 -12 -7 -20 -1 -3 3 -9 -3 -20 -20 -19 -2 0 -3 -1 -22 -3 -24 -29 -16 6 -2 -23 -1 4 -16 -15 -9 -1 -24 -2 -20 2 5 -16 0 -23 -2 -3 -14 -22 -7 8 -19 -11 -20 -3 -16 2 -5 -25 3 -19 -13 0 -5 -12 -5 4 12 8 0 -4 1 -13 -3 0 -18 11 -9 -13 -12 -11 -7 -14 -15 -27 -29 -4 -11 4 -4 1
-21 15 -14 -33 -14 -31 -8 -13 -5 -25 -9 -6 15 -23 -19 2 -3 -16 -1 -9 -40 -27 -4 15 9 -13 2 -25 -12 -21 -11 3 -37 -31 -19 -15 -21 7 -19 -9 -5 -25 -26 -23 -3 9 -4 7 -1 -17 8 -27 -25 7 -9 -8 -8 -31 -4 -27 -2 -23 -3 5 8 -4 0 -8 5 -20 -21 2 6 -17 -7 -24 -8 -5 23 -9 4 -18 -18 14 -13 -24 -10 -18 -13 -4 -23 -14 16 -29 -32 12 -26 -7 12 -17 -21 -27 -17 -36 -1 -9 5 11 -6 -39 9 22 -25 -31 8 -19 -1 -25 10 -8 -13 -4 -3 -22 2 -35 3 11
-16 5 -4 -14 -8 -7 3 2 12 -15 -10 -6 4 6 2 -14 -4 -29 -1 -2 -23 -10 5 -1 2 -12 -11 -20 -1 -19 -10 4 -5 -15 -17 -8 -15 -17 9 -5 4 2 -12 8 1 6 -1 -10 -1 -7 -3 5 -21 4 4 8 -5 6 -24 -7 -23 11 -13 1 0 8 -19 -17 -13 -16 -7 -18 -1 3 1 -6 -20 -10 1 -11 -12 -19 -11 -11 -12 1 12 -12 5 1 7 -4 -11 -21 -22 1 3 -25 1 -11 -9 2 -11 -19 -9 -12 -10 -16 -21 -3 -6 5 -15 -4 6 -22 -10 -14 -3 -12 -20 -4 -19 -4 -9 -12 -2 -9
-30 -12 -28 -3 -7 -21 10 -17 -1 -28 -18 -24 -39 -30 7 -6 -33 -7 -46 22 2 -20 -39 -30 -4 -22 -7 -17 -12 1 -28 11 -10 2 -14 -19 -24 10 -31 -19 -5 -6 -6 -17 -21 -4 -43 -51 -2 -9 -24 -34 -10 -11 -18 -12 -20 -31 -19 -11 -34 -22 -5 -11 -30 -12 -22 -64 -14 -12 -30 -4 -7 -27 -39 -18 -6 -23 -32 -47 11 -24 -23 -10 -21 -11 -24 -16 -47 22 17 -22 -29 -7 3 8 11 -56 -38 7 16 7 -14 11 -4 -45 -29 5 -15 -7 5 -21 -9 15 -26 7 -40 -40 -19 -8 -10 -6 0 24 -19 -3 -5 -45
-18 -13 3 -6 -21 12 -5 -2 -8 0 -14 -10 -5 -18 -13 -2 -11 -12 6 -21 -2 0 -10 -1 -2 0 -16 -6 -16 2 -3 -2 -26 -4 -21 -1 -26 0 -11 10 2 -6 -1 -8 -16 -13 -17 -18 2 -7 -12 -25 -2 -21 -17 -14 7 0 -2 1 -17 -17 -7 11 4 -13 -5 7 14 2 -14 -3 -13 -4 -10 5 -13 9 -19 -11 -12 -21 2 -3 -8 -28 -19 -15 -13 -6 -23 -16 3 -1 -26 -13 2 -5 -7 -1 -13 6 -18 -19 8 -19 2 -17 -21 -15 -17 -1 -22 -13 1 -3 -12 1 2 0 -5 -8 -17 -14 1 16 -3 -10
-15 -34 6 -37 16 62 2 -27 24 -6 28 -42 12 -25 -62 15 -37 9 4 17 -7 -15 -23 -47 21 -26 -4 -49 -9 6 -27 15 2 7 18 -12 -7 -32 36 -65 5 15 18 -24 18 5 -37 -34 -12 -29 26 -32 -15 -20 -31 12 -7 10 23 36 -38 51 19 23 -36 -11 14 -10 -13 38 -20 18 -12 -34 17 10 -4 -36 -25 -22 18 11 7 38 -43 -2 -37 -11 10 48 20 -31 37 -30 -41 -40 20 -5 -51 -11 -18 19 18 -11 -61 8 -9 -21 -2 5 10 -3 7 3 0 4 -29 -19 -15 7 -20 -29 28 -53 5 21 -8 -9
-19 -25 -20 -27 0 -6 -13 -8 -11 -23 3 -13 3 -31 6 -29 -13 -10 -40 -6 -6 -2 -35 -38 -21 19 1 0 -9 -31 -32 -1 -15 -18 -45 12 -18 -13 13 7 -46 -13 7 -6 -48 -9 -2 17 -5 -3 3 -10 13 -10 -23 -16 -28 -21 -14 -34 -50 -6 -30 7 -25 -12 -8 -3 17 -37 -8 -12 -24 -7 3 -21 -24 5 -13 -4 9 -32 -19 -22 -20 -12 -53 -18 12 -15 -4 -9 0 -17 -24 -5 8 -2 -25 -16 0 -20 -20 -11 -6 17 -28 -18 -34 -29 6 -1 18 -18 -13 8 2 -20 -7 -5 -11 -33 8 3 8 -18 -9 8
-22 -35 -39 28 21 6 -48 29 7 -7 -30 0 -9 0 4 30 -10 3 -11 -20 -24 37 -13 19 -15 18 -23 -6 -20 -53 -47 4 -90 15 -4 4 -1 -51 -63 -15 34 12 -68 -10 50 -4 -52 -3 17 7 26 5 -39 -25 54 -16 -38 35 -1 23 16 1 21 34 -18 -11 1 9 -21 -14 -7 10 34 4 24 -31 -45 -10 -11 -19 -26 31 6 -24 14 -5 -27 59 11 -20 38 -1 -6 3 -32 -25 -47 12 2 35 -6 20 -3 -35 -33 -51 12 40 -9 25 -14 -18 11 -14 -16 -26 7 -20 3 -36 9 48 16 -11 -2 -22 19 10
-17 -11 1 28 -57 6 -29 16 25 11 5 15 -24 -11 -35 -27 25 25 18 16 4 6 -37 39 -16 6 20 12 27 -23 -5 -29 -34 -16 24 37 11 -3 -13 11 21 30 49 39 30 14 -38 -1 16 8 -26 -6 24 28 12 17 -7 -73 -16 -6 6 -54 -32 6 -4 48 41 -14 12 -27 -6 35 -12 25 -2 -6 20 39 9 12 11 -46 4 2 15 28 -29 3 13 -16 -30 10 26 2 -59 -9 -9 5 11 13 -20 -7 7 -10 4 -8 7 -2 17 28 2 -18 14 31 -10 -11 11 -35 -80 26 7 -3 -25 -4 -13 41 -1 17
-47 -14 -18 -17 -10 14 12 -29 -12 -9 -65 -4 -82 29 15 -52 1 -77 -18 27 -10 -3 41 -24 -18 -38 -12 2 -2 45 15 10 42 -7 -16 -8 -3 37 13 -2 -25 0 4 3 -37 -49 35 1 -24 -6 -47 37 17 -55 -15 -40 -31 -27 -5 -17 3 -48 1 -31 25 -5 7 -9 -45 -32 -35 -14 -31 5 26 3 8 -12 -20 -2 -16 -38 -2 18 -3 27 9 -33 -22 -1 -38 3 -16 19 13 -38 -47 -14 -6 -40 7 -44 46 18 5 27 -12 9 6 19 14 6 -50 30 20 20 -19 20 19 46 -10 31 23 -23 -32 -33 3 -16
31 -6 21 -32 -24 -84 26 22 -24 -2 -7 -5 4 14 33 32 34 -59 2 7 11 -10 -4 13 14 -38 18 -11 19 53 13 23 -10 -7 -10 -18 -44 -5 -46 -10 40 2 -10 -3 -6 -17 11 -44 -39 29 9 10 24 -37 22 7 15 -30 19 -40 -32 -40 12 -33 0 -4 3 -12 -15 -11 24 -18 -22 -4 -2 25 -15 -11 22 -4 17 2 3 -36 -4 -4 11 -46 11 10 32 28 -2 23 28 19 -75 -16 33 15 1 -17 1 -16 17 20 -2 26 -31 -9 35 21 8 35 0 -8 24 8 24 18 5 18 -19 27 -35 2 33 -32
14 22 32 -53 -16 16 -16 -9 7 -52 -29 -1 -32 57 1 -15 10 5 -12 20 28 -13 7 -61 -19 -10 -26 -31 -39 0 6 1 -54 -15 -23 0 -53 -38 -22 15 -19 -7 -8 23 -48 13 -28 27 -27 -7 -41 2 -6 33 -55 -34 -44 -2 -21 -9 -29 -17 -11 -29 -59 -9 9 -26 10 -60 1 4 52 -18 -46 -19 11 39 10 14 -23 -54 -1 50 -3 -41 1 -15 -14 -42 5 -17 -3 -59 -40 24 -15 -31 -17 -43 10 -9 -34 -25 22 -38 0 -23 -44 -10 28 -17 -16 11 -15 -72 13 -44 15 -12 -26 0 -49 -7 -2 -48 -39 19
-7 -44 22 14 -24 -75 -7 -11 -45 4 -56 21 -55 -35 -14 -4 20 -49 -19 0 19 1 6 -16 29 -5 -21 -49 5 -2 6 -35 -50 -13 14 -43 33 -19 2 1 18 -42 -5 -22 -28 4 -14 -29 -3 -14 16 29 13 21 14 9 -33 12 -8 -25 5 19 -6 -43 11 -22 -13 21 -17 43 -24 -12 -37 -3 -9 -48 -12 -4 12 -49 -43 -8 35 14 -3 4 1 -15 -14 -58 14 4 -11 39 -18 -26 -53 3 16 21 -15 -38 39 -4 -83 7 -2 17 -40 -5 18 33 -42 -25 20 7 20 36 -23 -21 -49 11 5 -30 -22 37 10 -38
-47 -9 -18 1 23 -45 -7 -9 10 24 41 -18 54 -45 -90 19 13 17 -7 -5 -47 10 1 12 -5 20 4 -10 24 -38 -1 -28 -17 -1 -13 14 7 -101 -54 8 -9 -13 -27 -27 2 14 -32 24 1 4 17 9 -36 -32 -8 -23 17 16 -23 43 -4 14 -43 18 19 -20 8 -30 -32 31 -40 -24 9 -9 23 -3 -15 -6 3 -16 -20 16 -19 -48 37 19 36 -5 -11 -18 15 12 -26 13 -52 -49 48 20 -20 25 -25 23 -28 2 -30 -53 32 -35 13 -43 -48 6 34 -2 -42 -94 9 12 1 -13 -18 -72 -5 -41 4 33 -59 12
19 -91 -1 -11 29 14 -41 -2 8 -67 12 -7 17 3 17 16 5 -15 -8 -43 -18 26 -16 31 -21 10 2 -14 5 -6 -32 5 -42 10 35 -19 5 -35 -49 -21 3 -17 -7 -13 38 -15 -29 -51 -11 -8 31 -39 -14 -19 -68 -48 -19 11 9 -55 28 18 -30 0 8 32 -13 -6 -1 9 -16 -9 -11 -19 5 -30 -57 -9 -23 -20 10 18 32 -71 -38 -31 -37 -52 -22 12 22 -87 -9 -10 -44 -30 -15 -15 8 13 8 -29 13 -33 -12 -9 -57 -9 14 8 -28 -28 -9 -17 -29 -29 -2 -55 -68 -16 -24 -17 4 -65 5 -40 -31 -21
-6 42 -16 -14 -33 -8 -13 25 37 -27 8 -17 19 -24 12 -26 -17 14 27 -44 -2 16 -9 -2 -7 24 16 29 7 -103 -24 12 11 -23 -28 26 -5 12 6 2 -23 -31 5 -7 -5 28 -31 0 28 20 -32 -72 37 6 18 -3 -66 -7 3 5 6 -25 -2 -38 -62 7 49 -16 13 -3 16 2 -7 -2 -15 12 5 28 -15 -9 -15 -6 36 30 -10 -8 -45 30 16 18 -6 -25 20 -27 -38 11 25 -23 2 -9 24 26 -13 -11 46 -9 -26 22 -33 4 5 -61 3 -11 -19 7 0 -50 1 13 14 10 -24 16 -36 -55 -40 17
19 33 14 10 22 19 -9 -15 3 -4 -37 12 1 8 43 -19 1 -9 24 12 6 -7 31 18 14 11 5 -8 -10 24 -18 28 19 -22 -6 -26 -9 5 13 6 -9 -21 25 5 -22 -25 22 12 -5 -31 -12 4 2 -7 26 -2 -28 -13 -36 29 -12 49 -14 6 -14 6 -44 2 24 35 6 -11 -4 -13 39 -13 -20 14 -15 -7 11 -39 -26 34 0 12 23 17 13 -7 -11 -5 -16 11 44 45 4 6 -9 -8 -5 6 26 15 10 -18 11 -19 -26 -1 -22 -16 -1 -3 -1 14 11 -2 20 -4 4 42 26 42 -8 9 18 4
-1 21 53 42 -10 -26 1 16 11 -25 -4 35 8 12 -43 35 27 -20 -5 -4 63 -44 -10 10 13 -37 -18 -19 16 10 0 15 -14 9 30 -14 20 6 -33 22 23 -30 -15 19 0 -38 -14 1 17 -29 11 -5 20 21 -2 17 10 -2 30 -40 46 -6 14 -33 22 16 23 19 13 -13 -49 39 -47 -4 -19 7 -14 0 5 13 -35 -21 16 -39 -22 -18 3 -61 -12 -14 21 -60 -24 -7 -7 -41 -39 0 28 25 -27 -65 41 -6 -11 -4 -50 28 -42 26 -22 -43 -24 -12 45 2 54 -40 -25 -14 25 -60 15 -38 -19 -2 -8 -11
-36 -36 -9 24 -24 -28 5 31 20 33 1 -6 -25 -30 -47 -3 -10 45 -2 11 -58 21 -48 -8 -11 26 13 -51 -13 -41 26 -53 -82 -69 -12 -45 49 3 -37 1 22 13 -41 15 5 -1 -48 -26 -44 49 -31 12 19 20 35 47 -16 -20 35 -40 29 -38 -58 -43 23 40 19 12 33 -25 -18 -9 1 -20 8 -67 -10 -30 -16 -30 18 4 11 -5 -36 47 6 -20 30 -64 -22 27 27 24 -44 -25 -34 -6 51 12 -35 13 7 29 -52 -15 23 27 -5 0 -30 -11 -35 2 -17 -37 -1 28 -32 -20 -31 43 19 -21 1 14 20 -21
1 23 -10 -59 42 47 -5 30 -30 5 36 -26 33 10 -53 49 -21 -1 0 -37 11 -23 -7 -6 -3 -5 -10 28 5 35 -38 -20 -7 23 -36 4 -11 9 -42 -29 -5 6 -27 10 15 18 -36 -5 5 16 33 -31 19 -2 -92 -23 21 6 -5 -6 -53 41 18 31 -37 -19 12 -25 -2 44 -12 3 38 8 16 11 9 63 -15 7 50 12 22 9 -25 14 24 -30 -43 64 -2 31 -4 -6 57 -2 17 -37 -30 35 -36 7 13 -49 2 -17 34 -18 -25 -18 15 -31 -5 -38 -21 -20 15 -27 -18 -22 -10 3 22 2 -40 -14 -43 1
-4 6 12 -8 5 -25 -32 -20 -25 -31 -1 -21 -18 -18 -26 -1 8 -52 28 -28 -18 0 17 -22 -15 -12 -26 -15 -4 -37 -19 -24 -22 5 9 4 9 -23 -25 -18 2 -28 -19 -20 -32 9 -1 -5 -20 -11 10 -15 -24 -13 -21 18 -4 -7 -37 7 -24 -2 -32 6 -18 -28 -22 11 -7 1 3 5 -22 -9 28 -13 -4 -7 -47 -37 -19 9 -10 -20 23 -31 -6 -14 12 18 -14 17 -16 -4 -22 -16 3 10 -20 9 -52 11 -4 -38 -52 3 8 5 -1 -42 -11 -36 17 -9 -13 -19 -28 -8 -40 -31 -29 -14 -15 -5 -29 22 -5 -17
45 43 41 -12 -90 3 -38 14 4 -48 -12 0 -8 -53 5 22 8 -40 20 14 10 -55 -15 -33 20 21 -44 -3 15 -18 -7 -60 -39 0 13 -10 -34 1 -26 10 26 -36 8 15 -7 -7 -6 -45 0 -28 3 18 14 62 -2 -27 -59 -8 14 -33 4 -59 -4 -40 -45 20 13 -17 1 -13 10 6 20 -2 -127 -16 -14 23 -7 5 -45 18 13 -7 -48 -30 -63 5 -17 -72 -11 -32 5 -6 9 41 -18 11 12 -4 -2 -44 15 12 50 -6 -29 3 15 21 -38 15 -49 -12 -10 -28 54 12 14 -2 -11 0 -5 41 -17 -9 8 -34
0 -5 -34 -20 -19 0 -9 -17 -3 -29 -19 -5 5 -12 -25 -23 -8 -1 -14 -29 -3 -9 13 -22 -2 -6 -43 -31 -4 -26 -24 -12 -5 4 -7 -12 -4 11 10 -2 2 2 20 4 4 -14 -2 -28 12 -26 -17 -7 -3 -23 -19 15 -27 16 1 3 -11 -13 -22 3 -28 10 -11 -8 4 -33 -13 -18 -11 4 -2 -28 15 -28 -5 -19 -21 0 -5 10 -27 -8 5 6 -13 13 5 -19 -2 -8 -25 -14 6 -28 -14 -22 -26 7 -29 -18 -1 -4 -2 -13 -33 16 -19 -25 -24 5 -25 4 -3 -8 -39 11 -14 -12 4 -38 -25 -27 -16 -12
15 14 -25 9 14 -11 1 43 -14 16 -47 -13 -27 -17 -13 8 14 16 18 -20 -51 3 1 12 -17 -22 0 -35 3 31 -42 25 -6 -28 -19 15 -5 -7 -50 3 4 21 -59 11 -18 5 -27 -45 -4 31 2 -36 35 -3 -3 12 7 8 64 15 -1 16 7 7 -28 -3 -12 10 24 12 16 14 35 -27 36 -9 -11 -3 12 -32 32 -2 27 13 -14 7 -20 22 18 26 4 -10 29 20 0 8 -42 9 30 13 -10 30 5 -1 -39 10 36 -2 -12 5 -3 -7 -41 0 -6 -21 -19 -29 22 -13 -3 16 2 9 3 24 13 -39
-18 3 -33 -29 -9 -60 -20 -19 8 14 6 21 -29 -13 15 -41 -34 -23 -13 -25 -42 2 -40 -47 3 -26 19 -4 16 -18 -7 -16 -3 -6 29 -8 10 -24 5 -21 -69 1 27 1 -37 -42 -25 -14 6 16 -1 -7 -4 -29 -20 -30 0 -18 -10 -31 4 -8 5 -15 -4 -24 40 -21 3 -11 31 -28 15 8 -11 -34 9 -21 9 35 17 -59 10 -29 -3 1 -36 -63 -17 -37 -33 17 16 -8 -15 17 9 0 33 -17 -19 -12 -33 26 -8 -19 37 -1 -41 -20 -10 33 -34 3 5 -22 -14 -43 -39 -27 -28 -18 -17 17 -21 6 -14 7
-30 -12 -7 -60 -29 -51 17 0 -9 1 -67 -16 -38 34 22 -20 -18 -80 -36 -17 29 -47 26 -93 -19 -22 -32 -29 34 36 20 39 36 -2 -21 -24 8 30 7 -10 -72 -28 -3 -48 -59 -40 34 16 -23 -53 2 -12 -41 -53 -80 -50 8 -27 -46 -46 -27 -9 43 -29 -9 -69 -38 -11 -40 -32 -18 -34 -36 7 -42 -19 -6 -56 -34 -4 -24 -50 -28 4 -13 -40 22 -26 -17 17 -23 -55 -21 2 22 -43 16 -13 -48 -32 -26 -43 43 -2 -8 18 -31 -17 1 -25 -23 14 -87 18 5 5 -28 -11 26 31 9 1 2 0 -58 -31 -26 -49
1 24 -4 -11 -23 6 -34 -13 -35 14 -55 -15 -49 3 -20 -37 14 -16 14 9 -37 13 -7 -7 6 20 24 -1 14 -29 11 -20 -42 -10 10 -16 17 0 21 17 -6 0 5 -11 -32 -4 -1 6 9 30 -9 6 14 -8 11 -20 -16 -35 -4 4 -16 3 11 -9 13 3 3 18 -19 -31 -4 5 7 -1 0 -14 -6 -9 23 0 -23 -46 4 50 -5 1 15 -25 -27 -27 -40 26 10 13 -11 27 17 8 19 -33 -21 -25 11 19 -42 -40 15 -6 12 8 28 20 -37 30 -26 6 18 31 -56 11 -40 44 -72 11 1 10 17 -2
-38 -9 -26 -13 -30 -8 -34 -10 -33 -47 -67 -15 -7 -26 -48 -44 -49 29 -51 -25 -32 -5 -5 7 -41 -21 24 -62 25 -13 -25 -6 -46 -10 10 -60 18 -13 -20 10 -3 -9 -35 -5 -20 -71 -28 -10 -32 41 -5 -62 16 2 -19 -62 -51 0 -19 -10 1 0 -24 -66 -21 16 -59 6 -46 -20 15 -17 4 -47 -44 -26 -32 -66 -28 -17 17 -42 25 11 -9 -11 -9 27 -29 -42 -30 -7 25 -33 -25 3 -28 -21 -18 -48 -11 38 -37 -19 -5 1 34 -67 -22 -32 -37 -26 -24 2 -58 3 -21 -54 -10 -19 -18 37 -21 -12 -34 -35 15 -81
17 12 7 2 -41 16 -45 8 -22 -28 1 -5 -43 -24 -56 -10 -5 -5 6 -9 -19 6 -29 7 -8 19 -23 -20 -23 -51 -49 -5 -24 -24 -29 -31 11 -55 5 20 4 -10 -24 6 -28 -20 -37 -29 -34 -11 -18 6 -4 34 -16 17 -24 -22 19 -20 2 -31 -24 -47 4 4 -5 -15 46 3 -1 -6 -6 -17 -34 -50 -21 -1 13 -41 -28 -3 -23 23 4 -34 0 -6 5 -27 -45 -6 -27 -7 -22 10 1 -12 10 -32 -28 -23 -10 15 -34 7 -36 -39 1 -15 -2 -30 8 6 -34 -27 12 13 -35 -25 -33 -4 1 -3 1 -45 -19 -12
-36 -18 -2 -24 -11 -24 -13 16 -2 2 -6 20 -3 -7 -32 1 -11 9 10 -7 -15 -35 -5 -17 2 10 10 4 -26 4 -39 -24 0 -23 -28 -1 -3 -7 -10 -18 -38 -35 6 -6 -12 -26 -28 -5 24 -3 -20 -3 -4 23 -1 -32 -20 -24 -29 0 -14 23 -9 -6 -9 -20 -33 4 -27 -7 -11 -25 -13 -9 -23 -19 -25 -7 -37 -34 6 10 1 -19 -24 3 -13 6 -12 8 7 -7 -23 -21 11 -8 -25 9 -7 -2 18 -5 0 -24 -5 16 7 -33 -23 0 -28 -8 -21 -23 -31 -2 4 2 5 -18 -6 -13 -25 3 15 -16 -33 -7
24 3 37 -6 23 -15 6 17 24 3 44 -32 36 10 -18 23 43 7 14 -5 28 -17 6 -11 -24 16 -18 5 -12 8 -28 -16 -33 2 4 -15 -18 -19 11 9 41 29 20 13 17 39 -13 12 -12 -5 26 6 3 -12 0 35 6 14 23 38 -12 -5 -17 5 -9 -15 1 -14 16 15 7 -5 17 -6 27 -9 0 34 28 -5 -2 18 37 7 21 -1 30 26 10 -31 -4 -45 -30 18 -19 15 8 4 45 27 -1 29 -18 -20 27 -19 14 42 -5 -24 -19 -6 19 7 0 -19 -29 15 -16 -8 1 31 13 54 19 22 10 -5
6 31 -14 9 0 -8 -9 -19 -11 36 -23 -8 -14 -42 23 -20 -21 23 25 -20 -7 39 11 -22 -10 -6 -26 3 -6 -25 -26 -34 2 -11 -5 -10 11 17 -12 -25 11 30 7 -17 12 2 -3 -4 10 14 -5 -6 -25 -31 -23 20 -1 23 8 88 10 8 -19 18 23 -24 14 17 25 22 -2 -33 77 17 15 2 24 -8 24 20 12 21 -34 -3 24 28 32 55 48 -24 -6 -1 -23 3 15 16 -8 -7 -7 -6 -1 24 12 15 32 15 65 25 38 22 26 5 -25 28 12 4 10 14 30 -30 -5 24 10 37 -3 12 26 -40
9 11 13 -3 -18 7 -26 -4 -18 -11 5 -11 -12 3 -21 0 21 8 -18 -19 3 -21 -29 -2 1 0 9 -14 -2 -1 -18 -17 -31 -27 -32 -14 -30 -29 -18 1 -48 -8 -19 5 18 -25 -32 -7 1 -33 -22 -6 -16 -9 -28 7 7 -17 10 7 -2 9 -6 -5 -11 -20 -1 11 -2 -4 -21 -12 2 -9 -1 -3 4 -16 -37 -11 -26 15 -15 2 -23 4 6 19 -36 -18 -23 -22 -32 -22 -16 -8 -12 -14 -8 -40 -5 1 5 -26 -63 6 -3 -44 -15 7 0 -24 12 0 -37 -12 12 -13 -10 -20 -6 -10 -7 -12 6 -13 -37 5
-10 -26 -27 0 -25 -13 -3 1 19 32 -9 11 -37 -29 0 -28 -10 -40 25 -39 -16 -45 2 -64 3 -4 -32 -4 -16 -41 -18 2 -8 9 -14 47 -14 -7 13 16 -23 -38 25 6 -6 -11 0 38 8 -17 -44 -22 -21 2 -15 -5 1 -54 -11 -23 -30 10 -23 27 -3 -31 38 16 25 -11 11 22 -43 26 6 -12 -4 22 -5 35 -22 -49 -9 -8 19 25 11 -12 4 -18 -33 10 -31 -23 -3 19 3 18 16 -32 9 -43 37 2 17 -11 -4 -15 34 16 20 19 -18 5 -41 -8 -11 4 -23 41 -38 14 14 0 34 3 -2 8
-9 4 -27 26 -7 -79 6 17 -33 30 -28 -9 -29 -35 28 4 -3 -4 3 -72 -11 -11 11 29 34 -11 12 -17 -28 -18 -56 16 -13 10 -23 -32 9 29 7 5 -18 12 -55 -10 -36 -8 -4 -10 -12 31 -8 -73 15 5 18 9 -54 38 12 -13 -2 -46 4 -46 -51 4 -37 -11 -8 -54 33 -19 23 -13 0 -9 26 -7 -37 -37 17 20 -21 -18 -45 -37 -78 20 -12 -33 -33 28 24 -29 8 31 -60 -41 -21 12 17 38 -2 -23 20 -1 29 23 -19 10 -11 -72 -14 8 -7 24 -2 -47 4 -14 1 19 19 20 -6 -10 43 -1
-43 8 -11 -6 34 12 -1 -35 11 6 -76 -30 -49 -43 -7 -10 -1 -6 18 -6 -33 -12 5 49 32 -61 -34 -14 -20 -6 -8 6 -21 19 21 10 -33 6 -15 36 30 -25 -19 -40 0 -25 4 -20 -8 -15 15 -21 -5 2 -17 -7 26 33 -2 -3 -8 37 -14 13 -12 16 -12 -4 -4 -11 -10 31 -16 -1 48 -21 16 12 28 3 -1 -15 6 -45 14 10 8 4 -21 -8 -1 -8 -10 2 -51 -11 -40 -33 2 0 32 9 27 -28 18 -9 6 -13 -28 -32 -4 5 34 2 26 -8 2 11 31 -18 -31 -6 -46 -3 -27 9 -4 -6
-1 -19 1 26 23 4 2 -28 -6 36 -19 -9 -27 29 22 6 28 -4 -6 28 23 10 15 -27 47 -58 -37 -7 -56 59 17 18 13 10 -13 -34 7 8 4 57 28 -5 -10 -11 -7 -10 40 -12 -27 -34 26 44 -16 -14 -4 24 32 15 7 -11 30 15 -6 -30 53 1 11 5 22 -24 -90 -5 -3 -18 20 -10 -18 -25 46 -39 -45 5 16 -2 -7 26 46 -11 -2 9 22 16 -43 60 42 -24 -16 -14 13 31 3 -48 -13 31 -7 4 9 14 8 24 2 14 -9 -4 37 17 32 24 26 9 34 50 1 -5 -10 9 30 -69
5 -5 -23 -14 -19 10 28 -6 0 -22 -24 -4 -43 -6 -19 3 -16 5 -36 -33 -22 11 15 -21 -14 26 -34 -56 1 -25 -12 -3 4 11 -46 -16 5 -31 -30 -6 7 11 10 -11 -4 -10 -19 26 18 -4 -3 -23 9 3 -35 2 -24 -12 -14 25 -33 -21 3 7 -22 -11 -6 -6 24 16 -19 -26 -1 -36 -4 -14 -32 -11 -22 -18 24 24 -5 9 -33 -48 -22 -1 -43 0 10 8 0 -45 17 -6 7 -13 -9 0 -16 -24 -8 -18 -16 -26 6 1 -15 -48 -38 -31 -4 -32 -20 4 17 -9 -33 -11 -9 5 -7 -22 -13 -40 13 -24
4 25 -16 -36 -27 -102 20 8 -27 -16 -19 13 20 23 10 27 -11 -38 17 31 27 -48 76 -47 4 -39 31 -4 -1 44 -31 40 38 36 -9 -2 -45 16 -13 -19 -20 6 -16 -46 37 -11 47 -53 -23 -36 17 -20 -37 7 -37 -16 -3 50 -58 -19 -64 -74 50 -46 -34 -23 -22 -36 -18 3 -41 -14 -43 -17 -98 35 6 41 24 -17 46 41 -51 -20 43 -58 20 -34 -8 45 31 -24 -19 -36 69 -46 -9 -16 -22 14 -63 -27 -16 -33 5 23 -105 1 -7 7 21 4 -21 -15 48 23 -2 8 32 6 26 -7 11 5 -81 -37 -16 -21
-1 -7 -2 -16 -19 -8 5 7 -4 8 -16 -18 5 -18 -24 -16 13 3 -2 -3 -4 -21 -2 -12 3 -2 -6 -15 -6 -3 -6 -17 -16 4 -7 -19 4 -8 1 14 -11 -2 -2 -14 7 7 4 -8 -5 -3 0 -19 -26 -1 -15 -13 2 4 -5 11 -18 -11 10 -21 -5 5 1 -3 -13 3 -19 -4 -16 -6 2 -9 -4 -10 -25 -1 -20 -20 -18 -1 -17 5 -14 5 -6 9 -8 -5 -8 -1 -11 -3 6 -13 -16 -12 -22 -18 -11 1 -16 -8 -3 -9 2 8 -19 -11 -10 -14 -21 -11 -15 7 -8 -6 -11 12 -6 -7 5 -16 -7 -5
13 7 21 -13 -18 38 4 29 -10 -18 -22 8 -9 -12 -11 -44 -15 -15 -12 -36 11 -10 -26 -10 2 18 -33 -33 -10 -10 -4 -62 -14 19 34 -5 -14 -38 -11 22 24 -27 3 -18 -16 -11 -26 -6 -20 -14 -4 -15 4 36 12 1 -14 -18 11 1 15 19 4 -4 -52 1 -20 -14 -24 -12 2 29 -15 -44 -20 3 -22 -39 1 -10 -37 -1 -11 34 19 -35 -7 7 -5 -23 -42 -2 -10 -31 -42 20 0 -5 21 -30 -50 -21 26 -36 -19 2 -14 17 8 -13 -7 -27 30 18 -10 -51 12 -29 8 -28 -23 1 24 -6 1 -14 20 -80
7 -12 -6 13 28 23 26 -29 6 8 -18 -1 -20 -29 40 -30 10 -6 -10 -19 34 -6 -28 39 18 -55 -21 12 -29 -51 12 16 -44 14 -12 21 -13 26 -36 22 0 -23 -16 -7 8 -18 -45 -1 16 -7 17 -2 2 -12 8 14 -27 17 -4 10 2 39 10 6 -4 27 4 13 -16 -28 -11 8 53 -3 30 3 42 -16 43 28 -59 -46 0 41 2 -12 4 23 -5 -26 8 7 -41 -12 -56 36 -86 21 31 -24 36 42 5 -14 76 -11 5 -10 3 32 19 -6 8 39 -7 21 -2 9 -6 13 -11 44 15 79 -21 -28 3 7
-23 2 -23 15 43 28 10 -13 -17 9 14 -21 -11 -19 -8 6 12 7 12 -67 -9 0 -22 7 16 7 -21 9 -23 -38 -46 -7 3 26 46 -12 -33 -14 -25 -14 20 2 -9 -31 -13 28 -5 -16 -15 18 27 -42 -15 -18 23 15 28 5 -11 48 2 78 4 53 11 -6 -32 -12 -21 50 2 -9 12 -8 35 -5 12 -33 -26 40 4 24 -12 13 52 -15 -12 58 16 -21 4 -2 -30 22 -37 -38 -7 -26 -20 31 -15 46 4 -23 -25 -21 32 3 16 -43 5 -11 21 2 -16 -13 3 -22 12 -35 -9 -34 14 -42 -5 0 4 -6
29 -51 -2 -41 25 63 2 6 -41 -43 31 -1 32 -17 -48 37 11 -48 -3 -34 9 -35 9 -52 49 14 9 -35 -37 12 -7 -17 -36 7 19 -79 -75 -83 -20 -17 42 3 -2 -13 23 -30 16 6 8 -72 34 -14 -9 -28 -12 -52 -14 2 -17 17 -49 45 30 -47 -23 -25 -65 -26 -48 1 -13 12 -46 -52 40 -5 -52 -9 -12 -53 14 0 -38 -25 -74 -44 -8 36 -31 28 15 5 12 -32 20 -29 46 -34 -50 22 -32 -26 40 -61 -67 -42 -26 -35 -27 -2 -36 11 24 -69 -11 -70 -1 -2 -14 -6 -29 -38 6 -11 2 -35 -12 -27
-47 -26 -11 -4 -60 -74 6 -5 4 -27 -36 -4 -2 -1 -23 -8 -47 29 29 9 12 26 13 25 -35 29 26 -19 2 4 31 -16 4 -49 -35 -57 9 -36 -2 23 -11 -28 -29 31 -18 -34 43 -33 -2 4 -54 23 0 14 4 -5 -11 -42 8 -61 7 -29 -4 -11 20 3 -29 3 16 -27 22 -37 -1 -34 -63 -14 -29 -33 12 -62 -20 -56 3 -16 -40 -16 -27 -33 7 1 -40 34 14 5 44 -51 -45 -6 17 -74 21 -7 -45 16 -75 -11 -29 -2 -30 -30 -26 2 -50 -60 17 25 -41 17 8 -22 -44 -37 -9 -30 12 -11 -13 -22
-36 -42 -18 -13 44 88 -28 -1 15 81 -58 14 -20 16 -38 27 0 13 -21 10 -5 4 41 0 30 -1 7 0 -7 7 -24 -8 -16 55 14 -6 22 -28 -85 6 22 -24 6 -17 29 -20 -24 21 -12 -8 31 -11 -13 7 2 -6 26 50 17 18 9 28 19 25 -6 -7 19 -8 27 -24 -47 12 59 -16 56 -5 -20 2 -22 13 -13 15 1 -19 38 33 49 10 1 27 -5 64 -8 6 8 -39 -11 24 -22 -15 -6 17 22 -21 -37 2 74 -29 54 -30 13 10 42 42 21 -48 28 -1 22 22 -1 42 33 -34 39 -2 -24 9
8 -8 -8 -21 -11 4 4 -13 2 5 -14 -27 -3 -10 -5 -11 -17 -21 -7 -15 -2 -15 -9 -21 15 7 4 -3 -23 0 -12 1 -13 3 -1 -5 -2 -10 -22 -15 3 13 14 -14 -7 -15 -20 -6 -18 -25 -4 4 -7 22 -4 -23 -20 -8 -27 -18 -13 -22 -15 -17 -1 6 -1 -18 -17 -6 -25 0 7 -16 3 0 -22 -9 8 -19 -28 8 14 2 -5 -1 3 3 -4 -19 -25 -4 -14 -5 -19 -8 -16 -23 -13 -31 -15 -10 -15 -5 -11 -23 -18 -5 11 -6 -2 -9 -18 -4 -15 -7 -26 -21 -20 -1 -11 -8 -3 -32 10 1 1 -9
-13 -1 -13 -47 -49 -60 -4 32 2 -60 29 -12 34 -41 -19 10 -47 -6 -23 -84 -19 -8 -29 -48 -40 25 41 12 33 -32 -25 -32 -23 10 -35 15 -27 -12 -62 1 9 48 20 -8 20 23 -20 -8 19 1 15 -43 22 -2 -8 -32 -38 -12 -44 -53 -49 -82 14 17 -95 -57 29 -23 -24 -28 23 -69 -43 -1 -81 5 -52 54 -37 15 76 35 13 -50 -16 -58 -29 3 -1 -41 -7 -9 60 -27 -22 24 26 0 -43 16 -12 -8 20 -42 4 -25 -48 27 13 -24 -17 -12 -39 -31 -10 -25 -64 -65 2 0 1 -9 -3 -17 2 -21 1 41
-11 -35 -5 -24 -43 -39 0 -29 -19 -15 -4 11 2 -20 -13 2 -24 -6 40 11 -22 14 2 -27 6 -22 -22 24 -9 2 -15 -7 -10 0 7 -21 -20 -9 -18 -16 -22 13 -6 16 -42 -14 8 -22 23 -46 -28 -28 23 0 -28 14 -5 -22 -23 -36 8 6 5 9 0 -17 -22 -23 -21 -10 -28 -37 13 6 -15 -18 -2 12 -8 5 -9 -13 -50 18 -8 9 -26 -25 -28 -7 7 -22 -42 6 25 -11 17 -33 -11 -20 -5 -9 -10 -24 17 0 -42 -3 -34 -18 -9 19 -11 -14 -16 7 0 3 -19 2 -7 -24 -13 -7 -38 19 13 15
3 0 -7 -33 34 21 7 9 -13 -30 61 10 28 -17 -43 12 43 15 -32 -19 -35 6 -20 -5 14 21 15 -32 12 -8 -10 -9 -22 7 14 -49 -20 -54 -7 -13 -20 -8 24 -24 3 35 36 -34 -15 12 5 -24 -14 -16 4 1 -27 25 -14 10 -11 47 3 -17 16 -21 -24 4 -2 53 -9 -17 0 -60 3 5 -33 -14 1 -51 28 26 -26 -20 -16 -44 -2 34 -4 -16 28 -38 -19 24 23 -25 26 -35 -70 17 -37 46 4 -20 -3 5 -11 -50 22 -17 -34 -18 16 -57 -9 -29 -58 -4 -9 -41 -13 -64 -14 -20 -40 10 -59 -39
-20 4 -18 -28 0 0 -21 4 3 -1 -14 0 10 -12 -12 -12 -21 -16 1 -19 2 -17 -3 -18 0 5 5 -5 -6 -11 -16 -11 5 9 -13 -14 -21 -14 -18 -8 -17 -17 -19 -17 2 -2 2 -16 -18 -15 -14 -15 -6 6 -1 -12 -16 -10 -29 -1 -10 -13 -2 -22 -15 -6 -17 10 1 -15 -3 -16 -6 -11 -16 4 -26 9 -2 -6 -3 -12 0 8 -2 -11 -19 3 2 -17 2 3 -3 -16 -13 3 -12 -13 -18 -18 -5 -6 -6 9 -22 2 -3 -6 3 2 -12 -18 12 3 -22 9 -23 -23 -6 -4 -6 -1 2 -3 2 -7 3 6
-11 -17 3 -16 -19 -25 -1 -2 13 5 -11 0 -3 -19 3 5 4 0 7 -20 -19 -5 -21 -14 -10 13 -5 -9 -17 8 -17 -11 -2 3 6 -1 -18 -15 5 -7 -12 -13 8 -3 2 6 2 10 -16 -12 -19 -3 -11 -6 -14 -10 9 -7 -2 -14 -10 9 -4 -16 6 -7 -15 4 -2 -12 -13 6 -3 10 7 -9 -5 5 5 -10 -14 -9 -4 13 12 -17 -18 -1 4 -12 -24 -20 4 5 8 -18 8 -11 -10 -7 -8 -18 -4 -4 -14 -9 -1 -16 -5 -16 -5 8 0 -19 -11 1 -8 5 -16 -24 -15 -13 -9 0 -23 -20 0 -8
-18 -19 2 -5 -43 -30 7 -33 -4 3 -5 -15 -5 -32 -34 -25 -23 -20 14 -15 9 -8 -5 -15 -5 1 -25 -8 -32 -2 -22 -19 7 -44 -1 -8 6 -21 -56 7 3 -18 5 25 -14 -44 6 0 -11 -26 4 -3 -10 -22 -14 2 -17 -19 -17 -30 -12 -4 2 -4 -21 -20 -25 -22 5 -33 -21 5 8 22 -20 -8 -47 -14 15 -7 17 -26 -3 -11 -30 -18 -1 -43 -27 -20 13 -1 -2 -15 -26 -20 -12 7 3 5 -2 -22 18 -9 -3 -6 -22 -5 -1 -31 -15 -7 -26 -25 14 -4 1 -21 5 -12 -3 -13 -28 -2 -20 -35 -13 -28
-23 -65 26 6 -19 10 15 -3 -25 50 11 -11 36 -9 16 27 35 -55 -7 10 15 29 -33 -50 37 -3 -34 -65 -4 -3 10 7 6 -6 -12 -39 25 -9 -62 9 3 17 1 -3 -3 14 18 -27 -5 -31 -3 18 -7 -27 -23 -24 -15 -21 -15 -22 -12 39 15 -31 21 -34 -25 -48 15 0 -43 -3 -73 -54 6 6 -12 -32 20 -43 25 23 14 -39 -13 38 0 -50 9 -20 49 37 -21 43 3 6 -34 6 25 15 -23 -66 27 5 -4 -62 20 -4 -104 15 -2 -2 -25 0 6 -17 -9 -16 3 -17 12 23 12 8 -7 32 12 -54
-10 4 -15 -22 20 17 -32 -11 -11 13 -16 -18 -39 46 -44 -21 -39 -27 -52 -20 3 -24 -14 3 -17 8 -67 -20 -68 -31 -34 -8 10 -11 4 -17 2 -9 -10 12 -40 -6 -8 -11 -4 -12 14 -17 -10 -14 -10 3 -29 -16 -15 -46 3 -19 -15 10 -27 6 -26 -14 -20 -22 -8 20 1 -29 -24 19 12 2 13 -17 -17 -9 -21 -4 -49 14 -30 -10 -8 2 -2 13 -15 16 -26 22 -36 -30 16 -13 14 -7 -9 -38 1 -8 -5 -11 -34 5 29 -15 -12 42 -15 -19 6 21 -2 -14 -10 -8 -7 -15 -46 10 -6 16 30 -5 -50 -22
2 -2 -9 -17 -37 -58 -12 13 -26 3 -35 -1 5 19 -30 -1 -9 -47 17 -18 2 5 -27 -7 -8 -3 -29 -26 14 -28 -8 -1 -4 5 16 -9 28 -22 -13 -17 -1 27 11 31 0 -25 -28 -13 4 17 -11 5 -24 -28 19 -17 -31 -48 -23 -19 29 -27 18 -37 21 -5 -7 -1 -2 4 -33 -2 15 -9 -56 -29 15 8 14 9 -25 -12 3 -9 6 -49 18 -52 -13 -48 16 -21 21 -6 -15 -45 -47 -10 -1 -22 23 12 22 -22 -10 4 -19 -8 9 -6 37 -6 -31 57 -29 -22 10 -11 -10 25 -13 -35 -61 -28 8 -44 21 14
-24 -5 -9 -25 -14 18 -8 0 48 12 35 14 40 -23 -23 5 -8 -35 12 -23 20 -24 -21 -26 3 25 15 37 -2 3 -21 21 17 -8 -11 44 -4 27 11 6 -17 -14 13 -3 22 31 17 20 30 -60 -56 2 0 9 -18 -16 11 -32 -8 -62 -12 15 10 11 -2 -3 -4 28 8 23 -35 -11 -33 24 -1 20 10 -7 -5 0 17 -46 -16 -44 -2 5 10 -39 18 0 -17 22 -6 -40 -2 -43 -2 32 -18 6 -24 -55 42 -11 -3 7 21 -18 -50 4 1 -4 0 -38 -1 27 -1 -4 8 -15 16 -10 -62 -55 10 23 0 27
-2 -3 -15 -28 -5 -3 -14 -5 -5 -2 -4 -13 -5 -36 6 -13 -13 -20 -4 -29 -10 -18 -7 -27 -9 -10 7 10 -20 -23 -29 1 -24 6 3 -4 -11 -7 -5 11 -26 -23 41 0 -5 3 -22 7 -1 -40 -45 -12 -22 10 -29 -13 13 -1 -40 22 -19 -8 -12 4 -32 12 -22 9 -5 27 -7 -27 -13 -22 21 -17 9 4 -14 -25 4 -1 -38 -18 -35 -35 4 -12 -18 -32 -9 -2 -11 4 -28 -11 -37 5 -37 -11 -20 -41 0 -8 -9 18 -7 -26 -10 -29 5 -13 -38 -26 -15 -19 13 -10 14 -29 10 25 -42 2 20 -6 -18 5