-0.038008950650691986 -0.06513368338346481 -0.027266917750239372 0.05835418403148651 0.06314472109079361 0.005057351663708687 -0.11207456141710281 -0.09139243513345718 0.20598924160003662 0.13567818701267242 -0.025306299328804016 0.1090167835354805 -0.009218902327120304 -0.08575532585382462 -0.115514375269413 0.0623084120452404 -0.22731636464595795 -0.16175477206707 0.06665714830160141 -0.0014344127848744392 -0.042996104806661606 0.011931531131267548 -0.0521463006734848 0.10400135815143585 -0.13884592056274414 0.13485147058963776 -0.053505830466747284 0.004701786208897829 -0.014133176766335964 -0.04712430387735367 0.2293872982263565 0.07264729589223862 -0.15324510633945465 -0.03645244985818863 0.011760293506085873 0.04530440270900726 0.05613560974597931 -0.016145681962370872 -0.164424329996109 -0.205056294798851 0.04632364585995674 -0.14373065531253815 -0.15479545295238495 -0.07638491690158844 0.1396370381116867 0.13548654317855835 -0.02275652252137661 -0.07055583596229553 -0.008175866678357124 0.15424789488315582 0.10755188763141632 0.03711608424782753 0.056552354246377945 -0.0029437432531267405 -0.10523403435945511 0.03275100886821747 -0.03628994897007942 0.19210363924503326 0.16814827919006348 0.0342901386320591 -0.041175760328769684 0.02894657850265503 0.0594022311270237 0.009900921024382114