-14 15 -14 -21 -19 21 38 29 19 15 -12 -40 26 7 -20 7 37 -45 31 -3 3 22 -3 -4 33 -7 39 -27 19 -25 -30 36 -7 -6 -12 13 37 -14 -29 -1 22 -33 -35 -1 11 -12 -11 12 -13 -1 -9 2 -46 -10 3 -9 0 -20 -16 -27 -36 -7 56 18
-7 28 17 -26 -13 49 -45 78 -10 -12 12 -5 -10 96 -24 -53 2 28 73 -8 -35 2 -3 58 -22 -40 -9 4 27 19 -22 -17 -51 -21 -5 15 -46 -21 22 39 32 -33 -64 -52 34 -1 36 18 59 7 65 -14 7 -15 41 -1 33 12 -8 -15 -43 17 8 62
-2 27 28 17 -14 -18 21 -8 -49 -19 -4 -40 -13 89 29 -1 -7 21 57 -19 -54 10 14 -7 49 14 83 -61 19 -46 -16 52 44 34 -47 31 -18 -37 -46 45 69 -18 2 17 -32 4 -71 -17 -11 -20 -19 -32 -28 -93 12 35 6 78 -7 -35 3 -49 23 15
15 35 32 -6 -42 25 15 65 -9 -34 -37 -32 14 127 6 18 -1 25 7 32 -63 10 -25 -38 0 -54 87 -51 4 -22 -33 28 -12 29 -53 11 2 -2 -30 -14 47 0 -58 -56 7 14 -56 7 21 15 -15 -44 11 -46 12 38 -15 46 -37 9 -28 -34 5 26
-26 3 23 0 -45 -28 -47 6 8 5 9 47 -17 15 -24 -26 -32 47 46 6 -8 1 8 28 -48 -16 -17 1 25 39 11 5 -39 0 22 22 6 0 53 -3 48 -6 -9 -64 63 38 43 -13 64 16 30 -5 33 -30 12 -20 -16 -47 -23 32 -1 9 -21 29
-43 -36 -15 31 -3 -19 74 27 29 6 -53 -61 45 73 -2 2 0 13 24 -29 -23 -25 16 8 -6 18 19 -13 32 22 3 -17 -6 12 -63 39 -14 -16 16 22 70 -43 7 -38 -11 25 -64 5 -7 -13 24 4 0 -47 -26 44 -11 59 51 -23 -22 12 37 7
-8 18 20 -15 -25 -19 0 34 31 -67 40 -20 10 79 -5 -29 -35 11 81 3 -7 -2 4 35 -34 -41 56 -1 16 -30 -22 5 -9 14 -1 53 8 -70 40 2 70 2 -31 -58 27 -11 3 27 28 9 17 -22 -6 -55 5 32 -8 19 -9 -11 10 13 -3 41
-5 13 40 -2 -20 12 35 -16 -8 29 -41 -32 57 52 8 49 27 -3 9 41 -3 -5 33 -17 29 16 7 -38 -24 -33 24 35 35 17 -8 42 13 -63 -5 29 49 -26 7 -19 -55 9 -30 -25 -40 0 -60 7 20 -34 15 0 -15 48 21 -34 -22 -11 6 59
-1 17 21 -38 -12 -22 -16 40 13 -47 40 6 -7 33 -9 -27 -32 27 42 -2 -23 14 -62 1 -51 16 -20 8 40 -26 -28 -32 -48 -2 9 -6 -20 -16 20 -49 2 -9 -6 -11 37 -11 25 39 13 -14 33 -40 -2 -56 -26 42 -32 -12 -32 44 -18 12 11 -30
-15 -58 -21 10 20 12 -27 15 31 -31 19 21 31 56 21 0 -10 -48 42 -15 -23 20 -21 25 -11 10 4 -15 18 -5 -26 -18 -31 12 -12 -5 -13 -24 5 -15 32 2 9 -25 41 -26 12 13 8 26 7 -13 37 -51 -17 56 -34 14 -29 15 47 -14 -13 8
-35 30 0 6 -15 22 41 40 12 -31 13 20 -15 64 48 10 35 31 -10 -25 -45 36 -66 0 22 -26 67 -38 30 -8 36 9 5 9 -42 32 -17 -54 -8 -16 29 4 -3 -45 29 -11 -51 -16 33 -1 19 1 -2 -83 -23 5 -33 51 -9 17 -27 -20 -11 -2
32 17 -15 -19 13 23 -72 -32 5 22 36 54 -17 -27 -34 -25 -33 -24 31 6 1 17 -15 -17 -45 20 -41 1 -8 26 -52 -28 7 -37 52 -41 22 25 32 -1 -25 6 4 13 28 27 69 17 10 6 20 -20 -4 50 -26 -3 -2 -48 -19 62 -9 41 -54 -52
-27 25 28 1 -29 19 17 33 26 6 1 -29 -6 75 -28 11 -26 -7 42 17 -18 18 -9 20 -4 -46 66 0 46 -38 -24 -36 8 15 -25 25 -12 -43 -2 15 54 -33 -7 -57 11 -2 -48 30 13 0 47 -20 19 -67 28 -6 22 50 -14 -33 18 -24 -9 25
3 28 24 -60 -56 26 -12 14 -28 -50 9 -20 -38 102 -40 -20 9 48 48 13 -21 50 15 15 40 -6 11 -25 47 7 -55 34 -19 -17 -22 3 -35 -2 -17 -13 81 -13 -26 -45 26 3 -12 -22 19 -46 13 5 20 -14 20 -21 54 42 -19 -37 -46 5 33 47
5 40 -1 -47 9 -3 30 -6 -30 -14 -30 -32 -10 32 -18 54 47 16 1 -2 -20 3 0 -26 14 11 32 -27 32 1 15 18 42 19 12 -17 -25 13 -29 -5 -21 -14 9 54 -29 5 -31 -17 -39 -11 -64 -16 5 13 -17 7 -5 79 0 -39 -22 -19 17 29
-29 -12 24 33 -32 6 64 29 1 -67 -29 -32 1 55 -4 18 25 1 -20 12 23 -21 -9 18 2 -24 51 -2 31 25 4 18 -17 41 -53 4 26 -33 3 11 32 -41 -45 -35 -36 27 -7 23 -25 -49 -8 2 8 -43 -15 26 -8 24 46 -59 -28 -20 30 21
-22 40 49 -7 15 -74 19 -7 -63 -15 -18 6 62 -21 -20 -49 37 -43 6 4 32 48 18 28 -2 28 -57 -16 56 42 -7 37 -31 5 14 52 -13 16 -39 -12 25 27 -22 26 32 16 8 -27 37 5 27 39 37 -36 -22 14 -21 -22 -57 -16 22 -41 11 -5
53 -6 48 -2 6 2 -42 -8 -11 58 -60 7 22 22 -3 -53 -4 -12 7 4 33 26 -21 54 8 65 24 -45 43 -25 -34 16 -12 -46 -1 -22 24 -29 -18 -22 -15 -22 24 -1 -32 -50 10 17 17 21 -6 11 14 -33 39 -33 2 19 -66 -39 53 -27 10 46
42 37 34 -50 -32 -17 -34 -49 -31 32 -18 14 39 23 -5 -24 5 13 17 7 -2 39 -5 9 -3 39 -52 34 51 57 -59 -35 16 -8 -11 18 10 18 -55 -3 -11 12 -39 50 6 -25 17 11 10 -1 47 27 -8 -2 -14 -49 -20 3 -68 -29 19 -20 33 35
-34 -44 -8 17 37 -10 -5 -13 -16 -5 -13 -12 -7 57 35 13 4 -11 -5 43 -9 25 17 4 -20 -16 58 -22 -33 33 -24 13 -6 -29 40 -61 26 -46 -34 1 14 6 29 -32 29 29 -19 25 -27 7 32 -21 9 -38 8 23 -4 43 9 -6 14 -10 -37 23
5 35 13 -20 -13 37 13 27 -11 55 -8 -57 -22 33 -25 -8 -18 -3 58 -18 11 -29 -2 -19 5 2 33 16 -3 4 -27 34 -45 -16 8 25 -6 40 16 0 24 25 -19 28 -15 5 43 -1 19 35 -5 8 -41 -40 4 -54 10 13 -29 -18 15 50 30 -21
9 -15 67 -16 -48 -22 22 -25 -31 32 -35 5 48 -13 12 -14 1 -22 -7 -20 30 29 44 10 28 22 -29 21 37 18 -40 1 -16 -25 -21 53 -39 53 -15 -7 38 59 -27 57 -12 -40 -34 0 5 -10 51 10 30 -40 38 -46 -41 -27 -58 -10 -10 -76 11 60
-12 -7 22 -34 -20 -32 -19 -57 -16 -4 -65 -8 -17 22 11 -12 -27 -23 28 40 11 46 11 4 -17 30 13 24 -11 -18 -22 -35 12 -8 -9 -32 22 -71 -48 -5 54 43 39 35 -27 -58 -4 30 -7 -36 27 8 -15 19 18 -2 -14 -9 -31 -56 1 -61 19 55
4 26 43 11 -18 19 16 -18 -7 9 42 15 41 -33 5 -18 13 -17 -40 -15 3 -3 -25 19 -24 19 7 5 -35 6 46 52 4 -5 -18 -9 -3 -19 -12 10 -43 -29 -31 -5 1 -12 -26 -51 11 -4 7 -42 9 4 12 20 -13 -17 -27 -13 -13 -17 -13 4
26 19 -56 -41 -23 59 -17 1 18 42 -19 -34 -20 38 7 29 13 28 1 15 -10 -74 6 -34 19 -8 -3 2 -1 -16 -61 -44 -21 -16 -1 -12 -10 25 10 -16 55 -18 10 -13 -15 29 0 26 -21 2 18 3 -1 -34 20 -1 3 -12 -10 22 50 7 -47 -6
15 46 0 -25 -25 32 -2 -26 -12 -1 -8 -19 12 22 57 56 31 21 17 40 -14 12 -24 -17 14 -25 -7 15 -21 -21 13 4 51 -10 11 -42 21 -28 -61 48 -42 25 53 -2 -18 -35 22 23 -8 -39 3 0 26 20 -19 -7 24 6 48 38 5 25 3 -26
11 5 51 -44 -26 24 -39 22 -19 65 8 -21 -15 75 -21 -40 24 37 33 -13 -12 16 22 1 26 25 14 -44 -7 32 -64 -36 -18 2 3 40 -33 -41 19 31 87 11 -16 -15 -35 -6 7 7 -2 -36 35 22 -22 -55 13 -18 -20 17 -84 -13 28 11 -10 63
-9 -6 6 -44 -1 -44 8 -41 4 5 1 8 18 -11 32 7 38 -10 -37 4 -4 7 -28 10 -7 -2 -12 4 24 -4 41 -32 15 16 -22 -5 38 -11 -30 25 35 51 -9 8 -14 -44 -16 -21 -36 5 -21 -1 70 -19 -1 -6 -40 35 10 13 -12 -17 14 24
-21 36 63 -7 -6 -8 12 -21 -51 26 17 -18 36 38 -2 11 22 10 3 -39 -15 16 6 -4 18 8 4 16 58 2 -96 22 -25 -10 17 51 -13 -1 -24 5 3 10 5 21 10 -18 35 29 3 -19 -10 -9 21 4 -8 -47 21 41 -61 -32 -22 -52 68 38
-33 -52 44 -23 14 20 49 -3 3 -9 -11 -18 8 35 -19 -26 -17 8 -5 24 -3 8 -19 -18 -4 1 55 -45 0 -9 6 -25 17 42 -13 -11 45 -96 -14 47 0 -31 15 -19 -38 43 -32 -15 -32 26 29 -27 -13 -45 -39 33 -9 52 43 -35 -16 -12 -46 10
-4 33 46 -9 -64 -33 38 -20 -37 -9 -32 -1 -28 20 1 -32 1 30 -27 -5 -42 4 1 -15 0 10 -29 1 14 41 -3 -33 14 -17 24 21 1 41 26 -58 25 20 29 17 -5 12 -21 -14 -10 2 43 -2 -18 -11 0 -45 14 18 -34 -9 -30 -13 6 12
20 -28 46 -28 16 -101 33 -20 -44 23 -33 20 23 42 -28 -1 -32 -21 -37 41 -21 47 -18 -10 0 30 -17 3 20 53 38 -19 -13 45 38 5 -17 18 -56 1 -14 20 -13 -23 -23 -17 -43 1 5 1 49 -1 7 -31 24 -4 -4 39 -49 12 -11 -38 39 32
1 -37 0 12 -8 -60 9 -65 -11 -10 -32 3 -12 -43 -22 27 -3 -8 -17 -13 84 13 23 -43 -12 4 -27 -20 17 0 47 -14 -9 42 -42 -39 91 12 -18 30 -20 -7 39 40 -44 34 -29 56 23 4 -33 -16 16 -1 17 9 13 31 -20 18 -19 -3 -8 -58
-20 -32 20 -20 29 -31 24 14 -23 -15 -58 -3 16 34 10 43 38 -6 -45 -16 -10 40 2 -37 -56 -20 -36 -42 24 -1 -24 -15 -41 54 -7 52 36 0 -20 -20 4 -3 2 -2 -8 40 7 -5 1 6 -3 9 40 -61 -7 22 2 52 -8 -31 19 -17 -12 -20
15 -1 -14 -8 -13 -4 -37 -55 7 43 -24 0 30 26 -35 -6 27 -49 6 -41 13 9 22 -25 10 12 -25 -2 34 -47 32 -18 -18 10 -1 -51 61 11 -30 -15 -48 40 27 13 -15 23 16 65 -7 20 -36 -2 -25 -15 -2 10 37 -34 -5 52 -19 21 1 -53
13 -27 -27 2 2 6 -8 63 -12 -7 66 -26 -30 13 -10 5 -38 -42 -4 34 -36 -42 -25 -20 -31 10 37 53 17 -44 45 -5 25 -25 -6 19 -41 -42 -40 -22 -10 -6 -8 -32 -35 -38 -25 -17 53 -4 1 27 5 10 -17 -2 32 -33 21 -5 30 52 -24 12
0 31 -34 59 -6 -19 17 -46 -46 51 -43 -33 4 15 -28 22 -7 -15 -31 -6 13 -28 -42 -10 -13 17 -9 22 -27 74 -44 -16 7 -65 -14 -68 19 75 14 9 39 -2 25 -26 28 -9 -3 10 38 6 -13 28 29 -16 32 -32 -16 -39 20 15 34 7 -6 -2
11 41 28 -26 -5 45 -7 44 6 -12 38 19 -41 -2 -13 -26 15 -15 36 42 -9 -12 -14 5 20 7 47 47 -7 22 32 27 48 6 0 -13 -11 -4 -46 -19 -28 40 -7 -58 17 -12 -18 31 15 12 32 -21 9 15 -8 -15 37 -18 19 -44 7 17 6 7
3 -25 11 -8 65 -4 41 10 3 -36 -23 8 -13 -16 11 -12 41 -44 4 30 -37 10 44 1 -22 -6 16 12 -25 3 16 60 63 22 17 25 -11 -72 -65 -29 25 3 -35 -34 -63 -46 -45 -4 28 9 4 -5 -3 23 -15 21 -6 62 4 8 0 1 33 37
12 30 24 -6 0 42 11 43 -3 14 48 -15 -11 39 -7 -54 -14 54 66 13 -17 31 24 12 21 -33 25 68 36 -17 -3 60 13 -42 3 48 -73 -49 -14 -41 31 -44 -57 -13 51 -14 -18 -66 -28 11 59 11 -37 -15 34 -30 16 -6 5 -24 2 -11 -29 9
-32 37 -15 22 21 15 38 -27 15 22 -47 2 -21 13 -6 48 40 -40 15 -26 29 -33 1 -12 -32 5 -40 -59 18 -3 -24 12 20 -8 33 -32 37 -2 -27 24 49 9 16 23 27 -12 -35 33 -42 0 8 18 37 14 17 2 -1 34 22 19 -5 -31 36 9
-28 41 -31 37 -18 -37 35 -2 -48 -19 -58 9 -43 31 6 53 43 20 -11 24 13 12 -32 -15 1 0 5 -70 -15 7 -42 -12 -3 13 11 26 3 -17 10 23 66 -19 47 -2 44 25 -27 41 -9 6 0 29 33 -21 -12 40 -37 30 -7 -39 -20 -34 -2 41
16 -56 1 -51 -9 -28 -25 65 -15 -35 -14 -15 -21 -2 31 -64 18 -10 25 44 -9 39 -41 66 22 -19 -56 46 29 -14 -9 -44 -36 4 -73 32 -31 -29 37 -35 -1 -39 -32 41 0 40 61 -31 22 -1 0 1 16 -27 20 18 -45 11 24 30 37 -14 -7 14
-42 -7 -2 30 -9 -42 2 -48 16 27 -69 40 11 -34 -12 22 40 -35 -22 35 32 35 -47 -33 -41 -3 -17 -18 3 -40 -18 5 -13 -21 -32 43 3 -33 -20 48 40 46 -12 17 -39 10 -29 1 1 -25 22 23 52 -41 -25 9 1 31 -44 -14 15 -3 30 15
16 29 -21 -6 4 -9 -2 12 4 -16 65 -3 -63 25 4 -38 25 37 19 6 -38 -11 15 -30 46 -4 46 -1 -27 29 -39 6 19 5 -3 17 -17 -28 -3 17 -32 29 2 -54 6 -32 -27 -47 2 -7 -20 -24 -18 52 -30 -39 -23 -44 12 17 -31 19 -26 7
0 8 -11 0 -19 -3 -8 -37 -49 -2 -16 -19 -37 -34 -20 56 -17 25 -23 7 46 18 18 -4 -44 11 -63 -2 -16 27 6 16 1 -42 0 14 23 56 16 68 76 5 45 2 -28 37 -19 1 -11 20 -26 16 -13 -27 -4 -7 16 15 -35 24 -21 -63 9 9
49 -15 16 -31 -25 1 -43 9 -28 35 -25 -19 10 3 -29 -31 40 -21 -20 -33 59 18 48 -10 13 17 -56 -30 -23 -58 10 -9 -7 12 12 16 38 -7 2 18 -31 -12 -11 66 -53 62 -2 19 -32 15 -10 19 13 -68 22 3 29 14 -21 -3 40 -21 15 -27
-42 -3 12 16 -40 46 -10 0 -35 -29 -18 31 -4 -12 -14 39 3 31 7 -50 13 19 6 6 3 -21 -25 -54 21 10 -7 -10 -46 -24 13 9 -1 -24 -4 -17 9 -2 -14 40 29 6 -11 10 -56 -18 7 21 -9 -45 44 27 -19 11 10 41 -53 -63 20 13
32 -37 -39 -22 57 -59 14 -17 -1 -61 -25 -32 4 13 0 -19 45 14 -56 -11 13 -11 -57 -34 -8 -47 46 -31 -21 33 -20 -10 53 5 -77 -95 44 -8 -45 -1 -6 -1 52 34 -25 43 -38 -8 -1 37 -53 3 78 -21 13 33 -33 0 18 10 -19 31 -36 -11
20 33 -43 -14 64 -39 43 -47 -17 -7 -43 -48 7 22 -9 26 -9 7 -35 21 27 -22 -37 -10 -38 9 2 -15 6 49 25 -13 23 14 -29 -65 15 -23 -27 40 -25 17 85 36 -15 15 -29 14 -35 13 -49 -12 77 -22 14 6 6 47 18 11 -10 21 -14 -15
-65 -39 -3 23 -35 40 -24 35 -7 -15 -3 54 0 25 2 9 5 -17 82 -13 22 34 20 26 46 47 -42 0 28 -37 -15 -17 -15 51 58 61 -45 32 38 0 37 -48 -40 4 25 -41 -12 -42 29 -32 60 -37 -73 -28 -5 -3 27 -6 -12 -9 6 33 21 -24
-8 -11 -40 -29 38 8 -9 -15 26 -12 -11 -22 1 -28 -12 3 19 -14 -41 -11 21 -34 -12 1 -41 -17 29 -24 -30 5 -28 -17 54 3 -46 -74 15 -24 -66 53 -19 -14 63 30 -19 55 -50 -1 11 10 -59 -25 10 50 -12 -29 16 12 20 33 31 -10 -40 -34
-7 -5 -21 23 -11 -29 20 -22 16 -57 28 -22 9 17 6 -40 -8 19 6 -9 -9 -3 4 -37 -13 16 32 13 17 -50 7 3 17 37 -18 -10 -10 32 3 -14 -20 -35 -31 5 3 24 -4 41 7 4 -37 15 -6 0 -1 1 -16 15 33 22 -16 -27 9 20
58 64 7 -17 -28 50 -33 26 -17 13 9 14 15 21 -26 5 -28 45 11 -5 -24 36 32 -5 57 14 27 13 18 30 -22 -12 -26 -28 35 23 -14 23 62 3 10 23 -20 -10 44 -88 1 -6 -20 -29 18 -19 -62 -40 8 -4 24 -10 4 -40 -41 -72 18 -3
19 -18 20 28 -6 -16 0 1 18 49 10 3 -4 -50 36 -8 -32 -37 28 -9 37 -3 -15 16 -35 6 -15 11 16 -70 22 -4 9 -21 -34 10 40 5 -23 1 -27 -53 30 26 -62 40 12 -3 12 38 -22 23 0 9 49 27 1 12 -40 -9 1 62 -37 -30
-75 -35 11 -42 31 8 -14 11 51 30 -14 -56 17 7 15 -27 36 -5 26 -55 -3 -19 -41 18 3 19 -26 -48 16 -32 -15 -9 -26 -1 -25 16 27 -15 -4 41 7 -22 -1 17 -5 48 -16 18 38 4 -2 -42 77 -17 6 -2 11 58 -45 16 17 12 15 -1
-26 -41 31 -12 20 -15 -41 5 54 11 10 -74 15 -16 47 19 -13 3 -4 -35 18 -8 -30 28 -60 21 -14 -5 -27 -39 -9 -24 51 -8 -20 -57 45 28 -31 27 -16 3 13 7 -28 24 2 -18 -37 5 11 -28 76 -4 -6 5 -10 32 -22 48 -16 19 25 -10
21 6 -42 -7 58 -62 15 -15 34 -15 -20 -48 22 -30 51 29 36 -29 -75 8 48 -8 -39 -34 -24 1 -11 -34 -26 22 -12 33 42 61 -36 -42 43 1 -76 -19 24 -28 59 24 -77 16 -45 13 -21 30 -40 31 51 27 13 35 16 2 5 60 6 -13 -8 12
-16 -71 -27 -17 58 2 2 35 13 -24 -31 -25 -25 -17 40 32 21 -4 -1 -37 -1 -25 -26 -10 -37 21 -61 -40 -24 -51 -13 14 30 36 -24 19 23 20 -19 -8 29 -39 -37 6 -41 4 -33 5 9 2 18 -15 -23 36 -44 10 -8 -38 -11 16 -2 79 -25 -8
-15 2 57 12 -40 1 -1 47 -14 28 33 18 -26 -4 2 26 -43 32 72 -10 -32 20 15 21 48 30 -36 2 52 14 -29 -9 -41 -17 44 89 -56 -33 90 -22 -3 -2 -49 -15 33 -11 32 -7 17 -27 74 8 -63 -9 24 -9 4 -6 -14 -19 -25 -14 35 -18
-14 36 36 -37 -42 -3 -25 19 -3 12 49 -7 -35 50 -2 -16 11 22 24 6 -14 27 18 -14 56 -2 31 22 47 -9 -23 -3 -48 -57 51 16 -51 -1 34 24 24 13 7 -39 63 -60 35 -39 -38 -14 16 -36 -31 -3 -2 -31 40 15 16 -10 -11 -69 46 12
6 -5 -20 -28 15 2 33 -9 4 -41 -32 -49 -28 24 -13 -7 43 26 -70 6 7 -14 -15 -12 7 14 27 -25 -2 5 -37 -19 3 -26 -30 -29 22 -10 -73 31 14 15 60 -12 -49 59 -3 33 3 27 -61 -9 50 -32 11 -26 3 16 32 56 21 -3 16 39
71 -3 -9 -34 7 -14 11 9 -23 -4 23 -57 23 -29 -36 -16 17 -28 -38 22 -24 -32 13 -8 -48 -26 20 -6 -29 12 -25 35 10 -56 -70 -24 9 -29 -71 42 -50 15 55 23 -58 62 5 45 -63 26 -71 -19 6 21 31 16 0 29 19 77 -27 21 -2 9
-13 4 40 35 -21 45 -20 51 20 0 27 55 -15 13 -18 -14 -35 17 51 -3 -4 42 20 2 60 8 -46 35 24 -27 -18 19 -31 -17 61 43 4 26 36 20 10 -19 -68 -8 37 -19 19 -27 2 6 6 19 -48 -13 31 -4 10 5 -2 -13 -4 -2 1 -6