=== FP32 bias ===
0.07896288484334946 0.06954412907361984 -0.11230140179395676 0.11409880965948105 -0.04205520823597908 0.07730802893638611 0.2437438815832138 -0.10215301066637039 0.0999334380030632 -0.012462821789085865 -0.023033449426293373 0.0858258381485939 -0.020204992964863777 -0.25686684250831604 0.2591772973537445 -0.05030326917767525 0.15300694108009338 0.18967032432556152 -0.12009944021701813 -0.050146397203207016 -0.09477683156728745 -0.058442164212465286 0.06807739287614822 -0.20717166364192963 0.05150847136974335 -0.23108872771263123 0.0016877263551577926 0.018085449934005737 -0.07117708027362823 0.09148846566677094 -0.13027052581310272 0.01860763691365719 0.14293217658996582 -0.03933613747358322 -0.06604170054197311 -0.09474050998687744 0.32421624660491943 -0.002107711508870125 -0.15485696494579315 0.36468687653541565 0.04788476973772049 -0.028023846447467804 0.0851040855050087 0.009862596169114113 -0.06601439416408539 0.09995779395103455 -0.19940491020679474 0.26850831508636475 -0.2295103669166565 0.022047925740480423 -0.15673348307609558 -0.08799415081739426 -0.0015390089247375727 -0.09105591475963593 0.05344962701201439 -0.14050334692001343 0.0749947652220726 0.0922727882862091 0.10387720167636871 0.06756407022476196 -0.0704905241727829 0.11603136360645294 -0.243761345744133 -0.0014860369265079498
