=== INT8 weight ===
-26 -54 -61 -45 -14 -9 -46 -55 -57 -61 -36 -10 -47 -52 -66 -35 -19 -19 -29 -52 -43 -45 -45 -25 -25 -44 -38 -56 -31 -18 -35 -28 -13 -21 -32 -9 -8 4 32 4 30 34 19 23 43 34 37 39 45 48 34 38 64 38 25 58 66 67 38 58 34 55 53 66 66 45 28 29 43 53 38 9 -25 -10 -4 -6 -5 -2 -19 -10 -2 5 -8 -12 11 15 -18 -16 -9 19 -5 -9 9 -4 4 -12 -9 -7 21 7 2 -10 -17 8 -20 -5 -17 -1
-49 -35 -58 -24 -36 -40 -23 -43 -47 -37 -25 -4 -23 -35 -30 -11 -13 -27 4 -29 -17 -27 -22 -3 8 -5 -18 20 25 0 8 23 -2 38 28 11 -24 -13 -36 3 -22 -10 -3 -33 -37 -7 13 -3 -14 -35 -10 -24 -13 -7 4 -21 -28 12 -14 -4 7 8 27 29 35 17 31 24 28 52 25 23 2 -3 -5 3 -2 16 11 -18 -11 13 11 2 7 -11 -27 -5 -16 -5 0 14 -15 -7 -6 -5 26 15 13 34 20 41 36 60 30 40 41 33
3 16 8 24 8 6 19 25 -2 5 12 2 16 2 17 31 -1 14 8 10 16 24 7 11 -16 10 16 18 -1 -9 6 9 5 -7 9 -7 -38 -32 -54 -27 -45 -21 -37 -34 -76 -50 -50 -25 -35 -55 -73 -66 -56 -30 -62 -69 -51 -48 -34 -53 -42 -48 -54 -43 -31 -18 -30 -43 -52 -35 -46 -22 -23 -8 -20 -25 5 14 -22 -20 -10 -25 -23 -15 6 3 -28 -25 4 14 -11 -13 -17 -3 -20 4 -7 -9 -2 -3 -10 5 16 15 -9 -17 23 4
-5 23 35 41 21 6 -25 8 12 25 5 -15 -5 -2 19 22 -27 -9 -18 -7 -19 -14 -26 -29 -28 -34 -7 -32 -45 -36 -44 -19 -10 -1 -23 -12 -11 36 27 42 36 -16 5 32 49 50 16 12 12 26 41 23 1 -2 -25 27 29 6 -17 -17 -18 11 32 2 -3 -24 -14 -2 12 0 4 -28 -12 5 47 32 20 -9 -5 40 58 52 6 -19 8 32 29 30 -4 -31 -24 5 9 -4 -15 -39 -14 9 18 13 -36 -40 -43 -22 -16 10 -25 -37
33 35 51 46 24 -6 18 25 82 69 46 11 10 58 60 68 32 22 4 41 76 64 31 14 7 17 55 41 22 3 -17 -7 15 28 -11 -11 -4 -17 -8 10 -26 -5 -27 -9 12 17 7 -10 -20 -12 5 4 3 -8 -7 2 -5 12 -19 0 -27 -24 11 -23 -9 -30 -5 -38 -2 -19 -39 -19 5 -23 -12 11 -20 -9 -19 -8 2 -10 -2 -23 -11 -26 -6 -18 -6 -28 -12 -32 -21 -8 -16 -28 1 0 -18 -11 -6 -20 -1 -1 -12 -21 -18 -22
-35 -37 -43 -20 -22 -19 -43 -29 -47 -21 -9 -31 -36 -60 -55 -47 -29 -33 -26 -60 -47 -38 -49 -39 -32 -39 -40 -48 -34 -28 -25 -24 -17 -42 -19 -18 28 40 23 28 38 27 24 47 49 61 38 29 25 49 38 61 61 37 26 26 32 35 53 45 35 52 50 54 41 47 44 48 53 47 40 24 -14 -11 8 -18 -13 12 0 -8 -11 9 -9 -19 -25 -12 -23 -23 -4 -10 -23 -27 -12 -14 1 -6 -5 -13 -28 -2 -21 -23 -18 1 -14 -17 10 -5
50 37 35 37 27 20 39 47 20 28 37 23 35 55 40 39 37 31 52 27 43 24 45 7 35 32 34 39 14 24 43 31 26 29 25 11 2 -1 -3 -9 -12 -3 6 -8 -4 -3 -8 -16 10 0 11 7 -11 -1 12 -7 -16 -18 -5 -26 -4 11 10 -11 -11 2 14 23 16 10 -5 -17 -4 -22 -53 -56 -51 -24 -26 -51 -62 -59 -62 -55 -36 -46 -64 -70 -70 -43 -38 -57 -41 -62 -62 -43 -28 -39 -43 -35 -34 -45 -12 -5 -27 -24 -39 -25
-29 -27 -34 -28 -20 -26 -30 -7 12 -8 1 -25 -38 3 22 19 14 -16 -15 -2 1 11 -1 -15 -38 -20 8 -24 -8 -32 -59 -54 -39 -47 -36 -55 -30 -6 30 18 4 -10 -1 17 44 43 41 13 14 49 37 44 31 15 7 16 51 60 38 11 -22 16 34 36 8 -7 -26 -12 -13 5 14 -30 -17 -9 -17 -15 -18 -9 -5 0 7 3 8 15 -4 17 25 15 29 -6 -31 7 2 3 21 -16 -16 11 1 1 -10 3 -39 -18 -22 -32 -18 -40
55 22 6 16 27 17 31 -6 13 -8 -4 5 7 -10 -1 -20 -12 -14 26 -6 -21 -10 2 16 38 0 -6 7 0 16 44 10 27 14 20 28 51 51 47 36 47 36 35 33 24 -2 29 16 24 3 5 14 0 26 19 13 11 -12 19 41 51 28 1 -10 26 35 66 21 21 47 21 50 26 15 -10 -25 7 28 1 -11 -44 -45 -35 -7 -14 -55 -83 -78 -46 0 -19 -54 -81 -82 -63 -3 14 -29 -65 -58 -31 27 24 17 4 -13 8 18
-6 -11 16 -4 -3 16 -14 7 11 0 11 18 -21 2 12 -17 -2 -13 -6 -28 15 -9 -22 -25 -25 -3 0 -8 -2 1 -28 -26 1 -1 -26 6 -1 6 24 20 11 31 9 16 10 12 37 27 11 21 29 4 33 20 -13 15 17 -4 3 3 -6 -10 25 19 -3 2 -20 -17 2 -6 -9 5 18 -7 10 22 17 10 7 -4 1 -13 15 1 -6 -11 14 14 9 -2 -10 0 -17 7 -23 -27 -22 -5 3 -4 -29 -26 -44 -42 -22 -30 -23 -19
-7 1 7 20 -8 -8 -3 -11 -12 3 -2 -15 -6 1 -9 -12 -11 -6 -15 -28 -6 3 5 -25 -49 -29 -53 -27 -42 -9 -52 -57 -54 -51 -51 -30 34 47 40 62 45 36 15 37 40 63 59 32 38 48 45 57 42 48 17 11 30 26 25 15 9 12 26 3 18 25 -5 -25 -10 -9 -10 -6 7 -4 -17 0 -20 -5 -25 -28 -42 -29 -33 -25 -32 -46 -39 -22 -26 -29 -41 -57 -47 -53 -24 -17 -51 -38 -63 -46 -45 -43 -18 -56 -39 -54 -52 -23
72 54 42 47 42 39 43 10 -7 -20 8 33 5 -37 -59 -48 -37 7 15 -40 -73 -58 -17 8 8 -31 -47 -30 -24 19 45 4 7 21 1 14 48 44 42 39 16 33 18 -4 -40 -9 -22 -5 -9 -44 -53 -40 -26 10 6 -52 -62 -75 -51 -10 -16 -30 -61 -45 -36 -7 13 -25 -33 -9 11 20 63 64 35 35 55 50 57 11 8 21 29 44 27 18 -12 -23 10 26 37 -12 -21 -14 11 19 38 -8 -22 1 21 37 51 26 5 17 28 47
31 13 7 26 16 26 28 18 16 7 13 17 6 -7 4 21 26 21 29 0 5 2 27 21 22 9 33 25 29 39 23 13 28 48 42 32 20 -28 -43 -49 -37 -16 -16 -48 -69 -67 -33 -20 -16 -50 -61 -49 -45 -26 -12 -42 -79 -65 -34 -20 -1 -28 -35 -26 -21 27 28 7 -3 -9 -2 33 22 5 8 9 19 23 5 2 -5 -2 -2 0 17 -11 -30 -37 -23 18 26 -8 -32 -6 4 29 17 16 -2 1 9 49 36 27 12 18 30 35
-54 -62 -82 -73 -81 -43 -16 -19 -33 -41 -68 -44 -12 17 16 -8 -32 -47 29 53 56 28 -5 -31 44 51 43 8 -5 -3 32 72 55 23 25 -3 -67 -67 -89 -77 -86 -65 -38 -32 -59 -77 -72 -35 3 12 0 -15 -27 -52 41 39 45 21 -7 -25 53 77 47 35 9 7 65 77 61 45 50 24 -64 -62 -97 -86 -58 -54 -40 -43 -53 -77 -66 -56 -3 18 -19 -38 -50 -42 24 50 32 12 19 2 52 73 68 40 38 31 49 91 61 71 41 25
-4 7 -5 16 -2 7 14 6 -8 26 9 -13 39 32 17 6 17 14 14 36 26 16 39 17 19 32 28 34 10 14 30 18 20 35 17 34 -5 -17 -9 -32 -32 -35 -20 -20 -23 -27 -4 -18 7 -6 -13 10 4 -26 2 -3 15 16 22 -6 -18 -6 5 20 9 9 -11 -7 0 -19 11 -6 -21 -12 -4 -21 -25 -28 -21 -20 -14 -18 -27 -30 -5 -6 -11 -6 -18 -5 -23 11 -11 -1 7 4 -1 -23 6 11 -1 -8 -27 -31 -13 -28 4 -24
16 37 30 -3 12 20 18 9 27 3 27 3 20 20 20 4 19 27 24 21 34 31 13 33 37 23 -2 20 29 22 34 17 22 21 32 40 28 1 -5 12 -14 -5 25 14 -10 11 -18 8 7 -1 -5 -2 11 -7 4 12 -9 6 -4 -6 21 13 -15 6 -9 -2 3 19 -6 20 5 11 9 -16 -26 -19 -11 18 1 -28 -40 -18 -22 -16 -7 -40 -64 -43 -48 -14 -42 -42 -63 -68 -56 -13 -6 -53 -69 -43 -43 -32 -16 -8 -43 -38 -27 -16
43 19 49 38 14 10 19 31 12 31 25 16 30 14 18 7 10 -3 5 2 27 24 30 16 38 32 44 41 54 39 53 50 30 62 57 32 -2 6 -5 13 12 11 -27 -28 -3 1 9 6 -8 -39 -29 -35 -24 -4 -28 -35 -27 -13 -24 -13 -31 -27 -18 -19 9 11 -6 -10 3 -2 1 3 -20 -20 -15 -20 8 -5 -15 -16 -4 -3 0 -28 -33 -46 -29 -23 -27 -10 -45 -21 -44 -39 -8 -29 -13 -10 -10 -20 -14 -15 -6 -8 12 -4 6 23
-82 -63 -86 -59 -65 -57 -57 -65 -75 -68 -62 -65 -40 -30 -66 -39 -66 -53 -34 -18 -51 -40 -48 -39 -22 -23 -33 -9 -16 -8 18 21 10 -4 25 11 -32 -34 -44 -34 -15 -9 -29 -11 -20 -11 -3 -17 10 -5 10 -2 11 9 -2 15 26 39 41 13 17 41 52 39 43 30 47 29 46 61 55 50 -55 -40 -51 -50 -31 -40 -22 -30 -30 -17 -11 -26 -16 -18 -11 4 -17 -29 -16 9 20 1 29 -9 -9 7 14 40 26 24 25 28 21 17 16 22
-19 -28 -48 -48 -13 -33 -24 -36 -62 -50 -22 -31 -29 -45 -61 -54 -33 -40 -15 -34 -36 -53 -46 -35 -18 -13 -49 -26 -47 -40 -8 -14 -37 -57 -50 -36 -2 1 11 -9 -6 11 17 2 3 -1 -1 15 12 19 -10 -1 -4 -13 38 16 34 29 22 9 14 17 6 4 12 -1 14 20 20 -11 3 -10 2 7 -21 -14 -9 -14 -10 8 -24 -18 4 -9 17 1 -28 -12 -17 -16 4 -9 -2 7 2 -15 -3 9 13 -10 5 -2 -11 7 -14 2 -14 3
27 27 21 3 -4 17 13 15 4 19 -4 8 22 24 8 27 12 10 13 2 34 28 5 18 14 6 31 14 -14 18 27 22 25 21 13 12 -7 -8 14 11 -16 -21 3 -3 -1 -17 -7 -27 -7 4 -12 -36 -25 -29 2 1 -16 -24 -20 -7 -11 3 -19 -30 -13 -3 20 -7 -5 -12 -11 -30 20 -11 1 -7 -13 -7 -15 -21 -5 1 -19 -25 11 -11 4 -8 -28 -12 13 -6 -2 -20 -13 -6 16 1 8 -10 -6 -20 16 -14 7 -18 -26 -28
-56 -19 0 -35 -44 -35 -21 -12 -10 10 1 -1 -25 6 30 28 15 11 -14 12 19 16 -9 -19 -48 -31 13 6 -17 -46 -66 -44 -14 -33 -43 -45 -35 -15 11 3 2 -16 -31 -11 35 32 10 -3 -15 1 49 52 17 -5 -13 1 27 45 30 17 -46 -31 8 17 -10 -15 -78 -37 -19 -25 -30 -32 -5 12 51 65 33 15 26 33 98 88 59 58 36 60 127 122 98 41 4 64 100 115 72 64 -13 25 76 64 19 0 -68 -28 17 38 3 -8
15 14 12 10 30 20 18 10 28 16 3 -2 12 23 22 24 36 4 -10 23 33 17 29 19 2 20 9 37 17 -9 8 20 18 7 12 13 -44 -45 -58 -34 -40 -9 -14 -50 -46 -46 -30 -15 -40 -21 -31 -42 -42 -48 -29 -35 -24 -36 -25 -33 -23 -26 -23 -16 -18 -17 -14 -6 -40 -25 -31 -11 -21 -22 -10 -19 12 -23 -15 21 23 -6 18 -11 17 18 29 36 17 5 24 32 20 31 21 1 15 38 36 26 6 -9 6 27 22 5 23 16
-40 -13 10 0 14 1 -35 -20 -12 8 -3 -9 -37 -5 -11 -2 14 -25 -46 -8 4 -13 3 -1 -29 -1 -18 -15 15 -28 -28 -14 -4 -20 -8 -27 -29 -3 -1 -1 0 3 -8 -8 -12 7 2 -17 -28 -16 -8 -10 -20 -11 -30 -23 -16 -15 -14 -24 -7 3 -8 2 -5 3 -17 -11 -11 -4 20 -9 -20 11 18 4 31 30 4 20 32 22 8 -3 6 -1 11 3 13 17 -4 -5 29 2 24 15 16 -2 16 12 28 -9 -11 27 8 4 29 7
-3 -36 -48 -25 -40 -16 4 -31 -43 -23 -7 -21 -11 -29 -19 -43 -10 -13 -11 -22 -16 -27 -11 -24 -20 -21 -35 -24 -17 -38 -13 -42 -54 -40 -36 -48 -28 -28 -25 -35 -35 -36 -1 -18 -12 -20 -4 -25 18 -3 -26 -27 -3 -10 11 -22 -18 -20 -9 6 4 -7 -21 -39 -25 -2 -3 -7 -7 -32 -21 -8 37 11 38 34 25 7 54 44 61 51 21 22 69 68 71 48 56 55 58 70 77 49 40 51 37 46 57 38 59 48 36 34 47 55 31 49
-26 -37 -41 -28 -23 -1 -49 -45 -55 -43 -50 -35 -48 -59 -33 -45 -37 -33 -18 -34 -51 -37 -21 -8 -15 -12 -27 -21 -9 -24 20 22 19 13 2 3 -16 -2 -9 -11 -8 -13 -8 -7 -16 -13 0 -5 12 -2 -2 -3 -7 17 1 34 29 29 0 -3 23 19 21 40 24 21 18 37 38 53 35 20 -26 -1 -11 -16 -6 -20 -9 -15 -16 -15 -5 -21 -14 6 13 21 -1 -18 -9 18 37 39 -4 -16 13 48 20 28 6 -6 31 47 27 27 14 -3
10 15 11 8 20 22 18 0 -22 -26 -13 2 -22 -31 -35 -17 -29 12 -21 -29 -38 -38 -21 6 -4 10 -1 -24 -14 15 18 30 31 12 21 32 18 0 -17 -22 -4 -11 -18 -10 -30 -24 -11 -9 -31 -56 -43 -43 -44 -23 -9 -46 -47 -70 -39 -13 -6 -15 -38 -23 -25 -29 32 -7 -16 17 -18 8 30 50 42 44 31 24 48 28 4 5 21 24 36 25 -9 6 22 24 19 21 -3 14 -11 28 18 22 35 9 0 6 61 47 27 37 32 18
13 -7 -5 -11 -30 -32 -2 13 13 -4 10 -23 7 5 17 19 -3 -26 -3 12 11 -9 5 -13 11 22 17 -9 -13 -15 -14 14 -14 -3 -17 -13 40 15 25 -6 7 -7 45 31 56 29 27 23 23 61 61 40 23 27 29 50 66 54 30 -6 21 56 50 45 14 13 13 36 17 15 -9 -12 -32 -20 -63 -44 -64 -40 -24 -50 -55 -49 -59 -61 -27 -34 -63 -55 -64 -48 -35 -58 -70 -63 -38 -56 -17 -47 -55 -73 -43 -49 -9 -41 -54 -64 -38 -33
-17 -7 -3 25 6 -5 -7 -2 -30 -8 19 -16 -25 -33 -30 -27 -10 -25 -60 -57 -46 -45 -41 -28 -41 -63 -55 -60 -39 -12 -40 -20 -44 -45 -29 -18 15 36 32 51 47 44 -5 14 18 59 63 41 -1 1 14 49 32 28 5 1 -3 5 32 32 -17 -5 -13 18 4 22 -8 4 9 29 42 31 5 3 27 14 14 27 -9 17 5 28 28 7 -8 -1 -3 12 20 27 -18 -14 -16 5 18 16 -32 -24 -2 0 0 10 -17 -15 -25 16 19 22
33 31 40 44 14 41 15 21 21 32 28 41 6 5 -11 -4 32 37 -4 3 -3 -1 22 31 6 25 4 17 26 39 33 20 12 29 39 49 -27 -36 -31 -39 -28 -16 -31 -68 -58 -57 -29 -12 -48 -63 -69 -66 -42 -32 -50 -53 -96 -68 -42 -12 -47 -44 -70 -44 -27 -19 -1 -38 -32 -23 6 21 8 23 12 32 34 21 15 24 32 26 17 24 1 16 20 -1 26 34 7 0 15 10 28 46 31 24 -1 11 19 44 31 20 26 24 35 49
13 -11 10 27 13 14 13 -10 -5 11 0 11 -10 4 18 27 10 -8 -21 -18 -16 2 14 12 -3 -27 1 -15 -12 8 -24 -35 -15 10 -4 -22 -26 -25 -28 -7 -25 -8 -15 -42 -21 -20 -39 -18 -43 -19 -10 -13 -33 -21 -38 -36 -26 -38 -42 -39 -54 -49 -28 -24 -49 -33 -55 -69 -63 -54 -38 -46 29 23 57 32 45 9 12 55 46 60 59 40 34 70 74 73 49 35 15 39 62 62 59 24 24 26 30 50 45 19 -29 -3 8 1 9 1
37 36 27 22 11 27 28 37 38 49 36 48 46 39 51 53 54 58 32 34 44 54 50 48 22 22 36 49 46 33 7 20 39 50 50 37 16 21 31 31 33 15 17 15 6 6 7 37 28 7 18 14 36 44 16 18 15 22 24 34 -12 -19 -4 -5 21 32 7 6 4 27 32 44 27 14 32 61 48 34 31 39 30 64 48 44 35 54 69 50 59 65 36 14 55 63 59 60 12 13 14 25 33 36 2 10 21 26 47 40
9 10 25 29 35 22 -17 8 45 50 45 5 -7 18 45 22 25 26 -3 15 28 51 32 16 -17 -9 3 28 42 27 -20 -12 15 23 24 23 -19 -8 -10 -9 17 14 -10 -14 -3 3 21 2 -13 -15 17 17 17 12 -28 -5 21 1 22 23 -14 9 -11 16 23 19 9 2 -10 19 29 23 -33 -46 -55 -30 -10 -24 -60 -52 -47 -39 -50 -25 -43 -68 -80 -55 -45 -14 -45 -68 -50 -38 -30 -35 -45 -50 -60 -25 -39 -20 -14 -43 -41 -20 -28 -7
37 49 34 35 54 31 44 44 45 55 47 40 53 57 45 48 59 29 28 49 26 60 57 45 0 10 14 42 21 15 -3 -2 17 4 37 -8 21 -8 4 23 24 -8 8 17 18 -4 11 18 -8 -15 -13 -2 1 2 -18 -24 -9 -21 -2 -12 -22 -34 -32 -31 -24 -23 -26 -36 -15 -36 -14 -19 -21 -17 -25 -16 -7 -12 -11 -36 -14 -26 -10 -21 -37 -30 -24 -19 -20 -18 -18 -27 -33 -47 -15 -42 -44 -52 -35 -58 -52 -37 -47 -58 -31 -35 -37 -51
-6 8 13 3 -18 7 8 3 12 13 17 25 10 20 24 13 28 37 23 13 24 28 41 37 19 17 13 21 37 19 1 4 7 28 5 0 -51 -32 -47 -56 -48 -41 -42 -40 -40 -40 -46 -38 -53 -40 -56 -41 -27 -25 -57 -41 -28 -34 -31 -10 -37 -40 -29 -32 -36 -27 -38 -25 -30 -37 -22 -7 4 -1 31 23 12 16 9 29 43 35 42 39 36 43 49 56 27 23 13 48 66 61 35 18 34 25 47 55 41 31 11 33 21 39 26 17
10 19 8 -1 12 -4 -26 -48 -58 -46 -37 -22 -36 -63 -97 -78 -70 -50 -56 -96 -119 -109 -64 -49 -17 -64 -82 -83 -48 -1 -15 -38 -56 -42 -6 -12 52 46 63 39 49 34 18 41 32 23 28 19 -3 -17 -26 -17 -6 14 -11 -17 -18 -30 -20 3 5 7 -26 -20 8 33 32 -7 -2 18 6 25 61 73 76 76 54 57 28 39 46 33 49 37 31 33 19 9 35 14 8 23 -10 15 20 24 36 3 2 17 8 25 23 12 16 2 22 30
-14 4 2 19 12 -7 -9 27 29 32 30 18 17 14 27 27 28 2 8 17 19 14 22 4 11 -3 19 27 2 15 -20 6 18 -2 11 -12 -50 -47 -58 -47 -25 -48 -23 -62 -59 -53 -59 -25 -55 -54 -52 -60 -60 -43 -56 -53 -70 -45 -63 -57 -41 -47 -59 -47 -65 -44 -55 -60 -63 -49 -50 -52 11 26 33 38 6 -5 32 33 40 34 18 14 22 45 52 63 30 4 18 47 60 69 31 27 15 47 25 31 17 16 19 29 37 8 1 -10
-2 7 17 24 33 30 14 36 30 30 47 38 35 34 57 50 72 64 29 50 68 74 52 86 31 42 63 62 54 76 32 47 27 43 62 46 -22 -12 -15 -23 -19 -9 2 -14 8 10 -4 20 24 13 4 6 34 33 -2 3 32 23 46 58 0 2 -1 26 51 55 -12 9 19 26 47 40 -6 0 -8 18 10 -1 12 21 0 33 25 42 34 28 38 26 43 35 39 31 35 55 63 65 9 34 20 48 48 42 8 18 7 17 39 37
-44 -54 -41 -57 -34 -37 -21 -39 -50 -38 -47 -62 -32 -40 -53 -38 -48 -32 -18 -22 -43 -21 -14 -44 -32 -17 -19 -30 -21 -20 -22 -15 -16 0 -8 -3 5 27 13 12 15 15 25 21 36 29 16 -3 38 36 55 66 42 19 37 55 63 74 64 43 40 39 60 66 64 46 38 18 54 43 33 30 1 -23 -19 2 2 -7 -16 -17 -26 -14 -9 -1 -17 -20 -17 0 -14 -22 -12 13 -19 -1 17 -1 -9 -4 16 0 -9 -16 8 18 5 27 15 2
-30 -47 -52 -36 -46 -20 -45 -49 -50 -46 -26 1 -53 -72 -84 -54 -52 -24 -31 -62 -58 -64 -46 -31 -24 -35 -36 -36 -13 -18 15 1 -15 -2 4 11 22 5 11 42 15 29 15 18 29 19 24 31 25 44 47 24 20 33 33 27 46 50 38 56 17 35 36 54 36 41 28 22 61 60 55 53 -30 -16 -20 -23 -18 -15 -22 5 -16 -19 1 -4 17 -13 -19 -1 6 20 -8 20 8 -8 5 17 16 -6 25 24 13 25 14 16 29 11 18 -9
-18 3 -11 -18 2 -25 -5 32 12 15 32 11 23 55 56 45 46 22 29 64 46 34 47 19 9 12 21 49 16 -18 -15 8 6 7 -11 -20 -19 -34 -42 -32 -33 -25 0 -10 16 15 -13 -9 0 16 47 34 8 6 9 34 27 20 25 5 -10 28 30 4 -3 -11 -16 -5 -23 -18 -26 -27 -59 -48 -33 -64 -51 -58 -26 -21 -25 -43 -38 -52 -18 11 5 -21 -19 -41 -13 10 16 10 -21 -27 -22 -8 6 0 -35 -32 -54 -24 -18 -27 -51 -54
45 44 25 9 30 4 46 39 26 8 -5 25 34 13 33 29 25 23 16 44 3 3 16 -3 33 35 28 14 7 18 36 41 16 37 9 -1 -27 -37 -47 -43 -52 -15 -18 -58 -54 -76 -68 -25 -23 -71 -94 -89 -75 -66 -38 -62 -69 -80 -78 -44 -13 -58 -55 -59 -45 -41 12 -5 -44 -39 -47 -22 22 18 17 5 5 -1 29 14 -1 12 -7 17 18 23 6 14 -14 -8 11 35 -8 17 -7 2 41 25 6 30 31 7 48 50 40 32 23 23
36 30 9 -2 -2 18 48 0 -19 -1 6 -7 24 9 -8 -22 -1 -29 12 19 -17 -29 1 -27 12 6 -23 7 -1 -6 20 15 -9 -10 -18 -17 19 18 -8 -6 -12 -14 37 18 -16 -37 -16 -20 1 -18 -48 -26 -19 -9 -1 -26 -55 -39 -21 -30 6 0 -51 -47 -37 -46 -1 -13 -24 -16 -18 -24 66 40 12 18 34 8 56 64 34 13 27 16 62 53 35 36 12 14 41 31 21 6 10 6 36 23 8 -1 8 -11 14 30 -13 7 -4 -24
9 -16 -5 17 16 6 17 12 17 27 14 28 38 11 42 51 39 34 26 28 51 31 50 47 -9 30 9 26 14 38 -2 10 22 12 3 16 -27 -13 5 8 14 6 -15 0 -7 17 6 20 17 8 3 13 29 40 11 11 23 17 21 17 6 -8 2 -9 22 19 -5 -24 13 10 -1 27 -37 -51 -44 -33 -38 -35 -58 -48 -37 -40 -29 -37 -26 -44 -27 -28 -32 -6 -26 -34 -29 -16 -34 -7 -57 -51 -30 -35 -21 -22 -39 -47 -44 -34 -19 -5
6 29 41 15 27 2 11 5 23 36 26 10 35 34 46 29 19 3 16 8 41 41 28 30 -10 21 17 2 22 -16 -1 0 5 -4 12 -2 -5 -25 -17 -19 -1 4 -13 -27 -21 -13 -26 -3 -8 -22 9 2 -1 -6 -29 -32 -5 -3 -12 3 -45 -23 -46 -22 -48 -32 -42 -57 -30 -33 -41 -11 -11 24 28 13 33 5 24 27 18 24 14 16 29 21 31 41 43 14 14 2 17 19 32 24 12 -19 2 2 2 -5 -28 -18 5 -15 4 -14
-28 -18 -9 -4 3 -16 -16 -12 14 3 -8 -6 -5 10 18 15 -1 -26 -2 7 -12 -11 -14 -27 -21 -20 -17 -4 -4 -33 -14 -4 -16 -26 -30 -12 19 6 16 22 13 12 26 42 33 48 30 16 21 35 29 52 8 21 9 31 43 10 25 -21 15 5 35 8 4 -26 -1 -14 -4 5 1 -29 -2 14 -10 3 16 14 -11 22 25 1 5 -17 -5 -9 19 24 0 -14 4 -19 10 11 -16 -22 -15 9 -15 0 -24 -34 2 -20 -10 -8 -29 -31
-8 13 6 -1 -31 -13 14 2 -15 -22 -21 -9 10 20 -7 10 -5 2 -4 20 24 13 11 3 -16 -26 -28 -14 -6 -25 -37 -30 -20 -37 -25 -33 17 13 26 29 -1 4 31 31 30 23 23 29 37 44 58 47 49 47 29 64 47 64 63 53 42 24 45 37 34 26 24 15 12 4 -3 4 -23 -54 -50 -70 -57 -13 -13 -57 -63 -59 -53 -23 -19 -31 -59 -54 -50 -28 -12 -12 -23 -39 -42 -5 -10 -5 -17 -18 -30 2 13 4 -27 -29 -28 8
-9 -34 -48 -49 -9 -15 -35 -43 -63 -62 -41 -32 -17 -44 -77 -72 -31 -39 -26 -26 -55 -58 -39 -23 -13 -28 -54 -55 -46 -44 -1 -14 -23 -39 -26 -31 28 27 11 15 -7 -3 18 3 1 6 2 5 42 28 -6 17 4 22 15 14 -3 16 17 -7 36 9 6 18 5 6 21 0 14 20 -15 -6 52 55 46 34 8 28 52 38 39 28 29 15 49 34 34 21 34 27 52 44 29 25 40 31 34 17 30 19 24 6 0 17 1 30 -5 1
21 -20 -40 -26 -15 12 6 -27 -56 -56 -34 -1 -19 -11 -33 -58 -29 9 19 0 -12 -34 -14 15 3 -1 -24 -15 3 12 -4 -3 -18 -22 6 2 0 -7 -22 0 -2 10 20 9 -35 -28 -25 -6 4 12 -17 -10 -21 4 32 19 -2 -11 1 24 34 39 13 13 22 14 -12 3 -7 7 -12 0 -12 14 -17 -3 -3 11 22 21 -23 5 10 -13 14 27 0 18 0 7 18 43 37 18 38 19 19 50 22 20 33 25 2 16 16 5 25 16
-35 -39 -20 -37 -30 -22 -10 -22 -16 -38 -25 -17 -4 -3 1 -15 -17 -25 -8 -13 -11 -21 -19 -24 -20 14 -17 -30 4 -14 -11 1 -13 -22 -28 -24 -35 -28 -5 -21 -20 -25 -24 -12 -15 -23 -5 -3 -13 16 1 8 8 -27 0 18 -3 3 6 -22 -17 -3 24 13 6 -24 -35 2 -1 -33 -8 -33 22 21 36 25 7 13 33 48 61 51 38 13 33 67 79 45 57 21 33 69 71 65 60 21 21 54 48 54 39 8 -21 12 17 5 10 -8
-3 27 30 37 26 -4 18 34 41 51 45 3 16 57 57 68 32 33 16 55 57 38 53 23 30 39 43 54 33 20 -1 23 37 22 35 13 -2 20 -4 -3 18 29 7 23 31 29 15 13 6 -10 -3 -6 23 3 9 6 18 -15 14 -3 -19 13 14 11 4 -9 -9 -8 -8 -1 19 -7 0 -31 -34 -12 8 -14 -34 -41 -48 -41 -7 -14 -30 -65 -53 -42 -31 -23 -36 -64 -70 -54 -57 -20 -36 -49 -59 -54 -41 -26 -29 -42 -53 -47 -6 0
-32 -20 4 -20 3 -26 -15 -10 12 -10 -14 -22 0 11 17 -7 -11 -31 -33 13 -4 7 -27 -30 -12 -19 6 -3 -41 -54 -55 -46 -40 -46 -55 -73 -20 -16 1 -20 -27 -14 -18 -27 -3 -18 -35 -42 -13 -7 -2 -5 -41 -37 -16 -27 0 -11 -44 -62 -44 -7 -13 -17 -50 -67 -53 -57 -34 -41 -49 -74 43 40 64 59 34 34 45 45 78 49 38 20 30 42 78 59 36 1 30 45 84 70 42 17 21 50 47 37 11 -8 4 18 36 0 -11 -34
32 42 43 47 12 23 16 13 21 -6 -5 16 -11 -3 0 -28 -33 -12 -12 -20 -50 -39 -24 -36 -30 -31 -32 -32 -49 -19 -17 -17 -22 -44 -42 -26 62 74 87 45 29 50 63 53 42 48 28 19 28 47 31 15 -4 -12 37 34 25 12 4 1 6 2 8 10 -23 -21 -9 1 4 -5 -9 1 36 51 37 16 30 10 17 29 5 0 -21 13 3 -15 -37 -48 -47 -43 -23 -28 -59 -66 -36 -53 -27 -13 -40 -38 -49 -32 -28 -28 -36 -25 -51 -23
33 48 49 59 37 19 34 34 45 33 35 36 32 35 51 39 32 36 49 44 48 24 38 29 51 43 39 41 50 42 49 56 38 44 31 26 2 0 -19 -16 -23 -10 -18 -49 -64 -52 -27 -17 -44 -39 -46 -71 -47 -41 -12 -42 -54 -58 -46 -23 -26 -28 -47 -53 -27 -14 -2 -18 -17 -10 -19 11 11 17 11 12 -5 5 10 4 -14 -28 -14 14 -16 5 -9 -12 -10 15 -10 -23 -32 -6 -7 9 3 3 -19 10 4 10 36 23 9 19 1 32
-3 -5 17 32 28 2 8 10 -3 8 8 15 -4 0 11 6 17 -20 -28 -53 -21 -36 -7 -11 -41 -48 -25 -14 -20 -32 -31 -50 -27 -4 -25 -30 28 43 67 64 33 30 21 50 67 63 48 42 14 14 56 45 40 26 4 -8 22 23 15 -1 -7 -10 14 16 21 -13 3 5 8 10 0 7 3 31 17 33 18 -9 19 2 10 2 1 6 -12 0 -13 8 -3 -3 -38 -35 -57 -50 -49 -50 -54 -53 -57 -51 -42 -36 -31 -28 -57 -39 -43 -34
13 -13 -27 -19 -12 -3 -12 -14 -36 -37 -6 -5 -21 -37 -58 -63 -19 7 -17 -27 -73 -52 -32 10 19 -24 -25 -23 -18 25 23 12 -7 1 2 32 35 32 24 -2 36 33 18 19 17 11 20 22 35 35 -3 -14 15 47 25 17 14 11 32 41 41 30 16 13 45 59 32 36 32 44 53 38 -9 0 -36 -24 -19 -26 -4 11 -28 -29 0 -12 -7 -14 -33 -24 -17 1 28 -17 -19 -20 -21 17 35 15 10 9 0 21 35 40 16 11 39 28
-10 -13 -10 -1 13 -13 20 22 5 1 -2 -5 15 35 24 40 10 36 40 33 58 37 25 38 31 40 37 17 31 18 9 37 38 14 3 10 -18 -43 -19 -23 -26 -27 1 -29 -25 -14 -32 -8 -8 -27 -10 -38 -31 -5 7 -8 4 -26 -26 -9 -11 -1 -12 -27 -23 -13 0 -3 12 9 -8 17 -10 -29 -18 -15 -20 -6 7 2 -1 -20 5 -7 -8 -11 14 19 -6 12 1 10 21 16 -3 -9 22 10 11 -14 10 -2 25 6 14 -9 -17 -6
-44 -30 -45 -49 -46 -32 -42 -39 -70 -38 -25 -18 -49 -68 -43 -58 -26 -5 -46 -49 -39 -51 -41 -5 -23 -37 -38 -28 -27 3 -1 -29 -5 -30 3 11 16 26 30 12 26 3 7 18 29 49 15 33 13 14 33 29 31 31 21 13 51 62 48 54 22 15 37 46 62 46 12 38 32 39 51 32 1 -11 -11 4 4 -25 -19 -33 4 -21 -19 9 -40 -10 -25 -25 -24 10 -31 -16 1 -16 -20 -2 0 -18 -9 -13 21 26 -14 -8 4 1 16 3
13 19 1 11 7 -30 17 35 26 28 23 14 43 54 70 53 45 25 47 58 48 66 38 40 18 40 45 48 39 43 26 6 33 29 14 5 -34 -53 -45 -49 -38 -28 -32 -44 -36 -28 -34 -22 -28 -13 -3 -40 -1 -19 -23 -35 -12 -1 -6 2 -20 -9 -22 -13 -2 -8 -16 -11 -38 -32 0 10 -30 -17 -32 -45 -23 -36 -37 -13 -26 -3 -4 -20 -36 -25 -21 -24 7 -2 1 -19 -15 -16 -17 -2 -2 -2 1 -11 -4 2 -2 -6 0 -3 20 -5
-21 -4 20 12 -11 -10 20 17 58 40 31 21 33 43 78 52 46 23 33 71 78 72 45 7 6 31 61 60 32 5 -28 23 10 30 1 -19 -25 3 2 12 3 -13 11 31 17 43 19 6 31 52 50 41 25 10 2 28 68 36 39 6 6 14 40 31 16 -13 -16 4 26 19 -8 -12 -42 -39 -26 -29 -28 -28 -32 -22 -1 -12 -16 -31 -16 9 28 6 1 1 -7 -2 7 -3 0 -13 -23 9 4 11 -27 -24 -23 -24 5 -12 -8 -26
7 -20 -25 -8 -26 -12 14 -18 -21 -20 -8 -5 7 -2 -21 -18 -18 6 -4 6 -24 -22 -15 -3 9 -1 2 -26 -29 11 14 7 -24 -31 -19 -11 33 45 46 43 16 20 39 26 62 56 35 41 40 60 51 58 52 30 28 43 56 27 23 26 49 32 20 24 29 34 33 32 35 2 16 5 -11 -10 -8 -10 -20 3 5 -27 -25 -10 -25 -22 5 -39 -41 -28 -11 -1 -21 -45 -35 -47 -33 -28 2 -32 -45 -47 -37 -34 -12 -10 -29 -46 -17 -13
2 -5 2 -21 -50 -65 -28 7 10 -26 -41 -53 11 13 16 -11 -49 -58 -18 13 4 -23 -66 -83 -17 -12 7 -39 -58 -64 -18 -17 -20 -28 -72 -95 25 20 52 29 -25 -36 21 51 83 31 -5 -22 50 78 104 78 29 -12 27 80 81 45 14 -42 -2 40 48 20 -1 -34 -16 5 35 10 -42 -87 0 28 34 17 -18 -49 5 58 63 40 9 -20 30 72 111 84 36 -3 42 69 78 63 11 -34 12 39 74 55 -21 -33 -30 17 39 0 -45 -69
26 -10 23 6 8 -24 13 -1 8 -9 -9 -20 -9 -3 5 -26 -21 -23 2 -14 5 -9 -24 -25 -6 -12 18 -8 -15 -9 26 15 0 11 12 -12 30 43 78 42 28 20 55 52 64 58 34 24 51 51 79 58 31 47 62 71 69 53 42 41 42 58 67 44 28 42 21 32 36 54 18 9 14 16 7 3 -10 -26 15 -12 29 -4 -18 -6 -1 -3 5 18 -23 -10 1 6 5 -2 -12 -41 -21 -28 -3 -31 -36 -26 -4 -6 4 -20 -23 -46
-30 -20 -39 -14 27 36 -15 -26 -51 1 12 38 -25 -54 -43 -46 3 -2 -59 -55 -77 -41 -4 8 -27 -65 -68 -29 -14 -1 -13 -32 -57 -17 -19 19 -19 -22 -29 4 27 29 -26 -46 -28 -31 -2 33 -36 -63 -44 -48 -19 11 -61 -63 -71 -32 -15 19 -37 -41 -53 -37 -24 11 -8 -42 -38 -7 -6 31 9 0 0 14 28 63 -2 -32 -8 -7 34 47 -36 -32 -31 -23 10 15 -46 -39 -58 -25 -24 10 -42 -50 -63 -44 -16 8 -24 -38 -16 1 -5 8
31 17 30 24 23 14 11 5 9 37 19 23 9 27 20 18 15 15 -1 15 -2 12 29 6 15 27 3 24 6 19 -4 14 0 -4 5 9 -18 5 -6 -5 -10 1 -35 -40 -40 -34 -32 -15 -20 -56 -43 -64 -52 -42 -45 -23 -39 -54 -38 -34 -16 -15 -57 -49 -10 -31 13 -1 -20 -19 2 0 9 -22 -20 -22 -24 2 -3 -38 -59 -45 -30 -24 -41 -43 -54 -42 -45 -16 -19 -22 -34 -23 -37 -19 4 -23 -23 -29 -16 5 26 -5 -9 11 12 10
