-69 -50 35 -15 73 -85 4 -33 -17 -11 -64 -6 29 28 19 -35 -8 -30 -66 43 -34 29 -2 4 -19 13 -18 6 90 30 68 -39 19 35 -19 74 18 11 -52 -28 29 5 17 10 -43 -19 -5 2 13 39 57 -26 38 -18 -54 35 -61 53 -13 -46 -38 12 -20 52
-2 -16 -18 46 -49 1 -41 -35 60 14 1 27 -19 -82 -20 -28 -69 -27 -6 21 55 -50 -24 24 -4 0 -19 44 -5 53 -20 26 -10 -3 32 -18 -1 20 16 2 -2 -45 -38 29 20 -28 7 -40 8 -54 -28 44 -11 16 12 -26 71 -41 37 7 58 38 20 -73
7 -38 -28 6 20 16 -15 -19 47 44 -7 -10 48 -85 -12 5 -27 -57 -29 -34 25 -24 36 17 -43 -74 19 -51 -21 24 50 16 -18 -20 -58 -2 -21 -35 11 4 34 10 6 -11 -2 11 -19 -26 -40 21 -67 71 1 57 -3 2 18 10 43 32 -11 33 -37 -46
22 19 11 35 29 1 -17 -13 -30 -29 -30 44 22 -10 -37 -47 33 21 37 26 28 3 12 -14 -19 24 -72 26 -2 54 -30 -63 42 43 87 62 -56 -56 -45 -7 2 35 -76 39 7 -11 -33 4 8 -26 64 8 -8 -7 -8 -44 -36 -24 -86 -27 -25 20 63 0
39 6 10 3 -8 66 -20 7 35 42 34 -26 -51 9 -16 -21 19 58 86 2 8 3 1 16 5 -5 67 5 -35 -26 -56 39 -31 -11 76 -39 -47 -18 58 23 -13 48 -40 40 19 14 40 20 4 -39 1 0 -68 12 -4 -54 30 -24 -46 0 15 -14 45 -13
-34 16 24 27 1 6 -16 2 84 45 34 -1 25 -33 -22 23 -79 6 -32 -49 -17 -11 8 34 -7 46 -45 26 74 7 46 9 -1 -12 -7 3 -3 -46 -7 5 8 -30 -38 6 32 -11 30 -46 -15 10 -33 27 -3 2 55 1 7 -28 12 -20 49 -24 -11 -11
-72 10 -27 -14 16 -91 -15 -57 -15 20 -83 26 -4 -38 -15 -23 -32 -51 -82 32 -3 40 -13 17 -34 14 -36 -67 21 22 39 -12 -13 73 -10 -14 65 -36 -68 -34 69 -56 27 -9 5 1 -40 14 -23 14 1 -14 52 8 -51 44 -64 69 61 -20 5 9 -23 -31
-16 -15 -3 38 21 -14 -22 -3 24 31 24 43 -11 -41 6 -20 -67 -45 -29 24 34 -37 -7 36 -14 0 -25 20 11 5 16 64 -34 6 -17 -8 32 10 -8 -13 41 -39 -25 13 14 4 -36 -40 -4 -3 6 11 -11 -1 46 3 -14 1 -1 1 -22 -16 22 1
-14 -23 -33 -5 33 -17 34 -4 21 -30 -24 17 51 -6 59 5 34 -63 -26 18 -27 3 -9 -14 59 -20 -9 -76 43 27 52 -13 23 -21 -74 -23 77 -24 -33 -41 25 7 63 15 -28 -33 -56 -39 -36 18 10 8 40 13 11 29 -39 26 16 25 -52 -2 -67 23
41 31 -24 0 -44 87 -36 69 26 -32 33 -50 -50 -14 4 2 -5 53 24 23 -36 5 15 19 -23 4 65 17 -77 -20 -45 41 -32 -32 -20 -16 -28 5 73 35 -79 4 -11 -43 32 21 66 13 -12 16 -59 -3 -62 14 66 -33 90 -33 -27 25 11 56 49 -8
7 56 5 8 -49 47 -10 68 -7 -22 42 -8 -72 60 -5 -14 -28 62 11 -27 25 9 -15 -5 -11 -30 33 85 -56 13 -89 -22 -27 -36 30 -18 -51 -48 57 9 6 7 -32 -37 2 31 18 7 26 -27 -14 39 -1 1 7 -53 32 -30 -5 5 11 -27 52 9
6 14 -38 31 -12 28 56 13 -1 17 16 -9 9 39 -18 25 7 32 6 -24 -6 10 17 -19 -14 -27 66 44 -79 -59 -9 20 12 -19 33 -50 -71 36 59 -21 -33 28 -7 -32 -9 65 66 33 -25 -42 -53 -2 -5 -15 15 -28 60 -28 -4 39 28 37 53 23
53 30 -43 4 -28 79 -31 71 38 59 37 28 -43 -29 3 31 -62 101 25 -40 23 -33 49 31 21 14 43 -21 -74 -34 -11 60 -32 -64 18 -79 -17 49 88 -4 -87 -12 -12 -42 1 57 74 5 20 -28 -45 41 -56 33 38 -41 77 -34 -35 73 10 47 13 1
64 29 -6 4 -18 53 9 59 17 50 71 10 -48 41 15 -18 -25 28 59 -35 8 -72 33 -34 24 -30 20 -3 -37 -38 -41 8 -13 -35 10 -87 -28 -8 81 -20 -45 25 1 13 24 27 73 -4 61 3 -24 8 -28 -7 21 26 31 -4 8 70 0 28 1 -33
-13 48 8 40 -30 -8 -2 60 20 41 -13 0 -12 16 -23 -7 -85 55 19 -12 -2 -21 3 -49 -35 -19 -10 65 -4 -6 20 48 10 -41 2 29 -8 6 40 30 20 -37 -84 -6 10 5 36 24 28 -63 17 65 -69 24 1 -22 72 5 -24 20 30 24 51 -19
5 51 -15 17 -45 67 20 54 19 44 -2 -54 -16 -6 -76 6 -31 23 -13 -37 -25 17 -6 -11 -40 -11 9 34 -65 -17 15 13 -58 -51 39 -40 -73 30 46 2 -27 9 -27 -17 70 98 37 60 25 2 1 47 -29 9 17 17 97 -8 7 30 -13 11 7 -48
-14 -31 24 3 28 -41 3 37 -56 -41 -11 -8 -27 -6 53 -38 24 15 14 -4 -48 54 5 27 -6 -20 -49 -56 20 -1 36 -28 22 48 17 56 2 -62 -33 16 8 0 1 11 2 31 5 23 -3 15 28 7 26 24 -15 -2 -53 -3 -11 -47 -36 7 -36 17
-12 -30 8 -16 17 -33 30 -4 16 -38 -89 -5 26 57 50 55 16 23 -26 -17 -3 19 19 -13 31 -25 -14 -3 -20 -1 -35 -17 37 -45 -2 -37 46 -20 14 -29 -10 43 3 -27 33 -62 -4 30 -29 -21 -34 29 31 -4 -76 3 -77 -25 10 -1 -15 -6 -25 4
40 -28 -25 -41 -14 18 -50 34 15 36 35 24 16 14 -50 -90 -28 -12 56 2 58 -16 16 12 55 -24 -1 9 33 37 16 -66 -61 71 87 30 -3 24 24 -3 -14 24 -48 73 -7 35 84 1 10 -29 11 9 3 -12 40 -19 45 -35 -49 -25 8 19 -57 -51
0 51 1 0 -39 60 -45 53 52 26 34 31 36 37 -36 -17 -57 22 13 5 16 -28 72 -3 15 24 119 37 0 -41 -14 60 -44 -33 33 5 -14 18 13 -12 9 -41 -51 -45 40 6 47 4 -10 -3 11 2 -28 44 78 -47 68 -16 -1 13 -36 -12 39 14
-23 47 1 41 15 -26 -3 -11 -6 49 12 -2 -42 -53 59 56 24 -21 -37 17 -26 -19 -9 -40 -37 17 -5 -31 -40 6 -16 9 60 -98 -24 -30 42 13 -25 24 -57 -8 19 -36 6 -31 -38 -62 -54 44 -5 -23 16 52 -62 4 -65 -6 -5 33 -4 26 23 -12
-34 41 -46 18 32 -10 -1 -15 60 62 37 -8 15 4 -50 51 -33 -13 -33 -18 46 -71 30 -9 -17 14 -32 46 -28 -20 -18 13 -26 -50 35 -15 -8 39 34 19 -52 -6 -12 -10 18 -10 15 -32 -32 46 14 52 -69 -26 3 -53 -2 -31 23 21 29 58 12 1
-2 -46 0 -26 40 -53 -37 -3 -49 -20 -17 -5 52 -5 30 -7 0 36 -31 -9 15 19 -31 29 40 -26 -43 -18 43 16 29 -48 -20 31 -9 -4 -13 -13 4 31 42 -13 -1 0 -29 -43 72 8 16 -32 -17 14 83 4 -66 24 -67 -9 -33 -74 27 2 -55 -23
-26 -45 -10 36 -27 -11 -72 -8 -66 26 -42 -20 -20 16 -29 -67 -33 -29 -7 -48 15 23 3 47 7 -29 -56 -34 21 72 27 -49 -22 102 8 60 22 -24 25 -40 56 -33 -50 71 -35 -8 78 18 88 -33 69 22 27 -12 19 -22 -13 22 -12 -13 30 -8 -52 -46
41 -20 -7 -17 14 -2 -4 -11 -54 -7 38 -11 -25 3 -2 -51 6 -23 0 45 -19 -30 -20 -2 -16 34 -69 25 1 -14 -14 -33 1 49 73 58 2 15 13 21 -33 37 26 -13 2 33 29 -18 43 -63 0 -3 30 -15 24 -6 69 19 -23 22 -25 -52 -20 -21
-18 -32 14 -22 29 -1 -26 56 -24 -18 21 10 3 12 -34 -99 4 -32 35 1 5 -2 -3 48 18 12 34 12 -8 59 7 -56 -27 37 36 40 -24 3 33 17 21 -17 -26 66 4 -39 47 -23 54 -12 58 -1 -22 -24 15 -57 28 -32 -2 -33 34 -20 -42 -39
-5 -50 18 4 6 -29 -55 30 -13 32 -10 -1 -15 10 47 -3 -37 14 19 -40 40 12 28 26 7 -11 23 -9 10 27 14 40 -23 -18 22 9 28 46 10 17 -16 2 -46 -8 -7 -64 46 19 33 -60 20 -20 -30 -2 -13 -11 40 -8 -40 -16 59 -45 25 -14
-31 0 17 28 59 -3 92 -42 20 2 25 7 -19 -16 18 66 49 -45 6 -22 -61 5 21 -39 -40 -3 -3 -34 8 -12 -39 -9 36 -41 -79 3 39 -37 3 35 -40 10 55 -37 -11 12 -83 -48 -29 -7 -30 36 9 29 -66 21 -70 -5 -19 17 -6 -18 -12 12
0 6 -30 51 -47 27 20 90 1 15 25 11 -21 28 -70 6 -48 37 47 -43 -16 -43 68 -6 58 -21 38 40 -22 -50 -24 48 -18 -67 -24 -44 -20 44 47 6 -2 11 18 -76 0 -3 -19 20 -15 42 -34 -10 -83 43 -8 -31 18 -28 -4 29 -2 10 12 40
-8 -25 15 -7 1 -47 -17 -26 1 25 -42 4 -14 -22 35 -27 35 22 -17 -13 40 -5 -51 31 -17 1 -64 -33 18 57 -1 -54 14 34 2 28 53 4 9 -4 34 42 -20 16 -39 -45 24 48 56 -39 23 42 14 -39 -63 41 -40 51 17 -67 8 -43 -49 -41
-31 -3 18 -4 -12 -5 -21 14 -52 0 11 -40 -33 10 -37 -38 -36 -36 -11 3 15 65 21 44 13 -33 11 -14 49 38 32 -35 13 63 35 66 22 3 -61 30 9 -5 -37 38 20 -18 77 -28 24 -35 80 -36 43 1 -13 -41 0 -25 18 -12 -6 -35 -29 -5
60 -31 -9 -2 36 -3 -13 -7 -4 -12 16 10 -11 -43 1 -20 7 -46 -11 -43 94 38 -12 57 43 -17 13 -27 -15 44 46 -73 -15 -19 53 7 12 50 29 31 -27 0 -39 33 -16 -36 92 26 22 -38 39 11 -23 -3 -28 4 -17 -13 14 26 88 38 -24 -24
70 -17 -19 44 -30 8 -14 -49 -9 37 28 -8 16 -13 -61 -7 -69 -26 10 -4 72 -56 -29 68 29 4 6 -30 -32 -29 99 -77 -41 4 53 -64 71 103 65 -11 -43 -65 2 -4 -14 -7 70 -23 10 -19 24 20 -83 71 39 -28 29 -55 51 82 110 90 -31 -39
-77 25 -3 -29 -15 10 7 5 3 -43 -50 11 52 -3 27 39 44 52 -43 32 -77 -2 59 -17 -55 65 13 -10 45 63 -43 7 -5 -12 -60 40 -54 -57 -41 22 40 90 -6 30 -4 33 -6 5 52 52 -7 27 23 -54 -28 8 -24 16 -16 -59 -91 -61 81 72
-7 -77 67 51 -4 -92 30 5 -32 -28 -24 28 66 -22 53 4 55 -14 -36 54 -13 38 -18 -7 -78 41 -50 -48 61 19 -46 9 29 -11 -37 49 -19 -87 -64 -27 86 12 36 23 -34 17 -48 23 -47 23 -35 -40 72 -36 -27 -4 -12 66 -4 -30 -106 -40 44 61
-2 -33 12 -9 3 -41 42 -58 -35 1 -42 -8 -14 28 32 24 12 -29 24 2 25 43 7 0 27 -45 -16 -73 10 24 -67 23 38 -31 -7 -4 26 -57 5 -8 11 10 65 -16 32 -13 -17 1 -50 -42 -35 -9 43 42 -75 49 -42 31 -42 -66 -13 -15 -24 31
-2 -14 42 -23 21 3 -38 -7 -18 25 -7 -46 -16 -21 -19 7 51 -33 5 -10 19 44 47 -24 -11 14 38 -26 27 -6 -22 -42 -19 -35 -36 -12 3 -41 -31 16 -9 -31 28 -27 5 7 -38 -33 9 -26 -10 -41 65 53 -26 10 -35 25 -38 -75 2 -31 37 37
-18 47 27 -1 -60 -32 42 9 -15 -6 -22 -38 -9 29 -43 43 25 15 1 -18 -53 49 46 10 -22 5 -27 11 4 61 -74 38 17 -46 20 59 -45 -31 -30 -3 76 125 35 -28 37 1 -45 -30 9 18 39 -45 3 -2 -25 -47 -14 -1 -70 -30 -89 -103 92 67
-8 1 48 36 4 -23 23 -22 29 -15 12 25 44 49 -81 -31 -53 -43 -31 -18 -15 -11 63 25 -41 66 -69 51 40 39 -15 -4 8 -9 51 17 22 7 34 -4 21 -7 -5 12 10 43 18 9 -19 36 -25 -6 -18 -15 39 -20 52 -21 -36 47 -26 49 13 44
14 -51 -13 29 40 -76 51 1 -17 -37 20 17 -9 -9 42 38 20 -12 20 9 -30 -44 -20 -36 12 0 -14 -19 36 11 -8 -20 59 -51 -15 36 13 -32 -65 5 -31 17 83 24 -28 -29 -13 35 -21 -29 -16 -9 81 20 -28 19 -51 40 -50 -49 -56 -34 -4 38
49 10 9 -34 -97 57 -30 12 25 -29 45 -7 38 -11 -29 -11 -51 19 72 -18 -27 16 -6 35 61 26 40 20 8 10 27 27 -79 72 35 11 -3 14 61 -39 29 -41 -37 -30 -19 -12 -1 -3 -16 -78 -33 4 -52 23 50 -35 25 -52 -1 2 21 -8 21 -7
55 30 -25 3 20 74 -8 -3 -23 -26 12 -62 -41 14 -71 -27 -41 42 63 -43 35 -45 -33 11 76 -66 51 -1 -22 -18 25 -40 -63 35 23 20 6 46 32 21 -48 -18 -17 -1 10 8 20 4 -33 -38 3 -18 -30 32 59 -23 63 -26 50 27 42 -25 -27 -25
-88 -23 17 -28 63 -9 26 5 -27 71 -50 53 38 -4 27 23 -6 16 -27 -7 -58 -10 57 4 -35 4 -10 -33 47 -38 18 20 31 -70 -34 41 -41 -33 -14 18 -1 50 13 -33 -5 37 -51 12 -8 82 -26 -18 10 -16 57 -8 -35 4 9 -37 -29 10 10 22
17 -54 46 17 -43 5 -9 20 32 21 -9 5 -19 -8 23 -33 11 -37 -47 -38 -8 17 -7 4 -21 35 -32 8 30 56 -75 -20 -14 54 10 14 -2 -11 -7 -15 16 24 -10 36 -10 33 9 5 4 12 12 -55 21 -45 -43 19 18 1 -53 27 -38 -24 38 -7
28 -12 -48 29 2 55 -71 11 10 24 21 -32 -4 26 1 -27 -9 16 44 15 101 8 -43 52 64 -5 -41 18 -31 -31 59 -8 -47 59 9 -61 9 61 9 -38 13 -26 -5 -29 -17 -19 27 -37 17 2 0 -17 -18 -15 30 4 10 3 8 -1 72 83 -39 -75
-37 -22 25 47 -19 51 -57 22 11 60 -38 -12 44 2 -13 -53 -3 7 -25 -66 23 27 45 -30 24 49 7 20 25 -55 -28 -9 -32 14 15 15 13 13 21 -5 -15 -13 -58 -44 15 19 -55 -36 20 41 8 -37 39 -10 -7 -47 45 -17 23 -32 -3 29 43 -16
-59 15 8 -25 -21 4 63 38 -12 -67 24 -8 -27 1 42 35 33 -9 -21 -18 -69 4 -21 -34 -31 9 -3 -27 20 34 -20 23 53 -29 -15 71 -34 -67 -43 30 46 22 30 -12 12 -5 -17 -11 -43 -12 25 -3 55 -39 -34 -28 5 -6 -45 -62 -35 -89 40 58
2 6 19 -9 -36 -33 42 17 14 -57 -1 -33 -36 16 48 -7 66 10 21 28 -70 -9 1 -52 24 -96 -1 -20 11 -3 -38 -46 48 -100 6 4 -9 1 -54 32 3 75 62 -39 27 -54 -24 4 -9 -62 -41 6 21 25 -46 6 -64 40 -80 -29 -25 -12 21 21
32 -24 37 -21 -26 -19 7 -23 -52 5 6 -21 103 27 -26 -2 -35 -23 37 -5 21 0 -10 10 14 1 33 -5 -12 -67 19 -33 -2 -37 -63 -5 59 -51 8 40 -34 9 38 -6 -14 90 -1 -87 -43 -9 -38 -3 1 10 15 13 -34 48 27 28 -29 -43 -51 3
18 -7 4 -27 41 -8 65 -3 -25 11 52 -12 33 10 62 -35 24 -32 20 -5 14 -22 14 -52 -2 8 15 -52 49 -25 -51 52 18 -29 -85 -24 7 -14 0 42 1 -34 -8 15 -36 51 -34 10 -42 30 -42 20 11 -15 0 -10 -21 19 63 -5 22 -2 -12 50
26 6 3 18 46 -12 80 -1 -9 21 11 -42 22 47 40 42 15 -9 -7 16 -25 -17 34 -14 -11 1 1 -61 -42 -51 -37 6 -16 19 -11 8 -62 12 -18 50 3 3 -31 -13 -13 -19 -81 45 -16 31 -32 15 12 29 35 16 -34 21 51 35 -30 -9 10 27
-21 -3 2 39 24 38 8 119 69 -32 -21 35 10 15 -27 69 -65 20 -28 -5 -51 30 51 3 12 -10 -48 19 8 -19 16 58 -47 56 62 -26 -18 17 36 12 -23 -22 -104 -24 -47 -29 51 -6 -30 -7 19 -4 10 -9 12 -43 19 85 46 -34 -21 19 32 51
-58 -25 -4 -25 8 -44 43 -5 -15 19 40 -48 -16 10 11 59 -1 -30 28 46 -35 -19 15 -20 -12 13 40 -72 -51 15 -81 3 -21 -17 -53 0 -66 -32 -29 46 18 49 -13 -28 34 -9 -12 20 20 74 60 13 33 27 -30 -14 -55 -14 67 56 -1 55 21 -3
-26 22 16 -5 0 12 21 8 -55 -59 -2 -25 -1 47 -61 2 -19 -9 37 20 -16 -14 -22 35 64 -28 -21 18 -63 33 0 -67 -35 -31 16 74 7 -47 27 -10 30 -4 35 29 56 7 36 -15 -17 36 8 21 -59 8 7 31 -36 -63 -37 21 8 17 9 -35
3 2 -27 -53 -28 -6 -38 -95 -64 -2 -61 26 -21 -20 -14 -29 -29 67 -6 -1 61 62 -28 -16 1 -7 -9 -27 -32 1 32 -12 -14 -35 64 -3 8 13 -24 -34 -21 -30 13 30 34 40 -23 -24 -7 -64 -12 18 -12 -9 -25 16 31 -10 -40 -33 -21 -12 -20 -13
-26 5 -33 -16 -81 -24 -74 -52 -18 -7 -47 -31 -5 -41 -48 -61 -42 32 25 5 -5 74 -33 41 -30 -6 -47 -7 50 8 29 -41 -2 23 17 -41 2 -21 6 -65 -13 -17 0 36 5 12 24 -37 54 -17 18 26 10 10 -3 -41 78 -2 -7 -26 28 -57 -17 -17
31 -37 31 40 60 -8 20 63 21 15 0 23 12 55 -15 23 -17 -62 6 45 -20 -65 -37 -33 -38 5 14 -41 1 4 -3 28 17 24 -35 30 -48 -29 -34 42 -13 9 -41 -18 -50 16 -15 0 -13 68 2 18 -29 -37 -12 9 -17 13 82 -17 -23 27 -13 -38
-27 -32 16 55 44 -14 82 76 27 64 36 -39 54 -2 -2 59 -44 -56 -5 7 -54 -18 14 23 -21 -17 31 -59 10 -64 1 20 10 -11 -28 -24 -49 -12 7 2 -5 -46 -44 -24 -64 -10 13 -25 4 95 2 -21 15 -29 -8 41 -35 8 62 -23 -45 53 25 -46
28 -20 -6 4 0 -14 44 31 -22 27 58 -29 28 13 21 19 18 -23 29 -23 -12 -44 20 -9 37 25 8 -76 -7 0 -67 -17 27 -23 -106 -2 1 -33 0 70 32 9 24 -21 -19 -23 -43 -4 -42 8 -31 3 22 56 11 32 -41 15 66 27 -7 0 -23 1
10 -14 -12 -14 -6 -18 -3 44 -47 -37 27 22 35 64 59 -21 -4 13 60 27 32 -4 2 -4 50 10 -21 22 9 -3 -25 -25 2 42 -59 33 -13 -1 -19 56 24 -34 -25 25 -20 3 5 14 17 -38 -18 -49 23 -56 -32 48 -87 33 26 -35 -19 7 -25 -24
11 41 16 -33 -46 35 -64 -48 -33 -14 -43 29 -22 -53 -1 -55 -9 -6 2 -33 52 10 -18 18 9 -11 -38 18 23 44 13 -63 -2 10 35 -12 78 2 21 -32 -46 -9 51 36 -8 0 -2 -17 -45 -91 -28 23 7 41 -3 -31 21 -67 -41 -25 33 -17 9 -16
13 -74 -48 28 27 -20 61 8 61 37 17 0 6 -37 33 2 10 -62 -56 5 1 -17 6 -59 -68 -12 -17 20 68 -15 47 69 79 -2 -13 16 6 -39 -3 18 -27 -10 -42 9 -61 -14 -40 63 19 -38 -55 35 72 -28 -42 -21 -23 76 32 -31 -35 19 32 9
-1 -34 15 -24 77 -8 127 26 16 31 31 32 7 43 42 66 73 5 40 -3 -55 3 28 -43 10 7 36 -93 2 -74 12 99 58 -21 -80 -11 -33 -6 13 71 9 -13 61 -46 -53 20 -75 -45 -44 86 -48 -13 30 -31 -18 19 -60 23 17 33 3 3 -18 11
-19 16 60 36 38 -45 68 14 -35 -13 -10 -42 -24 12 50 59 3 -33 -46 24 -20 49 23 8 -17 -11 25 -34 -31 -58 -39 56 21 -40 -116 -26 -44 7 -33 32 18 58 45 -43 12 -27 -65 -22 10 49 -7 -37 3 17 15 27 -64 22 72 30 -41 -12 -7 56