12 69 31 -83 -68 21 30 -10 -4 -44 18 -18 -53 5 5 -35 -6 -35 14 -34 -36 30 36 -47 9 -19 24 2 -34 46 -24 -12 41 -69 -49 -52 49 1 -6 68 1 21 27 -12 -17 3 34 45 10 32 -8 -28 12 42 51 6 -33 -14 -57 -3 31 17 31 -28
-35 -23 17 -37 57 -54 52 -50 -4 17 -14 -6 47 -7 -18 -11 46 -46 -31 -6 -30 -27 -22 -17 31 -7 31 -24 17 -27 3 -43 -12 9 -31 32 -7 4 -10 75 -50 19 -3 7 42 75 -49 -10 17 -21 -30 18 82 -69 -25 30 -12 37 47 -39 26 12 -59 -20
-16 -41 60 -46 15 -93 71 -11 -30 2 1 8 -32 0 60 -27 43 10 2 -9 -51 15 -54 -16 -15 7 53 -56 -9 -42 -5 -20 14 44 -1 -3 -27 -43 -62 67 -22 31 -14 2 -2 51 -39 -23 -14 10 10 29 5 -21 6 60 1 8 -30 -87 -20 8 -13 -39
10 44 -54 27 -35 49 -16 40 3 25 9 22 -22 2 -49 -28 -12 -52 60 -36 15 -24 -15 70 10 27 5 -15 -17 38 5 -13 -90 -21 -17 -26 51 50 11 -51 -9 -35 -26 -1 50 -44 29 -3 -36 -11 22 -31 -77 31 57 -2 9 -74 22 69 -5 26 -32 -49
-16 -13 -40 76 21 1 -54 -13 -21 24 -32 55 16 6 -56 -32 -24 21 -34 -3 43 -45 -38 52 17 24 -57 36 6 10 35 -30 -36 -5 69 -8 23 16 68 -84 -14 -21 -27 9 -9 -66 24 -8 -24 34 42 -21 9 13 -12 -38 -4 -15 29 25 1 34 -26 -21
10 -31 15 -43 51 -65 92 -39 23 -10 -14 -4 59 36 33 -10 50 -38 -44 -13 -60 -18 -24 -13 28 -21 -8 -18 3 16 11 -26 -12 4 -18 -26 -1 14 -23 26 35 -16 1 10 -34 57 -81 -27 15 1 -42 25 56 -31 7 -21 -45 -5 61 -16 -70 -17 -7 0
23 31 -5 -89 -8 -69 88 -44 -6 10 23 -55 18 5 29 1 17 16 22 3 -46 38 6 -76 39 -42 56 -68 32 -67 -6 -12 84 -14 -79 14 1 24 2 77 5 -24 -16 -18 -5 35 -36 23 11 10 -48 -17 15 -43 -1 34 -69 12 3 -22 -15 -26 24 41
29 -22 21 -69 0 -23 25 -65 -18 -9 14 13 9 30 53 9 53 -36 24 13 -28 -7 2 -32 9 6 7 -47 -8 -39 -23 7 3 43 24 -27 -15 14 -62 46 -20 20 -15 27 36 16 -26 -15 35 -18 -32 -17 81 -53 -53 -4 -54 15 46 -1 -1 27 -31 -35
18 -6 50 -50 13 -43 77 -12 0 -26 -35 -60 -24 -21 52 55 10 51 -1 23 -66 8 32 -33 -23 -13 31 -54 -10 -21 -68 24 47 -45 -16 -40 -25 -20 -44 67 6 51 16 -21 18 5 -3 7 -12 -29 -59 3 46 0 -53 18 33 71 -48 -32 0 -54 0 32
-17 -62 -3 102 22 -51 -41 23 -25 56 18 62 8 6 -5 -2 -17 6 -39 -20 91 -20 -48 36 -38 20 -43 28 14 -9 29 -35 -4 15 85 52 -38 -17 42 -9 26 -39 -20 23 -10 -50 -42 -2 5 -34 64 23 0 27 -8 5 38 -3 9 18 5 -11 -2 44
31 -18 -4 32 5 31 -74 28 5 68 36 47 52 17 -53 -19 -17 -19 -27 -1 82 2 7 50 -21 21 2 26 2 -21 66 -53 -71 -9 25 15 27 30 68 -33 6 -6 -21 -13 -29 -26 27 7 28 -9 19 2 -55 20 -3 -45 36 -27 -6 40 -19 58 22 -43
-1 -36 13 55 -41 21 -88 4 -34 -22 8 30 39 -13 -23 26 -9 -20 21 -4 17 8 -15 7 -39 53 -38 25 11 26 41 23 -55 15 60 23 -31 -1 61 -51 -10 -30 -19 23 -9 -90 19 -26 4 -40 45 27 -52 59 2 -5 37 -23 -8 -11 -21 19 11 28
-38 -83 29 84 108 -35 16 -18 -31 39 22 31 56 19 4 -23 -11 -16 -49 -4 -1 -27 -13 15 -44 9 -85 35 46 20 16 -32 -11 123 47 -8 -45 -84 -17 -43 53 -36 1 53 1 2 -82 -9 53 40 -30 12 45 -48 -27 38 34 0 48 8 -35 -24 2 -8
-48 -10 24 89 32 0 22 26 -18 -3 12 41 55 -17 1 -13 4 -1 -47 10 69 -1 -21 41 -62 3 -65 41 30 -20 30 -28 -15 47 8 54 -47 -48 -6 -50 2 -5 5 40 -21 -4 -83 -20 11 8 -14 18 29 -2 -4 12 84 12 24 2 25 -44 -16 0
26 -25 -4 -21 21 8 -37 -47 4 44 -18 26 43 4 12 1 46 -58 -52 -75 13 26 -3 38 -14 13 -47 -13 12 37 28 -44 -49 48 26 7 -10 -10 56 35 53 -37 -2 35 8 -61 -5 -2 24 -11 35 -21 13 25 -26 -43 -41 -2 13 10 13 55 -38 -40
4 -45 18 53 34 -12 -7 -50 -35 6 7 82 5 3 -32 30 39 6 -78 -14 51 12 0 25 -20 -44 -4 32 41 -36 37 -18 -18 110 58 62 3 -30 38 0 63 -36 -66 14 -31 -56 -7 -39 23 27 4 65 45 6 -36 30 -18 -13 25 42 4 15 -21 -8
-15 -14 29 12 10 -40 -14 66 6 -11 26 -11 -34 -49 -41 21 -22 2 29 53 7 -35 -46 -37 51 -32 33 42 4 -27 49 5 5 41 8 -47 -18 30 17 29 -47 -39 36 6 16 31 -45 -70 28 21 -43 9 -36 -20 33 64 -26 3 17 22 11 32 -26 -45
45 5 5 9 37 1 -65 -32 42 31 -32 27 3 4 -23 -33 10 -40 -28 -18 1 -32 12 33 -25 6 -28 4 16 2 42 13 8 -21 37 1 69 3 -52 60 -26 -17 30 -15 0 23 -5 4 23 -4 -4 22 34 -58 17 -5 -43 -54 -19 14 34 55 2 -57
-54 4 -63 -1 -23 -24 31 24 56 -46 -28 8 59 30 22 -39 5 27 -29 2 -15 51 -10 29 -52 29 -60 -45 73 13 -10 -23 -35 95 -23 29 -44 9 -31 -40 44 -42 -29 40 -53 47 -4 42 69 -38 31 -12 -24 -24 22 13 30 22 -24 2 -10 14 -25 -8
-26 26 5 -42 -17 6 64 8 -16 -57 8 -23 -4 64 0 9 -5 36 38 -14 8 14 13 -16 2 15 20 -35 32 29 -19 27 16 42 -35 -16 -80 11 37 -68 -18 47 -29 -23 9 -27 14 47 16 -48 -4 10 23 -2 22 46 43 -3 2 -53 -43 -58 63 33
63 -16 57 -6 21 18 -74 -20 -65 50 32 -13 -49 19 9 17 -29 -25 2 -47 49 11 23 -2 77 -52 36 59 -19 -33 34 -44 1 -60 33 -45 60 47 -26 -3 -44 38 -2 -63 38 -66 77 -15 -6 27 12 8 -66 54 22 -28 -50 -13 -7 5 34 -12 22 3
8 9 -17 -54 -5 28 -3 -59 -41 1 -27 8 6 7 28 -8 30 6 18 -11 33 22 56 30 -23 33 35 17 -9 44 -35 5 18 23 -17 19 -50 4 -21 -70 21 50 -44 41 29 -85 27 56 -45 -15 54 -9 46 22 12 -59 -7 6 7 -17 42 0 -20 -7
-14 -37 -15 -1 53 -11 -25 16 43 32 13 -41 28 -28 -52 5 15 19 -22 -17 1 15 -28 9 -62 13 -52 -43 13 -47 68 21 -32 -14 -6 -52 47 19 6 -22 19 -9 25 20 -30 100 -42 -20 -11 37 -26 -12 2 -32 36 -10 7 -22 16 -26 -51 9 -19 6
-76 -69 -8 29 62 -24 9 9 65 -6 -47 17 38 13 -2 -40 -25 24 -59 89 -50 40 -56 17 -82 21 -51 12 37 21 50 25 2 59 13 14 -24 -17 -18 -12 15 -57 -30 -9 -50 9 -26 46 -21 -3 30 21 60 -45 -49 59 -2 21 23 -17 24 33 -19 -11
-23 1 1 31 -61 -18 26 29 63 -19 15 -26 58 -37 4 23 51 -44 0 73 -27 10 -43 -15 -24 5 -20 -3 20 -6 3 -12 5 18 -17 56 -13 -8 -46 -28 71 -15 13 32 -48 -21 -79 -47 22 -7 -9 11 -6 26 -16 6 51 -15 -40 16 0 -51 -25 13
-45 -10 -13 53 17 -43 41 28 42 -23 17 -23 35 19 -30 28 30 8 -11 84 -23 -8 18 -57 -32 -5 -44 -13 -14 -31 27 27 -2 76 6 32 -64 -25 -18 -53 9 16 -29 27 -1 19 1 7 33 -15 35 20 -16 4 0 67 23 47 21 -10 -53 -16 -23 62
-33 -37 -70 -3 9 -22 33 -44 16 -23 -6 -14 101 1 -5 15 8 -27 8 5 -3 13 62 8 -64 19 -3 -78 -15 -32 -33 -24 -6 27 -20 12 -6 2 -9 -57 34 -32 -20 0 23 -19 -6 29 -7 -38 38 41 12 -23 25 45 -13 -21 -6 -31 28 15 28 17
37 31 8 -29 3 8 -48 -13 -30 55 39 0 -53 -27 -26 30 36 -37 9 -77 0 -30 -35 -13 26 -21 16 -2 -44 -9 38 9 -12 -61 12 -34 59 55 -36 8 -70 40 0 -7 15 -29 40 -72 -35 -8 -30 -16 -24 47 -6 -57 1 -33 26 37 31 6 -2 -37
8 -14 -49 -6 -62 38 28 -1 -28 -67 4 -2 38 38 34 -14 -15 -36 -7 -11 41 -9 69 17 0 14 -17 -56 46 45 -32 -61 -32 -43 -10 6 -19 37 -58 -36 1 56 -45 -18 -5 12 34 105 21 -52 3 5 30 12 41 -24 14 -25 -79 -27 -23 12 59 24
-39 -21 -35 -10 40 -48 -19 38 73 11 -38 32 32 -50 0 -55 -2 28 -34 15 20 7 -52 16 -46 35 -69 28 -20 -4 46 -4 23 17 -18 -12 73 6 -25 -25 17 -23 -10 17 -43 35 -39 -47 7 7 6 31 44 -30 -24 54 -5 -19 8 17 2 36 -33 -21
-36 -24 25 16 10 -24 11 51 8 -1 12 21 6 -7 20 23 -38 14 20 81 6 27 -9 -8 27 -16 15 24 -56 -11 21 26 -13 58 -6 -16 -49 -13 62 -49 -28 -53 -8 27 -19 -45 -4 15 -15 11 -4 -5 -39 -28 -10 22 7 52 -10 -60 32 -22 -14 10
-57 -22 -59 -27 42 11 21 -7 16 -12 -2 -34 91 83 7 -86 -36 -4 10 -55 34 20 -4 66 -17 -36 -25 21 -14 -4 -14 -27 -3 13 20 -12 31 -36 -41 -93 6 -42 -72 10 31 18 -46 21 58 -23 64 -25 10 -17 -7 30 41 10 -11 16 16 -35 -26 17
14 -45 -84 -79 27 5 -41 3 32 -37 -25 1 20 1 20 22 -34 -19 63 18 44 6 -20 62 -6 42 16 -37 -28 12 6 -41 -62 17 -12 -83 53 28 46 7 -51 7 28 19 5 36 26 50 72 48 34 2 44 -15 -29 3 -32 49 22 84 51 22 -16 -49
1 20 47 36 -18 -44 1 21 11 12 51 -13 48 21 22 11 17 29 -41 7 -9 49 52 -12 12 2 -27 -1 17 41 -39 69 39 42 58 77 -47 -57 -39 -3 2 1 -28 5 25 -5 -22 -58 -49 -44 -22 6 16 -15 2 -27 -7 -23 20 -63 -73 -40 35 68
29 -17 71 48 -55 -21 1 -29 -6 -27 -24 -33 1 -24 21 1 70 -4 5 -27 -42 -41 30 -10 41 -41 -94 21 13 21 -26 8 63 -34 -19 -14 -42 -22 17 7 52 24 62 24 -44 -25 -95 -100 -52 -14 -89 19 -3 -19 -27 -45 -18 -19 -10 -32 -65 -5 39 55
9 39 -4 -6 -22 34 -18 -20 -48 16 -67 43 37 -46 1 12 14 -5 4 -1 -20 -27 -3 -28 38 -6 -24 23 28 -6 9 -17 0 -21 -4 -72 40 5 -11 -9 0 34 43 55 15 -46 -55 -53 -14 -6 -47 -21 -9 52 52 -46 32 -32 22 28 -26 -14 24 -19
3 21 40 23 -21 -12 16 -49 -10 15 -2 -18 -29 -20 -11 12 33 -31 -10 -33 25 10 -7 1 19 -18 -18 38 21 26 17 -4 -5 10 33 -57 2 14 20 -36 -33 -5 -2 9 -7 -37 -22 -46 -9 10 -36 22 26 70 16 2 73 -8 10 -33 -23 15 10 0
-28 -12 83 55 -15 -34 -2 54 11 9 18 -31 17 25 -42 -12 -1 -26 2 -41 -1 15 85 -35 -9 -48 -43 35 -9 -9 -47 78 43 5 12 91 -51 -72 -1 17 2 21 -23 -14 8 -30 -26 -28 -34 -55 42 -15 10 47 10 15 5 -21 -42 -52 -38 -32 35 49
-17 -49 -42 -3 -12 26 8 -39 -10 -52 29 -26 34 -13 19 31 32 52 18 -12 28 -68 -42 54 -18 20 -47 -7 -13 -27 -33 30 -1 20 -13 10 -25 -13 0 -33 -19 20 7 17 -29 46 58 -3 57 34 -42 24 -54 -66 14 4 53 52 49 47 27 3 -25 12
12 14 63 -10 -35 35 -17 -24 -40 16 -44 -43 5 -19 -34 37 29 11 -23 -2 -53 -2 48 -65 59 -23 7 12 1 -10 -3 11 16 -28 34 -60 13 9 -29 50 39 57 32 -6 -3 -72 -60 -75 -26 -18 -15 12 11 52 -10 -35 35 -14 10 -9 -45 4 2 39
-18 -28 -64 -26 63 35 -1 53 39 -33 40 23 -10 -38 -13 14 -42 -6 59 -62 -5 22 -51 85 -29 3 -16 -18 -15 -8 -27 16 -60 38 18 49 18 2 57 -45 27 -69 1 -76 -55 -14 40 70 0 -8 33 -35 -74 -42 -36 -11 -11 -9 -59 38 29 25 10 -10
4 -31 -93 -35 20 24 -26 88 16 -26 48 15 -78 5 -8 -18 -72 -21 -13 0 28 9 29 18 -49 -10 49 17 -10 12 32 -31 -23 9 11 -14 24 -15 11 -22 11 -61 -38 -59 28 -15 68 23 59 17 79 7 -46 23 -14 1 -28 6 -65 25 -9 16 1 -26
6 -7 70 9 20 -48 68 -7 -49 41 -59 -9 9 -9 -22 7 14 -5 -6 -14 -51 40 3 -70 55 -4 -62 -35 37 41 11 62 33 8 32 -24 -19 -30 -15 17 25 2 4 36 -46 -49 -62 -13 -34 6 -30 -44 28 37 -5 -15 -53 -34 32 -11 -10 2 6 30
-15 -16 20 32 -47 -6 -5 -20 16 -4 43 0 6 -27 -34 -36 62 14 16 -39 48 -51 -12 50 -31 -20 -63 26 0 25 -37 0 7 34 42 18 -10 11 -35 0 17 -14 50 26 -24 44 26 67 31 -37 -51 -7 -44 -26 33 -6 27 21 11 -21 -5 6 36 26
-16 -26 -40 -45 4 1 -49 7 49 -7 -43 4 11 -16 -3 26 7 26 19 5 36 -20 -54 57 -16 11 64 15 0 13 31 -67 -53 19 -24 -33 11 59 -18 -38 -14 0 42 -22 -49 35 67 5 79 39 24 39 12 -10 -25 -4 24 42 -40 -5 47 6 -54 -57
-10 -56 34 30 19 -72 -10 -51 12 -1 30 -26 -7 -21 -28 -9 1 1 10 -26 42 -35 -37 52 -19 -28 -30 26 13 48 16 -1 23 37 69 -32 40 56 -47 -12 1 -43 2 0 -9 41 74 13 29 -2 -47 27 -48 -31 28 -14 47 -16 56 64 7 -25 34 16
-16 -4 71 52 -3 -10 51 -21 -51 13 40 19 10 -5 8 -11 -5 -25 11 13 -16 46 63 -44 55 -63 -4 5 0 -2 -42 15 7 -1 1 81 -29 -1 -4 14 11 34 -26 -7 5 -69 -70 -2 -44 3 -41 10 -33 18 -38 -7 -5 -43 9 -34 -76 -55 26 45
-23 19 53 31 -69 0 -10 58 -61 22 0 -20 -45 30 -41 27 -45 -36 5 -33 -41 5 55 -28 68 -37 -11 -14 6 -21 13 47 10 -21 23 20 5 14 -49 11 -9 44 8 6 23 -66 -65 0 -51 -22 29 -16 -17 32 -29 -24 9 -39 -61 -28 -30 -77 61 22
-38 -9 -1 80 57 -38 -9 -3 60 22 63 35 -40 -127 -12 16 -12 -32 -25 -24 14 -3 9 -18 6 38 -8 -1 -28 26 -9 6 9 -3 7 22 -9 -44 -23 41 -10 -30 23 11 57 58 20 5 11 -15 38 31 -32 78 -3 12 -37 -70 27 -30 23 7 -12 -33
-39 -46 21 21 37 -35 -7 -34 -13 -5 -31 0 -28 -12 -24 5 12 -17 -11 -22 28 -32 15 -50 -16 6 -54 -49 9 -3 20 21 29 38 -35 -52 6 9 -23 -19 -26 26 -35 11 20 40 -41 -6 5 -2 -14 48 4 -48 -14 49 -22 8 49 -18 -13 -14 1 22
-42 -37 20 -2 15 -1 11 10 3 -5 -36 34 -2 81 -28 63 17 -29 31 14 -18 39 37 22 -3 17 -36 27 -32 -80 20 19 22 19 -14 -4 0 17 16 -17 32 -2 -32 -28 -10 -32 -42 51 60 11 -11 -36 -12 -81 -35 3 23 55 17 32 12 16 -9 30
6 12 55 -44 4 76 -16 -29 -41 83 3 37 42 13 -28 -58 -2 3 62 -13 36 7 -60 62 3 2 -16 56 -44 -9 -2 -50 -37 -9 70 11 13 37 19 -44 -27 -26 5 29 26 -48 18 21 -10 3 27 -42 29 11 -9 -46 40 3 -21 46 22 29 -16 -54
-9 -38 21 -69 -17 37 -12 17 13 -25 -44 -42 28 73 -45 40 -39 61 -3 7 -49 12 -10 5 -15 -44 15 30 1 -31 34 54 9 -34 -18 -4 -13 -37 -1 21 62 52 -59 -55 11 -42 -13 50 29 31 18 -111 -14 -39 -67 41 -11 67 34 37 -18 -3 -16 61
4 -8 3 3 -11 45 13 56 39 -55 -10 47 -57 -17 16 -12 -31 38 9 -14 32 -28 -5 -5 -21 -16 24 -11 -19 -62 -8 10 -26 -57 -13 49 6 -22 6 -17 45 19 24 -77 -30 -16 25 -39 43 13 67 -72 -8 50 17 -40 -11 -3 -24 47 14 10 50 -45
-22 -27 -31 42 -37 10 9 20 17 -42 27 -4 50 -34 46 15 25 -8 18 16 -7 -2 24 -19 34 -27 20 29 32 48 -12 -34 28 17 31 31 9 21 -47 -1 18 -22 44 29 -27 18 1 17 0 -38 -13 -8 20 33 6 2 23 -29 -85 25 17 13 12 -24
-4 34 -28 -14 -16 8 12 -5 29 24 69 -23 -16 -35 45 -78 52 -23 45 -9 -9 3 -28 -12 6 -23 63 34 22 34 2 -17 -6 -75 -2 67 -6 28 -17 -20 59 -16 3 35 22 19 40 -51 -12 -37 7 10 37 42 38 -21 31 13 -50 -10 32 -29 -26 -7
-15 40 13 -34 7 -5 -20 30 18 2 -61 -15 16 30 0 19 -26 19 -21 20 34 -26 -23 50 -25 11 -31 21 -5 -37 35 -18 -26 56 -47 7 13 -33 31 26 -4 -20 -52 12 46 41 -10 -15 -72 -6 -4 -23 10 17 -30 -10 -13 -14 76 -3 58 18 -8 -23
-10 -18 11 -34 32 -23 -5 -22 -32 45 -70 -11 20 15 -48 0 -55 11 -34 -5 32 38 -15 49 9 -9 -4 31 -64 -4 64 -47 -55 73 23 -11 -23 -32 39 -21 -7 -6 -41 65 74 34 -16 -10 -40 -17 33 -41 30 -4 -8 -31 -31 -2 90 13 35 51 -36 16
10 -47 16 17 19 -53 -4 1 -11 5 -19 -28 -9 19 11 7 -25 -51 -5 10 9 -16 24 -36 -45 62 -20 -56 35 -40 26 43 13 45 1 -33 -35 -27 6 16 -12 -15 6 -16 -7 46 -59 55 17 4 13 6 -16 -5 -23 33 10 -3 56 -18 8 2 32 1
7 -6 -32 30 -31 -23 -19 -18 53 -26 5 17 40 -18 24 17 -17 -5 -28 15 37 -57 14 -29 -67 3 -6 -4 9 -68 34 57 5 3 -20 12 0 42 54 -46 6 -13 43 -42 26 68 34 34 -91 -64 -14 9 12 -22 20 12 13 -14 46 6 53 4 31 1
29 3 -57 64 -20 25 18 -6 35 -3 26 -27 -80 -48 67 0 -26 -44 1 -65 19 -13 -16 -57 2 31 17 -28 18 51 -66 10 18 -31 16 -27 25 10 -34 62 -18 5 18 -5 -13 -2 -29 -86 -6 4 -17 60 0 52 -3 -53 5 -46 -47 -43 -8 -56 33 -2
-7 35 -25 -2 69 -51 8 -8 -19 -1 -31 10 59 35 -34 -20 9 0 -33 -17 45 53 8 -17 -9 -37 -55 -23 12 27 39 -75 13 48 -14 -30 48 22 52 -3 -14 -49 -5 83 47 80 -26 11 -39 10 -55 63 -38 -55 2 1 -46 18 122 -61 -29 -11 -55 23
-11 -73 8 28 66 -38 31 -49 40 -1 -43 48 66 2 -21 -3 29 0 -12 36 33 35 18 -20 -6 51 -97 2 15 9 60 15 23 66 37 -18 -38 -15 -7 -9 -38 7 -21 6 -6 26 -38 5 -33 -2 -23 3 40 -74 -2 25 -9 -10 99 -15 -28 -13 -21 -9
-31 -45 43 -37 73 -62 -8 0 33 28 -38 -15 37 69 -46 59 12 -16 -9 -1 -22 39 15 -24 -4 7 -37 -4 -5 -81 46 44 -11 7 -32 -5 -21 -58 5 27 34 -1 -23 -52 23 -27 -35 49 -5 7 19 -74 48 -76 -12 8 48 89 31 19 -18 4 -13 79