56 -5 19 -45 15 8 1 -48 7 -7 -28 9 0 10 12 -25 35 50 17 -23 6 30 13 -15 -19 22 -7 -11 -62 17 15 -34 -43 42 -47 -36 -24 -15 10 -17 -6 2 42 30 43 75 -19 28 -31 -9 -5 -80 -4 -5 -7 77 6 41 -1 -29 -22 35 -52 -17
18 8 28 -36 -45 -14 -34 41 -8 -16 15 -26 11 47 48 -24 -30 -15 38 -64 24 -29 12 40 50 4 -7 18 -38 4 -38 -29 -45 9 2 -48 -36 -4 45 -5 -36 -17 24 -37 -13 26 1 24 26 -48 -3 -18 -17 -11 49 22 69 -1 -49 27 -1 -10 -38 -32
25 -7 -26 71 13 -12 -26 16 17 -9 -10 -15 19 9 17 -14 22 4 -23 5 -2 -83 2 32 -11 -21 54 -1 23 1 30 22 18 36 54 52 -12 -23 40 -32 13 -34 -21 8 -31 -16 6 -42 10 -27 3 51 -31 14 7 -16 9 -49 11 32 -39 -41 14 14
-22 26 10 16 6 -11 7 11 34 9 47 -17 -4 -12 -18 43 17 5 30 -41 -36 -2 -29 -35 -8 -33 44 -20 2 -28 2 -19 10 11 -3 45 18 32 -30 12 60 27 -12 15 5 -7 -37 -11 -9 -24 32 44 -49 23 -15 -41 -13 -6 34 -11 19 38 -1 -21
22 12 25 1 -10 38 -42 45 -36 -5 -11 -27 -19 41 -4 -48 -43 65 16 -15 -17 -47 43 34 76 26 -23 9 -28 19 -14 -57 -39 -21 24 -42 21 -3 78 -1 -27 -29 -22 -35 -8 30 79 19 40 -57 40 -2 -37 -36 49 -25 56 -37 -39 -9 -14 -9 -29 21
-65 -27 39 20 48 -3 27 -44 18 -32 20 28 -43 -39 10 67 31 -22 -20 42 26 -2 -58 -74 -78 -14 -6 -38 23 -15 33 15 45 3 5 -6 39 25 -90 -14 38 24 -3 61 -36 14 -68 -15 23 -20 -36 37 3 -3 18 -23 -7 9 3 -33 -28 3 44 41
59 -25 -14 40 -55 85 -11 33 -19 -10 45 -49 -83 28 47 33 13 35 20 -28 7 -32 32 -15 29 -11 -4 -1 -67 -1 -11 -34 -26 -53 23 -14 -18 24 13 26 -4 22 48 -50 29 17 11 -12 -16 -18 1 3 -58 -8 4 -20 20 -5 25 -9 16 4 23 4
6 34 23 42 33 -27 27 -20 -46 8 61 0 3 -6 19 -17 -4 -1 2 4 -11 17 32 -2 -81 7 -41 78 51 17 -3 45 38 -15 -10 -9 -2 0 11 -1 1 -19 25 -22 34 17 -40 -17 -22 -37 -24 -5 67 -14 22 0 65 27 -10 -46 23 -35 20 4
34 24 1 -22 -42 102 -40 42 32 1 37 -9 -45 4 -27 12 -35 -34 4 -40 0 -8 -23 -12 24 -24 16 52 -63 25 33 -28 3 -11 -23 -71 -18 22 -8 -13 -63 -29 -16 -26 75 74 18 38 -45 14 -51 -71 -38 -23 28 36 -3 -19 48 49 20 9 -35 -6
21 21 -8 -5 -35 52 -51 -1 -14 16 1 -42 -24 45 4 38 -9 11 17 -30 7 -5 1 38 57 -58 -27 20 -66 -33 2 -32 3 -37 -59 -32 6 -20 38 -31 -62 -52 35 1 38 54 9 0 -48 2 9 9 -1 14 -30 -7 39 -35 36 -33 2 -34 12 1
37 30 13 -12 -70 36 40 23 7 -20 77 -62 -47 27 55 44 30 48 54 -121 -2 -17 25 20 67 -20 34 -12 -24 -7 -64 4 36 -34 31 -6 -63 11 6 15 -20 -14 55 -49 28 62 10 -9 -12 7 12 -17 -35 35 19 20 117 -20 6 29 24 -47 4 -24
19 -21 10 15 49 51 29 22 64 6 -35 9 -14 31 -29 -36 -4 -12 -50 -1 16 -25 -46 26 6 13 -47 6 -69 -8 -5 -68 -60 3 -29 -27 42 25 35 -8 -30 -48 35 -12 56 111 9 36 2 -11 -5 -66 9 -47 41 79 8 40 24 -17 1 15 -14 -43
-9 -5 25 -19 14 76 29 18 36 -61 36 -52 -4 -1 68 3 59 -22 35 -70 -7 -8 -13 10 65 -31 33 38 -62 -43 -4 -8 -18 -39 -47 -72 29 12 21 -8 -46 8 58 15 17 19 -21 -14 -54 -20 -19 -48 24 18 19 -6 11 -9 14 -44 16 10 9 3
-67 -30 -12 43 25 -46 12 44 20 0 -15 17 47 2 20 -26 -16 -25 -15 25 25 -42 16 -19 -56 1 -25 -40 18 -39 -9 -30 -26 42 -6 1 -17 6 26 -12 -32 2 -12 8 -21 -53 30 -24 20 8 -43 6 -25 -7 22 65 6 1 45 -22 -22 39 -11 25
35 8 45 34 -20 -20 42 27 -12 15 20 -45 -47 16 -26 -45 33 27 -25 24 -48 25 1 13 37 -24 -15 -49 -16 39 14 -32 -5 -46 -41 -2 23 64 -57 -3 66 17 37 -33 -53 25 29 -19 35 20 17 -27 -14 -19 27 -17 -51 -5 -11 13 35 31 -26 -26
-90 -40 19 30 62 -49 36 -5 49 -8 11 62 0 -14 -45 68 -23 -64 -31 40 -43 4 -75 -40 -10 -19 -26 1 2 -26 -14 15 -7 -13 -10 -4 -12 9 -63 17 10 45 -31 51 -55 28 -43 19 20 34 -39 51 17 -15 -44 -6 -29 30 -25 13 -36 -36 19 9
-11 24 5 -44 -13 -27 15 -5 24 7 -24 -12 23 -27 22 -18 -10 14 27 -5 -2 26 -7 29 -25 -28 -25 -28 29 27 49 -1 44 -40 3 10 -1 26 26 -12 23 -9 35 24 -4 56 -26 12 -5 18 0 -38 -32 -43 -12 17 0 -17 28 2 -16 45 -12 -9
-17 -16 41 -32 -1 10 16 -45 -1 35 23 -8 -5 24 38 25 -5 12 4 30 -10 29 20 28 8 4 2 -29 -59 -59 -5 0 23 5 -43 -29 -6 15 1 27 -5 -36 -11 -8 -24 13 -17 49 -47 36 22 -94 5 2 0 51 -1 9 -12 -7 21 -40 18 -11
-1 -37 5 -48 -38 -44 2 26 -24 -7 -22 -54 -49 44 45 41 7 7 36 -12 27 12 8 12 32 13 22 22 -26 -23 -1 -14 -31 -33 -34 -36 7 -30 -23 17 -36 18 60 -9 1 11 -2 -15 -4 52 -8 -43 20 -38 1 -23 -19 10 16 -7 17 -10 11 2
-20 -3 8 13 -38 -15 -42 -17 -2 52 32 -38 99 32 -16 -36 -18 -11 -35 -4 -14 -41 -6 34 9 -34 -3 -20 -29 38 28 9 -25 -10 -13 18 -14 -7 -12 -40 -14 12 -1 34 4 37 -10 -21 -20 -61 -17 2 -26 2 -7 3 -54 27 17 3 24 11 21 -12
-16 20 -15 10 13 15 -5 8 -17 33 23 49 -37 -40 -9 -38 -30 -33 31 40 15 -18 -30 20 -3 30 -39 30 -18 35 34 35 18 -36 -4 22 5 14 25 -1 33 -12 14 42 41 13 -8 64 32 -12 -7 62 49 -20 -1 -28 -6 11 49 -25 23 0 29 14
12 11 -4 9 -51 7 -2 31 -25 13 -8 35 43 35 5 -18 -34 5 19 -20 -17 -8 47 51 22 -36 17 4 13 46 -34 -53 -54 -14 -19 9 -20 13 26 25 -35 17 -42 -17 -36 6 30 9 0 -38 11 -43 -38 38 7 31 6 21 -30 10 -19 -14 -35 -10
-29 42 22 -31 25 20 47 0 -7 -62 -36 -2 74 -11 1 23 21 -23 -18 32 -20 15 -19 -9 30 -25 25 0 25 29 -20 -2 -18 47 -35 -32 56 -28 21 -2 -27 -16 -12 40 25 -50 5 15 13 33 -26 -2 -4 -11 49 10 -6 12 46 42 -17 19 -7 -43
-37 1 6 -48 6 -28 -13 -45 10 -33 -25 -49 14 22 64 -8 43 -20 -11 32 -49 -13 -3 -13 10 9 51 -9 58 -11 -30 61 38 -10 -4 -20 11 -51 3 -30 7 -58 38 -19 -24 -25 -48 -30 -57 -19 7 -14 21 76 -26 32 7 1 37 -37 -28 19 -22 8
-35 15 -4 42 10 -34 -4 -2 -11 24 -18 8 -17 24 -11 -33 9 -31 33 0 -13 -25 13 -1 -36 44 34 9 0 6 11 -30 10 -1 25 -6 -9 0 -30 39 5 31 -38 -11 -13 37 -10 42 -19 12 58 17 -5 42 0 -33 -22 6 3 16 -31 -10 39 -15
52 -33 39 43 -6 -6 7 -26 -18 34 1 -19 -21 -42 1 10 9 6 41 18 16 -44 -21 -14 5 47 -1 4 -30 24 -19 -10 -5 4 12 1 35 -26 61 -32 -35 3 -20 20 0 16 -1 52 39 6 -16 -11 32 23 -59 -19 12 23 -48 -11 3 38 31 -26
-57 57 8 -42 21 -10 33 29 -40 8 -17 -8 15 24 13 11 56 44 -27 -35 0 23 -9 -59 0 28 -1 17 11 -60 -22 17 -8 19 -6 36 4 0 21 -12 70 -4 36 -12 15 28 -42 1 -1 -10 0 -38 -29 1 8 -1 -13 -13 -10 -50 -33 -62 5 -17
-41 26 20 26 -16 23 -26 25 -13 42 -31 20 48 10 -31 25 -46 -40 22 -11 42 -43 -12 35 -3 -10 -33 30 1 3 40 -2 13 52 45 57 -10 -18 -6 -28 -45 -34 17 18 72 20 -43 17 22 -38 22 34 11 -6 25 -30 29 -10 34 -1 -27 19 17 -36
-25 31 -6 -6 41 -53 -17 -10 -16 -21 -7 24 26 -36 46 9 2 20 -12 -16 18 59 -32 15 13 -20 24 25 93 -4 21 27 -14 13 -14 -24 17 20 10 -36 -13 9 26 6 -29 8 -38 -40 -23 30 -4 50 -6 18 11 -9 36 -29 -33 44 22 -16 30 4
-25 -21 14 0 -17 7 1 -57 -31 -46 -4 7 32 9 -8 -4 -20 4 -43 21 27 8 -42 -5 26 -38 -1 -3 -25 -16 26 -8 0 -15 4 -19 -25 11 -35 -27 24 4 -12 -4 5 27 -18 -1 14 -23 -29 -40 31 8 17 25 7 4 9 24 -48 -31 1 -26
-35 -24 -40 -55 -29 -46 31 0 33 8 -44 -24 -53 -13 2 -16 -37 -8 -8 44 11 6 -2 -40 -35 39 -3 -11 -18 14 -9 46 25 -32 30 -14 -22 -17 -46 -11 -18 -17 34 13 -40 29 14 25 25 -17 20 9 53 -66 9 -15 -12 -8 10 -1 -4 10 -24 0
-17 -12 32 -33 28 -27 -33 -56 42 27 4 -45 -24 22 -55 -13 7 -1 -57 51 4 -35 -5 -4 -61 16 4 -41 1 7 25 -31 -15 20 -35 -22 -20 22 -2 -1 10 28 -4 17 -20 32 -33 -23 -28 9 0 -9 14 -19 -46 -15 -50 38 43 -13 -16 14 4 -18
53 11 -36 19 -33 78 26 10 23 -12 -4 -65 -18 -21 17 32 -45 43 4 -22 -25 -29 9 -57 6 -44 23 64 -48 -45 17 3 -17 -37 -3 -47 20 -36 16 -25 -54 0 2 -28 19 62 25 -6 -33 38 -8 6 -49 65 78 -20 28 -27 14 29 19 11 -15 -40
-37 10 -2 -7 14 -14 -14 -3 -28 37 53 -34 11 34 65 39 -36 -14 27 66 -18 11 -12 -17 9 -4 33 3 4 -19 -29 1 21 -9 64 -8 -44 -5 -10 -5 -2 -26 -6 -26 69 79 16 -39 28 48 62 24 3 56 -10 -30 -36 -41 33 -54 -8 24 -16 -44
32 15 -11 25 -49 90 3 54 21 48 39 -49 -65 27 -8 -10 -23 27 48 -8 -1 -2 14 -20 11 -17 65 8 -2 -24 27 21 -6 -59 -12 -58 -3 -10 31 29 -76 4 1 8 67 67 19 28 31 20 -50 12 -17 22 71 -22 30 -50 -24 -6 40 18 22 -34
-40 59 63 -32 8 -76 -26 -20 25 18 -65 60 13 -21 29 -32 -13 -27 -19 -11 18 62 -21 64 -47 14 -75 -26 38 38 29 -9 -2 42 -56 8 48 -8 -64 25 92 76 -34 4 -44 -13 -5 53 -15 17 -2 -75 63 -97 -42 63 -52 48 -20 -30 -50 -39 24 -8
22 -35 -53 25 -21 -25 3 -12 15 -50 39 -20 -52 18 -5 53 -11 47 -25 -12 26 -44 -44 -31 20 -76 55 -3 2 -8 -21 18 -56 -41 4 20 15 -49 -17 32 -24 -18 25 6 40 32 -1 18 45 8 -54 -19 -18 6 71 -26 19 -26 45 2 -26 14 8 -49
1 -37 -15 -29 -16 2 -25 15 9 -29 -54 -30 47 -42 -8 16 -1 13 -16 31 -34 10 7 31 12 36 -14 -27 -26 27 5 47 -40 38 38 3 4 -6 8 -48 -10 -59 2 35 -3 -45 -6 8 -25 -23 -40 34 16 -29 -10 -37 0 30 13 52 16 -2 10 -9
29 -5 -61 66 58 2 9 -55 -3 1 -1 -29 -16 2 -3 24 -18 14 4 49 22 -26 -5 -26 11 -46 3 50 40 -3 23 37 5 15 45 -8 73 31 -11 2 -14 6 -14 16 53 20 -39 -13 39 16 -20 16 22 45 24 31 31 -15 55 5 10 17 0 1
71 -12 20 4 7 53 -6 -8 25 33 4 -6 -5 15 -27 8 6 -14 6 -3 23 28 17 -1 10 -75 -35 -30 -10 11 29 -59 5 -16 -6 -13 3 -21 -39 -37 24 -35 -26 -30 13 14 -13 12 38 -1 12 33 -30 -12 52 50 -31 -40 -5 -16 -39 47 -45 14
-74 1 19 -2 81 10 -8 5 36 55 -4 34 22 -48 -15 20 42 -42 12 -31 11 -24 -36 48 -64 -17 -1 -21 -29 28 3 7 9 27 -51 19 -4 21 -39 1 36 49 -29 -39 12 10 18 1 -13 -18 8 6 23 -12 -116 -9 -47 8 -16 -7 18 -13 15 50
38 -23 14 16 -15 32 -15 16 40 6 51 15 -18 13 -28 -40 -29 21 2 -17 5 -18 -7 6 -2 27 59 66 -15 -28 31 55 -30 1 63 -42 17 16 51 4 -53 -19 -17 -44 57 27 17 0 -40 -6 38 68 23 27 29 -37 13 -15 46 49 22 8 12 -20
-70 23 8 -27 39 -97 18 -53 -33 -4 -40 7 53 -22 15 -3 -34 -37 -14 -11 -11 59 -9 32 -22 80 -47 7 -5 24 -4 8 19 64 -15 62 17 12 -39 1 63 66 16 41 -21 -59 -35 -16 -1 -28 64 -72 61 0 -60 -6 -30 -9 8 -61 -53 -63 3 22
-26 -10 29 30 9 13 -15 69 7 67 41 -47 -31 21 -13 2 2 1 -2 -16 10 15 -71 23 -17 -16 14 -13 -18 9 9 3 45 52 -33 20 -9 22 2 19 65 -28 -53 3 54 82 0 11 -2 -14 65 -25 -38 27 -10 -6 14 37 -2 -35 21 2 22 6
-17 3 3 -55 -57 -4 -16 -23 9 -39 -21 -5 10 2 -38 0 -20 6 -26 4 -16 -29 4 45 71 -14 -51 -15 5 -81 11 -37 14 31 -17 5 4 19 -2 -8 -18 23 35 -63 35 -7 -18 21 -12 -33 3 -13 35 27 -27 -1 5 32 -30 -8 -41 12 -6 24
2 -11 -6 -36 -10 -8 -17 -26 25 -96 -32 -30 3 8 7 28 -14 7 11 7 -28 -3 26 -2 22 32 15 -9 4 -40 14 22 -8 -38 22 -58 11 35 69 22 -72 -38 -12 5 -45 -59 -22 17 -59 -23 -16 -32 40 -38 25 8 37 -26 26 16 6 31 -18 32
43 -34 -33 43 35 -15 -23 26 36 20 27 25 -32 -63 -7 36 -25 -16 -6 3 3 -2 28 2 -2 -17 62 49 -50 -1 -26 71 20 -56 94 -30 -39 -9 69 -30 -115 -16 11 36 89 2 51 -13 7 11 -21 104 -55 38 34 -15 20 -32 11 13 -1 41 -25 -24
-47 34 30 -4 -12 -57 19 -46 -12 5 -30 69 33 -16 -16 21 16 -47 -48 -15 2 44 -35 77 3 61 -58 -43 33 5 -9 -9 26 12 -27 36 32 -46 -44 54 35 31 -31 15 -15 -11 -33 -6 -14 11 32 -61 5 -1 -64 4 -49 -4 -59 -57 -5 -57 38 -15
2 4 1 1 33 17 26 36 21 3 0 -9 2 -30 21 -33 -1 16 31 -17 -7 -14 34 -25 -8 15 20 31 -10 8 -2 33 37 -7 -18 28 15 -22 -38 -26 52 -37 -15 15 8 0 5 -2 -2 16 5 6 18 24 -11 -26 -15 -41 -21 36 20 10 10 -4
-20 6 8 -1 23 -6 7 24 6 -3 23 -19 -54 24 -28 0 5 14 -3 2 -37 2 -30 -27 -24 2 5 11 -18 -5 -3 -2 -4 24 -8 54 37 -16 24 11 16 64 -42 30 12 20 28 93 35 13 29 21 11 -4 -39 -2 -44 -22 6 -25 -23 -36 -26 4
16 37 -1 -11 12 13 60 10 3 -39 15 12 -39 67 28 32 -9 45 -16 22 -38 31 -33 -5 -2 -20 4 17 -30 -12 6 69 26 4 -6 -24 16 -4 16 -2 6 -10 2 12 -36 45 14 -31 -44 30 17 21 -33 -44 -24 -3 19 20 0 -15 11 16 -22 -17
18 1 3 23 -24 -20 39 -21 15 29 -21 -1 9 -26 4 -28 -7 -21 -38 21 49 46 -34 32 -2 -31 28 -27 -6 19 -30 25 -12 -33 20 -5 34 -8 -16 36 -19 31 48 -12 7 22 -51 51 11 -26 -6 -49 -23 19 -35 14 23 -35 33 -36 21 -38 46 3
-1 10 28 -23 24 -37 19 -2 -2 14 -18 -11 -21 3 -4 -6 18 -26 -2 5 35 -6 19 17 -38 33 40 -25 -32 8 3 -2 17 1 0 6 13 12 -28 -28 27 17 50 -17 36 53 -1 56 24 -39 -6 -7 25 -8 21 30 37 53 35 -36 16 -24 0 -37
2 -9 46 -58 -2 -4 -4 -13 20 -6 -18 -20 -2 19 -80 17 -1 -6 17 19 0 22 22 -24 17 -40 -3 -19 0 19 -7 41 46 47 -34 71 -34 -15 -40 17 40 14 14 14 7 -31 -24 28 3 15 25 -24 5 -3 0 -8 4 7 11 -14 -38 28 -19 16
19 32 -6 6 15 9 -11 -19 -2 -27 8 34 37 -39 -48 30 -8 -11 -54 22 19 -52 23 19 -19 -1 -15 59 -52 8 -3 15 47 17 20 -1 -12 42 44 -8 -40 -25 -13 -32 -6 -17 -39 -33 33 14 21 12 17 -4 -30 17 -53 -18 7 1 -19 -3 11 -8
0 8 -8 41 41 -37 12 -22 24 41 13 -38 -29 32 13 -42 -54 -21 -32 -25 4 -2 11 -6 30 -22 -31 -30 0 -4 -2 -25 4 -9 -35 -38 -7 15 -2 -25 4 -62 14 -37 11 -38 6 -21 32 11 -36 -43 -30 -41 -6 20 -17 45 -34 27 0 0 -28 -39
-13 -33 -4 -27 -4 15 -52 -14 -5 -29 -18 21 -18 5 33 16 7 -7 -3 -21 -27 26 -9 59 -7 5 2 -9 35 -30 -29 10 -14 11 53 18 -37 -48 -19 -26 31 -3 17 50 -32 20 6 34 -22 21 -15 -29 -38 -7 56 -34 23 -33 30 16 7 15 -39 -36
-3 12 -19 11 -45 33 -5 4 7 -33 -1 -34 -15 -2 0 -20 -5 20 -12 -17 21 14 12 19 23 26 -8 6 48 -7 -35 16 -17 1 52 -38 7 4 6 38 -11 25 -30 24 -42 -32 23 2 -22 15 -35 0 -17 9 -22 -38 -17 37 -38 28 -27 -26 -9 -23
2 -26 -19 -6 -10 13 -12 -16 26 -19 -28 28 -28 -15 7 23 -13 35 -16 32 -12 -6 13 2 -3 -4 -16 -22 -13 27 32 20 29 -29 9 4 26 -20 -26 30 29 43 18 -40 41 25 12 2 -8 -28 -1 9 28 37 -18 -32 3 -22 6 -1 -26 -23 48 20
27 -18 46 17 13 28 -60 39 -36 -51 37 26 20 -49 0 -9 -7 11 2 43 -9 8 -9 12 32 1 -28 25 29 -25 -40 -10 -40 -25 55 -22 -29 -9 -12 -11 -40 -18 -25 8 5 21 -1 -81 13 -13 -22 2 22 50 1 -34 -6 -29 25 -7 -26 -9 -32 24
-44 -2 28 -1 -7 10 -15 -7 2 15 -19 15 43 -57 15 -21 -13 -4 -6 -47 29 24 -10 17 20 23 28 63 57 18 -8 14 13 -40 13 -22 -19 -6 24 5 -49 -59 27 -40 -8 -56 4 -25 -39 -18 2 12 -21 39 9 19 18 -27 27 26 -3 47 22 6
14 22 -49 41 -19 43 15 11 7 37 33 -31 -19 -40 5 -22 -11 1 27 -3 11 19 -21 52 -9 -43 31 19 -17 1 18 -35 -30 -52 -4 -60 20 5 47 36 -92 -35 -5 18 24 -10 4 -46 30 41 -57 15 -38 -4 20 7 11 -7 27 25 35 23 -11 -57
-37 -13 48 56 27 -12 26 -25 1 6 16 10 43 0 -26 32 38 22 -34 -42 -33 -30 -17 -18 15 -21 -27 10 -3 -13 7 44 -13 -46 37 -38 29 -10 -17 6 16 -40 -41 -10 26 31 33 -14 -47 23 -2 -13 3 57 4 -41 5 -57 -20 -28 -18 36 14 -12
-25 23 4 14 -12 5 34 -8 -4 -14 -15 5 44 22 22 -25 -8 -20 -12 -16 22 12 -16 4 6 14 0 6 -25 -16 -19 6 51 11 10 14 -12 -18 -7 -15 -28 9 20 -2 5 22 14 -6 -45 -34 32 -15 21 30 29 -17 -19 -16 -6 -27 11 15 21 -21