-19 -26 -19 -35 23 56 32 29 17 -17 26 33 -42 35 -19 -12 15 -16 12 88 -15 19 24 -30 -7 42 1 37 -16 33 -5 48 -30 12 -1 -27 3 -33 11 -43 -30 -48 18 45 32 -48 -7 -5 24 -7 30 -45 -24 -52 -54 15 -31 16 10 -5 6 5 -12 21
2 12 2 9 -20 -45 10 33 11 -56 65 -9 5 -27 -11 0 -15 3 21 -21 -45 -8 -31 -7 -2 -31 38 18 4 1 -24 29 28 13 18 -31 -41 -1 11 -26 -49 -16 40 -78 -36 10 29 -16 -23 17 -10 52 -35 77 -19 -12 -21 8 -49 -8 -1 -3 40 -3
28 17 -35 -39 22 44 -28 45 12 40 -3 54 48 18 -30 -18 -11 64 27 25 50 -60 5 -3 19 -38 -2 -2 -26 3 -37 -12 -8 34 10 51 17 -9 -32 11 49 6 -64 -20 26 -35 -12 -31 -17 -19 49 -1 -27 -35 -25 -24 47 -10 35 49 -18 25 -4 25
-13 -54 15 -43 -20 33 -8 17 -36 19 57 45 -6 25 -26 7 7 -46 -1 -6 26 7 24 -17 -9 54 51 -22 -17 -31 21 -45 11 -9 35 -14 -16 -61 19 -28 8 -12 -30 -19 25 14 -21 28 30 10 -2 -1 8 -28 39 -3 -1 9 6 45 -12 -16 -19 9
-15 49 3 2 99 56 61 -49 20 -15 42 -42 14 -2 -26 -21 -5 13 -89 -76 25 30 38 -12 17 14 -6 64 -44 17 -26 11 -10 5 14 -9 -28 44 -36 57 -45 -97 -43 13 16 75 20 72 43 -12 10 -32 22 -53 -13 -24 -7 6 -24 26 16 22 -42 15
-4 -5 26 -7 3 -42 -42 32 -20 41 50 -16 -3 -55 -2 -9 7 -31 -17 31 -1 -1 43 7 -68 -34 -46 1 32 36 35 -16 0 -6 -8 46 37 -42 -35 -48 -5 36 32 47 -32 -42 -23 -2 36 -35 53 36 -15 4 -33 28 -26 -3 6 22 -5 -17 54 -41
14 -7 23 27 -39 -33 -24 47 5 -21 -34 -18 -63 51 29 -14 -39 -27 23 -20 35 21 24 54 -38 2 18 -55 13 12 -13 -44 36 7 -54 26 51 -60 70 -46 39 8 -38 -25 39 58 26 67 48 -53 74 15 -59 -26 32 55 -43 9 34 -56 9 -16 -36 -49
39 -26 -16 1 -3 -14 26 17 50 -23 -44 40 -39 -9 25 -47 -24 -44 -69 -5 -44 -23 13 -6 -8 64 -18 -22 53 -29 -37 -14 10 -43 -4 -43 19 -2 31 -50 -1 62 -21 -13 -25 4 -82 -14 -9 8 -62 -30 6 -12 44 -22 4 -4 7 53 30 -13 3 23
-17 24 46 1 25 -57 1 -23 -12 -27 -60 53 47 5 35 5 14 16 -32 1 0 -21 -52 -4 15 -57 -3 39 37 26 -21 10 5 -19 -34 29 16 -51 -63 -15 46 45 26 1 -38 -57 11 -43 -58 14 -2 -17 8 -15 31 35 47 70 13 -37 -78 10 -43 11
-69 -20 -1 -24 33 -67 33 41 11 -51 -44 7 38 27 20 -63 -11 -24 7 32 34 27 4 0 -33 58 -18 35 90 77 31 31 -40 22 13 -18 -15 -44 -11 -22 4 24 9 35 0 38 -27 2 -6 -35 0 -68 20 -45 -23 -35 -1 22 21 -56 20 -15 5 12
-22 17 -31 8 -6 -3 -1 35 17 20 -40 -34 -10 -8 -1 -32 12 -14 -26 -14 -17 34 20 3 -45 13 -19 -19 52 -59 -3 3 48 -4 -14 16 -1 -20 29 39 20 -11 -9 -7 36 -5 -3 15 34 -11 70 -10 -5 70 -32 49 -64 3 15 -47 19 -8 1 31
-5 32 -42 -20 12 60 -41 22 45 -22 46 -66 34 36 -15 2 -25 21 6 24 0 16 29 35 -18 7 -10 -10 -66 -78 35 5 -42 -35 16 -33 1 74 58 -10 7 -43 -28 -54 -22 29 53 44 -16 -46 -65 33 -78 -15 31 31 53 13 3 10 12 10 -29 -76
54 -26 8 -13 5 19 -11 35 -58 63 -52 -52 -83 24 48 -52 36 -17 -10 11 31 -10 13 -42 51 6 69 25 -30 63 -51 23 -12 -2 -63 18 -3 -3 -14 19 -46 -22 33 52 28 16 -31 -7 15 -14 36 -73 -77 -65 -45 28 -30 82 30 43 7 6 -33 -79
-17 49 -16 -19 26 49 8 11 -48 2 36 20 10 40 -33 -51 -38 24 33 32 23 -32 24 -39 53 -29 43 9 -12 -24 -35 32 -23 46 12 -40 -24 -28 46 15 -17 -19 8 -38 -9 4 23 7 9 6 -57 6 -14 16 31 -14 -6 -26 36 25 17 30 -41 -19
-33 -81 -72 54 5 2 5 6 -32 -5 35 47 -17 -10 50 3 15 4 15 -34 -6 -31 -13 -7 59 20 44 12 -31 12 -4 -13 29 -3 33 4 16 5 -2 13 -41 -74 -17 12 63 66 -7 28 2 -38 20 22 -14 38 5 -6 -4 26 18 -2 41 51 -36 -38
3 -7 7 30 -21 25 50 50 34 -68 -20 -28 28 -37 8 -49 2 -22 0 -53 14 4 26 34 -17 -33 25 -21 -65 -16 -3 16 63 42 -27 -24 44 40 40 10 -55 -43 -23 -21 48 28 -3 -6 28 30 -14 26 -37 79 -20 6 8 23 4 23 18 8 -12 -18
15 29 -22 35 10 1 2 -19 82 32 -29 -19 -8 11 -79 43 19 53 -39 45 -14 -47 -63 1 -12 12 -62 27 18 -49 1 37 -28 7 -26 -44 -9 44 40 -4 -2 -68 -38 10 -78 16 -38 -5 10 23 -100 0 -15 62 77 -49 59 38 48 -10 -5 36 8 6
-7 -20 -6 -3 -85 52 23 -14 57 0 -38 -18 21 93 15 0 -52 -8 27 32 -76 39 12 13 14 19 56 -69 -28 -40 -6 -16 23 8 -13 -36 -4 -19 21 20 41 58 1 -42 -13 68 44 52 -28 -6 -38 6 -13 -67 44 22 1 1 -29 26 -40 19 -32 -12
73 22 6 29 -40 68 -23 40 -16 -24 -26 -107 -50 39 28 42 -39 64 13 -34 -4 24 4 -51 45 -59 -22 20 -49 -40 -39 13 -53 -27 20 -72 -1 44 65 0 -71 -65 -3 -80 -8 -43 30 21 17 -37 -38 -24 -65 38 14 -18 48 8 29 18 -19 -3 48 6
-1 -10 2 0 10 -38 -30 -48 -2 -53 -62 47 17 -13 1 2 -22 -31 -7 45 25 -2 -24 15 -30 -36 -24 43 14 28 16 -17 -3 52 34 40 25 -56 -5 -41 9 33 27 -7 1 5 44 11 -6 -50 -3 -18 0 -33 -23 -2 20 25 -21 -40 22 -29 4 -40
79 -20 -20 -12 -1 58 -23 22 14 41 -2 -22 -56 -28 12 13 2 9 12 -60 35 -19 13 -23 34 -91 63 27 -45 9 -34 -35 -54 -89 -4 -44 3 89 2 49 -70 -23 -7 3 27 11 30 45 -14 37 -25 25 -38 18 4 -35 54 -23 31 51 33 26 4 7
-61 12 14 36 16 -29 3 -20 -6 44 -31 13 -33 -1 -56 -26 28 33 2 -25 10 -33 -27 19 -47 -53 -3 6 58 -6 50 -6 4 -32 -29 -34 8 18 -9 45 0 25 -35 10 -31 39 -6 -27 -5 25 -21 -54 26 42 34 -68 17 -11 -10 61 -21 75 -26 -5
-31 -21 19 -15 36 -20 -36 24 -1 -16 5 5 9 -54 44 -7 -14 -62 -29 -27 4 15 48 -12 -41 8 -41 45 34 13 -1 6 -24 54 19 39 -10 -52 4 -46 -50 23 31 23 -35 -76 -44 21 -42 -20 -3 26 34 29 -20 -21 13 12 1 -44 13 -35 -13 -29
31 -23 11 41 -16 48 41 -42 17 37 15 23 -20 -7 -34 1 31 -9 15 -38 29 -63 -16 -11 43 38 -49 4 -1 -45 15 0 5 25 26 -43 26 9 77 -33 -40 -52 27 18 -67 22 -69 27 4 -3 -59 72 -14 63 73 -44 -58 -13 39 41 -23 -21 -21 -3
46 8 -28 43 -15 47 37 -20 8 76 77 4 -53 -47 -15 18 16 29 -9 28 12 -37 -18 -58 33 -74 64 19 -46 -4 5 29 9 -61 7 -104 -65 30 -31 2 -57 -38 9 -43 18 11 7 -15 -18 39 -58 21 -27 52 51 -9 36 -2 21 44 49 52 1 -9
-6 17 48 56 43 -10 -24 3 48 30 53 -34 -69 -11 39 -11 6 -20 -7 -38 -1 -45 1 -20 -15 16 43 14 -62 -57 12 -16 23 30 7 42 -3 -41 10 59 -2 -50 -29 21 13 39 -41 -1 -43 52 -19 -17 17 -2 -42 -41 20 4 -9 22 22 14 5 -45
-12 -39 -20 34 27 -44 -48 23 -29 -59 -16 -15 32 -8 22 -34 -14 -32 -30 12 1 -34 40 18 -41 -5 -30 -8 3 39 -51 11 15 5 -42 39 20 -28 38 47 -13 -26 17 -1 9 38 15 48 7 -31 -12 -31 -34 -23 -43 49 -86 50 50 26 24 -9 14 -32
32 5 7 -17 -37 36 -14 -13 13 -14 34 9 -16 -1 9 -10 31 1 -10 42 -24 14 -11 14 -3 24 48 -8 -4 -27 -13 25 22 -41 7 -8 16 -23 -19 -45 -5 -10 -12 -63 37 -48 -10 -59 -32 -11 -17 -31 -2 26 23 39 -9 -69 11 -25 -7 -21 10 43
-9 -16 -37 -30 57 40 -41 43 13 -19 44 -78 -27 -14 9 -59 -19 -6 12 42 -4 17 -4 -18 32 1 61 -5 -20 27 10 -26 3 7 -53 12 -24 37 9 -8 -10 -57 -42 -14 8 3 -20 31 4 -12 45 36 -15 -13 -31 9 13 -19 -5 -4 39 21 -73 -19
9 5 41 54 -15 15 3 -35 27 -15 17 -64 -28 -13 -51 -27 -49 -3 25 -34 -1 31 34 42 47 -5 -28 25 -41 4 10 -8 -22 12 -27 -32 -18 52 15 10 37 -3 -68 63 -19 51 2 -12 32 20 32 -7 43 -29 52 9 68 5 13 39 26 59 19 -12
45 3 -11 -9 -6 12 -53 15 -43 -6 24 28 -13 -35 34 -25 -35 9 -19 37 3 13 23 33 17 35 -24 53 -65 49 -13 -32 -37 7 66 14 34 18 35 -26 4 8 31 12 32 -7 3 -7 8 -36 51 -41 -25 -45 -16 5 11 -6 20 3 31 22 18 -71
-23 -23 26 -15 56 12 19 28 -31 33 43 -27 -87 0 28 -5 16 32 -7 -60 28 7 16 -24 -5 -82 14 -19 30 65 -19 -1 -81 -26 -16 -20 -55 14 7 35 45 -19 -28 7 21 -6 -7 36 -8 39 23 -12 40 -54 30 -84 44 39 -21 33 -14 37 -12 46
8 44 -56 5 -36 29 12 9 69 -6 -13 -3 6 13 5 -4 0 -25 3 18 -102 -19 -3 30 17 37 -1 -61 6 -11 21 -7 -5 -27 21 -16 1 30 22 -21 -24 -30 -71 -46 -26 28 -53 -21 4 43 -64 40 18 -19 -42 -6 -8 -4 36 18 16 -10 30 18
54 5 -18 6 -19 47 19 15 41 3 33 -67 6 -5 -11 -11 -11 36 -33 -31 15 -12 1 -34 29 -26 0 9 -41 -30 22 -5 -2 -27 -18 -56 10 27 50 12 -43 -63 -11 20 12 23 -42 35 -21 0 -37 20 -7 6 19 -3 -17 29 56 69 35 -3 -24 -4
-72 -25 -1 45 76 -43 -21 -13 -68 -60 -8 3 -11 -21 3 -8 -47 -22 12 -2 56 65 15 72 -26 39 -80 -32 23 64 15 -17 -5 49 25 23 -6 -21 8 15 24 9 6 45 8 7 16 20 42 -10 89 -13 18 -19 -65 10 -11 14 -24 -67 4 -57 20 11
30 11 3 22 -19 13 38 46 -10 11 15 -59 -29 -33 46 40 10 -1 25 -69 -12 -13 -18 16 34 15 6 -86 2 -60 1 55 6 -12 -14 -74 -51 27 12 61 21 -76 17 19 5 68 -54 -59 12 10 -6 50 -22 80 -7 -45 -2 1 22 15 -18 -6 10 -4
17 18 -4 -50 -77 47 49 -11 -4 -20 15 70 -43 -8 -53 -47 19 57 -7 55 23 -63 60 -3 25 86 51 41 27 -26 -52 4 -18 -47 -33 23 -8 13 -51 -1 4 26 19 -18 9 -33 27 -8 -1 -23 48 -19 -50 -29 -16 -37 -4 -61 -13 -17 17 -20 -3 44
32 -25 -30 -15 -23 33 -29 66 73 14 -12 -26 1 -29 12 -32 3 6 7 -11 22 29 26 39 -39 -7 44 -44 -4 -14 -18 6 0 -1 -6 -3 50 16 98 29 -79 -69 -11 -45 17 38 -35 23 -5 -24 -8 -52 -35 -40 58 34 -30 -15 32 -11 -34 -6 -19 -83
-12 -30 -34 -39 46 26 17 27 29 25 44 14 -22 5 -3 28 76 -53 26 -35 46 4 -4 -33 37 3 49 -77 -59 -15 10 66 17 -10 22 -24 -18 -52 -32 -18 -13 -57 1 -24 25 76 -50 23 31 -2 -24 78 3 48 -74 -32 26 18 23 6 -13 35 13 -26
18 -31 6 62 -26 -6 63 -17 -6 37 33 -23 -5 -54 25 19 18 16 -43 15 -16 -27 22 -56 3 -41 53 24 -31 -38 -35 15 39 -22 17 -79 -41 15 -11 -1 -66 -28 24 -71 17 18 22 0 -22 46 -12 32 -58 48 71 28 33 -42 3 44 39 31 21 -32
20 -44 37 9 1 -35 -36 1 -30 -10 -11 -6 -11 -19 -79 -75 -27 36 -20 14 56 41 13 28 35 -32 -39 4 -41 72 11 -21 -40 41 35 9 14 -21 -14 -9 -18 27 -36 92 -14 14 34 35 38 -80 84 -26 -29 -76 -21 18 -15 -9 13 -32 38 -5 7 -39
-11 -14 45 1 -26 -12 2 26 -41 32 -12 -2 -33 11 -3 -39 9 -4 21 31 -13 -42 47 -18 37 15 -16 23 29 46 -6 9 -27 -42 -8 17 -12 42 -28 12 17 19 43 -27 -24 -23 -9 -6 3 35 -15 -36 8 -70 -49 -6 29 66 14 45 -10 -11 -9 27
9 15 41 30 19 -55 6 -45 -18 -23 -26 7 -9 51 32 48 -15 17 8 -24 -23 20 -14 14 29 -32 60 27 51 32 -1 -9 8 -19 -28 -35 -3 20 -28 40 11 -24 -21 -26 -13 -28 2 54 -34 19 -42 -23 -11 -70 -15 -73 65 79 6 38 -58 14 -24 -26
-10 27 -26 -62 -64 18 -44 45 -1 -29 -21 -3 -13 29 -11 14 -8 84 50 32 2 -39 46 -22 15 -15 8 10 -71 3 44 5 -25 37 23 -13 -17 66 40 -33 12 -45 16 -19 -62 -30 0 -29 23 9 10 -69 -35 -55 -4 1 74 85 20 8 -24 1 10 -27
44 11 9 -22 -14 -30 -3 -36 -28 -6 2 7 -30 39 16 -36 37 7 19 52 -17 46 21 -23 -34 -10 29 -34 17 -10 11 4 33 -64 -41 4 -3 -29 -10 -1 15 -20 48 -29 2 -54 -44 -49 -15 49 -25 30 -17 3 16 1 -9 -13 31 2 2 -54 -6 45
-33 -35 14 66 29 62 27 76 34 101 85 -46 -66 -58 -14 41 -3 15 43 -45 1 -16 -60 11 25 -49 20 -24 -67 -89 -1 42 -27 -35 42 -53 -48 -6 6 -4 -60 -73 -39 12 17 78 -21 -44 4 27 -16 8 -53 38 -22 24 46 -26 0 26 23 9 18 20
-7 -8 23 13 -5 -29 -2 55 -15 47 7 -20 -18 -2 37 41 -6 33 72 -24 -4 -36 0 -16 16 -4 53 -23 30 -35 10 46 54 -58 -14 -83 -21 -27 10 29 14 -59 32 -26 46 -42 -3 -59 -9 22 28 -14 -22 61 16 6 13 18 1 -64 14 -33 16 3
43 -31 -20 72 57 11 41 -20 14 9 -2 22 -29 -52 -21 0 12 18 13 -27 19 -22 1 -5 20 20 19 -16 -15 -21 51 39 7 30 -22 -52 -9 29 52 0 -99 -61 -22 -58 11 48 6 -53 2 21 1 38 -40 93 29 -16 49 -37 49 2 13 48 -36 -6
-3 63 26 -11 34 -32 23 9 -24 12 -6 75 32 23 7 -11 -8 -11 -30 -35 -38 13 26 -4 -29 -21 -35 50 60 49 8 9 -29 -15 -36 72 -8 -2 12 -22 54 49 1 35 -26 -34 50 -10 -17 -38 36 -67 42 -32 -65 -7 -1 42 21 -9 -19 -40 -14 21
-26 25 8 -15 -2 -28 6 34 23 14 1 -4 44 44 10 4 1 38 50 -40 2 44 18 -34 3 -18 -8 -45 44 -3 9 16 -44 18 37 -41 58 1 -10 -10 33 0 -51 -74 -51 19 -39 39 23 15 6 -61 36 -61 3 -26 19 46 -26 -3 -47 14 -29 11
9 1 -37 12 -6 43 33 32 4 18 37 -90 -37 44 2 -46 -17 -19 45 33 -47 47 16 -19 52 -14 26 -21 -74 -49 17 -45 25 -19 32 -31 16 52 33 20 -18 -37 -80 -10 10 7 -2 -9 31 14 -9 0 -8 -38 -28 10 11 -70 9 33 8 13 -26 1
30 -31 -38 2 32 99 -45 19 -17 43 70 17 22 -29 14 -27 -22 -13 -20 -17 41 -7 39 -11 53 -25 27 -15 -91 51 -26 -17 32 1 26 -12 24 -33 -11 -2 -40 -55 -7 49 45 -55 -7 31 22 -43 16 31 -2 -12 -47 -35 -37 -28 -33 7 -13 42 -12 -12
72 -12 -20 23 -4 76 4 11 3 -41 33 -28 -7 -5 11 -39 24 70 32 41 47 34 5 24 18 -50 15 43 -35 -4 6 -4 12 -3 9 46 -15 32 -1 45 -26 4 1 -52 10 15 35 35 -28 -67 11 16 -106 -1 26 10 23 -20 -15 -9 52 18 -16 -35
-25 10 -20 11 -30 -9 17 15 30 0 -14 20 78 19 -32 12 -2 22 -6 23 14 -33 23 3 -45 41 -19 -8 17 -31 47 7 -24 0 -36 0 55 -23 96 -38 -28 -46 -10 -35 -20 50 -26 -39 17 26 -5 5 12 20 42 58 -29 21 21 -38 -14 26 -11 18
-14 -20 13 39 -9 -8 -41 11 -27 4 59 63 -10 -86 -20 7 17 -18 16 71 26 2 -23 -30 4 -5 -20 58 -22 28 18 28 9 51 34 66 -1 -32 -35 3 -54 27 50 14 -79 -68 23 -17 13 -43 13 60 -20 6 -19 3 -40 -29 -10 4 11 -46 -24 -28
-8 -60 -12 -9 -41 32 29 18 14 -39 -2 -9 49 -14 72 -35 3 36 4 16 2 10 6 -49 51 -25 -8 -80 -18 -27 -11 -7 29 58 5 3 -34 21 16 -38 -41 -51 3 -13 -16 76 -45 34 30 -14 -22 41 -23 -31 2 -2 27 24 31 9 21 44 64 -41
-48 24 -44 39 -57 5 42 -23 17 -106 -5 -18 64 -19 42 -21 19 5 -2 -12 -41 30 -62 -33 -10 65 -22 -32 -25 -52 19 3 59 33 -12 11 19 -35 2 15 -26 10 -2 -31 -18 -9 18 12 61 10 -56 -3 -43 50 5 27 -78 13 13 4 8 27 -2 -11
34 17 -32 -3 -36 26 -31 48 -19 -41 37 -43 -22 13 -46 -8 -5 0 27 38 15 -9 16 32 49 66 11 3 -30 -7 10 -61 -49 -24 30 -17 -11 42 50 15 -32 -8 -58 -49 12 -9 39 35 34 -20 38 33 -101 38 26 31 -13 -44 -39 6 12 16 -1 -14
28 57 39 -15 -34 4 4 -25 21 -14 -4 61 -4 65 -13 59 -24 9 17 101 -75 -10 -4 2 27 81 -14 -27 10 -63 -6 36 8 -11 6 -2 23 -35 34 -26 24 19 -44 -46 -9 2 42 -50 -30 -28 6 -22 -42 0 26 21 29 -21 -11 -10 -50 15 10 36
15 47 43 -6 -77 42 -31 88 -45 -10 -28 -56 7 17 -59 -10 -40 23 60 -12 9 -10 45 -2 -19 22 5 9 -26 -26 -32 -17 -10 -74 19 15 13 95 122 -13 -2 -61 -17 -96 -33 9 40 10 28 -47 -3 -16 -117 -27 15 18 -12 27 8 -25 -30 -47 20 15
4 -30 -50 -10 10 46 -20 34 -39 11 36 -47 5 -68 22 -4 39 -41 -10 -15 62 12 45 -51 42 -30 12 -46 -9 -28 23 52 -36 42 -66 -19 -5 -37 -31 26 5 -50 21 -3 10 49 -70 -42 32 3 22 24 -12 19 -26 -8 -3 20 35 -1 41 28 -2 -60
62 -20 -55 29 -25 12 1 60 -37 -19 16 -25 5 21 -25 19 -34 21 0 15 3 -7 8 27 -21 10 15 23 -34 1 -22 -17 39 31 52 -21 -26 2 57 42 -66 -23 -22 -79 37 -34 71 4 11 -33 12 38 -75 8 76 30 -19 -109 -10 -24 21 32 29 -50
57 -8 9 -48 4 22 -32 -5 19 -15 56 50 32 3 25 12 -16 -12 -33 -56 -5 9 34 3 -31 -60 0 -15 -25 -5 8 0 25 62 -22 60 22 24 54 -30 20 -68 -14 5 4 -43 -53 -6 29 -36 -16 -13 24 17 -19 -23 10 10 18 -33 -6 -3 15 -10
12 -48 -16 -26 13 17 -42 82 -73 -11 27 -126 -27 -18 56 -47 -3 8 7 -23 70 16 23 26 -15 -53 -15 -24 -24 66 12 17 -17 -15 -29 14 -17 15 -13 34 -71 -33 21 40 -10 40 -56 41 50 -9 25 -70 -6 -12 6 -47 3 80 56 -24 30 -25 -32 -30
-51 28 11 -18 -4 -36 12 0 36 14 -40 32 19 3 -30 -4 -14 -50 -1 1 -60 -23 47 -19 -43 23 -76 -25 20 47 -10 -10 38 -5 -22 -2 -10 8 44 -46 53 35 -10 30 -25 -11 -26 17 17 47 -10 -29 -4 -25 -11 45 15 34 35 -23 -20 4 -13 18
25 13 14 47 5 5 33 -6 35 -21 5 15 -46 2 -32 56 -16 9 16 -7 -24 -7 31 10 7 -34 33 -59 3 -9 27 -30 8 -22 18 -73 1 -28 11 10 13 -54 -62 3 -9 10 -36 3 -29 38 -37 -21 61 5 42 -11 32 11 -7 -3 -37 18 -3 31
37 -2 -13 44 -7 34 36 -41 20 -10 -41 -75 13 96 14 9 4 101 15 -9 -1 -36 10 -25 36 -27 7 -36 -50 -31 -7 1 -17 -18 -6 40 4 31 17 76 3 -48 -6 -58 -40 1 6 46 14 -48 -57 -65 10 -50 -36 53 6 11 31 -34 4 5 11 -5
14 -32 -43 38 -42 32 0 76 -12 -54 26 7 37 -17 13 -58 21 -27 27 20 -11 -1 -14 -31 -22 -2 19 -7 24 6 -47 9 4 5 -17 2 -33 45 -20 18 -96 -19 -31 -59 6 -23 15 -63 41 -10 18 73 -43 46 -12 -9 -68 -26 41 10 63 -23 14 13
80 -52 -88 13 -48 12 37 25 44 16 33 -39 18 19 -14 -30 34 31 4 23 20 -54 22 -5 29 -1 0 -2 -25 -3 -17 -9 30 5 11 -21 6 44 83 -5 -34 2 14 11 -8 59 0 3 -27 -24 -34 16 -85 10 49 6 46 -1 24 77 28 45 7 -81
-26 32 -20 12 -14 -41 7 3 -16 -14 14 -22 13 -5 -12 -58 -9 26 -36 60 52 22 -46 4 38 48 -21 -5 16 26 -34 -17 22 1 33 85 7 -35 -20 -3 78 22 21 48 -35 -25 18 -28 -47 27 65 -9 11 -50 -28 21 -44 -27 37 -58 -10 -58 -29 45
-30 -12 5 -49 -38 30 28 -12 20 -79 5 33 30 29 67 -35 54 -21 20 16 -5 3 43 1 26 49 41 -17 72 -22 -10 3 -17 21 -5 -17 4 -48 23 -69 -11 33 -10 -44 -56 8 9 31 6 -4 -47 -45 -22 -40 17 34 17 60 -12 15 -54 -4 -1 8
31 -19 33 9 -14 7 -30 -6 16 -14 -27 40 38 45 21 0 20 -20 -15 -60 0 26 8 -7 -8 45 -12 -35 -55 -31 13 -30 21 53 14 9 0 4 29 3 -31 -26 -40 -18 -4 39 -21 36 7 -30 -2 19 -41 15 18 71 -76 9 -11 4 -25 15 -6 -33
24 -18 2 -5 -53 15 -8 4 29 3 19 -7 -18 0 26 13 57 29 45 -19 -31 3 0 -17 24 -18 29 -3 40 -15 -13 7 28 -43 -20 -13 23 -15 -17 -46 0 -3 30 19 -33 -62 8 -38 -19 27 -36 -18 6 13 14 -26 12 61 11 6 10 -26 -24 5
10 10 -41 48 -10 95 35 52 18 34 45 -2 -36 -81 20 -29 -7 5 -14 -17 -7 10 -40 9 -19 -25 -2 -45 31 -22 8 26 6 -28 -18 -67 -2 -3 -24 36 -24 -62 -43 -33 5 -33 6 -28 12 -5 -17 -12 -73 27 12 -11 18 -12 65 19 45 75 19 -10
-26 2 29 -31 -4 -37 -44 -23 5 22 54 76 32 -70 -33 34 -10 -43 -8 28 7 -20 -10 -8 8 32 11 49 21 20 3 11 46 -24 64 -7 18 -55 25 -58 23 -14 46 10 -1 -48 22 5 -45 -23 31 37 27 81 9 -17 7 -29 -44 -44 -17 -22 71 21
-26 10 5 -24 -13 -15 56 63 -11 55 -12 -26 -54 -15 39 7 25 5 38 -12 6 8 11 -53 -1 -83 -4 54 41 -7 -44 7 -36 -19 -26 8 -36 -14 -32 -14 15 21 -19 60 -14 6 22 13 -24 27 46 18 5 -53 -42 -7 64 28 47 15 -9 -21 -27 8
-79 18 47 7 28 13 33 13 65 74 12 62 13 2 -83 13 32 12 -49 -70 -26 15 -8 -13 -43 22 -4 -5 -25 0 23 -5 -3 -30 57 -26 -30 2 15 5 -2 -42 -27 12 -19 36 -14 12 13 -22 -13 -4 4 43 3 -52 66 -16 58 -32 19 36 -10 50
-47 27 30 -20 31 40 10 4 42 15 -22 6 -9 12 -47 15 -26 -6 8 33 -44 -12 13 -1 -45 70 9 2 4 -61 5 7 -33 -5 0 -41 35 57 34 30 -24 -32 -87 37 -5 22 -32 -38 -3 70 -5 -31 -18 18 63 -8 5 25 -2 15 -26 14 -55 -23
11 -17 5 -1 7 6 12 27 10 -52 -5 5 -9 9 -26 51 76 28 18 -2 21 29 9 3 -1 -51 -9 -35 27 -26 12 -6 10 -7 -7 21 -5 -26 -22 19 23 -42 14 14 -36 28 -58 -7 -43 70 -57 -58 -8 -55 15 -47 12 60 -27 14 -30 -36 -29 34
9 48 18 -20 -44 -14 32 -10 0 -32 -47 -6 -14 43 0 -26 -33 24 -20 0 -39 -59 -36 43 38 15 16 -13 39 -52 -11 12 -10 -53 -11 -55 43 26 -17 6 33 -10 -36 -26 -10 -65 -39 -75 -16 30 13 -54 39 25 -17 3 81 53 12 16 -34 -10 -23 11
77 -12 -21 46 -19 15 33 20 6 -28 24 -107 15 85 46 -7 -23 28 37 -8 -13 0 11 -5 37 -61 73 -5 -57 -28 -22 24 -19 -53 -6 -38 -39 83 78 29 -48 -26 -23 -56 -26 54 -2 42 44 16 -53 -19 -80 24 -16 44 49 9 11 24 27 24 36 -13
63 -21 -58 1 -24 63 33 6 10 8 -16 -11 -5 35 -20 19 14 20 -29 19 -9 -12 34 -15 12 -44 24 43 2 -41 8 54 -23 -88 0 -93 -5 95 43 8 -77 -26 -9 -62 29 8 10 -32 -15 39 -64 33 -59 -20 60 -13 82 -61 27 75 9 23 14 9
-13 -46 -53 -61 -25 29 -34 7 36 18 3 29 -1 -25 40 -49 -35 22 8 -28 25 -7 -2 17 43 2 28 12 -20 -14 1 -13 18 76 17 -26 6 -6 22 -18 -10 -81 -12 -26 -12 -37 18 51 -25 -21 -18 52 -21 43 -12 19 -41 -30 36 14 18 37 -3 -52
13 34 5 28 -6 -44 28 21 14 17 53 11 15 -4 1 24 -36 -18 35 -31 -12 -2 61 -6 -27 -40 13 39 32 17 -27 45 15 -16 11 -14 -35 7 20 -13 51 -6 37 3 15 -50 36 19 -27 17 -11 -1 1 29 -32 -44 101 45 -46 27 -44 -84 32 37
9 -6 2 61 -37 -4 -38 34 -3 26 24 -18 -18 -35 100 5 -26 -27 -10 -42 6 48 -25 -23 36 -3 3 -11 8 -27 -16 -24 48 -11 29 -3 -11 -18 46 34 -28 10 -11 24 -7 32 28 -35 10 10 40 44 -63 35 28 27 5 -17 -17 50 9 -15 51 -24
14 -28 17 -16 16 -23 2 29 0 22 15 -62 -43 42 21 -6 -34 -24 -1 -45 6 -2 -19 1 3 -26 -6 -22 -51 -23 -35 27 -31 -49 -40 -34 31 17 88 19 -52 -59 -45 -21 13 89 -43 23 11 -23 -9 -4 -41 -47 106 2 71 -18 9 29 27 -9 -5 -17
-46 -2 35 21 -34 -6 27 33 -22 -5 22 -10 35 15 -2 -28 9 36 10 -10 24 21 20 25 62 -17 20 5 30 29 -11 37 -13 9 -16 19 10 -33 -48 36 76 19 -70 -13 -21 -13 -54 15 -69 35 -20 -21 44 -49 0 -40 48 31 -20 14 -53 -30 -7 12
31 -22 -18 -56 24 6 -27 16 14 -30 19 8 21 32 6 -57 -1 29 -11 -29 -12 23 58 40 -44 65 32 44 16 25 24 -7 -2 1 58 -25 6 -26 -12 6 28 -57 -97 -53 -22 24 33 50 8 -25 17 -9 -40 44 16 -15 -7 -18 -15 9 -4 13 -37 -23
7 10 30 -7 -61 -8 22 21 17 0 6 -34 -25 52 -3 -26 7 12 2 60 -72 50 27 25 42 46 7 -16 -18 -53 21 23 27 4 3 -36 15 -1 -9 2 -22 6 -5 -24 -26 -5 -30 -55 -12 60 -41 -16 -28 -24 66 -30 -5 -92 1 -5 -2 -34 10 10
-43 -31 -4 -20 -30 -24 -48 -3 12 -5 -31 37 11 53 39 -23 -1 1 -20 -45 -9 40 4 70 17 -2 -19 -55 6 15 33 -70 -22 18 -6 -9 23 -4 22 -3 14 -28 -42 -2 -6 -11 24 15 60 2 24 1 -2 -31 -8 69 11 20 -22 -55 -12 13 6 -29
7 20 -32 -3 -36 -20 -34 32 -13 7 1 -58 -11 31 28 -72 -17 40 -18 -7 86 5 19 91 40 -7 14 -35 -12 25 -9 -29 -41 50 28 12 13 56 3 -37 -42 -45 -50 22 -32 -31 30 13 91 -21 68 -28 -69 -34 37 -12 9 -37 -9 -27 51 -13 -43 6
-95 60 4 4 18 -27 7 -23 26 -11 -22 39 22 31 38 -69 -22 14 3 0 7 79 -5 33 -19 45 -35 -14 25 25 31 -16 -41 48 9 20 32 -34 13 -18 67 0 -5 14 -8 -57 -32 -47 -37 -26 60 -34 12 -72 -13 9 -8 2 -3 -64 -27 13 -19 23
41 29 3 -38 -38 35 -27 41 -19 8 -34 -12 21 -14 3 8 33 -19 12 28 2 15 13 8 -14 67 4 7 -17 -39 15 -32 -24 0 -14 0 45 -11 31 11 -26 24 3 -12 -21 -22 -33 -97 -5 17 -35 14 27 28 26 65 9 20 -12 -17 -20 8 -56 10
-43 45 -9 16 -34 0 -25 4 -28 -16 -55 4 39 4 -3 -52 -56 28 2 -6 33 -9 -12 28 70 -12 4 3 19 50 32 -21 -76 22 25 -29 -6 5 -46 2 19 10 -19 10 -22 -71 48 -37 -14 23 28 -5 7 -59 -11 4 4 50 18 33 -9 4 -40 -11
59 -15 -15 19 35 54 -52 -9 2 43 4 -51 16 -12 -53 34 27 -5 24 -27 9 33 33 6 24 -15 3 15 -16 13 8 22 -22 -7 23 -69 22 8 49 39 -75 -95 -18 -33 -3 22 -9 -6 24 7 -8 -2 -72 -12 39 -44 -31 -4 -52 -5 -61 -6 -7 -42
-21 -37 34 -53 -10 54 3 60 32 -5 31 -60 12 3 -34 -30 -10 -10 -20 35 -28 13 45 20 18 23 -29 16 -28 9 -25 26 26 18 -36 -19 11 43 2 -4 -13 -43 6 10 -47 11 4 33 8 -18 6 -28 -26 -60 14 48 16 -15 -3 -51 25 13 10 -24
26 -29 3 27 5 -41 -46 24 8 -11 33 -28 -6 -19 -39 -46 -6 -4 -12 25 32 46 50 4 21 15 -9 34 -10 42 -10 -12 5 37 2 29 30 31 -14 -21 -23 26 -21 65 37 -2 14 -33 15 -11 59 28 -45 21 -42 -13 -20 -43 7 -31 5 -44 5 -43
1 54 2 -19 4 30 -73 38 -19 -6 1 -21 39 13 40 -51 -73 65 -9 -28 24 50 65 46 33 29 29 28 12 7 32 -51 -39 62 74 -11 27 6 91 -22 -26 -46 -42 -18 29 33 66 39 35 -39 50 -46 -65 -17 34 16 33 -58 -14 -21 28 -8 -14 -39
42 43 13 21 -66 -4 15 63 -15 22 6 7 -37 -8 -47 7 8 -10 -11 -26 -26 23 -10 43 11 5 20 -1 -27 -3 -6 -8 25 -8 19 26 -18 0 31 4 -3 -11 -26 -45 90 -17 -9 16 18 -27 17 43 -34 26 27 20 7 -73 -36 -27 -19 -6 2 -5
40 -63 -32 29 -14 74 33 -51 47 40 48 -37 -17 -7 26 -5 30 20 -42 52 -7 -57 1 -5 -12 -31 72 -5 -44 -7 -24 4 20 -21 -2 -8 8 17 -6 8 -30 -45 16 -5 -16 -6 -24 -62 -55 19 -4 14 1 -10 -27 -24 63 -11 42 79 43 37 -3 -58
-29 -18 50 9 -26 -12 29 20 -20 35 -72 -5 -2 33 27 59 4 -13 78 -7 -39 -52 29 13 25 -1 5 -56 -24 -16 -29 -5 -39 -75 -24 -63 -30 -3 -39 -4 -28 -11 -38 2 43 15 -21 29 49 -30 15 -77 23 -41 48 8 2 6 24 -45 51 20 -64 18
55 31 -21 -52 -7 81 -59 27 1 -23 33 27 26 -11 27 -54 -40 68 5 50 -3 48 28 12 38 3 -8 94 -71 9 16 -8 -42 4 44 7 33 18 -6 -32 -37 -56 -32 -47 -53 -3 22 34 -4 -15 42 -35 -53 -18 60 -9 -5 -33 -41 -27 31 14 -31 -50
-76 -10 -6 -48 35 -71 -19 -39 0 -4 -66 31 73 -25 9 -2 -3 13 21 46 12 -8 -3 -32 -50 -18 -42 8 23 32 5 -37 9 41 -14 113 6 -31 -39 30 88 33 -22 28 -18 -64 9 15 -72 -9 0 10 60 -28 -30 -5 -25 49 25 -39 4 -25 39 13
13 -58 -24 59 44 -32 -3 30 -17 34 -23 -45 -26 -17 31 -12 -9 -21 -12 5 11 9 3 -6 5 -2 -6 15 56 -25 -19 44 -28 21 3 -27 -26 19 50 24 -19 -44 2 -4 6 28 31 39 62 -7 -18 32 38 40 -12 39 -50 0 38 -57 36 30 -21 -25
-17 15 36 24 -6 16 16 38 -35 13 4 4 -28 15 -51 -11 -35 -44 -33 52 -12 4 11 -31 -23 39 -18 28 -7 42 6 38 23 -51 28 6 -14 7 21 -8 -36 -3 -34 21 10 -39 -16 -6 1 -60 60 70 -34 -1 -50 -17 -62 -1 44 9 63 -7 68 2
-11 82 -7 5 20 20 -7 -56 47 1 -63 48 -11 52 -35 11 7 -41 -31 -49 -55 3 26 -38 -5 72 -16 -9 36 -27 -5 36 -52 -26 44 -22 16 30 29 -23 11 8 -36 -1 48 38 -15 4 27 -9 -11 20 51 -23 6 30 81 17 12 10 -9 -57 -17 22
54 15 -15 -31 -15 2 -32 89 -9 6 42 -3 -28 17 -49 14 8 9 25 22 -14 -4 44 41 7 58 -36 -12 12 11 -8 47 -13 24 -13 37 4 -5 38 -29 -16 -46 -44 -14 52 20 15 13 49 -3 54 -57 -41 -12 0 54 -28 -31 -8 -63 -10 -24 -26 -10
30 4 -14 -4 5 6 19 22 -36 52 6 -10 -29 6 -20 -34 35 -8 15 -24 19 31 34 7 -9 -42 43 -44 36 -10 10 -23 -19 -42 -9 -27 -9 4 -3 9 -4 -11 -4 24 35 -21 -2 15 -37 29 -11 -56 -5 -18 0 22 -16 14 -17 10 -4 -11 6 1
56 -21 -9 56 -66 27 -6 8 -19 -26 -26 -38 -17 16 -1 -31 31 20 58 9 6 -43 12 -48 40 7 44 -20 10 -60 20 15 12 8 -37 -49 -5 32 44 22 -87 -49 -6 -45 -10 21 2 -23 10 -51 -47 -5 -16 10 -5 32 -9 -13 63 14 51 45 1 -4
41 -52 -6 -11 -2 71 28 0 35 -31 52 22 -76 2 -4 -3 -3 -20 23 -17 14 -27 -30 16 44 -50 28 51 -51 26 24 -12 -30 -23 40 -60 -24 18 36 -15 5 -50 -11 18 25 29 -35 -25 -9 80 -57 1 -42 10 -11 -92 68 38 2 50 -19 41 -4 -18
-8 -5 -8 34 -23 56 -17 29 -5 0 19 -31 -50 14 11 -40 -40 61 -32 -13 23 -17 22 0 54 -9 -76 22 -23 32 -36 -24 -14 -13 30 1 17 7 59 -37 -45 1 -33 17 1 57 -15 -14 45 6 5 1 -1 27 48 -15 36 15 -9 25 10 26 34 -18
-5 24 -5 47 62 -10 -6 9 68 27 26 -51 -34 -7 -7 -4 6 -25 -39 -73 9 44 24 18 -88 36 -16 -22 -10 -34 11 6 -24 0 -14 -12 -6 27 15 26 -39 -73 -47 31 19 45 -48 65 1 -8 17 -33 5 -15 38 -17 42 -43 -17 0 -23 -31 15 21
50 6 -44 47 6 56 35 30 15 -17 -6 21 4 -21 -20 23 30 43 17 -10 -18 -67 -7 -75 35 -76 64 33 -23 -27 -34 39 -10 -2 39 -30 -47 41 17 16 -31 -14 -26 -63 14 -3 -34 -31 -4 2 -41 23 -18 6 -11 -29 62 -21 -31 15 16 62 14 24
-18 -46 29 10 45 0 8 43 -42 -10 -11 -3 41 26 -22 -27 15 17 -37 -15 -7 24 29 8 -54 -11 -32 -35 60 20 -30 21 -6 0 -71 64 11 -12 -11 -7 30 33 -22 85 -52 -69 16 -13 -13 -7 0 -58 -16 -12 -32 6 19 77 -15 35 -14 -51 15 17
13 21 -22 -17 11 -32 -21 41 -26 -16 4 -2 -46 -34 46 -43 -41 18 4 -5 -45 4 -7 -73 -27 -7 -19 23 56 -8 -49 38 9 -40 -36 68 -29 37 74 8 1 14 14 7 -36 -9 36 -14 49 -15 -18 58 -15 -19 -32 -12 -44 21 66 64 43 6 -28 -20
64 -7 10 35 -13 47 0 23 -24 -12 1 -88 18 -5 -33 27 0 62 -21 -24 53 43 32 26 20 -59 17 1 11 -34 -24 12 -31 -23 34 -27 -35 35 41 54 -4 -13 -46 -29 44 43 -11 13 50 -33 -36 4 -106 -6 30 -23 3 -21 -17 -26 -5 25 28 11
0 -5 31 -11 -43 -19 -9 62 -17 -26 -11 -45 35 85 14 -4 -6 54 -31 6 36 15 6 33 43 24 -18 -19 19 0 -16 9 -42 9 -8 53 2 5 32 -7 17 22 -6 -42 -21 4 37 -4 7 5 10 -71 -23 -75 -44 36 28 29 -9 -49 -12 -21 -44 8
-43 5 10 -25 23 34 -3 -58 -5 -28 -11 55 33 -11 3 -9 47 22 7 37 -20 -47 0 -67 -42 -40 -50 49 -20 0 -22 35 6 5 18 41 -44 -14 22 -60 30 -52 5 8 46 8 12 2 28 -5 -8 23 29 4 -9 -32 -53 -32 26 -15 17 33 -2 0
-33 34 41 -30 35 -4 11 -50 82 27 24 24 69 -17 -51 42 4 -50 49 -44 -17 6 42 -16 -61 -25 -70 -6 32 11 14 45 -1 -39 27 27 0 -43 15 -38 25 17 27 2 -49 -31 -9 42 21 -24 -33 40 -8 -16 34 -4 48 22 -13 -16 -29 -36 45 -2
-38 -13 -5 -19 -5 54 6 -58 34 24 35 10 11 -22 -15 23 7 20 -27 11 -24 -12 9 25 -8 44 -16 24 -26 -8 24 -5 15 -49 72 -76 19 55 82 -24 -89 -21 -29 30 -4 8 37 -31 9 0 -26 37 -39 -20 13 12 61 -62 23 50 -12 -7 -39 -5
3 -7 -6 15 -6 77 -59 41 -58 4 29 -6 20 3 -22 -33 -3 34 2 -20 -19 -16 28 -2 0 6 -45 24 16 0 -17 18 -14 11 80 -8 14 -10 75 -6 -79 -30 0 -50 19 -9 46 -18 -4 -16 18 -7 -65 70 35 11 10 -38 10 -38 -12 15 22 -41
16 28 -40 -41 10 47 -14 -28 10 -42 -79 30 -14 75 50 -35 14 19 10 -10 -46 -27 -15 -35 41 10 -21 9 17 -7 -20 37 -12 8 -26 -10 -4 -8 54 -54 -30 -17 28 -38 -21 4 13 42 9 -17 -74 -8 60 -47 21 41 30 38 -1 -44 -4 -64 -22 -8
-37 -10 33 29 4 -29 -28 -19 14 -15 -28 -2 56 -7 -29 7 -32 33 -35 10 -15 47 52 33 -76 43 -42 -7 27 2 10 -10 -24 52 -34 48 20 -14 2 21 46 -30 7 27 -18 -18 -46 9 -17 25 -18 3 48 20 -39 -42 -8 -12 45 -1 -52 -18 0 -1
63 35 4 6 -35 -20 -71 19 -10 -35 -8 14 14 25 -20 -13 23 -13 -1 -42 18 58 35 6 15 5 9 23 -13 24 7 -24 11 16 3 -3 1 -6 64 -46 -57 44 -19 14 48 -88 -5 -26 15 -17 22 31 -51 41 -12 25 -46 -59 -35 -35 15 32 19 0
-34 -15 -27 21 -38 -28 5 13 44 -51 25 -5 53 22 48 -66 -31 60 2 -55 13 -22 57 24 39 -50 -18 -29 -17 45 24 -22 35 75 4 62 -5 -22 -36 51 -13 -25 -43 35 -57 -14 -49 -4 24 -47 34 -15 -42 -33 -27 35 -14 -29 49 4 -3 -1 -14 -22
-8 -2 -1 35 69 -19 53 -7 -46 2 11 -35 4 -23 8 15 15 19 6 -1 -10 0 36 -48 -9 -31 -6 -4 32 18 -58 33 -26 33 -82 -13 -22 -22 -58 28 9 2 22 -5 -21 19 9 -22 2 71 -23 -35 -4 -29 -11 -17 35 97 0 58 -10 26 -3 17
17 12 25 42 43 1 -31 69 27 24 16 30 -15 -12 30 -30 12 -19 -16 2 -56 40 34 10 -6 20 -18 -30 30 -14 15 -26 45 -34 0 53 -14 -46 55 -26 -42 11 -3 39 15 0 -19 36 1 18 -43 39 -2 23 20 11 1 17 22 -41 12 -8 12 -6
2 30 59 -5 -12 -10 -7 -2 -10 2 31 -32 -14 52 21 35 -3 0 28 5 -44 43 -13 -15 1 2 38 24 4 -1 -37 42 47 -13 -45 36 -18 -40 -3 27 4 25 -8 -8 17 -39 14 -2 -42 -41 -19 -14 45 23 28 1 1 -35 -3 -38 -50 -50 16 87