1 -39 29 12 35 -3 -27 -11 -14 18 0 41 0 -34 15 -28 22 -8 17 -18 11 -11 -4 38 -43 -18 -38 -62 10 -19 3 23 -18 19 -13 -14 -23 -5 -26 -52 -21 29 39 34 -4 -40 -35 15 -42 26 -18 -15 -15 25 -23 -12 -40 -10 -34 29 26 -55 -55 8 -7 -22 9 -17 32 -24 3 -22 -31 -7 -26 -11 9 25 22 16 -13 20 17 -22 -3 15 -18 11 -5 -17 -10 -1 16 -1 20 -5 -25 24 -2 -11 4 14 -25 -36 7 19 -12 -19 -24 16 -9 3 -41 -21 -3 -50 6 4 -8 -1 -21 -7 6 -39 -31 -14 -1 -54
-21 17 38 -19 -8 -13 5 -10 -4 -62 1 57 7 36 -5 11 37 1 91 -3 65 38 -33 22 73 5 1 -5 -35 -19 -25 15 8 51 -20 14 0 36 6 35 -4 -12 1 51 4 35 10 56 -22 -34 30 9 29 34 40 34 -10 -10 23 70 8 36 15 -9 -18 -24 56 45 78 -55 -8 34 3 33 -5 7 15 1 -15 -6 104 67 6 -24 11 26 0 -2 -12 -13 -15 -40 10 -50 47 15 13 -17 -9 30 2 -42 -34 29 -13 -11 13 5 54 33 -17 -14 36 -26 22 48 13 -1 -56 22 29 4 -12 20 9 -17 -13 -3
-9 10 5 -7 -3 -22 7 12 -18 2 -17 -7 -31 -21 11 -21 -2 -33 -15 -19 -10 -25 -2 -2 -24 -4 -12 -12 1 -12 -21 -2 -22 -12 -11 5 -22 0 6 -9 -28 -25 -30 10 -6 4 -21 -24 -26 -21 -10 -7 1 -18 -14 -1 3 -10 -24 -9 -9 3 -12 -27 -7 -25 -15 10 0 -2 -21 -7 -19 4 -17 -8 4 23 7 -22 3 -1 -2 -12 13 -15 -2 10 -23 -2 -7 -23 -8 -4 -13 -17 -32 -31 -20 -25 -3 -6 2 1 4 -11 -6 -13 -15 18 -6 -20 6 -15 -9 6 11 -17 -9 10 12 -5 -29 -3 -15 -5 1 -5
-23 -50 -10 -1 26 -25 -12 24 11 11 -8 -6 -29 -17 -15 -17 5 -28 -37 -10 -14 17 10 -30 7 -58 -1 -10 19 25 0 -4 -31 14 -23 0 -30 -4 -34 -6 11 -15 12 -23 -21 -6 -19 -17 -18 -36 -14 -35 -45 13 4 -11 -24 2 -53 -22 -15 -15 23 -31 -15 -28 -44 10 -28 -20 -1 -25 -14 -1 -15 -19 5 -7 -5 -27 -15 4 -18 -10 -8 0 9 -1 -21 -17 -37 16 -18 19 -31 -50 5 3 -20 -35 -53 -6 -11 -15 -33 10 -5 -26 -24 -9 -38 -21 -17 -12 -11 -10 -41 1 11 19 -15 -3 18 -3 -51 -14 -33 -15
5 -32 -10 -5 -18 -21 -6 -20 6 -42 -11 -15 17 -19 -2 -16 -8 -10 21 -17 -15 -40 -18 5 -16 -16 -12 1 -11 -40 -8 -33 3 2 -24 -17 10 6 -20 -12 -27 -30 -12 3 -22 -26 -11 -23 -42 -39 -22 -7 30 -30 5 2 3 7 3 -3 -32 -30 0 2 -16 -6 -9 -33 7 -22 -15 5 -3 -4 -30 -6 -16 -7 -1 22 -11 -29 -9 -13 -13 -5 -25 -31 -4 -6 -46 -7 16 -22 -10 -20 -24 -27 -17 4 -37 8 -33 -31 -9 -30 -3 -7 2 -18 -6 -10 -39 -34 -5 2 -10 -40 4 -15 8 8 -7 -30 -11 -35 -4 -11
-13 29 0 -20 -1 -2 -5 4 -67 -37 -24 13 -37 13 -5 -7 -5 -14 19 37 28 6 10 20 3 -5 -42 16 9 17 -21 -1 -10 18 -44 10 -39 -5 -9 10 -35 -43 -36 -11 -51 23 -14 25 -3 -1 9 18 14 18 15 6 -10 48 -60 -22 5 22 25 -23 -26 -17 24 15 30 -37 -14 10 -19 3 -17 -6 -6 6 -31 -13 2 -8 8 19 17 -12 -30 3 -27 4 -34 -51 20 -29 34 23 -18 -31 17 -4 -20 1 -67 2 -27 2 -14 7 3 3 17 15 30 -47 -25 20 7 -19 -21 34 38 12 -48 -11 -15 -33 -28 18
-8 -2 -23 1 -19 1 -6 -21 -23 1 -16 3 17 7 -35 -33 -3 -18 12 -11 -26 -25 -26 -15 -11 -11 -32 -11 -6 -1 5 -32 -1 -14 0 -17 -15 -47 -13 -18 -5 -3 17 -13 -2 5 -15 5 7 -32 -1 5 -13 -32 -32 -20 -10 -40 2 -18 10 2 -1 -22 -28 -26 -11 -4 -25 5 -39 -18 11 -18 2 7 -14 14 -32 -13 -19 -23 -12 -29 24 -8 -18 -18 9 -15 -6 -35 -9 -34 12 -1 -28 15 -4 -6 2 -1 -11 8 -4 17 3 -13 -47 -1 8 -40 10 -9 24 20 -26 -19 -20 7 10 28 -23 -32 -47 -12 15 -5
12 -13 -4 3 -24 -12 -22 11 15 10 -21 -7 4 -7 -26 -12 -4 -7 19 3 6 -18 -24 16 -26 -20 -19 -12 -29 5 -21 -18 -17 -15 8 9 -16 18 2 -37 -14 -12 -4 -17 -11 -12 -20 -10 1 -26 15 -5 -24 -8 -14 12 -21 -13 6 -2 -14 -19 2 -29 -31 -24 9 -10 -11 -13 -9 -6 -17 -12 -14 -33 -21 -21 -30 -19 -17 -21 -19 -1 -11 -10 -35 -29 -1 -30 0 -4 1 -8 -25 -26 1 -6 -18 -20 -21 13 -6 -29 -28 -15 -22 -3 11 -32 -2 -37 -7 -18 -29 -9 -13 -27 -19 18 -13 -20 -19 -6 -22 7 -5 -17
-24 16 -43 -23 14 -31 -9 31 -30 5 -42 6 -13 -39 -5 -15 -29 -4 7 -20 -28 -30 -25 -35 -18 0 -24 -9 3 13 -44 -7 26 -4 -5 -45 -9 -14 -2 -4 -21 5 -5 -9 -4 -34 -13 -17 -11 13 0 1 -6 -14 -22 5 -19 -34 -3 -5 1 -21 -20 -10 -25 -29 -45 0 -10 -22 34 -25 16 -19 -32 -5 -23 -31 -16 -18 17 19 -25 4 -4 -11 -12 9 -3 7 -36 -26 -11 -27 -1 3 -45 -30 -7 -30 17 1 6 -25 -29 -46 15 -24 -14 -18 -11 -24 -38 -24 -13 12 -14 -13 -24 -20 -9 -8 0 -15 -3 -20 4 -32
-1 -3 19 -22 -29 -10 1 -21 15 -4 -35 1 -8 4 -19 -18 13 -7 -23 -24 -11 -12 -14 10 -13 -14 8 2 10 4 -9 -16 11 7 -2 -26 -12 8 -21 -13 -6 10 -34 15 -7 11 -4 3 -30 -7 -25 6 9 -27 -23 -13 -26 -6 7 -35 -19 3 -10 -6 -15 4 14 -19 -13 -16 -18 -1 -14 -19 14 -22 -9 -34 -3 -4 0 -6 -10 6 7 -6 -39 3 -20 -10 -8 6 7 -5 -23 -4 3 -9 -7 -8 -10 -10 -18 -22 -12 1 -20 -18 -18 -24 -1 -40 -15 6 -26 -31 -4 -2 -22 2 -15 -5 -24 1 -27 -7 -22 -19
-7 -1 -8 -23 -7 -13 -26 -2 -34 0 11 7 -28 -3 -22 11 8 -17 -4 -22 1 -12 -14 -19 -2 13 -36 -7 -2 -13 12 6 6 -18 -34 4 -5 2 15 -10 -5 -19 -4 -19 -2 -21 13 12 -9 3 -19 -19 -5 -10 -24 6 -19 -13 1 -12 -3 8 -18 -17 -21 -7 -19 -21 -10 -15 -8 -24 -18 -19 10 7 -20 -13 10 13 13 -15 -5 -7 -6 -10 -1 -20 0 -5 10 -16 -2 -6 -15 6 6 -18 -17 -9 -14 0 -5 15 -14 -7 -10 -25 -9 -4 9 -12 -12 -25 -11 -10 -5 -9 -3 -12 7 -16 -16 -7 -5 -18 -14 5
-16 6 -2 6 -12 -27 -27 11 -19 -13 -11 -1 -5 -13 10 -23 -20 -13 -14 -10 -25 -26 7 -14 -24 -3 -8 -22 -17 14 -7 -16 -21 -4 -1 -16 -3 -17 -8 -26 -30 -20 8 -15 -9 13 16 -9 -20 -21 -29 -13 -21 -15 -4 -7 -11 -36 -20 -17 0 -8 13 -17 10 -24 -15 -2 -5 -17 -11 -9 -6 -18 -7 -20 -10 -23 -10 6 7 3 -1 -7 8 2 -26 5 18 8 -12 -22 8 7 9 -11 4 -18 13 4 10 -31 -16 -20 3 -5 -13 -19 1 -4 1 -15 -14 -17 -10 2 -11 -5 -14 1 -5 -20 -27 2 -4 7 4 -2
23 -54 6 2 3 -35 9 14 -29 6 2 -10 -8 -46 -44 -9 -19 -8 -38 7 -49 26 -10 25 -75 -24 -2 -24 -43 21 -1 -7 -38 -44 40 -41 -26 21 -73 -16 18 8 -13 -29 -62 11 -4 -8 5 58 -53 -62 -44 4 -8 -34 -16 -36 7 -16 -14 -30 16 7 35 -12 -1 -57 24 11 5 7 6 -58 -49 -29 -34 28 -33 33 -37 -5 -10 -18 11 -33 2 29 -56 34 -26 21 -17 -10 61 -9 -11 3 -23 -77 -19 8 -11 -49 -24 19 6 -14 -24 -36 -34 6 -73 34 -48 -22 -9 -43 -11 -34 -6 6 18 -33 -7 -11 -38 -25
2 1 3 -11 -26 -72 21 -21 -15 -13 -19 -21 -36 8 -17 -10 -37 16 -11 4 -28 -10 -55 -24 -36 -58 -13 3 -8 -10 3 -25 -44 19 -21 -28 -18 -57 -53 -36 4 -34 8 -53 -14 -31 0 -49 -1 -18 6 -36 5 -5 -62 -16 -23 -16 11 -41 -38 12 5 -11 -26 5 31 6 18 -15 -4 18 -16 -23 -39 4 15 -14 -34 -20 -8 -2 -35 -21 11 -4 -7 0 -34 -34 9 -10 -6 -27 9 -38 -22 9 -6 -33 48 -18 -22 10 -40 29 18 -3 -8 -33 47 -16 35 -43 3 24 27 26 -3 6 11 22 -52 44 5 -61 -12 12
14 26 -5 -3 -10 30 -7 22 10 29 -22 -28 -21 -9 3 -13 41 -19 -18 -3 -38 20 49 61 -25 -19 -3 8 -5 -41 -60 -4 -1 30 -34 -3 -10 41 6 -36 -50 26 -11 -13 -10 -24 -1 9 13 -10 -21 21 -34 38 22 16 -17 -46 -29 14 24 -28 4 -13 13 -17 18 28 -9 29 -23 18 -3 2 36 26 15 45 7 9 -20 -8 42 17 32 -43 36 -22 -5 3 -48 19 38 -13 -10 -6 -35 -56 4 -12 28 -79 45 12 -12 14 -15 22 14 -25 -32 16 -10 27 2 -9 11 36 44 -9 -73 -23 34 -33 39 -2 22 -12
10 52 -21 -66 7 -63 -10 -39 -20 -34 -9 -16 -31 -11 15 17 18 17 9 -29 32 -36 -32 -20 53 3 -19 26 15 -14 -9 43 -28 5 -79 41 -9 16 17 52 -33 -5 18 -26 -2 60 42 -9 -45 27 39 -12 -35 -14 -3 -4 -50 -1 -2 -23 -34 -21 11 -34 -35 33 20 -15 22 -24 -27 19 -5 -4 6 37 26 9 9 -29 41 27 -8 42 45 2 9 26 -15 13 -26 -29 -6 -24 19 4 4 -44 26 -7 34 -66 -41 7 -17 1 3 5 -28 46 -21 27 53 -23 -32 16 3 3 -8 -2 -17 -14 -62 -5 2 2 -25 22
22 3 8 31 19 -17 -9 17 32 49 -6 -17 -2 27 -11 -42 -57 -21 -34 24 -6 -3 16 -25 13 16 1 7 14 -17 -13 34 38 -44 18 12 9 5 10 16 -7 13 18 -62 27 -4 -24 -32 49 35 -7 5 -12 17 -4 18 16 -43 11 -52 -32 -37 -5 -3 57 27 -31 -12 -61 34 15 33 -18 -47 24 21 64 29 -13 21 -31 -17 -21 20 4 -31 46 -21 14 25 -8 38 50 19 -17 -28 -2 -10 -4 -65 -15 9 77 25 -4 46 -16 1 -48 -4 -41 14 16 1 29 -32 -7 66 39 -36 -27 24 27 -25 -15 22 10 6
-2 -30 20 21 -27 -43 -31 -25 -40 -31 -41 77 -34 4 13 11 31 7 7 -49 11 26 -13 52 11 -16 -52 -14 38 -3 32 -32 20 11 -18 -23 -64 39 13 -23 -25 -52 -33 31 -8 7 2 14 -58 -19 45 -10 17 40 -55 -25 -30 26 -13 28 -4 9 -25 -9 -36 7 36 14 63 -24 -44 8 -8 9 -53 -44 -5 12 -10 -43 30 28 19 -63 -24 5 -44 14 -21 -43 10 -28 9 -2 35 -8 -20 20 -46 16 -6 13 -14 17 -13 -22 -11 -36 46 25 -6 -59 -7 -27 -12 -16 18 -48 -28 2 -18 -22 -42 24 -5 -36 -43 -22
-13 -27 -4 -6 4 -13 -32 -2 -49 27 -2 37 -77 3 -14 5 46 -22 36 -65 -7 -25 16 6 -32 -32 -23 -59 1 -4 7 -5 16 18 -9 -13 17 -1 -33 -88 -8 -24 -23 18 -12 -45 -34 -1 -23 -16 -9 -11 8 13 -11 -29 -55 -18 -17 18 -27 -8 2 -20 16 -25 23 -22 46 6 -58 -9 -42 -2 -14 -1 5 -18 -43 -10 -36 -2 21 -37 -1 -15 -9 -8 -11 -15 16 -12 -17 -16 9 -24 -2 21 -3 -32 5 -15 -11 33 2 51 -28 0 -12 -2 8 16 0 10 2 -15 -1 -4 -17 19 -4 9 25 -8 -1 -6 -21 -37
9 -26 -25 -1 -13 -16 -1 -28 -24 16 7 -1 -19 -2 -18 7 9 7 -20 -9 -3 -14 11 -21 1 -21 -4 -7 -5 -13 -10 -20 -22 -17 -10 6 -13 -12 -6 -13 5 -18 -9 10 -22 -16 -1 -23 -20 -6 -22 -4 -7 -13 -7 -12 -23 -23 -1 10 7 -12 -23 -27 -12 -23 -29 -4 -17 -12 8 7 3 -4 9 -13 -4 2 -10 0 -15 -26 -22 -3 -6 -1 -25 3 -18 -3 -2 -17 -23 2 13 -5 -22 6 5 -1 -14 -9 -11 -8 -2 -4 -20 -24 3 -8 -13 -7 -16 13 -5 -10 0 -32 -1 -19 -6 -19 -27 4 -8 -15 0 -22
22 31 -39 -1 6 19 30 33 -34 -10 21 -15 45 34 7 7 -21 32 21 -7 20 -37 28 -24 40 -16 35 9 23 -21 8 -38 23 -4 60 9 9 -5 -38 49 23 -4 -3 3 -2 -12 13 -40 -23 8 -21 26 41 -51 17 31 22 5 11 -5 -1 13 -8 0 -19 -35 10 84 44 24 21 -20 15 -19 20 -30 -7 -35 -6 -6 69 30 24 13 23 21 -4 -8 18 25 25 33 -27 -1 -23 24 45 22 9 4 -30 45 -7 -15 38 3 6 5 0 32 5 -39 43 -1 44 -5 13 -10 -4 -19 15 29 10 34 34 -36 1 -22
35 -48 -27 -3 -58 4 -7 11 -16 34 60 -57 9 -80 -6 -22 -9 -31 -5 18 -127 -39 -5 -39 -115 -60 15 10 31 -18 4 -5 -4 -56 37 -33 19 -12 -87 -53 26 6 20 10 -26 16 5 -59 21 26 -14 -42 -8 34 8 -45 -46 -4 -9 46 -16 -18 -27 26 32 -4 6 -28 -35 41 -6 -55 -5 -23 4 29 -23 -12 -18 32 -29 -106 -10 40 22 -18 6 -61 0 -16 4 37 -16 1 -29 15 12 -25 21 -34 18 -1 39 -8 22 29 -19 18 -31 -82 -51 1 -57 24 17 -11 42 -30 -17 -15 -20 -2 12 1 13 1 -28 14
-49 35 17 -6 -17 5 -115 -21 -63 -27 -66 -67 -16 -39 20 45 19 -62 -43 10 33 -6 -46 24 47 -3 -35 2 -61 -18 -11 -11 8 0 -23 31 -7 -17 25 41 -9 -42 -63 -8 -7 46 5 34 -33 -4 -60 29 -12 -8 37 43 32 -36 -16 -26 8 -25 -3 -21 -36 -10 -66 34 2 -45 25 -20 10 26 18 -32 11 2 1 -21 7 27 -13 -22 15 -20 -25 -12 7 -65 -5 -35 -11 -45 -37 -3 22 -32 20 -2 -62 -44 -52 -46 9 -50 -73 -16 6 37 14 -22 6 -45 -18 -17 12 -19 -13 -14 -16 -53 -78 27 -40 15 -30 0
-9 -55 -33 -1 -35 11 38 -12 6 26 15 0 -32 11 -89 -27 -13 -3 18 2 -5 2 38 -40 -34 1 25 -66 5 9 -50 -19 0 -6 32 -33 -97 -21 -7 -41 -20 12 -6 -28 13 -33 -69 -60 18 -14 -19 5 -12 6 -11 2 19 -48 -10 -7 3 -64 13 -38 29 -27 -22 -21 15 21 8 10 25 -32 -31 -19 -56 -28 -22 -23 -5 -33 -4 -21 -5 -30 7 -9 -16 21 -38 28 -2 -32 -22 -37 -43 -34 -97 -16 2 -33 10 40 -17 -9 -25 -9 -11 -37 11 -19 -50 30 8 -35 -13 -6 28 -62 -21 -2 42 -34 20 -7 33 -26
16 -20 38 7 36 -26 45 30 7 26 61 -55 -17 -11 -24 34 37 -37 12 -12 -2 22 -33 -3 -75 25 33 -21 -37 30 -35 6 11 20 32 12 45 35 4 -25 -5 16 6 33 -2 -45 -22 0 -3 13 -60 -70 -7 60 -71 -10 72 41 1 58 33 33 6 1 13 7 32 -9 -31 11 -36 26 14 -5 -80 11 30 18 -19 37 -46 -8 -47 -4 1 -33 -4 15 23 5 -24 27 32 33 -16 9 -29 -22 56 2 40 -29 -4 35 19 25 47 -14 7 -26 -12 29 12 15 -10 21 29 -9 -15 -32 53 44 20 8 15 -2 7 -24
19 20 0 5 -75 -8 -14 57 -35 -26 46 4 -26 -25 -38 -11 13 20 -9 20 17 -13 -2 22 39 -41 -10 21 -16 -13 34 -22 16 30 17 19 20 5 -14 18 31 17 6 17 27 -22 45 26 -1 4 -17 -48 -35 23 38 -23 -40 53 0 -38 -22 10 -14 -60 -20 27 -22 0 13 3 -8 -6 14 3 17 5 -4 8 30 27 -6 63 -9 -18 24 -11 -3 24 40 -7 12 -23 34 5 12 0 34 18 25 9 -34 25 -19 -40 0 13 27 19 17 42 -8 -59 -7 -35 7 -48 -29 -66 -39 10 18 -11 -51 52 -43 -7 -28 -3
33 -29 -2 -7 28 -22 1 -35 -26 -25 -14 -13 -19 4 -9 14 -4 -15 0 -34 -5 -28 -42 -34 -5 4 -29 5 -13 8 8 -3 2 -19 -25 -20 -36 -22 -20 -6 -29 -56 -12 19 -36 16 14 -25 -24 -18 -9 30 -31 5 -22 -17 -9 -15 -27 -12 -15 -2 2 -15 -24 -2 2 -14 -32 -24 -34 -36 -17 -8 0 10 -8 -37 -29 -17 -3 12 -1 -9 -24 -9 -23 -9 -15 -2 23 -36 2 2 -26 21 -34 -19 7 -30 -27 -1 -41 -1 -29 -16 2 -21 -7 3 10 -13 5 -22 -3 3 4 4 -32 17 -23 -1 -35 2 -2 20 -33 21
-19 1 -41 -41 6 -49 -2 -30 -30 11 0 -35 -55 -28 -50 4 -13 -25 -41 -34 -18 -2 3 -23 -20 -27 -1 -26 -1 21 16 0 -11 9 4 -14 3 -9 2 -5 -28 -6 3 -32 -7 -39 10 -26 -26 7 -15 -3 -38 -32 -56 13 -11 2 -15 -21 9 -24 12 4 -17 -12 -29 -39 11 -16 -49 -7 -27 -5 -4 -22 -26 -34 -1 -16 -5 -11 -24 -23 -4 -1 -25 11 -44 16 -20 1 -30 -6 -19 -1 -12 17 -19 3 -31 24 -18 -1 -26 -43 17 -6 10 0 -34 -27 7 -41 -11 4 1 -21 -10 -53 4 3 -10 -10 -15 -30 2 -34
-41 7 -24 40 -45 -17 51 25 15 18 -30 -55 32 -53 -6 -25 24 30 -73 30 -52 9 -4 5 -64 -36 0 -7 7 6 -17 9 3 -61 -34 -38 -35 39 -66 -30 2 20 10 -8 -9 -53 -44 -41 9 38 -26 -26 -38 13 -13 -26 28 -30 8 15 -12 -3 -9 45 36 -36 9 -31 -8 -9 21 26 40 -37 29 -2 22 11 11 0 -54 -50 36 17 -7 -22 0 -9 10 28 -6 3 42 18 0 -8 -15 -29 -5 -58 35 -37 11 4 -1 14 2 17 -22 -26 -2 -5 -91 7 -6 -3 19 1 25 -17 -43 23 -3 -5 10 -22 18 -6
44 26 2 -6 -11 38 -14 -28 -5 -29 10 -28 -26 -5 -13 -4 -27 -8 -17 3 -84 -47 27 -26 -44 -44 42 -20 0 -36 -21 -15 -11 -18 21 -50 18 -11 -66 -56 24 10 -2 10 -25 -63 -25 -22 13 -26 -18 -13 -4 -2 21 -29 -23 -14 -18 14 -30 -18 16 -27 -16 -31 -50 17 -19 16 -31 -34 -31 -30 58 -22 15 -41 -13 -26 -35 -53 -19 38 7 -4 -11 -50 -15 -35 -59 -5 -26 -17 -25 19 13 -44 12 -25 -4 -48 14 14 67 -18 28 -14 0 -42 -31 -6 -24 7 9 -26 -28 -24 9 0 -5 -23 -13 24 -27 -39 2 5
-14 -17 21 -13 37 -63 9 -14 -70 8 6 26 0 9 8 7 7 22 12 -44 21 14 -81 19 20 -13 -18 -26 -14 54 -19 -5 11 41 18 -38 -107 -21 -10 18 15 -5 -23 -2 -71 9 -70 37 -25 -16 -3 -38 6 -8 -56 -25 -22 6 -65 -1 -39 -14 -13 -1 -24 -9 14 -45 18 -2 -22 -16 -83 -17 -64 -72 -7 34 -20 -20 12 34 -11 -46 -14 45 14 -41 -46 -9 -15 -30 -20 -2 32 -8 -6 14 -7 -4 -48 12 -37 -15 -44 14 30 19 21 39 9 14 -19 -40 -26 2 43 -26 -18 25 9 31 11 1 -34 -97 19 -38
5 -2 -22 4 -16 -12 -2 -3 -11 -20 5 6 -19 -12 -18 15 19 -18 12 -2 -4 -26 -18 -8 -9 2 -4 -13 -6 14 -22 7 -2 -1 2 -20 -19 5 4 -21 -8 2 -22 -10 6 -6 -11 -24 -12 -16 9 -21 -7 -5 -1 -20 -9 -12 7 9 -24 9 -9 -17 -16 1 -2 3 -32 1 14 4 -16 -12 1 8 -15 -13 -4 -17 -33 4 11 10 -24 -8 -12 11 0 -23 10 2 11 -6 -26 2 -12 -19 -5 -9 -8 -12 -14 -21 15 -21 -19 -20 -22 8 -19 -4 -2 -6 -2 -13 -14 1 -18 -9 -6 -31 -17 -17 -14 3 -10 0
11 -6 -21 -18 57 22 -13 7 16 10 15 -61 -10 2 -38 -57 -11 -29 -45 -16 -17 1 -2 -29 16 2 -30 5 -31 3 -2 33 -22 -10 -12 65 -19 -30 -14 14 -11 26 39 -63 45 -25 22 -24 23 7 -37 12 -20 -17 20 -14 -26 -36 -14 -31 -6 -29 -7 -4 7 62 -40 9 -68 32 -15 -14 21 -20 -17 39 31 -16 44 44 -38 -4 -6 47 -3 -18 53 -3 32 -25 -56 -1 -20 4 -10 -10 -2 -45 5 1 -1 -22 -4 -46 3 -9 -30 23 -52 -11 -19 58 -1 22 -18 -2 -9 -14 14 -39 -46 -24 30 -52 4 42 -24 38
-15 11 -27 -28 -26 -27 -35 -10 -24 -1 5 -4 10 -31 -29 -17 -16 -16 17 1 -27 -54 -11 -2 -16 -29 -15 -1 3 -24 1 -29 -8 1 8 -39 -3 -34 -23 -15 3 9 -29 -1 -7 -12 -9 -27 8 -37 -1 -9 -28 11 -17 -5 -12 -32 -29 -7 -22 -16 -9 -19 0 -11 18 11 -9 -15 -13 -5 -19 -22 -15 -33 -27 -36 3 -25 -4 8 3 -16 -30 -10 -6 -9 5 9 -10 -27 -28 15 -12 -11 10 8 -10 6 -6 -1 -14 -42 9 -2 -31 -36 -13 6 -21 -18 -39 -32 -46 -40 7 -32 -17 13 0 7 -31 -3 -6 -13 5 6
-52 5 -8 -15 -13 -1 4 -6 20 -13 -5 -10 -10 8 -8 -21 -22 -45 -17 -32 -23 1 -11 -25 -14 -4 -47 11 -5 -12 -23 -9 1 -46 -17 -36 4 -23 -8 -17 -26 -7 -3 -33 -33 -12 13 -12 5 -36 -44 -21 -1 -30 -4 12 -33 0 -15 -10 -1 11 26 -27 -1 0 -28 -43 -25 -27 -28 -1 -4 18 16 -15 -22 -14 -19 5 -68 -14 6 -14 -1 5 -20 -39 -15 2 -27 -31 -1 -48 -40 -6 17 -12 20 -43 -21 -28 -13 -2 -4 13 19 -26 -35 -17 -10 1 -11 -28 -10 23 -32 2 -5 -30 -12 -8 -12 2 -33 -22 0 15
-15 17 11 22 -62 -44 5 -22 -27 -20 5 7 -11 1 -12 -32 25 29 8 -21 5 -40 -27 -30 18 -37 -58 -8 14 -10 -18 -63 -34 9 -16 -42 23 -1 -17 23 -31 -48 -17 7 -47 -10 12 22 8 -7 -30 -74 28 -27 -48 -14 -40 20 32 25 -35 7 -10 7 -1 0 5 -39 12 -12 -1 -26 -33 5 -24 -30 -31 -24 -26 24 15 11 -40 -2 -21 4 -14 -12 -1 2 -44 -14 -25 -73 -42 -13 -16 -14 -33 -38 -16 12 -18 11 -49 14 -8 6 25 -19 -12 -13 25 -36 -21 19 -6 -8 -17 -56 12 5 -22 -32 -24 -27 3 -30
25 -10 26 -12 9 8 6 21 42 8 -11 8 24 7 25 4 26 14 11 27 -1 50 19 28 4 9 14 -4 -21 43 28 52 -21 10 10 24 18 33 12 -14 32 53 37 36 5 -25 1 6 37 22 7 16 20 15 11 12 8 -14 27 28 3 -13 23 6 37 -8 30 3 6 14 -7 24 23 41 -8 54 19 24 20 40 19 -18 44 53 16 16 50 22 -10 24 50 36 -12 52 16 19 11 67 -21 32 22 55 44 30 12 31 13 23 4 6 49 35 -6 36 42 21 33 -3 55 38 10 31 5 -14 46 43 1 36
33 -7 10 25 20 6 36 -1 -52 -10 -3 -26 74 -52 30 14 -8 41 -28 -1 6 -4 11 11 -4 6 -1 -32 29 -3 -5 31 36 12 -21 12 -10 28 37 -13 21 -24 20 -18 -32 44 -6 47 -25 3 13 24 -39 -22 5 26 8 -25 -5 -8 40 -51 12 81 -21 -17 14 31 21 -51 20 9 -14 23 54 48 15 -5 -37 -19 19 -3 -24 -19 -14 59 -27 -7 -24 21 -4 -34 16 -44 0 9 12 -23 -6 18 38 -19 -50 15 31 27 -2 13 35 3 12 35 -33 -56 36 -48 8 2 29 27 -15 42 -11 -3 0 -21 -25 -35
6 -15 17 25 0 34 -9 7 -21 2 32 -9 1 10 25 -7 -46 39 7 40 10 10 29 3 13 -18 2 -22 20 12 -2 -24 -22 -52 9 14 8 -19 22 12 -13 0 -16 -30 -52 -19 -22 -9 -4 -6 37 -5 39 9 43 17 -32 4 15 -31 15 39 11 -46 -11 -48 -17 34 -53 -15 -7 5 -44 -15 -1 0 1 -31 -78 -13 6 -22 -2 -40 -1 21 2 -18 -12 -20 -35 -25 6 -3 -47 -38 17 -8 -1 13 12 -41 6 -19 20 -23 -34 -19 27 -23 -47 -20 -43 7 4 -33 -13 2 -10 -1 23 -38 3 19 10 -44 6 4
-15 17 -41 29 9 23 -19 -27 -25 15 2 -37 58 -24 37 36 -36 -30 -73 1 -3 -18 -13 -21 11 24 45 19 -17 -5 -8 7 -38 4 31 37 -9 10 50 19 -9 22 6 -41 13 8 20 -12 13 -10 -24 22 -63 -23 7 40 -14 -49 -22 -57 52 -100 35 51 -19 -24 10 11 -18 -6 -27 -23 -5 1 2 15 -11 -24 10 -1 4 -44 -8 8 10 -31 23 -16 -3 -29 -4 -37 -2 -9 -1 -28 19 2 -9 -13 37 -32 30 16 -15 -46 -18 10 -19 -5 -10 6 -5 -5 27 -16 26 12 -42 -48 -30 -35 -1 -38 30 16 30 16
-16 -17 7 -25 4 -46 -13 20 -13 -37 2 -13 -17 -12 17 17 -22 -13 -16 -34 -7 5 -15 7 -31 -8 -39 -12 -8 -31 -32 5 -10 -7 -12 7 26 -28 -27 -3 -6 -20 -19 -23 9 -19 -23 -17 -26 -38 -10 -20 -16 -47 -43 8 -1 13 -27 -25 -36 3 -11 -38 -19 -18 16 18 20 -23 -27 9 -9 -32 -31 -26 -28 -17 -28 -7 -18 -10 -3 2 3 -22 -29 -18 -34 16 -13 -27 -24 0 2 4 -1 -30 -3 -14 -26 13 -27 -27 -12 15 -21 -6 10 -1 -2 -10 -12 -35 -8 6 -33 -34 -3 -7 -10 22 -26 0 -16 -19 3 -39
9 39 38 3 -6 -28 7 1 -35 -31 18 -8 -4 23 61 26 -53 -65 -64 12 26 -15 8 -27 21 -20 9 12 -15 -8 15 13 -9 -55 -1 25 31 23 26 27 -11 1 -5 -51 7 24 -8 6 35 -12 -47 44 21 -50 1 25 27 -4 -7 -25 -10 37 31 -18 0 3 -125 -11 30 -21 -37 30 27 37 18 -3 18 -35 -15 8 -32 -30 30 11 -19 -36 10 -3 6 -38 -3 -31 1 -19 -31 -11 -1 3 46 12 12 25 -19 14 -17 -49 7 4 -41 33 -8 -33 30 16 11 -13 -38 30 -21 6 19 -50 -55 27 -33 -7 21 48
6 -31 48 0 58 -14 3 18 46 9 -31 15 57 -13 8 1 -29 -42 16 -3 32 2 -14 10 34 9 -3 9 8 35 36 38 -22 31 -26 24 14 31 35 9 45 8 48 24 9 43 8 23 36 18 -21 36 26 11 -3 33 -23 -41 -11 -48 46 -38 31 45 6 23 -4 -48 6 -8 55 34 13 24 -9 15 15 9 18 -1 -38 5 59 11 -2 18 42 24 21 30 50 -9 17 27 23 2 -4 34 -2 24 -21 7 5 11 8 -8 -22 7 8 21 -32 23 33 19 -16 -2 25 5 11 22 -13 16 1 24 30 37 -15 39
14 -34 32 11 13 17 21 -59 28 40 26 6 -14 -31 2 -90 -46 -32 -50 45 -45 24 5 -43 -65 2 24 -11 -9 52 43 51 -31 -69 63 -65 -1 5 -53 -60 80 11 16 13 -19 -37 -15 -73 28 36 -17 -1 16 -15 43 -33 -12 32 -26 -10 -35 2 -4 19 0 -13 -23 -6 -23 24 -17 0 -25 -46 8 14 -24 6 -8 8 -33 -75 -8 -14 -18 4 37 4 -19 19 12 49 23 35 -10 20 49 33 -5 -60 -24 60 27 3 36 6 31 14 -32 -17 33 32 -73 13 0 0 23 14 -9 -6 9 -5 20 29 22 -13 -32 -7
-47 7 4 20 -4 -32 -63 -24 -53 -23 -15 46 -49 14 -15 -7 -19 10 28 -44 46 -41 -35 -40 28 -23 -82 -11 32 2 22 22 15 -35 9 13 -1 -1 -12 23 24 -10 -4 0 15 55 21 5 -81 38 28 -3 19 -48 -31 12 -57 57 20 59 -62 38 -4 -3 -54 3 -1 -3 -3 -85 -28 6 -28 5 -19 -37 21 -12 -11 4 68 6 -4 4 12 24 -9 8 22 -10 -20 -54 -39 -32 25 30 -11 17 45 -37 -14 11 -88 12 14 -34 7 -6 -12 16 20 -15 54 -47 -3 62 -61 -63 -9 -9 31 -28 -16 14 -11 -17 -1 21
2 -51 15 -30 48 -46 -6 -48 -30 -8 -2 39 11 -12 13 13 9 -31 -15 -18 -26 13 -49 -16 -30 14 -7 -45 26 13 43 24 -12 -7 -10 4 12 1 6 -38 44 -18 -48 18 -50 -10 -43 11 -23 -38 25 0 23 27 -52 -36 -2 21 -34 -10 14 -2 14 37 -4 -6 -35 -23 10 -4 -30 6 5 10 -33 -12 -11 -2 -66 -40 -78 2 43 1 -45 -13 -14 57 -47 17 44 23 13 28 33 -2 12 66 17 6 -16 50 -36 -1 -29 0 28 -18 18 -18 21 25 -19 -12 -39 -8 11 -81 -20 19 18 -43 -15 17 24 -18 -16 -8
-13 -22 -15 20 -27 -3 37 -13 -52 -33 -43 24 3 -11 -20 -20 -9 53 -12 -27 -5 -20 -31 -27 -54 -35 -10 -6 1 2 -21 -37 -23 8 -27 -7 -10 16 -4 -17 -41 -31 -34 0 -5 -29 -28 -69 -45 -14 24 -35 -36 13 -56 6 -15 -1 -31 -9 -6 -1 -22 7 -5 -5 32 -14 3 -66 -22 35 -37 -2 -18 -62 7 -37 -22 -23 16 -9 -20 -27 -23 32 -19 -28 -25 7 -1 4 13 -20 10 4 -17 5 -23 35 11 -34 -38 -2 11 -2 3 -5 11 -22 -59 -22 -7 -18 -35 -2 15 -6 -9 -12 -64 -33 -20 9 -6 -56 -44 -37
23 14 35 14 7 -6 24 39 -6 -35 2 28 -6 -12 -33 17 21 67 -63 11 -52 -22 -45 -16 -39 1 -32 24 -2 19 -38 5 39 -6 -17 8 19 46 9 -14 -11 -17 1 13 4 28 16 -2 -4 15 17 -17 -42 24 12 20 43 -27 60 -9 -20 -20 -31 28 8 24 58 -4 13 -3 30 3 3 -15 9 10 -26 27 10 16 -21 -28 -29 23 -8 51 -11 29 20 11 11 -5 14 9 -17 5 -11 4 2 -21 15 9 -6 -50 -14 24 -14 2 26 -14 -24 1 -14 -29 -11 -49 57 -11 18 17 -53 39 -38 -38 -16 -7 -3 34
0 28 -51 4 22 21 -10 2 3 -1 -17 -27 6 -6 -37 -10 -62 -39 -8 -23 -9 -97 24 5 -19 -31 -6 32 -25 -32 -17 15 -55 -29 -12 12 41 -22 -29 -4 -43 0 -4 -19 29 -40 -11 9 12 -26 -46 -8 -13 -34 14 -38 -36 -18 44 -18 -5 -63 -28 23 -12 2 -9 11 -8 21 -2 -48 -9 -45 41 6 3 -24 11 -27 -12 16 -48 46 -31 1 -16 -7 -16 -37 -38 -29 4 -45 -61 -28 25 -37 29 -43 -58 -11 22 -44 8 -25 -46 -6 7 -9 -45 -28 4 9 -47 16 -9 -31 42 40 -61 -20 -8 -9 -11 7 -15 51
5 7 7 8 20 9 -17 -50 0 20 -24 11 6 -27 -27 -1 -50 -6 5 -11 -9 -14 26 -34 6 -16 -8 -16 -29 20 23 -55 29 -20 1 -2 -15 -60 5 -17 28 -48 -5 23 3 -21 -1 -84 -19 6 28 -9 -11 -84 -4 -19 -20 28 -46 6 -5 0 -14 27 1 -21 -63 11 15 -25 -59 5 -46 -26 -21 -60 -3 -44 -51 11 -32 -36 5 -89 -1 -61 -62 24 -39 39 13 -2 -38 20 33 14 32 29 -6 -47 -28 14 -13 3 5 33 18 -34 -3 8 7 -11 -33 -53 -5 -70 6 5 5 11 -4 -23 16 49 16 36 -24 -32
-23 34 -18 -19 3 25 15 2 -14 -37 21 -80 -17 -44 17 -23 -33 -68 5 -4 -27 -8 32 -49 -46 18 -11 17 4 50 2 -9 4 -21 30 3 -33 -39 -74 -11 19 -23 -28 -62 4 -13 36 -17 7 -22 3 -66 5 -48 -72 -13 -5 10 -38 -17 -14 45 9 6 14 5 -71 -24 -44 2 -17 10 24 -31 30 -13 -96 -61 -27 -27 -26 -12 -62 29 -4 -12 -39 -48 -37 -3 -7 -51 17 -68 -4 17 -3 -9 31 -39 4 12 -32 -11 -4 -36 24 10 3 -16 21 17 0 -36 -4 11 -75 -16 24 -52 38 -50 -8 38 -4 -11 27 25
21 -26 3 -19 15 -102 32 32 -23 3 22 4 -53 -22 -24 7 68 68 7 -30 -57 6 -16 9 -22 -30 -71 32 -30 6 10 -28 29 -25 -24 -32 5 -1 -33 -13 -24 -20 41 12 -7 -39 16 -14 14 39 27 -49 -39 -3 -20 -3 15 9 84 0 -58 33 9 -5 15 17 25 -48 -2 -36 39 4 32 2 -2 -20 54 62 16 37 -1 -2 -12 1 -45 -3 12 50 57 38 13 19 20 -14 15 3 -68 3 5 -39 62 3 -13 -50 -54 62 5 21 -23 -31 -2 34 -11 -24 -72 -18 49 28 6 2 33 48 25 1 14 -41 -9 19
-29 -22 -11 10 -60 42 3 -4 25 12 21 -46 -51 -21 -20 -51 -71 10 -18 14 -69 10 4 -48 -24 -23 -38 21 -1 -32 -18 -11 -16 6 -11 11 14 -11 -46 -20 -18 13 -41 -62 45 -42 11 -24 24 -27 -57 22 -14 34 11 -38 18 -24 31 1 -8 -17 -57 -25 2 2 -36 6 -31 39 -9 -6 2 -41 45 32 -43 5 -13 8 -84 -53 -3 25 9 -4 32 -28 36 -31 8 1 -5 8 -93 11 -3 -34 -3 -20 -6 -16 15 -33 17 -16 -17 -17 26 -70 -11 -15 -22 1 -17 2 -2 -2 15 -56 -43 -34 9 -18 -35 -3 24 38
-4 13 -17 -21 22 -5 -61 44 -20 -60 6 40 -27 14 24 17 58 -20 41 -40 39 30 -20 47 61 15 -28 10 0 19 -11 9 36 33 -31 32 -12 38 19 55 -18 -1 26 40 8 49 11 28 -36 10 6 2 -1 -11 -8 28 18 9 24 57 3 34 -4 -39 -36 4 0 36 29 -23 -9 -28 -1 51 -35 12 33 34 1 -10 17 52 -5 -46 34 54 -5 11 25 -39 3 -45 -12 8 26 26 -7 -1 23 41 7 29 -20 -26 21 -4 21 3 20 63 33 -1 27 -4 -8 64 -6 -30 -44 32 41 17 -41 -15 -26 2 14 -2
-1 -22 54 -5 63 -67 -51 21 -25 8 3 -23 -20 28 -12 2 23 -56 -10 2 -43 -10 -20 6 -20 13 -3 -17 28 -6 4 -27 9 -21 17 1 22 -8 -16 -28 0 -7 -5 21 13 -65 -33 -44 -5 1 -2 -11 24 -4 -3 -34 -2 34 -5 52 -15 21 -12 -35 -11 -16 -51 -23 -22 18 -22 -10 -16 -5 -33 -42 24 23 -8 4 -47 5 -24 -9 -73 -44 12 21 49 -38 -55 -6 13 12 -32 21 -21 -4 23 -15 -88 37 -6 -57 -6 30 54 -5 -24 29 -2 32 29 -7 -25 36 -23 11 -12 -31 13 -50 -5 4 3 11 22 -23
-34 -19 18 24 -25 0 -25 23 35 6 -24 -8 11 -12 9 12 -42 13 -42 19 -55 36 -14 32 -93 -22 -13 -9 20 -17 -19 0 -5 -3 -67 -8 -21 59 -9 -83 -57 19 33 -59 21 -81 8 -21 40 -4 -22 -2 -48 41 -11 -41 -19 -19 4 -40 -6 -14 70 -64 27 0 -16 -27 -35 -3 6 73 -3 -1 19 -5 -20 6 30 55 -60 -71 50 15 -11 -5 20 1 -19 0 -57 11 43 0 24 -48 -56 -35 26 -13 -3 -11 7 -11 -23 8 -44 17 -28 -31 23 -1 -42 28 -2 -6 -17 -17 19 4 -6 21 1 -39 -3 23 7 36
-20 -10 -3 23 -14 -28 -38 14 -25 -13 -23 -21 -28 16 -23 -13 -2 -24 -5 -29 4 -43 14 27 -22 -4 -39 -3 4 -27 1 -12 -10 3 0 -25 -6 -10 14 -11 -27 5 -32 -29 -11 -18 -40 -15 -59 -8 -11 -23 -3 -16 -17 0 -14 -9 -3 1 12 2 34 5 -4 -40 -55 8 8 -16 -22 3 -38 -46 1 -11 -16 -29 -4 -19 10 -59 24 -9 -7 -9 -29 -2 -45 -26 -37 -1 -13 5 -9 0 -19 -2 -4 -12 -18 -10 -9 -10 1 -2 -17 -5 -12 3 -2 -10 11 -65 -33 4 -16 -19 -23 -18 -8 4 -22 11 -46 -15 0 -27
-14 11 -6 -6 -43 24 -28 -21 -14 -27 14 6 -2 -16 43 -34 -50 -6 -29 -23 17 -66 -1 -23 -24 -26 -29 34 -23 -24 -33 -12 -30 -15 5 -57 -3 -43 -28 18 -30 -18 -26 -16 -11 -28 21 -16 3 -1 -11 0 -48 -20 -30 -36 -16 1 -11 -34 -45 -17 7 -26 0 -26 -28 -8 -3 19 -31 10 -17 -23 -19 -17 -13 9 -11 -10 -54 -30 -7 17 -27 -3 -5 2 6 -2 -11 -20 -1 -10 -25 -2 -49 -6 -1 -32 -23 11 -15 5 -14 22 -25 12 -32 7 0 -16 -9 -12 1 17 -1 11 1 -22 -38 11 -6 -11 -49 -15 12 -3
8 -11 -12 -19 -6 7 6 -24 -10 3 -11 -4 -19 -5 -1 -9 -13 -23 -23 -15 -9 -14 -10 -15 -25 2 -20 1 -16 -25 -29 -4 -5 -2 -20 -17 5 -26 -19 -4 -12 -11 -17 11 -20 -12 -5 8 -7 -14 -4 -25 17 -12 10 6 -19 -9 4 11 -10 -18 -6 -20 -23 -9 -3 -17 -7 -6 -2 -26 -4 -6 -8 10 8 -23 -13 -8 4 1 -18 -11 18 -21 -13 -19 -1 -22 7 -32 10 -12 -15 -7 -16 -28 -22 9 4 2 -4 -20 9 8 -12 -13 -9 -7 -13 -15 -7 -4 -1 15 -1 -27 8 4 -13 -11 -9 -6 -5 -1 -12 -17
36 -11 -24 16 -14 -29 -59 19 10 30 -39 10 18 1 64 28 -18 17 -80 -35 16 17 9 5 17 2 7 -12 11 1 0 38 -16 15 -50 -2 -34 33 41 7 -6 45 37 -45 -57 2 -13 -21 -24 35 -16 33 -47 21 -15 36 13 -1 -4 -17 55 -12 0 36 -64 -3 -6 8 1 -63 0 24 -30 37 18 17 -8 -12 0 17 -10 -41 25 2 -13 23 3 18 -27 -12 -45 -41 14 20 16 -14 4 -29 3 -12 45 -53 -48 47 -5 24 -42 22 -15 24 -10 -71 5 -22 -24 -9 -23 14 -2 -22 -19 6 -41 6 -30 -19 -2 -16
20 -20 12 -23 25 -28 41 -11 -28 -8 8 -20 28 -1 23 13 -36 32 -35 -25 10 27 -39 -17 -2 -7 -18 -7 48 48 -22 -33 -41 21 4 -31 -20 -39 -22 -5 36 -21 -10 -29 -7 -41 -8 1 -29 -17 32 21 33 -26 -34 -5 -30 42 15 -16 -17 6 -6 -19 -28 -9 -15 16 23 20 -15 10 -34 38 -92 -38 -32 20 -50 -39 -22 -31 12 -29 3 1 -31 25 -5 36 14 -1 3 11 -5 -32 23 2 -6 24 -15 22 -53 -9 14 -36 7 -18 0 -5 -14 -9 -8 -47 -9 3 15 -2 -46 -12 -9 -49 -18 6 9 -18 -42 -22
11 26 24 -5 20 -8 -34 23 18 -24 -53 -23 21 -40 -4 -32 -1 24 -11 -11 1 -14 -10 15 15 31 17 6 28 32 -55 20 37 -19 -107 29 -31 -7 27 -3 -53 19 47 -19 18 18 25 -40 20 -7 0 41 -27 -26 -9 10 -6 -17 -12 -12 12 -44 14 -18 7 14 -8 -16 -41 -24 -13 22 19 -8 -28 38 5 8 36 44 28 -41 -16 4 62 -37 17 -17 3 -56 -81 -20 -24 -24 28 -11 -1 -50 -22 -4 45 -20 -10 23 -27 -17 -57 28 -51 7 49 -14 24 17 37 27 -55 -8 -3 -70 -32 -5 -10 -16 -55 36 5 -13
-29 -14 -19 0 -12 -42 -27 -2 -39 -12 21 -20 -5 -18 -36 3 -5 -17 -25 -15 -6 -11 -13 -38 2 5 -33 18 -4 -64 -31 -39 -1 -8 -17 8 9 -14 17 -3 -48 -16 -62 -61 26 11 26 21 -11 -45 1 -7 -28 -24 -21 -6 -2 13 -13 16 0 -6 -11 -14 -15 -14 -70 -39 7 14 -10 -5 18 1 -7 -21 15 -20 2 7 -22 -2 -23 22 -4 -1 12 -7 26 -33 -67 -38 -13 -51 -26 12 -29 -38 10 -4 -54 -54 -47 -20 -38 -30 19 -25 -15 12 -10 6 2 -34 -28 18 -73 -8 -2 -21 -4 -46 -41 9 -22 -29 -10 28
-25 -41 -40 -2 23 -4 -38 -46 -21 17 -19 -25 -6 -44 -24 -5 40 -42 -34 -1 -16 8 32 25 17 29 3 -8 -23 -12 -20 -35 -37 8 -32 -15 -23 31 16 -26 -40 -24 -2 0 -42 16 -38 16 -36 -19 -19 -4 -24 22 -5 -61 -59 -41 -25 14 -24 -67 18 42 -7 12 -12 -4 -22 -47 7 -32 -30 6 -15 -40 33 17 1 -10 -17 -15 -14 -17 28 12 -28 -26 -14 24 -20 3 3 -20 29 -20 -42 -14 -19 4 -23 -46 -17 -11 -12 1 -4 -24 -12 21 -18 47 -8 -23 -58 -24 23 -14 -43 29 -31 10 43 -37 5 -8 9 -57