0.09982533007860184 0.10235985368490219 -0.034241218119859695 0.03296707198023796 -0.1834336519241333 0.0660172551870346 0.019288087263703346 0.1266503483057022 0.043995678424835205 -0.026445528492331505 0.1438315212726593 0.003554920433089137 -0.07505322247743607 0.054497621953487396 -0.03402180224657059 0.02808704786002636 -0.028849074617028236 0.1542804092168808 -0.051115088164806366 0.01487793494015932 -0.10889061540365219 0.009606401436030865 0.022466905415058136 -0.05512991175055504 -0.03338088095188141 -0.03327417001128197 0.06633878499269485 0.03972862660884857 -0.13321588933467865 -0.047699037939310074 -0.020444171503186226 0.020914282649755478 0.017496008425951004 -0.16682642698287964 0.06874285638332367 -0.07791832089424133 -0.012338998727500439 0.007518778555095196 -0.00852167047560215 0.08678117394447327 -0.08382705599069595 -0.03570926561951637 -0.017763059586286545 -0.14721286296844482 0.020819352939724922 -0.00018616220040712506 0.025511477142572403 0.008159727789461613 -0.025894632562994957 -0.05899480730295181 -0.10826322436332703 -0.0006811479106545448 -0.03847823664546013 -0.07425407320261002 0.09624360501766205 -0.021370381116867065 -0.03457602113485336 -0.11777166277170181 -0.032636608928442 0.023716794326901436 -0.1022191047668457 0.10821682214736938 -0.04770210385322571 -0.057426489889621735