-22 -31 38 0 -22 -7 26 4 6 6 -18 12 26 14 0 46 13 17 14 -8 15 31 20 -23 7 -10 -40 -40 -33 21 2 -1 53 17 32 7 32 8 -33 7 28 42 -12 8 -31 -82 29 4 -33 -17 15 40 10 23 25 -9 2 -28 37 20 2 16 12 -30
-24 -16 29 24 -5 -14 -26 2 -61 12 23 10 11 20 12 24 9 -10 -3 -26 -2 -19 -25 37 -28 9 -34 -1 30 33 12 -14 -31 35 22 -5 -11 -43 8 -16 21 51 15 2 34 -44 19 -30 36 4 10 18 39 6 14 -19 31 3 10 18 28 -15 -23 -5
31 39 -20 -42 -19 -24 6 38 -26 -51 -32 -47 25 -36 4 18 -14 3 40 25 -35 -17 -3 -8 25 -17 38 -3 -12 -10 14 9 13 19 22 -39 -7 17 23 2 -3 -19 -41 12 13 -40 46 -32 -35 -28 -34 24 17 48 20 9 -34 -41 -33 11 10 27 -4 4
37 -21 -34 2 -17 47 13 1 -20 1 39 -43 -3 5 30 4 13 10 -6 -23 18 46 18 4 25 -31 -6 -39 -14 18 -20 -69 20 -20 33 -25 -8 33 7 58 -13 34 -41 -21 10 -21 -30 48 -37 13 -14 -35 -40 2 27 31 -58 11 39 -14 28 32 16 -17
38 9 4 13 -4 -4 -37 63 -47 14 50 -20 -15 33 40 -29 -6 65 -19 -53 -10 -33 27 16 19 29 -33 -20 -34 23 -2 20 26 -25 10 -42 -16 28 -24 15 13 2 4 -45 -6 -33 -33 24 -21 7 -14 -1 -5 -19 -12 29 10 28 9 -1 -17 25 -48 -19
48 28 3 27 -1 -3 12 34 -11 -34 1 -1 -8 59 43 -20 12 -3 10 -10 -49 19 -41 15 15 -29 -11 -9 15 -26 4 34 7 -2 -7 -24 -21 3 33 -1 -13 1 -20 -3 -24 24 -1 -12 -17 16 -42 16 -22 3 42 21 33 -20 6 38 31 -15 25 16
-44 30 62 -15 -12 23 34 -15 7 -7 -22 -21 38 -7 -1 17 20 31 -19 11 18 18 -30 -14 -17 -10 51 30 36 -38 -21 -25 16 -21 31 40 19 20 -18 8 7 31 -32 16 38 33 -26 -3 -42 21 16 23 -24 -29 -1 -6 -5 25 -7 4 40 32 -1 68
-63 -8 -20 4 40 -33 46 -12 33 12 -30 -30 41 23 -18 -26 19 22 19 16 22 49 13 33 -22 -24 29 38 3 15 6 26 32 -14 40 7 -5 12 12 17 2 -27 -45 57 51 10 -4 4 -7 -25 -26 -8 5 21 -7 -10 -18 -16 40 2 -4 17 11 -4
-27 21 41 -31 54 -28 34 -29 4 -22 -13 -10 5 26 -62 13 -19 -10 -36 -34 4 1 -60 -37 -55 -26 0 44 5 33 -17 7 -20 -24 9 16 8 9 -23 -23 38 -3 32 27 0 24 1 -47 37 16 17 10 -7 51 -8 3 -29 24 9 8 20 27 -3 45
-44 -9 20 -6 -9 -49 -22 -15 -58 6 -28 -1 22 9 -10 25 -32 -34 -20 22 -19 22 21 38 15 -5 -57 -24 68 25 36 -44 23 59 -14 45 5 -30 -11 -32 31 12 -9 53 -47 -4 -19 -7 -8 -14 17 -23 45 -34 -44 7 10 12 -9 -7 5 -48 5 42
-50 -4 14 -13 49 -40 37 -4 45 61 -13 20 35 2 -18 38 51 -31 -6 -19 -10 -10 -14 -45 -17 8 6 12 49 -22 13 13 30 36 -5 -14 19 -16 -15 -13 14 -43 3 9 34 0 16 39 4 54 3 18 26 3 51 2 -46 16 -3 30 -8 28 -16 17
-37 30 7 -39 18 21 9 -7 -9 0 -30 -6 -17 -23 28 7 -16 35 29 -10 -30 35 -39 -50 3 -11 27 -26 45 4 34 -7 2 33 23 33 43 18 23 -13 8 -14 -40 23 -22 -17 -21 57 9 11 23 -6 -13 -54 -25 14 -6 66 21 21 -45 -13 24 41
58 -22 1 -40 32 16 14 -67 51 -10 -7 24 6 15 15 -36 -36 -14 7 -16 1 -28 5 -10 45 3 -25 -41 36 -26 0 -26 19 54 -30 2 55 48 24 -28 43 3 -12 46 -30 2 11 23 26 -28 -27 -28 -35 -7 -35 53 13 -13 22 26 -25 14 -15 -4
3 -27 -13 3 30 -21 14 28 -29 -14 55 0 -30 33 -35 53 6 -33 -13 7 -34 -6 -27 35 17 -24 -31 -9 -8 -10 18 60 28 -3 -23 -9 -46 -2 15 -13 -24 5 36 16 -11 24 -44 4 20 28 23 13 43 -1 -19 -44 13 50 8 14 -2 -31 12 11
-27 52 -13 -12 -40 12 -18 20 -19 37 16 -7 22 13 25 -28 37 13 7 -13 -42 -18 -1 -21 -9 -30 -23 -16 -12 -37 -27 -22 22 9 22 12 -27 26 30 -9 -17 17 12 -33 23 18 -33 1 -3 -35 -42 -21 4 19 28 21 29 26 44 6 -43 33 -16 16
13 -10 10 -54 -2 -4 -43 -44 -8 -29 2 -30 2 -3 33 21 25 -41 -37 41 1 -9 -48 -8 -16 -11 -20 -22 10 -39 -3 -3 -20 23 16 4 4 36 30 -10 -10 -20 48 4 6 26 13 -12 -11 24 -38 -20 0 -24 -26 30 -20 -6 -11 -9 1 0 -45 13
15 6 -34 -12 -18 53 8 15 -13 15 -39 -66 -26 11 -16 1 -40 37 -27 2 31 -10 37 22 30 30 -39 -25 -22 15 -16 -3 -11 -14 8 -37 35 -1 15 -9 -45 13 -40 14 -19 35 20 -22 30 -6 -29 -28 -30 -45 19 -1 3 -28 14 19 -23 23 1 21
13 14 -30 55 -9 59 2 38 55 39 6 18 -36 3 -44 -26 -27 -40 -12 0 36 -47 1 5 6 31 -17 -7 -63 0 12 -40 -50 -45 -10 -74 -12 -1 44 -2 -1 -46 -12 -15 26 34 35 24 40 6 -36 40 5 33 6 -18 16 -40 23 29 37 1 -2 3
11 -15 3 -1 -44 31 3 15 23 -2 56 -5 9 -7 25 -4 -48 -20 46 21 -35 -9 16 -13 20 -7 8 20 -41 -11 -38 -1 30 -58 27 -36 -32 3 33 6 24 -25 4 -15 20 -6 21 -33 12 -14 7 63 -51 -20 8 -21 -35 -45 -29 47 -28 48 39 -18
35 22 38 -32 8 26 38 -2 -40 -25 -21 -10 3 -32 -1 -26 -13 -5 -2 -20 11 -3 1 -46 -27 -12 36 -15 -16 -16 -38 13 15 -12 -45 3 -23 -51 -11 18 -6 -6 -7 8 -6 -46 -30 42 -6 8 -3 17 -2 26 9 5 -41 -13 -5 -17 19 -13 -10 -16
-19 25 29 48 -4 40 -38 -35 -22 38 -1 8 -23 -34 10 10 -8 27 0 9 -6 12 -19 21 -2 -9 35 -21 -27 -38 -9 14 -16 -1 26 -40 -24 -6 -31 -27 -7 36 -36 6 11 14 47 -3 -22 9 5 34 6 -28 50 -9 24 1 4 33 -16 14 23 0
16 -11 -30 30 -26 30 39 17 -33 -36 -23 -50 8 -21 41 -16 7 -12 -17 4 -1 -19 5 5 -28 28 -27 -22 19 0 -13 -11 22 -6 7 -10 -6 -10 28 16 -14 -12 -13 -34 -28 -19 19 -36 34 6 -3 5 -47 16 -46 46 -4 -9 17 31 -3 -26 30 -2
4 -18 1 30 25 17 24 26 -56 54 22 -58 -15 2 14 -8 28 11 1 6 33 -31 68 -3 -5 -49 -2 22 -34 -22 -46 13 2 34 8 -2 -43 -12 -14 15 11 -12 8 18 -19 -36 16 -32 -12 -8 -12 10 9 34 -62 -47 21 1 18 5 25 21 54 48
43 34 -35 12 -10 0 17 52 22 -1 29 -3 -8 40 -38 10 10 20 32 5 -4 -3 17 -25 -2 -48 6 6 -3 -10 -1 -29 -9 24 2 -4 25 -4 -25 -44 16 -22 -23 -14 21 54 -40 -15 -30 26 -27 -18 32 6 -7 -3 11 23 9 -9 -28 -27 -3 17
-24 24 -21 -23 5 -35 -22 -10 -20 -42 12 -1 33 -20 25 -20 17 32 -2 14 41 -10 11 16 0 42 14 4 40 -53 5 39 21 17 18 23 31 -32 -27 -44 -2 4 23 -12 27 -29 5 -5 9 29 31 -17 -9 -2 3 -21 -9 -41 21 -40 -34 44 16 -24
16 -40 -23 -37 -33 23 -15 56 14 3 53 -32 -43 44 34 -1 12 -5 42 -23 -43 -2 -31 0 -12 -101 22 50 -44 -61 -20 45 -5 -64 -10 -32 -13 46 63 -9 -50 -42 34 -54 -24 103 4 9 -10 33 -11 4 -3 37 47 -40 43 -2 30 70 -6 37 35 -3
-43 -6 28 34 37 -14 3 -7 -6 -32 -15 -19 36 -2 -14 23 1 15 -19 -17 -4 -2 27 13 21 -27 30 -1 -21 25 -4 -27 14 -20 -36 -7 15 -28 -6 -23 -30 5 24 -31 -18 -12 -44 8 40 -4 14 24 -22 34 -24 -11 -18 -21 -18 -3 -15 9 9 0
10 -11 9 -46 -38 -7 -43 -10 16 -28 -26 10 -15 46 -7 -4 10 -3 8 -24 -2 -28 4 -10 44 -10 -12 -11 62 -19 -32 -16 12 -43 32 -40 17 65 -7 -21 33 -32 9 -43 -12 -9 -9 -29 10 25 2 -23 -31 -23 24 -1 10 -19 6 29 -34 4 -15 10
-10 13 -22 -33 38 -12 55 -10 34 7 13 -25 5 34 25 24 1 -53 -14 -29 -38 13 -33 -44 22 -55 -2 -29 -21 -50 23 49 16 25 -25 2 29 -34 14 -25 -14 -32 38 26 -16 4 -32 -17 -15 5 -39 -15 30 45 20 -2 -20 35 28 19 14 -18 -39 31
15 44 22 -26 -2 -3 -2 -16 -22 4 18 -26 -20 4 11 -60 -51 49 17 26 -16 -1 31 11 42 24 -2 -3 22 9 40 41 -43 31 -7 17 -21 -21 -13 36 38 12 -45 20 -15 46 -33 72 -31 -6 36 -57 -21 -74 21 -46 30 -19 28 18 -20 -17 -9 -7
-14 -19 38 -39 -35 -20 65 12 -42 40 6 31 53 32 13 41 14 -37 -15 1 1 -23 37 6 17 -18 -28 -1 -30 -14 -33 -13 19 -29 -14 19 22 -31 -37 8 58 33 44 2 -34 -10 -50 5 -10 43 15 18 18 -30 -8 20 -41 21 19 35 -10 11 -10 41
48 7 -15 11 -23 -4 11 26 24 11 2 -19 -11 -20 -37 5 0 -2 13 29 -22 -10 31 19 5 2 -14 2 -24 18 16 -58 -40 -25 48 18 -10 37 8 33 -39 -4 -51 18 49 -8 26 28 43 -29 39 -22 -47 -12 32 -30 14 -18 -24 22 21 0 -25 -9
-19 -10 14 1 -36 -28 2 5 51 13 6 -3 42 37 -6 27 -11 21 -30 10 -43 13 -42 -4 11 49 26 -19 14 15 2 -25 -18 5 -17 7 37 15 -5 -11 9 26 -29 -15 -53 -11 4 14 11 -42 14 -5 -27 -19 -1 1 68 -22 -38 43 -58 14 20 28
-17 18 27 -19 20 -9 -5 -15 -71 -24 -32 2 22 -15 -25 -46 -6 -24 -38 14 10 26 12 33 -22 24 -22 -4 5 11 -22 -14 -24 54 19 44 26 -48 -8 25 27 49 -2 -20 -19 -52 -30 13 -21 -62 -2 -31 -14 -43 -30 22 -50 -24 18 -40 -16 -22 32 58
22 25 -14 8 -25 36 13 38 0 45 -20 8 -16 1 -39 0 -18 -22 -3 28 42 19 -16 13 40 23 -10 49 -33 36 -26 11 -5 -2 14 -15 -15 51 50 0 -10 -27 -46 -29 2 8 21 33 -6 -4 24 -16 -1 -18 20 22 6 -25 44 4 47 2 -43 -46
-60 -17 7 -25 60 16 -28 22 -6 25 41 22 -15 11 -26 45 -20 -26 9 -18 -18 2 -1 -25 -19 22 9 20 -12 38 6 38 8 -10 31 11 11 35 5 36 -34 6 -2 13 -17 11 13 -16 -37 6 -4 8 5 24 -44 -27 -37 5 -18 -17 39 -41 3 1
-2 30 8 13 -49 37 13 25 -30 33 13 5 -14 12 -24 -30 4 13 11 -34 -18 7 18 19 43 35 -20 -1 -31 2 -46 8 -39 -5 31 -9 -6 6 4 -33 -54 -32 -18 -55 -34 -16 -10 -4 -28 -43 35 -3 -20 -27 -15 -23 84 -16 -13 13 16 -3 22 -31
18 19 8 4 2 -13 -37 38 -24 17 12 31 1 -33 -34 -25 -30 -15 14 -16 33 29 9 27 41 -13 -20 29 6 41 23 10 23 6 -5 61 -27 -16 -4 -6 33 -10 -42 44 -3 15 41 11 1 7 -25 2 21 20 -28 -36 -28 29 -16 19 -19 -33 -22 -20
-13 -29 -13 -62 -8 47 -3 -15 -34 17 1 32 37 22 5 1 12 25 -3 -11 -29 -27 15 -24 27 18 -14 -35 16 -24 -4 -40 -53 -5 6 28 26 21 25 8 15 -2 18 -50 -15 29 -20 -23 -35 -29 -4 12 -25 9 21 36 37 11 -3 22 39 -26 -26 49
-2 -23 21 -16 -17 -45 -10 9 -34 -14 -28 1 26 37 6 14 -17 56 -47 8 -6 -8 -32 20 -10 -22 -4 -53 19 4 23 -7 -23 -2 -49 34 47 2 8 1 -23 -22 -25 21 -25 13 16 -6 -14 15 -45 1 9 -16 30 5 -23 13 0 -37 10 -10 -42 -8
-6 7 40 -12 49 -29 -12 -1 12 4 -30 -13 7 -26 4 36 49 -42 20 14 -7 -6 8 -1 25 -29 56 -14 12 1 -7 6 71 -1 -5 -63 17 25 -4 -10 -23 -20 10 8 5 6 3 -45 3 -12 -81 12 20 17 18 53 7 43 -5 -12 21 -21 9 -4
-17 -3 4 -8 -5 3 -12 -5 -46 16 39 -3 32 -47 -29 -11 7 -10 -16 37 -33 -30 4 -14 -47 -46 12 -24 -2 31 -47 -27 12 18 24 18 -9 -16 -74 24 -3 10 -9 -27 20 5 31 6 16 23 71 50 13 -4 -23 6 -83 19 -16 5 -45 7 2 4
-15 3 40 27 59 22 -36 26 34 27 20 10 -1 -13 32 -23 -28 -3 -2 37 23 27 -25 16 -14 -25 -1 39 14 -9 4 -15 30 42 17 -27 1 -7 21 9 0 -23 -8 30 11 -8 27 -24 1 14 -29 14 31 -24 15 31 -40 24 -19 11 -22 -1 23 -22
33 -32 -41 41 58 9 26 22 44 25 11 -16 -23 6 -7 9 15 -22 -17 14 34 37 -16 -34 -8 6 -13 -3 -17 -5 -28 14 -6 -28 46 -31 29 -5 9 2 5 13 -21 -6 -18 11 34 8 -48 39 9 22 -44 4 -18 -12 37 -2 16 1 -4 28 8 12
-6 14 -58 7 -15 52 -42 8 13 40 -11 43 -55 22 -33 13 -61 4 2 -49 48 -6 -34 22 5 7 -16 55 7 -22 9 -69 -15 9 48 -49 32 71 8 1 -2 -18 -36 -31 58 59 -14 44 0 -7 -34 10 -51 -24 4 -21 17 -42 21 45 41 36 -55 -51
13 -10 -6 19 3 19 38 -1 -3 3 28 15 3 -30 39 42 31 7 -15 19 18 29 -32 -28 -15 -2 45 -10 16 -23 -17 1 69 9 -35 -12 -1 -10 -63 32 19 -7 59 44 4 -68 -45 -24 10 17 0 44 -47 50 -33 13 19 43 30 22 -49 -5 -11 -22
37 -16 17 7 10 25 5 -2 -11 9 18 10 16 31 -10 9 15 24 16 -25 34 -14 -11 11 3 41 1 6 -59 -62 -46 1 -35 -25 28 -50 -38 3 56 41 -8 26 -36 -36 3 34 -23 -27 -27 -12 -36 -31 15 43 9 -8 35 19 8 -1 43 -42 45 25
16 -26 -3 6 46 20 -33 -26 5 45 32 -9 -65 17 -50 -2 -27 16 -3 22 30 -12 23 0 -33 20 37 -14 -28 -42 -18 8 -21 -54 45 -64 -31 44 29 26 -73 -62 21 1 10 78 -28 48 -27 8 -37 7 -11 48 -7 -2 -24 5 20 6 18 43 -48 -64
12 50 21 -10 -30 14 51 45 -1 3 4 -21 -56 -2 51 -5 -28 60 21 3 -45 -4 1 -3 41 -35 49 2 -40 -54 -42 42 24 -29 -31 5 -55 0 -6 -13 -3 -61 -29 -23 63 26 -14 36 -27 32 -17 7 -19 -13 21 -35 25 14 -11 -26 10 30 -16 20
27 -20 -44 -31 32 15 57 -32 14 56 44 -27 -17 -31 3 54 36 -8 10 -18 -24 -52 8 -50 -26 -78 36 -43 -70 -30 8 4 29 -79 -50 -31 32 26 -30 59 -45 -36 53 -1 -10 47 -80 -7 -49 47 -51 37 -5 10 -14 0 -21 11 38 40 -13 41 15 -38
31 -21 -13 20 17 -22 18 -5 20 26 12 53 -16 37 -35 3 12 -19 10 3 -11 44 3 -6 0 -3 18 -48 -15 27 1 -35 1 23 16 52 -22 -22 34 0 -5 -7 -14 -42 24 -22 8 56 55 -49 39 -18 40 -20 8 -11 18 29 7 -2 13 -20 6 -33
-44 -27 -35 45 32 -62 -1 -9 19 -32 -9 -42 40 -44 24 -38 -10 -11 -18 22 32 45 -10 -16 -18 16 -53 33 27 52 38 -46 0 38 -49 6 30 -13 5 -33 -10 42 35 67 -19 -12 21 -35 -3 40 -26 -5 54 0 14 23 -8 40 34 10 26 -8 -52 -47
-11 17 33 -28 32 8 37 31 19 29 41 47 -55 6 -6 -16 -44 -20 19 27 12 -8 33 -5 -12 10 55 0 16 16 2 24 10 15 17 -3 -9 -22 -22 -22 -15 17 -12 4 -4 22 -3 55 31 2 9 -14 21 -12 -24 4 15 15 -22 -22 17 -20 10 -10
-35 35 12 -19 -25 -27 -2 24 15 -25 29 -32 -7 4 28 -15 29 46 56 55 -21 21 -3 -21 -35 28 40 -26 -2 -32 -14 50 9 20 -25 17 -38 17 -46 59 -6 16 18 16 -52 15 -33 12 -38 5 -23 -25 39 7 -59 2 27 11 -27 7 -11 -59 13 59
60 -19 -46 -32 -34 30 32 5 0 -48 6 -41 1 14 -44 -12 -42 8 17 -48 -40 -53 -15 -15 -17 11 49 35 -67 -4 0 13 -50 -34 15 4 -3 -3 -9 -16 -18 -31 -35 -29 44 -14 51 34 8 -28 -36 9 -29 -17 52 -42 38 -44 -23 26 -13 -14 17 -29
31 -5 4 -4 16 16 -27 19 2 22 -20 -3 27 25 10 0 -10 -6 29 -18 29 29 37 46 -3 2 -4 33 -20 -2 20 16 19 -29 40 22 6 10 4 2 22 -15 -26 -27 -17 -34 -6 8 33 -36 42 0 -34 -35 19 8 10 33 24 -12 -16 1 22 18
10 -40 -34 -31 -11 11 2 5 15 -46 37 49 6 23 -33 -11 -36 5 -22 2 -34 32 29 -30 -50 -19 -26 32 -38 21 16 24 -32 11 40 12 -30 -32 18 -19 -17 -30 -13 -1 -5 -12 0 37 27 -7 -28 36 -27 -23 -21 30 -8 -37 15 10 -2 21 -11 -8
35 13 -41 36 35 37 10 -28 11 17 -1 27 2 -61 -32 -21 7 -15 -9 -16 -9 -52 17 -12 -39 6 13 4 1 -22 36 -28 -9 -8 21 -72 15 39 45 -43 -55 19 18 -3 42 40 37 12 44 18 -13 53 26 65 40 -2 16 -4 20 31 50 47 -27 -25
38 -26 -38 -32 -17 27 -23 -22 38 -32 -37 -18 13 -34 -2 0 -29 -25 11 0 6 -40 -2 50 -2 -29 -33 -6 19 -33 -11 0 11 16 30 -36 -29 29 37 -11 -39 -27 -7 0 -14 -11 30 -25 0 -23 15 21 21 1 64 -4 -6 28 -10 33 31 20 14 -56
-19 -26 17 -18 19 -5 41 -2 1 -4 -1 -32 18 47 5 -9 16 -34 29 44 -31 12 -22 -11 -22 -19 -32 -58 6 11 21 22 23 -8 -34 14 19 -15 -2 49 15 -31 7 -15 7 -2 -8 -30 18 40 -9 -13 30 -6 -35 35 44 25 -4 25 -24 -4 25 2
13 29 15 38 -26 33 9 6 -37 25 4 39 -30 -19 -48 18 -45 -7 3 45 -5 16 8 -17 -23 -20 19 -33 12 54 -40 15 -36 -32 52 24 -24 -36 -32 -17 23 -19 -55 -23 -12 -11 -31 0 2 -53 -15 36 -3 31 -24 -14 -34 -10 -25 5 26 6 -1 18
-30 20 19 -43 17 -32 13 25 -10 -21 -34 1 -36 -13 29 6 6 -8 -2 -15 50 43 -13 -16 8 62 -10 -48 9 -24 24 -27 -19 2 -32 32 37 24 -9 12 -26 0 27 32 -73 -14 -42 -14 12 43 24 -57 23 -7 0 8 -20 -9 38 -40 5 21 25 28
-37 2 1 9 29 -45 13 -43 -27 -1 -23 -64 20 37 13 -21 4 -38 -28 5 16 -4 -33 11 37 -25 31 -52 -4 -23 -14 -5 3 13 -16 5 -8 -34 18 54 39 4 55 37 -39 30 2 14 -55 30 -26 32 4 -2 -12 9 13 3 27 -41 -4 -28 16 -3
15 -40 -1 1 -8 -49 -35 -47 46 2 -30 54 -15 -28 28 -14 22 2 -5 -43 20 -42 26 -15 -10 3 -59 21 -17 10 -5 -55 -10 2 -25 7 24 38 3 -32 -2 -31 -45 18 28 -29 -38 -10 15 36 -3 -13 21 -19 5 9 -57 18 32 -1 -6 40 -36 -15