-17 27 -6 1 -57 69 -59 -13 -52 68 -14 -34 -4 -5 -29 -11 45 -35 24 -35 16 4 -14 61 40 27 18 14 5 28 -11 -8 -84 -26 36 -33 54 28 -21 -8 64 17 -12 56 64 -66 -39 -18 -33 -29 34 14 -8 38 22 21 65 15 -8 -3 26 -72 -19 -22
-2 -9 67 -38 -26 -35 30 -1 21 -94 -35 -36 48 16 37 48 14 26 -23 8 6 18 -10 -21 -48 -33 -52 -16 8 -27 37 56 -17 45 -6 21 26 22 4 -13 -36 3 -39 9 5 33 -1 6 37 43 -46 -59 3 -39 -76 24 30 17 28 17 -35 49 12 32
-5 22 68 16 -40 69 -30 17 26 -11 55 35 -65 11 55 -31 26 60 -19 14 10 -55 5 -76 10 -33 8 -12 20 13 23 33 81 -50 31 4 7 10 -13 18 -71 14 -38 -107 1 -10 13 29 -20 22 -37 -45 -1 8 58 44 17 7 6 -12 12 12 28 33
48 -6 -36 -8 -14 30 -98 -11 -38 -8 -29 -8 6 -6 -7 20 22 63 -5 36 4 -36 -31 40 37 15 -36 -8 1 71 -23 21 -15 0 -16 -19 28 20 13 26 -25 21 28 -41 -2 -36 24 50 55 -106 -42 23 -43 -12 7 -24 38 11 -47 -42 60 -36 1 31
-10 42 -31 1 -52 57 -28 53 -50 18 -23 -42 19 15 18 -26 24 42 -9 7 34 -16 -17 72 -9 38 -1 -16 -33 13 -48 -30 -11 -8 10 21 53 70 -24 -19 24 -4 15 -3 14 -11 -40 -20 19 -49 7 -40 -29 47 28 -8 91 -42 -38 -2 -47 -12 -23 -27
-22 -21 -34 5 50 -15 -29 30 46 75 47 -41 9 21 -60 22 -7 4 -3 -13 21 -22 16 -6 -41 55 45 28 -46 -54 21 -6 -71 4 20 20 -61 -16 5 -38 11 63 -54 38 50 -51 -47 -25 -29 10 74 62 18 30 -72 37 3 27 76 -17 -32 26 31 -22
-38 18 50 -8 36 8 -7 39 39 -2 -12 -17 -20 60 22 -19 16 61 4 -10 -47 7 73 -31 -40 22 7 1 10 -25 30 76 30 28 -51 -5 4 60 -39 50 -6 -19 -55 -60 -27 -38 -35 4 19 69 -3 -60 39 -66 -11 50 -6 28 6 17 -39 25 7 37
-13 36 -31 -2 -29 7 -67 -6 -33 62 -53 15 2 -15 11 -40 -39 -28 42 -1 13 -31 -26 82 23 -31 0 -12 29 17 17 -23 -8 -48 32 -8 -20 -7 -20 38 72 15 -15 3 32 -21 -25 65 -48 -74 10 14 -37 -33 13 -8 -8 0 -59 -8 -28 -77 -6 18
1 -12 -27 -18 -21 11 -47 -16 -41 -5 -50 5 38 -62 -25 -4 -13 -28 16 -40 27 7 -4 70 -20 23 -49 -49 10 3 -8 -34 -86 44 -34 25 -14 -40 -10 25 5 28 -24 45 17 -20 -27 8 26 -52 -10 -1 -49 24 45 0 0 -12 -65 -48 -11 19 23 -49
14 12 -52 15 -49 69 -7 -6 -53 47 -39 43 47 -49 1 37 -8 -55 40 -27 36 21 -13 89 -15 -1 -13 12 4 -3 15 -49 -103 -11 9 -20 11 -21 -27 -4 20 -1 10 59 36 -71 16 18 -43 -52 38 8 -59 40 42 -58 -20 27 12 -9 48 -57 16 -16
6 50 -42 0 35 -6 -58 -1 -8 60 4 16 -9 -21 -40 34 -57 -55 6 0 56 19 0 107 -20 25 15 61 -53 -13 24 -53 -90 -13 29 -3 -26 -44 33 -23 38 30 -13 64 66 -43 -23 -18 -4 24 61 25 17 54 -31 -16 44 -34 -2 9 41 -5 -14 -68
-3 17 -57 46 14 8 -3 -41 30 55 -23 30 23 -43 -53 30 -9 -23 18 -26 65 56 5 50 -38 6 19 -36 3 50 -11 -88 -31 35 8 -23 -20 -52 -17 -5 4 28 41 47 8 -3 1 -49 2 -35 12 10 -5 42 20 -25 -39 -28 6 -43 30 34 32 -7
48 8 -9 -33 6 -14 58 -48 -60 5 9 7 -48 -24 -1 49 18 -31 -23 -15 -31 -13 17 45 34 -15 56 -19 -13 48 -15 28 12 73 -33 -12 -4 -36 -34 20 16 25 32 -56 -60 24 44 -67 -10 -20 -17 -2 -21 26 86 -31 -65 -47 -18 7 -21 -5 -23 7
18 29 -59 25 -13 16 -40 -3 -38 4 -8 -14 -38 -60 40 -28 -13 -31 -22 -32 46 -12 -50 50 86 3 3 11 3 87 -31 -90 -55 -50 -8 -84 62 -1 24 -28 25 -40 30 70 15 -35 55 20 -30 -79 -53 70 -26 73 -4 -24 -12 -40 0 31 60 -23 -24 -53
-4 17 -40 44 -76 41 -74 67 -4 -50 72 -3 -5 -50 14 -28 -2 70 -13 18 33 -85 11 29 8 -12 -20 35 -20 -27 -42 -40 -58 -36 113 -82 -3 77 49 -34 -35 -43 -29 36 16 37 26 18 -34 -57 -38 66 -78 32 28 -34 56 -26 -11 12 37 23 -11 -53
-29 51 -9 19 -27 34 -96 -5 -6 28 -62 43 64 -49 -12 -43 -57 -57 42 -27 71 -41 2 87 -34 25 -35 25 -23 13 59 -67 -46 -39 5 -47 -17 33 -9 -49 23 13 -53 56 73 -60 -47 79 -42 -52 24 14 -44 56 -18 -46 57 33 29 -23 6 -22 -9 -8
-8 -17 6 -8 -22 8 40 -5 3 -16 8 25 -52 22 -12 0 -42 18 -12 12 22 -22 -13 -16 7 13 -20 21 -10 -21 -3 84 1 10 31 11 18 -45 6 61 -9 4 -2 -9 -53 20 -21 -16 14 27 59 17 -55 -44 -29 -9 22 -13 77 25 29 -35 -30 23
-10 41 -13 -32 -42 48 -34 -54 73 -14 -57 17 35 -44 2 37 -41 -3 50 -72 0 12 -27 55 -58 58 -64 20 -2 -14 -25 -56 -4 -15 4 -67 -3 46 -36 -9 -61 4 11 79 48 -4 -7 -43 -15 8 -34 4 60 39 2 16 -69 -31 22 6 -12 33 -24 -92
-38 27 25 -68 -2 10 -102 39 -17 -3 -6 -48 9 -5 -15 16 -10 5 -25 6 13 30 -44 -10 -6 8 -28 39 -25 10 0 -26 0 21 -4 59 -16 25 2 -23 -27 6 25 6 -12 -10 10 -10 -24 13 7 39 46 -33 -15 55 6 8 -5 -1 10 64 -41 8
2 -17 17 9 36 -36 69 -86 3 15 -12 -16 26 -73 55 2 -4 -37 44 -31 30 29 -65 29 34 11 39 -14 8 22 -1 -23 26 33 -7 23 10 19 4 18 -26 -30 52 23 -35 16 -28 -33 -28 3 -26 -24 -15 -12 23 -13 -51 -26 -15 -17 34 -7 10 2
-8 -18 54 19 -45 43 26 -24 -43 18 -26 4 -76 -30 46 38 58 40 45 -34 1 15 -7 -45 -19 -58 -45 41 -17 -22 25 2 15 -19 6 51 -33 4 0 25 12 6 3 5 -32 -55 -52 9 -15 -55 40 -39 -1 13 -32 2 -39 37 -1 -20 51 21 -44 -47
80 3 -90 36 62 -25 16 -19 32 -4 16 -35 37 -64 -52 16 4 -30 20 -19 0 30 12 44 -26 25 6 -33 32 12 12 23 1 -32 -86 -10 -5 24 69 -34 -26 -22 13 -26 -1 26 -55 -3 -21 36 -30 15 -13 27 30 -31 -40 -35 63 34 29 29 24 46
39 -10 5 21 21 -21 22 0 39 69 7 -33 -18 6 8 21 30 -75 -34 -55 -34 -1 -4 52 -50 -2 8 -19 -12 37 -29 -8 10 13 -34 -47 3 -1 47 -54 13 -11 16 18 36 -3 -39 -24 22 47 2 -17 -7 -34 51 -15 69 39 31 -34 2 23 -2 -63
58 -15 -33 53 -2 41 -64 4 39 7 57 -26 15 15 -60 -31 45 7 -4 -12 -27 -31 -62 5 43 23 43 -25 -43 -33 -42 -24 -10 -65 7 3 20 62 36 -32 -65 36 39 -37 13 24 9 20 12 20 -31 -2 14 -25 2 19 81 -32 -34 60 17 51 -1 -19
-41 -44 14 -12 -16 33 1 -8 33 -1 36 -53 -55 24 20 -15 -5 6 33 -17 -42 17 37 -34 -2 25 5 15 -29 -58 30 3 -3 24 -40 -14 -15 18 -22 11 34 -42 7 17 55 -55 -3 62 11 26 -14 -12 52 17 -43 12 39 -19 41 5 25 -23 -4 -3
-28 35 -15 -19 -77 49 89 -65 4 30 -7 -10 -8 7 36 18 27 -38 -16 18 -9 37 -30 11 15 30 7 -35 19 16 31 -78 -19 33 4 -5 7 -10 2 -24 2 6 9 10 19 -32 -22 -3 -67 -47 -33 -40 25 33 2 17 -4 0 -10 64 -51 18 -18 41
-56 36 1 -53 44 34 -5 88 -44 12 26 -4 4 80 -45 8 -33 25 -23 0 -40 50 84 -18 -6 -22 -33 39 -29 -12 -55 23 22 71 31 -10 -27 10 -8 12 8 -6 -32 -40 -11 18 39 -2 -14 29 70 8 6 -3 0 37 41 -7 41 13 -28 -30 51 51
-21 0 14 -19 -78 -9 -6 43 35 -20 -22 -16 -4 -25 7 -23 -9 27 26 54 9 -30 40 -41 -4 -7 12 65 -24 16 41 46 -14 10 49 6 32 -13 4 -32 13 7 -31 -11 -17 49 59 -3 15 -17 27 -42 -33 -28 -59 -13 14 12 12 23 -32 -42 -8 6
-14 -15 -36 22 23 -14 47 4 12 -41 4 -20 4 30 -34 31 -19 44 -44 13 11 -20 58 -2 -32 19 -14 52 -17 -28 -23 65 -27 -7 -2 -38 -52 38 7 -18 -11 11 -42 -18 23 70 22 -23 18 24 8 1 -18 -37 17 -38 33 -51 -16 -12 -40 23 51 -51
42 10 -35 33 45 -21 39 -52 35 6 -28 58 0 -66 66 -33 8 -75 -18 -1 -10 41 -50 19 21 13 44 13 36 26 31 -25 0 -50 21 -30 45 -11 -10 -16 -4 3 -8 14 -4 2 -40 14 -2 -4 -68 54 29 -3 -2 10 -51 -67 17 39 34 28 -10 -4
67 -5 -26 20 64 -13 -71 2 33 26 -12 46 77 -57 -57 -20 19 -84 6 -45 48 -15 -56 36 -49 6 -11 -70 -39 5 6 -68 -34 -21 -57 -106 29 19 41 -46 -15 9 -26 3 -12 1 17 -19 -67 19 -35 83 0 50 -30 9 24 -26 27 -3 3 69 -19 -57
9 14 7 -23 9 -5 -98 26 40 -59 -5 9 9 -5 20 -2 -35 37 44 7 -9 -75 -18 9 -33 38 -41 24 -46 -3 -28 11 -26 -22 24 5 25 65 30 -24 -24 5 -23 -28 42 20 6 -28 17 -12 -22 47 5 25 -41 -34 5 51 -21 -20 8 6 -47 -17
6 10 -40 -29 31 -8 62 23 -36 7 -33 5 -12 11 5 53 31 88 8 44 -38 -14 46 -41 -30 -40 -2 18 -6 -49 33 64 15 -79 -8 -3 -77 34 85 -11 32 -13 -15 -36 6 21 -12 30 -31 35 -54 -5 8 -22 -25 21 20 14 24 7 -40 36 -12 24
-5 -43 -41 77 -34 28 -5 -5 -30 16 29 -20 -32 61 -68 -45 -71 64 11 23 1 48 55 7 45 -20 26 17 -20 14 -17 -33 -77 -20 -26 6 -51 -11 44 -40 78 35 -62 4 11 0 56 17 -24 -41 71 17 -52 -66 3 -5 -12 -53 3 -43 33 -35 20 -9
-28 19 43 78 -52 -29 -98 28 -61 -37 46 -27 -14 3 -55 -31 -7 7 -6 14 96 23 -36 29 61 50 -55 48 19 21 -39 -47 -52 46 61 22 -5 -20 30 0 55 -9 8 8 -13 -9 51 15 31 -17 40 -3 -45 29 19 -27 -21 -109 -36 -11 71 -47 -14 -3
27 -16 9 -25 16 -56 60 -27 2 43 14 -5 46 -58 44 55 71 -18 -17 51 -67 -28 -19 7 -93 -62 17 -47 7 -53 43 14 58 12 -38 -5 50 61 -27 30 -61 -35 48 -31 -80 8 -100 -27 23 33 -72 -55 51 9 36 -14 -9 42 14 38 -26 1 -19 2
15 8 -25 50 -24 27 -76 30 -38 -45 7 -8 15 53 -27 -33 -51 60 3 13 39 39 49 13 58 7 -10 3 16 11 -7 -14 -63 13 33 -8 6 30 52 -61 -12 -9 -29 -15 34 10 77 37 -19 1 -11 9 -61 11 -34 -39 35 -66 21 -2 23 -23 -5 8
-38 14 -84 13 37 31 28 -14 45 23 -17 13 -57 29 32 60 -5 9 7 -2 -63 -64 19 -56 -16 -3 68 -28 -43 -33 -35 11 42 -60 -36 -61 -45 -18 56 5 12 -23 24 -59 6 16 -15 -14 -20 21 -62 -23 25 60 25 3 7 72 -1 18 -6 13 10 -32
24 13 32 -62 -59 6 -40 -25 -37 -18 8 -8 9 -52 -29 -53 28 -78 1 -29 -13 3 -66 44 49 23 -10 -44 32 21 52 -68 24 36 -2 -36 103 38 -55 25 -51 -35 -19 27 26 -3 -19 -34 -37 -37 12 -59 -27 -10 -18 -43 12 -47 -4 -9 -21 -39 -52 4
-21 11 -34 20 -8 -7 102 21 34 -44 34 18 -21 52 -14 6 -51 74 -43 69 4 -27 71 -50 20 -12 31 26 -44 -29 -54 27 -2 -40 -35 28 -69 24 33 8 70 47 20 -112 -40 -13 45 10 24 18 9 18 -3 -3 14 -32 -23 -27 6 44 -8 -19 72 81
16 4 -47 48 -1 45 -16 -8 -5 15 -27 -22 -76 12 -22 -12 -12 -25 57 37 14 30 -1 -5 56 53 12 35 17 42 -42 -21 -42 -24 -45 33 -37 -14 22 37 58 12 -44 13 -9 10 -21 -8 34 -1 109 22 2 4 -19 -11 -6 -58 -20 -46 21 -61 -25 58
-26 7 -25 22 11 -53 82 -32 -14 43 68 -83 -20 -36 2 22 5 11 20 62 -62 -31 -32 3 -16 -86 30 19 -5 -24 -23 -1 8 22 -51 39 -2 0 -31 88 65 5 19 -21 -41 25 0 5 -11 75 14 -20 1 -13 -18 -45 -31 3 33 2 -1 -1 -5 95
44 33 54 -18 -44 8 -82 9 6 12 22 8 45 -45 -24 -36 37 -37 -40 -51 80 -5 -30 76 -9 44 -87 16 8 79 38 7 13 98 63 7 60 15 31 -62 -22 2 -52 127 6 30 26 -49 61 -46 -26 -1 -4 -23 -7 -71 -17 -29 -43 -43 -23 23 -7 -25
-17 -14 42 -53 23 -37 8 -36 -12 22 -9 -7 27 -34 -26 20 29 -53 -13 3 -3 52 -79 26 -82 19 -93 -45 -35 36 9 -9 41 -24 -4 -2 62 -3 42 15 -36 -33 35 56 -62 44 -81 -24 26 11 -39 -6 62 -18 48 2 5 8 18 -10 -55 40 -31 10
30 -6 16 -77 -38 -42 -42 -31 52 -18 -5 25 52 -29 20 12 71 -36 -19 14 -4 -37 -71 27 -45 -5 -88 -47 39 33 59 6 40 15 10 -9 64 10 -58 -22 -43 -28 69 34 -4 47 -31 -44 20 36 -61 -26 27 6 44 -15 -8 38 1 37 -43 47 -34 -14
29 -23 29 1 -45 -9 -18 -46 -5 -7 31 -25 61 -51 -2 -30 57 -75 -20 -63 0 26 -67 32 -4 27 -26 -14 -6 7 22 16 44 57 14 55 76 58 -83 14 -37 -14 -3 44 -62 -4 -14 -28 -28 -15 25 -13 -8 -24 31 7 19 20 -27 10 -34 -5 -47 2
-30 28 -37 -50 6 -70 62 38 -14 77 -22 9 -70 6 26 69 57 -56 -46 47 -70 -34 -21 4 -68 -60 34 -55 -57 6 -41 14 0 -45 -26 34 -30 -38 -8 48 55 37 85 -37 -55 -8 -40 -18 4 41 61 -28 4 5 26 33 -15 66 18 -28 -23 25 43 25
41 13 37 79 16 60 -57 43 -64 7 30 20 14 62 -5 0 -50 1 -12 -15 21 18 58 24 57 12 -19 66 20 13 3 4 -79 -1 46 34 -14 -2 73 -21 47 -8 -79 33 24 -13 60 53 26 4 55 42 -44 -43 -20 11 3 -53 19 -54 44 3 37 1
25 67 45 -40 -25 85 -28 -14 -11 47 12 25 23 6 -7 31 -18 -9 -28 -42 -48 27 81 40 37 41 12 -3 16 -65 -42 -47 -33 -24 -15 19 -15 18 -9 -31 17 -14 -35 27 27 58 22 34 36 -56 0 -36 -44 37 24 -22 25 43 -32 -13 1 6 -8 -16
-8 33 24 -31 -10 6 -30 -27 -22 26 -42 12 7 54 -25 -29 -17 60 -14 -13 50 -43 -32 30 29 61 -44 -30 -35 -23 -5 -9 13 0 -23 -26 15 61 80 12 -93 -1 81 -8 -41 61 -17 -45 16 -12 -57 -54 -18 -24 21 12 -14 -4 21 1 -17 4 29 -28
22 -39 -6 13 52 -30 -5 14 29 -31 -1 -14 34 -21 -19 -21 2 -2 -61 0 -42 -31 -88 -27 80 -25 -3 -12 -14 62 -38 -36 -17 34 18 -1 11 9 -13 48 33 21 0 32 12 76 -24 -71 0 63 -16 4 -4 -52 -6 59 -93 -63 25 -7 26 6 17 -8
-53 21 19 -23 -6 -25 20 1 17 -53 -53 -7 -32 52 38 5 8 -46 -48 6 22 -15 29 -62 7 -36 -35 -23 74 32 -38 30 39 19 -37 -80 8 42 28 13 27 10 -8 -12 5 -15 10 28 23 -18 -11 -1 12 -24 13 32 49 45 -48 -32 34 -66 27 -21
-16 -19 -22 34 18 11 -72 -4 37 58 24 -26 -6 4 -9 -56 18 -3 6 -36 -52 7 -53 34 -2 34 4 -2 -87 -34 65 -13 -18 21 21 79 -29 -71 7 -29 -53 -59 -48 7 -28 30 -44 -24 -57 43 -24 7 38 63 36 16 -22 12 26 45 -45 21 -9 -37
16 -10 37 -21 -25 -21 -19 -11 -13 37 54 7 -24 -26 -28 43 -44 -11 4 -4 -7 -75 29 44 40 49 56 17 -59 4 -22 20 27 5 -12 -40 -10 62 -37 70 15 20 27 38 21 39 3 -12 -34 17 42 -34 13 27 -40 -14 -47 -11 -71 3 20 -3 -19 -2
-42 -25 -27 -9 1 11 32 11 2 -34 -46 21 47 74 21 -6 -5 73 17 9 -16 48 -2 -30 -73 -64 -36 28 87 -49 -46 6 4 -8 -27 -76 -24 9 20 -25 13 0 7 3 -27 -55 27 -15 22 10 -6 -27 7 -35 -22 46 39 1 -13 5 -75 -4 21 58
46 -14 -31 -6 66 -64 16 -12 -5 12 23 -23 -16 62 27 -22 6 7 -59 41 15 22 18 -42 -7 19 24 15 56 -8 25 44 -33 -18 15 -7 23 -30 1 1 -48 -1 -20 14 -20 72 -17 11 43 14 42 -9 42 0 4 33 -1 87 62 27 14 -37 -18 11
11 27 -20 27 14 -86 14 -19 -35 -47 -54 -20 6 25 21 -1 28 -7 -12 55 20 -69 35 -37 -47 -25 26 -2 4 79 -59 18 8 28 -21 -87 27 61 12 18 16 15 16 -2 -29 -15 8 30 -28 -18 8 -9 11 -14 16 11 10 76 -48 -29 1 -49 20 56
-3 44 -27 -39 -19 -93 16 -57 -21 -3 -74 13 11 -17 48 8 0 67 -8 49 41 -74 -35 8 -29 9 -33 -45 25 27 -78 15 -17 13 19 -11 40 54 36 37 -36 -10 23 3 -84 -9 16 -51 -12 -34 -23 -11 -1 -30 4 5 21 25 -42 -42 37 -62 -44 48
46 -20 -27 -6 46 34 24 0 17 21 0 4 -21 47 2 21 -14 90 70 -10 17 31 -51 -7 -7 40 29 18 6 -13 41 -26 1 1 17 27 -19 0 13 -12 -11 -28 10 -12 -36 11 11 -8 -35 16 -3 31 71 8 -28 -17 -1 -7 -29 60 -48 14 -9 68
45 4 8 0 6 -9 -55 -32 -23 44 -19 12 21 7 16 -63 43 17 -20 -19 36 -31 -49 14 10 -5 25 22 -42 35 -5 -2 -31 66 59 52 12 -20 7 -21 -35 26 8 49 46 58 10 -30 31 41 -15 -32 23 -36 33 -10 -46 -36 35 53 8 -13 -45 -14
-5 -73 46 -38 4 -31 -40 -37 -22 -45 79 69 -26 9 85 -58 18 14 -23 -12 41 -4 -3 58 34 43 39 -7 76 85 -40 -8 16 4 28 -46 -11 -10 107 -46 -6 17 -35 -27 -27 -61 41 11 33 -45 25 -21 98 -25 9 -53 20 15 -76 -55 1 -23 -2 10
-17 44 35 52 -17 5 -31 50 1 30 -45 22 -28 -23 0 21 -9 -78 -15 49 20 -6 0 -5 -18 35 17 -7 -1 5 -43 38 -12 -40 -54 -65 -37 36 -42 3 -23 -8 20 -1 30 -27 58 67 -18 -33 7 42 -51 33 -29 1 15 7 -23 -9 47 -19 -2 6
-12 31 81 -11 -20 42 -52 13 -10 5 2 -21 -19 -66 5 31 -23 -31 3 -43 -26 -44 48 18 9 2 -20 13 -17 1 0 -50 3 -20 54 40 12 -17 -10 -32 36 -7 -7 18 28 -18 8 -23 -7 -42 -11 -48 -15 89 60 -24 -13 -22 -31 -25 -50 0 23 -58
-10 42 43 -28 -45 27 13 10 -39 -32 -49 15 -18 11 8 26 -24 87 9 21 -10 -72 -2 50 3 -63 -35 -33 22 24 -69 -5 20 -73 -39 12 31 48 12 53 27 -14 98 -43 -48 -48 21 -11 -26 -64 -51 17 -34 12 25 13 3 -17 -32 -23 -29 -7 13 50