-20 -4 6 13 12 -24 2 -33 -20 -2 6 6 -15 -6 8 -6 -14 27 31 -2 9 -18 10 20 39 -4 69 12 10 1 0 -2 11 4 -75 -12 9 -6 1 3 6 45 14 -35 41 38 9 -14 0 25 20 60 -14 2 -3 42 9 5 53 3 -55 26 54 -12
-11 -17 25 49 46 20 33 11 -40 -37 10 94 -11 18 -74 -27 16 42 4 16 -23 -34 -29 -8 28 14 29 20 2 26 -3 4 -18 24 20 -21 -11 -25 21 -8 40 13 53 -26 -9 -12 8 -33 12 -14 14 33 -9 56 -25 19 -58 -38 32 0 -44 55 -52 10
-112 -58 10 21 -80 -67 -12 39 -49 30 55 69 -79 48 -25 71 -17 2 -23 -11 -10 24 33 -66 -4 -23 8 2 -35 43 2 -23 -22 1 -36 18 34 14 -35 42 11 29 1 -1 27 -4 3 -26 67 -13 10 -68 40 -2 25 -4 -68 9 -52 -17 50 -18 12 67
57 -19 2 -56 2 -7 41 -55 2 7 -14 -39 -82 8 22 -7 6 10 -23 -28 41 52 42 -74 -80 -13 -32 -33 -40 -73 73 63 28 13 -2 13 19 27 -50 7 -63 -38 -10 -10 -21 59 -28 3 44 9 24 -51 3 63 69 -49 -24 -1 43 -5 -7 48 -40 21
25 -8 -29 -38 -9 -3 -4 -17 42 -9 -9 -21 11 -18 9 8 -15 3 -30 39 -9 24 34 -8 -11 -15 -45 29 6 -22 17 -45 23 -43 -36 50 -3 6 -31 -17 15 -25 -19 -71 -41 12 -10 29 -33 11 7 -10 -42 7 15 13 -2 13 -16 -6 -22 3 -22 2
18 -1 -50 -1 16 38 -6 8 36 1 -1 23 10 16 0 -19 0 43 -68 42 10 -22 -9 58 67 69 -15 34 63 -16 -87 -72 -5 -35 -46 25 -17 -6 14 23 -33 5 30 -11 26 19 40 37 -38 10 23 26 7 24 -31 36 2 24 -32 -40 -29 -27 30 -58
-7 11 -18 12 22 8 0 24 18 17 26 30 23 12 0 -2 -41 -8 -20 -12 -17 -27 6 -23 20 4 -42 -6 16 -36 2 -34 17 39 -46 2 31 -12 -6 -14 -2 27 -41 23 32 -3 21 -6 10 -13 6 -15 -22 0 -37 -22 8 -76 -61 49 -40 -48 45 5
36 -39 -13 -70 2 -34 8 -40 0 -3 -27 -32 7 -19 -14 18 9 -19 -9 -36 15 20 8 -41 -36 -10 46 -29 -54 -39 30 21 -21 -77 22 27 -28 19 -19 15 -30 13 15 -20 -3 22 3 17 -1 -22 18 8 -2 -13 -16 -62 -39 -18 49 2 -57 67 14 84
26 -30 44 4 -13 46 37 16 -4 -1 -32 -2 -19 -21 14 -32 17 13 -39 22 26 19 -17 -44 -12 -20 -24 20 10 -24 65 2 -1 -69 3 -55 -20 -8 -17 4 17 25 15 47 -36 38 -15 6 -25 2 6 -35 12 12 -9 -35 -7 4 59 -44 42 51 -22 5
-30 -39 12 31 5 -15 19 -13 23 -15 7 47 -7 26 17 33 -2 -29 59 -48 -36 -7 26 55 60 -20 -19 -27 0 27 17 47 1 -14 -3 33 -8 9 -8 -2 6 40 -4 4 9 -6 1 3 19 -83 20 -41 13 -7 -4 30 -16 -36 -44 -33 35 -7 -73 48
39 48 -46 -6 -22 -27 -42 -8 -35 -4 -14 -24 29 -47 -70 -30 -13 18 28 -9 -17 3 19 18 -11 -16 -7 -9 -42 60 19 32 -12 23 17 44 6 12 -49 36 45 27 -17 -25 -6 -17 19 -4 -17 55 30 -11 -73 22 -25 15 36 32 49 -34 -2 -6 34 -63
7 -32 -37 14 -46 -32 -6 -42 -26 20 39 -16 -19 -21 3 -7 14 -19 25 -5 -19 -15 4 11 0 30 -24 -27 8 -19 25 31 -32 5 18 3 34 42 -15 43 -9 11 18 6 -5 -31 32 6 27 -48 12 22 30 -3 17 66 24 -18 7 26 -10 -2 -32 -1
-45 -22 65 -49 -15 -2 -26 16 -11 5 -36 7 3 -15 -5 -42 -56 63 30 -26 23 -22 -8 -8 -25 -18 1 -42 -9 36 35 42 -5 6 11 25 0 -22 10 -26 -23 48 -32 -29 11 -41 19 8 -30 -38 -57 25 -2 -7 54 -34 26 -15 5 21 50 7 -4 -35
22 10 -19 -10 6 22 60 -46 22 -9 -30 -19 -48 32 -7 22 -23 14 -41 13 56 10 -12 -35 -26 3 59 13 -51 -20 -41 -50 -11 11 -1 58 -50 23 -1 -15 11 -47 -42 -30 13 6 -51 59 -45 22 51 39 -19 14 -25 -19 17 22 72 14 -38 47 -5 40
-35 -27 -31 13 20 41 15 -2 6 -30 -16 33 19 -22 15 14 -12 -32 6 4 -1 41 34 3 1 -23 -16 22 17 -49 17 2 -14 -27 25 -57 -5 43 -30 -11 1 -8 7 78 -5 11 13 15 4 16 -58 -17 46 -40 38 32 -9 -56 -72 34 34 -90 19 -23
31 22 -12 -11 -5 40 -25 -36 34 -15 10 -45 34 5 41 30 -12 -52 -53 78 34 28 50 1 -1 -9 -11 36 12 -74 12 -95 51 -12 23 -1 -24 24 12 22 -6 0 -34 18 -28 4 -23 13 16 24 -27 -9 1 -21 9 19 2 -15 -57 11 -65 -67 31 -3
-71 -11 21 41 79 28 38 37 16 -35 55 48 54 44 -30 69 -75 -35 5 37 21 21 -2 -32 -59 -64 40 60 -27 -6 -24 -48 -41 35 -1 -49 26 -40 24 -29 -8 -42 35 5 -30 39 30 22 -7 39 -30 19 -41 -20 2 26 44 20 -31 -24 -31 -9 41 -33
56 61 -46 2 13 2 -22 -30 -24 19 -14 -31 6 -12 40 -27 -26 -35 12 -23 51 -2 -24 12 25 36 53 -26 -10 -17 -66 1 14 16 -17 35 -32 -27 20 -1 -53 -63 26 -28 -46 -75 -24 -4 -26 -13 18 30 -9 -25 -17 -45 17 -8 23 1 -93 52 24 35
-43 -32 58 -28 -54 6 34 -17 -8 -40 -8 32 -18 -2 77 48 -56 -20 -25 28 12 13 25 41 -34 -3 -7 15 -18 14 -18 -32 11 -11 3 -21 -9 21 -25 12 16 -5 31 29 -50 -57 -23 -15 -57 38 -5 -2 -58 -2 -46 9 34 34 30 -23 -31 21 -12 -5
2 24 -21 -18 26 34 -13 -41 47 -3 -22 -19 40 16 44 11 -27 6 -23 3 -37 72 18 -40 -51 -58 -24 36 -9 -27 49 -52 -45 -9 43 -19 -11 13 -10 -20 -34 6 -39 -39 13 -6 -15 1 -37 -25 20 42 9 3 -39 17 -9 -8 -15 25 -41 34 -23 3
-1 -10 48 25 57 23 -22 2 -4 -50 -20 -4 14 -23 -26 1 50 -22 41 -9 -36 -28 23 87 51 55 3 -40 24 47 11 43 -21 2 -12 32 -27 18 0 4 -57 -16 -35 -33 19 -5 -24 23 52 -13 -3 22 38 23 -8 40 -46 -46 -49 36 25 -12 -54 15
-14 -20 -20 -60 32 38 7 -50 0 38 -7 -13 -12 -9 3 9 24 21 -17 -41 -13 20 31 -23 -39 -10 -21 -28 -36 49 -21 38 7 -8 31 9 29 -3 -8 20 -2 35 9 12 27 -33 -9 35 -6 43 -37 -22 -19 -24 26 -47 16 11 3 -1 -34 -56 77 -71
-18 -41 27 13 -25 -2 -26 9 8 -11 -32 31 -26 12 -2 22 -34 -28 -47 62 41 -66 -41 71 59 53 -16 19 21 12 -43 -66 7 32 -6 39 28 -18 18 -17 -8 -10 9 22 1 -18 1 51 28 4 11 -59 20 9 -30 13 -10 -74 -30 17 -34 21 31 6
41 -8 -1 -26 -28 15 27 23 -15 4 -31 20 8 11 35 -43 45 -20 41 -1 -27 -4 53 61 50 -5 -47 -37 43 66 27 51 -40 -57 -5 -4 -25 -26 4 -4 -5 17 7 -11 -34 -28 -38 -7 -21 -28 16 -2 38 -1 17 14 3 -11 5 53 18 15 -47 39
-21 -44 19 -17 18 32 46 -28 27 10 -26 -8 -34 17 -19 -3 -31 35 43 -19 35 -81 -68 -18 9 29 68 -6 -44 80 -66 25 34 -33 40 -19 5 36 -64 23 -11 31 4 36 5 23 -20 -4 -21 -20 38 39 13 -1 54 49 -23 65 20 42 23 2 -7 62
-30 17 9 31 -40 15 -17 24 -10 -24 43 40 -31 10 30 -21 72 19 -12 -23 -63 3 -15 27 61 14 -24 -22 29 -13 2 -5 -19 -18 -5 0 18 0 72 13 -14 -43 -16 -10 6 -49 15 -23 12 4 53 -20 -12 10 90 19 24 30 27 54 5 39 -39 36
57 -40 18 -23 -44 4 -13 10 19 -25 -21 23 -13 -28 10 34 -39 23 -14 53 -32 -12 -3 31 42 -45 -56 36 0 -18 -53 -54 11 -1 33 -45 47 8 -35 -39 46 52 26 26 -35 -13 4 -21 -56 -13 2 8 -1 37 -51 14 -17 9 -53 -12 6 -44 -13 25
-38 23 -39 29 1 -37 -42 -18 5 -22 34 -5 10 -29 -25 -32 16 46 16 16 21 -38 -84 67 55 65 -2 71 -11 24 -59 -36 -1 -5 -9 31 14 24 -26 -8 -14 -2 -19 -3 4 13 34 12 6 48 -25 70 -28 17 -60 -16 -7 -13 15 35 -68 25 63 -11
0 -30 0 7 35 26 11 36 37 72 37 2 -40 51 52 20 -59 8 3 50 47 40 1 -69 -104 -76 15 22 -41 0 1 -15 43 4 -17 -11 -21 -14 7 47 -7 -5 -31 49 19 8 -72 0 -5 16 13 -68 -18 37 -55 -21 10 90 77 -57 5 -34 -10 1
7 -4 9 -51 8 -36 5 -57 29 14 -32 -37 -22 -31 13 -33 33 25 49 -58 26 4 -44 -38 -24 27 52 -61 -65 71 4 66 13 13 -13 40 2 -28 4 -6 42 39 -3 -7 17 59 -11 2 9 -13 -16 -16 -18 35 -2 -15 -32 -29 11 1 -25 30 -7 -49
11 45 6 -5 -18 -42 -7 1 -39 37 9 -51 -6 -13 -8 -9 46 -39 2 -47 -84 79 34 26 -18 46 -69 -19 98 13 78 71 21 -28 -29 -22 -6 19 -14 14 35 -31 20 48 -41 14 28 -5 22 -59 -41 36 51 18 -25 -22 -7 -60 2 22 64 7 -49 35
27 42 -10 -28 5 14 -12 38 3 -17 6 -35 7 22 12 -12 -36 -59 -92 75 26 37 30 -35 -55 -65 -57 43 9 -94 -13 -66 -3 -22 -8 -10 2 6 2 -29 -14 -19 5 -31 11 -33 -5 22 -59 -26 -94 -1 23 4 13 -4 34 -10 -52 40 12 -74 -6 -2
-34 -63 58 4 14 20 2 36 1 -18 41 2 5 19 -12 102 -71 -19 -36 16 43 21 30 -51 -56 -49 63 71 -77 -55 -9 -70 20 -5 -14 -7 -49 -39 6 -59 1 11 -9 -26 -49 -23 -45 -24 26 24 12 -26 -32 5 15 20 0 16 24 -37 13 -31 -6 -4
-21 -65 27 -53 -8 -8 11 22 9 0 -38 8 28 14 36 26 28 47 7 -15 -20 -51 -24 -28 12 -18 -24 -52 -31 65 -12 33 32 15 55 -11 -1 -57 26 -15 34 2 48 -4 -38 12 7 -17 -23 -18 -26 10 -25 44 6 -24 33 -27 6 38 -22 -43 -36 -15
-23 32 10 21 2 -40 -54 3 2 -27 -1 -25 -10 -9 -8 -3 79 -55 114 -37 5 -90 -70 69 96 15 53 -9 -38 127 -31 57 17 -60 57 -4 -4 31 -30 5 16 -27 28 -10 -35 -43 -10 9 11 10 -5 46 -4 -23 12 -13 -24 8 -6 -17 -41 51 36 -5
18 65 62 18 3 5 1 41 -3 -35 -47 23 57 -3 -6 -7 -33 26 -4 30 23 -31 -33 4 0 -22 24 -5 6 32 -48 -24 -18 10 -68 11 -23 12 76 -20 -25 38 29 -64 16 16 -4 -28 19 -6 -43 21 -14 7 31 37 10 4 -24 30 -29 6 -9 -36
43 23 -6 -66 -8 3 -21 -46 0 6 -52 -67 4 -41 -23 1 -1 19 -15 -50 -52 -9 -5 36 28 35 -11 -55 65 -15 8 2 11 -20 -28 41 64 92 -68 42 -78 57 -35 30 96 -52 -26 45 -21 52 5 -20 -70 81 -78 36 34 29 -7 -17 -1 -28 -8 -34
4 24 -4 10 16 12 11 27 -13 -16 -15 28 76 -24 -16 -47 44 20 17 16 4 27 8 19 18 15 22 -12 12 -4 54 9 -21 53 -16 -22 -7 5 -4 11 28 -20 8 -26 40 -7 34 -32 19 43 7 8 -11 -14 14 -45 37 19 5 -20 -28 -7 17 -41
6 -1 -29 10 -7 -39 8 2 10 -6 34 20 -26 6 -22 -25 -64 -21 -30 22 44 -35 -9 19 11 -10 7 43 13 -30 -54 5 -5 -3 13 18 -89 33 30 25 -37 -15 25 -32 -13 -6 -57 -33 -24 -59 10 3 -10 21 -52 27 -8 6 44 -15 3 30 -85 12
34 54 8 17 3 -51 -8 35 23 0 20 -15 16 -18 -36 -36 -31 -43 5 -32 59 9 21 -13 -51 20 52 -49 -53 2 39 1 7 67 -1 -32 39 -27 -4 -11 -33 -2 -3 18 37 3 -5 -33 -11 27 17 -17 7 20 30 -17 10 16 8 -31 25 45 37 52
-27 -33 -11 -38 -34 61 12 -56 -3 -48 -44 -22 3 -43 61 -6 -2 -14 6 18 9 -66 -47 -33 53 19 -69 -21 -8 39 -35 -19 10 15 -15 25 40 -4 -37 30 41 -57 -16 58 41 16 -18 -11 -61 -6 -2 49 3 15 -3 -38 57 14 -22 27 -17 -23 73 -61
35 31 -73 41 33 -14 -43 -44 -26 18 -62 -7 10 -35 5 -28 -9 31 16 32 46 -23 -24 44 37 -10 48 44 7 -27 -77 -7 -7 4 -30 -9 1 34 1 -27 -29 13 5 32 18 -44 -36 19 0 3 90 -53 -9 -3 5 44 -32 -12 -28 -19 6 -38 6 3
9 29 95 31 22 1 -31 72 -24 -12 -12 -3 36 -42 1 -42 3 -34 -34 -31 -42 76 61 0 -7 -14 -37 -30 -1 -73 51 16 -29 10 3 -28 -44 -6 45 -64 47 -39 -4 13 -47 -36 15 -3 -4 -19 -21 28 3 48 -52 -54 1 -42 -1 65 -42 -1 26 -17
-43 -12 -17 -30 -77 6 -25 -2 -9 12 -2 -14 -46 58 27 32 4 -12 33 -27 -4 18 11 19 -36 15 6 17 -36 30 43 19 -30 -24 -15 30 -46 -1 16 -9 -15 -5 -4 -28 32 6 -9 -17 -6 -21 -24 -36 4 -1 19 3 7 22 -16 10 8 -7 -3 7
39 -8 -6 -28 -6 7 -15 -9 26 30 -4 0 33 -38 -42 -18 -4 -56 -56 15 -15 -60 -34 91 71 37 -42 57 67 -34 -69 -40 41 -28 -3 -51 29 -37 13 4 17 -19 -41 23 -46 6 42 -21 41 17 -9 -45 -12 15 30 -83 -38 -34 2 31 48 -5 29 -4
-4 11 28 13 -1 2 -2 12 -32 -10 1 15 -17 37 15 -26 -11 37 15 -11 -31 2 28 -6 -5 -22 -40 -28 12 15 31 49 -47 28 -32 -12 19 -52 14 -18 42 1 -17 31 27 -10 -11 -24 -24 8 61 -24 -33 -19 -41 -2 -9 27 44 -1 -5 17 -78 -7
20 12 -10 12 5 -13 -4 -8 -1 0 -44 -45 28 -29 -68 -28 -24 -21 40 -4 37 -1 -12 -1 16 0 20 -4 -64 30 -37 16 5 -46 -12 -12 -10 5 -20 -5 -3 47 4 -14 18 -28 -49 3 8 -7 -4 57 8 -55 16 19 -26 -32 -24 39 -71 -57 46 10
17 -35 -20 8 -15 20 -24 -6 13 41 -15 -27 -43 26 -1 3 -13 -29 11 -2 51 6 0 53 -4 16 28 18 1 -25 -17 13 35 20 -12 40 -1 58 -32 37 -25 3 -34 -18 9 14 31 3 20 3 0 -30 0 5 -21 -4 -34 28 58 -17 72 3 -49 29
12 -73 18 -37 -7 12 25 9 22 -7 -30 19 30 1 15 0 73 -9 72 -40 -66 9 -24 -20 12 5 16 -32 -11 45 -4 87 14 19 -10 -7 -13 -55 -6 12 19 35 40 -33 7 17 3 -64 -14 -46 -43 52 74 56 -28 34 -6 -20 12 43 4 10 -32 42
-14 -29 -46 15 4 -20 32 -27 56 1 12 -8 17 -19 12 -27 18 16 -41 -22 -54 39 8 -47 -59 -12 -25 29 10 -26 70 0 -6 0 -25 -36 -32 -2 -4 16 0 -3 -31 -2 -11 27 21 -4 -15 -21 -38 -44 21 16 -18 -47 -7 -15 -31 18 23 14 -22 -31
11 27 -23 28 -36 33 11 -14 -7 -22 -5 -3 -7 14 -59 -25 -30 -1 -48 -11 9 18 25 -46 -22 -18 -35 -30 -47 -30 -1 -5 -30 -15 -20 -5 21 29 1 73 -11 -51 -36 -20 29 26 -24 0 26 -44 42 -49 -8 -28 89 64 -73 71 7 -45 23 -2 13 38
2 19 -23 -17 -62 -7 -37 -17 -43 -12 -19 -67 -21 42 20 -14 60 -18 1 -24 0 16 -14 -3 -4 64 -3 -25 -1 34 -25 24 35 18 -19 12 6 -20 -22 -42 19 1 -13 17 11 75 14 31 -36 45 -6 3 -34 -24 -15 -31 6 3 2 28 -15 -4 3 -40
14 36 29 22 -15 34 -15 8 -14 15 30 -10 18 17 27 2 -26 12 -6 17 -23 30 4 -11 -45 13 -4 44 -23 6 31 8 5 1 -36 -49 -13 -37 25 -47 42 55 -12 40 1 -26 -17 -22 -9 20 -49 4 -8 -2 30 -35 29 -12 -32 -4 46 -46 -7 -67
17 44 57 -10 -35 -18 -36 23 -38 25 -26 -25 -31 15 -57 -35 -18 -17 -26 3 -70 -7 61 47 8 13 -99 -15 59 -61 10 -45 2 3 8 51 24 50 -8 10 -12 -63 -12 8 4 -7 10 45 24 31 33 5 -56 -41 100 -12 -8 68 25 -83 -8 -50 60 -39
29 38 -32 -4 64 14 25 -20 22 43 16 30 -4 84 -14 34 25 30 40 -35 -33 -19 -11 -24 33 44 71 -42 -42 62 -38 11 -12 41 -2 12 17 20 11 -33 45 15 10 16 31 -18 -36 5 4 22 34 -1 -35 -18 36 39 37 53 -1 -70 6 -15 17 -55
-28 23 17 39 47 -1 4 63 -39 -1 82 23 -14 60 -12 7 6 41 76 44 -44 -36 -56 8 26 5 -21 18 39 48 13 44 13 -28 8 41 10 25 -20 -5 34 -45 32 21 -19 -41 12 -20 -5 25 12 41 20 -44 -24 -39 -2 -16 29 -19 24 -17 3 -12
-25 27 5 65 32 24 -27 22 -6 2 25 23 16 12 53 -9 26 -13 -6 7 13 -32 -38 59 5 10 4 23 34 -18 -71 -1 -56 -12 37 10 1 0 21 -6 -2 19 16 45 -7 -20 42 -36 -28 -11 7 5 25 -34 0 25 33 7 -6 25 -14 -43 -4 32
18 26 -20 29 11 -5 -49 19 7 -3 36 -7 1 22 16 1 44 -6 -6 25 -4 -5 21 -52 -48 -29 -16 39 4 -26 -18 -28 -21 42 -12 13 42 -3 -27 37 -16 -10 12 7 21 -3 28 -35 17 22 16 2 46 -42 65 11 -3 31 9 -35 41 -40 24 5
-39 0 -45 48 -7 -28 21 -5 -1 -3 31 7 -7 -38 5 -16 61 -15 -6 -37 -20 52 75 45 18 -17 -39 -44 57 -29 51 54 -22 4 0 -22 17 -12 -10 18 -6 1 -33 20 -14 9 39 -3 -1 -39 -1 18 18 -35 -20 -62 -25 -73 -18 42 -8 67 -42 62
14 13 48 47 29 14 -9 47 18 -34 -15 11 -13 2 -6 1 -18 -52 3 40 12 49 61 20 -10 -48 11 17 -4 -47 9 -1 -9 -2 -33 19 23 19 -1 32 -18 -29 -5 -7 -37 13 4 -20 21 -44 15 8 22 -35 -8 -11 -36 -20 -5 -4 -29 14 19 50
-30 10 -13 -11 -39 -22 -9 -57 17 -28 0 -31 14 -4 -8 -1 40 13 56 -41 14 46 47 12 -17 -6 40 -7 -7 2 14 2 -18 19 -33 -1 3 1 -4 42 -37 -36 21 -7 21 30 19 -2 46 -42 25 70 28 -5 29 1 -25 -55 -17 31 -53 14 1 29
55 2 -35 11 52 -29 11 -9 34 -3 -12 -26 6 -57 -4 33 -12 25 -12 2 35 12 29 -11 10 -3 -19 8 19 -58 54 19 13 7 31 -29 6 30 -26 -26 3 44 -31 -6 15 9 49 19 15 -2 22 22 23 -53 -14 -18 -7 -18 -36 -39 -28 -28 33 -51
-25 -60 62 36 -41 4 -35 29 11 -15 60 46 -22 53 0 44 -7 6 -14 15 35 -33 -10 14 35 0 31 31 13 -38 -65 -78 19 44 -9 33 -53 -49 21 -79 47 9 26 -55 -48 -21 -16 -28 3 25 33 48 5 -23 41 -28 3 34 33 -25 1 29 19 -15
17 32 -8 1 46 21 3 -3 20 2 -2 -1 15 -6 9 -23 -20 -4 -42 -1 6 -12 30 -46 -38 -30 -7 3 -39 -20 -25 -27 -11 5 3 -19 -6 -13 28 -32 13 28 3 -2 -11 20 11 -6 13 5 -66 34 2 38 29 -45 -20 -3 -2 33 -28 -14 5 1